//Numpy array shape [512]
//Min -0.354734420776
//Max 1.189145207405
//Number of zeros 0

#ifndef B10_H_
#define B10_H_

#ifndef __SYNTHESIS__
lstm_5_bias_t b10[512];
#else
lstm_5_bias_t b10[512] = {-0.1365882754, -0.1363832057, -0.1306720078, -0.0981489792, -0.1236546636, -0.1505626738, -0.1386955976, -0.2234893143, -0.0737707838, -0.1008120477, -0.1043648645, -0.1066991463, -0.1140288338, -0.0924808830, -0.2290679961, -0.1574115306, -0.0921191648, -0.1521146148, -0.0926546007, -0.1494094580, -0.1167291254, -0.1375352293, -0.1337487996, -0.1237119064, -0.1277001351, -0.1663981080, -0.1188075915, -0.1967869401, -0.1123859882, -0.0641690046, -0.2144414186, -0.1850785017, -0.0757883042, -0.1990171224, -0.1518101096, -0.1713539213, -0.1100003123, -0.3196448386, -0.0824536756, -0.1188877672, -0.1040446907, -0.0583632886, -0.0446555130, -0.1465344876, -0.1421566606, -0.1419588029, -0.0865321755, -0.1194091141, -0.1323070377, -0.0845792219, -0.1791244894, -0.1179897860, -0.1093802154, -0.1157045811, -0.1280953884, -0.0456166826, -0.1070160046, -0.1087958217, -0.1920361668, -0.1281613111, -0.0980409533, -0.0998076126, -0.1315443516, -0.1910892874, -0.1258230656, -0.1255611628, -0.1959643662, -0.0310760420, -0.0708613619, -0.2963029444, -0.1726242155, -0.1323343515, -0.0730926022, -0.1859307140, -0.1990327239, -0.2263911963, -0.0773932487, -0.0978143215, -0.1295509338, -0.2125816643, -0.2074340284, -0.2652873993, -0.1451753676, -0.0967864245, -0.1050468311, -0.3547344208, -0.1225353032, -0.1496476680, -0.1986238509, -0.1228204146, -0.1741619557, -0.1098398045, -0.0919750705, -0.1727841944, -0.2370823622, -0.0557219349, -0.0980604514, -0.1231017187, -0.1471077204, -0.1781913191, -0.0718078688, -0.1551858485, -0.1046405658, -0.1279091388, -0.1435082108, -0.1133021861, -0.1325806975, -0.1189927310, -0.2149392217, -0.1278639138, -0.1669591963, -0.1474111080, -0.1736853570, -0.0877681747, -0.0312993899, -0.1566987336, -0.0769237578, -0.1629284769, -0.1314718127, -0.1178745553, -0.1405515969, -0.1487786621, -0.0885105506, -0.1091197208, -0.1075429022, -0.0461731739, -0.1856169105, -0.1681358516, 1.0821982622, 1.0399260521, 1.0750119686, 1.0185023546, 1.0678617954, 1.1171979904, 1.0423635244, 1.0868939161, 1.0687826872, 1.0891538858, 1.0504699945, 1.0045182705, 1.0585893393, 1.0797954798, 1.1706054211, 1.0974578857, 1.0850261450, 1.0409778357, 1.1090226173, 1.0446859598, 0.9863888025, 1.0469580889, 1.0100526810, 1.0644755363, 1.0521335602, 1.0427142382, 1.0403696299, 1.0974984169, 1.0395953655, 1.0629311800, 1.1568541527, 1.0876020193, 1.0564544201, 1.0945299864, 1.0909297466, 1.0442613363, 1.0622278452, 1.1386491060, 1.0592397451, 1.0539847612, 1.0473486185, 1.0559614897, 1.0884928703, 1.0612128973, 0.9922388196, 1.0967589617, 1.0260678530, 1.1184567213, 1.0155106783, 1.1891452074, 1.0677146912, 1.0477398634, 1.0557694435, 1.0643930435, 1.0314189196, 1.0656912327, 1.0700387955, 1.0155637264, 1.0836164951, 1.0295693874, 1.0610160828, 1.0170665979, 1.0515718460, 1.0459053516, 1.1351850033, 1.1533179283, 1.1004767418, 1.0706681013, 1.0911570787, 1.1704808474, 1.0610202551, 1.0842672586, 1.1072859764, 1.1399024725, 1.1321071386, 1.1653809547, 1.1179516315, 1.0820482969, 1.1180937290, 1.1110765934, 1.0852699280, 1.1305065155, 1.0606226921, 1.0316122770, 1.0288134813, 1.1029100418, 1.0079835653, 1.0286194086, 1.0802172422, 1.0454127789, 1.0780147314, 1.1011215448, 1.0650844574, 1.0388231277, 1.1129659414, 1.0833462477, 1.0377317667, 1.0799331665, 1.0084840059, 1.0506637096, 1.0642908812, 1.0195292234, 0.9964884520, 1.1007401943, 1.0595406294, 1.0407787561, 1.0299520493, 1.0126637220, 1.0175633430, 1.0530792475, 1.0229508877, 1.0647933483, 1.0318742990, 1.0495846272, 1.0754798651, 1.0865316391, 1.0728840828, 1.0655339956, 1.0592863560, 1.0299206972, 1.0236613750, 1.0847302675, 1.0133118629, 1.0357284546, 1.1111185551, 1.0558317900, 1.0402429104, 1.0798654556, -0.0013941315, 0.0205591004, 0.0313435681, -0.0135010490, 0.0292970538, -0.0121190483, -0.0231708698, -0.0244159531, -0.0133814234, -0.0562441014, -0.0355272740, 0.0110251587, -0.0406359509, -0.0275690313, -0.0220474582, -0.0036444475, 0.0075723305, 0.0054474822, -0.0147427982, 0.0166998412, 0.0189953838, -0.0216787700, -0.0184536427, 0.0068199113, 0.0034290233, 0.0831122324, 0.0322196782, -0.0189712066, -0.0087153502, 0.0320923738, 0.0193027966, -0.0167907272, -0.0562902726, 0.0258649364, 0.0117584402, -0.0422045626, 0.0164033696, -0.0618474297, 0.0069327094, 0.0264052488, -0.0155809997, 0.0068166559, 0.0121734422, -0.0107637299, -0.0237474274, 0.0116899330, 0.0336563401, -0.0280657336, -0.0157348402, -0.0576803572, 0.0182474554, -0.0186038651, 0.0126760080, -0.0568391234, 0.0501069985, 0.0138046611, 0.0365388691, -0.0098325117, 0.0208654292, -0.0498758852, 0.0363912284, -0.0050546271, -0.0053960881, 0.0158306919, -0.0019302807, -0.0003954845, 0.0228426792, -0.0180464052, -0.0134816570, 0.0026446942, -0.0473624803, -0.0107269119, 0.0009713129, -0.0011489640, 0.0280627608, -0.0143003268, -0.0422779247, -0.0543611534, -0.0080514485, 0.0078539103, -0.0402897373, -0.0127617549, -0.0288889278, 0.0331243873, -0.0123859132, 0.0484549515, -0.0000937575, -0.0194272585, 0.0017116345, 0.0145919714, -0.0116720516, 0.0293751899, -0.0144837247, 0.0012501599, -0.0303334128, -0.0277568754, 0.0004742831, 0.0332918949, 0.0246083941, -0.0306770429, 0.0287431404, -0.0129632745, -0.0073758513, -0.0345828049, -0.0282842014, -0.0051556770, -0.0031861011, -0.0112609332, -0.0146604059, -0.0383958332, 0.0239546597, 0.0395174585, 0.0215853434, 0.0321757197, -0.0143857747, -0.0082036024, -0.0105513791, -0.0629349723, -0.0137764001, 0.0048119728, -0.0166731179, 0.0120642437, 0.0050497772, 0.0467765667, -0.0112172151, -0.0141584221, 0.0247123633, 0.0181098208, -0.0112607116, -0.0846331045, -0.0450083502, -0.0452166386, -0.0642735809, -0.0417213738, -0.0593571588, -0.0225861017, 0.0007640235, -0.0272333715, -0.0625188276, -0.0489170142, -0.0178207289, -0.0706801414, 0.0198911019, -0.0306424294, 0.0079038618, -0.0899442881, 0.0454453304, -0.1171786934, -0.0757929981, -0.0559406057, -0.0872085169, -0.0237678252, 0.0217658766, -0.0510238744, -0.0683363229, -0.0039730361, -0.0417639799, -0.0242676530, 0.0640021265, -0.0894301087, -0.0792478547, -0.0115943868, -0.0389873870, -0.0618013367, -0.0097593293, 0.0009180347, -0.0798312873, -0.0589454770, -0.0495512299, -0.0293772016, -0.0346337259, -0.0613133870, -0.0489849336, -0.0193424784, -0.0424827673, 0.0519648641, -0.0743045732, 0.0350405611, -0.0640250519, -0.1027313843, -0.0065297815, -0.0544117428, -0.0713457614, -0.0392833985, -0.0562656187, -0.0770384669, -0.0898365155, -0.0498559400, -0.0561332814, -0.0519004017, -0.0408077873, -0.1058356389, -0.0311124809, 0.0241284743, -0.0663001910, 0.0355560482, 0.0064320718, 0.0262539741, -0.1094463840, -0.0493387356, 0.0067961281, -0.0025358028, 0.0169325434, -0.0117664579, -0.0419837013, -0.0610534325, -0.0616435707, 0.0221304540, -0.0689152628, 0.0116995564, -0.0244589821, -0.0405485332, -0.0816513374, -0.0402015671, -0.0563056953, -0.0859527662, -0.0596303232, -0.0729562715, -0.0583774596, -0.0743623674, -0.0003988716, -0.0821457133, -0.0092620598, -0.0556100532, -0.0537537411, -0.0592707545, -0.0147250211, -0.1110773459, -0.0509665310, -0.0719611421, -0.0761995837, -0.0610430948, -0.0536117069, -0.0423049703, -0.0858724564, -0.1172825247, -0.0881363451, -0.0208010711, -0.0727356747, -0.0806816369, -0.0693215728, -0.0668723658, 0.0289619751, -0.0250189900, -0.0103750443, -0.0566330589, -0.0698579475, -0.0750558525, -0.0243304912, -0.0846798643, -0.0752903745, -0.0401060134, -0.0807038471, -0.0373722948, -0.0769324973, 0.0254632961};
#endif

#endif
