//Numpy array shape [512]
//Min -0.179656967521
//Max 0.187048539519
//Number of zeros 0

#ifndef B11_H_
#define B11_H_

#ifndef __SYNTHESIS__
dense_4_bias_t b11[512];
#else
dense_4_bias_t b11[512] = {-0.0033624310, -0.0544035397, -0.0364325717, -0.0461919308, 0.0638965294, -0.0665812418, 0.0226713233, 0.0591741689, -0.0185506381, 0.0047979592, 0.0443970673, -0.1192664132, 0.0153283309, -0.0156076634, 0.0585239008, -0.0823311210, -0.0475731567, -0.0655870512, 0.0075709899, -0.0966715440, -0.0667947084, -0.0034717091, 0.0974916443, 0.0383575149, -0.0025667357, 0.0215709042, 0.0016800313, -0.0925384089, -0.0507461019, -0.0133521874, -0.0152269639, -0.1778802276, 0.0740538165, -0.1044824421, 0.0685710385, 0.0817740485, -0.0038866415, 0.1076047271, -0.0318844318, -0.0133232111, 0.0144549822, -0.0747931227, -0.0012595125, 0.0798711628, -0.0854218379, -0.1383086294, -0.0460738689, -0.0293595567, 0.0159306657, 0.0424875952, -0.0534033328, 0.0789164230, 0.0995598063, -0.0902163386, 0.0432496481, 0.0763529241, 0.0243005604, -0.1610906869, 0.0225693453, -0.1382603496, 0.0911045521, 0.0910689309, 0.0002584811, 0.0620874725, -0.1317981780, 0.0083766496, 0.1212003231, -0.0339882523, -0.0862219110, 0.0406960323, 0.0988547802, 0.0927914977, -0.0167660899, -0.0914795026, -0.0532073304, 0.0503009781, -0.0463790894, 0.0281140860, -0.0446134247, 0.0659844950, -0.0270177275, 0.0155437663, 0.0330558456, 0.0971955881, 0.0609919429, -0.0001543467, -0.0086113038, -0.0553231351, -0.0355196260, -0.0763678998, -0.0991959572, -0.0349560976, 0.0342842676, -0.0893983170, 0.0993294939, -0.0390269011, 0.0581867434, 0.0938809738, -0.0922081098, 0.1073710322, 0.0704475194, -0.0830811933, 0.0548783019, -0.0436554849, 0.0264250915, -0.0634552911, -0.0076600537, 0.0929431394, -0.0215178840, 0.0312080551, -0.1031727046, -0.0588475280, -0.0225611497, 0.1184437573, -0.0777404830, 0.1161865890, 0.0024283552, 0.0671004876, -0.0541044623, 0.1481339633, -0.0476771817, -0.0483774990, -0.0190077815, 0.1093032509, 0.0316585004, 0.0705451742, 0.0731992647, -0.0957415476, 0.1041171178, 0.0972035602, 0.0840228572, -0.0761454478, 0.0448264144, 0.0542762093, -0.0504754595, 0.0419929512, 0.0298452415, -0.0165940132, -0.0983737856, 0.0895435587, -0.0660348162, -0.0634946972, -0.0491325483, 0.0213648751, 0.0261990502, 0.0517080612, 0.0353039391, 0.1699126065, -0.0747914016, -0.0220017675, 0.1125926375, -0.0706645995, 0.0375640690, 0.0233125836, -0.0545048378, -0.0666477010, 0.0261523388, -0.0119221378, 0.0052176230, 0.1444431245, -0.0217697714, 0.0034994725, -0.0587768853, -0.1029351577, 0.0835876018, -0.0976328701, -0.0947814435, -0.0984201655, 0.0043427409, -0.0807051361, 0.1205807477, -0.0439679101, -0.0488345586, -0.0596223585, 0.0741617009, 0.0146023883, 0.0940749347, -0.0299624484, -0.0832174420, 0.0629815906, -0.0647094250, -0.1341774762, 0.1395988166, -0.1236765757, -0.0960702673, -0.1149523705, 0.0526554361, -0.1058419272, 0.0797096193, 0.1120824739, 0.1714868695, 0.1016224623, 0.0884151906, 0.0549903177, -0.0660378262, -0.0050884280, 0.0610570498, -0.0443443023, -0.0950198472, -0.0963679925, -0.0249513406, -0.0306962244, -0.0683513954, -0.0566857643, -0.0284319259, 0.1870485395, 0.1105353236, 0.0475352407, 0.0172664430, 0.0070747919, 0.0131661342, -0.0458672605, -0.0861891657, -0.0534179360, -0.0041332892, 0.0063022738, 0.0645836070, 0.0614395998, -0.0318865925, 0.0812438056, -0.1078050807, 0.0194034558, -0.0125222551, 0.1026222855, -0.0201559700, 0.0913298205, -0.1010534018, -0.0812904537, 0.1163209975, 0.0357191414, 0.0645481721, -0.0640864298, 0.0556682311, -0.0091090314, 0.0284247529, -0.0060846070, -0.0522598997, -0.0716980472, -0.0750747845, -0.0327313952, -0.0428598598, 0.0828581303, 0.0452017039, 0.1382565945, 0.0102230404, -0.0034398451, 0.0628421828, -0.0550228395, 0.1748687476, -0.0412979983, 0.0399721302, -0.0437173918, -0.0740589797, -0.0804942474, 0.0630470365, 0.0744768903, 0.0779860094, 0.0029454294, -0.0457556248, -0.0162215941, -0.0813518688, -0.1033751369, 0.0699347183, -0.0560253933, -0.0363944396, 0.0493575446, -0.0340594687, 0.0208117981, 0.0452726111, -0.0205376893, -0.0763775706, 0.0185791906, 0.0100300489, -0.1320766509, -0.0312735215, 0.0481958501, -0.0838708058, 0.0757639334, -0.0108070225, 0.0264024679, 0.1104774773, 0.0000608209, -0.0878209993, 0.0305330176, -0.0492928363, -0.1405489594, -0.0994395018, -0.1084587574, -0.0973513201, -0.0248325299, 0.0210612901, 0.0041907788, -0.0863291398, 0.0799547806, -0.1112511754, -0.0855356529, 0.1069515198, -0.0606530122, 0.0036528492, 0.0093387635, 0.0725741759, 0.0553709939, 0.0754014775, -0.0089584794, 0.1210836247, 0.0954753980, -0.1220961660, 0.0086870389, -0.0349122584, 0.1386325359, -0.1012773663, -0.0119185438, -0.0026856866, 0.0859649628, -0.0508255437, 0.0109265298, 0.0991872326, 0.0185022745, 0.0554437935, 0.0549164414, -0.1359858662, -0.0873984322, -0.0309089459, 0.0022430811, 0.0754362866, 0.0398604050, -0.0346119106, 0.0330413282, 0.1069551185, 0.0925714225, -0.1079372838, 0.0086802635, 0.1352287233, 0.0003274150, 0.1185248271, -0.0504445024, -0.1478337049, -0.0053633107, 0.0044115423, -0.1601159126, -0.1004647091, 0.0150882490, -0.0817827359, 0.0239065737, -0.0054298406, 0.0164343752, 0.0630106553, -0.0157145709, 0.0927053690, -0.0296619106, -0.0984967351, 0.1252226233, 0.0747230724, -0.1300760955, 0.0299699530, 0.0635642782, -0.0330172032, -0.0875558108, -0.0709574074, -0.1377750933, -0.1169922873, 0.0042573237, -0.1796569675, 0.1009656265, 0.0265891217, 0.0210250467, 0.1379150897, -0.0515829176, -0.0269765984, -0.0528074875, 0.0374701843, -0.1698651463, 0.1331179440, 0.0827936232, 0.0960866511, 0.0176217332, -0.0589976385, 0.0234835837, -0.0109946122, -0.0933696255, 0.0662927106, 0.0468772799, -0.0311173592, 0.0966469571, 0.0189152490, -0.1216844544, 0.0186601076, -0.0526446924, -0.0069898595, -0.0825179741, 0.0001361011, -0.0330910906, -0.0506566688, -0.1054341421, -0.0902645513, 0.1337812990, 0.0326634273, -0.1109751165, 0.0183231011, -0.0980938748, -0.0418373980, -0.0961084738, 0.0625229925, -0.0492700338, 0.0408050306, -0.0912969708, -0.0848931521, -0.0914989710, -0.0953151584, -0.0193769727, -0.0257536173, 0.0158574060, 0.0608438998, 0.0162932109, 0.1684589833, 0.0119484058, 0.0125763826, -0.0985562056, 0.0475583188, -0.0255516358, 0.0924868956, -0.0219435059, -0.1276667714, -0.0176456701, -0.0464796349, 0.0819046125, 0.0614415109, -0.0159089323, 0.0581308380, -0.1595724374, -0.0387296379, -0.1489987522, -0.0045156297, 0.0207195804, 0.0766645297, -0.0537903160, 0.1074239686, 0.0719197243, 0.0016871984, 0.0823728144, -0.0530233420, 0.0558616444, -0.0412122309, -0.0604371876, 0.0141594401, 0.0034107582, 0.0314530209, 0.0755229816, 0.0011949297, 0.1148639768, 0.0116081042, 0.0187229645, 0.0711560845, 0.0572503321, -0.0714087263, -0.0628238991, -0.0722541660, -0.0458878241, -0.0355146080, -0.0623322837, -0.1083568409, -0.0199240893, 0.0358018056, -0.0250072107, 0.0571614467, -0.0950651094, 0.0577379316, 0.0999139473, 0.0023730525, -0.0279551316, 0.1297955066, -0.0701677501, -0.0725008994, 0.0482951328, -0.0092586521, -0.1576330066, 0.0656089336, -0.0123886410, 0.0601191632, -0.0085564824, -0.0590524413, -0.0346290953, -0.0808626115, 0.0663897544, -0.0266015716, -0.1364457905, 0.0095191076, 0.0173914973, 0.0098920148, -0.0456025116, -0.0276172683, -0.0073620649, -0.0255565830, -0.0967750698, 0.1042993963, 0.0648724809, -0.0636596605, 0.0042360090, 0.0212237462, 0.0452985577, -0.0353981629, -0.0072940593, 0.0873728245, -0.0818518251, 0.0224881116, -0.0827516466, 0.0902228951, 0.0319902860, -0.0867183954, -0.0202840902, 0.0874041468, -0.0334721021};
#endif

#endif
