//Numpy array shape [512]
//Min -0.444666117430
//Max 1.149047851562
//Number of zeros 0

#ifndef B9_H_
#define B9_H_

#ifndef __SYNTHESIS__
lstm_4_bias_t b9[512];
#else
lstm_4_bias_t b9[512] = {-0.1729488522, -0.1105793864, 0.0250050165, 0.0253472142, -0.0165228136, -0.0026262358, -0.0906806812, -0.0884641409, -0.1110987887, 0.0420915447, -0.0109119723, -0.0468448475, -0.0377734303, 0.0502471626, 0.0342131332, 0.0312063899, -0.1848894060, -0.0340848044, -0.0983082578, -0.0625658408, 0.0273238122, -0.0410757996, -0.0001329063, 0.0400073379, -0.0126386639, -0.1063440815, -0.0255697239, -0.1117985472, -0.0846946165, 0.0330228657, -0.0976475179, -0.1119781956, -0.0498967990, 0.0567828119, -0.1191953123, -0.3169208169, 0.0422263034, -0.2277767956, -0.0273053907, -0.2979192436, -0.0709746778, -0.0886610597, -0.1025746390, 0.2698595524, -0.0460763201, -0.0481527187, -0.0335089676, -0.0409961306, -0.0158541612, 0.1056997404, -0.0332369991, -0.0223090779, -0.0519386977, 0.0364842266, -0.0039273240, -0.0582885556, -0.0840351582, -0.2180546671, 0.1486303210, -0.0324799158, -0.3563255966, -0.0604369529, -0.0734962076, -0.2435293794, 0.0045989929, -0.0137807792, -0.1065819934, -0.0254496746, -0.0163524467, -0.0339681096, -0.0033112953, 0.0154040577, -0.0832370520, 0.0765392333, 0.0022689931, -0.1004788205, -0.0778006390, -0.0620681345, -0.0582404621, 0.0390186645, -0.1145398468, 0.0938235968, -0.1565595716, -0.1996757835, -0.0255918857, -0.1081577092, 0.1071684659, -0.0542672798, -0.0223423466, -0.0171623882, -0.0167531930, -0.1121447980, -0.0338879600, -0.1080241203, -0.1909741014, -0.0902867466, -0.0322293676, -0.0309755020, -0.0197141301, 0.1675912142, 0.0341790915, -0.0957005024, 0.1920673549, -0.0278596655, -0.0209768955, -0.0506628305, -0.0381931700, -0.0612892061, -0.2984729707, -0.0662327409, -0.0576577261, 0.0375418365, 0.0232407823, -0.1794126630, -0.2924879491, -0.1189176515, 0.0036367215, 0.1171336174, -0.0901261121, 0.0133112846, 0.0255449843, -0.0114823254, -0.0372294933, -0.0502932929, -0.0359020978, -0.0582339764, 0.0072700428, -0.0718604997, 0.9914380908, 0.9888120294, 1.0138416290, 1.0605880022, 1.0386501551, 1.0279629230, 1.0367528200, 1.0749652386, 1.1206629276, 0.9989885092, 1.0011363029, 1.0079981089, 1.0197060108, 1.0136663914, 0.9935330749, 1.0274411440, 1.0572881699, 1.0133882761, 1.0310178995, 0.9764600396, 1.0406463146, 1.0594387054, 0.9966304302, 1.0273728371, 0.9815795422, 1.0837150812, 0.9923008680, 1.0806940794, 1.0396419764, 1.0144257545, 1.0028778315, 1.0465570688, 0.9940492511, 1.0299694538, 1.0924611092, 1.0635203123, 1.0726923943, 1.0872807503, 1.0493786335, 1.0730830431, 1.0049936771, 1.0821647644, 1.0043230057, 1.0444918871, 0.9767758846, 1.0349582434, 1.0351762772, 1.1215665340, 0.9792534709, 1.0416184664, 1.0139359236, 1.0137346983, 1.0110182762, 1.0145977736, 1.0404219627, 1.0219492912, 0.9986296296, 1.0534907579, 1.0439149141, 0.9865389466, 0.9868804812, 1.0053615570, 1.0677874088, 1.0283727646, 0.9999896288, 1.0060639381, 1.0464191437, 1.0932418108, 1.0432022810, 1.0724948645, 1.0385837555, 1.0022534132, 1.0064107180, 1.0220136642, 1.0049313307, 1.0600553751, 0.9639054537, 1.0436285734, 1.0785446167, 1.0770779848, 1.0105212927, 0.9795417190, 1.0074301958, 1.0559297800, 1.0021765232, 1.0198594332, 1.0382266045, 1.0114185810, 1.0244382620, 0.9946261048, 1.0718168020, 0.9609967470, 1.0099695921, 1.0267632008, 1.0319142342, 1.0428957939, 1.0066041946, 1.0347918272, 0.9697757363, 1.0359681845, 1.0734641552, 0.9805214405, 1.1490478516, 1.0824078321, 1.0280749798, 1.0545674562, 1.0320377350, 1.0198130608, 1.0565274954, 1.0431234837, 1.0159049034, 1.0138746500, 1.0559166670, 1.0279967785, 0.9812739491, 0.9679833651, 1.0230613947, 1.0246971846, 1.0175548792, 1.0328133106, 1.0018850565, 0.9896538258, 1.0112291574, 1.0087147951, 1.0627050400, 0.9828884602, 1.0110977888, 1.0258297920, -0.0822174624, 0.0310485531, 0.0207354948, 0.0025363367, -0.0368968211, -0.0822187886, 0.0706018507, -0.0081854323, 0.0217310917, -0.0201583318, -0.0268570259, -0.0647174045, 0.0274187345, 0.0857268050, 0.0499728210, 0.0326264277, -0.0078598140, 0.0814174339, -0.0098622460, -0.0098855989, 0.0202913731, 0.0347378440, -0.0264200307, 0.1269982606, 0.0137092480, -0.0790764168, 0.0129300831, -0.0411761142, 0.0159253329, 0.0780634284, 0.0334432945, 0.0442675725, 0.0325324833, 0.0032311699, -0.0093657272, 0.0584736839, -0.0589650124, 0.0248908624, 0.0183353852, -0.0367210172, 0.0250873324, 0.0857147947, -0.0023289293, 0.1001439244, 0.0060056490, 0.0620045848, 0.0409046337, -0.0066898377, 0.0409257002, -0.4446661174, 0.0956719443, 0.0969792008, -0.0027475362, -0.1113802791, 0.1017330736, -0.0811760426, -0.0098504480, -0.0240178257, -0.1147609502, -0.0532070361, 0.0274649579, 0.0007506493, -0.0141241774, 0.0755999312, 0.0016151097, 0.0410965607, -0.0600875542, -0.0675309449, -0.0130969910, 0.0715584308, 0.0617062747, 0.0298470650, 0.0367110893, -0.0548039004, 0.0263550393, 0.0137542579, -0.0090620685, 0.1430050135, 0.0079396423, 0.0080409832, 0.0090179648, -0.0371384397, -0.0201621838, -0.0645183846, 0.0087897377, 0.0254231319, 0.0545475073, -0.0442189537, 0.0236152168, 0.0164274685, 0.0125442911, -0.0115156127, -0.0164294969, -0.0302460697, -0.0354508311, 0.0427709110, 0.0379887298, -0.0647593886, 0.0451959148, -0.0833207741, 0.0324176140, 0.0142950844, -0.0794773698, -0.0025427756, -0.0622001961, -0.0669098198, 0.0108436197, 0.0694178268, 0.0012740103, -0.0226931218, 0.0556119382, 0.0335648209, -0.0073628146, 0.0317967460, 0.0935577750, -0.0022961739, -0.0157965478, 0.0924295560, 0.0356037021, 0.0032576108, -0.0112060169, -0.0371675305, -0.0069033792, -0.0331394412, 0.0054374449, 0.0138862291, -0.0506637804, 0.0595298186, -0.0224517249, 0.0543386564, 0.0016275750, 0.0087000178, -0.0105040912, 0.0227769427, 0.0388210341, 0.0063459883, 0.0981800929, -0.0343502872, -0.0420428179, -0.0109084053, 0.0273555089, -0.0171148311, -0.0207595024, -0.0075954692, -0.0272954963, -0.0193139929, 0.0172338616, -0.0537373945, -0.0632257015, -0.0327748917, -0.0039181947, -0.0105281854, 0.0074129710, -0.0022623362, -0.0122556640, 0.0102177840, 0.0139942002, 0.0096573466, 0.0055975229, 0.0095624663, -0.0339102708, 0.0193294603, 0.0384131335, 0.0033530393, 0.0850717425, 0.0151976198, 0.0139211584, 0.0450944863, -0.0173538066, 0.0120252501, 0.0274424739, 0.0334236920, 0.0724469945, -0.0252701845, -0.0342501551, 0.0304908324, 0.0104253842, 0.1069835797, 0.0265218690, 0.0050649121, -0.0168585517, -0.0052229748, -0.0206487682, 0.0208772495, 0.0360844135, 0.0219915025, -0.0042325663, -0.0120080430, -0.0604697317, 0.0470122136, -0.0788988620, 0.0250704065, 0.0120237600, 0.0787657276, -0.0542375706, 0.0481615625, 0.0322016031, 0.0195767283, 0.0028623936, 0.0046773725, -0.1098986641, 0.0315129422, 0.0291791614, 0.0499309376, 0.0105006602, 0.1145102680, -0.0279219933, 0.0363071933, -0.0253091492, -0.0448749103, -0.0074490057, -0.0014972200, -0.0349963643, 0.0343251526, 0.1142463237, -0.0245004576, 0.0417115130, -0.0644704252, 0.0191749819, 0.0197397675, -0.0018466196, 0.0165312011, -0.0344673879, 0.0404081121, 0.0020931824, -0.0454402827, -0.0588745512, 0.1401768625, 0.0241343994, 0.0223837644, 0.0291864593, -0.0099527147, 0.0852414146, -0.0245365780, 0.0217935480, 0.0161566120, 0.0472642891, -0.0518346727, 0.0130418809, -0.0329193287, -0.0023037894, 0.0389511064, -0.0309387445, -0.0823382586, 0.0293935891, 0.0330334790, 0.0041679889, 0.0035966877, -0.0136934854, -0.0219877306, -0.0226724781, -0.0280276686, -0.0039736219, 0.0540341064, 0.0373942330, -0.0166668762};
#endif

#endif
