//Numpy array shape [128, 512]
//Min -0.597806990147
//Max 0.594388246536
//Number of zeros 0

#ifndef W10_H_
#define W10_H_

#ifndef __SYNTHESIS__
lstm_5_weight_t w10[65536];
#else
lstm_5_weight_t w10[65536] = {-0.1070148349, -0.1209428161, -0.0691428930, 0.0960527360, 0.1750172973, 0.0074512223, 0.0590233654, 0.0058769970, -0.0365849584, 0.0176983718, 0.0924068540, 0.0818629190, -0.1407733113, -0.0023402944, 0.1715163738, -0.0491757616, -0.0286015235, 0.0121822990, -0.1341836900, 0.0503615066, 0.0150154075, -0.1172455847, -0.0444298647, -0.1166180819, 0.0356403925, 0.1009317115, 0.1455108672, -0.1989399195, 0.0583541021, 0.1043202728, 0.1812833399, -0.0382619165, -0.1183387041, 0.1849881411, 0.1464588940, 0.1368846148, 0.1592118293, -0.1433281898, 0.1279442310, 0.0185957793, -0.0070042736, 0.3100375235, -0.2076129168, -0.0583686419, 0.0360196158, -0.0182612892, -0.0616872385, -0.0060868198, -0.0371347964, 0.0840636939, 0.0369459465, 0.0306750964, 0.1795006692, 0.0716898963, 0.0853505060, -0.0767577067, -0.1844788790, 0.0125288935, 0.0104871858, 0.0139642488, 0.0796878561, -0.0000711721, 0.1033069342, 0.0636403486, 0.1879435629, 0.0596650690, -0.0291603617, 0.0312186107, 0.0217439346, 0.0706242248, 0.1258112937, -0.0147289000, 0.0702646673, 0.0071134046, 0.0741207302, -0.0698295012, 0.0843587145, -0.1028346121, 0.0934177712, 0.0508815311, -0.1282350868, 0.0886621624, 0.0987198874, -0.0838152245, -0.0549263805, 0.1529035121, -0.0789673477, -0.1946638674, -0.1487443149, -0.0120121101, -0.0756267160, 0.0960861370, 0.0815945640, 0.2158523500, 0.0599074811, 0.1088178456, -0.0689044297, -0.1045125052, -0.0343988314, 0.0840290263, -0.1099547595, -0.0921602324, -0.0482484475, -0.2760952711, 0.0207014047, 0.1441114694, -0.1690274924, -0.0443211012, -0.0082092648, -0.0641292110, -0.1859067827, 0.0873704031, 0.1700825691, 0.0874737203, -0.2122047693, -0.0238981545, -0.0433693007, -0.0285971332, -0.1184022948, -0.0044419733, 0.0337733552, 0.0284162629, 0.2800535262, -0.2482791394, 0.0774709284, -0.1238588542, 0.0364449881, 0.0500367172, -0.0720503256, 0.0335930437, 0.1671355218, 0.0858534724, 0.2299117446, 0.0733562633, 0.2599752545, 0.0326226577, 0.0110452799, 0.0264460072, 0.2214171588, -0.0853583813, -0.1044374630, -0.0339677297, 0.0035126221, -0.0276443437, -0.1942999363, 0.1632228196, -0.0952056274, 0.1094527543, 0.1043729708, 0.1351334155, 0.1346872151, -0.0064847409, 0.1073099449, 0.1496263593, 0.1123969108, 0.0012306954, 0.1709347665, 0.1131681204, 0.1191893071, -0.0763503760, 0.1195827872, 0.1672807932, 0.2092717588, 0.2444996685, 0.1519209892, -0.0183155984, 0.0354197770, -0.0050863996, 0.0269569103, 0.0760710314, 0.0385941826, -0.1643430293, 0.0274318773, 0.1281592250, -0.0899835750, -0.0968521163, -0.0405180268, -0.0466871485, 0.0244575478, -0.1352160275, 0.1635705233, 0.0806719139, -0.0252161957, 0.0383504741, -0.2838204205, -0.0328278914, -0.0496006869, -0.0292653888, 0.0015262744, -0.0539672188, 0.3036859632, 0.0313074365, 0.1337730587, 0.1312139332, -0.0704623163, -0.0143558132, 0.1230296567, 0.1009651273, 0.0410156846, -0.0241734721, 0.0898005515, 0.0511842966, -0.0245829634, -0.0642973781, -0.0291971266, -0.0191607978, 0.1283628941, 0.0745328516, -0.0305015687, 0.1761708260, -0.0168715436, 0.0539751053, -0.0167869534, 0.0635410175, -0.3042465746, -0.2266162038, -0.0178879071, -0.0011834934, 0.0412921533, 0.1093717143, 0.1221919581, 0.2661730945, 0.0939433053, 0.0809105560, 0.0070987511, 0.0564363413, 0.0811465532, 0.1108878329, -0.0295982808, 0.0808684230, 0.1209461018, 0.0493350737, 0.0422009900, -0.0574363433, 0.0497229584, 0.0179245509, -0.2207786143, -0.0039807186, 0.2361232936, 0.0320262872, 0.0113279987, 0.0354614109, -0.0782817826, 0.0687635615, 0.0389061645, 0.0399757512, -0.0912542716, -0.0157217402, -0.0061018416, 0.1747090220, 0.1556807607, -0.2993469238, 0.0584458299, -0.0819576159, 0.1475951970, -0.0797593743, -0.0405292213, -0.0508513600, -0.0343814604, 0.0575067587, -0.1010118797, 0.0352456830, 0.1044306606, -0.0371778645, -0.0295498688, 0.0665950105, -0.0613871142, 0.0587547161, 0.0949038193, 0.0723745599, 0.0234484002, -0.0930352584, -0.0623471625, 0.0556844547, -0.0927131623, -0.0479899310, -0.0364221781, 0.0466402471, 0.1795804799, 0.0286456849, -0.1430214792, 0.0756259114, -0.0204528961, 0.0154508604, 0.2465602458, -0.1183272898, 0.0505827516, 0.0243538078, -0.0672240555, -0.1689609438, 0.0077599008, -0.0211707801, -0.0351218283, 0.0809733346, 0.2399966270, 0.0012283949, -0.0708617270, -0.0272677578, 0.0209573898, 0.1458176523, 0.0455249511, 0.1613636464, -0.0591806956, -0.0282191094, 0.1555524617, 0.1111273840, -0.0056074425, 0.0882920697, 0.0135430554, 0.0979009345, -0.0116146524, -0.0934809968, 0.1056153402, -0.0012226520, 0.0050318935, -0.1130475327, 0.0010882041, -0.0095663108, -0.1071610227, 0.0364566930, 0.1440553963, -0.0031312148, -0.0143117467, -0.0746246502, -0.0489173122, 0.0044211051, -0.1140442565, -0.0725432783, -0.0499053821, -0.0728008077, 0.0658439845, 0.0132246865, 0.0576000512, 0.0672251508, -0.0177886114, 0.0104512069, -0.0149690444, 0.0631815717, 0.0594644137, 0.1653050780, 0.1797531396, -0.0604842640, 0.0137926666, -0.0362218767, 0.0881457850, 0.0484632552, -0.0320633799, -0.0889938399, -0.0353583023, -0.0441739112, 0.1740048081, 0.0552479364, -0.0807162896, 0.0716087073, -0.1643779427, 0.0804967284, 0.1013877690, -0.1228108630, -0.0661414340, 0.1735396534, 0.2623385787, 0.0908809751, -0.0014468032, -0.0699929520, 0.0689059049, 0.0680317059, -0.0402106382, -0.0716255903, -0.0322702974, -0.0083998609, 0.1137572005, 0.0267986469, -0.0623997748, -0.0602754503, -0.0906628892, 0.1239729673, -0.0269499887, -0.0475787409, -0.0789152384, 0.0588519014, -0.2066300362, -0.1569930315, -0.0025558914, 0.0476977676, -0.0994248241, -0.0345799401, 0.0069652358, -0.0855019614, 0.0819855779, 0.0234051067, -0.1150217578, 0.0481487103, 0.1323492527, 0.0999697894, 0.2311592549, -0.0355224609, -0.0109797828, 0.0007416015, 0.0451516733, -0.0831160545, 0.0905480534, 0.0838582143, -0.0230806358, 0.2054327726, 0.0098689562, -0.0412201993, -0.1104788706, -0.2290597707, 0.0855406821, 0.0495716371, 0.0970376357, -0.0017343729, -0.0124080824, 0.0086662155, 0.0571730994, 0.0320046768, -0.0422356650, 0.1402252465, 0.0740034282, 0.1936317384, 0.0162614193, -0.0979531482, -0.2921417058, -0.0590986386, 0.1269307584, 0.2023843974, 0.0803669095, -0.1605754197, -0.1736222357, 0.0798324347, -0.1563824564, -0.1157383695, -0.1427390724, 0.0375917070, 0.0463774577, 0.0990741923, 0.0912697986, 0.0404751785, 0.0425582044, -0.0393353328, 0.0641115010, -0.0234186724, 0.0942001119, 0.0008486316, 0.0095487172, -0.0403150208, -0.0018873431, -0.0624232441, -0.1385726631, 0.0381848514, -0.0440496951, 0.0104492931, -0.0370688364, -0.2121360451, 0.1193072647, 0.0037409572, 0.0578888319, -0.2704599500, -0.0311139002, -0.0331590623, -0.0329987444, -0.0296646897, -0.0208272543, -0.0899790972, -0.1992843449, 0.1238599271, -0.0397374704, 0.0680861771, 0.0852521732, 0.3171521127, -0.1863536090, -0.1487130672, -0.1706479043, 0.0309610870, -0.0935506895, -0.0058967993, -0.0260871183, 0.1332954615, 0.1260627806, 0.0950095430, -0.0679430738, 0.1252706647, -0.1180308014, 0.1080886126, 0.1474884748, -0.1366187483, 0.2834181786, -0.0087965475, -0.0161864161, 0.1293406487, 0.0670383349, 0.0870151371, -0.0792640895, -0.1135850474, 0.0026413978, -0.1685453355, -0.0741772279, 0.1420844197, -0.1202169210, -0.0500868894, 0.0780468658, -0.0348747894, 0.0771928281, -0.0929413959, 0.1060964689, 0.0015363619, 0.2240601033, -0.1025634706, 0.0619562715, -0.1769479215, 0.0803422183, 0.0690619573, 0.0161903035, 0.2314573675, 0.0277814455, 0.1131713539, -0.0052294773, 0.0692130178, -0.1086058989, -0.1516824961, -0.2004596889, 0.0059373025, 0.0259548407, 0.1014228016, -0.2335126698, 0.0096157957, -0.0201603994, 0.0607197955, 0.0575192459, 0.0639705509, -0.0293573495, 0.0522924215, -0.0693500116, -0.0646562874, 0.0736083612, 0.0532462150, -0.0198407844, 0.2155288011, -0.2413421124, -0.1156267002, -0.0978010893, -0.1816409081, -0.1550397724, -0.0663864389, -0.2101171315, -0.1223204434, 0.0923929587, -0.1007921323, -0.1838946044, -0.1048584133, 0.1418536454, -0.0461965613, 0.0269280188, 0.0455907360, -0.0082219522, 0.1540424526, -0.0993774384, -0.1104267836, -0.1233154759, -0.0500317141, 0.1946470737, 0.0445652045, 0.0791111439, 0.0737986043, 0.1393408179, -0.2024603933, -0.0789136663, -0.0725854561, -0.0904530510, -0.1803383976, 0.2189430296, -0.0483242460, 0.0786335394, 0.0041050999, -0.3861382604, 0.0311738439, 0.1138699055, 0.0058553307, 0.0634095669, -0.1912638694, 0.0540575534, -0.0190538839, -0.0107871844, -0.0808576867, 0.1402939856, 0.0864029303, -0.0723413005, 0.0232432708, -0.2421215177, -0.0601880290, -0.1321308166, -0.1543282270, -0.1058294624, -0.1084867492, 0.0470852070, 0.1634395868, -0.2310723662, 0.2973314226, 0.1032391936, -0.0895031169, 0.0469612628, -0.0505064949, -0.0807857364, 0.1792664528, 0.2627497911, -0.1648323834, -0.1319198906, -0.2805742919, -0.0272474568, 0.0669392571, -0.0581778400, 0.0162892696, -0.0319136418, -0.0903925598, 0.1645240039, -0.1262752861, 0.0865432099, 0.0845095664, 0.2017718554, -0.0118387537, 0.1994843930, -0.1077777594, -0.0674607381, 0.1790715903, 0.0434533060, -0.0268712025, 0.0661145002, -0.1014935076, 0.0544905588, 0.0841390193, -0.0603158586, -0.0229890104, -0.0163477864, 0.0640121996, 0.1188733354, -0.3407162726, 0.0368637741, 0.0038214969, -0.2676022351, -0.1163040325, 0.0952492133, 0.3450330794, -0.0778158307, 0.0109829698, 0.0129284561, -0.0333975032, 0.2285812348, -0.1462208927, -0.0105958618, 0.1245876327, 0.0925211310, -0.0194930658, 0.0459979996, -0.1041169167, 0.0037053442, -0.0778508857, 0.0672613457, 0.1243694797, 0.1602912694, 0.1478385031, 0.0142890159, 0.0036547971, 0.1892230660, 0.2201672941, 0.0952154174, 0.2537418604, 0.2140673548, -0.1846091300, -0.0457079895, -0.0116704181, -0.0353771411, 0.0663111806, 0.0788713619, -0.1747641563, 0.0181125253, 0.0294376202, 0.0050019021, 0.1775977910, -0.0570437163, -0.0281710252, -0.0179543216, -0.0525925271, 0.1735502332, 0.1144248024, 0.0139634525, 0.0323609523, -0.0115423147, 0.0361347347, -0.0593593195, 0.3078752160, -0.0186581761, -0.0085228533, -0.0090874210, 0.1289198846, -0.0112513211, -0.0441137701, 0.1483915150, -0.0535775460, 0.1576148123, -0.0802094638, 0.1088983938, 0.0588808805, 0.2506422400, 0.1666713506, -0.0914385021, 0.1248534545, 0.0420264155, 0.1905736327, 0.1071076989, 0.0539345182, 0.0207659174, 0.0736949891, 0.2824337482, 0.1021632254, -0.0978412703, 0.3541629314, 0.0831020325, -0.0423679054, 0.0591296069, -0.0259463284, 0.1004031897, -0.0461790301, -0.1385318190, 0.0359381139, -0.0398677178, 0.1983072311, 0.1481312513, -0.1074011400, 0.2264341116, -0.0885732546, -0.1304216087, 0.1363588423, -0.0655908808, -0.1115398556, 0.0041145165, -0.3702589571, -0.0022884160, 0.0395625234, 0.1463320255, 0.2915031612, 0.1222256795, 0.1186750233, 0.0872915387, 0.3295941651, 0.0407375768, -0.1072560549, 0.1620806903, 0.1733004898, 0.0399557538, 0.0266554654, -0.0059537236, -0.0004417312, 0.0112887137, -0.0104520852, 0.1967061162, 0.0616040826, 0.0399103612, 0.0669023916, -0.1350351423, 0.0313991569, -0.0324480496, 0.0429063775, 0.1576513499, -0.0377779454, -0.0906806290, 0.0968582481, 0.2391484827, -0.1818488091, 0.0354902670, -0.1425263584, -0.0661699548, -0.0459430404, 0.0068918774, -0.0035535935, -0.1217687801, -0.0472721457, 0.0465389416, 0.1471236646, -0.0129941441, 0.0609733425, 0.3490509391, 0.0499326512, 0.0679501295, 0.0541265048, 0.0125335278, 0.1012114286, -0.0569004565, 0.2664220035, -0.0337576680, -0.0519804545, -0.1785480678, -0.1191101372, -0.0862173289, 0.1533569545, -0.0790621862, -0.0419764444, 0.0850460157, 0.0607982017, -0.0084939096, -0.1472436935, 0.0409179889, 0.1170890108, 0.0384230800, -0.0635791793, 0.0613578707, 0.0651936829, -0.0369778648, -0.0811868832, 0.0169157926, 0.0369746499, -0.0440608673, 0.0860110447, 0.0815459415, -0.1592360586, -0.0398947075, 0.0600354485, -0.1016839147, -0.0741303191, 0.0640736595, -0.0404093899, 0.0889469460, -0.0373279527, 0.1897505075, -0.1178257689, -0.0421308428, 0.0305565614, 0.0253733229, 0.0131250285, 0.1156209186, -0.0148500465, 0.1233082265, 0.0122176111, 0.1040351093, -0.0498435795, 0.0458529890, -0.0769347772, 0.0700685754, -0.3017558753, 0.0447222888, -0.0673436970, -0.1386858076, -0.0012737670, -0.0530296192, -0.0155583229, 0.0813262612, 0.1136943102, 0.0455088839, 0.0337402783, -0.0019497633, -0.0751916394, 0.1411762983, 0.0250548720, 0.0504881553, 0.0391512737, -0.0486344434, -0.2516211569, -0.1690486372, -0.0478475913, -0.0047687949, -0.1509976983, -0.0812819302, -0.0831898302, 0.1010206565, 0.1299123764, -0.1484238654, 0.0867841616, 0.0589747839, -0.0539655313, 0.1329292953, 0.1040399894, 0.0019864950, -0.0906702727, -0.0597053617, -0.0846900716, 0.0484674536, 0.0242365673, -0.0207146257, 0.0064911097, -0.0835610330, -0.0926142931, 0.0050007049, -0.0098701855, -0.1810271740, 0.0326927155, -0.1126810238, -0.0101016602, -0.0200927816, -0.2415468991, 0.0933495015, -0.1077660546, 0.2115749419, -0.0314069986, -0.0013365413, -0.0479641259, -0.0455794074, 0.0327369943, -0.0167338978, 0.2389983386, 0.2519932389, 0.1860334128, 0.0350079387, 0.0419849195, 0.0577851310, 0.0106129982, -0.0077061821, 0.0918880701, 0.1264137179, 0.0999043286, -0.1846245974, -0.0379193127, 0.1141015068, -0.0364306122, -0.0371164829, 0.0990786552, 0.0336423554, 0.1103250682, 0.1676598489, -0.0208621603, 0.1118669659, 0.1255818903, -0.0691889971, -0.1406494230, -0.2087468356, -0.0381447673, 0.0788330510, 0.0796194673, -0.0247119069, 0.0541128293, 0.1704680622, -0.1401037872, -0.1223457158, -0.1320317537, 0.1528430581, 0.0123562403, 0.1002722830, -0.1544378400, 0.1311845332, -0.0609498136, -0.0639344007, 0.0779240280, 0.0382713005, -0.1453644931, -0.0721113980, 0.2247798443, -0.0008012388, 0.2019521594, -0.2297709882, 0.1548909247, -0.0194528829, 0.0776451230, 0.0273149144, -0.0911148787, 0.2077883780, -0.0542960316, -0.0336676762, -0.1995074898, 0.0197635349, 0.1568998992, 0.1472485363, -0.0018723288, -0.0319331996, 0.1172664315, 0.0529744253, 0.2843878865, 0.1752476841, 0.0850067660, -0.0054834150, 0.0482212044, 0.0578201264, 0.0468027368, 0.0268114209, 0.0620944872, 0.0014065027, -0.0719315037, 0.1459230632, -0.0001457959, -0.0442375802, 0.0302899480, 0.0046404260, 0.0607266836, 0.0659950897, 0.2421970665, -0.0800778270, -0.0007057879, -0.1689909846, -0.0665536448, 0.2227658927, -0.0961643308, -0.0111050317, 0.0384797379, 0.0532524921, -0.3601960540, -0.0748044699, -0.1229238883, 0.0952884629, 0.0945857167, 0.2048076689, 0.0390297472, 0.0366009921, -0.0730394796, 0.0030911060, -0.1606159955, 0.3778456450, 0.0823590010, -0.2032839358, -0.1639814973, 0.0073744860, -0.0152376508, -0.0827755183, -0.0520277284, 0.0404722616, 0.1045524850, 0.0275567081, 0.1954424828, -0.1655980051, -0.1051285714, 0.0169004370, 0.0557543896, 0.0970189273, -0.0786648840, -0.1102572754, 0.2139674574, 0.1196297407, 0.0651128963, -0.0132775428, 0.0777965933, 0.0452314392, -0.1044874713, 0.0142354313, 0.1321822703, -0.0880733058, 0.0585277714, -0.1100755259, -0.1918033808, -0.0311412271, 0.1425968409, 0.0410502590, -0.0160198361, 0.1956101209, 0.0227241721, 0.0426162817, -0.0749541894, 0.0820817500, 0.1610383093, -0.0527057201, 0.1478318125, -0.0728565603, 0.0228240788, 0.0736227632, -0.0995016620, 0.0531041622, 0.0092706699, -0.1369863898, -0.0183487814, -0.0330465995, -0.0588696264, -0.1104566455, 0.1093695462, 0.2072207779, 0.0352071039, 0.0959376022, 0.1234974712, -0.0442087464, -0.0189838111, -0.0492338948, -0.0847759545, -0.0581183583, -0.0166162848, 0.0817368329, 0.1208530590, -0.0777584091, -0.0128846308, -0.0683191493, 0.0396024138, 0.0762773231, -0.0256458819, 0.1122887880, -0.1328196377, 0.0311970375, 0.0482942760, -0.2101233900, 0.0533109978, 0.1877777576, 0.0761889890, 0.0099374577, -0.0041468232, -0.0118925376, 0.0046919459, 0.2229781747, 0.1318883747, 0.0626218989, 0.0593214855, 0.1163419411, 0.0026415589, -0.0935446396, -0.0049261074, 0.0925897583, 0.0060460377, 0.0097427377, 0.0140656764, 0.0162525009, 0.0379050672, 0.0358076170, 0.0350682177, 0.1535539776, -0.0036865303, 0.0823029727, 0.0346190482, 0.0614997521, -0.0724725649, -0.0968286172, 0.0514266342, 0.1304074526, 0.0341873057, 0.0837962702, 0.3358093202, -0.0374754146, -0.0337162241, -0.0230554789, 0.0194958244, 0.0678681657, 0.0512582362, 0.1653399169, -0.0915896669, -0.1535472423, 0.0261071716, -0.0077595646, 0.0878110155, -0.0093593691, 0.0455605946, 0.0463613458, -0.0502341650, 0.0205240082, 0.0326206684, 0.0368119217, 0.1031224206, 0.1133655608, 0.0748304874, 0.0213377941, 0.0248102807, 0.0127770798, 0.0418252908, 0.0440971702, -0.0565766245, 0.0882042646, 0.0424386561, 0.1794503182, 0.0451846421, 0.0782469139, 0.1296329498, 0.0627292991, 0.1480629295, 0.0774874538, 0.0282660313, 0.0918249115, 0.0214874558, -0.0140142506, 0.0524580702, -0.0038937635, -0.0206508245, 0.0581343807, -0.0528340079, 0.1133185178, 0.0813626647, 0.0924202725, 0.0347450264, 0.0026472497, 0.0542163216, -0.0575717762, 0.0686500371, 0.0400853679, -0.0103387628, -0.0106616067, 0.0692949519, 0.0710035786, 0.0635358989, 0.0147208171, 0.0414626673, 0.0298991464, -0.0466684103, 0.1570727676, -0.0323484354, 0.0724673122, -0.0386650264, 0.0284323618, 0.1718505621, -0.1087067872, 0.0168257449, 0.0694995373, 0.0251091942, 0.0629097223, -0.0425811633, 0.1402755827, 0.0007881842, -0.0075297076, 0.0504641645, 0.1235919893, 0.0420668796, -0.0059559252, 0.0452823639, -0.0107688056, -0.1836636215, 0.1609151065, 0.0073984074, 0.1126066819, 0.0486670882, 0.0084849568, 0.0730152130, -0.0717958435, 0.0471793450, -0.0773734748, -0.0243952405, 0.0651000440, -0.0267237034, -0.0405814871, -0.0303995330, 0.0940558463, 0.0447841957, -0.0117046582, 0.1058165058, 0.0601304658, 0.0095358044, 0.0911466852, 0.1116338596, -0.0393736139, 0.0669989064, 0.0749358609, -0.0166191403, -0.0693403482, 0.0377333947, 0.0163792185, 0.0767396167, -0.0177009329, 0.0075239744, 0.1334227920, 0.1027096212, 0.1144931167, 0.0549768880, 0.0869407132, 0.1175716221, 0.1047628298, -0.0033013388, 0.0363311768, 0.0981999189, -0.0074339700, -0.0142452931, -0.0380808786, -0.0927215815, 0.0705200732, 0.1069230884, 0.1572889090, 0.2049522847, 0.0208775830, 0.0452226289, 0.1788133234, 0.1423252821, -0.0238062609, 0.0277994908, 0.1449412405, 0.0681618601, 0.0852925330, 0.1207590774, 0.0273803435, 0.0099886861, -0.0190838519, 0.0438989066, 0.0739977807, 0.2210474014, -0.0239188317, -0.0165018607, 0.0552641712, 0.0355255865, 0.0848299190, 0.1059639752, 0.0799266919, 0.0162182823, 0.0985908285, -0.0957131013, 0.0691132694, -0.0183328632, -0.0066874539, -0.0028101644, -0.0630127713, -0.0891828313, 0.0653207228, 0.0212096013, -0.0733728632, -0.0290371273, -0.1118422896, 0.0038391291, 0.0477132350, -0.0250128061, -0.0246576983, -0.0600836053, -0.0547115542, -0.0578066744, 0.0569450296, 0.0186606925, -0.0698443502, 0.0349939466, -0.0070829531, -0.0540310182, -0.0448069051, 0.0603953488, -0.1133632958, 0.0127236964, -0.0328292176, -0.0839560926, 0.0243227314, 0.0089995563, 0.0138811758, -0.0875553936, -0.0601387993, 0.0139797749, 0.0183133855, -0.0753949434, -0.0500534810, -0.0441562831, -0.0292124376, 0.0719089732, -0.0615706295, 0.0756254643, -0.0705135167, 0.0318752080, -0.0340443328, -0.0100775566, 0.0274322461, -0.0353735313, 0.0446848497, 0.0765888393, 0.0910450742, 0.0410749540, -0.0124363275, 0.0742883086, 0.0137076080, -0.1198972911, -0.0744960532, 0.0462569185, 0.0682478324, 0.1153289005, 0.0535079092, 0.0457750745, -0.0876625031, 0.0126587152, 0.0391256735, 0.0717455074, 0.0302323624, 0.0172661431, 0.1401555091, -0.0347910374, 0.0183062926, 0.0652744174, -0.0812627599, -0.1453812271, -0.0608453862, 0.0686498508, 0.0414409749, 0.0543368421, 0.0749254227, 0.0390895940, 0.0188692100, 0.0448611043, 0.0383569710, 0.0818982869, 0.0302362759, 0.0558159724, 0.0127682388, 0.0227467883, -0.0582682528, -0.0306165852, 0.0886630639, -0.0426206738, 0.0000960138, 0.0324515738, -0.0393955745, -0.0567991883, 0.0578753389, -0.0083220610, 0.0144998925, 0.0352926329, 0.0865064114, -0.0056470642, -0.0539276190, 0.0015521034, 0.1050752550, 0.0324575156, 0.0156905763, 0.0051563666, -0.0483476147, -0.1069563925, 0.0265100300, -0.1017241776, 0.0609178506, 0.1128834561, 0.0550700948, -0.0169494133, -0.0809649974, -0.0076874783, 0.0926830471, 0.0948791504, 0.0670292899, -0.0090452917, -0.0502813868, 0.0542366318, 0.0645205155, 0.1385719478, -0.0182706602, -0.0706220940, 0.0910593420, 0.0114520369, 0.1270994097, 0.0367907584, 0.0887829959, -0.0907035172, 0.0462618023, 0.0672856122, 0.0515364408, 0.0494250134, -0.0616162010, -0.0570712276, -0.0194510166, -0.0668121204, -0.0431292616, -0.0713079944, -0.0342909843, 0.1348906904, 0.0455663353, -0.0417460017, 0.1634556651, -0.0878405347, 0.0139912209, 0.0269037914, 0.0025937180, 0.0495142899, 0.1517655551, 0.0248207748, 0.0394412726, 0.0473641492, -0.0280809719, 0.0166331865, -0.0583428629, -0.0186110903, 0.0351269804, 0.0509993769, 0.1255977154, -0.1567161232, 0.0553728268, 0.0710446239, 0.0652889758, 0.0343210660, 0.0412960313, -0.0985018089, 0.0746754333, 0.0350120328, 0.0361026414, -0.0294595901, -0.0297715198, -0.0996747538, 0.0567164756, 0.1472920477, -0.1004519090, -0.0464889370, 0.1377977431, 0.0492433682, 0.0384244025, 0.0904911906, 0.0703588799, 0.0179499499, -0.0066130729, 0.0470337160, 0.0756342262, 0.0177916568, -0.0355668887, -0.0200276226, 0.0798632428, 0.0311418287, -0.0401648320, 0.0302830823, 0.0059004566, 0.0693081394, 0.0576490685, -0.0329467617, -0.0165546350, -0.1510651112, -0.0948496833, -0.0316626988, -0.0236055385, -0.0579986461, -0.0776088610, 0.0462483726, 0.0033822637, 0.0315930545, 0.0708059967, 0.0682494119, 0.0396154784, -0.0210426114, -0.0752701312, 0.0228081141, -0.0390713699, -0.0912067369, -0.0900874585, 0.0942331031, 0.0079565058, -0.0835941732, -0.0977760032, 0.1126128137, 0.0250767190, 0.0772408247, -0.0328218006, 0.0199710801, 0.0658820197, 0.1487905979, -0.0179084539, -0.0190742947, 0.0711724535, 0.0650143772, -0.1050269976, -0.0762984753, -0.0090503441, -0.0627746508, -0.1293434948, 0.0071996711, 0.1096743345, 0.0444983095, 0.0469668731, 0.0632435307, 0.0236131288, -0.0078933658, 0.0481311828, -0.0336776972, 0.0218293369, 0.0573737361, 0.0434328727, 0.0135906916, -0.0472420044, 0.1030436456, 0.1050024703, 0.0354412906, 0.1510607004, -0.0015034419, 0.0307420995, -0.1094232723, -0.0597885735, -0.0608773530, -0.0850483924, 0.0645265728, 0.0464434773, -0.1606668234, 0.1707135141, -0.1028550267, -0.0874002948, -0.1542414427, -0.1964876205, 0.2202074081, -0.0787583590, -0.0307836365, -0.0878613442, -0.1785659045, 0.1681563556, 0.0256040897, -0.0187950488, -0.0290064216, 0.0689655170, -0.1936917305, 0.0106889857, -0.0919108763, -0.0807952955, 0.0175200645, 0.0696601272, -0.1794160604, -0.2738006711, -0.0270320196, 0.1702891141, 0.0619251840, -0.0680891350, -0.3004166782, 0.1806832701, -0.0260006245, 0.1337302029, -0.2293539792, 0.0293960050, 0.0042817458, 0.1329477280, -0.1774160266, 0.0227037594, 0.1504007876, 0.0180664193, -0.0522902347, 0.0612317473, -0.0519412234, -0.0889973417, -0.0487370491, -0.0033312833, -0.0001888108, -0.2171584517, -0.0050568129, -0.0291903950, 0.0281148199, -0.0759096518, 0.0132237654, -0.2148264945, -0.1989237070, 0.0143095618, -0.0981309935, -0.1980044395, -0.0379744545, 0.0127549991, -0.1045190170, -0.1263021082, -0.0277522188, -0.0167933740, -0.1147098020, 0.0193051696, -0.0913268030, 0.0257261712, -0.1606956571, -0.0505399145, -0.1665439904, -0.0366678610, 0.2529375553, 0.0651861504, -0.0581499338, -0.0943403766, -0.1050576344, -0.0658575147, 0.0186456013, -0.0082309628, -0.0680305213, 0.2258858681, -0.0563236177, -0.0277346820, -0.0530292317, 0.1813224703, -0.1351509690, -0.1508779377, -0.1119518802, 0.0874379873, 0.0921817943, 0.1709953547, -0.2232356817, -0.3038626313, -0.2210586667, -0.0755057409, 0.0356820077, -0.1501601934, -0.2228764892, 0.0533954538, -0.1121847406, -0.1210062951, 0.0896019191, 0.0210867114, -0.0130977361, 0.0366639867, -0.0003733286, -0.1966709942, 0.0057962458, -0.1046212390, 0.0739127100, -0.0138429450, 0.2344688922, -0.1794476360, 0.0132140806, 0.0135465339, -0.2247718275, 0.0041087056, -0.1816648096, 0.0961232111, 0.1003383324, 0.0913807973, -0.1036298946, -0.1962964833, -0.0350472070, -0.0944621265, -0.0480824150, -0.0842329040, 0.0819888562, -0.0325070545, 0.1157546565, -0.0070746015, -0.0031877751, 0.1360435635, -0.0466076247, 0.1826847941, -0.2475422770, 0.0110526411, 0.0320911519, 0.1614236683, -0.1495327950, 0.0988759175, -0.1092966720, 0.0047349269, -0.0350767300, -0.0321930833, -0.0000924196, -0.0722937062, 0.1587293446, -0.0366024189, -0.3193019331, 0.1526174694, -0.0919268578, -0.0692243278, -0.0932055190, -0.0311994068, -0.1396707892, 0.0759331733, 0.0756064355, 0.1302939653, -0.1784766912, -0.0751005113, 0.1218614951, 0.1093813777, -0.1254644841, 0.1308685392, 0.1027478278, -0.0072897961, -0.0207078755, 0.0432088897, 0.0902338997, -0.0560009405, 0.0322476514, 0.0586074851, 0.0513036735, 0.0922143534, -0.1331871897, 0.0146023026, 0.0050941971, 0.0187588781, -0.0399391353, -0.0849397629, 0.0440964215, -0.0409734547, -0.2131902725, 0.0133744357, -0.0191863645, 0.0466568097, -0.0147988675, 0.0421604626, -0.0372458883, 0.1123997718, -0.0404133983, -0.1208594292, 0.0077524567, 0.0518367961, -0.0597166680, -0.1155190244, 0.1342390031, 0.1058232933, 0.1408673972, 0.1408506781, -0.1588817984, 0.0508814454, 0.0469557270, -0.0675039142, -0.1261157244, -0.0056997011, -0.0421007201, 0.0102820769, -0.0999660492, -0.0393872112, 0.0625014976, 0.0035835714, -0.0127524668, 0.0544052236, -0.0710138008, 0.0662605390, -0.0749776810, -0.1320381165, 0.0408688113, -0.1072350740, -0.0644919872, -0.1164193228, 0.1044296250, -0.0916050598, -0.0250220951, 0.1280328482, 0.0247050691, -0.0685368255, -0.0065492475, 0.0178529378, -0.1907277256, 0.0318678692, -0.1455614567, -0.1284437925, -0.2176924497, 0.0267607234, 0.0749223903, -0.0437270068, 0.1231898814, -0.0408027060, 0.0058892746, -0.0350405313, -0.3098560572, -0.1591444016, -0.0118508711, -0.0087218126, -0.0005745363, -0.1045327559, -0.0696533844, 0.0124825006, -0.0745606944, -0.0448275283, -0.0087037850, -0.0701931864, -0.0530151315, 0.0408010297, 0.0345169827, 0.0465316139, 0.0596713424, -0.0388429314, 0.0486902148, -0.0070100683, 0.0217950158, 0.0852591470, 0.0128631210, -0.0461742543, -0.0421531200, 0.1727773845, 0.0086512975, -0.0599462725, 0.0406049900, 0.1074508801, 0.0994728506, -0.0869607776, 0.0471553989, 0.0535492450, 0.1243652701, -0.0869694874, -0.1567512900, -0.0233382285, -0.0071179653, -0.1065615341, 0.0710377097, 0.0099898698, 0.0187747460, 0.0537610836, -0.0338846967, 0.1950360686, -0.0610604547, -0.0190511532, 0.0340469368, 0.0031961584, 0.0363949724, -0.0189031977, -0.0759191886, 0.1238388196, -0.1020876318, -0.1045183763, 0.1438196301, 0.1425437182, 0.0032771910, -0.0002008167, -0.1420077235, 0.0228042845, -0.0796771273, -0.0912950709, -0.0007327853, -0.0935040787, 0.0404678322, 0.0729707107, -0.0307922028, -0.0358598717, -0.0923633724, 0.0040131086, 0.1272930950, 0.0399296582, -0.0163846612, 0.0493668541, -0.0041463198, 0.0455662198, -0.0397587679, -0.0365557484, -0.1404370517, 0.0931807384, 0.0154222446, -0.0775366127, 0.0685889199, 0.0775592253, 0.0951730013, -0.0596586205, 0.0059835208, 0.0513444170, 0.0408231169, 0.0830970928, 0.1933580339, -0.0443378873, -0.0315064229, -0.0883981511, -0.0238671061, 0.0870710164, -0.1440525651, 0.0177847482, 0.0244636443, 0.0042617819, 0.0830476061, -0.0599350035, -0.0479301102, -0.0808501095, 0.0469629169, 0.0991520360, 0.0889084563, 0.1157850772, 0.0007880983, -0.0229040105, 0.0786641538, -0.0063669025, -0.1094989032, 0.0552945323, 0.0581432506, 0.0658856407, 0.0737573206, 0.0358062759, -0.0185098033, 0.1087935120, 0.1711269617, -0.0772697181, 0.0991920680, 0.1039026380, -0.0736064762, 0.0619738996, 0.1088950187, 0.0110246381, -0.2057370991, -0.0227648746, 0.0991669148, 0.0421856940, 0.0690547153, -0.1652486175, -0.1243542358, -0.0697091743, -0.1117412969, -0.1113362461, 0.1039488614, -0.2383196354, 0.1181146204, -0.0424637012, 0.1448008418, -0.0488827899, 0.0286423899, -0.0822966546, 0.0964758322, -0.0308783539, 0.0004410765, 0.0021995825, -0.0887262896, -0.0246529039, 0.2354064733, -0.0035680539, 0.0843773112, 0.1148660779, 0.0440102331, -0.0998918638, 0.0362418443, -0.0589036457, 0.0601773746, 0.0548258722, -0.1181621328, -0.0257402379, -0.0093503930, 0.1735254526, -0.0768766180, 0.0315382443, -0.0684362128, -0.0017558999, 0.0548876673, 0.0335905701, 0.1223961413, 0.0478384830, -0.1705618799, 0.0469828323, -0.0674728230, -0.0394713655, -0.1397330165, 0.0053805499, -0.1057785600, -0.0100164376, -0.0521284156, -0.0694551095, 0.0518301874, 0.0057236380, -0.0006897098, -0.1137019694, -0.1026929095, -0.0994942561, 0.0294344183, -0.1255204231, 0.0573216751, -0.0855451971, -0.0269995816, -0.0542073175, 0.0115212705, 0.1372158527, 0.0745801553, 0.0839832649, 0.0861037821, 0.0651317760, -0.1044370681, -0.0304513928, -0.0442839079, 0.0131102670, 0.0735303164, -0.0302358679, 0.1125485003, -0.0535289086, 0.1606409401, -0.1647213548, -0.0926499292, -0.0627719611, -0.0500961877, -0.0460095406, -0.0448060855, 0.0628743917, -0.0585083403, 0.0139384521, 0.0419461876, -0.0406258143, -0.0313671902, 0.0654457882, -0.0458032675, -0.0374815017, -0.0700738505, 0.0159713253, -0.0766866282, 0.0823827684, 0.0240178239, -0.1045723557, -0.0339579992, -0.1043568999, -0.0265135933, 0.2453448474, 0.1680097729, 0.1784556806, -0.0002505960, 0.0806110948, 0.0488336235, 0.0890728459, 0.0448831841, -0.0082139587, -0.0382263772, 0.1216885969, -0.0087714987, 0.0261340626, 0.0016292093, 0.0036478888, 0.0432688743, 0.1508758068, -0.0391191766, 0.0011465248, 0.0530820377, 0.1572048515, -0.2972792685, -0.0248702671, -0.1618710607, 0.1641966850, 0.1710635722, -0.0720230639, -0.2199072242, 0.1071622744, 0.0104295546, 0.2601207793, -0.0382768139, 0.3071485758, 0.2217708826, -0.0304295886, 0.2078375816, 0.0725166872, -0.0037262961, 0.1647657305, 0.2522298992, 0.2189860046, 0.1420482993, 0.0268506370, 0.1907785684, 0.0195343029, 0.3030405045, 0.2679405212, 0.0259982031, 0.0196241811, -0.1244552508, 0.1895244569, 0.0948777050, -0.2692518234, 0.0196676701, 0.0266209245, -0.3426329792, 0.0075224126, -0.1158069298, -0.0010885382, 0.0353197418, 0.1015968397, -0.0164031833, 0.2028801143, 0.1263491809, 0.1760885715, -0.0008872595, 0.3945905566, -0.1204352230, 0.3589547575, 0.1315292269, -0.1819572151, -0.0802764148, 0.2219460458, -0.1016274691, 0.0964858681, 0.0015551541, -0.0352894999, -0.0644661412, 0.3130353093, 0.0300025307, 0.1566344947, -0.0131778484, 0.1266750693, 0.0347281620, 0.1174330860, 0.0282759350, 0.0831154436, 0.0084641781, -0.1081196070, -0.0021765833, 0.1190606579, -0.2622380257, 0.0177488159, 0.0185328759, 0.0834434479, 0.0227886587, 0.0689672753, -0.1987197995, 0.1115686968, 0.0231946241, 0.1835373789, 0.0231031124, -0.0339333452, 0.1428676993, -0.1146816388, 0.1143794507, 0.1173539683, -0.0849670619, -0.0134224128, 0.0563595146, 0.0780918524, 0.2421613932, 0.1485870034, -0.0589405634, -0.1255216449, -0.1325885952, -0.1570555121, -0.1365275234, 0.0606098548, 0.0471626818, 0.1704746485, 0.2495965958, 0.1490578502, -0.1552327871, -0.3275698721, 0.0131263891, 0.0568096377, 0.0825039968, -0.2135316133, -0.0028427355, 0.2802230120, -0.0470954925, 0.1189399287, 0.0402085297, 0.1433914900, -0.1299876273, 0.0290987417, 0.1981217712, -0.2416724414, -0.0919749215, 0.0435232557, 0.1246200949, 0.1040201858, 0.0054196906, -0.0384468287, 0.2690124214, 0.1255117357, 0.0862584263, -0.1043461040, -0.2415472716, 0.0914216042, 0.0170014333, 0.0568519384, 0.1417819560, -0.1261270344, 0.0741848424, -0.2813344896, -0.2890189588, 0.0045365677, -0.0205524415, -0.1174207777, -0.1577051133, -0.2154021561, 0.0657977983, 0.0117167141, -0.1760447770, -0.3009620607, -0.0782014430, -0.1234071106, 0.0641154796, -0.1017610282, 0.0276909936, -0.1574360430, -0.0229466930, 0.0000628301, 0.0227822736, 0.1168404743, -0.0678241029, 0.0379997008, -0.0766678974, -0.2364171296, 0.0969557092, 0.1242558211, -0.2928299606, -0.1988055706, 0.0145156644, -0.1324937195, 0.0195097625, 0.0369610563, -0.0019718381, 0.0652268678, -0.1259723604, -0.0347066782, 0.0937027484, 0.0994908288, -0.0649992377, 0.0898127630, -0.1157003641, -0.2024108022, -0.1097303405, 0.1737858951, 0.0332281664, -0.0398898609, -0.1018659845, -0.1912640780, -0.0547331944, 0.0329205543, -0.1033134162, -0.1084946394, -0.2422074974, 0.1269948184, -0.1844824404, -0.0325248204, -0.1492128521, -0.1071838960, -0.1852031648, -0.2189362943, 0.0689383671, 0.0562775135, 0.1177397296, 0.0845146775, -0.0497982241, 0.0783248916, 0.2521882355, 0.0542775728, -0.0811045393, 0.0939840525, -0.0345151313, -0.0952127054, -0.0129242446, 0.0369531177, -0.0249527562, -0.0259221010, -0.1998088658, -0.0076053124, -0.1281163543, -0.0066827321, -0.1038445756, 0.0861876830, -0.2772591114, 0.0035753837, -0.0742396042, 0.0084407181, -0.1765361428, -0.1546109021, -0.0827015489, -0.2407962233, -0.0812019780, 0.0322244652, 0.0449561998, -0.0417880714, -0.1641444266, -0.0932778046, 0.1232718751, -0.0535836965, -0.1002835482, -0.0621921755, -0.1294270903, 0.0514397845, -0.0494518243, 0.1315637380, -0.0740176886, -0.0702575818, -0.0708237961, -0.0915546492, -0.0293371715, -0.1763609350, -0.2304117084, -0.0370034128, 0.0474793836, -0.1387077272, -0.1386211962, -0.1427181810, -0.1316372156, -0.0718684569, 0.0153767932, -0.0598850176, -0.0649116561, -0.0867033973, -0.0269332118, -0.1322833598, -0.0213755351, 0.1493808776, -0.0838393718, -0.0194899347, 0.0186143089, 0.0438549258, -0.0593037829, 0.0661269426, 0.0902114883, 0.2363789976, -0.0138435522, -0.0088885352, 0.0318313092, -0.1142803580, -0.1735415608, 0.0616436526, -0.0385163538, 0.0413818248, 0.0630727708, -0.0779482797, -0.0448976569, -0.0439845584, 0.1301348060, -0.0046562580, -0.0833208114, 0.1037783846, 0.0364326052, -0.0374246016, 0.0252791364, 0.0793133005, 0.0735338852, 0.0145087894, 0.0611249916, -0.0734200999, 0.0556621514, -0.2225414813, 0.0276569612, -0.0940203667, -0.0546563938, 0.1751666367, -0.0766507909, -0.0767002553, -0.0175008699, -0.0183306616, 0.0331687741, -0.1162125915, -0.1515080780, -0.0057163080, -0.0023072748, -0.1812310219, -0.0562083721, 0.0912635699, -0.1036077514, 0.0220720787, -0.0319032967, -0.0062360968, -0.0444482379, -0.0522523001, -0.0533840023, 0.0498657934, 0.0363553278, -0.0483730994, -0.0110397637, -0.0876356438, -0.0086676572, -0.0043700309, 0.1191489026, 0.0819956064, -0.0176715087, 0.1046193615, 0.0403082222, 0.0996950492, 0.0510239527, -0.1300134957, -0.0784439743, -0.0461579040, 0.0265717823, 0.0621075258, -0.0822683871, -0.0351011939, 0.0022417847, -0.0095581245, 0.0126038231, 0.0675760135, 0.1235553175, -0.0276218094, 0.1574256867, -0.0538035668, -0.2210017741, -0.0300011225, 0.0977251381, -0.0203274060, 0.0608932190, 0.1464888602, -0.0633892789, 0.1856868416, -0.0760380998, -0.0690047890, -0.1633823514, -0.0430271216, -0.0015936284, 0.2846904695, -0.0912932307, -0.0228518266, 0.0515608229, 0.0447343215, -0.0433244482, 0.0806489587, -0.1522749066, -0.0480356961, -0.0367436185, 0.0223953072, -0.0489665121, 0.1530899256, -0.0995043442, 0.0229619332, 0.0354580544, 0.1083346233, 0.0096202400, -0.1548508704, -0.1823591590, -0.1185194328, 0.0411761105, -0.1912708133, -0.0879869759, 0.1293610334, 0.0272587538, 0.1497781724, 0.0377973355, -0.1860234439, 0.0269107204, -0.1200696006, -0.1016626433, 0.0479961969, -0.0566134043, 0.0705128461, -0.0556567535, -0.0453482196, -0.0767033547, 0.0783151314, -0.1185140461, -0.0924842581, -0.1978261471, 0.0636016652, 0.0679900199, -0.0907040164, -0.0861670151, 0.0264697522, -0.0238177739, 0.2257307172, 0.0662621707, 0.0779369026, -0.0216448363, -0.0424433239, 0.1783201993, -0.1709520072, -0.0369825214, -0.0576551892, -0.0959879160, -0.0539834648, -0.0746909827, -0.0524712279, 0.0126766302, -0.0761987343, -0.0658254176, 0.0654148832, 0.0135233374, 0.0037324110, -0.0064403284, 0.0672866851, 0.0878618136, 0.1642229110, 0.1461619288, -0.0807450637, -0.0750768781, 0.0910861939, -0.3176289499, -0.0553692468, 0.1491112262, -0.0656771809, 0.1068839505, 0.0405257344, -0.1612309366, 0.1168248206, -0.0795625970, -0.1225761995, 0.0088904230, 0.0844173580, -0.0508684814, -0.1504127085, 0.0218052920, 0.0768418387, -0.1165765598, -0.0221932083, 0.0147888102, -0.0339841954, -0.0827866942, 0.0545121431, -0.0535205789, -0.0467928723, -0.0520735830, 0.0199361518, -0.1093141511, -0.0928378403, -0.0668249428, 0.1534465104, 0.1556411088, -0.2772700787, 0.0874739289, 0.2161418498, -0.2520930469, 0.0619000494, -0.1779676974, -0.1366266757, 0.0361234136, -0.1134382039, -0.1010169163, -0.0850595310, -0.0129764900, -0.1190489978, 0.0705923066, -0.0112348404, 0.0202875603, 0.2211406082, -0.0561738424, 0.0765932649, -0.1979458630, -0.0567002036, 0.2188882679, -0.0034457205, -0.2225077152, -0.0840895101, -0.0766675919, -0.1070365757, -0.0318512097, 0.0745913386, 0.1179648489, -0.0297487583, 0.0290310495, -0.0306894537, -0.0739025250, -0.0038624629, -0.2455050945, -0.0876942277, 0.0184077043, -0.1780865639, -0.1349964887, -0.1091400236, 0.2025862932, 0.1823423952, -0.1468250751, 0.0407264382, -0.0326113850, 0.0000367921, 0.0691739321, 0.0412628166, 0.0376958735, 0.0040841899, 0.1349074841, -0.0524502806, 0.0866145566, 0.0234547015, -0.1194822490, -0.0219677966, -0.0088602146, 0.0543026812, 0.0571796037, -0.1060508713, 0.1047393605, -0.0779597461, -0.0279578455, 0.1624409854, 0.0623516999, -0.0670450926, 0.2468731105, 0.0095824366, -0.1091169193, 0.0632306337, 0.0531167984, 0.0592899173, 0.1152982488, 0.1716927290, 0.0639306679, 0.0875679106, 0.0137853548, -0.0229984969, 0.0057406458, -0.0887310281, 0.0015135061, -0.0127008939, -0.1120191067, 0.1303500086, 0.0005264744, -0.0096707484, -0.0924537778, 0.2167596072, 0.0231533628, 0.0912354141, -0.1172220483, -0.0024486908, -0.0778926909, 0.0781059042, 0.0115413442, -0.1526990235, 0.0677578524, 0.0235074628, 0.0093183238, -0.1462983340, 0.1003236696, -0.1104194298, -0.0052479864, 0.0692874789, 0.1336794496, -0.0155123528, 0.0736135617, 0.1170198992, 0.0905655548, -0.0181790516, -0.1196243986, -0.1243544817, 0.1790159345, 0.0219218377, 0.0289521348, -0.0907903686, 0.0361587629, 0.0314190984, 0.0245397948, 0.0034049272, 0.0017273861, 0.1035596877, 0.0609785542, -0.1100484580, 0.0989021137, -0.0274653509, 0.0215703435, 0.0489335619, 0.1006954685, 0.1197510362, 0.1987147778, 0.0976831168, 0.0759194940, 0.0772929266, 0.1105708405, -0.0229821149, 0.1369078606, 0.0880606472, -0.0956859067, 0.0053662122, 0.0924379528, 0.2175036818, 0.1512693763, 0.0418087505, 0.0047599073, 0.0947366282, 0.1649960428, 0.0078261737, -0.0921237171, 0.2157576829, -0.0979084820, -0.0051288013, 0.1494207978, -0.0705189556, -0.0324562415, 0.0489742458, 0.0710713565, -0.0387346074, 0.1955844462, 0.0925661325, 0.1263415813, -0.0262932666, 0.0552921072, -0.0066424003, 0.0210764501, 0.1223730072, 0.1047466099, 0.0475595146, -0.0060890922, 0.1200860515, -0.0170676149, -0.0407135412, -0.1608799696, 0.0789282471, 0.0453530513, -0.0054176645, 0.1593200713, -0.1030953899, -0.0572259873, -0.2194357812, -0.1768796593, -0.0714665055, -0.0309858769, -0.0423305966, -0.1133346558, 0.0246960409, -0.0934291109, 0.0543963462, 0.0245754998, -0.1478713602, -0.0808203965, 0.0289559048, -0.1421950310, -0.2005375326, -0.0324221551, -0.1102982536, -0.1217468083, -0.0015940826, -0.0485110730, -0.0720808432, -0.1436114758, 0.0830633715, -0.0700378194, -0.1817203611, -0.1479750723, 0.0288704671, 0.0072194864, -0.2076310813, -0.1071031019, -0.0182775836, 0.0224165265, 0.0008220778, -0.1494645923, -0.1291658282, -0.0666202903, 0.0747753456, -0.0335454941, -0.1211136580, -0.0010254668, -0.0168578997, -0.0519917533, -0.1240851432, -0.1253661662, -0.1145219207, -0.1339080930, -0.1639352292, -0.2031179070, -0.2235930413, -0.0447828621, -0.1179587394, -0.1046732366, 0.0261943024, -0.1911879778, -0.0126440702, -0.0836718678, -0.0054493458, -0.1591751575, -0.1631378084, -0.0385949649, -0.1770070940, -0.0822814256, -0.1867170185, -0.2170062363, -0.2158394754, -0.1604559720, 0.0034249979, -0.1582844406, -0.0765044093, -0.2312757969, -0.0164582673, 0.0464673154, -0.1358380020, -0.0577028692, 0.0275657624, 0.0430176519, -0.0159462523, -0.1880527437, 0.0279308911, -0.0754875913, 0.0150542473, 0.0651880056, -0.0505341329, -0.1279289275, -0.0727446824, -0.1169984117, -0.0550279208, -0.1298648417, 0.0677564964, -0.0883334801, -0.2092634290, -0.0649102330, -0.0894859582, -0.0951176286, -0.1575902104, 0.0596827939, -0.1348931193, -0.0008430015, -0.0015817725, -0.2202872038, -0.1469841301, -0.0368424915, -0.0850034729, -0.1227744222, -0.0494673550, 0.0794939548, -0.0393233523, -0.2514302135, -0.0871633515, 0.0585237369, -0.0980192497, -0.1891739219, -0.1027135402, -0.1364737600, -0.0398922861, -0.0571532808, -0.0933868513, -0.0562718958, -0.1992662549, 0.0518202297, 0.0017995882, 0.0574614033, -0.0847115219, -0.0212466195, -0.0911126360, 0.0152467359, -0.0799320117, -0.0375319980, -0.1412172765, -0.0505567081, 0.0839787722, 0.0156778861, -0.0814666897, -0.0149331708, 0.0474183187, 0.0135623543, -0.0657112971, -0.0271515865, -0.0459874570, 0.0557041988, 0.0312022213, -0.0023555884, 0.0364090540, 0.1063532755, 0.0042307093, 0.0320032835, -0.0393545777, 0.0619377866, 0.0866308808, -0.0530972183, 0.0802231878, 0.0175133012, 0.0478050709, -0.0388323963, -0.0607911386, -0.0130849760, 0.0315019265, 0.0807603523, 0.0058582770, -0.0064877900, -0.0515247099, 0.0053768163, 0.0729577690, 0.0147886015, 0.0577029847, 0.1044428423, 0.0134679545, -0.0593716018, -0.0643920377, 0.0507655144, 0.0410638377, 0.0400213264, 0.1139452383, -0.0161924288, 0.0516551286, -0.0812818035, 0.0027887055, 0.0512140840, -0.1269299239, 0.0379981808, -0.0911961570, -0.0529235005, 0.0399545468, -0.0149795879, 0.0228515621, 0.0132389879, -0.0498084314, -0.1289858222, -0.0983042493, -0.0076578236, 0.0247583799, -0.0571744218, -0.0010494089, 0.0554778762, -0.0212506950, 0.0139629478, 0.0321914926, 0.0503235534, 0.0759998858, -0.0530490316, -0.1026072055, -0.0517704934, 0.0250437148, 0.1148197651, 0.1038363054, 0.0046730153, 0.0238804854, -0.0167543069, -0.0270135179, -0.0932418108, -0.0201865472, 0.0567208640, 0.0719778389, -0.0739116371, 0.0415157937, 0.0694654509, -0.0273838248, 0.0322249979, -0.0761134848, 0.0456117950, -0.0689882487, -0.0012728547, -0.0527361147, -0.0347162895, 0.0263481028, 0.0561576262, 0.0665388405, 0.0572694018, -0.0734203681, 0.0731318966, -0.0264517628, 0.0623027943, -0.0184042733, -0.0304328520, 0.0810917169, -0.0105657401, -0.0083395271, -0.0131322145, 0.1216155365, -0.0669371262, -0.0105113918, 0.0444805957, -0.1122179925, 0.0240351781, 0.0379301682, 0.0212473348, -0.0280489642, 0.1300797909, -0.1504154056, -0.0644769594, 0.0593595058, -0.0133595653, 0.0043934351, 0.0998429954, 0.0431724004, -0.1437857747, -0.0343811549, -0.0337866768, -0.0460116044, 0.1124048904, -0.0651340708, 0.0527779646, -0.0306329336, 0.0775639117, -0.0246731266, -0.0626236200, -0.1244624108, -0.1225241348, 0.0092918761, 0.0558421686, 0.0250558257, 0.0675007999, -0.0651105866, 0.0114043327, 0.0173832197, -0.0324230939, -0.0630920976, 0.0653317496, 0.0283880159, 0.1180586815, -0.1774958372, 0.0724265650, 0.0929267555, -0.1273573339, 0.0332957134, 0.0646849796, -0.0016003727, 0.0307959672, 0.0689116418, -0.0552567281, 0.0984869599, 0.0301839747, 0.0534390658, -0.0423775204, 0.0570019335, -0.1387882531, -0.0347411223, 0.0415074080, 0.0071834275, -0.0699933842, -0.0093943691, 0.0030591772, -0.0479285754, -0.0127988365, -0.1014056280, 0.0766830817, -0.0122891786, -0.0025126457, 0.0543087460, 0.0542860962, 0.1061762497, -0.0063337409, 0.1899225414, -0.0521858744, 0.0056224870, -0.0085885646, 0.0312727988, 0.0975029096, 0.0107237883, -0.0604558364, 0.0142288888, 0.0037454644, 0.0208964217, -0.0377710536, 0.1062053666, 0.0266996268, -0.0338852443, -0.0571545251, 0.0460347645, -0.0235379413, -0.0112557253, 0.0054589743, -0.0889737830, 0.0924702212, 0.0350178927, -0.0091035208, -0.0646592826, 0.0598477013, -0.0452284627, -0.0489117168, 0.0075986544, -0.0597670712, -0.1376143247, -0.0119359614, -0.0591014735, -0.0159058124, -0.1206078976, -0.0049722227, 0.0578836389, 0.0010410768, -0.1158040836, 0.0102045257, -0.0075158384, 0.0163540486, 0.0256811474, -0.0670346916, 0.0568472743, -0.0609346405, 0.0566205457, -0.0156131247, 0.0506443456, -0.0605558716, -0.0698006451, -0.0776344836, 0.0091497907, 0.0012580811, -0.0057848315, 0.0279682372, -0.1141529381, -0.1868481934, 0.1343599856, -0.0013923630, 0.0881531239, 0.0330962315, -0.0213008747, -0.1165565103, 0.0938887373, 0.2227068394, -0.2660247982, -0.2323649377, 0.0707568526, -0.1012769863, -0.3005695939, -0.0346947871, -0.0889840126, 0.3908396661, -0.1721366495, -0.0130960410, 0.1530578434, -0.0043117106, -0.0149755301, -0.0946699902, 0.3251079619, 0.2301714420, -0.0530542023, -0.0586335026, -0.0295013618, -0.0136094615, -0.0290961061, 0.1419324428, 0.1074369475, 0.0456267968, 0.1421809345, 0.0615978613, 0.0548263006, -0.1326284707, -0.0932772458, 0.1487509608, 0.1385489553, 0.2253555357, 0.1603158861, -0.0773506314, -0.0151460906, 0.0241428837, -0.1226377860, -0.1061938852, 0.0410748236, 0.1457619220, 0.1550234705, 0.0339977331, -0.1689536124, 0.0544491895, -0.1927268654, -0.0447114967, -0.0605133697, 0.1340053380, -0.1605783701, -0.3081537187, 0.1786457449, -0.1461327374, -0.2460906059, -0.0315208323, 0.0733784288, -0.0593572296, 0.0286661219, 0.0832582787, -0.0993629470, 0.1697650254, -0.1905609518, 0.0196552705, 0.1587990224, 0.2931471765, 0.2394967377, -0.0882307142, 0.0194097552, 0.0686115995, -0.1078742743, -0.1436321437, 0.2758549154, -0.1339410692, 0.2144410908, 0.0526139811, -0.1679522395, -0.0429010354, -0.3033948541, 0.0429776348, 0.2314564437, 0.0822799951, 0.1371841729, 0.0579258390, 0.0413581617, 0.2981396019, -0.3734010458, -0.1770466119, -0.1649635136, -0.1442712694, 0.2470080256, -0.1023168638, 0.1534798741, 0.0238417145, 0.1742601097, -0.0111547727, -0.1921026409, 0.1202722192, -0.0611752197, -0.1885907352, -0.1849935204, 0.0893948674, 0.1086971015, 0.1567365378, 0.2906540036, -0.0531170256, 0.1901515126, 0.2369820625, 0.0423010588, -0.2582635283, 0.0764334202, 0.0590836219, 0.1391988695, 0.1912381798, -0.2253395468, -0.2760712206, 0.0646434724, -0.1069161445, 0.1078677922, 0.1931870580, 0.0370842256, 0.0057151383, -0.1444686502, 0.0611438677, 0.0581602566, 0.1426582485, -0.3982090354, 0.1348995119, -0.0298320800, 0.1505568027, -0.3292979300, 0.0200198404, 0.3451684415, -0.0931207612, 0.2298257798, 0.1011305973, 0.0517889373, 0.2847107649, -0.1476128101, -0.1094589010, -0.1801043451, 0.0620165765, -0.0560935028, -0.0974537507, -0.0580223761, 0.1882692277, -0.1345264763, 0.2169927359, 0.0548775159, 0.0636660084, -0.0873321667, 0.2522195876, 0.0263818707, 0.0685194731, 0.1906825006, -0.0629476756, 0.1075402722, 0.0182988942, 0.0412539542, -0.0103767132, 0.1321007758, 0.1261333376, 0.3937498331, -0.1809503585, 0.1035332754, 0.3161046803, -0.3700323999, 0.1379409283, -0.0490568727, 0.1179272979, -0.1126016304, -0.1432016790, 0.1298942864, 0.0433474444, -0.2494066507, -0.1872732639, -0.0796198621, 0.0935242400, 0.0364594609, -0.1183661073, 0.0083399815, 0.0751295537, 0.2853605151, 0.0311909355, -0.0629669800, 0.2171887457, -0.1398892254, -0.0297031030, -0.2698767483, 0.1321023703, 0.0730039030, 0.0210357513, 0.0687757954, 0.0071983514, -0.1962444484, -0.1602667570, -0.1171481088, 0.0575161651, 0.0710490197, -0.1095821261, -0.2625972331, -0.0519283414, 0.1502722502, -0.1888917089, -0.0466451794, -0.0619095676, -0.3129436672, -0.0162860584, -0.0128485402, 0.3513959646, 0.0453952327, 0.0173564777, -0.2412212640, 0.1860317886, -0.1960908473, 0.0172688924, -0.2662943304, -0.1186980233, -0.0111714108, 0.0804025903, -0.1705939919, 0.1017397717, 0.1833461523, 0.1783980280, -0.0269046258, 0.0554588102, 0.2474803478, 0.0730073676, 0.0471299924, 0.0438550115, 0.1846202612, -0.1744881421, 0.0663822666, -0.1710726023, 0.3435415626, 0.2820732296, -0.0710360035, 0.0083526419, -0.0873839706, 0.1033313349, 0.0454660766, 0.2577314377, -0.0528787076, 0.1739730984, 0.0765319169, 0.1053816378, 0.1270142049, -0.1081910878, -0.0330922194, -0.1379067153, -0.0671503544, 0.1457295716, -0.0723831505, -0.0032314840, 0.2633191943, 0.2830250263, 0.0153262289, -0.2347200066, -0.0418170728, -0.0679969043, -0.1209893748, 0.0290975403, 0.0170464013, 0.0289421510, 0.0916462913, -0.0338172317, -0.0219099540, 0.0329728052, 0.0161155723, -0.0346087292, 0.0574556030, -0.0996056274, -0.0402864814, -0.2159665376, -0.0435334407, -0.2101252228, 0.1903253943, -0.1613465399, -0.2144499868, -0.0658789054, -0.1262442023, 0.2016572207, 0.0788225532, 0.0334330536, 0.1062021255, -0.0200809631, -0.0960737094, 0.0120242210, 0.0747438893, 0.0038134539, 0.0916926637, -0.0265142247, 0.0065477267, -0.1175314784, -0.0799507722, -0.0300176442, -0.1060267165, -0.0722673610, 0.0185731854, 0.0741694123, -0.1107160524, 0.0313271098, -0.0957208872, -0.0182443801, -0.1641736627, -0.0760169625, -0.0552784093, -0.0484288856, -0.3273042738, 0.0303623639, 0.1840376705, -0.0352568366, -0.1765384078, -0.0284900945, -0.1505260170, -0.0998124108, 0.0103008216, -0.1967661083, 0.0641361028, 0.2131145746, 0.0424941666, 0.0131489867, -0.1450323462, -0.0154437153, 0.1421264112, 0.0513509810, -0.0698401630, -0.0730786100, -0.2472817451, 0.1549363583, -0.0727651119, 0.0462999307, -0.0298938993, -0.0336567424, -0.0816330761, 0.2107718140, -0.0816907287, 0.0636293516, 0.1764815599, -0.1459423155, 0.3033833504, -0.1934621483, 0.0292018093, -0.1080234721, 0.1691877246, -0.2603067756, 0.0550918691, -0.0283362754, -0.1486923248, -0.0362226963, 0.0295773502, 0.0681758597, -0.1043791696, 0.1084281579, 0.1446180195, -0.1341627091, 0.0097612021, -0.1842163801, -0.1114662290, -0.0813599750, -0.0566176027, 0.0839501247, -0.0855138749, -0.2924315631, 0.2545439899, 0.2424343526, 0.0018787377, -0.2492299527, 0.0079785343, -0.1455298215, -0.0244893618, -0.2385344952, -0.0289111827, -0.2811706364, 0.0365859605, 0.1721295863, 0.0720010400, 0.1524743736, -0.0957817659, 0.1906619966, -0.1244150549, 0.0146457013, 0.1026050225, -0.2009030133, 0.0380030349, 0.1470097601, 0.0346088670, 0.1024279520, 0.0733981431, 0.1286797673, 0.0477217771, 0.0707061738, 0.0814415365, 0.2691943347, -0.3080581129, 0.0233838633, -0.0055109491, 0.0398093984, 0.0792779848, -0.1144107953, 0.0894029289, 0.1707684845, -0.0676918328, 0.0010564969, 0.0174389891, 0.0840216428, -0.0105136437, 0.0138477981, 0.0532529093, -0.2125423700, 0.2122498751, -0.0134496307, -0.0775596425, 0.1378953904, 0.1573116332, -0.1477660537, -0.0410271585, 0.0494824089, -0.0683338419, -0.2602815628, -0.0009762704, 0.2460615486, -0.0898653716, -0.0143206520, 0.1047802716, -0.0498963073, 0.0431356505, -0.1280224323, 0.0630409569, -0.1095826998, -0.2114849240, 0.0549796037, -0.0587646440, 0.0112406220, -0.1115298495, -0.1122905016, -0.0259297192, 0.0579914041, 0.0277900733, -0.0110120773, 0.0992883220, -0.0882289261, 0.2025076449, -0.1134797335, -0.1261084229, 0.1766725183, 0.2171236724, -0.0964107364, 0.0852473900, 0.0666238219, -0.1176918373, 0.1038263887, 0.0651857108, -0.0674708784, 0.1287840307, 0.0643118173, -0.0241404101, -0.0674922168, 0.0389153659, -0.1223293617, -0.1363288611, -0.0533299856, -0.2752886117, 0.0524074063, 0.0311179068, -0.0037688864, 0.1227536947, 0.1660544723, -0.1780833751, -0.1655556560, -0.2347445041, 0.1441718638, 0.0567705631, -0.0956622884, -0.0563104972, 0.3296754360, -0.1300061196, 0.0091242092, 0.0834823251, 0.1478089839, -0.2126012594, -0.0003802800, -0.0491170548, 0.0511502437, -0.0605880544, -0.1958779544, 0.0292756930, -0.0529536791, 0.0304881129, 0.1645117402, 0.4935123026, -0.0097717568, 0.0014993467, -0.1273909956, -0.0799797177, -0.1478798240, 0.1046568528, 0.1648033112, 0.0189570412, 0.2967483103, 0.0316769667, 0.0749291852, -0.0148001621, -0.0709006637, 0.1738393903, 0.0211353675, -0.1080739573, 0.0481657498, 0.0957166329, 0.0049892152, 0.2267760336, 0.1588410288, -0.0639324114, 0.0528064668, 0.1559714526, 0.0902787521, 0.0339397602, 0.0678005069, 0.0797406808, -0.0464911498, 0.0567245856, 0.1204432771, 0.0646783337, 0.2100479752, 0.0317858942, 0.0392049253, 0.0532049201, 0.1037193313, 0.0114364373, 0.0024962616, 0.0049754460, 0.1812749505, 0.0826383457, 0.0723810717, 0.1084249020, -0.0114522679, -0.0986990407, 0.1296946704, 0.0726961941, 0.1643076986, 0.0737990960, 0.0345420986, 0.1210006997, 0.1908705980, 0.0761633366, 0.1898790598, 0.1826873422, 0.0374677144, 0.0353849195, -0.0255203396, 0.0692096874, 0.0760251209, 0.0793435797, 0.1141133904, 0.0421481952, 0.1547128111, 0.1854769289, 0.0581702292, 0.1741674989, 0.1115829498, 0.0834722668, 0.2477690876, -0.0552392527, -0.0025307399, 0.0677498728, 0.0446094312, 0.0814045593, 0.1311106533, 0.0085598817, 0.1714768112, 0.2432610095, 0.0863838419, 0.0434731357, -0.0463433899, 0.0425095335, -0.0073460503, 0.0223357510, 0.0131876860, 0.1242504269, 0.0533900149, 0.0460565649, 0.1022794396, 0.1023044884, -0.0005807669, 0.2114369720, 0.0646265224, -0.0039418838, 0.0773541108, -0.0104399649, 0.0081957597, 0.1362724155, 0.0768519863, 0.0003765667, -0.0158979949, -0.0055257343, 0.0225336663, -0.0088631706, 0.1501957625, -0.0526792146, 0.2488948405, 0.0428321995, 0.0834122375, 0.0418356359, 0.0558047928, 0.1646433324, 0.0620594770, 0.0016947297, 0.0226158816, 0.0173905138, 0.1508295834, -0.1747925878, 0.1128143817, 0.1870559752, 0.0729635209, 0.0081626363, 0.0602651946, 0.0795527771, -0.0533474572, 0.0047572246, -0.0131036909, 0.0050719944, -0.1268290132, 0.0957363695, 0.0414497145, 0.0734340623, 0.0825830027, 0.0251895748, 0.1473044753, -0.0645085946, 0.2202942371, 0.0195664484, -0.0262787007, 0.0233001839, 0.1222269312, 0.0081143733, 0.0668370947, 0.0012022639, -0.0096158488, 0.0289425440, -0.1009724289, -0.1521036923, -0.0604724921, -0.1053489000, -0.0603769571, -0.0419964828, -0.0611406602, 0.0357953981, -0.1627528965, -0.0959749892, -0.1849257052, -0.0569942221, 0.0829379484, -0.0862558708, -0.0192353874, -0.0756073147, -0.1211786419, -0.1468122602, -0.1862321049, -0.0058616647, 0.0115852375, 0.0008465771, -0.0937974527, -0.1409633756, -0.1357446611, -0.1066015512, 0.1102783531, -0.0498583950, -0.0415890962, -0.0755413100, 0.0054156682, -0.2486392111, -0.1111525595, -0.0252494533, -0.0818333477, -0.0670906603, -0.1698313951, -0.0843270794, -0.2077528387, -0.0581712089, -0.0924018994, -0.0209997669, -0.1525982022, -0.2195495069, -0.0827307329, -0.1186836585, -0.1637594551, 0.0305359140, -0.2156292200, -0.1291049123, -0.1165484041, -0.1829988360, -0.0762459487, -0.0267802309, 0.0146863619, -0.0213279054, -0.1260999143, 0.0398548916, -0.0871791244, 0.0196466073, -0.0440990813, -0.1440539062, -0.0141622834, -0.0094147697, -0.1975962073, -0.1224957258, -0.1106682196, -0.0669051781, -0.0070630950, -0.0603663921, -0.1271242946, -0.1380459070, -0.0302812811, -0.0396959111, 0.0079118311, -0.1008787081, -0.0781114697, -0.1916588098, -0.0809521377, -0.1007240415, -0.1370393634, -0.1100575253, -0.2518756688, -0.1607607305, -0.0921684504, -0.0922977254, -0.1846634895, -0.1232414320, 0.0600099936, -0.0761243850, -0.0509378128, -0.0892192647, -0.0881318301, -0.0231971834, -0.0671560094, -0.0889676362, -0.0795949176, -0.1160971001, -0.1670735478, -0.1846774966, -0.1828294992, -0.0496922396, -0.0716973469, -0.0299475826, -0.2037831694, -0.0718555748, 0.0037524092, -0.0047981390, -0.1636534780, -0.0624155365, 0.0622110441, -0.0890421346, 0.0266513005, -0.1044185534, 0.0318329856, -0.0644113496, -0.0440561883, -0.0093496162, -0.0771734715, -0.1419150978, -0.1610089988, -0.0863799900, -0.1711457968, -0.1704885215, -0.1120048091, -0.1482698619, -0.1162051931, -0.0685500652, -0.2297886312, -0.0480604209, 0.0573592670, 0.0637773201, -0.0154485535, 0.0905447975, -0.0094795953, -0.0493837334, -0.0419681557, -0.0153034115, 0.0428206213, 0.0837219954, -0.0738223866, -0.0545233078, 0.0828911662, -0.0341069587, 0.1074324399, 0.0874404088, 0.0121876700, 0.0096340189, -0.0323637500, 0.0606878996, 0.0218091421, -0.0445808806, -0.0437918454, -0.0431801789, -0.0360672772, -0.0442966148, 0.1169085279, 0.0346296951, -0.0106667848, -0.0008865510, 0.0541730039, -0.0166706461, -0.0384977236, 0.0433995239, 0.0255889017, -0.0219058637, 0.0590026192, -0.0242149234, 0.0129087428, 0.0173026528, 0.0114030680, -0.0361872874, -0.0268442612, 0.0130333342, -0.0776698217, -0.0271765925, -0.0602584481, 0.0435054973, -0.0221472066, -0.0845538005, -0.0097215753, 0.0393998735, -0.0268203281, -0.0626563281, -0.0636970773, -0.0005182698, -0.0491335541, 0.0054254634, -0.0419768207, -0.0199095495, 0.0190365426, -0.0012426255, 0.0519202724, -0.0074473806, 0.0205248669, 0.0613708310, -0.0235941764, 0.0624913163, 0.0363278314, 0.0406440645, -0.1185779870, 0.0509258434, -0.0677777305, -0.0219204929, -0.0144078014, -0.0044056321, -0.0018840180, 0.0325326473, -0.0140022067, 0.0101168631, 0.0046220468, -0.0261223242, -0.0108398646, 0.0107584009, 0.0298878718, -0.0151096992, 0.0352757238, 0.1363629252, 0.0035181893, 0.0452717841, -0.0690986812, 0.1641592681, -0.0461917371, 0.0226221010, 0.0383088328, 0.0232326891, -0.0479397289, 0.0643823147, 0.0539209209, -0.0937192813, 0.0441240966, -0.0282826144, -0.0033480877, 0.0982418284, 0.0667299405, 0.0455467515, 0.0594908521, 0.0111362329, -0.0426520668, -0.0315778144, 0.0205559190, -0.0431173593, 0.0566844866, 0.0019883080, -0.0954265445, 0.0000906478, 0.0188510809, 0.0119435061, -0.0393712036, -0.0374861471, -0.0389891937, 0.0982013419, 0.0479856469, -0.0348348841, -0.0634909123, 0.0481404476, -0.0484178662, -0.0162857678, 0.1661259383, -0.0422415249, 0.0476453081, -0.0795504525, 0.0587300844, 0.0633235946, 0.0794839785, -0.0375748612, -0.0254081767, -0.0117026158, 0.0479196161, 0.0563842021, 0.0291551407, -0.0250228606, -0.0718062147, -0.0404089019, 0.0247440971, 0.0503252707, 0.1408056766, -0.0881402045, -0.0223320872, 0.0772816837, 0.0440058634, 0.0437579975, 0.1362082362, 0.0027723566, -0.0414672457, -0.0322646014, 0.0418986045, -0.0605113320, 0.0333713926, -0.0165517684, -0.0369441248, 0.1589527279, -0.0051600221, -0.0838202760, -0.0616169497, 0.1810934991, -0.1107989624, 0.0764529407, 0.1081028432, -0.0838104412, 0.1105262935, 0.0041075340, 0.0914884508, 0.1006895900, -0.0048080580, 0.0779183805, -0.0950978771, 0.0284672678, 0.1128302440, 0.1709499061, 0.1408870369, -0.0868309736, -0.0194078013, -0.0032525321, 0.1117926538, 0.0652004629, -0.0340925530, -0.0140053220, 0.0148213180, 0.1623102725, 0.0724159628, 0.0939546749, 0.1216156185, -0.0522393472, 0.0914335772, 0.0894398615, -0.1810383499, 0.0754811168, -0.0861416236, -0.0292656180, -0.0089177098, -0.0399502143, -0.0400105901, 0.0401210524, 0.0865979716, 0.1079608649, 0.0709850937, 0.0436475202, -0.0899288058, 0.0383866318, -0.0174654927, 0.1057310477, -0.0062603285, -0.1118373424, 0.0721050426, -0.0026501487, -0.0500096194, -0.0219442751, 0.1057975069, 0.0459236726, -0.0126303509, 0.0855688825, 0.1528794020, -0.0119158085, 0.0858424231, -0.1339405775, -0.0431996435, 0.0204606634, -0.0484388955, -0.0315516144, 0.0160278361, 0.1195765659, -0.1293188930, 0.0522370040, -0.0227804780, 0.1257822812, 0.0084956307, -0.0604663379, 0.0782168955, -0.0500750579, 0.1078086942, -0.0421751589, 0.0008410581, -0.1034327075, -0.0374049656, 0.0336029679, 0.0517060049, -0.0871053040, 0.0623817034, 0.0066198097, 0.0824526250, 0.0202895608, 0.1105494127, 0.0850567445, -0.1087303236, 0.0464571640, 0.0391551256, -0.0193824191, 0.2355158031, 0.2554132342, -0.0143152010, -0.0212243106, 0.0900194943, -0.2466445863, -0.0640717894, -0.0550318621, 0.0423163846, -0.0293152630, 0.0199848600, 0.0607822277, 0.1060456410, 0.0684184209, 0.1439765543, 0.1135194227, -0.0358177274, -0.0123386960, -0.1426677257, -0.0404278301, -0.0864246488, 0.0147196883, 0.1862138957, -0.1504793316, 0.0302663408, 0.0727847666, 0.0111090969, 0.0129934363, 0.0728554800, 0.1771094501, -0.0803727657, 0.0153746437, -0.0471009798, -0.1228052005, -0.0809660405, 0.0967370570, 0.0642319843, -0.0877112746, -0.0762702227, 0.0152630974, -0.0891986489, 0.0505629703, 0.0115240952, -0.0715695620, 0.0356592722, -0.1642425656, -0.1307204664, 0.0570796132, -0.0664350167, -0.1855205595, 0.1137148067, 0.0583043545, -0.0101469094, -0.1177533194, 0.1627278030, -0.1071182564, -0.0069328826, -0.0379338637, -0.0380065031, -0.0010977577, -0.0127984770, 0.1195516065, 0.2135667354, -0.0463680848, 0.1042009741, -0.0713729635, 0.0622994006, -0.0674099550, -0.2209223062, -0.1020778492, -0.0481926464, 0.0453143530, 0.1298050135, 0.0021602076, 0.0559957549, -0.0153012220, -0.0569351166, 0.0962829366, 0.0579502173, 0.0365270972, 0.0161787458, 0.0862656608, 0.1886981428, 0.1182520837, -0.0077328547, 0.2543846071, -0.0267978776, -0.1306219101, -0.0666777194, 0.0056155114, -0.1623592377, 0.2019541562, -0.0078890380, 0.0484336168, 0.0695494488, 0.0164496023, -0.1505899429, -0.0199942198, 0.2478050739, 0.1258429885, 0.0557147227, -0.0690280199, -0.0433294922, 0.0986055955, -0.1403398067, -0.2297885269, 0.2442920357, 0.0281964075, 0.1649259478, -0.0032727963, 0.1018719748, -0.1250444651, -0.0222918764, -0.0305287540, 0.1614255756, 0.0787957832, -0.2917916775, 0.0514690764, -0.3070545197, 0.3271943331, -0.1039848104, 0.1353426278, -0.1075062528, -0.2021400034, 0.1236430630, 0.0042784736, -0.0710961074, -0.0533131957, 0.2926144004, 0.0864635631, -0.0154979806, -0.0287687797, -0.0303827729, -0.1832605004, 0.0202073213, -0.0912129581, 0.1476121545, -0.1656464487, -0.0282920934, -0.1237056553, -0.0327984542, 0.0485269763, 0.0295068286, 0.0180916376, -0.1849608272, -0.0543940812, -0.1964501292, -0.0112424865, -0.0744275376, 0.0342034772, 0.1476775557, 0.0139412377, 0.0171629451, -0.0671929494, -0.0044210004, 0.0489959344, -0.0590886362, 0.0086496882, 0.0162348356, -0.0260120444, -0.0705429465, -0.0906524807, 0.0730105639, 0.0302881561, 0.0894166008, -0.1574179083, -0.0284797065, -0.1179400161, 0.0002400611, -0.2015032917, 0.0882628933, -0.0034056162, -0.1774004251, -0.2215899080, -0.1188791171, 0.0161105879, -0.2889695168, -0.2150379866, 0.1446381956, 0.0482579917, 0.0998381749, -0.2079876363, 0.0965570509, -0.1351712644, -0.0093771312, -0.1073835492, -0.2247254550, 0.0286736917, -0.0300971251, 0.1181053147, -0.0577677712, -0.1363714188, -0.1181893274, -0.0761822686, 0.0497383550, -0.1875407845, -0.0407336429, 0.0636845455, 0.0423584431, 0.0695125833, -0.0211736932, -0.0651473850, 0.1188545004, -0.0279074386, -0.0483450815, 0.0969588608, 0.1400513351, -0.0939633921, -0.1282526851, -0.1083501801, 0.1404495835, 0.0675691813, -0.0255449712, 0.0757591352, -0.0961307511, 0.0895072594, -0.0274829380, -0.0661758184, -0.2249803245, -0.0064779734, -0.0812686905, 0.1138882488, 0.1185098737, 0.0353840068, -0.2250939310, -0.1495298594, -0.0046934839, -0.2018078417, 0.0358516723, 0.0314977244, 0.1384956986, -0.0272229873, -0.0144952759, -0.1909753829, 0.0503422618, 0.0434630252, 0.1750842631, 0.0179398321, -0.0604175068, -0.1071874425, 0.0421387069, 0.2126884609, 0.1322399825, 0.1411363184, -0.1807933897, -0.0260157902, -0.2140403539, 0.1111261398, 0.0178472530, 0.0760794282, -0.0113714496, 0.0096839322, -0.0378023610, -0.0513610058, 0.0091036037, -0.0234314483, -0.0474474616, 0.1940199584, 0.0990186334, -0.0715908632, 0.0141685391, -0.1357724220, -0.0216922648, -0.0037508309, 0.0622389652, -0.0840792358, -0.0096939616, -0.0743697509, -0.1067408323, -0.0294221435, 0.0321274437, 0.0235480107, -0.0430109240, 0.0398118384, 0.0702746287, -0.0862728059, 0.1106919274, -0.0083762994, 0.0364680141, 0.0799225569, 0.0144060357, -0.1423697770, -0.0392208360, 0.0718703121, -0.0926251784, -0.0756134242, 0.0156291928, -0.0189857353, 0.0476866364, 0.0011203728, -0.1014378443, -0.0631515980, -0.0343599990, 0.0790600926, 0.0362874605, 0.1268616766, -0.1216076240, 0.0811070502, -0.0802068636, -0.0065050344, 0.0901701003, 0.0843091756, 0.0111246258, -0.0223312061, -0.0213190112, 0.1006618589, 0.0353130177, 0.0041229790, -0.0099735856, 0.0200061910, 0.1387255043, -0.0636201203, -0.0056257560, -0.0221656803, 0.0516664498, 0.0533225760, -0.0854172707, -0.1682787240, 0.0901642516, 0.0429429747, -0.0197633486, 0.0430165790, -0.0515559837, -0.0878693387, 0.0307705775, -0.0147857284, 0.0493957214, -0.1043465137, 0.0519182608, -0.0377220064, -0.0765345693, 0.0859989822, -0.0203664824, -0.0628750101, 0.0353552550, -0.1001821160, 0.0038212528, -0.1579530984, -0.1526126862, -0.0284545645, 0.1102069467, -0.0881526694, -0.1307765841, 0.0305393916, 0.0775525048, 0.1185819432, 0.0706544295, 0.0145515082, -0.0989667028, -0.0599778034, -0.0359992348, -0.0596101806, 0.0551467799, -0.0080416519, 0.0695649534, 0.0065215374, 0.0308800042, 0.0771713480, 0.0098677510, -0.0769288838, 0.0722789317, -0.0987787470, 0.0348575376, 0.0673960000, 0.0491230302, 0.0569528639, 0.1448177397, -0.0102449469, 0.1436683238, -0.0213012584, 0.1890564710, -0.0199151784, -0.1291082501, 0.0841163993, -0.0275582895, 0.1886620373, 0.0828876272, 0.2243311852, 0.0877587646, -0.0669121519, 0.0122409342, -0.0820486471, 0.0058176303, -0.0882706270, 0.1903465539, 0.1914143413, 0.0190387871, 0.0445404425, -0.0497678593, -0.0860941708, 0.0393096767, -0.1035368964, 0.0610281043, -0.1468793750, 0.0581496954, -0.0096393339, -0.1746060848, 0.0212260000, 0.0654995963, -0.0228937399, 0.0773762390, 0.0178707801, -0.1675891578, 0.0845506713, 0.0655241981, 0.0233250167, 0.0696378872, 0.0202343278, 0.0808647648, -0.1061695740, 0.0581845306, -0.0117019964, 0.0915066600, 0.1719468087, 0.1692091376, -0.0367080756, -0.1997131556, -0.0572338589, 0.0401173942, 0.0203395225, 0.0056926836, -0.0172108710, 0.0345456190, 0.0977218747, -0.0026182365, -0.1964902282, 0.1294627935, -0.0188657958, -0.0309965201, -0.0569243431, -0.0319866836, 0.1324433833, -0.0218147244, -0.1096582413, 0.2571251988, 0.1085164472, -0.0429907031, -0.1219956428, 0.1248300821, -0.1254218817, -0.0037579467, 0.0208816081, -0.1505119950, -0.0619578734, -0.0253075734, -0.0516108871, -0.0068854545, 0.1179431900, -0.0171748754, -0.0532643311, -0.0237028208, -0.2250288576, 0.0509301610, 0.0011542647, 0.0759833753, 0.0008844056, -0.0524699278, -0.0310450271, 0.1920091659, 0.0800400972, -0.0353747755, -0.0386709943, 0.0560787618, -0.0591909178, 0.0564984903, -0.0012796720, 0.0531457141, 0.1309466213, 0.0873855650, -0.0837623477, 0.1237427369, -0.0267178509, -0.0715703368, 0.0399734788, -0.2087605596, -0.0724083781, 0.0545542724, -0.0462319218, 0.0145701412, 0.0786300972, -0.1416891366, -0.1185753793, -0.0494426489, -0.1533151716, -0.1150145754, -0.0425013825, -0.0771595463, 0.0138403839, -0.0434744209, -0.1814951152, 0.0335253514, -0.1451776773, 0.1510984302, -0.0198167954, 0.0125848269, -0.1142718866, 0.0098915752, 0.0083456961, 0.1128479689, 0.1121293008, -0.1190544888, -0.0135166710, 0.0185519662, 0.1872827411, -0.1798435897, -0.0701174140, 0.1043034047, -0.0709182397, 0.0804462954, 0.1041078642, 0.0528560877, 0.0128362346, 0.1930500269, 0.0749526918, -0.0760238022, 0.0743426383, -0.1278331876, 0.0747254044, 0.0257618390, 0.1481431425, -0.1585280001, 0.1484514177, 0.0975971296, -0.0096027115, -0.1020563170, -0.2231885493, 0.1643921137, -0.0110109057, -0.0403185338, 0.0787764192, -0.0672613010, -0.0298692137, 0.0877351612, 0.0170094147, -0.0224432796, -0.0192457344, -0.0645592809, -0.1026215330, 0.0192142744, -0.1110580862, -0.0237812847, -0.0066569620, -0.1157308519, -0.1356674433, 0.0931672081, 0.0116951698, -0.0302988030, -0.1119426191, -0.0640432611, 0.2016067952, 0.0431295112, -0.0531690456, -0.0821524337, 0.0090788826, 0.0228732079, -0.0596684739, 0.0639149472, -0.0222861618, -0.0164620895, -0.0071231271, 0.0153204286, -0.0407366306, 0.1302790493, -0.0057836878, -0.0562907979, 0.0994226858, -0.0613786504, -0.1928544492, -0.1227558479, -0.0929347500, 0.0607923046, -0.0341821909, 0.1456117928, -0.0273896325, -0.2229484171, -0.0432573482, -0.0295276530, -0.1081220880, -0.0755222887, 0.0778822154, 0.0489411689, -0.0202959813, -0.0457431488, -0.1050295159, 0.0954502001, -0.0059309383, 0.1350321323, 0.0530567728, -0.0830644518, -0.0576365441, 0.0219837725, -0.1356635988, 0.0969462544, -0.1957403570, 0.0821289718, 0.1210275516, 0.0507509671, -0.0435793400, -0.0414010547, -0.0432994552, 0.0397293605, -0.0363947228, 0.0263460521, -0.1291044801, 0.0002285737, -0.1108708382, 0.0623302832, 0.0540769808, 0.0189403910, 0.0084352791, -0.0795533657, 0.0333566777, -0.0627400875, -0.2227679640, -0.2080724537, -0.0932933986, 0.0685450211, -0.1251825839, -0.0975197777, -0.0181873813, -0.0820858777, -0.0893653557, 0.0504597984, 0.0732691661, 0.0043111769, -0.1103297770, 0.0151690999, -0.0586696118, 0.0681482106, -0.1123166308, -0.0158911925, -0.0157226194, 0.0985369384, -0.1163707152, -0.0504971556, -0.0695434883, -0.1303423643, 0.0027386236, -0.0529145338, -0.0856161863, -0.0071148085, -0.0563771278, -0.0079260645, -0.0602650382, -0.0819559619, 0.0035876508, -0.0364084244, 0.0597607344, -0.0685725361, -0.0014381903, 0.0231732614, -0.1316735148, 0.0045623779, -0.0640644953, 0.0161087885, -0.1559605747, -0.1385934800, -0.0848693997, 0.0522474796, -0.0160787329, -0.0707051530, -0.0372385792, -0.1019224375, -0.1578199118, -0.0418472327, -0.0127487648, 0.0562281013, 0.0168850571, 0.1532936543, 0.0014413121, -0.0682980195, 0.1278518885, 0.0539646968, -0.1782775670, 0.0224407874, -0.0054067639, -0.0948286802, 0.0846590847, 0.0783819631, -0.0241126716, 0.0864779800, -0.1085079387, -0.0340363495, 0.0447772406, 0.0415270850, 0.1387695521, 0.0186598916, -0.0160608273, -0.0347873122, -0.0678738579, 0.0765340924, -0.1932989806, -0.1113655269, -0.0149240745, 0.0431290306, -0.0479498878, -0.0757646188, 0.0276827905, 0.0668022335, -0.1333346367, 0.1947869956, -0.0875622109, -0.1904806793, 0.1392305791, -0.0642145574, -0.1904762983, -0.0032895654, -0.0494994819, -0.0868317634, -0.0914743841, -0.1477273107, -0.1307045817, 0.0829297379, -0.0181273632, 0.0161114763, -0.0843529031, 0.0130466949, -0.0604034774, -0.0496495105, -0.0495081879, 0.0661459863, -0.0306943972, 0.0678658485, -0.0410295092, 0.0102921426, 0.0114494357, -0.0087390421, -0.0826151222, -0.1686792672, -0.1194994301, -0.0936854854, 0.0172272157, -0.0418770798, -0.0129640829, -0.1259286702, -0.1250382960, -0.0378048085, -0.0009770319, 0.0117400214, -0.2708866298, -0.0922011137, -0.1534348577, -0.0480509847, 0.0224618092, -0.0854227096, -0.0655281991, 0.0004375592, -0.1343232095, -0.1056003198, 0.0208836142, 0.0248962566, 0.0414034128, -0.1063912660, -0.0882491246, -0.0933291614, 0.0835600570, -0.0856850967, 0.0493174382, -0.1032198966, -0.1056362614, 0.0684852600, 0.0557711087, -0.0519163348, -0.1523420811, -0.1395925134, 0.0303701572, 0.0796009451, 0.0700638816, 0.0372023135, -0.0317329988, -0.0167189538, 0.0114401672, 0.0034738872, -0.0706302896, 0.0611705258, -0.0453542918, -0.0780271962, 0.0241985377, 0.1094995514, 0.0392206684, 0.0425646007, -0.0654729009, -0.0604909137, -0.0730690211, -0.0007960275, 0.0034904382, -0.0649974421, 0.0160485338, 0.0247744210, 0.0071965666, -0.1764345765, -0.0787258670, 0.0106407870, -0.0793313235, -0.1039703563, -0.0446780585, 0.0014711514, -0.0307205468, -0.0131993135, 0.0387394316, -0.0421909504, -0.0398262218, 0.1427589208, 0.0664807335, 0.1383547038, -0.0949932039, 0.0090153618, -0.1465286165, -0.0646385774, 0.0093052387, -0.1033709869, -0.1582601070, -0.0297872052, 0.1167207956, 0.0420941897, -0.0491598099, 0.0045851972, -0.0839449614, 0.0674796626, 0.0879974738, 0.0737500712, 0.0409373343, 0.1356615573, 0.0403966159, -0.1493411511, -0.0235824697, -0.0295221265, -0.0247789491, 0.0426433906, -0.0199683644, -0.1145717725, -0.0446514525, -0.0685592741, -0.0249168444, 0.1067702919, 0.1274320781, 0.0838385224, 0.2134158164, 0.0809636265, 0.0205251612, -0.0539863668, 0.1051150337, -0.0539697446, 0.1430410743, -0.1702381670, 0.1494620144, 0.0044130730, -0.1178177297, 0.0233685784, 0.0634381101, -0.0638786107, 0.0062530115, -0.0404001176, 0.1266887635, -0.0557830893, 0.0703995004, 0.0241919272, 0.0698376521, -0.0904510617, 0.0343496986, 0.0138275595, 0.1413015574, 0.0077193263, -0.0044810418, 0.0852125809, -0.0170618799, 0.0475969315, -0.0745430663, -0.0004923887, -0.0993956029, 0.0705026761, -0.0730135143, 0.0603361912, -0.0046711182, 0.0987304300, -0.0200882088, 0.1025409251, 0.1449856162, -0.0914380401, 0.0253569819, -0.0053324029, 0.0075772656, 0.0709656477, 0.0857917294, 0.0522507913, -0.0071832598, -0.0811174959, -0.1597921401, -0.0577034168, -0.0061971936, -0.0951302275, 0.0336632244, 0.0491869189, 0.0216770917, 0.0132577885, 0.0154669089, 0.1967261583, -0.0902235880, 0.0605086014, 0.0391465761, 0.0099384859, -0.1411336362, 0.0202774368, -0.0425096340, 0.1425427496, 0.1432804018, 0.0764928907, -0.0010997254, 0.2279695570, -0.0120094838, 0.0163468551, -0.0551394895, -0.0075218901, 0.0067439824, 0.0947928876, 0.0085893199, 0.0603807308, 0.0097838268, 0.1389540285, -0.1423031539, -0.0066187931, -0.1021446660, -0.0642680675, -0.0004911646, 0.0147246141, -0.0327866599, 0.1125386208, 0.0590611845, 0.0261251461, 0.0630528852, 0.0057662278, 0.1009851396, -0.0172466133, 0.0078358864, -0.0412974171, 0.0051058913, 0.2106145024, -0.0835811421, 0.0989624709, 0.0286417697, -0.0636084750, 0.0078067710, -0.0841991976, -0.0097943237, -0.1131059825, 0.1882511228, -0.0885982215, 0.0197995417, 0.0128522627, 0.0133396238, -0.0210515503, 0.0565620549, 0.1107530296, 0.0031058819, -0.0382219478, 0.0750706270, 0.0425622389, 0.1007027179, 0.0161279552, -0.0328570455, -0.1296228021, -0.0319619291, 0.0911544934, 0.1343286186, -0.0600279644, 0.0346505977, 0.2044971585, 0.1336529553, 0.0482737869, 0.0255539808, 0.0854484439, 0.0861590132, 0.2018825561, 0.2082126439, -0.0052868696, 0.0908188894, 0.0178397540, -0.1387373656, 0.0466847233, 0.0071915258, -0.0940015391, 0.1034865007, 0.0442360602, 0.0052924217, 0.0238525942, -0.0354451090, -0.0392226614, -0.0601028278, -0.0074966042, -0.0230920445, 0.0274399146, -0.0090137282, 0.0044418178, 0.0091232257, 0.0550403111, 0.0099439388, 0.1272788495, 0.0403379835, -0.0199871045, -0.0930474997, -0.1434621513, 0.1593746096, 0.0950348452, 0.0550211780, -0.0247608963, 0.1771803647, -0.0250422470, 0.1400637776, -0.0258220751, 0.1474685967, 0.0668864921, -0.0347124077, -0.0202161893, -0.0543610081, 0.0850262046, 0.0948748440, 0.0956897512, -0.0411092825, 0.0319472663, 0.0202862304, -0.0762676746, 0.0646592304, -0.0233569089, 0.0283636190, 0.0733959451, 0.0894509107, -0.1148168296, -0.0073489533, -0.1253855079, -0.0288687870, 0.0050365371, 0.1278232783, -0.0508386455, 0.1282805204, 0.1164612994, -0.2207249403, -0.1679739207, -0.1271233112, 0.1120724604, -0.1152749658, -0.0430333391, -0.0899787620, -0.1232966557, 0.1208511963, 0.0718490481, -0.0392927602, 0.0081649413, 0.0548673868, -0.0766692087, 0.1323303133, 0.1128370017, -0.1231040359, -0.1099749058, -0.1048263088, -0.1636329591, -0.1506914943, 0.1061556041, 0.1015418991, 0.1376887411, -0.1328274012, -0.1716118455, 0.1747418493, 0.1208681315, 0.1183908209, -0.2389075756, -0.1755264997, 0.0343367383, -0.0122312754, -0.0299487449, -0.0670623630, 0.0087177735, -0.1074495986, -0.0677977279, -0.0217159763, -0.0156517383, -0.0326821171, 0.2271676660, 0.1333617568, 0.0548654981, -0.1865506619, -0.1487269551, 0.0327851772, -0.0068002902, -0.0697569251, -0.0326678865, -0.2117278725, -0.1154747382, 0.0873356760, 0.3165972829, -0.0412635803, -0.0737232342, 0.0177656952, 0.0898206010, -0.1062929407, 0.0420395844, -0.0679300353, -0.0001552698, -0.0198008846, 0.0228898227, 0.0508607924, -0.1306848377, -0.0838939622, 0.0341967940, -0.1984042674, 0.1232171953, -0.1123458967, -0.0151688438, 0.0047189035, 0.1461529285, -0.0253977180, -0.0150903128, -0.0345000029, 0.0323610753, 0.0235998258, -0.1040386856, -0.0566419736, -0.0312090479, -0.1165412739, 0.0301096477, -0.2247168869, -0.0338707827, 0.1378846020, 0.0894103497, 0.1130813435, -0.0433536470, -0.1398421377, -0.0690452680, -0.0662456751, 0.1428830326, 0.0225678869, 0.0005103321, -0.0131932944, -0.1145613268, -0.0984486192, -0.0076644584, 0.2681630850, 0.0004938464, -0.1754861474, 0.1500429958, -0.1725027859, 0.0879911259, 0.0053595393, 0.1644654870, 0.2155034691, 0.0428220220, -0.2163773328, -0.0510663502, -0.0768369138, -0.0840307325, 0.0086806901, -0.1383511871, 0.0372518003, 0.0393378921, 0.0081156567, 0.0023751021, 0.0637181252, -0.1057427004, 0.0306359511, 0.0350948349, 0.1903687268, -0.0450580455, -0.0120651526, 0.0436242223, -0.0029618847, -0.0262604281, -0.0085400408, -0.0824716464, -0.0385147519, 0.0690188333, 0.0137570286, -0.0311084185, 0.0874171630, -0.0286367312, 0.0251635052, 0.0295744799, -0.1788073629, -0.1102150679, -0.0914611816, 0.0267125852, 0.1070758998, 0.1258147955, -0.1393608004, -0.1290846020, 0.0633403435, 0.0799183771, 0.0127032548, 0.1408185363, 0.0133153358, -0.0363139436, 0.0928698406, 0.0451580249, -0.0003126204, -0.0347716697, -0.2407035828, 0.1045885831, -0.0094217230, 0.2148184776, 0.0920891091, 0.1682142764, -0.1324075311, 0.1074356660, -0.1479680389, -0.0171162244, -0.0555999354, -0.0365460850, -0.0125542274, -0.0997503251, 0.1408318877, 0.0093887001, -0.0490760393, 0.0494015366, 0.0118224891, 0.2184468359, 0.0496092662, -0.1267792583, 0.1968708783, -0.0711787865, -0.0843902752, -0.0502536669, 0.0384835973, -0.0837566182, 0.0233783908, 0.1477926821, -0.0775447339, -0.0411101095, -0.0035493837, 0.1651468277, 0.1153717563, -0.0480722524, -0.0206626263, -0.0608278476, -0.0227043610, 0.1748400629, -0.1687909365, 0.0027239793, 0.0357945114, 0.0407042094, 0.1340121925, 0.0535179824, -0.0228080451, -0.0965762809, -0.1853384227, -0.0414349586, -0.0905262083, -0.0273982473, -0.0132678319, -0.0360024050, -0.0562898442, -0.0390428416, 0.0176569838, 0.0841640085, -0.0373220854, 0.0645818785, 0.0726319030, -0.0247840136, -0.1629841477, 0.0953769013, 0.0799486935, -0.0446605124, 0.0068626269, 0.0316796005, -0.0423030369, 0.0717771500, 0.3478175104, -0.0131208999, -0.0412938632, -0.0669845566, -0.0674663186, -0.0745312423, 0.0644556880, -0.0940216109, -0.0810448974, -0.0256009828, 0.0763383359, 0.0399051681, -0.0925476253, -0.1224354059, -0.0757592693, -0.0863901302, -0.0000639257, 0.0120469797, 0.0325436704, -0.1302448809, -0.0746380463, 0.0543213375, 0.1369259208, -0.0815270692, 0.0358101279, 0.0644196868, -0.1428736299, 0.0247755479, 0.0937397704, 0.0718438923, 0.0468821228, 0.0273492206, -0.1254109740, 0.0195173584, 0.0101545900, 0.0347897075, -0.0717105195, -0.0092356335, 0.0589778982, 0.0222143419, 0.0124353813, 0.0892891064, -0.1369915754, 0.0322718024, 0.0463455990, 0.0164745282, 0.0089298449, 0.1112115234, -0.0952913687, 0.0413728505, -0.0560807288, 0.0183479358, -0.0223158933, -0.0229226016, 0.0303687174, -0.0182603933, -0.0563675687, 0.0220370796, 0.0324945636, -0.0579284728, -0.0508089215, -0.1057890356, -0.0047332169, -0.0164144691, -0.0609151125, 0.1096693203, 0.0687152222, -0.0220700391, -0.0895156041, -0.0596662313, -0.0070736096, 0.1315571815, 0.0372231528, -0.0246628728, 0.0354451388, 0.1326990277, -0.0380811766, 0.0483285226, -0.0523517542, -0.1657624245, 0.0882815942, -0.0141017865, 0.0387764499, -0.0100193927, 0.0616227090, -0.0268734787, -0.0389420278, 0.0176540203, 0.0311751626, -0.1428952813, -0.0028145756, 0.0384942964, 0.1077408195, 0.0166637413, -0.0814542249, 0.0276683085, 0.0089399191, 0.0596311502, 0.0587670617, -0.0121056363, -0.0508681908, -0.0736351162, 0.0218738224, 0.0590213761, -0.0038546447, 0.1017760485, -0.0270111077, 0.0332966074, -0.0214384571, -0.0023563104, -0.0668709427, 0.0116613880, -0.1390960068, -0.0019559080, -0.1075677201, 0.0519730076, 0.0609572679, 0.0829125494, -0.0006798510, 0.0412484668, -0.0119017856, -0.0893928632, -0.0855623782, -0.1249245405, 0.0384496935, -0.0370425396, 0.1083981693, 0.0252846386, 0.0325597338, -0.0456318371, 0.0282332543, 0.0878223255, 0.0386175513, -0.1053313166, -0.0279782899, -0.0214236472, 0.0210366547, -0.0894113258, 0.0902612507, -0.0019474612, -0.0032939534, 0.0372663289, 0.1394447982, -0.1400433183, -0.0404697321, -0.0039108032, -0.0622356907, 0.1893227845, -0.0671445653, 0.0050461050, 0.0330614969, -0.0969544128, 0.0463160984, -0.0185270738, -0.0002741094, 0.0407602489, 0.0516678765, -0.0065238634, 0.0306002144, -0.0378307141, 0.0243743639, 0.0073260372, 0.0017178322, 0.1855052561, 0.0252789184, 0.1653258502, 0.1016137525, 0.1198930293, -0.1859877259, 0.1517044604, 0.0582151562, -0.0365388542, 0.0779797807, 0.0713481009, 0.0107516646, 0.0527861156, 0.0178487562, -0.0591163561, 0.0814403370, 0.1112548858, 0.0611524396, -0.1224342287, 0.0833883882, 0.0213218201, -0.0374602415, 0.2026485503, -0.0322149433, -0.0303941090, -0.0244898256, 0.1487186104, 0.1004566327, 0.1373337060, -0.0555786565, 0.0134425499, 0.0024188105, -0.0437050089, -0.0839882120, 0.1020362303, 0.0121721169, -0.0829095319, 0.0717005134, 0.0842188001, 0.0080003385, -0.0365941599, -0.0226082727, 0.1929778606, -0.0532060936, 0.0620980002, 0.0354986601, -0.0273748506, 0.1596964002, 0.1278407723, 0.0953723118, 0.0564536303, 0.0106562255, 0.1320812851, 0.1656410247, -0.0396830589, -0.1543327272, 0.0549734160, 0.0961873755, 0.1161468774, 0.0958960280, -0.0987298489, 0.0842249617, 0.1254822612, -0.1063583046, 0.0040895971, -0.1308144778, 0.1413405538, 0.0240923297, -0.1067929789, 0.1537618041, 0.0982441902, -0.0388732776, -0.0437401570, -0.0137206176, -0.0462036394, -0.0855364725, -0.0322042182, -0.0039377897, 0.0539242961, -0.0321399830, 0.0982423499, -0.0028416258, 0.0011791240, 0.1231901273, 0.1355408877, 0.0030864910, -0.1238301024, -0.0006384071, 0.1850953847, 0.0502549857, 0.2335752696, 0.0595761724, 0.0255166385, 0.2367974967, -0.0649026111, -0.0472410358, 0.1337464601, -0.0288822502, -0.0648863837, -0.1120634750, -0.0780134872, -0.0206189975, -0.0577729717, 0.0282897614, 0.0081961025, 0.0548334047, -0.0639266372, 0.0161825437, 0.2237583846, 0.0846686438, -0.0670691207, 0.0380417928, 0.1143963709, 0.1235139668, 0.1933719665, 0.2216131836, -0.0224070270, 0.0490198061, 0.0067081703, 0.1252767891, -0.3969435990, 0.0486434214, -0.0269311853, 0.0052787820, 0.0975885466, -0.0370907485, -0.0276145749, -0.0402291082, 0.0407402962, -0.0805103183, 0.1085040942, -0.0485850945, 0.0591108836, 0.1323187053, -0.0879566148, 0.1618876010, 0.0962338373, 0.0166197419, -0.3537478149, 0.0693307146, -0.1814354956, -0.1157028824, 0.0519951768, -0.1483895481, 0.0571326576, 0.0923275426, -0.0572055727, 0.1206368357, 0.0878656954, -0.2879229188, -0.0504629388, -0.1441795081, 0.1359872520, 0.2732501328, -0.2379500568, -0.0718955249, -0.0457516201, -0.0027828838, 0.1735617071, 0.2795443535, 0.1370661408, 0.3435784578, 0.0200836677, -0.1667248160, 0.1660223752, -0.1453590542, -0.0443513319, -0.0462524109, -0.0125733428, 0.3693471849, -0.1884819120, 0.3191918433, 0.0146732284, -0.0750944838, -0.1555224657, 0.0544803329, 0.0063561383, 0.0121799614, 0.1134933233, -0.1129832715, -0.0861900076, 0.0453289188, -0.0229345951, 0.1325497776, -0.0402547121, 0.0583563782, 0.3489508629, -0.2123808414, 0.0341157429, 0.0832219496, -0.1039546281, 0.1397622377, -0.2053903788, 0.2259768397, -0.0371183194, 0.1029693112, 0.0446583293, 0.2179486752, 0.0975660458, 0.0211305209, 0.1573578715, -0.0008701186, 0.3320854008, -0.0324853137, 0.1507095844, 0.0571984425, -0.1746463031, -0.1053335518, -0.2347723395, -0.0080055874, 0.0378625281, -0.0602049790, 0.0043534450, -0.1836981922, 0.0314662158, 0.0504351668, 0.0110964738, -0.1102745831, -0.1527825296, -0.0690313578, 0.0896332487, 0.2524353862, 0.0660224408, 0.0046381317, -0.3868268430, -0.0396542698, -0.2040307522, 0.1625058055, 0.2538368702, 0.1364064366, 0.0543217584, 0.0421477817, -0.0146881007, -0.0264351889, 0.0329615213, 0.0996843502, 0.0726396069, -0.3036310375, -0.0070150546, -0.1212417856, 0.0675803944, 0.0213363413, -0.0367664210, 0.2118185908, -0.1157496497, 0.0581984743, 0.1892312765, -0.1723924726, 0.0943032429, 0.0487484150, -0.0355144627, -0.0038972234, 0.2060945481, -0.0930210128, 0.2106222808, 0.0754734427, -0.1014570296, -0.1038704738, 0.0363505259, 0.0753126144, -0.2546089292, 0.0955103189, -0.0081186825, -0.0064430740, -0.0087673133, 0.0971556976, -0.3770848215, -0.1917290986, 0.0533391722, 0.0283749606, 0.0478974245, -0.1477012634, -0.2244126201, 0.0870001987, 0.0594348870, 0.1521335989, -0.0413557254, -0.1074418500, 0.1257763654, -0.0487408116, 0.2848307192, 0.3447431326, -0.0467014574, -0.0749146715, 0.0241066478, 0.0296652690, 0.1733037531, 0.0547831729, -0.1046749353, -0.0706682354, 0.1506610215, -0.1385369301, -0.0666084588, -0.0182477105, 0.0082054073, -0.0574481189, -0.1178132072, -0.1663401425, -0.0824234039, 0.0603807904, 0.1288253814, 0.1104839444, -0.0713753998, -0.0946157724, 0.0197142102, -0.0866966173, -0.2088143229, -0.0840793774, -0.1522668004, 0.1688261479, -0.2922326922, -0.0104657505, -0.0098985070, 0.1123088375, 0.0956590846, -0.1156981364, 0.1082388908, -0.0194453839, -0.1127228886, 0.0372193828, -0.3266342282, 0.1660112143, -0.0531947389, 0.0005447144, -0.0016262826, -0.0582178049, 0.1760352552, -0.0186119899, 0.1609352976, -0.2082101107, 0.1552947164, 0.1386493742, 0.0546669513, -0.0768193007, -0.2806466520, -0.1323590130, -0.0254515987, 0.0286394320, -0.1012588292, 0.1633718312, 0.0387603603, -0.1920018047, -0.0415642671, -0.0211416595, 0.1062573791, -0.0506553277, 0.0346053541, 0.0714801922, 0.1700881869, 0.0403430425, 0.0001293247, 0.2100324631, -0.2265996784, 0.0368183702, -0.2579359114, 0.0494979769, 0.1295867264, -0.1238633320, -0.0881866440, 0.1115179509, -0.1141064093, -0.1551746130, 0.1232045144, -0.0123169580, 0.1161269173, -0.0400675237, 0.0553607717, -0.1522038579, -0.1382552683, 0.0389688127, 0.1762761623, -0.0228949338, 0.0424154475, 0.0854350924, -0.0058212527, 0.0533170998, -0.0297005475, 0.1570376009, -0.0504566841, -0.0295792464, -0.0482141972, 0.0179217532, -0.1789587587, 0.0144682368, -0.0661564544, 0.0456423387, 0.1253832877, -0.0166347530, -0.2290573418, -0.0636915341, 0.1580544114, -0.0905225202, -0.1687016040, 0.0030623234, 0.0288674440, -0.0842363387, 0.0953999534, -0.1048173159, -0.0890697911, 0.0624294318, -0.1001059860, -0.0313268453, 0.0585292652, -0.0148949157, -0.0312188324, 0.1039497778, -0.1581720263, 0.1886478215, 0.0932258368, 0.1014707014, -0.0492179617, 0.2212134749, -0.0995165706, -0.0807317123, 0.0223804247, 0.0281185322, 0.1764619052, -0.0500325933, -0.0344624743, 0.1805662364, 0.1594681889, -0.0561122671, -0.0864356235, -0.0917351469, 0.1534465998, -0.0207627565, 0.0193804931, -0.0116447154, 0.1128525585, 0.1141136810, -0.1106499583, -0.0793789476, 0.1839911789, -0.0758759230, 0.0757100582, -0.0110348901, 0.0415548757, 0.0795115680, -0.0230592377, 0.0924151912, -0.0139885610, -0.0443496034, -0.1320757717, 0.1129798517, 0.1200930253, -0.0781403407, 0.0673370361, -0.0309896972, 0.0180662088, -0.0079881782, 0.0916789174, -0.0024213803, -0.0073195859, 0.0574462228, -0.0096762152, 0.0398435444, 0.0787686706, 0.1019044742, -0.0205532294, -0.0722604170, -0.0362441130, -0.1758957505, -0.0412685536, 0.0677433163, 0.0006585347, 0.0223840233, 0.0866844803, 0.1009106413, -0.0359110609, 0.0586249903, -0.1326840967, -0.0971347317, 0.1047702804, 0.0677260458, 0.0213412941, 0.0509210229, -0.0316761285, 0.0702792555, 0.0540288426, 0.0962610617, 0.0784361959, 0.0119505115, 0.0752005801, 0.1065301970, -0.0158871040, -0.1199472025, -0.2266900837, 0.0035622048, -0.0421118960, -0.1055629328, -0.0177773964, 0.0491614453, 0.2144386321, 0.0695723742, 0.1072963402, -0.1399651766, 0.0519941449, 0.1225604266, -0.0641739741, 0.1426248103, 0.0493240990, 0.0482301489, -0.0480539910, 0.0476505123, 0.2217703909, 0.1392375976, 0.1965892762, -0.0320916921, 0.1791828722, 0.0285976715, 0.0303489640, 0.1118402928, 0.0098358747, -0.0767703280, 0.1429835409, 0.1683569252, 0.1270539910, 0.0083796401, -0.0260338951, 0.1683157086, 0.0827409029, 0.0014563081, -0.1644112021, 0.0260805767, -0.0571933314, 0.0723955557, 0.1925070882, 0.0694413707, -0.0541571341, 0.0529931299, 0.1236631498, 0.0776505619, -0.0698933303, -0.0014066345, 0.0427242108, -0.1249956042, 0.1224978715, 0.3297641873, -0.0679596737, -0.0856143385, -0.0034997251, -0.0695996508, 0.1982705295, -0.0780223683, -0.1831855178, 0.0928127095, -0.1103580222, -0.2977565229, -0.0070749787, 0.2435485870, 0.1653741598, 0.1099466607, -0.0656033829, -0.0576361716, -0.0834905803, 0.1076086015, -0.0183058027, 0.1042613909, -0.0052563949, -0.1152435318, 0.0358606838, 0.0102489423, -0.0904650539, 0.0937189534, 0.0445098728, -0.0211546235, -0.1000429392, -0.0180970542, -0.0040796092, 0.0644785836, 0.2278995514, -0.1532322466, -0.1450963765, -0.0505319946, -0.1202114224, 0.3212660551, -0.0516092554, 0.0201785900, 0.0689519420, 0.0716336146, -0.0053776363, 0.0958142504, 0.0543407835, 0.0324170738, -0.1120265499, -0.0643377304, 0.3216943741, 0.0472920202, 0.1118311584, 0.0040194429, -0.1146728247, -0.0921461508, 0.0353702381, 0.0888144374, 0.1075784117, -0.0192977320, 0.1999468505, -0.1964622438, -0.1279527396, 0.1190127134, 0.1189359054, 0.0635887310, 0.0797479376, 0.0607284680, 0.1485732943, 0.1632536203, -0.0842628255, 0.1699777395, -0.3656406701, 0.3059408069, -0.1241497397, 0.0223970376, 0.0201798789, 0.1313912123, 0.0323053449, 0.0012279369, -0.1831148267, -0.0985070765, -0.0561586879, -0.0392511971, -0.0399459265, -0.1931835115, 0.1387672722, 0.0827525929, -0.2131447643, 0.2183137685, 0.1350327283, 0.1302405894, -0.0631678775, 0.0473651513, -0.0464019217, 0.0287989918, 0.0594421513, 0.0129075646, 0.0454418883, 0.0399352126, 0.0779440254, 0.1259964705, 0.0361173451, 0.0085963113, 0.1137636974, -0.0634564608, -0.0618753508, 0.0397661179, 0.2003241330, -0.0192577802, 0.0271715391, -0.0771708265, -0.0915877596, 0.0785462484, 0.1117933914, 0.1057316512, 0.1178010330, 0.1054156125, 0.2815536559, 0.2459274381, 0.0407230854, 0.1301857829, 0.0757695958, -0.2641347051, -0.0874414816, 0.2615169883, 0.2324171960, -0.0420771763, -0.1896358877, -0.3397771418, 0.2550263703, -0.1047244892, 0.1412226707, -0.0025990978, -0.1717199981, 0.0134735946, -0.1522803754, -0.0078670606, 0.1663588434, -0.0311003476, -0.0704974309, 0.1985313445, -0.0325508155, 0.0408206284, 0.1469814032, -0.1703249961, -0.0393289700, 0.0453733355, -0.0408184193, 0.2278488129, -0.2437495291, -0.0696053207, 0.0198542159, 0.1021693349, 0.0520633161, -0.0846772641, 0.0802954808, 0.0313576572, 0.2421386689, 0.0578718930, 0.1212254912, -0.0925700963, -0.0257785898, -0.1705294698, 0.0796999410, 0.2138411701, -0.0150430631, 0.0663728788, 0.0159884728, 0.0940957740, 0.0008870644, 0.1264811158, 0.0510786511, 0.2361510098, 0.1491847038, 0.1684263200, -0.5978069901, 0.0701707378, -0.1548830718, -0.0614541098, -0.2735560536, 0.1446409971, 0.1170266792, -0.1302840710, 0.0295756776, 0.1095768884, -0.0286503155, -0.1378075629, 0.0570793040, -0.1149404943, 0.1947254837, 0.1491172761, -0.1075083017, -0.2717483938, 0.2517956495, 0.1869412810, -0.1612450182, -0.0677386001, 0.0130120311, -0.1635470986, -0.1304357648, -0.1441683471, -0.1264855862, 0.0179928858, 0.0140991705, 0.0728328377, 0.0018677230, 0.2742798030, -0.1845343858, -0.2144047767, 0.1153305843, -0.1015749201, 0.0599753112, 0.0491489358, 0.0835370868, 0.1077006683, -0.1873820871, 0.0678460747, 0.0304863919, 0.0293474980, 0.0702205002, 0.1424034834, -0.1595612615, -0.0045561106, -0.1245881170, 0.0046161944, 0.0679892004, 0.0934850127, -0.0860490724, -0.0539366938, 0.0491728634, -0.0047295801, 0.0362483226, 0.0159038845, -0.2554516792, -0.0674100965, 0.2513165772, 0.2811121047, -0.0771206617, -0.0650642663, -0.0492005236, -0.0515239462, -0.0170659274, 0.0478862152, -0.0315162167, 0.0131617570, 0.0742722675, -0.0835546032, 0.2252753973, 0.0941503569, 0.1071887910, -0.1775464267, -0.1843741387, 0.0700390339, 0.1757742912, 0.0209631342, -0.0983761027, -0.1573228687, 0.0225146692, -0.2789980769, 0.0062684608, 0.1605687737, -0.2464217693, 0.0234989263, -0.0081032589, 0.2161228359, -0.0788786262, 0.0695828721, 0.0323706008, 0.0114621874, 0.0213118363, -0.0392396897, 0.1719673425, 0.1254822612, 0.0332824849, -0.0076195141, -0.0349050537, 0.0034284014, -0.0779729560, -0.1260232925, -0.1113299206, 0.0152092651, -0.1013795361, -0.0239479989, -0.0439656451, 0.0312103406, 0.1832225770, -0.0274771843, 0.0683414117, -0.1071282849, -0.0139869843, -0.0865921155, -0.1315882802, 0.1829274744, -0.1026352569, -0.0787449852, 0.1725298315, 0.0219756961, -0.0373813212, 0.1091711745, 0.0323628411, -0.1932328641, 0.0514525548, -0.0227428172, -0.1166292503, 0.0681345463, 0.0650275722, -0.0498535000, -0.2617793977, 0.1858381480, 0.3076817989, 0.0010873409, 0.2301830649, 0.2928096950, 0.1675785780, 0.0314442553, 0.1342328638, 0.1567723155, 0.2056914121, 0.0772078261, -0.0105884410, 0.0397877358, 0.0156233460, 0.1621127129, -0.2436271459, -0.0190808121, 0.1150697544, -0.1288387775, 0.1590086669, -0.0589897595, 0.0880458578, -0.1307568103, 0.0973015428, 0.0987749770, -0.0959982052, 0.0621232353, -0.0481757484, 0.0920775905, 0.0905450955, -0.0183271337, -0.1533462107, 0.0874904022, -0.0679136962, 0.0155230463, -0.0700762048, 0.0240142085, -0.0566449389, -0.1087941751, 0.0471342988, -0.0847586915, -0.0481786951, -0.0033137866, 0.1959666759, -0.2117913961, -0.0621944815, -0.0057173218, 0.0350249298, -0.0160462018, -0.0347024091, -0.0796657577, 0.1031540111, 0.0201450605, -0.1075293273, -0.0342473127, 0.1317253560, 0.2027495205, -0.1993241161, -0.2248444855, -0.0544894151, -0.0480230339, -0.2220796049, 0.1619723290, 0.0425633006, 0.1386968642, -0.0204529241, -0.0064822854, 0.0367902108, 0.1240048409, -0.1230500638, 0.0948914886, 0.0213786121, -0.0177697297, 0.0357553810, -0.0597707555, -0.0022837436, -0.2024595290, -0.0189356823, -0.1305679381, 0.0914406851, 0.0964234695, 0.0854912773, -0.0434595831, -0.1864742786, 0.1501347572, -0.1624523550, -0.1187692583, -0.0831680298, -0.0004452104, 0.2111411542, -0.1074497253, -0.1275850683, 0.1161667705, 0.0518681183, 0.2320444435, -0.1523566395, -0.0646141842, -0.0056533981, 0.0302728806, -0.0093069663, -0.2378361076, -0.0573099889, 0.0707355738, 0.0270381738, -0.1765841991, 0.0002559295, -0.0102480585, 0.1660126746, 0.1632340103, 0.0585829243, 0.0872083604, -0.1532255560, 0.2380736470, 0.0801451355, 0.0872113630, -0.0812054873, 0.1220126525, -0.0443689972, -0.1307992339, -0.1389037818, 0.0927416831, -0.2519213855, -0.0013025412, -0.0618503205, -0.0085107395, -0.0697557032, 0.0407552868, -0.0380836390, 0.0988608152, 0.0361927934, -0.1975649148, -0.0072468431, 0.1229610294, -0.1913025975, 0.1011884362, -0.2228755057, -0.0694601759, 0.0003603466, -0.1525840163, -0.0540411361, 0.1886677295, 0.1186488420, -0.0572253354, 0.0408515595, 0.0344068147, -0.0380613320, 0.0568471029, -0.0000011831, -0.0588417575, -0.0571178272, -0.1163068265, -0.1013710946, -0.0151057420, 0.0521375351, 0.0006889559, 0.0287072249, 0.1705055088, -0.0173704531, 0.0887497887, -0.1200895235, -0.0323332101, 0.0733578801, 0.1400939673, -0.0274965502, 0.0280774273, 0.1679370552, 0.0872343034, 0.1635798067, 0.1152026430, -0.0178364795, 0.0071273758, -0.1623948812, -0.0381331518, -0.1062468886, -0.0152189136, 0.0677051991, 0.1145354435, 0.0107033653, -0.0196061451, -0.1939349473, -0.0096458793, -0.1724594235, 0.0419527963, -0.1051672995, 0.0750310645, -0.1680156440, -0.1006977484, -0.0627553314, 0.0419535786, -0.0062341681, 0.1107937992, 0.0772610009, -0.1304551661, 0.0569319762, 0.0573888905, -0.0123556945, -0.0273880325, -0.1664823443, 0.0300120339, -0.0664107054, -0.0668183640, 0.0486144423, 0.1319576651, -0.0240742918, -0.2025332749, 0.1065324172, -0.1068179533, -0.1342876852, 0.0856855735, -0.0857157260, -0.0277956575, 0.1189669371, -0.0588599034, -0.1028723717, -0.0654604658, -0.0346073955, -0.1375592053, 0.0750053003, 0.0358774662, 0.2608807683, -0.0268856101, 0.1064944118, 0.0950319245, -0.0383806042, 0.2091927975, -0.1367138326, -0.0177689288, -0.0753217191, 0.1152495071, 0.0836293474, -0.0203804485, -0.0180384181, -0.0996666923, -0.0600477830, 0.0132627916, -0.0724866539, -0.1793805063, -0.0206792932, 0.1035173088, 0.0849089995, 0.1171174645, -0.0475202985, 0.1957086474, 0.1781143993, -0.1624325365, 0.0240078010, 0.0100608999, -0.0038203569, 0.1572369337, -0.1546158046, -0.2118333280, 0.1107069999, -0.0964165106, 0.0247067120, -0.1022633240, -0.3578726947, 0.0223218743, 0.0310043860, 0.1632433534, 0.0425475352, 0.0188922659, -0.2139906436, 0.1294961125, -0.0267425813, 0.0948099270, 0.1233369932, 0.0187000893, -0.1104833409, -0.0711141974, 0.0887797177, -0.2655622363, -0.2752937376, 0.0152355768, 0.2185772508, -0.1425148994, 0.0270317700, -0.2058051378, 0.2398256809, -0.0382769629, 0.0355952419, -0.0063782148, 0.0522801951, 0.1197695211, -0.1064259410, 0.0705617219, -0.0781556964, -0.1601711661, -0.1997906864, 0.0314139165, 0.0563686006, -0.0043428806, 0.1480347514, -0.1008675992, 0.0657805577, -0.0648720786, -0.0342019722, -0.0707569197, 0.2297172546, -0.1825699210, 0.0560283661, 0.1027507111, 0.0370784588, 0.1592134386, 0.0082208226, 0.1406544149, 0.0745823607, -0.0678505301, 0.0167950131, 0.1420991719, -0.0754042491, -0.0131653268, 0.1813476831, -0.2470823079, 0.1333573759, 0.1836659610, -0.0398534089, 0.0969647318, -0.1146160960, -0.1027882919, 0.0118512623, -0.0176485255, 0.0961423963, 0.0327376984, -0.0316511877, 0.2324063927, 0.0480158925, -0.0748140439, 0.0602331832, -0.0082526049, 0.0922238827, -0.1142976359, -0.1106188223, 0.0447984003, -0.0626985803, 0.0593256578, 0.0738451183, -0.1599114537, 0.1066260487, 0.1230170503, -0.0621309280, 0.0067778057, 0.0800466985, -0.0692662224, 0.0266757365, 0.2283530086, 0.0997729003, -0.0774766728, -0.1102175638, -0.0559363440, 0.1021305099, 0.1416175961, 0.1245714128, 0.0297912303, 0.0325684622, 0.1518166065, 0.0640182123, 0.1333133429, -0.1110591441, -0.0212931484, -0.0213000905, 0.1109777391, -0.0450380333, -0.0306398850, 0.0183143578, -0.0544974282, 0.0251580644, 0.0548395813, 0.0358275622, 0.1654004008, -0.1613273323, 0.0307622179, -0.0632759407, -0.1296105236, -0.1487301141, 0.1102619246, -0.0152215473, -0.0217751395, 0.0240515713, 0.1414469182, -0.0137247946, 0.1182783768, -0.0844031870, 0.0045142653, 0.0943875536, 0.0641450807, 0.0006192517, -0.0230631847, -0.1389345378, 0.0281475745, 0.0332289897, 0.1938453019, 0.1889205426, -0.0074291271, 0.0680322275, -0.0027475883, 0.2435753495, 0.3289016783, 0.2149525583, 0.1028089896, 0.0135845235, -0.1257800907, -0.0074262330, 0.2439035177, 0.1013451293, 0.0581673756, 0.0497124419, 0.1066160724, -0.1183326542, -0.0501486138, -0.0531634502, 0.0007134979, 0.0060292264, -0.0976656452, 0.1437616795, -0.1011445969, 0.0288815890, 0.0521049239, 0.0096094171, 0.1287856400, 0.1667282432, 0.0841964558, 0.0827978775, 0.0143006127, 0.0097960308, -0.1822565347, 0.0403784513, 0.0995359197, -0.0688290074, 0.0660733730, 0.0880613998, 0.0735043436, 0.0119437668, 0.0129770143, 0.0328465700, 0.1874132156, 0.0197240803, 0.0245962404, 0.0237582680, 0.1146937087, 0.1210636050, 0.0469968207, 0.0502481535, 0.2354529351, 0.0518976822, -0.0067724129, -0.0976198465, 0.0368549936, -0.0266983584, 0.0479477681, 0.0656228215, 0.1946455091, -0.0002547016, 0.1437044591, 0.1050206423, -0.0876341462, 0.0456395298, 0.1503750086, -0.0150328977, 0.0292400867, -0.0605528802, -0.0454986989, 0.0515365079, 0.0188798606, -0.0267319549, 0.0007606913, 0.2025350481, -0.0009587827, 0.0726415515, 0.1609102339, 0.0177667458, 0.0065780552, 0.1333735734, 0.0580326095, 0.0008006717, -0.0240206774, 0.1460604817, 0.1987122297, -0.0619248934, 0.1261454523, 0.2256124616, -0.0249484330, -0.0798357949, 0.1707250774, 0.0672934577, -0.0261074957, 0.0365543999, 0.1492725313, 0.1303902715, 0.0531275272, 0.1633463949, 0.0388384201, 0.1027743593, 0.1851675361, -0.0199992340, 0.0033099186, 0.0564540178, 0.1222939491, -0.0691586211, 0.1221499071, -0.0015184659, 0.0184254684, 0.0268323347, -0.0262544658, -0.0708129480, 0.1422562301, 0.0995337963, 0.1040377468, 0.1906296313, 0.1477384418, -0.0554798283, 0.1458395869, 0.0653523654, 0.3434292674, 0.1078525037, 0.0131360963, 0.0350706130, 0.2274047136, 0.2311308235, 0.0657502264, 0.1164924726, 0.0466818660, 