//Numpy array shape [128, 512]
//Min -0.096818633378
//Max 0.096822276711
//Number of zeros 0

#ifndef W10_H_
#define W10_H_

#ifndef __SYNTHESIS__
lstm_3_weight_t w10[65536];
#else
lstm_3_weight_t w10[65536] = {-0.0613552816, -0.0197450146, 0.0804588646, -0.0278251022, 0.0409676135, -0.0115655661, 0.0475314260, -0.0091717690, 0.0268229693, 0.0726548731, -0.0461846814, 0.0114308223, -0.0348989032, 0.0545378327, -0.0416267775, -0.0601937026, -0.0932149813, 0.0037121251, 0.0366556942, -0.0082888678, -0.0659719855, -0.0230423063, -0.0165495947, -0.0387533456, 0.0025149733, 0.0497618765, 0.0454123616, 0.0361049175, 0.0201991796, -0.0009068400, -0.0156213790, -0.0093189776, 0.0603574216, -0.0010298565, 0.0473476648, 0.0194251984, 0.0604678988, 0.0698225945, 0.0916201621, -0.0715304762, 0.0472710282, 0.0661762357, 0.0966313630, -0.0729001462, 0.0438112617, -0.0349343382, -0.0419604890, 0.0728666931, -0.0669793338, -0.0869221613, 0.0953459889, 0.0036035329, -0.0348148718, -0.0700498670, -0.0680852085, 0.0006442517, 0.0784304440, 0.0536469817, -0.0587025881, -0.0007676631, -0.0006095991, -0.0682265833, 0.0578682870, 0.0129904076, 0.0405260473, -0.0289741680, -0.0498540290, 0.0950476080, -0.0335225388, 0.0833788961, -0.0693923905, -0.0594958961, -0.0419853516, -0.0144256577, 0.0211516842, 0.0144276619, 0.0000983626, 0.0444034189, -0.0042601824, 0.0595474690, -0.0093567222, -0.0591270030, -0.0474497750, 0.0518680811, -0.0328967124, -0.0223352835, 0.0838176459, -0.0568492264, 0.0043958053, -0.0189695731, -0.0796952620, 0.0565413386, -0.0374458693, -0.0596497580, 0.0399523973, -0.0778028443, -0.0509807281, -0.0415026508, -0.0807239413, 0.0827262253, 0.0841154456, -0.0434130058, 0.0048594847, -0.0406518839, -0.0813429207, 0.0023112744, -0.0835922956, -0.0367552862, -0.0267761722, 0.0671900511, -0.0323497877, 0.0318904072, 0.0485704988, 0.0032194927, -0.0092091858, 0.0772209466, -0.0306608602, -0.0731781721, 0.0313955992, -0.0853732675, -0.0938613340, 0.0453692377, -0.0590024367, 0.0393861234, -0.0521198027, 0.0063932389, -0.0551782362, 0.0016416013, -0.0325140134, -0.0521756448, 0.0961435139, 0.0543720722, -0.0508491471, -0.0362542532, -0.0858830959, -0.0905379504, 0.0333091021, -0.0120659769, 0.0820679218, -0.0626632422, -0.0652912408, 0.0183293819, 0.0638753772, -0.0177092850, 0.0795963258, 0.0946233422, -0.0932527930, 0.0104840919, 0.0548401773, 0.0214965716, -0.0399360470, 0.0832911134, -0.0630103946, 0.0563861281, -0.0043697208, 0.0249541178, 0.0118328184, 0.0015031174, -0.0719972029, -0.0842443034, 0.0742499381, -0.0275708884, -0.0748604089, -0.0250783786, -0.0786950737, -0.0570797957, -0.0192243829, 0.0891760737, -0.0400127359, -0.0590132624, -0.0091470405, -0.0566801988, 0.0354880691, 0.0070463493, 0.0503326207, -0.0339448974, 0.0351058990, 0.0109573305, 0.0717786402, -0.0797579587, -0.0017082766, 0.0267295912, -0.0235723779, 0.0696727037, -0.0581193045, -0.0442562029, -0.0386793353, 0.0918404907, 0.0547876209, 0.0942946970, 0.0811684579, -0.0713065788, 0.0328072309, 0.0295992345, -0.0650576428, -0.0731341988, 0.0488937795, -0.0814098641, -0.0207476094, -0.0562777407, -0.0194319114, 0.0214683861, -0.0076059699, -0.0663628131, -0.0691772848, -0.0327427164, -0.0309904665, -0.0534287095, 0.0590013117, 0.0047390759, -0.0944936499, -0.0679674298, 0.0848847926, -0.0230003819, -0.0410177521, 0.0586058646, -0.0857560784, 0.0402794331, 0.0390489250, 0.0520539582, 0.0668299496, 0.0943104178, -0.0737111568, -0.0627272576, -0.0776458234, 0.0758048594, -0.0146291927, -0.0430254377, -0.0695272684, 0.0609561056, -0.0593246296, -0.0564324521, -0.0927847922, -0.0460497513, 0.0593758821, 0.0148555413, -0.0741391480, -0.0734809116, 0.0013589785, 0.0078517571, -0.0196194351, 0.0128200874, -0.0714882091, 0.0002438650, 0.0901414454, 0.0690546334, 0.0545266271, 0.0703338832, -0.0342342705, 0.0481250733, -0.0197517052, 0.0027651414, -0.0817660838, -0.0825419649, -0.0201549977, 0.0886081606, -0.0682821050, -0.0271944478, -0.0258981436, -0.0110296980, -0.0692991912, -0.0093715191, 0.0614122599, -0.0360535085, -0.0220092386, -0.0746654570, -0.0159561560, -0.0419357195, 0.0802406669, 0.0522184223, 0.0669925660, -0.0301225707, 0.0064675733, 0.0893030167, -0.0557704754, -0.0916984752, -0.0301945210, 0.0465591848, -0.0579518490, -0.0588531941, -0.0237737447, 0.0701149255, -0.0088004246, -0.0434602611, 0.0036150962, 0.0923383087, 0.0503971428, -0.0391178280, 0.0131572857, 0.0730475336, 0.0367666185, -0.0205439106, 0.0379435271, 0.0250092447, 0.0128319040, 0.0159995779, -0.0478709303, -0.0705215782, -0.0074184984, 0.0606353879, -0.0479085818, -0.0304620564, -0.0378786847, -0.0191111267, -0.0369882584, 0.0559174120, 0.0238595977, -0.0457994416, -0.0925128609, -0.0284669027, -0.0921370611, 0.0271680653, -0.0577090420, -0.0473537184, 0.0282921791, -0.0643292516, 0.0682201385, -0.0964422822, 0.0880179554, 0.0858643204, 0.0343839526, 0.0819148421, 0.0820634365, 0.0672282875, -0.0186213627, -0.0489034206, -0.0159889087, -0.0427122898, 0.0833489448, -0.0077981800, -0.0942373350, 0.0810253918, 0.0857561231, -0.0846308842, -0.0270728841, -0.0291163027, 0.0388416648, -0.0063584000, 0.0624671578, -0.0942439362, -0.0380897038, 0.0199228376, 0.0506468117, -0.0786397159, -0.0727973431, 0.0748139173, 0.0231158733, -0.0920131430, 0.0683306903, 0.0060890019, -0.0592228957, -0.0383309610, -0.0476443768, 0.0400426537, -0.0474610627, -0.0967831686, -0.0202640966, 0.0449258238, 0.0431950837, 0.0394328237, 0.0340400338, 0.0713465363, 0.0599902123, -0.0773387924, 0.0078867078, -0.0578228496, 0.0860531628, -0.0002500117, 0.0633139312, 0.0887177587, 0.0003645793, 0.0476584136, -0.0229022279, -0.0636150986, 0.0324250460, -0.0167757124, -0.0959736332, 0.0938138515, 0.0093287006, 0.0041258484, -0.0646077394, -0.0526316129, 0.0756288767, -0.0836637691, -0.0658472106, 0.0522298515, 0.0070149601, -0.0009660721, -0.0957917273, 0.0206231326, -0.0807962939, 0.0491545349, -0.0194659606, 0.0936489254, 0.0733939111, 0.0916304588, -0.0933121219, 0.0565487593, -0.0034852922, 0.0150388330, -0.0218462124, -0.0686156526, -0.0185920671, 0.0388814360, 0.0963358581, -0.0030413717, 0.0854563266, 0.0915507823, 0.0800314248, -0.0156368017, -0.0055621415, -0.0623718686, -0.0400252454, -0.0882651210, -0.0949729532, 0.0552729815, 0.0183584467, 0.0582128018, -0.0757157058, -0.0937272534, 0.0515846312, 0.0542783737, 0.0125734285, -0.0619975924, 0.0125610530, 0.0085905865, -0.0046418682, 0.0283553600, 0.0274939984, 0.0007198304, 0.0267591849, 0.0780489892, -0.0814212412, 0.0216403455, -0.0965575427, 0.0141683742, -0.0870187506, -0.0140624642, -0.0809805989, 0.0224293768, -0.0147303268, 0.0739096105, 0.0652747750, -0.0502428487, 0.0255832002, -0.0290471613, -0.0255108327, 0.0032090172, 0.0408116579, 0.0762934387, 0.0396001190, 0.0702940971, 0.0798675418, 0.0236845464, 0.0596806854, -0.0469814762, -0.0600079857, 0.0917779058, -0.0858722627, -0.0370672531, -0.0312002376, -0.0061628297, 0.0903747976, -0.0755624622, 0.0520270169, -0.0098731741, 0.0815227777, -0.0918740779, -0.0733728260, 0.0038234666, -0.0217194110, -0.0742770806, -0.0684689507, -0.0687188879, -0.0172607452, 0.0431204140, -0.0023172945, -0.0828176439, -0.0079469830, 0.0432093590, -0.0744622648, -0.0435257517, 0.0109917745, -0.0245804414, 0.0431422740, -0.0801128447, -0.0691003874, 0.0661240220, -0.0556939244, -0.0213120803, -0.0948416069, 0.0564880222, -0.0193490610, 0.0308325887, 0.0724604875, -0.0005780905, 0.0539545268, 0.0462608337, -0.0149162561, -0.0534339249, 0.0194329545, -0.0268208683, -0.0109263957, 0.0700982213, -0.0531522222, 0.0167144910, -0.0234575570, 0.0753391236, 0.0120752826, -0.0497087352, -0.0360681452, 0.0672974139, -0.0308143273, -0.0331222042, 0.0342859030, -0.0748344660, 0.0692000389, -0.0320408642, 0.0438286960, -0.0615112223, -0.0894415230, -0.0812888294, 0.0435709059, 0.0197958201, 0.0759640634, 0.0341553688, -0.0327933580, 0.0550449491, 0.0065468699, 0.0017872676, -0.0612506159, 0.0797693133, -0.0024716631, -0.0551413894, -0.0783011764, -0.0129482746, -0.0658681542, 0.0081348717, 0.0349052995, 0.0454159379, -0.0792259723, 0.0681258887, -0.0154887810, -0.0859404579, 0.0612134486, -0.0722658411, -0.0487774014, 0.0877325088, -0.0287779048, -0.0542424917, 0.0073084310, -0.0753857493, 0.0698298663, 0.0636169016, 0.0407904536, -0.0869863406, -0.0616717972, -0.0386251770, 0.0513790548, 0.0858696103, 0.0643936843, -0.0190653726, -0.0907146186, -0.0652779639, 0.0457821339, 0.0483760238, -0.0872462019, 0.0495001823, -0.0427247360, -0.0809486285, -0.0117419809, 0.0291765034, -0.0836872235, -0.0864631459, -0.0625481457, -0.0651157498, 0.0927778631, 0.0955749899, 0.0608447194, -0.0178949758, 0.0702048540, -0.0178955272, 0.0847133696, 0.0884362906, 0.0249225572, 0.0818656981, -0.0836871266, -0.0512106977, -0.0039073303, 0.0036879107, -0.0580622628, -0.0897689760, 0.0427437723, -0.0054879412, -0.0719127357, 0.0688104481, 0.0422475934, -0.0007821620, 0.0819032937, 0.0941860229, 0.0885784775, 0.0504098386, 0.0238340646, -0.0606118627, 0.0564600676, 0.0860000849, 0.0149743557, 0.0873513371, -0.0711587667, 0.0499591380, 0.0174953118, 0.0844444335, -0.0425172262, 0.0333289057, -0.0470485836, -0.0556060411, -0.0828441679, -0.0696778744, 0.0351121873, -0.0945389867, -0.0775752738, 0.0235522687, 0.0948632360, -0.0142564252, 0.0920976996, -0.0062589571, -0.0584842041, -0.0270664170, -0.0906318203, 0.0692910701, 0.0952712148, -0.0839559287, 0.0228037909, -0.0579216070, -0.0015292987, -0.0202496201, 0.0178148448, -0.0515125096, 0.0331825018, 0.0110787302, 0.0655194372, 0.0299956053, 0.0261565819, 0.0289523751, -0.0806333348, -0.0328450724, 0.0383828729, -0.0754264966, 0.0526415408, -0.0025107712, 0.0413202345, -0.0290334299, -0.0119927749, -0.0370194912, -0.0020049140, -0.0685686097, -0.0780070275, 0.0306432843, -0.0833669901, 0.0861362815, -0.0512010269, -0.0223012567, -0.0325118229, -0.0801109299, -0.0092886910, -0.0757797137, 0.0382424742, -0.0945802405, 0.0077976212, -0.0043953434, 0.0400744677, -0.0199986473, 0.0121496841, -0.0054499507, -0.0270434022, -0.0770691857, -0.0613866784, 0.0682610273, 0.0810965151, -0.0891970024, 0.0402720720, 0.0267871842, 0.0558951497, 0.0248888358, 0.0182885230, -0.0528445467, 0.0853186697, -0.0633184314, -0.0792699978, -0.0269374028, -0.0555522554, -0.0743074566, 0.0731673241, -0.0882426575, 0.0318256319, -0.0078119785, -0.0637184680, 0.0175381079, -0.0330170989, 0.0730042607, -0.0638412088, -0.0314659178, -0.0292425752, -0.0116546303, -0.0098851994, -0.0151892304, -0.0230048150, -0.0720581040, 0.0238189697, 0.0397229791, 0.0050422922, -0.0370559208, -0.0398710184, 0.0620197952, 0.0955156088, 0.0013770312, -0.0226049200, 0.0146301836, 0.0585236102, 0.0758762509, 0.0600932539, -0.0572441369, -0.0270651728, 0.0625941008, 0.0190144256, 0.0724800527, -0.0235782191, 0.0712356567, 0.0904954523, 0.0387103856, -0.0319859684, 0.0955954790, 0.0583162606, 0.0117100552, -0.0719832405, -0.0152146444, -0.0767421648, -0.0676582158, 0.0747020096, 0.0878246576, -0.0900082514, -0.0255095363, 0.0072661415, 0.0616330802, -0.0503641590, 0.0760374367, 0.0649410635, 0.0777853280, 0.0469256490, 0.0488127172, -0.0478889383, -0.0085500702, -0.0041766837, -0.0956472829, -0.0027892664, -0.0864799991, -0.0892602354, -0.0110599175, -0.0213230625, 0.0515603721, 0.0635840744, 0.0215634480, 0.0905621201, -0.0187848955, 0.0718827099, 0.0299224705, -0.0909686461, 0.0358702391, 0.0875276476, 0.0621896833, 0.0668881238, 0.0377916098, -0.0886412859, -0.0521895178, 0.0921678096, 0.0966292918, 0.0143028423, 0.0747217685, -0.0596852601, -0.0773321241, 0.0279920995, 0.0656402558, 0.0216268823, 0.0325767547, 0.0394527018, -0.0845754072, 0.0614072233, 0.0537201762, -0.0797539651, -0.0678143352, -0.0658781901, 0.0463247597, -0.0370467082, 0.0298359543, 0.0282414407, 0.0304832011, -0.0090687647, 0.0447951555, 0.0797036737, -0.0168688372, -0.0855180994, -0.0233096257, 0.0451385975, -0.0229780823, -0.0596944727, 0.0770757198, -0.0521693863, 0.0589843094, -0.0417666920, -0.0966614708, 0.0963762105, 0.0262789056, 0.0236282423, 0.0341993868, 0.0904303491, -0.0901533589, 0.0453414172, -0.0574515089, 0.0331669152, -0.0876093060, -0.0801806897, 0.0159466639, -0.0098343045, 0.0605783612, -0.0565818585, 0.0105884820, 0.0645606518, -0.0663544312, 0.0418026149, -0.0335359499, -0.0283570662, 0.0229337811, 0.0302997828, 0.0630016923, -0.0848666430, -0.0412730724, -0.0523820445, -0.0744424388, 0.0227301717, -0.0797752738, 0.0737971067, -0.0733805820, -0.0546088703, 0.0471941978, -0.0214904770, -0.0313319117, -0.0443630852, -0.0255988538, 0.0836661905, 0.0387236625, 0.0878583491, 0.0503175706, 0.0209710896, 0.0815771520, -0.0449388176, 0.0277029797, 0.0386147201, 0.0158389732, 0.0518215895, 0.0670744032, 0.0645752698, -0.0285701156, -0.0709222853, -0.0798297301, 0.0174320117, -0.0926771984, -0.0678761750, 0.0852165967, -0.0800620094, -0.0146727562, 0.0885643512, 0.0133276060, -0.0110644177, 0.0464217365, -0.0809778571, -0.0867115334, 0.0140942261, 0.0412165523, 0.0727098733, 0.0206829235, 0.0278644860, -0.0459303111, 0.0471436679, -0.0933736637, 0.0053718314, -0.0478334203, 0.0223473832, 0.0452488214, 0.0329549313, -0.0182717666, 0.0625301301, 0.0408854932, 0.0792953819, 0.0568358600, 0.0192951337, 0.0668272078, -0.0768243968, 0.0842162967, 0.0898760855, -0.0109978691, 0.0346025825, -0.0498181805, 0.0112030879, -0.0126007125, -0.0431482941, -0.0897016376, 0.0356462449, 0.0802600980, -0.0641882941, 0.0935033262, 0.0398131609, -0.0345067829, 0.0519934148, 0.0133972093, 0.0900611430, -0.0922628492, 0.0415955633, -0.0534467846, -0.0157126114, 0.0138963908, 0.0210105926, 0.0219230354, -0.0152903646, 0.0940463394, 0.0777547359, -0.0490684323, -0.0271500349, -0.0423689745, 0.0795956552, -0.0941095650, -0.0465192944, 0.0288531780, 0.0027075708, 0.0692711771, 0.0750626624, -0.0668426305, -0.0754832625, 0.0317319036, 0.0315964371, -0.0726921260, -0.0380957499, 0.0079801977, 0.0338598490, 0.0495499969, -0.0132825226, -0.0664666221, 0.0634838343, -0.0294950306, -0.0100880489, 0.0145697966, 0.0154188797, -0.0013918951, -0.0484024361, -0.0959628075, 0.0627253205, 0.0491566211, 0.0134785548, 0.0296144038, 0.0961745828, -0.0663925409, 0.0730390400, -0.0959475264, -0.0507375300, -0.0056932122, -0.0597655252, -0.0063024461, -0.0018781051, 0.0771247894, -0.0128959864, 0.0140709803, -0.0867653042, 0.0716327131, -0.0625811294, -0.0094087794, -0.0820258781, -0.0702438727, -0.0777937025, 0.0416283906, 0.0941175222, 0.0138037726, 0.0463276207, 0.0922128260, -0.0918949246, 0.0401807427, -0.0874602199, 0.0282068551, -0.0042664334, -0.0906297639, -0.0880761445, 0.0514965653, -0.0050946921, 0.0167034343, 0.0400406420, -0.0738403201, -0.0790887550, 0.0929584354, -0.0329475924, 0.0336601883, -0.0466112643, 0.0099556595, 0.0939022899, -0.0073301569, -0.0854524896, 0.0906988829, -0.0165433586, 0.0197337717, 0.0237773955, 0.0472069979, -0.0405004472, 0.0724131018, -0.0701918826, -0.0038785636, 0.0813438594, -0.0101340339, 0.0486726910, 0.0504408032, -0.0845414996, -0.0425243825, 0.0619918704, 0.0089870915, 0.0136767179, 0.0849520415, -0.0847619548, 0.0457676053, 0.0413211137, 0.0001544356, 0.0309942961, -0.0470414273, -0.0531301536, 0.0742638558, 0.0006121621, -0.0276559144, -0.0694722384, 0.0179657787, 0.0359886438, 0.0701532215, 0.0941432267, -0.0186034217, -0.0428032242, 0.0630869418, 0.0664412528, 0.0615513623, -0.0278055221, 0.0412563086, -0.0362628661, -0.0495282561, -0.0654092431, 0.0503863245, -0.0075110719, 0.0463380516, -0.0662416592, 0.0335073471, 0.0823421180, 0.0586732179, 0.0927324593, -0.0390356481, 0.0312728137, 0.0102501959, -0.0281562731, -0.0097265169, 0.0099499077, 0.0482003689, 0.0511103570, -0.0285351425, 0.0623446256, 0.0232273042, 0.0178445354, 0.0395766199, 0.0284202248, -0.0469138362, -0.0551969782, -0.0284783542, -0.0712406486, 0.0283850729, 0.0277984142, -0.0566673651, -0.0187631920, 0.0921740830, 0.0711733997, 0.0829431117, 0.0173627064, 0.0303207785, 0.0373695791, 0.0355330408, -0.0643845648, -0.0959569216, -0.0105497241, -0.0860382244, 0.0672350973, 0.0812470764, -0.0377855152, -0.0556725934, -0.0793293491, 0.0366376936, -0.0806126520, -0.0953752771, -0.0123913363, 0.0788901150, -0.0480950177, -0.0582267642, 0.0423828214, -0.0275395215, 0.0741997957, 0.0095422566, -0.0331260860, 0.0842373967, 0.0418908447, -0.0466867760, -0.0156455040, 0.0454943031, 0.0772695839, -0.0479515903, -0.0180851743, -0.0132316425, 0.0076514930, -0.0502687469, 0.0760576278, 0.0150904730, -0.0057641789, -0.0406954661, 0.0252419412, 0.0685052127, -0.0225643143, -0.0512114167, -0.0674883574, -0.0257500783, -0.0156759247, -0.0636065155, -0.0067833439, -0.0010159835, -0.0351390280, 0.0958972424, -0.0346660689, -0.0041394010, 0.0866633058, -0.0324792042, 0.0319615304, 0.0226454288, 0.0441794842, 0.0263390914, -0.0156339109, 0.0116624981, 0.0363657027, -0.0638024807, 0.0012704507, 0.0730868727, 0.0926932395, 0.0431009531, 0.0876386017, 0.0859295577, -0.0897742212, -0.0498462729, -0.0041965619, -0.0180810839, 0.0029828325, -0.0868629962, -0.0260603130, -0.0959891677, -0.0942567959, -0.0512530617, -0.0553187989, -0.0842458531, 0.0557162315, -0.0558641739, -0.0920732990, 0.0597856045, 0.0410324633, 0.0035013855, -0.0528093427, 0.0795253068, 0.0721915960, 0.0117815956, -0.0542351305, 0.0724144131, 0.0397206396, 0.0237510502, 0.0814680755, 0.0749863833, -0.0011057183, -0.0505082980, -0.0408230089, -0.0559059344, -0.0680014640, -0.0030392706, 0.0637345165, 0.0577558130, 0.0209886804, 0.0556699187, -0.0439169034, -0.0191998407, -0.0472344607, -0.0289890096, -0.0276671797, 0.0150552243, 0.0646266341, -0.0596182682, 0.0868314803, -0.0899986476, 0.0098355934, -0.0541765392, -0.0631082505, 0.0128075257, -0.0229660124, 0.0812990069, -0.0500063188, 0.0083921254, 0.0090774894, -0.0150219351, 0.0532590300, -0.0802840889, 0.0224289894, 0.0054180697, 0.0009077638, -0.0647427887, 0.0170852765, -0.0844133347, -0.0043301061, 0.0725680441, -0.0291188657, 0.0380575210, -0.0732297450, 0.0251602381, 0.0190526322, 0.0823309869, 0.0511323065, -0.0554862767, -0.0449810177, -0.0668790117, -0.0586824566, -0.0233940482, -0.0693006068, -0.0322155505, 0.0299387723, -0.0477654822, 0.0699714273, -0.0299209207, 0.0410948992, 0.0613242984, -0.0827304274, 0.0840345621, -0.0573759973, -0.0488813519, 0.0375127643, 0.0290790200, 0.0872423649, 0.0742166638, 0.0289218873, -0.0643500686, 0.0792763680, 0.0616614968, -0.0933869183, -0.0959794074, 0.0612082779, 0.0101989508, -0.0245713741, -0.0208015144, -0.0521491878, 0.0962299705, 0.0569823831, 0.0297468901, -0.0141896829, -0.0660039335, 0.0609492958, -0.0364552327, 0.0225688592, -0.0052931309, -0.0001074597, -0.0392240658, 0.0273332372, -0.0717712492, -0.0202000365, 0.0729352981, 0.0954401642, -0.0576518364, 0.0417082161, 0.0295667052, 0.0793711543, 0.0383318216, -0.0131247565, 0.0172663778, 0.0827620029, -0.0490292124, -0.0698790848, -0.0720764995, 0.0490224063, -0.0403651707, 0.0015722364, -0.0840470940, -0.0708742738, -0.0087111145, -0.0728051290, 0.0224529728, -0.0189338401, 0.0382080078, -0.0070330128, 0.0791897327, -0.0092337057, -0.0023501441, 0.0524826199, 0.0664202720, 0.0243982598, -0.0473941639, 0.0076818541, 0.0628253669, 0.0065535381, 0.0887816250, -0.0460394993, -0.0893461555, 0.0635063648, 0.0120790154, 0.0179879591, -0.0020391494, -0.0308803692, 0.0439113081, 0.0614396334, 0.0476468652, 0.0771611035, -0.0283006951, 0.0891214013, -0.0540250130, -0.0534197502, -0.0010415390, 0.0796411783, 0.0504086614, -0.0795182958, 0.0119778812, -0.0661495551, -0.0815802515, -0.0742767602, -0.0903573856, 0.0110767931, -0.0065735728, -0.0271928981, 0.0847131163, 0.0831832290, -0.0449667051, -0.0173968747, 0.0561214536, 0.0802039206, 0.0228906348, -0.0889095068, -0.0785879567, 0.0658325106, -0.0102274567, 0.0707327425, 0.0480223149, 0.0765983909, -0.0638898984, -0.0781090856, -0.0661878735, 0.0204604790, 0.0639765859, -0.0307043716, -0.0761215538, -0.0370355360, 0.0162926167, 0.0449043959, 0.0797563642, -0.0535206310, -0.0736652613, -0.0409346931, -0.0430306755, 0.0873815268, 0.0162313953, 0.0879918933, 0.0281418264, -0.0510632806, 0.0794118941, 0.0380306691, 0.0650874674, -0.0340401679, -0.0740005970, -0.0558124445, -0.0425995924, 0.0885231346, 0.0491689146, -0.0486297756, -0.0703979135, 0.0416417569, 0.0233052894, 0.0894806981, -0.0637053549, -0.0471845753, 0.0196344107, 0.0184732974, 0.0951176584, 0.0602025390, 0.0384803414, 0.0163076892, -0.0533870161, -0.0847362205, 0.0300348401, 0.0566661209, -0.0194964558, -0.0588904284, 0.0294892341, 0.0935998559, -0.0196178183, -0.0901959315, -0.0363471024, 0.0717105120, 0.0476308912, 0.0576750338, 0.0285355598, 0.0445510894, -0.0262080133, -0.0065681934, -0.0234446973, 0.0385371298, 0.0749045312, -0.0102480724, 0.0728011578, -0.0555737913, -0.0142359659, -0.0484742299, 0.0295006186, 0.0692643374, 0.0774360895, -0.0727515966, -0.0589270182, 0.0627828687, -0.0502283052, 0.0542045385, -0.0812652558, 0.0901992768, 0.0342137665, 0.0644402206, -0.0354738049, -0.0908782482, -0.0728889257, -0.0196804479, 0.0675228387, 0.0281246230, 0.0111625567, 0.0056485683, 0.0036018044, 0.0129877478, 0.0328921825, 0.0633580089, -0.0007144287, -0.0295859873, 0.0450501591, 0.0278759375, -0.0852182955, 0.0965008438, -0.0932990760, -0.0614740774, -0.0747960284, 0.0729318112, -0.0555088334, -0.0205884129, -0.0303066671, 0.0510867536, -0.0567180812, -0.0030912161, -0.0721450150, -0.0707982928, -0.0070641711, -0.0070992634, -0.0948187932, -0.0719870925, 0.0540384054, 0.0738860518, -0.0008431002, 0.0415417850, -0.0918952972, 0.0378991663, 0.0267647058, -0.0014817417, -0.0902952403, 0.0621305406, -0.0428887047, 0.0139024407, 0.0330215991, 0.0417000949, -0.0691006631, 0.0387087613, -0.0964709073, 0.0739730150, 0.0102218240, 0.0592257082, -0.0224573389, -0.0118247643, 0.0665423125, 0.0318425447, 0.0935768187, -0.0871776417, 0.0639402270, 0.0722011626, -0.0045390204, 0.0403867811, -0.0681709275, 0.0932016075, 0.0892967582, 0.0886299759, -0.0232241452, 0.0143174082, 0.0013356656, 0.0590177476, -0.0303914621, -0.0531447195, -0.0831678808, 0.0822883248, 0.0182617679, 0.0203025341, -0.0426318645, 0.0419108123, -0.0544777028, -0.0285094753, 0.0186866671, 0.0877930820, -0.0914197713, -0.0949597508, 0.0434072316, 0.0252879709, 0.0106993318, 0.0259856135, -0.0272336677, -0.0620028339, -0.0688968971, 0.0458211601, -0.0499856137, -0.0856408849, 0.0826880485, -0.0181439221, -0.0855519399, 0.0330182314, 0.0804085135, 0.0888209343, 0.0169748142, 0.0372504592, -0.0592165701, -0.0264493674, 0.0673546493, -0.0401725024, 0.0147852451, -0.0456294678, -0.0004664734, 0.0812791288, -0.0443600602, -0.0552444197, -0.0453276373, 0.0416818857, 0.0679162741, 0.0827317387, -0.0238284767, 0.0298728347, 0.0810821950, -0.0636440963, 0.0482896268, -0.0303022563, 0.0470205992, -0.0613452196, -0.0077417791, 0.0867137462, -0.0260808170, 0.0103709772, 0.0226273537, -0.0578131080, 0.0869361460, 0.0907455087, -0.0114700422, -0.0448269509, 0.0124608204, 0.0024216622, 0.0529361665, -0.0206936598, -0.0291904286, 0.0548684299, -0.0946389884, -0.0146546364, 0.0455473363, -0.0246916860, -0.0107717291, 0.0793310851, -0.0600262918, -0.0815548375, 0.0566645712, 0.0282460749, 0.0175893307, 0.0830881894, -0.0472932123, 0.0905538648, -0.0229710191, -0.0445015915, 0.0445433259, 0.0559886545, 0.0670088679, 0.0140812770, 0.0316163898, 0.0121951550, 0.0648912489, -0.0654339716, -0.0442285687, -0.0053609088, 0.0407997817, -0.0376172028, 0.0873284489, -0.0170888752, -0.0683877394, -0.0695158690, 0.0430369973, 0.0304363668, -0.0020558611, -0.0117646009, 0.0228112489, -0.0705484301, 0.0385193974, -0.0805367753, -0.0156075954, 0.0376580209, 0.0617399216, -0.0912186578, -0.0327206478, -0.0863317475, 0.0212012902, -0.0336497575, -0.0869442299, 0.0680093616, -0.0524409786, 0.0311804116, 0.0691850930, 0.0465373993, 0.0220650807, -0.0862578303, -0.0774784312, -0.0072961748, -0.0444358476, 0.0016030967, -0.0752418414, -0.0863750726, 0.0158336684, -0.0788326338, -0.0649971366, -0.0353002772, 0.0089848936, 0.0951673985, -0.0421043523, 0.0655178428, 0.0750415325, 0.0561021566, 0.0394357592, 0.0004418194, -0.0481588207, -0.0097711906, -0.0321050435, 0.0321424603, 0.0822979808, 0.0526529700, -0.0610187985, 0.0536187589, 0.0144730732, 0.0865997672, -0.0839790627, 0.0498425066, 0.0331663936, -0.0323478058, -0.0238468349, -0.0852154344, -0.0431121662, -0.0273960680, -0.0103106350, -0.0018381253, -0.0054210201, 0.0486951917, -0.0645617545, -0.0824106336, 0.0315388143, -0.0551985726, 0.0598303974, 0.0520528555, 0.0567883551, -0.0849792063, 0.0134900734, -0.0886517912, 0.0336070508, -0.0161102936, 0.0922654867, 0.0739774406, 0.0232445747, 0.0164688453, 0.0708297640, 0.0666035563, -0.0481495671, -0.0204150751, -0.0780034959, 0.0117192417, -0.0193569809, -0.0817119703, -0.0107882991, -0.0199273601, 0.0845903754, -0.0632944256, -0.0474487357, -0.0954864994, -0.0533273183, -0.0376747325, 0.0924291462, 0.0491190404, 0.0043604821, 0.0155597851, -0.0034633204, -0.0800220743, -0.0948630720, 0.0033026934, -0.0317536443, 0.0434752852, 0.0160150006, 0.0528427064, 0.0766551197, 0.0557363331, 0.0636823922, 0.0654307455, 0.0865038931, 0.0626426935, -0.0203828439, 0.0823598206, 0.0030426234, -0.0298260897, 0.0428218096, 0.0603660941, -0.0617261156, 0.0412091464, -0.0748444796, -0.0525130257, 0.0680474639, -0.0855676383, 0.0544513613, 0.0275837928, 0.0222686902, -0.0168352947, 0.0748085827, -0.0246599689, -0.0366104990, 0.0713364780, -0.0642505586, 0.0419079661, -0.0451271683, -0.0615824386, -0.0734104514, -0.0135487542, 0.0367760211, -0.0095235333, 0.0665133744, -0.0003744140, 0.0237043500, -0.0490529649, 0.0244196355, -0.0639623404, 0.0171519667, -0.0031314716, 0.0581967086, -0.0535269566, 0.0144641176, 0.0629257858, -0.0780964568, 0.0791383386, 0.0850355178, 0.0165869892, 0.0240667611, 0.0527033359, -0.0551948324, -0.0885972604, -0.0427123830, -0.0256987885, -0.0220705718, -0.0825346261, 0.0402078480, 0.0253842324, -0.0454201810, -0.0595427603, -0.0158541426, -0.0364896506, -0.0246438831, -0.0686162338, -0.0101117119, 0.0493194610, -0.0353448056, -0.0192526355, -0.0485964641, -0.0253510624, 0.0510928333, 0.0602554530, 0.0121006295, 0.0954342782, 0.0465982407, 0.0282904953, -0.0591107495, -0.0834824815, -0.0606725290, 0.0173432231, -0.0799299926, 0.0837259889, -0.0518694222, 0.0273082554, -0.0015780777, 0.0767434984, 0.0221886486, 0.0293289423, -0.0066452995, 0.0289638937, -0.0064918995, 0.0414124578, 0.0012702197, -0.0449850559, -0.0025496706, -0.0212716982, 0.0272041410, -0.0252263770, 0.0961362720, 0.0236400813, -0.0552647784, -0.0209119469, -0.0040631965, -0.0084617734, 0.0456006527, 0.0364757925, 0.0794391334, 0.0647828132, 0.0276155621, 0.0660205334, 0.0216614157, -0.0864301100, 0.0015455708, 0.0725128800, -0.0647150204, 0.0026406646, 0.0354896933, -0.0298063755, -0.0430824570, 0.0918384343, 0.0874225497, -0.0647440404, 0.0511426628, -0.0739523023, 0.0425048321, 0.0641815513, 0.0937677473, 0.0299807340, -0.0537321791, 0.0887092054, 0.0707051307, -0.0802079514, 0.0882662684, 0.0705346018, 0.0325507671, -0.0539671592, -0.0686676428, -0.0339993834, -0.0916812718, -0.0119395852, 0.0743408352, 0.0294202864, -0.0110004991, 0.0002472177, -0.0823364630, 0.0235145465, -0.0689645782, -0.0919737816, -0.0932189301, 0.0509833395, 0.0585591197, 0.0048593432, -0.0038812906, 0.0494936556, -0.0145389065, -0.0652100742, -0.0015545040, 0.0787726790, -0.0090084001, -0.0211717933, -0.0305344686, 0.0948911607, -0.0435516760, 0.0691875368, -0.0762196183, 0.0296770334, 0.0394804031, 0.0294089764, 0.0174448490, 0.0289923102, -0.0022270083, -0.0166724771, 0.0080676004, 0.0471634269, 0.0485588610, 0.0414172858, -0.0450737029, 0.0933391303, 0.0330803245, -0.0336749703, 0.0718733370, -0.0649213791, -0.0561219156, 0.0164221898, 0.0957500637, 0.0324704051, 0.0243996456, -0.0106999800, 0.0399933606, 0.0422933549, -0.0314936638, -0.0382572301, 0.0075686425, -0.0856869668, 0.0364282280, -0.0904121622, 0.0568410605, 0.0522356480, 0.0217831656, -0.0188430175, -0.0235677809, 0.0825973153, 0.0105839595, 0.0901380628, 0.0894471258, 0.0021048039, 0.0112021863, 0.0022664145, 0.0181285441, 0.0681225806, 0.0491585732, -0.0002095401, 0.0915604532, 0.0844528228, 0.0582937300, 0.0931716114, -0.0966113955, -0.0564169623, 0.0627780259, 0.0025909692, 0.0931417346, 0.0031740665, -0.0415182076, 0.0484974086, -0.0452398919, -0.0359027907, -0.0198852271, 0.0854329169, 0.0858342052, 0.0022133663, -0.0863454789, 0.0120261088, 0.0568685234, 0.0955840051, 0.0108463168, -0.0688543990, -0.0167549551, 0.0579069257, -0.0472117700, 0.0729616433, 0.0319246650, -0.0056675896, 0.0007321090, 0.0589600354, 0.0801912695, 0.0840746015, 0.0614524633, 0.0728876740, -0.0012468770, -0.0210523978, -0.0796174705, -0.0942675993, -0.0573382080, -0.0336113721, 0.0811962336, 0.0879970789, -0.0898203179, 0.0546862781, 0.0080006048, -0.0605280846, 0.0106611252, 0.0629707575, -0.0926771313, 0.0627369732, -0.0084758326, 0.0776808560, -0.0931409746, 0.0411964953, 0.0763069242, 0.0547029674, -0.0133240074, -0.0944977328, -0.0802412927, 0.0661497861, 0.0440491587, 0.0250766724, 0.0252968818, -0.0849763677, -0.0065435171, 0.0823033750, 0.0565642715, -0.0542232394, 0.0770972818, -0.0058368519, -0.0869711488, -0.0745380074, -0.0926031172, -0.0889872611, -0.0478316881, 0.0357291251, 0.0957445204, -0.0091629699, 0.0808915794, 0.0835179240, -0.0391736962, -0.0282003880, -0.0383868031, 0.0593493134, -0.0771441609, 0.0121254399, -0.0276531652, 0.0418609530, 0.0614508092, 0.0063828975, 0.0212224647, 0.0883384347, -0.0720893145, -0.0135289952, -0.0267780647, -0.0246428624, -0.0187177658, 0.0360852778, -0.0535278581, -0.0473396368, 0.0799590796, 0.0274867937, -0.0554121509, 0.0510420650, 0.0042361021, 0.0017884672, 0.0096519068, -0.0214279369, -0.0707287192, -0.0701877996, 0.0911543369, 0.0033096895, 0.0060500577, -0.0002946109, 0.0460987389, -0.0948197693, 0.0492858887, 0.0848524570, 0.0419850945, -0.0764959455, 0.0027964190, 0.0867179781, -0.0831861198, 0.0135040879, 0.0908690393, 0.0241097882, 0.0749009252, -0.0511359051, 0.0733864903, -0.0615419932, 0.0198283941, 0.0434235781, -0.0803277642, -0.0134107545, 0.0307570994, 0.0722222626, -0.0685034394, -0.0448640920, 0.0165695399, -0.0362144560, -0.0632847771, -0.0210857093, -0.0847752318, -0.0916673765, 0.0175402984, 0.0077505037, -0.0322003141, 0.0055113286, 0.0461543500, -0.0450011715, -0.0888377875, 0.0134152845, -0.0126979426, 0.0251117423, -0.0375073664, 0.0653221905, 0.0091832653, -0.0963911265, -0.0610591508, 0.0059007034, 0.0542765260, -0.0194122717, -0.0812817663, 0.0228093341, 0.0045647621, 0.0211481079, -0.0270870328, 0.0882994980, 0.0710979849, -0.0754819959, 0.0940263420, -0.0411389954, -0.0896711648, 0.0767558813, 0.0524945557, 0.0940057039, 0.0477418900, 0.0605423003, -0.0166789368, -0.0185439810, -0.0831046328, -0.0204249322, 0.0198202208, 0.0720722824, 0.0557075739, 0.0167985857, -0.0598243922, -0.0885865316, 0.0478744656, 0.0369068682, -0.0314479545, 0.0908388942, 0.0580567271, 0.0851917565, 0.0812261999, 0.0104458854, 0.0152778104, -0.0073488802, 0.0662230998, -0.0458628088, 0.0425390601, -0.0898301974, -0.0643340051, -0.0142789260, 0.0888914317, 0.0616157502, -0.0541100800, -0.0261538774, -0.0035163686, 0.0248929188, 0.0722436160, -0.0480413213, 0.0758721679, -0.0811299384, 0.0057859197, -0.0484652035, 0.0268809125, -0.0955916718, -0.0089843199, 0.0686669648, 0.0868964642, 0.0953218788, -0.0589005388, -0.0643195063, -0.0805667117, -0.0205656290, 0.0342106521, 0.0040153861, -0.0250625014, -0.0014333352, 0.0347065777, 0.0453384817, 0.0878304541, 0.0698055774, -0.0517344698, -0.0142689794, 0.0505078882, -0.0520541035, 0.0512536168, -0.0471097790, -0.0534991845, -0.0602130033, 0.0170162767, 0.0809740424, 0.0155534148, -0.0067635402, 0.0051271543, 0.0495032072, -0.0929926783, -0.0393021628, -0.0667459518, -0.0044804066, -0.0369477235, 0.0796429515, 0.0326983035, 0.0109147355, 0.0552072823, 0.0670242310, -0.0818383172, 0.0375456363, 0.0645266175, -0.0607809797, 0.0475815684, -0.0915252417, -0.0167462304, -0.0757491291, -0.0627947599, -0.0269173831, 0.0271310583, -0.0351994187, 0.0118990764, 0.0576522946, 0.0128331259, 0.0928993821, -0.0355154723, 0.0200492963, -0.0747882277, -0.0809961855, -0.0815927610, 0.0360776633, -0.0945131779, 0.0107033774, -0.0912587047, -0.0353028402, 0.0358355045, 0.0791390538, -0.0162576661, -0.0434406176, -0.0653336495, 0.0911151171, -0.0085603446, 0.0805838257, 0.0101765096, -0.0599426776, 0.0429816395, -0.0694630295, -0.0765152201, -0.0931806043, 0.0260014236, 0.0396247953, 0.0411298573, 0.0462058336, 0.0362191498, -0.0353729241, -0.0907337591, 0.0787431598, -0.0144370347, 0.0941628218, -0.0305560753, -0.0380072221, 0.0145606548, 0.0695686936, 0.0432050526, 0.0594730675, -0.0657494664, -0.0484017655, -0.0365541726, 0.0713293552, -0.0199205056, 0.0626224279, 0.0585170388, -0.0203333050, 0.0675483942, 0.0690590441, 0.0118170977, -0.0622847229, -0.0416204967, -0.0927014351, 0.0857858658, 0.0346899778, 0.0009061694, 0.0554181784, -0.0354591459, 0.0180189833, -0.0129893869, 0.0838161111, 0.0134611279, -0.0088073313, -0.0580064878, -0.0644765347, -0.0202148110, 0.0309368372, -0.0694803596, 0.0215598196, -0.0471272804, 0.0878537297, -0.0526969656, 0.0270791426, 0.0284899026, -0.0459358729, -0.0516382754, 0.0934232771, 0.0386058390, 0.0418391824, -0.0257900134, -0.0792037696, -0.0311468169, -0.0965817794, -0.0826722756, -0.0335492492, -0.0218046159, 0.0334352553, -0.0145025253, -0.0820457339, -0.0088214800, 0.0893320292, 0.0303808153, -0.0796141624, -0.0493796840, 0.0692159235, 0.0442976654, -0.0148067847, 0.0436556041, 0.0660670996, -0.0435168408, 0.0948603004, 0.0456868410, -0.0083714873, 0.0738725364, -0.0386813879, 0.0171169937, -0.0613615178, 0.0092416480, 0.0146130100, -0.0338490978, 0.0032133982, -0.0211475044, 0.0232597142, -0.0072952732, 0.0094401762, -0.0002997071, 0.0712502450, -0.0715521052, -0.0578417778, 0.0189404637, 0.0055261701, -0.0265353322, -0.0646535158, -0.0043130219, -0.0376852117, 0.0461010188, 0.0062679127, 0.0436540395, 0.0407568216, -0.0749663264, -0.0900615528, -0.0853686705, 0.0129258409, 0.0071480870, 0.0457322448, 0.0289266557, 0.0847959220, 0.0284966677, -0.0354573466, 0.0383741260, -0.0800144076, 0.0277148038, 0.0459723026, 0.0819477886, 0.0854662210, -0.0854921266, 0.0257187784, 0.0840158165, 0.0215093344, -0.0233226717, -0.0817283615, -0.0069833770, 0.0589671582, 0.0785174817, -0.0964042619, 0.0305230021, -0.0198508129, 0.0070269182, -0.0488698334, -0.0654435530, 0.0727378577, 0.0609832704, -0.0718572438, -0.0750198588, 0.0540208071, 0.0123298317, 0.0446499884, 0.0214582756, 0.0605335832, -0.0430302843, -0.0605825447, 0.0224516541, -0.0886929035, -0.0566197857, 0.0018169582, 0.0299851149, -0.0719820112, -0.0492331199, 0.0280486345, 0.0834694356, -0.0370013937, -0.0388120711, -0.0651425272, 0.0965666771, -0.0189532712, -0.0389830843, -0.0599861704, -0.0888276994, 0.0923930258, -0.0449066386, 0.0568701178, -0.0425521769, -0.0499050245, 0.0844534487, 0.0155189484, -0.0019441098, 0.0035547987, -0.0808398575, 0.0501531661, 0.0018253624, -0.0647359118, -0.0113451555, -0.0184781402, 0.0632560551, -0.0401492566, -0.0829945430, 0.0236706510, 0.0701991320, -0.0193063095, -0.0711087435, -0.0488714948, 0.0809982419, 0.0124551132, -0.0729847029, -0.0120356679, 0.0627545416, -0.0024348423, -0.0870207995, 0.0104826614, -0.0752943307, 0.0131375939, 0.0632333457, 0.0413372666, -0.0697131008, 0.0634033233, 0.0791477114, -0.0437321067, -0.0806810781, -0.0720057711, -0.0073016435, 0.0695067197, -0.0344986357, 0.0925927013, -0.0191569775, -0.0632520467, 0.0649283528, -0.0124759153, 0.0718621612, 0.0757027268, 0.0802308023, 0.0538547635, 0.0038782880, 0.0825682133, 0.0057774484, 0.0592859834, -0.0064946488, -0.0194184780, 0.0713673830, 0.0646615326, 0.0235235989, -0.0798162520, -0.0460382551, 0.0578762293, 0.0917469114, 0.0368715823, -0.0787527561, 0.0268699005, 0.0578675866, 0.0487439334, 0.0954624861, -0.0682406425, 0.0926622152, -0.0772965476, 0.0149878636, -0.0741846040, -0.0615716092, 0.0878401250, 0.0307755470, -0.0033405051, 0.0253790393, 0.0021430776, 0.0710974038, 0.0487035960, -0.0562106073, 0.0302822888, -0.0562656671, -0.0677128583, 0.0321088582, -0.0438088179, 0.0654775798, -0.0950012356, 0.0451306254, 0.0916027129, -0.0910641253, 0.0701566041, 0.0867014229, -0.0787293762, -0.0457837433, -0.0245393962, 0.0146041512, 0.0726874620, -0.0029482692, 0.0075106993, -0.0472448505, -0.0520991869, 0.0666295588, 0.0447109491, 0.0087618977, 0.0623897314, 0.0220987573, 0.0288082361, -0.0025510564, 0.0482151657, 0.0208068416, -0.0161648840, 0.0822745562, 0.0187076554, -0.0528961644, -0.0377860703, -0.0457037576, -0.0916024595, 0.0504380018, 0.0671917200, 0.0910485387, 0.0677001327, -0.0149082467, 0.0606755763, -0.0235044360, 0.0721611083, 0.0195831656, 0.0025454909, -0.0925263837, 0.0621450543, 0.0483035594, 0.0159337148, -0.0655391216, -0.0013242140, -0.0157413036, -0.0388740785, 0.0799117088, 0.0185568184, -0.0911747962, -0.0385427885, 0.0395292491, 0.0065645725, 0.0879671425, -0.0908510089, 0.0084482431, -0.0839330554, -0.0447087772, 0.0046725199, -0.0447176658, 0.0923309475, -0.0417620540, -0.0890771002, -0.0796226189, 0.0174130127, 0.0080907792, 0.0368280709, -0.0360291563, -0.0961730629, -0.0201911479, -0.0022600666, -0.0725394636, -0.0581317246, -0.0591808371, -0.0106528178, 0.0285800397, 0.0256524086, -0.0526891164, 0.0452231765, 0.0181703568, -0.0852570087, 0.0711541921, -0.0082473382, -0.0702646226, 0.0216749236, 0.0574409515, -0.0821074620, 0.0887938291, -0.0758093596, 0.0332756937, -0.0434223562, 0.0412325561, 0.0894149244, -0.0600841641, 0.0513937920, -0.0477772765, -0.0528311804, -0.0491685271, -0.0856583863, 0.0644348413, -0.0287058800, -0.0318997502, -0.0147528797, 0.0476729274, 0.0477023870, -0.0619233549, 0.0864520669, 0.0222136751, -0.0182819664, -0.0694979802, 0.0629549921, 0.0272648335, -0.0554556921, 0.0236882865, 0.0237293988, 0.0607547164, -0.0336685255, -0.0431660935, 0.0932502598, 0.0801521987, -0.0062097386, -0.0690267682, 0.0420201123, -0.0388780944, 0.0314456075, -0.0932720453, -0.0041068047, -0.0677262917, 0.0573066920, 0.0889963955, 0.0283648223, 0.0009959936, 0.0322744548, -0.0438168272, 0.0000383407, 0.0122535601, -0.0864639282, -0.0503494740, -0.0204797983, -0.0063393340, -0.0587140620, -0.0408840925, 0.0615851581, -0.0174127370, -0.0638813376, -0.0110099614, 0.0754074901, -0.0241169259, -0.0952426568, -0.0646782443, -0.0250993446, -0.0208283141, -0.0688075572, 0.0175273940, 0.0746306777, 0.0897233635, -0.0331326872, -0.0372436903, -0.0285233706, 0.0622629523, 0.0205070451, 0.0872725695, -0.0435274616, 0.0804811418, -0.0951752216, 0.0722477287, -0.0893369243, 0.0616175979, 0.0398950726, 0.0569179207, 0.0894303024, -0.0890018269, -0.0823237672, -0.0884184986, 0.0400227755, -0.0029615238, 0.0960505754, 0.0053384975, -0.0035522655, -0.0616140403, -0.0492348969, 0.0813614279, 0.0513088852, 0.0926561207, 0.0151258409, 0.0807333142, 0.0764990449, -0.0457647443, -0.0088076517, 0.0947819501, 0.0943016708, -0.0268497020, 0.0730319321, -0.0447308719, -0.0891996175, -0.0149025619, -0.0453872420, 0.0242722183, 0.0525903851, -0.0667466894, 0.0758482069, 0.0562292635, -0.0701139048, 0.0244462043, -0.0648559928, 0.0800681114, -0.0003466383, -0.0017421618, -0.0685670599, 0.0778733641, 0.0839267224, 0.0446721166, -0.0580548979, 0.0784831792, 0.0507994443, -0.0191915110, -0.0401954055, 0.0109082982, -0.0456760079, 0.0296642035, -0.0621011518, -0.0657813698, 0.0232811645, 0.0762570202, -0.0702250078, 0.0735066235, 0.0963725448, -0.0390685685, -0.0469862074, 0.0661101192, -0.0690213665, 0.0198079646, -0.0597905740, -0.0391260497, 0.0212097391, -0.0849126577, -0.0356518812, 0.0041853413, 0.0632731915, 0.0820605010, 0.0543401837, 0.0145784318, -0.0942413732, -0.0907337591, -0.0779251456, 0.0873557627, -0.0127102956, 0.0657785386, 0.0631475002, 0.0832525194, -0.0273811594, -0.0225551203, -0.0245426521, 0.0060863718, -0.0707299635, -0.0462503582, 0.0416660160, -0.0825517997, 0.0053136572, 0.0783066452, -0.0498313829, -0.0357040763, -0.0836767405, 0.0686894804, 0.0409938544, 0.0630447865, -0.0587984584, 0.0093321577, 0.0914878398, 0.0191631615, 0.0883614570, -0.0084310025, 0.0729678571, 0.0358748138, 0.0557280034, 0.0167736113, -0.0693344697, 0.0500834733, 0.0505334437, -0.0215538442, 0.0948249400, 0.0085455030, 0.0710238367, -0.0465745814, -0.0502028875, -0.0607052632, -0.0774539635, -0.0863925293, 0.0859616995, 0.0561219156, -0.0884387642, 0.0319323242, -0.0464119725, -0.0413584597, 0.0811580718, 0.0183425173, 0.0013707504, -0.0921770185, -0.0405120589, 0.0717485547, 0.0425235331, -0.0954768509, -0.0913679004, -0.0207693055, 0.0954229534, -0.0884557739, 0.0154573843, 0.0186331123, 0.0542222708, -0.0435282476, -0.0633790791, 0.0448887646, -0.0276060253, -0.0542980358, 0.0724052042, -0.0256250724, -0.0790493265, 0.0759467185, -0.0492291711, -0.0708488747, -0.0360789970, -0.0488316976, -0.0604933426, -0.0721449479, 0.0248692334, 0.0424122065, -0.0446108766, -0.0525982119, -0.0566430315, 0.0789884478, -0.0188625753, -0.0434111841, -0.0453911424, -0.0703963488, -0.0139889121, -0.0617493652, 0.0950377584, 0.0084716082, 0.0582482070, -0.0694607869, 0.0005420744, 0.0890036672, 0.0629863441, 0.0950854272, -0.0818302110, -0.0893006101, -0.0909365863, -0.0117971525, 0.0144937560, 0.0371751338, -0.0309656262, -0.0633579791, 0.0893832296, -0.0253951252, -0.0526681803, 0.0440293998, -0.0224846900, 0.0501374155, 0.0120157674, -0.0610154979, -0.0723724514, 0.0331027210, 0.0122036785, -0.0275873318, 0.0075334162, 0.0105004385, -0.0551073626, 0.0081606582, 0.0587619096, -0.0127396807, 0.0165048763, 0.0122252405, 0.0797765702, 0.0558856726, 0.0425053835, -0.0846166611, 0.0296244472, -0.0047488362, 0.0771093518, -0.0605478697, -0.0688655451, 0.0407951027, -0.0855530947, 0.0003974289, 0.0651044399, 0.0716844350, 0.0426298976, 0.0019426048, -0.0675049052, 0.0754906088, -0.0740791261, 0.0865665376, -0.0847628787, 0.0437696874, 0.0581081361, 0.0722838193, -0.0817436203, -0.0259082094, 0.0435575396, 0.0758464485, -0.0958175138, 0.0742211193, 0.0107781440, 0.0870341510, 0.0929729193, 0.0179895312, -0.0389250256, -0.0452231541, -0.0484395549, 0.0063865632, 0.0544478297, -0.0442015156, -0.0589925088, -0.0359692499, 0.0257517621, 0.0918785036, -0.0079477429, 0.0369675010, -0.0767940357, -0.0339463055, -0.0262860656, 0.0634785742, 0.0092192516, 0.0416071266, -0.0536999777, -0.0950115770, 0.0536591113, -0.0351532511, -0.0925593078, 0.0808719248, -0.0950786397, -0.0528949425, 0.0277999640, 0.0665739477, 0.0644787699, 0.0351514667, -0.0488326214, 0.0412663817, 0.0075085983, -0.0672118664, -0.0668300688, -0.0363411680, 0.0826147497, -0.0410606675, 0.0895584226, -0.0628230572, 0.0019561574, 0.0467118174, 0.0061103329, 0.0678113103, 0.0145763978, 0.0693199188, 0.0440217555, -0.0398932919, 0.0024717078, -0.0577608682, 0.0389810503, -0.0362160951, 0.0223615319, 0.0963498652, 0.0769435614, -0.0556497648, 0.0272162408, -0.0880497843, 0.0466144979, -0.0171379596, -0.0876377448, 0.0049831718, 0.0133074746, 0.0585779101, 0.0835118443, 0.0022188202, 0.0920270383, 0.0271180868, -0.0477796085, 0.0761292875, 0.0395688117, 0.0585208237, 0.0597209334, 0.0895185769, -0.0851511434, -0.0460115671, 0.0773961842, -0.0373252966, -0.0797555819, 0.0861642659, -0.0371737219, 0.0644541830, 0.0504626185, 0.0817316622, -0.0163789317, -0.0388497226, 0.0610350668, 0.0954544395, 0.0671128333, -0.0881202817, 0.0834280998, -0.0289324522, 0.0931201279, 0.0301660597, 0.0356603563, -0.0324307010, -0.0000326410, 0.0128037855, -0.0297973230, 0.0475111306, 0.0636228770, 0.0640101731, -0.0354288816, 0.0451391786, 0.0447787493, -0.0227217004, -0.0558236390, 0.0781899095, -0.0073141828, -0.0523713343, -0.0862659812, 0.0295449197, -0.0468644835, 0.0686101764, 0.0391431749, -0.0086528212, -0.0378371105, -0.0622874014, 0.0530390888, 0.0576110631, -0.0635278821, 0.0007083565, -0.0843475834, 0.0028777272, 0.0191588178, 0.0067518353, -0.0176303089, -0.0634469539, 0.0266383588, 0.0538556427, 0.0073825568, -0.0905759260, 0.0125218779, -0.0867865607, 0.0319307745, -0.0516925715, -0.0546307340, -0.0220912099, 0.0378641188, 0.0646696389, 0.0216547698, 0.0515603423, 0.0913233161, 0.0574771166, 0.0464488566, 0.0007850677, -0.0267450586, 0.0115301087, 0.0466411114, -0.0660674646, 0.0668393523, -0.0168955922, -0.0374359898, -0.0829790756, -0.0797759667, -0.0661283135, 0.0643805414, 0.0582426935, -0.0342981890, 0.0332735181, -0.0356646925, 0.0432871878, -0.0004976168, -0.0914831161, -0.0101963133, -0.0283405408, 0.0408170968, 0.0735669285, -0.0284970999, -0.0454091728, -0.0560595654, 0.0166876614, -0.0313070714, 0.0379370600, -0.0779212415, -0.0885889307, -0.0334895328, 0.0943108350, 0.0671366751, 0.0624297410, 0.0765387267, -0.0023337305, 0.0157349557, -0.0186008587, -0.0888518393, 0.0125349909, 0.0819754452, -0.0246040598, -0.0045707375, 0.0577111691, -0.0894143283, -0.0339599773, -0.0364257991, -0.0037170202, -0.0725354701, 0.0341940075, 0.0856718421, -0.0520241372, 0.0044339895, 0.0255575329, -0.0752087608, 0.0629249066, -0.0731528550, 0.0933683515, -0.0171856955, -0.0314806700, -0.0234811455, 0.0835039914, 0.0542806685, 0.0667284727, -0.0495600440, 0.0526241362, -0.0361669958, 0.0116405040, -0.0747509673, -0.0041337907, -0.0137616470, 0.0490683615, -0.0122937039, 0.0600511283, 0.0684819520, -0.0391430631, -0.0084400475, 0.0191376284, -0.0710674450, -0.0116960406, 0.0312717557, 0.0794860721, 0.0203285739, 0.0357748270, 0.0741889030, 0.0184040889, 0.0621798486, -0.0322156847, 0.0262892023, 0.0931116939, -0.0459604822, -0.0306018740, 0.0856051296, 0.0713936239, 0.0073516518, -0.0623581558, -0.0880013257, 0.0889929384, 0.0946559608, 0.0351931453, 0.0961045027, 0.0426527262, -0.0458915047, -0.0638614148, 0.0142203420, 0.0211064816, 0.0414739996, -0.0918617770, 0.0873967558, 0.0444873720, 0.0290476084, -0.0577880852, -0.0039795637, -0.0315868109, 0.0948030949, -0.0529973246, 0.0088423043, 0.0332620740, 0.0511869937, -0.0109560117, 0.0167523921, 0.0965831876, -0.0462010950, 0.0445708483, 0.0959466100, -0.0138054863, -0.0838134289, 0.0610494167, 0.0184097216, 0.0296410918, -0.0069212765, -0.0402232222, 0.0687392950, 0.0144559219, -0.0407832116, 0.0637565851, -0.0375220254, 0.0440023392, 0.0120162070, -0.0002726763, -0.0578675419, -0.0506779961, 0.0202462524, -0.0008980930, -0.0869473517, 0.0781724304, 0.0570022762, -0.0962306410, -0.0261909068, -0.0726252720, -0.0820240080, -0.0073283985, -0.0068477988, -0.0282059982, 0.0932507366, -0.0308727771, 0.0277138576, -0.0595020615, 0.0492533147, -0.0283717737, 0.0636726916, -0.0229572356, 0.0883380473, 0.0306263268, 0.0616362989, 0.0714543909, -0.0668139756, 0.0833014101, 0.0128636733, -0.0115825608, 0.0294195712, 0.0706931502, 0.0066460818, 0.0632777661, 0.0143513009, 0.0566194654, -0.0806625187, -0.0196839273, -0.0435745083, -0.0095698163, 0.0907867402, -0.0739749223, 0.0765402615, -0.0871129110, -0.0361709185, -0.0922698677, 0.0776368678, 0.0228767619, 0.0223004296, -0.0040013567, 0.0147668719, -0.0704431832, 0.0964057297, -0.0751228184, -0.0209582821, 0.0664025694, 0.0784357339, 0.0316783190, 0.0442121625, -0.0206361115, 0.0782978684, -0.0569516979, -0.0221203640, 0.0070772395, 0.0103090182, 0.0686973333, -0.0807888135, 0.0147549585, 0.0483744740, -0.0023052916, -0.0843054131, 0.0908396542, -0.0532906167, -0.0811318979, 0.0810002685, -0.0152739957, 0.0805260092, 0.0266151801, -0.0616968684, -0.0858858377, 0.0730637461, -0.0408621170, 0.0248926654, -0.0417230166, 0.0791952312, 0.0204681903, -0.0756985247, 0.0801904947, -0.0542894229, -0.0557208881, -0.0060205087, 0.0894780606, -0.0424110591, -0.0331868678, -0.0055710524, -0.0184435844, -0.0753381476, 0.0022293925, 0.0944530815, -0.0361403301, 0.0455027372, 0.0279014856, 0.0038805306, -0.0175191537, -0.0692277253, 0.0732800066, 0.0224318728, -0.0584583282, 0.0221910551, -0.0376151949, 0.0897342414, -0.0757801756, -0.0189361200, -0.0020394698, 0.0709165782, 0.0823203921, 0.0802305788, 0.0490730256, -0.0640740022, 0.0732124299, 0.0343131274, -0.0024978891, -0.0458817631, -0.0188253149, -0.0728678703, 0.0743108839, 0.0930210650, 0.0465805680, -0.0054502040, 0.0141303539, 0.0246722773, -0.0899749398, 0.0344545692, -0.0347443707, 0.0133702457, -0.0204388499, 0.0316293091, -0.0537329875, -0.0505845472, 0.0766816884, -0.0939639434, 0.0230783150, -0.0935557559, -0.0814762115, -0.0184867755, -0.0135080144, -0.0637617111, -0.0731013045, -0.0713878572, -0.0054154843, -0.0077706799, -0.0150995478, -0.0293260515, -0.0432831533, -0.0294150636, -0.0785289556, -0.0225299150, -0.0927203447, 0.0264875665, 0.0825686008, -0.0050544143, -0.0515155122, 0.0560988337, 0.0354908705, -0.0902028754, -0.0777233392, 0.0372428596, 0.0184446275, -0.0546721928, 0.0466398001, 0.0205967277, 0.0451555103, -0.0831684172, -0.0310536474, -0.0936869979, 0.0712538958, -0.0587508120, 0.0307688713, 0.0306534022, 0.0145377070, 0.0006876737, -0.0328902751, -0.0093999580, 0.0536741018, 0.0444079340, -0.0866088346, -0.0009978861, 0.0167643949, 0.0615701973, 0.0330026448, 0.0024527311, 0.0150627717, -0.0757179409, 0.0090329126, -0.0596759133, -0.0470768139, -0.0518095195, 0.0937233269, -0.0188784823, -0.0260592550, -0.0126007572, -0.0147072002, -0.0593002997, 0.0208270922, 0.0306362212, -0.0722983256, 0.0811587274, 0.0707138330, 0.0803087652, 0.0386224538, 0.0245534554, 0.0441916585, -0.0817535222, -0.0852915943, -0.0104510784, 0.0031100735, 0.0484367609, 0.0066304132, 0.0335293710, -0.0756241977, 0.0475757867, 0.0636536777, -0.0659269914, 0.0264827684, 0.0183662027, 0.0509030521, 0.0623665750, -0.0232535526, 0.0723416954, 0.0886892825, 0.0466502607, 0.0851413161, -0.0768841133, 0.0365281552, 0.0912790745, -0.0845567808, 0.0174280852, 0.0892508328, 0.0516207963, -0.0111654848, -0.0549937636, 0.0333076268, -0.0296621919, 0.0499724746, -0.0543267988, -0.0825012401, 0.0428200960, -0.0674371272, 0.0405163765, -0.0351183452, 0.0511623621, -0.0162780508, 0.0966471583, 0.0032939911, -0.0469105579, 0.0771938264, -0.0908310860, -0.0354029574, -0.0191576406, 0.0156711712, -0.0026529282, 0.0076263323, 0.0777737349, -0.0503289774, 0.0192229748, 0.0958241671, 0.0418160707, 0.0563407391, -0.0756056756, 0.0899689198, -0.0007467270, -0.0602427125, 0.0495007187, -0.0039619952, 0.0133452415, -0.0563111193, -0.0270183086, -0.0392235592, -0.0199880227, -0.0619057864, -0.0198270082, 0.0603588969, 0.0406503826, -0.0045919120, 0.0309576094, 0.0261803344, 0.0717461407, 0.0001367331, 0.0065589398, -0.0757500306, -0.0624360442, -0.0629324615, -0.0162292942, -0.0793386251, 0.0913347453, -0.0568070039, -0.0487460084, -0.0191165730, -0.0707335696, 0.0111663193, 0.0522829592, -0.0686217695, -0.0288285539, -0.0069767535, 0.0501238257, -0.0360752568, -0.0059304535, 0.0098126680, -0.0138297230, -0.0878458098, 0.0741171241, -0.0757053345, -0.0789921954, 0.0518519431, -0.0141759515, 0.0693225265, 0.0344089270, -0.0910097808, 0.0578210652, 0.0524781942, -0.0007425919, 0.0512978435, -0.0367874205, 0.0426480472, 0.0729298741, -0.0134058893, -0.0143018737, 0.0558223426, -0.0483065881, 0.0641271174, -0.0809164494, -0.0171827674, 0.0157590806, 0.0845156163, 0.0898955464, 0.0167516991, -0.0336316377, -0.0775116086, -0.0067120418, -0.0650013611, -0.0240082145, -0.0783452913, 0.0900063366, -0.0526674427, 0.0668544471, -0.0130615979, 0.0968222767, -0.0779582709, 0.0055391490, -0.0438877009, -0.0818403736, -0.0153207704, -0.0045272037, 0.0493718833, -0.0867395177, 0.0011643767, -0.0379364192, 0.0110204220, -0.0799134150, -0.0609086603, -0.0665435418, 0.0540111363, 0.0129107833, 0.0328440964, 0.0761662871, -0.0535931177, -0.0548243001, 0.0059452578, 0.0185834095, 0.0414803922, -0.0337069854, -0.0288197547, -0.0882278383, -0.0164747760, 0.0145058036, 0.0004254058, -0.0885183811, 0.0558394790, -0.0025824979, 0.0379115343, 0.0277398974, -0.0685867071, -0.0571041293, 0.0395313054, 0.0376552194, 0.0441458821, 0.0830712914, -0.0296040848, 0.0736977756, -0.0482418351, -0.0414643288, -0.0483542830, -0.0417147279, -0.0593691841, 0.0337602943, -0.0772238523, 0.0199251175, 0.0951800048, -0.0212722793, -0.0460719578, 0.0666640401, 0.0428374410, -0.0453455709, 0.0424300581, -0.0898104832, 0.0917099863, 0.0415378362, -0.0312649161, 0.0167155936, 0.0875300467, 0.0150030777, -0.0652224869, -0.0380152538, -0.0824807212, -0.0248875841, 0.0943744183, -0.0218361914, -0.0312265754, 0.0705332905, -0.0186276659, -0.0844558328, 0.0051973760, -0.0765945166, 0.0309728980, 0.0369487852, -0.0260046571, -0.0232189223, -0.0951026678, -0.0851356089, -0.0048812553, 0.0211429596, -0.0501444601, -0.0314613953, -0.0886094272, 0.0950142741, 0.0642870218, -0.0008663684, 0.0937075019, 0.0251088291, 0.0653756857, 0.0619269758, -0.0434035659, 0.0191414878, -0.0963663980, 0.0457069874, 0.0129175708, -0.0105885491, -0.0741565078, 0.0816114694, 0.0370457619, 0.0755294114, 0.0484321862, -0.0933757648, -0.0834827125, 0.0708890259, -0.0327860415, 0.0472331494, 0.0943588316, -0.0154704005, 0.0903614461, 0.0213607624, -0.0339733139, 0.0796705633, 0.0699259043, -0.0657902360, -0.0145766065, 0.0180632174, -0.0161992610, 0.0737839490, 0.0427373648, -0.0856108814, 0.0175160393, 0.0299906433, -0.0447389744, 0.0491125733, -0.0555937588, -0.0730290934, -0.0932096466, 0.0093668103, 0.0101732090, -0.0949300155, -0.0803427249, -0.0810749009, 0.0241489187, -0.0697666109, 0.0526178628, -0.0225505531, -0.0856668353, -0.0101190284, -0.0341915861, -0.0437259227, -0.0638012588, 0.0316736400, 0.0065035596, -0.0300229564, -0.0227237120, -0.0915892124, -0.0380306765, 0.0522017479, -0.0325346515, -0.0381850414, 0.0210606158, -0.0914507061, -0.0523452945, -0.0301593170, -0.0294947326, -0.0779640004, -0.0840132982, 0.0393354446, 0.0487319976, -0.0690075606, -0.0441037975, 0.0193214566, -0.0619569644, 0.0453387201, -0.0773905963, 0.0722678751, 0.0550004095, -0.0034827292, 0.0439124852, 0.0650867075, -0.0082289651, -0.0598573349, 0.0799102932, -0.0729952306, -0.0560299717, -0.0353486389, 0.0812937021, 0.0324632674, -0.0248385295, -0.0925737545, 0.0749589205, 0.0931407660, -0.0306352153, 0.0937002003, 0.0081828609, -0.0342243388, -0.0105092525, 0.0226210728, 0.0775188953, -0.0723272935, 0.0743417144, 0.0889471620, 0.0135718882, 0.0450162739, 0.0708124489, -0.0421188958, 0.0157819539, -0.0252947584, -0.0787447020, 0.0262325034, 0.0261439979, 0.0606757849, 0.0698059052, 0.0054881722, -0.0768631995, 0.0420016795, -0.0076511949, -0.0425189324, 0.0099291131, -0.0269277021, 0.0899110436, 0.0803094059, 0.0956473947, -0.0247581750, -0.0020470917, 0.0455626100, 0.0621854812, -0.0837615803, 0.0134923607, -0.0849141777, -0.0647592545, -0.0615433082, 0.0233969986, 0.0396974385, 0.0196044967, -0.0945535302, -0.0333888084, -0.0657750964, 0.0274175853, -0.0417646170, 0.0242248252, -0.0444934666, -0.0368133448, 0.0699713528, 0.0444915444, 0.0875122547, 0.0160233974, 0.0848128200, 0.0011876896, -0.0067246407, 0.0334752798, -0.0808243379, -0.0321277156, -0.0863672718, 0.0139131546, -0.0636028871, -0.0415725261, 0.0212307945, -0.0483247340, 0.0613967925, -0.0272522494, 0.0309196860, 0.0254717022, 0.0060905516, -0.0926654264, -0.0921861827, 0.0286220312, -0.0629940704, 0.0362211913, -0.0736763254, 0.0927835703, -0.0241878405, 0.0186269730, 0.0702411532, 0.0793990642, -0.0143585280, -0.0456244126, -0.0939986631, 0.0448262990, -0.0898196027, -0.0112596229, -0.0519938283, -0.0543974154, -0.0440127514, -0.0051636249, -0.0778394565, 0.0512781143, -0.0605237931, -0.0246047303, -0.0754577965, 0.0505302548, 0.0812500864, 0.0596506298, 0.0918295234, 0.0369801372, -0.0687496588, 0.0494602472, -0.0239617452, -0.0700255111, -0.0926848128, 0.0047961399, -0.0547707193, 0.0602507740, -0.0452851355, 0.0008202717, 0.0836722106, 0.0489353240, 0.0224249735, -0.0141180754, -0.0410050564, 0.0220560730, 0.0597591996, -0.0320668593, -0.0242347494, -0.0510292985, -0.0723465979, -0.0154127628, -0.0789679587, -0.0799783319, 0.0008685440, 0.0761824548, -0.0516295023, 0.0861078203, -0.0467488952, -0.0710200220, 0.0684046298, 0.0364593416, 0.0385373831, 0.0331524163, 0.0346221179, 0.0608054101, 0.0390592664, -0.0212709382, 0.0062850416, -0.0603115745, 0.0135058686, 0.0660718232, 0.0550743788, -0.0335725173, -0.0018763542, -0.0820066258, -0.0728438422, -0.0554152913, -0.0472686514, 0.0907890648, -0.0260327086, -0.0397571623, 0.0771200806, 0.0367056727, 0.0251460671, -0.0953158811, -0.0484933890, 0.0807933807, 0.0462007225, 0.0847855955, -0.0250767171, 0.0170469359, 0.0052393228, -0.0247728527, 0.0185144991, -0.0085586160, -0.0426791646, -0.0829709023, -0.0653961152, 0.0018157810, 0.0004682764, -0.0196518674, -0.0325137377, 0.0186815858, -0.0210604519, 0.0127547532, 0.0373743027, -0.0548838116, -0.0299191698, 0.0303407013, 0.0880926996, 0.0925466269, -0.0512296967, -0.0548576564, 0.0713545084, -0.0403786972, -0.0951519981, 0.0888747126, 0.0807878226, -0.0145092010, 0.0158889294, 0.0919362754, -0.0222314522, 0.0900723338, 0.0520544201, 0.0549349636, 0.0764318109, -0.0479364023, 0.0575437844, 0.0055779517, 0.0431748927, -0.0398954637, -0.0594980195, 0.0748828948, 0.0305636525, 0.0741692036, 0.0722106248, -0.0005798861, 0.0238818079, -0.0906055272, -0.0149147734, -0.0179841742, 0.0636651963, -0.0893201604, -0.0679254904, 0.0768517256, -0.0380636640, -0.0593782812, 0.0513014197, -0.0404001437, -0.0894113481, 0.0644037873, -0.0689472184, -0.0107549652, -0.0252303034, 0.0089405999, 0.0489434451, 0.0223022327, -0.0833503231, -0.0133921281, -0.0475341268, -0.0229221284, 0.0851820111, -0.0052309185, 0.0836752355, -0.0065834597, 0.0276830345, 0.0256159827, 0.0355236232, -0.0644744784, 0.0137972683, 0.0654418468, 0.0915465951, 0.0926083624, 0.0521356165, -0.0050528869, -0.0680923462, 0.0431715101, 0.0805725604, -0.0295909494, 0.0282653123, 0.0307727009, -0.0572360121, -0.0035202205, 0.0858796537, -0.0422469489, -0.0618553907, -0.0656264499, -0.0026077703, -0.0446974225, -0.0050901473, -0.0456839278, 0.0008351132, 0.0199276581, -0.0106292740, 0.0031475201, -0.0812196210, -0.0843493193, -0.0916186199, -0.0061662644, 0.0750905722, 0.0065787733, 0.0178328753, 0.0693380237, 0.0495243371, 0.0262044147, 0.0343227237, 0.0719285905, -0.0624192394, 0.0712885708, 0.0111137033, 0.0564949661, -0.0921790302, 0.0209347308, 0.0643442273, 0.0674130321, -0.0222892538, -0.0871282145, -0.0733351111, 0.0597003847, -0.0085956380, 0.0728605688, 0.0787580609, -0.0673165619, 0.0478774458, -0.0482061692, 0.0471330285, 0.0446268320, -0.0331231728, 0.0665726215, 0.0927891582, -0.0665027052, 0.0944808573, 0.0873130858, 0.0841274709, -0.0884209424, 0.0680250823, -0.0458484069, -0.0216680244, -0.0399258435, 0.0793805420, -0.0119247660, -0.0555012822, 0.0498008132, -0.0799959898, -0.0744370595, -0.0126499981, -0.0413985811, -0.0029931292, -0.0391737409, 0.0103257522, -0.0682553202, 0.0067486987, 0.0702178925, -0.0396628827, -0.0134396851, -0.0531240813, 0.0429331958, 0.0129548311, -0.0870863423, 0.0655249208, -0.0385245755, -0.0932058170, -0.0459426604, 0.0222887695, 0.0217824727, -0.0460225344, 0.0648013055, 0.0173602402, -0.0307232812, -0.0819749981, 0.0332930535, 0.0214191675, -0.0169329867, -0.0916350335, -0.0130968988, 0.0548533350, 0.0578868836, -0.0904973969, -0.0374731086, 0.0235596076, -0.0831895396, -0.0183236152, -0.0089889169, -0.0640856624, -0.0381640121, 0.0184942335, -0.0622560270, 0.0179463848, -0.0437092073, -0.0194345191, 0.0290856212, 0.0473821163, 0.0956739187, -0.0660483986, 0.0609256923, 0.0757539719, 0.0877657682, 0.0019511282, 0.0431982428, -0.0246597379, 0.0768918246, 0.0514766425, 0.0283932388, -0.0579976477, 0.0495999604, -0.0086806193, 0.0033765659, 0.0580675900, -0.0779812187, 0.0583713055, 0.0601716340, -0.0216773674, -0.0706339777, -0.0939155817, -0.0958760753, -0.0839310437, -0.0871168151, 0.0835033059, 0.0630650520, -0.0355602577, -0.0202734917, -0.0074938014, 0.0395211875, 0.0030117333, 0.0311705023, -0.0073598921, 0.0695910156, 0.0961978137, -0.0589329749, -0.0419943333, -0.0845830292, 0.0186575577, 0.0350752175, 0.0184175447, -0.0124672577, -0.0962848216, -0.0111139864, 0.0625016242, 0.0195146054, 0.0715749115, -0.0688851252, 0.0157609954, -0.0567965023, 0.0033193156, -0.0493274890, 0.0455286652, 0.0508700311, 0.0486201942, 0.0201914981, -0.0251069590, -0.0952108651, 0.0834233165, -0.0281532258, 0.0014152378, -0.0238722935, -0.0181463212, 0.0848267078, -0.0306549743, 0.0324863046, 0.0092545524, 0.0529486388, -0.0896765217, 0.0676775575, 0.0672754049, -0.0194281489, 0.0161916912, 0.0712227970, -0.0937722921, -0.0566529594, -0.0291076005, -0.0078469589, 0.0411005616, 0.0908340663, -0.0294357762, 0.0050438866, -0.0275710300, -0.0494423807, -0.0628686249, 0.0233031660, 0.0579766482, -0.0250346363, -0.0967877433, 0.0641552806, 0.0672762543, 0.0603715032, 0.0901412219, 0.0744244605, 0.0608928204, -0.0785839409, 0.0012194738, 0.0889917761, 0.0521892160, -0.0962593332, -0.0278003067, 0.0963383764, 0.0901958346, -0.0265068486, 0.0261130631, -0.0561340600, -0.0278147832, -0.0288242325, 0.0245459974, 0.0792049617, -0.0778479055, 0.0278850272, -0.0838263333, -0.0688441470, 0.0531662405, 0.0845788419, -0.0221328810, 0.0238188282, 0.0598022044, -0.0168602020, 0.0720932782, -0.0020866990, 0.0815059394, -0.0426391363, -0.0363973789, 0.0886762291, 0.0870998949, -0.0426832512, -0.0181840658, 0.0153161287, 0.0156413242, 0.0163238719, 0.0172633529, 0.0565699488, -0.0895336047, -0.0657389238, -0.0828832239, 0.0092862919, 0.0353149176, 0.0472166240, 0.0273644179, 0.0823363960, 0.0827723444, 0.0716767609, -0.0088629425, -0.0712040141, 0.0369076282, -0.0116568431, -0.0869902149, 0.0311845839, -0.0613057651, -0.0402418524, 0.0676763803, -0.0853001773, 0.0149950907, -0.0718925148, 0.0655948073, 0.0779817104, -0.0766154304, -0.0857222602, 0.0730614811, -0.0503813550, 0.0898559541, -0.0277041569, 0.0017421395, -0.0782034323, 0.0489104837, 0.0584456325, -0.0798415989, 0.0727331638, -0.0399094075, 0.0674324185, -0.0749895424, -0.0573802441, 0.0051995963, -0.0410545729, -0.0948853269, -0.0154598281, 0.0548368096, -0.0006358698, 0.0243097991, 0.0385072082, -0.0889898390, -0.0483062863, -0.0094477683, -0.0040878057, -0.0711732358, -0.0423858277, -0.0175924227, -0.0857347697, 0.0344341844, -0.0688595176, 0.0658974946, 0.0370509773, 0.0624793917, 0.0811367035, 0.0918515027, 0.0520094335, -0.0735389218, 0.0326942056, 0.0098630413, -0.0347386003, 0.0291439593, -0.0655332804, -0.0222630799, 0.0734647214, 0.0187835097, -0.0341583863, -0.0639594346, 0.0070822239, -0.0207204819, 0.0035026297, -0.0479416624, -0.0214617848, -0.0057176128, -0.0380565524, -0.0857745036, 0.0613872856, 0.0443809479, -0.0155812576, -0.0518592671, 0.0677677989, 0.0707284659, 0.0708792955, 0.0119043812, 0.0844852626, -0.0609799922, -0.0231371373, -0.0900824443, 0.0488836914, -0.0508316457, 0.0959932059, 0.0113380179, 0.0358520448, -0.0562306233, 0.0420065969, 0.0608048439, 0.0632958561, -0.0363682956, -0.0088371113, -0.0687548369, -0.0318604112, -0.0615099519, -0.0518755428, -0.0506615825, -0.0822239518, -0.0607480854, -0.0766802728, 0.0556661040, 0.0585832447, -0.0753803477, 0.0748608559, -0.0804723874, -0.0067010745, -0.0504710637, -0.0780226141, 0.0262198523, 0.0265070274, 0.0115459487, -0.0682663843, 0.0225877389, 0.0806699097, 0.0439529419, -0.0817802101, -0.0662852451, 0.0890693218, -0.0025367662, 0.0333659500, 0.0933646411, 0.0364811271, -0.0504958108, -0.0521757118, 0.0563573092, -0.0494399369, 0.0631535202, 0.0337199420, -0.0500985682, 0.0559412092, 0.0382243395, 0.0344663411, 0.0549842715, -0.0363630764, 0.0892807841, 0.0818318278, -0.0719187856, 0.0294402689, 0.0518375635, -0.0705285296, 0.0649425834, -0.0589065664, 0.0233238488, 0.0046326518, -0.0102780387, 0.0603797883, 0.0480375141, -0.0374306999, 0.0104383603, 0.0239949450, -0.0817332342, 0.0677958280, -0.0036055893, -0.0640860274, -0.0710537285, -0.0587645248, 0.0092178211, 0.0587121397, 0.0341605842, 0.0314096808, -0.0115786120, 0.0238331184, 0.0501956642, -0.0651372671, 0.0893509537, 0.0816708356, -0.0335529000, 0.0763009936, -0.0864890218, -0.0340195820, 0.0311287194, 0.0308839530, -0.0945709571, 0.0261039212, -0.0950872973, 0.0822971910, 0.0491013229, 0.0917516202, 0.0883781165, 0.0923905522, 0.0077397749, 0.0396899134, 0.0109171122, -0.0536619350, 0.0064059794, 0.0724790990, -0.0765980035, -0.0173595473, 0.0021514520, 0.0037395507, 0.0062844157, 0.0056440458, -0.0143959224, -0.0747448057, -0.0596336909, -0.0251147375, -0.0600407198, -0.0615655407, 0.0374371707, 0.0223467574, 0.0761283487, -0.0204427764, 0.0434245318, -0.0360673144, -0.0886983052, -0.0780471489, 0.0751582086, -0.0884594917, 0.0358866304, -0.0404653363, -0.0670627877, -0.0125369504, 0.0813037455, 0.0723030269, 0.0382075757, -0.0489273146, -0.0159755424, 0.0032445416, 0.0644398034, 0.0594106913, 0.0211098790, 0.0030677840, -0.0539995953, 0.0253034830, 0.0202130303, -0.0834220275, 0.0470369756, 0.0321184546, 0.0309901834, 0.0406579524, -0.0251896530, -0.0758720338, -0.0049256682, -0.0333087742, 0.0570034981, -0.0209660828, -0.0724902749, -0.0270160288, 0.0833082348, 0.0614475012, -0.0557432584, 0.0052632838, 0.0308752507, 0.0257026628, -0.0768485218, -0.0480901673, -0.0509881638, -0.0063720495, 0.0250577182, 0.0483677387, -0.0570893064, -0.0241214931, -0.0267133415, -0.0937094316, -0.0280773044, -0.0266613737, 0.0659280717, 0.0793585330, 0.0717540085, 0.0943241417, -0.0035351366, -0.0660505891, -0.0261141062, 0.0654456317, -0.0498922579, -0.0732462108, -0.0848072246, 0.0191000476, 0.0961836129, -0.0937685072, -0.0311135277, -0.0237460658, -0.0421076305, 0.0417369604, 0.0135135800, -0.0178387836, -0.0246191323, 0.0381340235, -0.0685923174, 0.0239367262, 0.0442140996, 0.0722127408, 0.0649676770, 0.0808873177, -0.0591187850, 0.0880554169, 0.0082314983, -0.0684539005, 0.0434286594, -0.0151086226, -0.0635977611, 0.0739707947, -0.0842303410, 0.0498639792, 0.0062212348, 0.0292819291, -0.0869036466, 0.0153860301, -0.0229681134, 0.0080425516, 0.0762894899, -0.0550199412, 0.0457326323, -0.0896404386, -0.0893408209, -0.0029556379, 0.0058882833, 0.0124352872, -0.0659407750, -0.0501101539, 0.0203716755, -0.0041550100, 0.0733077973, -0.0735936761, -0.0033904612, 0.0646271855, -0.0562358424, 0.0664301217, -0.0601874255, 0.0732425600, 0.0804978311, -0.0680845454, 0.0534154326, 0.0773780644, 0.0314011425, -0.0270338506, -0.0929523483, 0.0602408946, -0.0836889744, -0.0878652483, -0.0258944035, 0.0217069387, 0.0408144742, 0.0133313909, -0.0073773637, 0.0540664196, 0.0362339467, 0.0491937101, 0.0152313635, 0.0952550918, 0.0722443908, -0.0111916661, -0.0832128748, -0.0919717252, 0.0035876036, 0.0465389192, -0.0752882212, 0.0426046997, 0.0805114657, 0.0546065122, 0.0431579649, 0.0526429415, 0.0850744098, -0.0143929943, 0.0447327644, -0.0386785269, 0.0797514319, 0.0739177912, 0.0748918056, -0.0734873265, -0.0614377894, -0.0775156915, -0.0217835605, 0.0624143928, -0.0164811909, 0.0528422445, 0.0654425174, 0.0369648039, -0.0460230187, 0.0527422428, -0.0775736123, -0.0575799979, 0.0184809566, 0.0456077904, 0.0961517394, -0.0486994199, 0.0114479959, 0.0889072865, -0.0284840763, 0.0743101835, -0.0899092406, -0.0368595608, 0.0809829384, 0.0737874508, -0.0809059441, 0.0864911973, -0.0650531203, -0.0210420787, -0.0326906592, 0.0490431041, 0.0156608075, -0.0099882036, -0.0934637412, -0.0203717873, 0.0705244839, 0.0158581138, 0.0424112827, -0.0067022294, 0.0355658382, -0.0927799046, -0.0219715387, -0.0451349244, 0.0666591227, -0.0808264166, -0.0118923113, -0.0936574936, -0.0745698214, 0.0563814193, 0.0657075942, 0.0850197226, 0.0501590520, -0.0718353838, 0.0059622899, -0.0381004140, -0.0259265378, 0.0688816309, 0.0885085315, -0.0875457749, -0.0214325562, 0.0808195323, 0.0931437165, 0.0624071360, -0.0278202295, -0.0766312927, -0.0470286831, 0.0197509900, 0.0942315906, 0.0111922622, 0.0620687455, -0.0512206256, -0.0424394757, -0.0270631686, -0.0947577134, -0.0573297814, -0.0617940091, -0.0054961368, -0.0924975723, -0.0771842152, 0.0846424997, 0.0032467395, 0.0757066309, 0.0391785651, -0.0848487094, 0.0288892239, -0.0634054244, 0.0734950900, -0.0304304287, 0.0255523846, -0.0904783979, -0.0434194952, -0.0813700631, 0.0777041316, 0.0087144151, 0.0965687335, 0.0931209624, -0.0130610913, 0.0354369134, 0.0386127383, 0.0660225451, 0.0397414714, 0.0945611894, 0.0299015939, -0.0917140767, 0.0048030391, -0.0688718483, 0.0906894207, -0.0911798030, 0.0547940284, -0.0679027960, 0.0916674435, 0.0612921715, 0.0802876651, -0.0948545784, 0.0943673998, -0.0941915140, 0.0143201575, 0.0634650290, 0.0670335591, -0.0605294481, -0.0613268875, -0.0787480921, 0.0451282114, -0.0562754087, 0.0494840741, -0.0611004978, -0.0712900460, -0.0934972838, 0.0370021164, -0.0871552229, -0.0391757488, -0.0268213749, 0.0100096986, 0.0350552350, 0.0773665905, 0.0341183543, -0.0363822617, -0.0493178628, 0.0706096739, -0.0723346844, 0.0917259604, -0.0212576911, -0.0031560138, 0.0144796297, 0.0034508482, 0.0054973438, 0.0584981292, -0.0903360546, -0.0562071912, -0.0024206042, 0.0736290216, -0.0176898465, -0.0680049509, -0.0081505403, 0.0564109683, 0.0431408882, -0.0142451599, -0.0744502842, 0.0636585504, -0.0176522359, -0.0045019910, -0.0882181227, -0.0097366497, -0.0498775318, -0.0034727827, 0.0690264702, 0.0263206437, 0.0945542455, -0.0901629627, 0.0137598217, -0.0926281884, -0.0953851566, -0.0453227870, -0.0491308756, 0.0787556916, 0.0115274563, -0.0373107530, -0.0815731436, 0.0438999981, -0.0956837162, -0.0720671043, 0.0954568833, -0.0965824276, -0.0553652197, -0.0376208723, -0.0461278707, 0.0930686444, 0.0910472572, 0.0857347101, 0.0825226456, 0.0697189718, 0.0017242059, 0.0394446403, 0.0401753634, -0.0896839797, -0.0228109285, -0.0660288408, 0.0449335575, -0.0317661837, -0.0833010823, -0.0196454450, 0.0700732768, -0.0916598067, 0.0351522565, 0.0086313784, -0.0433428772, 0.0079895481, -0.0768271163, 0.0724502951, 0.0848768204, -0.0403119363, -0.0108656138, 0.0540132076, 0.0308686644, 0.0697430670, -0.0503019914, -0.0596020631, 0.0242832750, -0.0906836689, -0.0840006694, -0.0177758560, 0.0909875035, 0.0964166075, -0.0316808820, 0.0963926911, 0.0185644999, 0.0921356082, 0.0509470552, -0.0868141055, -0.0421084166, -0.0484909415, 0.0390437543, -0.0632573292, -0.0534944311, -0.0892118737, 0.0235276148, -0.0088187531, 0.0184661150, 0.0038942397, 0.0304929614, -0.0036422014, 0.0800296217, 0.0300846398, -0.0434039570, 0.0143997297, 0.0011053234, -0.0147699416, 0.0951697379, 0.0083462819, 0.0747260153, -0.0388710760, -0.0685937032, -0.0577542409, -0.0746525973, 0.0461415052, 0.0163056776, 0.0117598027, 0.0769360811, -0.0624293499, 0.0516914129, -0.0616080388, 0.0312899649, -0.0800908655, 0.0675614625, -0.0532269478, 0.0375707150, 0.0654533207, -0.0573888347, 0.0440517813, 0.0501819551, -0.0816863254, 0.0657590032, -0.0857035667, -0.0572815128, -0.0273853615, 0.0366975069, 0.0351612866, 0.0922657400, -0.0963720754, -0.0081339926, -0.0589174367, 0.0124817789, 0.0453484803, 0.0577965379, 0.0494707972, 0.0136257708, -0.0271525234, 0.0023377463, 0.0401000232, -0.0086231083, -0.0181053728, 0.0313456655, 0.0782766789, -0.0305084288, 0.0665688813, 0.0302743912, 0.0708252639, -0.0864669979, -0.0707889721, 0.0526977777, -0.0735730380, 0.0834566057, -0.0132112131, -0.0160575435, 0.0332716256, 0.0427977294, -0.0498450957, -0.0610231161, 0.0224535465, -0.0446719602, -0.0601876788, -0.0231793597, 0.0887118131, -0.0258556902, 0.0882308334, -0.0089026019, -0.0926428214, 0.0526089668, -0.0296737775, 0.0955268741, -0.0341136977, 0.0715359747, 0.0196148157, -0.0809594542, -0.0395925231, -0.0942751989, -0.0775557011, 0.0734056532, 0.0546428114, -0.0892228112, 0.0508711189, -0.0923433453, -0.0226204544, 0.0382856727, 0.0875342786, -0.0877900124, -0.0713598132, 0.0610307604, 0.0513205826, 0.0638271123, -0.0498698428, -0.0777774453, 0.0671894699, 0.0693969876, -0.0876925960, -0.0209573135, 0.0523896217, 0.0265766531, -0.0583600551, 0.0069887787, -0.0479137786, 0.0281015858, -0.0481006950, -0.0301593393, -0.0118611008, -0.0893476307, 0.0845673829, 0.0104879215, 0.0261258334, 0.0202740729, -0.0198699906, -0.0564220883, 0.0304668546, -0.0769751593, -0.0299830884, 0.0009148493, 0.0432546288, -0.0857791901, -0.0173069388, -0.0820829421, -0.0531798527, -0.0182211623, 0.0314424336, -0.0514330044, 0.0297189504, -0.0448337123, -0.0925977603, -0.0962378606, 0.0949404240, 0.0199675262, -0.0279295594, 0.0588078797, -0.0604588762, -0.0933862478, 0.0941521525, -0.0815590173, 0.0703839958, -0.0831279904, 0.0157032385, 0.0638753027, 0.0425145477, -0.0467895716, 0.0431694090, 0.0441451371, 0.0352143794, 0.0083560869, 0.0525849611, 0.0018265620, -0.0485390499, -0.0347149149, -0.0887366012, 0.0490185022, -0.0616806410, 0.0556390136, -0.0115256086, 0.0224383175, -0.0619352870, 0.0139440820, 0.0752597302, 0.0403131098, 0.0167468339, -0.0670483857, -0.0124013498, 0.0460565090, 0.0963885337, 0.0811443627, -0.0381681435, -0.0111150667, -0.0456678830, -0.0916590244, 0.0751335323, -0.0018524379, -0.0736230016, 0.0896462053, -0.0154210031, -0.0029563755, 0.0501455665, 0.0723457187, 0.0262542069, 0.0359265655, -0.0780006349, -0.0270362496, 0.0864932984, -0.0715316087, 0.0279411748, -0.0026968569, -0.0162469298, -0.0279743001, -0.0434935279, -0.0003945157, -0.0143796727, 0.0780029595, 0.0511780530, -0.0293079987, -0.0212522447, -0.0209678113, 0.0137296990, -0.0262078717, 0.0447250009, -0.0012228042, 0.0343081355, 0.0960928649, -0.0000416711, 0.0753781050, -0.0835561678, 0.0582848191, -0.0011067539, -0.0906230658, 0.0793662667, 0.0714164674, 0.0183312520, 0.0308359116, 0.0792634338, 0.0080345199, 0.0852790624, -0.0200706720, -0.0899660960, -0.0212118626, 0.0460754186, -0.0858935714, 0.0944230705, -0.0366743989, 0.0441689193, 0.0584571511, 0.0317839980, 0.0661247820, 0.0260921493, 0.0672108978, 0.0686644614, 0.0025505200, 0.0072890893, 0.0559410304, 0.0434395373, -0.0548535474, -0.0617012531, 0.0730428249, -0.0714716315, -0.0189067349, -0.0931444094, -0.0302222446, 0.0005737692, -0.0489082448, -0.0136129782, 0.0222604722, 0.0557690263, 0.0187228844, 0.0491717756, -0.0189909711, -0.0378098004, -0.0930138901, 0.0180369690, -0.0775929764, 0.0201455802, 0.0884993821, -0.0953514799, 0.0632406473, -0.0118636861, -0.0226199254, -0.0760743245, 0.0933291614, 0.0006879494, -0.0632483065, -0.0546823032, -0.0550225973, -0.0671468154, 0.0504893214, -0.0664960071, -0.0935337842, -0.0432914905, -0.0331950113, -0.0357900187, -0.0317609385, -0.0585090928, 0.0438716859, -0.0511344746, -0.0044519454, -0.0878403112, -0.0498664975, -0.0762193650, -0.0514934175, -0.0233094171, -0.0041650012, 0.0634730756, -0.0763918757, 0.0320755690, 0.0477670282, 0.0889377445, -0.0947244465, -0.0134038553, 0.0361226201, -0.0728326663, 0.0680572540, 0.0833600461, -0.0165020153, 0.0486969799, 0.0756086111, 0.0611068904, 0.0043876320, -0.0556790829, -0.0786613226, 0.0004798397, -0.0488426164, 0.0205228105, -0.0750399828, -0.0294321030, 0.0812128633, 0.0137557611, -0.0307548121, 0.0806526989, 0.0047835335, 0.0114165321, -0.0892030969, 0.0259598047, 0.0838792920, 0.0828977674, 0.0179463401, 0.0420233458, -0.0397574157, 0.0871329904, -0.0073604882, -0.0836314932, 0.0046378225, 0.0740341544, -0.0748464167, -0.0646103472, 0.0886680931, -0.0360338874, 0.0927606970, -0.0937788710, 0.0793258399, -0.0050903335, -0.0626203567, 0.0326794833, -0.0467835478, -0.0234142691, 0.0952714831, -0.0026080981, -0.0727069005, 0.0132695735, -0.0171741098, 0.0160957724, -0.0707615912, -0.0785320252, 0.0440774560, -0.0499076098, -0.0293882862, 0.0406304300, 0.0553946495, 0.0142928958, 0.0736573488, 0.0518030077, 0.0596235842, 0.0877452195, 0.0663637966, -0.0460435636, -0.0355324857, 0.0180499181, -0.0381967947, 0.0856849849, 0.0022620559, -0.0069662258, 0.0441800952, 0.0826681852, 0.0562679023, -0.0415655337, -0.0704896301, -0.0844556019, 0.0097696185, 0.0850423723, 0.0719562769, 0.0106531158, -0.0015483648, -0.0194044411, 0.0801159889, 0.0865660161, -0.0946117043, 0.0955523401, 0.0633186698, 0.0338995904, 0.0188517720, 0.0614222735, -0.0071039051, -0.0265428796, -0.0039454177, 0.0753801018, 0.0238846242, -0.0285957381, -0.0593421981, 0.0405814499, -0.0895611197, 0.0103684813, -0.0520030633, -0.0391185470, -0.0434163325, 0.0695600361, -0.0633032247, -0.0652543753, 0.0148819759, -0.0258448422, 0.0168302357, 0.0591731966, 0.0128699243, -0.0140309259, -0.0013422221, 0.0825390369, 0.0469377786, -0.0042728335, 0.0176237524, -0.0608734824, 0.0608448833, 0.0695713162, -0.0031958818, 0.0544286221, -0.0327443331, 0.0836280733, -0.0887221768, -0.0676996037, -0.0792609677, 0.0543190241, -0.0908769742, 0.0464455336, 0.0349553376, -0.0596558526, 0.0752897710, 0.0726870894, 0.0273113251, 0.0221172944, 0.0517338514, 0.0896525681, 0.0808712244, -0.0088890716, 0.0914309472, -0.0218634084, -0.0845595971, -0.0524165556, 0.0932602286, 0.0370141566, -0.0729551539, 0.0455181599, -0.0848971158, -0.0055387542, -0.0258007050, -0.0289145634, 0.0311521292, -0.0607181676, 0.0096529722, -0.0266198218, 0.0560078621, -0.0075395331, -0.0221747309, 0.0892800242, 0.0552552938, 0.0233472064, -0.0262566507, 0.0256711319, -0.0695062429, 0.0841924846, 0.0675786585, -0.0891313776, 0.0672485977, -0.0813585892, -0.0242973566, -0.0921949819, -0.0475293472, 0.0264349803, -0.0381354354, -0.0424393602, -0.0079512522, 0.0869812369, 0.0474536270, -0.0934080854, -0.0050546229, -0.0395965837, -0.0205602720, 0.0275528878, -0.0105810910, 0.0438041985, 0.0450169444, -0.0750457570, 0.0095762387, 0.0068500638, 0.0263265520, 0.0655061305, 0.0640210956, 0.0894314498, 0.0791097134, -0.0434371307, -0.0295185074, -0.0040812492, -0.0955837071, 0.0420862138, -0.0068292841, -0.0380320363, 0.0505813658, 0.0158504024, 0.0779829770, 0.0744432956, -0.0158424154, -0.0722618476, 0.0480810255, -0.0249880999, -0.0485849194, -0.0878986493, 0.0638069808, 0.0361348540, -0.0835474208, 0.0390900373, -0.0323552117, -0.0352518000, 0.0336572677, 0.0142236203, -0.0048074946, 0.0202145576, -0.0849375427, -0.0101054981, 0.0047739074, -0.0874879211, 0.0331012905, -0.0735878199, -0.0227466822, -0.0811908320, 0.0794537216, -0.0756468177, 0.0582255572, 0.0901634097, -0.0555563420, 0.0764159858, 0.0170962885, 0.0661590695, 0.0934828818, -0.0790797547, -0.0901658982, -0.0144539326, -0.0667183399, -0.0655625090, 0.0926172286, -0.0115425065, -0.0303881094, -0.0807803646, -0.0953409076, 0.0900715292, -0.0649913847, 0.0441013277, -0.0511512570, 0.0007394031, -0.0276682600, 0.0247236863, 0.0501241386, 0.0209420249, -0.0954684913, 0.0185146183, 0.0520291179, -0.0377453007, 0.0948130190, 0.0345376283, -0.0521864928, 0.0872275531, -0.0630510896, -0.0032185987, -0.0480971411, -0.0178293884, -0.0008098632, 0.0496675670, -0.0677314624, -0.0257125422, -0.0539671853, -0.0932976902, -0.0669749230, -0.0938068777, 0.0702233016, -0.0799725354, -0.0542782061, 0.0630172938, -0.0740373433, -0.0108404979, 0.0647656620, 0.0087141097, -0.0235084072, -0.0262999162, 0.0491400361, 0.0356704593, -0.0379145369, 0.0593798012, -0.0129332021, 0.0743605494, -0.0569897890, -0.0342094749, -0.0030745268, 0.0965737998, -0.0592678189, -0.0939404443, 0.0621732473, -0.0087064281, -0.0454655886, -0.0176343024, -0.0360896364, -0.0087042302, -0.0079815388, 0.0669955015, 0.0808957666, 0.0041948259, 0.0780141354, -0.0464278571, -0.0376759544, 0.0738167316, 0.0745545179, -0.0623281002, -0.0952719525, 0.0377517939, 0.0003086179, 0.0492370129, 0.0888789147, 0.0568744987, -0.0313608125, 0.0198575258, 0.0250437558, 0.0351095796, -0.0679212660, 0.0719734579, -0.0756864548, -0.0911896825, 0.0276748911, -0.0489431731, 0.0385867804, -0.0356628932, 0.0008372366, -0.0146603584, 0.0686192364, 0.0944971591, -0.0423862897, 0.0146537572, 0.0873093009, -0.0329279453, 0.0161797553, 0.0086213350, -0.0803218558, -0.0016540512, 0.0378271788, -0.0859826803, 0.0920565873, -0.0423878580, 0.0541684180, -0.0634497702, 0.0136565194, 0.0777958184, -0.0886357203, 0.0341576934, 0.0828139037, 0.0477793813, 0.0616288632, 0.0330597609, -0.0134068057, 0.0922715217, 0.0211786032, 0.0496558994, -0.0665294826, -0.0212387145, -0.0653691962, -0.0282277241, 0.0454296470, 0.0215261206, 0.0819704980, -0.0215703472, 0.0136780068, -0.0035512000, 0.0798268914, 0.0367059559, 0.0709540248, 0.0832247436, -0.0387191102, -0.0083934665, -0.0558224171, 0.0324310660, -0.0380122997, 0.0331530422, -0.0568602607, -0.0275065526, -0.0450011715, 0.0779596120, 0.0035548508, 0.0062883198, 0.0928908288, 0.0463824719, 0.0843544602, -0.0828226954, -0.0216051415, 0.0320145041, 0.0147666633, 0.0511346608, -0.0257832780, 0.0700313300, -0.0933644772, 0.0032254308, 0.0048042685, 0.0233710334, 0.0173906907, 0.0948879570, 0.0661704987, -0.0659710392, -0.0479989834, 0.0325581580, -0.0560980029, -0.0427921638, -0.0359453820, 0.0422617495, 0.0119592100, -0.0284549221, -0.0306522474, -0.0474840775, -0.0892849788, -0.0033839047, 0.0243388861, 0.0714889914, 0.0529715121, -0.0669552386, -0.0892490596, -0.0510720052, 0.0459391773, -0.0662794560, -0.0464381278, 0.0267630666, 0.0413446575, -0.0386241153, 0.0916344076, -0.0929207429, 0.0086315125, -0.0518092401, -0.0824826583, -0.0722953007, -0.0808055475, -0.0320183858, -0.0033635646, -0.0110417753, -0.0653483495, 0.0796881318, 0.0387766659, -0.0813739002, 0.0443972200, 0.0701959878, -0.0619200990, 0.0328065902, 0.0150804594, 0.0391176194, -0.0715300888, -0.0622335449, -0.0483749881, -0.0112557262, 0.0844333470, -0.0588937290, 0.0351866335, 0.0753408670, 0.0840445310, 0.0701102018, 0.0156487375, 0.0496627241, -0.0880387723, 0.0467403531, -0.0741787180, 0.0762693733, -0.0893295109, 0.0643420815, 0.0642847419, 0.0916436166, 0.0454769880, -0.0245189220, -0.0663449466, -0.0302896798, 0.0677364469, 0.0709149837, -0.0584024154, -0.0427056439, -0.0772130489, -0.0948556140, 0.0251956061, -0.0400151350, 0.0641891062, -0.0455429703, -0.0942864642, 0.0144545808, -0.0517593771, -0.0150495023, -0.0960415751, 0.0914274752, -0.0076623037, -0.0954043865, 0.0505735427, -0.0611745752, 0.0899237394, -0.0750106275, 0.0721221417, 0.0739013553, 0.0493116826, 0.0855409801, 0.0691018850, -0.0042356402, -0.0055771694, 0.0078705028, -0.0242667869, 0.0127155781, 0.0292507708, -0.0713258311, -0.0698984042, 0.0239406228, 0.0527140945, 0.0216413587, -0.0481483191, -0.0618887246, 0.0230537802, -0.0477030613, 0.0305187553, -0.0125863999, -0.0527333021, 0.0199467018, 0.0047293529, -0.0170587078, 0.0940452218, 0.0237286165, -0.0693199933, 0.0625901371, 0.0602768511, 0.0274427980, 0.0345369279, -0.0951054618, -0.0702892095, 0.0564458817, -0.0940365940, -0.0323864222, -0.0552640632, 0.0900112092, -0.0475964770, 0.0491547436, -0.0367542729, -0.0032852218, -0.0018129423, 0.0128963143, 0.0762560666, 0.0434210449, 0.0203389153, 0.0159263536, 0.0171386227, 0.0332914889, -0.0503826030, 0.0592756718, -0.0893667266, -0.0880660340, 0.0425948650, 0.0219287872, -0.0317524895, -0.0680560097, 0.0281518400, 0.0678500235, 0.0858269930, 0.0243113935, -0.0696972236, 0.0065619200, -0.0325052887, 0.0509034693, -0.0812299848, 0.0309151858, 0.0768966675, 0.0388202965, -0.0663188323, 0.0824201703, 0.0417576879, -0.0715202019, -0.0254998878, 0.0053246394, 0.0152642578, 0.0409225523, 0.0019374862, -0.0047267005, -0.0194758922, -0.0316678435, -0.0034022331, 0.0271339864, -0.0904309601, -0.0389048047, -0.0138586909, -0.0012833774, -0.0792227685, -0.0852890089, -0.0074727759, 0.0265576318, 0.0565252304, -0.0552466363, 0.0139029473, -0.0275516659, 0.0740752220, -0.0920775011, 0.0151417255, 0.0906092674, 0.0002377927, 0.0007721633, -0.0422000177, 0.0127401203, 0.0392926931, 0.0022931248, -0.0381703600, -0.0413087606, -0.0816017911, -0.0423650257, 0.0355086625, -0.0254684687, -0.0231160372, 0.0544162542, 0.0800018013, -0.0744575113, -0.0212672427, 0.0310247838, 0.0319409966, -0.0556413382, 0.0361248851, -0.0873923078, 0.0520042330, 0.0939137787, -0.0320935026, 0.0567848831, 0.0088144615, 0.0701079667, 0.0197691619, 0.0515687466, -0.0426635593, -0.0615376532, -0.0057922974, -0.0052636042, 0.0522682071, 0.0908859074, -0.0299956053, -0.0316332802, -0.0248324350, 0.0380838364, 0.0948426723, 0.0860033631, -0.0100868270, 0.0869474858, -0.0179367810, 0.0556711704, -0.0759069175, -0.0421473160, -0.0546053387, -0.0530322492, 0.0594268739, 0.0609611571, -0.0419717096, -0.0377078131, 0.0542414784, 0.0729973316, 0.0607276559, 0.0176763386, 0.0595118552, -0.0538515747, -0.0360061638, -0.0722880289, -0.0757814944, 0.0837275982, -0.0822949335, 0.0270044133, 0.0380721092, -0.0144910067, 0.0368560553, -0.0862744525, 0.0627056062, -0.0862993822, -0.0560680367, -0.0277961046, -0.0663186982, 0.0658065379, 0.0067867190, -0.0927288160, -0.0108796060, -0.0261221379, 0.0528348982, -0.0749738961, 0.0372649282, 0.0369299501, 0.0782904923, -0.0369850285, 0.0627891421, -0.0224963948, -0.0450497419, -0.0153203532, -0.0660080910, -0.0573475808, 0.0176792741, 0.0100276396, -0.0507375523, 0.0731823742, -0.0223560631, -0.0211045668, -0.0569004044, 0.0791017264, 0.0158362091, -0.0554928817, 0.0942978114, -0.0729297847, 0.0207662806, 0.0254732966, -0.0834060237, 0.0120580122, 0.0306138545, -0.0573561676, 0.0092679858, -0.0078954995, 0.0133641288, 0.0277036503, -0.0921389982, -0.0407196842, 0.0571013540, -0.0831312686, 0.0406360477, 0.0417818874, 0.0362276882, -0.0344801880, 0.0311696976, -0.0472893119, -0.0523778200, -0.0046117157, -0.0637185648, -0.0898883268, -0.0303381532, 0.0845577568, 0.0032173023, 0.0953412801, 0.0656210333, -0.0352152772, 0.0036210120, 0.0695338100, 0.0029707104, 0.0214335024, 0.0754083544, 0.0275292024, -0.0580553152, -0.0254893601, -0.0683233067, -0.0081465244, -0.0770092309, 0.0860648900, 0.0169843733, -0.0043792501, 0.0158262327, -0.0430478305, -0.0109412372, 0.0028946921, 0.0202636570, 0.0257352144, 0.0630104840, -0.0755816475, -0.0506852195, 0.0389705896, 0.0810329616, 0.0403918773, -0.0946187451, -0.0581847057, -0.0374097638, -0.0343514904, -0.0219663233, -0.0483410992, -0.0606599934, 0.0386259854, -0.0719329864, -0.0394532271, 0.0195171461, 0.0440398306, -0.0949913785, 0.0616381019, -0.0201655924, 0.0005847141, -0.0946071744, -0.0559745207, -0.0887182504, -0.0393960252, 0.0145204887, 0.0904707760, 0.0684991926, -0.0966370031, -0.0210554004, -0.0639533848, 0.0916192979, 0.0397931039, 0.0637175739, 0.0203936696, 0.0915095061, -0.0744737387, 0.0910468102, 0.0660056621, 0.0911407024, 0.0647739321, 0.0514648557, -0.0176126510, 0.0048779100, 0.0891967714, -0.0215797648, -0.0213674083, -0.0877339169, 0.0216733515, -0.0693713799, 0.0381599069, -0.0280099437, 0.0860108733, -0.0420703031, -0.0123043060, -0.0872866958, -0.0515847877, 0.0015309826, -0.0129437745, 0.0733426809, 0.0825519115, 0.0514744371, -0.0890635550, -0.0478276499, -0.0929555967, 0.0799132138, -0.0693562850, 0.0139283389, -0.0790772587, -0.0632817596, 0.0107460544, 0.0193859041, 0.0379053652, 0.0955512971, -0.0906143188, -0.0207739919, 0.0838198662, 0.0651729256, -0.0843594745, -0.0347251669, -0.0129320472, -0.0754783675, -0.0334672034, 0.0405350924, 0.0400604308, 0.0461114496, -0.0124493018, -0.0765130073, 0.0709673464, 0.0024553239, 0.0644349307, 0.0056812540, -0.0120788589, -0.0010474250, 0.0214657784, 0.0802587122, 0.0382615030, -0.0192999840, 0.0404055715, -0.0579510853, -0.0600559786, 0.0952490717, 0.0576699525, -0.0155053064, 0.0062423795, 0.0462863445, 0.0329179317, 0.0168779790, -0.0745134652, -0.0771386027, -0.0597935989, 0.0047606602, 0.0731633604, 0.0398190469, -0.0955984369, 0.0100495219, 0.0399630815, 0.0580257028, 0.0201079026, 0.0937693119, 0.0266445205, 0.0840531439, 0.0892331600, 0.0703828633, 0.0409219265, 0.0518568158, 0.0221084803, -0.0365599655, -0.0127993077, 0.0545112044, 0.0304048508, -0.0277968198, 0.0203220621, -0.0579247922, -0.0080637932, -0.0937303007, 0.0863791555, 0.0905086994, 0.0317625105, -0.0361331291, -0.0536747687, 0.0005492792, -0.0795495510, 0.0098138973, -0.0094381869, -0.0213190019, -0.0842903554, 0.0558343977, -0.0627387762, 0.0693849474, -0.0227464288, -0.0850889310, 0.0803945214, 0.0519692153, -0.0773415640, -0.0036923438, -0.0651065558, 0.0201708153, -0.0127306581, -0.0300723836, 0.0280844122, 0.0298423022, 0.0497877598, 0.0833531916, 0.0887819231, 0.0731319338, -0.0182041526, 0.0264725611, -0.0207845196, 0.0273808837, 0.0917664170, -0.0627349690, -0.0632467121, 0.0787137747, -0.0541534312, -0.0564346015, -0.0671077371, -0.0330162719, -0.0246247873, 0.0844753534, -0.0570141673, 0.0281967968, -0.0437843949, 0.0140673593, -0.0235449076, -0.0802866220, -0.0613766611, 0.0931127369, 0.0894204676, 0.0627540797, -0.0174465775, 0.0363174677, -0.0776584446, -0.0576319844, 0.0133845359, -0.0800548345, 0.0649360567, 0.0633717626, -0.0495492183, 0.0608457625, -0.0777096972, 0.0338269323, 0.0565422177, 0.0242398009, -0.0176666230, 0.0904310495, -0.0784319714, -0.0029934719, 0.0746028125, 0.0457551181, 0.0296299160, 0.0207028463, 0.0457952619, -0.0558157191, -0.0281908587, -0.0093201995, 0.0610907823, 0.0434935689, -0.0902148113, 0.0855512470, 0.0870664418, 0.0243386105, 0.0629811436, 0.0926874727, -0.0706136227, 0.0463990867, -0.0830595046, 0.0569229573, -0.0221959949, 0.0380976945, 0.0575408489, 0.0515272319, 0.0104009435, 0.0593516827, -0.0136104599, 0.0413736999, 0.0641082376, 0.0103377998, 0.0072786808, -0.0442003123, 0.0955908149, -0.0092046633, -0.0000668764, 0.0919642746, -0.0744342208, -0.0578208417, -0.0417891294, -0.0021639243, -0.0345800295, 0.0451011062, -0.0402243994, -0.0513386130, -0.0515940897, 0.0531519502, 0.0719321072, -0.0546971932, 0.0704975277, 0.0073254257, -0.0017670020, 0.0835825950, -0.0178072974, 0.0490761399, 0.0243282616, -0.0269761607, -0.0914196745, -0.0778758600, -0.0671946034, 0.0357154161, 0.0024299696, 0.0052177608, -0.0244436860, -0.0877481848, -0.0771967545, 0.0412789136, 0.0168853179, -0.0792442113, 0.0921231806, -0.0884836838, -0.0563182756, 0.0466234535, -0.0500782281, -0.0691939294, -0.0399511680, 0.0344253927, -0.0528345294, -0.0283991247, -0.0086434484, -0.0106435120, -0.0723316371, -0.0116252899, 0.0574842244, -0.0963841528, 0.0062191561, -0.0207921416, -0.0014241487, 0.0288237929, -0.0770585388, -0.0238214880, -0.0005499274, -0.0908108428, -0.0205061436, -0.0664657950, -0.0899594054, 0.0681254417, 0.0847540647, 0.0831322223, -0.0437613316, -0.0800557584, -0.0741750672, -0.0813995004, -0.0052130297, -0.0591744408, -0.0556839742, -0.0824451223, -0.0177419260, -0.0462779664, 0.0513329357, 0.0176478326, -0.0958839729, -0.0795111358, 0.0632210821, -0.0367168263, 0.0336117595, -0.0574076921, 0.0148151442, 0.0230102167, -0.0633411705, 0.0315964222, -0.0656714216, -0.0399318449, -0.0104816929, -0.0076651201, 0.0895434618, 0.0035267547, -0.0314815193, 0.0693372339, -0.0287714377, 0.0325510353, -0.0559311695, 0.0391660035, -0.0640424192, -0.0522709377, 0.0113886893, -0.0280857757, -0.0617975630, -0.0391063094, 0.0251070037, -0.0885843784, -0.0890368894, -0.0864976123, 0.0712361485, 0.0634504855, 0.0496221632, 0.0830912590, 0.0909322351, -0.0054988861, -0.0796791017, 0.0617865920, -0.0331105664, 0.0904171765, -0.0666272193, 0.0733495653, 0.0096663162, 0.0607963949, -0.0847357810, -0.0269774050, 0.0126190633, 0.0200706720, 0.0285538882, 0.0868865252, -0.0645541698, 0.0651064217, 0.0819150805, 0.0945226848, 0.0217277408, -0.0766879618, 0.0739576817, 0.0699705184, 0.0606445670, -0.0921352133, -0.0338860080, 0.0583880991, -0.0671803802, -0.0502934717, 0.0641173273, 0.0699893832, -0.0877683833, 0.0178275183, -0.0066395327, -0.0178246796, -0.0934965461, -0.0851208568, -0.0550381318, 0.0002031699, -0.0158218965, 0.0567042530, 0.0527241379, -0.0271283314, 0.0152748302, -0.0237601697, 0.0658330768, 0.0616721511, -0.0103557408, 0.0508347601, -0.0611639805, 0.0429569036, 0.0444761366, -0.0067282245, 0.0890231580, 0.0841588676, 0.0255948827, 0.0308112800, 0.0678420812, 0.0232041255, 0.0544466376, 0.0260347351, 0.0739430934, 0.0128822103, -0.0390141793, 0.0833408535, 0.0500859916, -0.0589399226, 0.0704623163, 0.0632735640, -0.0070516840, 0.0300028771, -0.0075041428, -0.0046016723, -0.0222194046, -0.0011096597, 0.0472795516, 0.0545104891, 0.0255360380, -0.0024314076, 0.0175383836, 0.0512546301, 0.0420914888, 0.0065567493, 0.0397880077, 0.0659810603, 0.0576868355, -0.0279414505, 0.0305707306, -0.0873107910, -0.0591624379, 0.0540477782, 0.0066138133, 0.0371527821, -0.0097853392, -0.0231268853, 0.0822968036, -0.0883470476, -0.0223722905, 0.0699954033, 0.0126799867, 0.0685936809, 0.0634870231, 0.0824208558, -0.0547091514, 0.0506870896, 0.0675744861, 0.0542372763, -0.0278921872, -0.0355456695, 0.0531706959, -0.0493786670, -0.0200727731, 0.0880399942, -0.0577721782, -0.0704975501, 0.0263700932, -0.0568217561, -0.0689636618, -0.0514163151, 0.0578166842, 0.0938233286, -0.0026663616, -0.0761856139, 0.0477327406, 0.0132408291, 0.0209631994, -0.0336543992, 0.0877594054, 0.0228173435, -0.0470777377, 0.0313933790, -0.0826845318, -0.0680585727, -0.0739787370, 0.0030195788, 0.0845510364, -0.0201181769, -0.0535703562, 0.0966513753, -0.0962398276, 0.0304823369, 0.0279612765, -0.0884944201, 0.0551091135, 0.0773371309, -0.0654497594, 0.0903762728, 0.0067314729, -0.0467880480, -0.0758089870, -0.0745150372, -0.0697915927, -0.0858112723, 0.0768842995, -0.0360116586, -0.0338037834, 0.0736645907, -0.0535734743, -0.0462654307, -0.0580548272, 0.0254831761, -0.0501021929, -0.0421294458, -0.0320563316, 0.0476276129, -0.0353973694, 0.0003613234, 0.0495231599, 0.0207121521, 0.0335988849, -0.0756935403, -0.0917346030, -0.0680799261, -0.0496600270, -0.0729838014, 0.0554189682, 0.0556274354, -0.0456103310, 0.0624315590, -0.0614671521, -0.0947203189, 0.0953237563, -0.0562010519, 0.0849374980, 0.0893865824, 0.0079808906, -0.0716893002, 0.0198180079, -0.0381230153, 0.0567356199, -0.0097408965, -0.0442679524, 0.0394226164, 0.0762118101, -0.0807421803, -0.0134775415, -0.0762233138, -0.0305806845, -0.0004433170, 0.0818074495, -0.0008039474, -0.0475897118, -0.0771821365, -0.0499134287, 0.0780301094, -0.0806818381, -0.0692117736, -0.0209461823, 0.0669745505, -0.0423674062, 0.0906202048, 0.0965146273, 0.0354623944, -0.0034583285, -0.0414276943, 0.0597545356, 0.0897316188, -0.0272552073, 0.0426535606, 0.0090982169, 0.0638529658, -0.0482399873, 0.0420090407, 0.0558600426, -0.0624301583, 0.0560344905, 0.0484579951, 0.0133254156, 0.0570942909, 0.0148053765, -0.0013085380, 0.0856393576, -0.0943485126, -0.0900277346, -0.0649823621, 0.0862548202, 0.0204078704, -0.0002889559, 0.0718855411, 0.0731395036, 0.0429660827, 0.0046060383, 0.0271430388, 0.0060251728, 0.0482679904, 0.0134548917, 0.0550031811, 0.0915661454, -0.0144315213, 0.0432482511, 0.0777602941, -0.0293512344, 0.0076826811, 0.0862354189, 0.0906390399, -0.0322861895, 0.0968022645, 0.0886294842, -0.0169086084, -0.0671247244, -0.0681672767, 0.0749231726, 0.0560792536, 0.0223376378, -0.0449007973, -0.0225749761, -0.0028955042, 0.0898533016, -0.0950635895, -0.0151310340, -0.0258338526, -0.0870665833, -0.0617642067, 0.0221555009, 0.0108791664, 0.0901466459, -0.0781280175, 0.0454476923, 0.0130995512, -0.0482316092, -0.0452553555, -0.0660179928, 0.0579904914, -0.0089113936, -0.0662888214, -0.0727677792, 0.0652053654, -0.0856337994, -0.0056030899, 0.0072429851, -0.0592840016, -0.0737675726, 0.0656223148, -0.0839486793, -0.0368965194, 0.0003751069, 0.0690356642, 0.0304132253, 0.0515037179, -0.0567601435, 0.0889135748, -0.0410799682, -0.0739914998, 0.0501314104, -0.0107916072, 0.0153035223, -0.0486116298, 0.0038211048, 0.0297547579, -0.0000508800, 0.0921906680, -0.0030410290, -0.0454847030, 0.0463989526, 0.0545861274, 0.0808188766, -0.0023226961, 0.0902360231, -0.0140999332, 0.0611067712, -0.0283858329, -0.0392630100, 0.0783955902, 0.0872521996, -0.0062668696, 0.0093811452, 0.0092907697, 0.0089175552, -0.0065770596, -0.0299414694, -0.0582746901, 0.0765426904, 0.0739391446, 0.0425718725, -0.0559625179, -0.0124780610, 0.0077921301, 0.0545265526, 0.0353582203, -0.0631921589, 0.0911472142, -0.0869847238, 0.0927551985, -0.0586167127, 0.0255210102, 0.0828500092, -0.0818047076, -0.0056512728, 0.0447676927, 0.0582698584, 0.0504634231, 0.0016796738, 0.0319890827, 0.0301802754, -0.0515841432, -0.0642703846, -0.0615333356, -0.0132320151, 0.0112466961, -0.0503317714, 0.0309355259, 0.0505867153, -0.0210763142, 0.0325964540, -0.0032091290, 0.0125362128, -0.0324367508, -0.0060601011, 0.0553389341, 0.0799784660, -0.0820868015, 0.0955244750, 0.0332337469, 0.0677636415, -0.0189723447, -0.0471018404, 0.0730334967, -0.0167253166, -0.0073829517, 0.0596860498, -0.0098015890, 0.0549175888, -0.0031787306, 0.0394478440, 0.0143247321, -0.0668920502, -0.0358246714, -0.0318343490, -0.0301322639, -0.0604824945, -0.0723409131, -0.0724599212, 0.0872687399, 0.0361669660, 0.0537256002, 0.0607670993, 0.0693698823, 0.0078776777, 0.0609887242, -0.0099597201, 0.0751189590, 0.0434120893, 0.0625662804, 0.0964742005, -0.0471238382, -0.0655565709, -0.0888677016, -0.0041195974, -0.0909328163, -0.0514345989, -0.0749709383, -0.0578272603, 0.0017516240, 0.0653870404, 0.0365995616, -0.0957111120, -0.0914664716, 0.0110433400, 0.0070669204, 0.0848130286, 0.0965817571, -0.0103564337, -0.0481215157, 0.0518203974, 0.0510803461, 0.0226963311, 0.0796559900, -0.0147081017, 0.0679427981, 0.0471899062, -0.0601401478, 0.0792754889, -0.0813364983, 0.0318430513, 0.0043155402, -0.0115617812, -0.0311932415, -0.0581062846, -0.0131119713, -0.0200352594, -0.0561366007, -0.0291341245, -0.0015086159, -0.0619816892, -0.0857902467, 0.0146635249, 0.0496431291, -0.0948150307, 0.0549543351, 0.0254181474, 0.0018586218, 0.0328633785, 0.0859482586, 0.0441322625, -0.0349488333, -0.0633188337, -0.0090945736, -0.0740358457, 0.0035747439, -0.0627450570, -0.0443038270, -0.0766645074, 0.0450170934, 0.0422863960, 0.0125293583, 0.0172200203, -0.0621074773, -0.0535081439, -0.0888385251, -0.0178248435, -0.0234955475, -0.0447360203, -0.0906403586, 0.0281559303, 0.0918642730, -0.0203257352, 0.0803029984, 0.0878431797, 0.0246284381, 0.0781751573, -0.0743784681, 0.0206705704, 0.0221029818, -0.0115376785, 0.0646967888, 0.0477124602, -0.0083260536, -0.0839238167, -0.0522042699, 0.0484199524, 0.0335909426, -0.0817914307, 0.0208931565, 0.0427922159, -0.0725407377, -0.0565778650, -0.0934881866, 0.0765375644, -0.0539844967, -0.0519884489, 0.0492417067, 0.0114714280, 0.0876609236, 0.0225241631, -0.0857129097, 0.0717646480, -0.0471469685, -0.0418080129, -0.0617510490, -0.0585445724, 0.0653183460, -0.0417042933, 0.0521395355, 0.0417700410, -0.0347802229, -0.0243979096, -0.0799714923, 0.0631959885, 0.0589033067, 0.0596873909, 0.0677113980, -0.0336891189, 0.0566146374, -0.0729502365, -0.0189593434, 0.0486147404, -0.0234147087, 0.0071928501, -0.0882551223, -0.0869735256, -0.0494830571, -0.0623091012, 0.0300574154, 0.0027323365, -0.0369461998, -0.0496362485, 0.0678713769, 0.0362467915, -0.0295260772, 0.0730274767, 0.0869018883, 0.0636155158, -0.0022820011, 0.0397343487, -0.0393167958, 0.0513876230, 0.0602314919, 0.0738461167, 0.0279020444, -0.0196128488, 0.0416889638, -0.0025667474, -0.0498819612, 0.0303428173, -0.0806934237, -0.0611553453, -0.0907979831, -0.0530446917, -0.0810583234, -0.0282263830, 0.0679490566, -0.0776382014, -0.0763651207, 0.0042242408, 0.0074395314, 0.0595095605, 0.0906406194, -0.0201094523, 0.0603680909, 0.0534706712, 0.0388612598, 0.0851067305, -0.0598531105, 0.0572583526, 0.0487601161, 0.0605114400, -0.0188322440, -0.0833096728, -0.0228619203, -0.0786450431, 0.0135537013, 0.0329297483, 0.0866790563, -0.0889166668, -0.0251499414, 0.0040632188, -0.0935996622, 0.0464331657, 0.0095917284, 0.0907205790, -0.0047809258, 0.0058215857, -0.0540436879, 0.0630168319, -0.0619934164, 0.0053544492, -0.0911411569, -0.0424187221, -0.0270883739, 0.0359545052, 0.0584059060, 0.0665229559, -0.0962440297, -0.0810487494, -0.0397201814, -0.0037214532, -0.0676917285, 0.0750899613, 0.0598027557, 0.0332613885, 0.0286490023, 0.0828542262, -0.0003433898, 0.0810682327, -0.0520112328, -0.0829059407, 0.0338961929, -0.0857119411, -0.0957932249, 0.0732201040, -0.0896354988, -0.0708791390, 0.0356276482, -0.0761207715, 0.0860957950, 0.0592145622, -0.0881819874, -0.0569978915, 0.0084191561, 0.0589164495, -0.0884855539, -0.0234762058, -0.0651606694, -0.0835496634, 0.0397314876, -0.0552801304, -0.0727478564, -0.0706872791, 0.0536575019, 0.0342095941, -0.0890401453, -0.0731341317, 0.0348792970, -0.0279824957, 0.0018378049, -0.0433274545, -0.0087558925, 0.0775875151, -0.0804311186, -0.0266210437, 0.0766760707, -0.0900262147, 0.0809923559, 0.0361872464, 