//Numpy array shape [512, 50]
//Min -0.284006357193
//Max 0.273759275675
//Number of zeros 0

#ifndef W13_H_
#define W13_H_

#ifndef __SYNTHESIS__
dense_5_weight_t w13[25600];
#else
dense_5_weight_t w13[25600] = {0.1439818293, -0.0217315648, 0.0259384830, 0.0115578175, -0.0369234122, 0.0208424162, -0.0881626904, 0.0503201596, -0.1191114783, -0.0875496045, -0.0861240625, 0.0644056648, -0.1091634929, -0.0487407148, 0.0475915223, -0.0367484540, -0.1389674693, -0.1286657304, 0.0784913450, 0.0042840294, -0.1265875101, -0.0563290454, 0.0918104202, 0.0132588083, 0.0049191802, 0.0524984822, 0.0740343109, -0.0055378908, -0.0244307593, -0.0344520137, 0.0621735305, 0.0593837984, 0.0024132447, 0.0963931829, -0.0241845492, 0.0488201678, 0.0715317279, 0.0120641356, 0.0463742241, -0.0318102129, -0.0226219110, -0.0996102095, 0.0679031760, -0.0787472874, -0.0976250097, 0.1036136225, -0.0199942887, -0.0177022871, -0.0491932184, -0.0860105455, -0.0665826574, 0.1225886568, 0.0853690654, 0.0589687712, 0.0671612024, 0.1073469669, 0.0903129727, 0.0152661605, -0.0078679640, -0.0606636815, 0.0900608897, -0.0882264599, -0.0957169607, 0.0800777450, 0.0997801647, 0.0576718301, -0.1677099615, 0.1185128465, -0.0008100392, 0.0567045733, 0.0540156625, 0.0336880013, 0.0555187650, 0.0346673727, 0.0496094488, -0.0069277612, -0.0149861323, 0.0743322447, -0.0812452435, 0.1218863800, -0.0541116707, 0.0409807637, 0.0905973986, -0.0314615406, -0.0396957956, 0.1147872210, -0.0124090659, 0.0274214819, -0.0541859046, -0.0915422961, -0.1245241016, 0.0697363019, -0.0311233718, -0.1197489947, -0.0213448014, -0.0131183658, 0.0220232885, 0.0266772937, -0.0891134664, 0.0095804259, 0.0823420733, -0.0484088883, -0.0802588239, 0.0521986447, -0.0641747564, -0.0518663637, -0.0862395465, -0.0189519934, -0.0108980807, -0.1043544859, 0.1257653981, -0.0618356541, 0.0631447285, -0.0552864596, 0.1345124543, -0.0843638331, 0.0337977260, 0.0120424908, -0.0861831382, 0.1043220609, -0.0231543798, 0.0663450584, 0.1147234216, -0.1065690964, -0.0511588752, 0.0769567266, -0.0883518532, 0.0111195901, 0.0248703808, -0.0206441041, -0.0349212289, -0.0585360005, -0.0123063177, -0.0222951639, -0.0743078068, -0.0794623345, -0.0415811203, -0.0176490508, 0.0085182032, -0.0161446966, 0.0597524643, -0.0456620492, -0.0401991084, 0.0225961264, -0.0158778541, -0.1082815528, 0.1609437019, -0.0063423887, 0.0735171661, 0.1062489524, 0.0020727932, -0.1319637597, 0.0620105192, 0.0875785947, 0.0041205226, 0.0493708216, 0.0242362693, 0.0689196065, 0.1011594161, -0.0236032233, -0.1105578020, 0.1412198842, -0.0980579928, -0.0209411737, 0.0165788569, -0.0321119465, -0.0705939755, 0.0515058786, -0.0970104784, 0.0182515867, -0.0188340433, -0.0011499928, -0.1117365658, 0.0876022130, 0.0718471184, 0.0688137710, 0.0569777153, -0.0770098493, -0.0620514564, -0.1473513246, 0.0997817367, 0.1203851923, -0.0069929487, -0.0876642242, 0.0425053164, 0.0896853879, 0.0840211511, 0.0286301356, 0.0835281387, -0.0731387511, -0.0736774430, 0.0476616621, -0.0870058537, -0.0540637188, -0.0805264488, 0.1062454879, 0.0345730148, 0.0692695007, -0.0802662373, 0.0390074477, 0.1020337567, 0.0532812402, 0.0525207669, -0.0709572956, 0.0188150872, -0.0798844323, -0.0202710591, -0.0181743577, -0.0162796918, -0.0591175109, 0.1051290333, 0.0675794557, 0.0240299292, 0.0105002047, 0.0465724319, 0.0761089176, 0.0079660751, -0.0667430535, 0.0618439913, 0.0138485106, 0.0206791796, 0.1066659242, -0.0943989679, 0.0734710693, -0.0453741178, 0.0548906922, -0.0332809612, -0.0225838982, 0.0397213697, -0.0494372137, 0.0014251226, -0.0963733122, -0.0170463715, -0.0478386916, 0.0709533766, -0.0544642620, 0.0374317877, 0.0812754035, -0.0107341809, -0.0525187068, 0.0522099622, -0.0033407705, -0.0453622490, -0.0026785780, -0.1166800559, 0.0606043451, -0.0007075914, 0.0909325629, 0.0038384967, 0.0745064542, 0.0474730693, -0.0319604501, -0.0281112846, -0.0199761093, -0.0298198890, 0.1751133054, 0.0017211018, 0.0326365456, -0.0404911488, 0.0021035441, -0.0702932030, -0.0582819097, 0.1012418941, -0.0749517530, -0.0256064758, -0.0070134681, 0.1651117504, -0.0612888858, 0.0491385683, -0.0268904176, 0.0787615180, -0.0219996925, 0.0652589351, -0.1098727360, -0.0489257462, -0.0470332615, -0.0524528287, -0.0558805838, -0.0234559719, -0.0082114320, 0.1024756655, 0.0594598316, 0.0409621000, 0.1570964456, -0.0148956003, -0.0766639337, -0.0969889387, 0.0230358634, -0.0525256544, 0.1202881783, 0.0315916017, -0.0199700706, 0.1339101642, 0.0095468452, 0.0981079787, -0.0322431177, -0.0064732246, -0.0289549306, 0.1812262535, -0.0596086234, -0.0792482868, 0.0164220836, -0.0080395807, -0.1303376108, 0.0521851480, 0.1302573383, 0.0927053988, -0.0335532352, -0.0790125728, 0.0447741225, -0.0196718443, -0.0693034604, -0.0005331759, 0.1040849015, 0.1010351330, 0.0617706440, -0.0496186577, 0.0478810407, 0.1012850702, 0.0902572423, -0.0269329194, -0.0207705889, 0.1305728853, 0.0882070661, 0.0674290285, 0.0540740862, 0.0854402781, -0.0176923890, -0.0745402947, 0.0913862213, -0.0113019655, -0.0417745933, 0.1041735858, -0.0162562951, -0.0853131190, 0.0844482780, 0.0486887582, -0.0275280476, 0.1066403836, -0.1641790420, -0.0683403984, -0.0210479293, 0.0849815309, 0.0731829330, -0.1014862880, 0.0939515755, 0.1057893112, -0.0929539278, 0.0283221472, -0.0762208924, -0.0240645949, 0.0592497922, -0.0493102372, 0.0636152327, 0.0477767028, -0.0094974265, 0.0027763380, -0.0019265767, 0.0053717671, 0.0360877104, 0.0987164378, 0.0774257109, 0.0442089550, 0.1334956735, 0.0631138459, 0.0371821038, -0.1268701255, -0.0806647912, -0.0151607282, -0.1215389222, -0.0385320932, 0.0081306705, -0.0262104552, -0.0528303050, 0.0850991607, 0.0758552551, 0.0382456407, -0.0137150707, 0.0157545898, -0.0854518339, -0.1021254659, -0.0712089837, -0.0154213663, -0.0511516519, 0.0942006782, -0.0284295846, 0.0161351636, 0.0071041235, 0.0414126739, 0.0587422773, -0.0046192035, -0.0369195826, 0.0539066456, 0.0057424023, -0.0149210636, 0.0749779269, 0.0532549210, -0.0147942891, 0.0871917084, -0.0714220107, 0.0510744005, -0.0654676408, -0.0790427327, -0.0380394161, -0.0655008703, -0.0685955212, 0.0823592097, 0.0666821077, 0.0344845913, 0.1317844987, 0.1079320982, 0.0046964046, -0.1075685322, -0.0758966953, -0.0207828768, 0.0128365457, 0.0495089255, -0.1302350163, -0.0173756741, 0.0219752509, -0.0620544329, 0.0410439931, 0.0794061720, -0.1219839677, -0.0033362634, -0.0310013779, 0.0042822035, -0.1350057274, 0.0191259291, 0.0210197996, -0.0785636827, 0.0267049931, -0.0656777099, -0.0312419794, -0.0475021563, 0.0294954553, 0.1066062972, -0.0727792755, 0.1247243062, 0.0126670077, -0.0237929914, -0.0511886850, -0.0787088722, -0.0759976283, 0.1192847490, 0.1126141548, -0.0562232733, 0.0994266719, 0.0960009024, 0.0270928126, 0.0484003574, 0.1383222342, -0.0884761214, -0.0033398955, -0.0323911645, 0.1197740138, -0.0135216443, -0.0560928397, -0.0761968344, 0.0227338392, 0.0319786258, -0.0795254335, 0.1401537210, 0.0307777841, -0.0625146255, -0.0572797433, 0.1210197508, -0.0546051376, -0.0502455086, 0.1001873240, -0.0093427561, 0.0297439434, -0.0531164519, 0.0358312577, -0.0257984139, 0.0407243446, -0.0672658086, -0.0108080190, -0.0229502637, -0.0962831676, -0.0106587661, -0.0754215121, -0.0123462547, 0.0244915523, 0.0178643540, -0.0570914745, -0.0522324108, -0.0209214985, 0.0042856243, -0.0291892178, 0.1055872887, 0.0904595107, 0.1374108791, 0.2391008139, -0.0273617133, 0.0977580249, 0.0069250548, -0.0802525133, 0.1606826633, -0.0163821634, -0.0210685283, 0.0528552122, -0.0392549932, 0.0158478748, 0.0825052336, -0.1448590159, -0.0397001356, -0.0267211385, -0.1218147129, 0.0240329932, 0.0825966969, 0.0116957622, -0.0384957939, 0.0388902314, 0.0424687155, -0.0376653597, -0.0089614391, 0.0883198306, -0.0901623368, -0.1535762250, -0.0998191610, -0.0542307310, -0.1039809287, -0.0313368402, -0.0732349977, 0.0322479829, 0.0624066517, 0.0510152504, 0.0911569595, -0.0497199222, 0.0389344394, -0.0252024997, 0.0526485033, 0.0488894172, -0.1137935594, -0.0768997222, 0.0469872057, -0.0863567963, -0.0160846058, -0.1158588380, 0.0580929480, -0.0751352683, 0.0988331288, 0.0377230868, 0.0624327958, 0.0334653333, 0.0417747833, -0.0921609625, 0.0468200818, -0.1478642523, -0.0416367054, 0.0032556832, 0.0409412682, 0.0509881899, -0.0058342773, -0.0135072907, -0.1138117090, -0.0308537781, -0.0165016297, -0.1632765979, 0.0451700352, -0.0191549193, -0.1255926341, -0.0254076105, 0.0328497589, -0.0054786992, -0.0433098897, -0.0290825777, 0.0416933410, -0.0824936181, 0.0879199207, -0.1487418115, -0.0556980148, 0.1104695871, -0.0785693750, 0.0677523091, 0.0744230226, -0.0066312868, -0.1626246572, 0.0142059298, 0.1090511158, 0.1018070430, 0.0521485433, 0.0845460743, -0.0532883704, 0.0563169345, 0.0298035517, -0.0218308512, -0.0614218377, 0.1099209487, -0.0887353122, 0.0480517037, -0.0612274818, -0.1067817882, 0.0742769390, -0.0075407028, -0.0704230666, 0.0988576114, 0.0033456162, -0.0320234634, -0.0436506383, -0.0514942072, 0.0477515534, -0.0636281669, 0.0158450454, 0.0692523494, 0.0863488764, 0.1083603129, 0.0602769703, -0.0122209396, -0.0839520767, 0.0597284883, 0.0034306445, -0.0894189477, 0.1261018664, 0.0389834903, -0.0225798078, 0.0361941718, 0.0023365286, 0.1122677028, -0.1153038591, 0.0950864479, 0.1004195213, -0.0321854539, 0.0231947731, -0.0623186156, 0.0132430894, -0.1542287320, -0.0910922959, 0.0234601703, -0.0722645521, -0.0213173144, 0.0859052092, 0.0325096995, -0.0233431458, 0.0897047222, -0.1167276874, 0.0892380029, 0.0490064956, 0.0749905929, -0.0540424511, -0.0383486822, -0.0380824432, -0.0048862053, -0.1002091318, -0.0001855267, 0.0458225682, -0.0126887346, 0.0586208068, -0.0142777842, -0.0205182787, -0.1159760579, -0.0807465613, 0.0732901394, 0.1004475653, 0.0612171702, -0.0681191385, -0.0940454081, 0.0164996758, -0.0426778272, -0.1036605239, 0.0314823613, 0.0115374234, -0.0832703114, 0.0796523169, 0.0279513597, 0.1266715974, -0.0061791842, -0.0212936904, 0.0911742821, -0.0521408468, 0.0205825754, -0.0144521603, -0.0695781335, -0.0136678154, -0.0920845866, -0.0359780788, 0.0015078958, -0.1326929331, 0.0349255763, -0.0438758954, -0.1111984700, 0.0976880714, 0.0704799369, -0.1083559021, -0.0635084882, -0.0795129761, 0.0082318299, 0.0233107321, 0.0922698304, -0.0520370044, -0.0758292750, -0.0667868853, -0.0927907526, 0.0833110511, -0.0600957498, 0.0118038282, -0.0027523518, -0.0656351075, 0.1008246168, -0.1393212825, 0.0305791013, 0.0280729719, -0.0427167267, 0.0718078092, -0.0547306389, -0.0287952442, 0.0544259287, -0.1244835556, -0.0959004313, 0.0565613583, -0.0437403284, 0.0552229881, -0.0347044319, 0.0800470337, -0.1287961453, 0.0906932652, -0.0713798553, 0.0324270576, -0.0550202429, 0.0384744853, -0.0807048976, -0.0031479881, 0.0403774157, -0.1201701835, -0.0603336766, 0.0401059836, 0.0521147363, 0.0720698684, 0.0696976930, -0.0052970597, 0.0451431014, -0.0606927015, -0.0213174559, -0.0477643870, -0.0102929845, 0.0497862771, -0.0071705137, -0.1483312845, 0.0105955070, 0.1126278862, -0.1395175755, 0.1122171879, 0.0640727729, 0.0183153972, -0.1072591096, 0.1160379350, -0.0079991790, 0.0123365996, -0.1123907641, -0.0050952057, -0.0120701883, 0.0194701813, 0.1056538597, -0.1017935947, -0.0792172998, -0.0611896217, 0.0564580895, 0.1129574031, -0.0471891314, 0.0460988544, 0.0927312747, -0.0125537161, -0.0777147710, -0.1236646846, -0.0538047329, 0.1004083157, -0.1325064451, -0.0454201400, -0.0938567817, 0.0549094677, 0.0416747145, -0.0478485003, 0.0103336200, -0.0530763939, 0.0954605192, 0.0987762734, -0.0921950713, -0.0463487357, -0.0835574344, 0.0407621861, 0.0860029310, -0.1081910208, -0.0310193859, 0.1220488772, -0.0970762074, 0.0848153830, -0.0143572278, -0.1322349608, 0.0610818155, 0.0570541173, -0.0927384123, -0.0393645726, 0.0086109899, 0.0767280385, -0.1272859126, -0.0926691666, 0.0811923444, 0.0186997447, 0.1074155048, 0.1540515274, 0.1552773118, 0.0311798062, -0.0724951848, -0.0790777281, 0.0793529227, 0.0406453684, -0.0126135591, 0.0245250501, 0.0250857919, -0.0300666112, -0.0547875091, -0.0107512204, 0.0034682110, 0.1117612869, 0.1142417938, 0.0291184075, 0.1415333301, -0.0558279045, -0.0719161406, 0.0321024656, 0.0642034933, 0.0109629575, -0.0835574493, 0.0139644574, 0.1465991884, -0.0314641632, 0.0887514278, -0.0367153138, -0.0199530236, -0.0762761608, -0.0093649151, 0.0869812369, 0.1236022785, 0.0276659876, -0.1110713109, -0.0382222533, -0.0692168251, -0.0400556512, -0.0373792611, -0.0982316956, 0.0564685464, -0.0686751083, 0.0242759306, 0.1366027892, 0.0804940686, -0.0302271284, -0.0382684283, -0.0156838913, -0.0304978043, 0.0531661622, -0.0452939160, -0.0178798679, 0.0315926634, -0.0514647625, -0.0776934773, 0.1320554912, 0.0534708835, 0.1415924877, 0.0931673944, 0.0019037763, 0.0405687019, 0.0068337326, -0.0596648455, -0.0934866443, 0.0266706105, -0.0121379234, -0.0847697183, -0.0726273581, -0.0051969588, 0.0715861395, 0.1045855954, -0.0978317112, -0.0062627378, -0.0279093701, -0.1006457061, 0.0205979198, -0.0104633207, -0.0637384728, 0.1016875207, -0.0858270749, -0.0213003270, -0.1462983638, -0.0580935292, 0.0175930765, 0.0461655371, -0.1253078878, 0.0571440570, -0.0507980287, 0.0861239210, 0.1372571290, 0.0958000720, -0.0696317181, -0.0933878720, 0.1028658077, -0.0771302506, -0.1257491410, -0.0170295089, -0.0516210347, 0.0581356958, 0.0544583425, 0.0803457722, -0.0001832042, -0.0951465592, 0.0079420386, 0.1053953022, 0.1403981000, 0.0133904396, 0.0175053701, 0.0005820554, -0.0458694361, -0.0542695895, -0.0134475380, 0.0033038608, 0.0079296809, -0.0559455268, -0.1253642589, 0.0854475647, 0.0961255357, 0.0857766643, -0.0783121213, 0.0702242404, -0.0150239393, 0.0391841680, 0.0051423786, -0.0615589805, 0.0592475720, 0.0981106535, -0.0948761106, 0.1025533602, 0.0475569367, 0.1002781168, 0.0890562162, -0.0713288933, -0.0257650837, -0.0553824119, 0.0293511283, -0.1156460345, 0.0199650805, -0.1032451093, -0.0746926889, -0.0671326295, -0.0716292337, -0.1323887110, -0.0202190056, 0.0983094051, -0.0669528022, -0.0330663286, -0.0888489857, -0.0948443338, -0.1018323377, -0.0238504633, -0.0037500765, -0.0900308266, -0.0724629685, -0.0336718410, 0.0449303985, 0.0855346993, 0.0067329709, -0.0092383949, -0.0854216665, -0.0139962602, -0.1137643233, -0.0785392895, -0.1073345169, -0.0035018274, -0.1143936887, 0.0038697512, 0.0295357611, 0.0601854511, -0.0162643455, -0.0777312741, 0.0610710345, -0.0110915555, -0.0871009380, 0.0368846022, 0.0194694139, -0.0045863963, -0.0906243324, 0.1418696791, 0.0993631333, 0.1314874440, 0.0239551868, 0.0855014101, 0.0038528931, 0.0405903645, 0.0136955958, -0.0462877490, 0.0078364760, -0.1069714874, -0.0858144313, -0.0475235134, 0.0831662565, -0.0398393460, -0.0106930016, 0.0176845528, 0.0206324905, -0.0189012215, -0.1061864495, -0.0964895561, -0.1080434471, 0.1114525348, -0.0399396680, -0.0455831550, -0.1341376752, 0.0660399646, -0.0082050357, -0.0075186635, -0.0785723627, 0.1171681657, 0.0396680012, 0.0012000805, -0.1114457473, 0.1226906627, -0.1024543643, 0.0173246227, -0.1148898751, -0.0891396329, 0.0026450381, 0.0706516877, 0.0147573650, -0.0715357959, -0.0129436152, 0.0261089616, 0.0664223358, 0.0730156898, 0.0261343960, 0.0322151147, -0.1361740977, 0.1443089247, 0.1328534782, -0.0222901516, 0.0263699144, 0.0597918406, -0.0280191042, 0.0100950776, -0.0736727640, -0.1093501151, 0.0872737616, -0.0058031012, -0.1042815745, -0.0617019124, -0.0818214566, -0.0525174662, 0.0238570161, 0.0405629128, 0.0106298579, 0.0289397016, -0.1144832149, -0.0321604572, -0.0557410270, 0.0296897348, -0.0490930825, -0.1357960105, 0.0001740087, 0.0627064332, -0.1593858153, 0.0661995560, 0.0781064779, -0.0211724266, -0.1128751189, -0.0753497332, -0.0924061760, -0.0458685681, 0.0220632423, -0.0123744281, 0.1793448031, 0.0460534319, -0.0446559228, 0.0100134201, -0.0106382882, 0.0504373573, 0.0993335620, 0.0294637047, 0.0586226508, 0.0757556558, -0.1249178424, -0.0783117861, -0.0488615781, -0.0467039719, -0.1069476232, -0.1311065406, 0.0511020496, 0.1015910581, -0.0141580356, -0.0803254098, -0.0285206120, 0.0423252396, -0.0843908340, -0.0084540807, -0.0904639214, -0.0144871166, 0.0144358817, 0.0416602418, 0.1081072390, 0.0062758829, 0.0679575205, 0.0475580022, 0.0381647758, 0.0031064525, 0.0418299995, 0.0654944405, -0.0723563060, 0.0762469172, 0.0578534715, 0.0485841446, 0.0914494693, 0.0224521589, -0.0144524984, -0.0274533071, 0.0292719789, -0.0637257770, 0.1000769138, -0.0179632977, 0.0462002940, -0.0692197308, 0.0565043651, 0.0801139325, -0.0962956771, 0.0720315501, -0.0619928949, -0.0258470625, 0.0253694355, -0.0738607422, 0.0014910491, -0.0744514540, -0.0538754575, 0.0425507240, 0.0567773134, -0.0533039719, -0.1230230853, -0.1110224500, -0.0657994822, -0.1192668602, 0.0269942936, 0.1410756856, -0.0625440031, 0.1435265541, 0.0420518555, -0.0466770232, 0.0687425807, -0.0344941504, -0.0258517954, 0.0548600331, -0.0621717982, -0.0188438967, 0.1122938693, 0.0242026560, 0.1023232937, 0.0547522865, -0.1437078416, 0.0372926369, 0.0863312632, 0.0658672825, -0.0465591773, 0.0587361306, -0.0484378040, 0.0204407778, -0.0435742065, -0.0645151213, 0.0025322773, 0.0438967943, 0.0229615066, -0.0057631372, -0.1618189812, 0.1169271916, 0.0627306104, -0.0239174180, 0.0579147078, -0.0027935768, -0.0463420637, -0.1086761057, 0.0708509088, 0.0445280634, 0.0419477969, 0.0393138342, 0.1025323644, -0.0918534100, 0.1262100786, -0.0018914312, 0.0608769506, 0.0643761009, 0.0494572818, 0.0169370975, 0.0624020547, 0.0284526758, 0.0553554185, 0.0876903757, -0.0726824477, 0.0546411611, 0.0125544956, -0.0443591550, 0.0212656017, 0.0304384772, -0.0786881000, -0.0736936778, -0.1387232840, -0.0207412001, -0.0787260085, -0.1605677903, -0.0334009975, 0.0039045278, 0.0803056136, -0.0091611398, 0.0874245763, 0.0023464845, -0.0876240209, 0.0883162618, 0.0594336502, 0.0545062758, -0.0688906088, 0.0821921006, -0.0850108117, -0.0645102933, 0.0873677358, 0.0383574031, 0.0650468469, 0.0124896346, 0.1080949754, -0.1948439479, 0.0584295839, -0.1168215275, 0.1194571704, 0.0429138951, 0.0166867804, -0.0077315867, 0.0769615546, 0.0341105871, 0.0743166879, 0.0987818167, 0.0887759030, 0.0985374004, 0.0628162026, 0.0804957077, -0.1121391132, 0.0408435166, 0.0509375222, 0.0764325187, -0.0573133789, 0.0514420979, -0.0588606484, 0.0582433604, -0.0061100456, -0.0593771003, 0.1304669380, -0.0145667922, 0.0407500640, 0.0218444392, -0.1023109779, -0.0446767844, -0.0998627692, 0.0450956970, -0.0061274697, -0.1141671315, 0.0839338005, 0.0151902903, 0.0910548642, 0.0108254962, -0.0126380073, 0.0104185995, -0.0390127972, -0.0228264481, -0.0613874383, 0.0095476424, 0.0533237867, 0.0344254673, -0.0756833479, -0.0787817612, 0.0281422269, -0.0712374151, 0.0689274594, -0.0094167776, -0.0464689285, 0.0996418446, -0.0272208210, -0.1183110997, 0.0080487272, -0.0936471522, -0.1346501112, 0.1053189710, -0.0600434989, -0.1155036986, 0.0247800574, -0.0637240261, -0.1264003217, 0.0382368825, -0.0904203653, 0.0605655611, 0.0435492024, 0.0602898672, -0.0922832936, -0.0133264875, -0.0491475463, -0.0780269206, -0.0027065121, 0.0216617770, 0.0600472167, 0.0658367351, -0.1427715719, 0.0487000756, 0.0475251265, 0.1386872530, -0.0789156705, -0.0822803080, -0.0672285855, 0.0631614327, 0.0975871906, 0.0064436756, -0.0242212489, 0.1261997372, -0.0392517298, -0.0395141765, -0.0811318383, 0.0362679251, -0.0220608674, 0.0470336825, 0.0571391806, 0.0899860784, -0.0593424924, 0.0519989617, 0.0003352866, -0.0393798873, -0.0399945453, 0.0497885942, 0.0236241743, -0.0487006605, 0.0788445622, 0.0973309577, -0.0792880878, 0.1750392467, -0.0702964589, -0.0106669478, -0.0091925031, -0.0413973071, -0.0438975058, -0.0875599459, -0.0195087343, -0.0963038355, -0.0007966365, -0.1038898677, -0.0877683237, 0.0645858273, 0.0640665814, -0.0225306433, 0.1279868484, 0.0754803419, 0.0372185782, 0.0442959927, -0.0389731638, -0.0939286500, -0.0769717544, -0.1524945945, -0.0218470953, -0.0855135769, -0.0360864811, 0.1612106860, -0.0415062383, -0.0173943024, 0.0212160330, -0.0752496421, 0.0302363243, -0.0152445510, -0.0275660139, -0.0211112965, 0.0539782532, 0.0408843458, 0.0126328776, -0.0407829396, 0.0910342634, -0.1083510071, 0.0628526658, -0.0129814269, -0.0305120535, 0.0996273682, -0.0616491996, -0.1204160750, -0.0660079271, -0.0643160194, -0.0003177018, 0.0193188619, -0.0659085959, 0.0684581026, 0.0371486545, 0.0711446851, 0.0629139394, -0.0538492873, -0.0751385391, 0.0336626582, -0.1424499601, 0.0393264890, -0.0821724981, 0.0768894851, 0.1426209658, -0.0591535941, -0.0594646446, 0.1305574179, -0.0246078558, 0.0621751361, 0.0337877944, 0.0537239686, 0.0424335860, -0.0467680693, -0.0706231222, -0.0517972745, -0.0765072405, 0.0118750380, -0.0693560913, -0.0382397994, 0.0027259847, -0.0245660748, 0.1301708370, 0.0141199669, 0.0469748825, -0.0539842620, -0.0819583908, 0.0257260296, 0.1798169017, -0.0707216635, -0.0045669735, -0.0435259342, -0.0218339209, -0.0305516422, -0.0139832888, 0.0095047019, -0.0789605379, 0.1365517974, 0.0291209444, 0.0815790743, 0.0546641760, 0.0888800621, 0.1076870114, 0.0709467307, -0.0270509925, 0.1152721569, -0.0093127945, 0.0360978842, 0.0630054697, -0.0838445649, 0.0158969574, 0.0880484805, 0.1411282569, -0.0170760490, 0.2170053422, 0.0937821865, 0.0863720849, -0.0045326762, -0.0247478131, -0.0469643883, 0.0661775991, -0.0496466570, 0.0402354822, -0.0107606808, -0.0462196879, 0.0291547421, -0.0710856020, -0.0902000889, -0.1319017112, 0.0596942604, 0.0344357789, 0.0306357611, -0.0894329548, -0.0536613874, -0.0737794414, -0.1174988374, -0.0756791234, -0.1104032770, -0.0478207953, -0.1130319461, -0.0191268194, 0.0200388394, 0.0678254738, -0.0044628587, -0.0248088744, -0.0276007447, -0.0356143974, 0.0018196319, -0.0664553866, 0.0031733802, -0.0518050343, -0.1076771244, -0.0389233157, 0.0306912493, -0.0960168242, -0.0991649926, 0.0640634745, -0.0909035280, 0.0463801362, -0.0887668356, 0.0292657539, 0.0326458886, -0.1054417044, 0.0304012708, -0.1482103169, -0.0652406663, 0.0849551335, -0.0613810718, -0.0144176399, 0.0812463537, 0.0646026805, 0.0132149654, -0.0865609720, 0.0706715211, 0.0143063311, 0.0131732691, -0.0219771806, -0.1290643662, -0.0392270014, 0.0442713238, -0.1500215977, 0.1074969843, 0.0024936572, -0.0621043034, -0.1051118672, -0.0954123586, -0.0047860397, -0.0673902258, -0.0835983157, -0.1409470290, 0.0335995853, -0.0913750976, 0.0590952188, -0.1304688752, 0.1271774322, -0.0510249175, 0.0243604463, -0.0594382174, 0.0419635847, -0.1244534999, 0.0025922980, -0.0503048450, 0.0437036268, 0.0398889333, 0.0005713957, 0.0166562479, -0.0223455094, 0.0497120358, 0.0253264941, -0.0499432459, -0.0557912625, 0.0908746347, -0.0184281431, -0.0150796091, -0.0038344846, -0.0994997621, -0.0400471687, 0.0249110516, -0.0322792530, 0.1030794084, 0.0638396367, -0.0903446153, -0.0052766311, -0.1193879023, -0.0631561056, 0.1920297742, -0.0599913411, 0.1330828220, -0.0339756086, -0.1005835384, 0.1087174788, 0.0306297652, -0.0444557555, -0.0811433494, -0.0520261377, -0.0404879041, -0.0223698057, 0.0199779328, 0.1487694085, -0.0100373290, -0.0966576263, -0.0431814454, -0.0216584578, -0.0543517172, -0.0435197540, 0.1377846301, -0.0872159600, -0.0294040665, -0.0620076954, -0.0147522893, 0.0026428348, 0.0003110606, 0.0133298067, 0.0816329569, -0.0327921696, 0.0274131801, 0.1358647048, 0.0832901821, -0.0213137921, -0.0590672195, -0.0019706369, 0.1277993023, 0.0091002546, 0.2229503542, 0.2050756812, -0.0416064598, 0.0457472727, -0.0411425568, -0.0666389465, -0.0199524947, 0.0640029907, 0.0490867198, -0.0407467708, 0.0357973240, -0.0032948712, -0.0644179732, 0.1346683055, -0.0286537036, -0.0378509387, -0.1467458457, -0.0326681808, 0.0160384737, 0.0423662998, -0.0199568253, 0.0600741692, 0.1226462424, 0.0928180739, 0.0485597774, -0.0164434351, -0.0384752415, 0.0600864962, -0.0405087173, 0.0636322722, 0.0177638307, -0.1456246823, 0.0173562169, -0.0174264982, -0.0559378229, 0.0458322689, 0.0073763430, 0.1014662459, -0.0638905764, -0.0808833763, -0.0572004616, 0.0299652591, -0.1397883743, 0.0699035972, -0.0205393545, -0.0253373981, -0.0182562228, -0.0548148192, -0.0237098727, 0.0160779599, 0.0522869453, 0.0107960850, -0.0717143938, -0.0924058855, 0.0371930078, 0.0333917551, -0.1571924686, 0.0225496516, -0.1141019166, -0.1192056835, -0.0350722149, 0.1026364416, -0.0045268652, -0.0328912549, -0.0307564568, -0.1068861336, 0.0816541389, 0.0708104596, -0.0983385295, -0.0572668649, 0.0636648461, -0.1114759445, -0.0104515571, -0.0554502979, -0.0035113844, -0.0768735185, -0.1073741466, 0.0510075316, -0.1028639972, -0.0591106452, -0.0052415351, -0.0830615759, 0.0485402569, -0.0490977503, 0.0624350682, 0.0961226150, -0.0972598642, -0.0658242404, -0.0269378200, 0.0819259062, 0.0938758776, -0.0517612882, 0.1023483053, 0.0994716510, -0.0493557379, 0.0487194732, -0.0373352356, -0.1131643280, 0.0190722682, -0.0610405169, -0.0399798267, 0.0709276274, -0.0964037329, -0.0944405943, 0.0288788714, -0.1034433171, 0.0647952333, -0.0194786768, 0.0712044537, 0.0563043579, -0.0213816538, 0.0215389691, -0.1424219906, 0.0576623529, -0.1786908805, 0.1027355716, 0.0882584006, -0.0349098556, 0.1053660810, 0.0719491318, 0.0387750268, 0.0487558208, -0.0848366022, -0.0509584434, -0.0656948313, -0.0099444836, -0.1207067296, -0.0017941383, -0.1295400560, -0.0592709184, -0.0687187538, -0.1183584407, 0.0103497244, -0.0354059115, -0.0656961575, 0.1001746729, -0.0469209962, 0.0374694616, -0.0125012388, -0.0434385352, 0.0033982245, -0.0845584422, -0.0677439496, 0.0351948477, -0.0220549405, 0.0621111207, 0.0027479422, 0.0220236853, 0.0217165723, 0.0763693154, -0.0508133061, 0.0740649998, 0.0664987192, 0.0512996763, 0.0054217735, -0.0529711358, 0.1077995300, -0.0069066365, 0.0195422247, 0.0250124224, 0.0964070112, -0.0485484675, 0.0378456749, 0.0894005224, 0.0521972440, 0.0310955048, 0.0387309678, 0.0074491589, 0.0798246786, -0.0854914933, 0.0663967878, -0.0164616834, 0.1048140302, 0.0618006214, 0.1041292697, -0.0758559257, 0.0817435160, 0.0173793267, 0.1018802077, 0.0117259128, 0.0812838003, 0.0140242241, 0.0479020327, 0.0181400757, -0.1362809241, 0.0781305805, 0.0832446739, -0.0105979750, 0.0570344850, -0.0810676739, -0.0472680368, 0.0828104317, -0.0630669892, -0.0471151471, -0.0713864863, -0.0531481281, 0.0380337350, -0.0064781392, 0.0182025004, -0.0957513228, 0.0246449448, -0.1101954579, -0.0459551625, 0.0269961897, 0.0063698986, -0.0196145661, -0.1434528679, -0.1154722422, -0.0279813856, -0.0298432652, -0.0145291341, 0.0662590414, 0.0701523125, 0.0524312444, -0.0744707286, -0.0989544094, 0.0319651477, 0.0585963987, 0.0964112207, -0.0188863967, 0.0786174238, -0.0899980217, 0.0590668917, -0.0376910754, -0.0159391481, -0.0395548679, -0.0639269054, 0.0004933746, -0.0541027449, 0.0771984085, -0.0318112448, -0.0211544335, 0.1020298675, 0.0873756111, 0.0199468788, 0.0709192008, 0.0269438326, 0.0851555839, -0.0562446304, -0.0105072893, 0.0771286562, -0.0599148683, -0.0444501974, 0.0839929804, 0.0699119344, 0.0969251916, -0.0334764495, 0.0709799230, 0.0484352820, -0.0313216113, 0.0851722583, -0.1610671729, -0.0909222588, 0.0072723660, 0.0619587377, -0.0585227758, 0.0600811131, -0.0547321253, -0.0348465592, 0.0514666475, 0.0936687887, -0.0454790927, -0.0214431584, -0.0016575051, 0.0205644500, 0.0796192586, -0.0106991883, -0.0107700424, 0.1161435097, 0.0622276850, 0.0068581402, 0.0623984523, 0.0164368227, -0.0457695909, 0.0697526187, 0.1032997817, -0.0783088431, -0.0525014661, -0.0077255759, 0.0033910656, 0.0862150639, -0.0397924483, -0.1346680373, 0.1101591662, -0.0610982403, -0.0338436328, 0.0169063769, 0.0677016601, -0.0530932024, -0.1136264205, -0.1313600093, -0.0715928674, -0.0761179402, 0.0063607129, -0.0947549343, -0.0894500539, 0.0634854287, 0.0141764581, 0.0626996607, 0.0922956243, 0.0602865890, -0.0713081285, 0.0753146708, 0.0969074816, -0.0016354556, -0.0762898251, 0.0356052555, 0.1401151717, 0.0175989456, -0.1081578806, 0.0036673357, 0.0169933923, -0.1092825830, 0.0262619741, 0.0632760376, 0.0035085646, -0.1243172064, -0.0044742250, -0.1191658154, -0.0171477627, 0.0144312521, 0.0361295156, 0.0424867086, 0.0358439386, 0.0322310440, -0.0356292501, -0.0531090721, 0.1233753115, -0.0074733254, 0.0757849663, 0.0634997562, 0.0734761432, 0.0863846540, 0.0118501782, 0.1146467328, 0.0163036194, -0.0077251131, -0.1014629081, 0.0116040120, 0.0220779721, 0.0882036909, 0.0766808242, 0.0513777509, -0.0895653516, 0.0185696930, 0.0428270325, 0.1014317721, -0.0448937267, -0.0348286368, 0.0126170162, 0.0491154678, 0.0669541135, 0.0536812022, -0.1109253913, 0.0213006474, 0.0849864334, -0.0540751144, -0.0767682567, -0.0125819007, 0.0476011559, -0.0464149006, -0.0897966549, 0.1252016872, -0.0505211204, 0.0946361199, -0.1021691039, -0.1189096048, -0.1183006242, -0.0631164312, -0.0538655482, 0.0632181168, -0.0247201324, 0.0215672180, -0.0716611743, 0.0777414739, -0.0586919859, -0.0638318434, -0.0736573711, 0.0542789102, -0.0175233260, -0.0428946167, -0.0339544676, 0.0782445371, 0.0651206076, 0.0628766567, -0.0777500123, 0.1198591590, 0.0323204882, -0.0495066419, 0.0387956984, -0.0880761966, -0.0942748114, 0.0541527569, 0.0843742117, 0.0339320898, -0.0619802065, -0.0602112338, -0.0346293822, 0.0533392616, -0.0304282755, -0.1369260997, 0.1289662272, -0.0273984578, -0.0221228544, -0.0201107785, -0.0507860221, -0.0521780550, 0.0281427167, -0.0727633759, -0.0076691881, 0.1083260477, 0.0844085664, -0.0791356489, 0.0192894544, 0.0939086899, 0.0803742930, -0.0687438473, -0.1280844063, 0.0117186382, -0.0048768404, -0.0970548540, -0.0517137647, 0.0379484184, -0.0549380630, 0.0576585270, -0.0962776318, 0.0586119704, 0.0177189521, -0.0617964864, -0.0153548047, -0.0388431437, -0.0591503568, 0.0180134084, 0.0459398143, 0.0577863976, 0.0765432715, -0.0144090084, 0.0655236244, 0.0885608643, 0.0443346836, 0.0452909544, 0.0053533646, 0.0082075885, -0.0362913869, -0.0204912126, -0.0849055424, -0.0870116502, -0.0293676611, -0.1435610652, 0.0497665703, 0.0759481862, 0.0770473927, -0.0212764405, 0.0014355772, 0.0417210534, -0.0075796857, -0.1373531222, 0.0324501991, -0.1168587506, 0.0524310768, -0.0870030224, -0.0296260193, 0.1549606472, -0.0984900072, 0.0606278479, -0.0608891062, -0.0728781521, -0.0285885576, 0.0179165993, 0.0458046086, -0.0308630634, 0.0420605652, -0.0306588002, -0.0888926834, -0.0073219859, 0.0941769630, -0.0701437145, -0.0086766742, -0.0646578148, 0.0766871646, 0.0035600353, -0.0867603272, -0.0937804878, 0.0225700215, -0.0120568033, -0.0735339522, 0.0331495404, -0.0486826263, 0.0557368174, 0.0057865526, 0.1278625578, -0.0839186534, 0.1822559088, -0.1147665754, -0.0583600774, -0.0454613157, -0.0980929956, -0.0269355122, 0.2521169186, 0.0181176513, -0.0495307222, 0.0575283468, -0.0387992933, 0.1810492128, -0.0444577448, -0.0612717271, 0.0067934333, 0.0340154096, 0.0444578640, 0.0469693728, -0.0226513464, 0.0220504310, 0.0692666396, 0.1210920215, 0.0999924764, -0.0987670198, 0.0021591471, -0.0937900469, 0.0749352127, -0.0787160695, -0.0327244438, -0.0368642658, -0.0852461457, 0.0989176184, -0.0431245789, 0.0765284970, -0.0610622689, 0.0405355655, -0.0862065330, -0.0647322536, -0.0919861868, -0.0174981095, 0.0195949897, 0.0063897390, -0.0595370643, 0.1022158936, 0.0048021311, 0.0613413602, -0.0216487013, 0.0494522341, 0.0433290452, -0.0432693288, 0.0569262877, 0.0370233245, -0.1106790081, -0.0859554932, -0.0490579344, 0.0053528468, 0.0556181557, -0.0739919394, -0.0515892021, 0.1507553756, 0.1070121899, 0.0772024915, -0.0253701750, -0.0467903651, -0.0556339398, 0.0390438661, -0.0354017057, -0.0320293047, 0.0460977033, 0.0033867573, 0.0410997644, -0.0292503405, 0.0659501702, -0.0388935134, -0.0732914731, -0.0671890900, 0.0597245768, 0.0408499949, 0.0285653640, 0.0313445367, 0.0194826145, -0.1355435550, -0.0551327094, 0.0612076484, -0.0442674197, 0.0316526964, -0.1587270349, 0.0199994016, -0.0025327168, -0.0447536819, -0.0800240934, 0.0727686882, 0.0677671209, -0.0702673197, 0.0494202487, 0.0782879144, -0.1151945516, -0.0348249227, 0.0604016930, -0.1053682938, -0.0555155501, 0.0014664768, -0.0606759675, -0.0003011480, -0.0682002231, 0.0363571085, 0.0645122677, 0.0200013593, -0.1253946573, 0.0109764794, 0.0595420189, 0.0478110015, -0.1952961832, -0.1127806306, -0.0140284644, 0.1021242142, -0.0811798275, -0.0263065286, -0.0005425303, -0.0330388770, -0.0386818722, -0.0768018812, -0.0080499109, 0.1055697724, 0.0746499822, 0.0102248006, 0.0337866545, -0.0329408944, -0.0912280679, -0.0241316147, -0.0373897888, 0.0121319732, 0.0120787742, 0.0125024356, 0.2297051996, -0.0911630690, 0.1647472382, -0.0659043044, 0.0428691693, 0.0004518947, -0.0623199679, -0.0981561244, 0.0497885533, 0.0130965235, -0.0242029261, -0.0224969983, 0.0737137198, 0.0558748804, 0.0798138231, 0.0150583228, 0.0178844202, -0.0045357114, -0.0174947269, -0.0144241247, -0.0827698931, -0.0492468774, -0.0246413201, -0.0812115520, -0.0345746912, 0.0148427868, 0.0565512590, 0.1003904492, -0.0276022907, 0.0936720297, -0.0010365929, -0.0330828987, -0.0629137009, 0.0118345758, -0.0885787830, 0.0325156897, 0.0076818736, -0.0136408377, 0.1690105498, 0.0894713849, 0.0000710054, 0.1220856905, -0.0370090976, -0.0376069881, -0.0605341457, -0.0822976008, -0.0995507538, 0.0751358718, -0.0116146104, -0.0193816144, 0.0557685830, -0.0099729896, 0.0530639738, -0.0664676875, 0.0159081127, -0.0366890803, 0.0534367040, -0.1249711290, -0.0876326337, -0.1021926701, -0.0828674138, -0.0604835898, -0.0115017649, -0.0269574746, -0.0258374792, -0.0058249277, 0.0675341263, 0.0314732268, -0.0944029316, -0.0417071208, -0.0344523191, 0.0585727878, 0.0704693347, -0.0936420709, 0.2445193231, -0.0587462597, -0.0631370023, -0.0537444316, 0.0356801562, -0.0020496466, 0.0244736914, -0.0219606142, 0.1163045987, -0.1000596136, -0.0712957904, -0.0601454452, -0.0121526401, -0.0839867294, 0.0094053932, -0.0391138792, -0.0557410344, 0.0865815729, -0.0546511523, 0.0718558133, -0.0440070555, 0.0322450288, -0.0329285339, 0.0866644904, -0.0308593847, 0.0841626748, 0.0041948855, -0.0797259510, 0.0521050170, 0.1028592288, 0.1031710654, -0.0277329423, 0.0036788045, -0.0524410643, 0.0252840407, -0.0868513882, -0.0766920149, -0.0562773831, -0.1142263338, -0.0766534805, -0.0455615222, -0.0107324440, -0.0577791594, -0.0209254473, -0.0397237577, 0.0211764500, -0.0091112852, 0.0500818975, -0.0166212153, 0.0045394986, 0.0632392764, -0.1078332216, 0.0602887981, -0.0798442215, -0.0403070264, 0.0670527369, 0.0746493414, 0.1207921356, 0.1048789993, -0.0620078817, 0.0064405263, 0.0652065724, -0.0223495103, 0.0613473542, -0.0167370345, 0.0666513145, 0.0654423460, -0.0658402517, -0.0321084075, -0.0902299806, -0.0303024445, -0.0188830905, -0.0488627404, 0.1093616337, -0.0909053162, -0.0320114456, 0.0971022844, -0.0226499550, 0.0819510743, -0.0312427096, -0.0453264378, 0.0780333430, -0.1219986826, -0.0136351585, 0.0994560644, 0.0560627542, -0.0155784162, -0.0066672345, -0.0797967389, 0.1005734131, 0.0171863418, 0.1065678298, 0.0365181491, 0.0350235924, 0.0342223048, -0.0343628377, -0.0180556700, -0.1024747342, -0.1486456692, -0.0869545043, -0.0737501010, 0.0648516715, 0.0554135479, 0.0076416680, 0.0647908002, 0.1315516531, -0.0543260388, 0.0119315097, -0.1074419245, 0.0466515571, 0.0021222094, -0.0299843680, 0.1196760386, -0.0108629633, -0.0039592520, 0.1234814823, 0.0155708529, 0.0810643137, 0.1056168079, -0.0693321899, 0.0724201277, -0.0502052493, -0.0110249575, -0.0876624137, 0.0472565070, -0.0985554382, 0.0806791708, 0.0081903944, 0.0508602262, 0.0803167894, 0.0432453305, -0.0892964751, -0.0801371336, 0.0511027798, -0.1228565872, -0.0522643439, 0.1232670471, 0.0003506939, 0.0751959682, -0.0063647749, -0.0363857821, -0.0257241074, -0.0714086294, -0.0443619005, -0.0801678076, -0.1201136038, -0.0426543616, -0.0288424790, -0.0211664792, -0.0764830559, 0.0231079999, -0.1133006737, -0.1473168582, 0.1203596666, -0.0980572924, -0.1063288897, -0.0275540333, -0.0893314555, 0.0788826048, 0.1277980059, 0.0956300795, -0.0320088156, 0.0633572787, 0.0730576068, 0.0621569157, -0.0428696685, -0.0700301677, -0.0752650723, 0.1400164068, 0.0842149109, -0.0406872109, 0.0148475980, -0.0127298310, 0.0076756920, 0.0114058340, -0.0228290856, -0.0529235974, 0.0312535167, -0.0960985869, -0.0415846109, -0.0338240936, -0.0353742875, -0.0829282627, -0.0496451929, 0.0007845884, 0.0474748239, 0.0840008184, 0.0540886335, 0.0893854648, -0.0884539485, -0.0625197664, 0.0401022919, 0.0954856426, -0.0878041014, -0.0090394672, -0.1004417315, 0.0028049233, -0.0636782795, 0.1003876776, 0.0242727064, -0.0179390851, 0.1055383459, 0.0280008465, 0.1149791628, -0.0456295013, -0.0554834493, -0.0814123601, -0.0289375223, -0.0816215798, 0.0280376412, -0.0446617641, -0.0580288544, -0.0201921780, 0.0212806631, -0.0332060084, -0.0533180647, -0.0293111000, -0.0693095177, -0.0464424677, 0.0408367366, -0.0580142662, 0.0839973167, 0.0170085318, 0.1174761876, -0.0828339607, -0.0906714648, 0.1003980935, -0.0627130568, 0.1683337986, -0.0276057571, -0.0468077920, 0.1135365814, 0.0046901898, -0.0544824563, -0.0075411159, 0.0764698014, 0.0457745045, -0.0388543308, 0.1210815310, -0.0398408771, 0.0054929270, 0.0967579708, 0.0983218551, -0.0859011114, 0.0902541503, -0.0525407195, -0.0493119881, 0.0622101910, -0.0387682281, -0.0101294927, -0.0850461423, -0.0038918648, 0.0952030569, 0.0213096123, 0.0730768815, 0.1170130521, -0.0883214995, -0.0420676544, 0.0028372465, 0.1028541252, 0.0636113063, 0.0648812503, -0.0871991813, 0.0425928682, -0.0039253002, -0.0304343291, -0.0130206430, -0.1779011637, 0.0936762691, 0.0211556237, -0.0093297847, -0.0234409887, 0.0957137421, 0.0140186278, 0.0773876756, -0.0912730396, -0.0568974540, 0.0218885038, -0.0352817550, -0.0916906148, 0.0052368916, -0.1106106937, -0.0118367225, 0.1393351853, -0.0373169631, 0.0910306945, 0.0201403052, -0.0012779925, -0.0233369060, -0.0400304012, -0.0013528382, 0.0170398764, -0.0161371529, 0.0353052579, 0.0626145601, 0.0249018092, 0.1251248121, 0.0515788123, -0.0098056803, 0.0028514112, -0.0718801469, 0.0670759156, -0.0028917245, -0.1322789490, 0.1292969435, 0.0306211077, -0.0180620346, -0.0578530878, 0.0281037651, 0.0223773699, 0.0166357439, -0.1146441996, -0.0712049901, 0.0284202322, 0.0194222908, 0.0494978763, -0.0518060327, -0.0819230676, 0.0261486061, -0.0388454571, 0.0884069577, 0.0772178099, -0.0108701624, 0.0390079357, -0.0308075361, 0.0946644321, 0.0576781854, 0.0209384225, 0.1092037633, -0.1078010201, -0.0459184349, 0.0673004165, -0.0791464671, -0.0444220193, -0.0553532802, 0.0118278312, 0.0411303677, 0.0656487271, -0.0080314912, -0.0956662148, -0.0740403906, -0.0666307658, -0.0151081849, -0.1374367028, 0.0308528803, 0.0170909222, 0.0689945966, 0.0813500285, -0.0009280135, 0.0611564778, -0.1020561680, 0.0658631548, 0.0370798819, -0.1255746782, 0.1179917604, 0.0737307072, 0.0100538004, 0.0568563119, 0.0260349587, -0.0348087773, -0.0810444951, -0.0550645255, -0.0395881198, -0.0523102395, -0.0426224731, -0.0690414906, -0.0508776829, 0.0542431287, -0.0378839336, -0.0022828183, 0.0259765200, 0.0323489681, -0.0630048960, -0.0715890303, -0.1151177287, 0.0299210232, -0.0145524517, -0.0435927212, 0.0808578432, 0.0750569552, -0.0395048559, -0.0335442200, 0.0299505256, -0.1143434495, 0.0195063855, 0.0019437941, -0.0818353295, -0.1176324934, -0.0428171232, 0.0063061309, 0.0416964926, -0.0497450344, -0.0503227822, -0.0140455719, -0.0688818395, 0.0901625827, -0.0647347122, 0.0054493127, -0.0475661680, 0.0903020352, 0.0508903265, 0.0761668459, 0.0948761031, -0.0719242468, 0.0481056422, -0.0321839303, 0.1173593625, 0.0439530388, 0.0176772475, -0.1189827621, 0.0970367417, 0.0434688926, -0.0522166118, -0.1404052973, 0.1032253057, 0.0039611137, 0.0173657183, -0.0041351849, -0.0110813500, 0.0606299154, 0.0375478975, 0.0889265612, -0.0764961913, -0.0978496373, 0.1045384407, 0.0554321148, -0.1319563687, 0.0915122703, -0.1119728982, 0.0266287718, -0.0172115304, -0.1227142885, 0.0092685157, -0.1179742515, -0.0572565533, -0.0465775058, -0.0610621460, 0.0083968947, 0.1043433622, -0.0286915284, -0.0022185179, -0.0848902240, -0.0158996060, -0.0183815882, 0.0116108954, 0.0283703413, 0.0551374853, -0.0581949465, 0.1003464833, 0.1041449979, 0.0002635403, -0.1022983715, -0.0812400579, -0.1037943661, -0.0590258129, -0.0964972675, -0.0210843347, 0.0145210521, -0.0121148154, -0.1144926473, -0.0189736541, -0.0615993217, 0.0619754791, 0.0810809657, -0.0082976185, 0.0442334004, -0.1044663489, -0.0072370055, -0.0107955756, 0.0713965595, -0.0054897745, 0.0990956873, 0.1099897623, 0.0441862978, 0.0630711466, 0.0690443367, -0.0820624605, 0.0066410988, -0.1153021380, 0.0315527245, 0.0501803868, -0.0008669794, -0.0259545427, -0.0145551795, 0.0149422437, 0.0078130821, 0.0477316156, 0.1073000133, -0.0432663076, -0.0096440287, -0.0800044164, 0.0368040055, -0.1005078778, 0.0272319857, -0.0219602212, -0.0308037642, -0.0577527918, -0.0086242463, 0.0873882249, 0.0789574832, -0.1307126284, 0.0732308626, 0.1150202006, -0.0915978476, 0.0305879526, 0.0041328883, -0.1223038360, 0.0560515448, -0.1130700484, 0.1114796028, 0.0785992071, -0.0607417636, 0.0128158173, 0.0640821904, 0.0109517938, -0.0286471024, 0.1126468703, 0.0163623933, 0.0272711013, 0.0946159959, 0.0578332692, -0.0312426277, -0.0610485673, -0.0781584606, -0.0717147812, 0.0980631858, 0.0376701765, -0.0668608397, -0.0053418404, 0.1055864170, -0.0293148067, -0.0394647904, -0.0474477448, 0.1079241931, -0.0729278177, -0.0668127313, 0.0411626138, 0.0895481929, 0.0513702743, 0.0339868777, 0.0051143025, 0.1028407291, 0.0782721639, -0.1395546049, -0.0344928317, 0.0358004533, -0.0115985954, 0.0138532156, 0.0362617634, -0.0132045755, 0.0086850533, -0.1183000505, 0.0407604687, 0.0914443582, 0.0338278376, -0.0669549629, 0.1023362875, -0.0810777918, 0.1029644459, 0.1747675836, -0.0124780582, -0.0563400611, 0.1254706383, -0.0635178015, -0.0278159920, -0.0255958308, -0.0145557197, -0.0243100673, 0.0648342296, 0.0979531333, -0.1407716572, -0.0690157115, -0.0513125062, -0.0452237166, -0.0072608916, -0.0501388796, -0.0306088012, -0.0664465278, -0.0293397810, 0.1032957435, -0.0354337990, 0.0194603987, -0.0045479988, -0.0016892473, -0.0016139786, -0.0094617847, -0.0100394748, 0.0134949302, 0.0859358460, 0.0821331665, 0.0846389905, -0.0704400837, 0.1051150858, -0.0231181718, -0.0065947701, -0.0137692513, -0.0494565517, 0.0364263132, 0.0719384253, -0.0219505616, 0.0981332138, 0.0986885056, -0.0444798395, 0.1747742146, -0.0713135973, -0.0868487582, -0.0117576700, -0.0093718627, 0.0367284492, -0.0603545867, 0.0510239191, 0.1370599270, 0.1367287338, 0.0352015086, 0.0723017007, -0.0331815556, 0.0551282540, 0.0259397272, -0.0197651777, 0.0163861662, 0.1103523299, -0.1118249446, 0.0260574576, 0.0452453755, 0.0255117919, -0.1448352784, 0.0042985049, 0.0546705648, 0.0215608831, -0.0531201698, -0.0262671821, 0.0596017353, 0.0144872041, 0.0888068080, -0.0174063426, 0.0765281767, 0.0312073529, 0.0671964511, -0.0199976582, 0.0114538148, 0.0068897000, 0.0467436500, 0.0265986584, 0.0808449760, 0.0783249587, 0.0031392504, 0.0447789133, -0.0103811342, 0.0587931462, -0.0779330954, -0.0101986164, -0.0364631414, -0.1218310148, -0.0757408738, 0.0132135330, -0.0374840423, 0.0022101721, -0.1068997979, 0.0404298194, -0.1035539284, -0.0861379355, 0.0570072122, -0.0831748471, -0.0758447424, -0.0820413977, -0.1273855269, -0.0225031041, -0.0173488520, -0.0840779915, -0.0228050388, -0.0294849910, -0.0386614986, -0.1056877002, 0.0504055694, -0.0334274359, -0.0537227280, 0.0321439542, -0.0070537087, 0.0425294638, -0.0746638179, -0.1636456847, 0.1335593909, 0.0450570248, -0.1472716630, 0.0604438856, 0.0491298772, -0.0877035633, -0.0972045138, 0.0224933662, 0.1302420199, 0.0580744036, 0.1012435406, 0.1354691386, 0.0464949235, 0.0740421712, 0.0397359245, -0.0432808660, -0.0868271291, -0.0082836347, -0.0929558426, 0.0204975344, 0.0467868447, 0.0415112898, -0.0518869795, 0.0248944592, 0.0827348903, 0.0042775366, -0.0237659235, -0.0667997822, -0.0582325570, 0.0403021425, 0.0360360444, -0.1393488497, 0.0449147634, -0.1198097467, 0.0841340050, 0.0397674441, -0.0027962525, -0.0839639977, 0.0939034671, 0.0834229216, 0.0586965829, 0.1129187644, 0.0448574200, 0.1280132234, 0.0612587705, -0.0277479459, 0.0484639965, -0.0754407570, -0.0455226116, 0.0926315263, -0.0573350415, 0.0124110216, -0.0872333273, -0.0406804681, -0.0762622058, -0.0983455703, 0.0421515703, -0.0121509507, -0.0968679860, -0.0989991575, -0.0003738118, 0.0134927630, -0.1449350417, -0.0343374088, -0.0012701448, 0.1134124845, -0.1553922892, 0.0065320325, 0.0436957739, -0.0003392398, -0.0790367872, 0.0233924612, -0.1529770792, -0.0116723776, 0.0280596595, 0.1237278581, -0.0245446656, 0.0511759557, 0.1100620627, 0.0272152163, -0.0849118605, 0.0445080772, 0.0851645097, -0.1480253041, -0.0490951613, 0.0786601901, -0.0009642256, 0.0830223411, 0.0286840387, -0.0232817922, 0.0052671824, -0.0400312804, -0.0123514300, -0.0950069278, 0.0940941945, -0.0826909170, -0.0097935563, -0.0465730727, -0.0201637764, -0.0542791523, -0.1511760354, -0.0199831016, 0.0298657008, -0.1011750400, -0.0385254696, 0.0681920871, 0.0901038870, -0.0284935553, 0.0109994691, -0.1136230454, -0.1029938012, -0.0949274302, -0.0474274047, 0.0115618305, 0.0526903644, -0.0021000837, 0.1052979156, 0.0647384897, 0.1129794940, 0.1010791212, 0.0764422417, 0.0447953790, 0.0991681814, 0.0019830251, -0.0190462060, 0.0504997894, 0.0560495742, -0.0244265348, -0.0027519146, 0.0433972627, -0.0551899448, 0.0752230287, 0.0021509437, -0.0454413816, -0.0057018418, 0.0059615728, -0.0353755467, 0.0636919141, 0.1059876010, -0.0186992455, 0.1194322333, 0.0533764660, 0.0228859261, -0.0620493181, 0.1407887042, -0.0850538984, 0.0036712745, -0.0999048799, 0.1225241199, 0.0095128799, -0.1147727594, 0.0725207329, -0.0741313621, -0.0770589039, -0.0711547211, -0.0096135065, 0.0390645117, -0.0674885958, -0.0419976972, -0.0398902781, 0.0054427250, -0.0455281474, 0.0898505077, -0.0961802155, -0.0192873105, -0.0127056027, -0.1404306889, 0.0856081545, 0.0780888200, -0.0239555370, 0.0484051220, 0.0625448003, 0.1025184542, -0.1299986988, 0.0187779088, 0.0286135003, 0.0792662352, 0.1266240627, -0.0556402057, 0.0920973569, 0.0135687226, 0.0385581627, -0.0167004708, 0.0494839586, -0.0353494324, 0.0104603237, 0.0236497037, 0.0451703444, -0.1426198035, 0.0547636598, -0.1755041480, -0.0400454849, -0.1300673187, -0.0199708343, 0.1166477576, -0.0490804575, -0.0285262000, -0.0828158706, -0.0298018716, -0.1537077129, -0.1418319345, 0.0685840771, 0.0301626064, -0.1213925332, 0.0830651894, 0.0787483305, -0.0048371553, 0.0151847266, 0.0510032512, -0.0452910140, -0.0283659976, -0.1051772907, -0.0228584483, -0.0331709199, 0.0269971825, -0.0265853181, 0.0505908839, -0.1125923693, -0.0149882101, 0.0479013883, -0.1339313984, -0.0833573937, 0.0137497205, -0.0007601206, -0.1128898263, 0.0631860122, -0.0895019248, -0.0162560679, 0.0611775443, -0.1036852300, 0.0618542768, -0.0431516580, -0.1211580187, -0.0626116470, -0.0486919805, 0.0466977283, 0.0915161148, -0.0197706614, 0.0396672562, 0.0690839216, -0.0558375306, -0.0800472349, -0.0925857797, -0.0054520317, -0.0442523398, -0.0704584196, 0.0430878252, -0.0381743200, -0.0733212754, 0.0233460944, -0.0992816836, -0.0314378403, -0.1055308580, -0.0667926893, 0.0043838229, -0.0616856068, -0.0081501976, 0.0021298826, 0.1271868348, 0.1175589487, -0.0802043155, 0.0963844582, 0.1071723923, -0.0169840883, -0.0233258121, 0.0762172788, -0.0925276354, 0.1221508384, -0.0608264878, 0.0177151058, -0.0391471349, -0.1204092652, 0.0377754495, -0.0607155524, -0.0991647318, 0.0746564344, -0.0602200702, 0.0966199785, 0.1047639251, -0.1029389426, 0.0163682383, -0.0359822698, 0.0812786818, -0.0908700377, 0.0276088510, 0.1129191369, 0.0372226648, -0.0132016782, -0.0300741121, -0.0116253002, -0.0308580343, -0.1342839152, 0.0563737154, 0.0206880290, 0.0551554486, 0.0835766643, 0.0265206564, 0.0166106392, -0.1315711588, -0.0072987983, -0.0405984037, -0.1224363446, -0.0511670969, -0.0857132301, 0.0346735902, 0.0999423563, 0.0282757003, 0.0249790438, 0.0759047121, -0.0122017693, 0.0911977664, 0.0041688569, -0.0829619244, -0.0542938299, -0.0575045235, 0.0095673827, -0.0622560009, -0.0176985618, -0.0646422058, -0.0146532329, -0.1473775357, -0.0926533192, 0.0798745677, -0.1300755143, 0.0471163057, 0.0271694493, -0.1158514321, 0.0503863618, -0.0422909930, 0.0025416107, -0.0417667739, 0.0486361310, 0.0742129907, -0.0094956439, -0.1031903476, 0.0938482806, 0.0121245962, 0.0860960707, 0.0130398097, -0.0059766346, 0.0341772400, 0.0299788043, -0.0093162470, -0.0216127168, 0.0481307916, -0.1348115504, 0.0962787271, -0.1501026303, 0.0924308822, 0.0048670699, -0.0882683098, -0.0472519100, 0.0620877072, -0.1442691386, -0.0743752345, 0.0720430613, -0.0399533175, 0.1417907178, -0.0547836237, -0.0653292164, -0.0700890645, -0.0287799612, -0.0692553148, 0.0246041454, 0.0538718253, 0.0784673244, -0.0074199135, 0.0626351088, 0.0292521510, -0.0486515574, 0.0038543814, -0.0058092265, 0.0576333702, -0.1319476366, 0.0646683872, 0.0433657393, 0.0473628342, 0.0294567235, 0.0466382466, 0.0000109231, -0.0796163380, -0.0242158268, 0.0585864410, 0.0034961724, 0.0999706909, 0.0170367695, 0.0795677379, -0.1068513989, 0.0603755750, -0.0568367131, 0.1204504818, -0.0174903851, -0.0355911739, -0.0899313316, 0.0640219599, 0.1321767867, -0.1050116941, 0.0854291096, 0.0757601783, 0.1044960469, -0.0087515470, -0.0138870748, -0.0215977300, 0.1028222665, -0.1183798984, -0.0194974765, 0.0485068709, -0.1209635511, 0.0602329969, -0.0527155697, 0.0285044611, -0.0123911044, 0.0119631719, -0.0494519100, 0.0394510441, -0.0077170772, -0.0883982778, -0.1031013653, 0.0540448725, -0.0046755630, -0.0488397405, 0.0532740951, -0.0501501225, -0.0322446376, -0.0190148652, 0.0099411402, 0.0090566492, 0.0722947419, 0.0911219865, -0.0858717412, 0.0188682955, 0.0161591433, 0.0491386950, -0.0973183364, -0.0912878737, -0.0396041200, -0.0780648217, 0.0269346796, 0.0876352191, -0.0775229186, -0.1181549951, 0.1226266697, 0.0105185164, -0.0402919725, -0.1311614066, -0.1245790124, -0.0006220375, -0.1346053928, 0.1022996902, -0.0352024361, 0.0120595228, 0.0733724758, 0.0333998948, 0.0850903392, 0.0391279273, 0.0278788488, -0.0991111100, 0.0674568266, 0.0234200396, -0.0134479580, 0.0066299760, 0.0470617078, 0.0435235612, 0.0844020024, 0.0055873091, -0.0914590806, 0.1344901770, 0.0022781710, -0.0665227100, 0.0899944156, 0.0570041686, -0.0946960375, 0.0507285371, -0.0136495223, -0.0798513815, -0.0188576821, -0.0989073142, -0.0721386224, -0.0609084181, 0.0867960975, -0.0221049730, 0.1371130794, -0.0071082208, 0.1357366890, 0.0179937053, -0.0899792463, 0.0937233493, -0.0030133151, -0.0212719049, 0.0174967702, 0.1009080112, 0.0005332759, -0.0248226505, -0.0004797622, 0.1359978616, -0.0140615907, -0.0136565417, -0.0609969310, 0.1064940989, 0.0268502571, -0.0998918489, -0.0441932157, 0.0483480804, -0.0014180490, -0.0977857038, 0.0315839350, -0.0170399658, -0.0900199637, -0.0652694851, 0.0262454338, -0.0139675522, -0.0386385806, -0.1354418546, -0.0584577508, -0.0674534142, 0.0634349808, -0.0062553706, 0.1005107313, 0.0875166059, 0.0983060226, 0.0064350194, 0.0894301832, -0.0079892874, -0.0979019776, -0.0084661739, -0.0492902473, 0.1107447669, 0.0808946118, -0.0889407694, 0.0285454243, 0.0243871156, -0.1396717578, 0.0183205567, -0.0870659873, 0.0667328238, -0.0815036371, 0.0651009157, -0.0970075652, 0.0067504146, -0.0058024339, 0.0842855796, 0.0925824791, 0.0536556542, -0.0624318831, 0.0184365623, -0.0084981490, -0.0001374278, 0.0342711285, 0.0644733906, 0.0901883021, 0.0954781473, -0.0748626813, 0.0751435012, -0.0080605326, -0.0906659737, -0.0559096597, -0.0114430515, -0.0766489357, -0.1049234346, -0.0002993667, 0.0003672136, -0.1022347212, -0.0664256066, 0.0947308093, 0.0144122960, 0.0986163095, 0.0255269893, -0.1073329076, 0.0701745898, 0.0374385603, -0.0883597955, -0.0059901527, -0.1059077829, -0.0080574239, 0.0716735721, -0.0694814846, 0.0002499170, 0.0479534343, -0.0718069822, 0.0923322812, -0.0856614709, 0.0580016039, 0.1275756210, 0.0277407337, 0.1577678621, -0.0677591711, -0.0514936224, -0.0345832855, 0.1134438962, -0.1017093360, 0.0399390757, 0.1155762225, 0.0875372365, 0.0172955710, 0.0539136566, -0.0959345549, -0.0914627239, -0.0736418962, 0.0240049344, 0.0275202058, -0.0732959807, -0.0415008850, 0.0151498970, -0.1437209696, -0.0385125764, 0.0662382469, 0.0701904595, 0.0682070702, -0.0898138806, -0.1134685352, -0.0698873997, -0.0540785231, -0.1078316420, 0.0132849151, -0.0942851007, 0.0003269328, -0.0002793477, 0.1285556406, -0.0007181646, 0.0173613727, 0.0519113801, -0.0070021017, 0.0609180033, -0.0088195680, 0.0378160365, -0.0859352574, 0.0635552183, -0.0859058201, -0.0764979273, 0.0522875302, -0.0250831842, -0.0613228977, 0.0259011798, -0.0004117126, 0.1139684618, -0.0954969376, -0.0187753104, 0.0249272380, 0.0040457989, -0.0807546005, -0.0991760120, -0.0052829017, 0.0855782926, -0.0789028257, -0.0496044643, 0.1314743459, -0.0674943626, 0.0731861591, -0.0251287892, -0.0264288858, -0.0544904284, 0.0138749518, -0.0582502186, -0.0514671691, -0.0432877131, -0.0989352018, -0.1195408255, 0.1258138120, -0.0557894260, -0.0665790662, 0.0834517851, 0.0005654451, -0.0467095524, -0.0617632903, -0.0929365829, 0.0872744694, 0.0481605455, -0.0894488916, -0.1346862912, 0.0917205811, -0.0738409981, 0.0169918146, -0.0960141420, 0.0013478044, 0.0400363393, -0.0460061282, -0.0548108965, 0.0316668898, 0.0719406083, -0.0640961155, 0.0360891894, 0.0531002693, 0.0121875405, 0.0494638272, -0.0560793504, -0.0142757222, -0.0110063357, -0.0161055475, -0.1001832560, -0.0671825483, -0.0302095674, -0.0896982551, -0.0065385727, 0.0019656776, -0.0283847973, 0.0799385384, -0.0759215876, 0.0951428488, -0.0822954848, -0.0871073902, 0.0954652652, 0.1036150455, -0.0688297898, -0.0222473685, 0.0064540342, 0.0312690549, -0.0490203016, 0.0692550167, 0.0128356693, 0.0505411327, 0.1184887737, 0.1144807711, 0.0294140242, -0.0034465736, -0.1084358916, -0.0453552306, 0.0772877634, -0.0456719510, -0.1173023060, 0.0570054576, -0.0457357727, -0.0722294450, 0.0330156647, -0.1271147728, -0.1432888955, -0.0457078032, -0.0515255854, -0.0706130490, 0.0741365999, -0.0476843454, 0.0127983084, -0.1507473737, 0.0015784472, 0.0607126802, 0.0177578628, -0.0598796196, 0.0188076720, -0.1029221117, 0.1632955074, -0.0449622683, 0.1122107357, -0.0395715125, 0.0135477828, -0.0179794282, -0.0504710190, -0.0135205071, 0.0562357195, 0.0338439718, 0.0020915119, 0.0368876010, 0.0654675215, 0.0001235010, 0.0077397567, 0.1517460644, -0.0154786240, -0.0946074873, 0.0012536903, 0.0446827859, -0.0291686095, 0.0429881997, 0.0783677697, 0.0896643102, -0.0629191101, -0.0916910991, -0.0174802318, -0.0738324523, 0.0493636914, 0.0108020157, 0.0871503800, 0.1212230027, -0.1158219948, 0.1117395833, -0.1302012354, 0.1712036580, -0.0911021456, -0.0342215970, 0.0180511437, -0.0222156812, -0.0292442683, -0.0177757740, -0.0230507199, -0.1114437506, 0.0121019576, -0.0321599692, -0.0317288712, -0.0873318091, -0.0575678982, 0.0531625152, -0.0932706147, 0.1028482765, 0.0312466342, 0.0661152676, 0.0720710754, 0.1109047011, 0.0692846105, 0.0467256233, 0.0690142736, 0.0288686957, -0.0609246120, 0.1033500955, 0.1406491548, -0.0016116991, 0.0239312854, 0.0287900902, 0.0749045536, 0.0320521742, -0.0283496007, 0.0889203399, -0.0992063507, -0.0701510534, 0.0867553353, 0.0764666274, -0.1072446778, -0.0264386404, -0.0780131593, 0.0190269407, 0.0901568681, -0.0384211056, 0.0384002700, -0.0726817399, 0.1426562369, 0.0275001135, 0.0364195704, 0.0532303415, 0.0696383864, -0.0526716895, 0.0964364037, -0.0596914068, -0.0952888355, -0.0264478568, -0.0072094165, 0.1244413704, -0.0376815498, 0.1109726653, -0.0672607422, -0.0032436573, -0.0161838774, -0.0314851105, -0.0310936552, -0.1090711504, -0.0352095999, -0.0197496694, -0.0343711860, -0.0713814571, -0.0421792157, -0.0481541790, -0.0293761920, 0.0768752098, -0.0367311351, -0.0612408407, 0.1491069794, 0.0882791132, 0.0113344043, 0.1825324893, 0.0542333163, 0.0649257973, 0.0074352524, -0.0117614986, -0.1073652655, 0.0059579927, -0.0650766119, -0.0394442976, 0.0112839760, 0.1261456311, 0.0141986115, -0.0734307393, 0.0549862944, 0.0507373363, -0.0019225654, -0.0410966240, 0.1168333814, -0.0317687057, 0.0533710830, 0.0059659844, -0.0293315984, -0.0190735627, 0.0971078202, -0.0700371787, 0.0429708622, -0.0911948606, 0.0928870738, 0.0730579123, 0.0265884195, -0.0714116171, 0.0276590176, 0.0364778601, 0.0900189355, 0.0411653854, -0.0666400790, 0.0676278099, -0.0970174372, 0.0066467742, -0.0875036344, 0.0755599886, -0.1117886528, 0.0061657326, 0.0552499928, -0.0878665969, -0.0140673500, 0.0141890580, -0.1386661977, -0.0289495923, 0.0955189541, -0.0852655396, 0.0977781489, 0.0424320363, 0.0439900160, -0.0482431054, 0.0541036166, -0.0562236793, 0.0015868427, -0.0150320688, 0.0603227466, 0.0667163655, 0.0428539887, -0.0054066679, -0.0005990902, 0.0624138899, -0.1263897270, 0.0618227422, -0.1088396683, -0.1246033758, 0.0342164971, 0.0084171612, -0.1615453660, 0.0170003716, -0.1299436837, -0.0096365903, -0.0610303655, 0.0333008803, 0.0476591066, 0.1060460508, 0.1442971826, 0.0591292642, -0.0225993916, 0.0692377463, 0.0861721933, -0.0805465505, -0.0616981834, 0.0105126109, -0.1041458175, -0.0383852273, 0.0244082920, -0.0439240783, 0.0376980789, 0.0565549843, -0.1328106970, 0.0038286704, -0.0303964466, -0.0825018361, -0.0964674279, 0.1107059121, -0.0439630933, -0.0609281957, 0.1299771219, 0.0056937835, -0.0197046082, -0.0078969263, 0.1053742766, 0.1104433537, 0.0657000020, 0.0241065025, 0.0585506856, 0.0334156379, 0.0368307121, -0.0587694570, -0.1118196324, 0.0722074732, -0.0229397733, -0.0387811698, -0.0114463428, -0.0059036319, 0.0322007425, 0.0559003763, 0.0177563485, 0.0628436357, -0.0528895073, 0.0642722920, 0.1180150285, -0.0002210088, -0.0569736399, -0.0827559307, 0.1247160062, -0.1125017777, 0.0371247157, 0.0370431840, 0.0015370152, -0.0188904330, 0.0214177445, 0.1069054678, 0.0297294054, 0.0668499619, 0.0612418726, 0.1016523838, 0.0353369676, 0.0757445022, 0.0440981686, 0.0456874631, 0.0321660005, 0.1160057038, -0.0289221630, 0.0835567340, -0.0045681479, -0.0599405468, 0.1237693056, -0.0055349795, 0.1358193755, -0.0053276783, 0.0493474156, -0.0099920770, 0.0455904044, 0.0478146635, -0.0619689040, -0.0830804110, 0.1014671251, 0.0259915367, -0.0452086218, 0.0004194857, 0.0749774948, 0.0421355031, -0.0676281899, 0.0310257487, 0.0337219872, -0.0728176758, -0.0340359695, 0.0167306010, -0.0432289802, 0.0261529926, 0.0148239108, -0.0274225194, 0.1088666916, 0.0262510404, 0.1089702994, -0.0303967632, 0.1473814845, 0.0950142667, -0.0151077313, 0.0043089953, -0.0346040502, 0.0886634961, -0.0958472714, -0.1007389799, 0.0545432605, 0.0479447506, -0.0632945746, 0.0607036836, 0.0683795363, -0.0682900771, -0.0260966029, -0.0689893737, -0.0301388595, -0.0246206056, -0.0863407478, -0.0743751600, 0.0373632796, -0.0243797954, 0.0537011772, 0.0164648034, 0.1068157107, 0.0522322580, 0.0206384677, 0.1005275771, 0.0424595550, 0.0699382573, -0.1160422787, 0.0393357426, -0.0711950362, 0.0286873579, -0.0629141629, 0.1130304560, -0.0005510609, -0.1091966778, 0.0243003648, -0.0258330554, -0.0222537145, -0.0169538055, -0.0379268825, -0.0168384071, -0.0190016422, 0.0898385048, -0.0321594551, -0.0760564506, 0.0299370755, 0.0870823711, -0.0233498365, -0.0369536765, -0.0294466130, -0.0934200212, 0.1400981992, 0.0246943627, 0.0385035276, 0.1600320041, 0.0062552146, 0.0945162252, -0.0984277129, 0.0861031562, 0.0212116316, -0.0244335756, -0.0692153871, 0.0463516377, -0.0577659458, 0.0352587737, -0.0470280983, 0.0624087080, 0.0065736738, 0.0882913843, -0.0199766625, 0.0002223189, -0.0439362489, -0.0709152445, 0.1182369143, -0.0274809040, -0.1216478124, -0.0737897009, -0.0234738905, 0.0939114466, -0.1333928108, -0.0955451280, 0.0824697167, 0.0108516887, 0.0001990439, -0.0324198976, -0.0746460110, 0.0317887850, -0.0431106351, -0.1036765128, -0.0649244860, -0.0180213191, 0.0416220799, -0.0480926260, 0.0196141619, -0.0092466781, 0.0035234757, -0.0869621336, 0.0217664354, 0.0383865498, 0.1054398715, -0.0218600407, -0.0125125460, 0.1109437197, -0.0392521247, -0.0052326233, 0.0343274474, 0.0205939151, -0.1831076443, 0.0512810051, -0.0115877734, -0.0318501405, -0.1142513528, 0.0281062871, -0.0270179007, -0.1822840720, -0.0542251542, -0.0720503554, -0.0503966101, -0.0133898025, -0.0265930220, 0.1036590934, 0.0497329980, -0.0236386284, -0.0224129763, 0.0010555414, -0.1538155079, 0.0333537124, -0.0194287300, 0.0701940581, 0.1406601369, 0.1576755941, -0.1010389253, -0.0260483902, -0.0446799360, -0.0338248722, -0.0077585466, -0.1148513630, 0.0780236125, -0.0204199124, -0.0947367772, 0.0306155067, -0.0210300833, 0.0211795457, 0.0591158494, 0.0555018671, 0.0576408766, -0.1206491962, -0.1509777904, 0.0494723208, 0.0220941193, 0.0601000823, 0.0159830712, 0.0813788325, -0.0411124229, 0.0495312735, 0.0380074419, 0.0469268076, -0.0062238215, -0.1477913111, 0.0231547300, -0.1321475506, 0.0775761753, -0.0685849860, -0.0889427066, 0.0416269712, 0.0472973213, -0.1344804615, 0.0466858558, -0.0605216920, 0.0632455125, -0.0640605092, 0.0453035161, -0.0054885587, -0.0037431035, -0.0437617302, 0.0599216782, 0.0235224385, 0.1115676314, 0.0438623726, -0.0024985143, 0.0881256089, -0.0472767539, 0.0375050642, -0.0706745312, -0.0523970127, 0.0122874482, 0.0855519846, 0.1164891124, 0.1094733551, -0.0002474040, -0.0035021019, 0.0405622721, 0.0705055073, 0.0449348018, -0.0555355735, 0.0388067476, -0.0321351998, -0.1031977832, 0.0504312441, -0.0568791404, -0.1071550772, 0.1133451238, -0.0460459478, 0.0535713919, -0.0615322627, 0.0405261330, -0.0507895276, 0.0858116299, -0.0376506448, 0.0652657300, 0.0341540314, 0.0088423965, -0.0387609266, 0.1249129772, 0.1015589982, -0.0271898806, 0.0254722852, -0.0181817506, -0.0450974554, 0.1233478040, -0.0487816446, 0.0137869567, -0.0035765967, 0.0829566866, 0.0927820355, -0.0660848543, 0.0615919828, 0.0029299851, 0.0536825620, 0.0269143917, 0.0497644246, 0.0857650712, 0.0373183489, -0.1132334322, 0.0951731727, -0.0269187726, -0.0654677153, -0.0127359657, -0.0423795767, 0.0917128697, -0.0836467668, -0.1829304099, -0.0938599035, 0.0545763783, 0.0728859529, 0.0174073577, -0.0011860140, -0.0814188048, -0.0246084072, -0.0237031393, 0.0470506586, -0.0554367043, -0.0840621367, -0.0658975765, 0.0877476633, 0.0835678726, -0.1224593669, 0.0591981485, 0.0934619904, 0.0518391728, 0.0908712298, 0.0199872795, 0.0598709174, 0.0187731627, 0.1530796438, -0.0126006836, 0.0908386707, 0.0191701259, 0.0567372292, 0.0243648607, 0.0898159444, -0.0870351195, -0.0185143668, 0.0283731837, -0.0289591569, -0.0639052317, 0.1700840294, -0.0051589268, -0.0604963452, 0.1142304987, -0.0368284062, 0.0121458964, -0.0659965351, 0.0831135288, 0.0367714502, -0.0543537661, -0.0669422448, 0.0900235772, -0.0547184832, -0.0073088501, -0.0344198048, -0.1013422012, -0.0819686204, 0.0759808570, 0.0479395986, -0.0089177340, -0.0211934857, -0.1264676899, 0.0414955653, -0.0505480431, 0.0246825926, -0.1406300217, 0.0442074388, -0.1258302331, -0.0372226015, 0.0377243645, -0.0438444205, -0.0247690026, 0.0712259337, -0.0015123547, -0.0852841586, -0.0614903979, -0.1416468769, 0.0627631545, 0.0192269515, 0.0302496105, 0.0620946325, 0.0532582328, -0.0232953504, 0.0631007180, -0.1727539003, 0.0765656233, 0.0612146147, 0.0008083036, 0.0336131714, 0.0569051206, 0.0271485280, 0.0716164708, -0.0594861098, -0.0142169371, 0.0184531473, -0.1608973444, -0.0839672163, 0.0566045903, -0.0177584644, -0.0474087447, -0.0164251179, 0.0563123114, 0.0413220748, -0.0008049310, -0.0831781030, 0.0895869061, -0.0777201056, -0.0611222014, 0.0256721545, -0.0374697074, -0.0433855765, -0.1158673987, 0.0577593483, 0.0264576431, -0.1740906239, 0.0084646959, 0.0510718599, -0.1143317521, -0.1023905277, -0.0593226925, -0.1053120717, -0.1511466056, -0.0105317878, -0.0161229931, 0.1426019520, -0.0658435896, 0.0028949089, 0.0909742191, 0.0297893118, -0.1001407281, -0.0225273054, -0.0280199666, 0.1204850674, -0.0977669507, 0.0443292074, 0.0334017836, 0.0257820934, 0.0607881695, -0.0187133700, 0.0358856246, 0.0376720317, 0.0652404577, -0.0260583069, 0.0109721394, -0.0221187659, -0.1415495574, -0.0750312731, -0.0772621706, -0.1372243017, -0.0558284894, -0.0799837261, -0.0409850702, 0.0692282170, -0.1411149055, 0.0188184269, 0.0178729575, -0.0425563045, 0.1091292650, 0.0203469079, 0.1087832004, 0.0037174090, -0.0205388591, -0.0667086020, 0.0806041509, -0.0972275957, -0.0040430059, 0.0357509702, -0.0486508533, 0.0524835885, 0.0036440291, 0.0484963581, -0.2044388503, 0.0492236242, 0.0408525765, -0.1405371428, 0.0232123937, -0.1053905413, -0.0235960130, 0.0591637827, 0.0355551578, -0.0230613202, 0.0485454686, 0.0009552061, 0.0071657193, -0.0201607402, 0.0415066555, 0.0305830799, 0.0259958357, 0.0260003638, 0.0813710839, 0.1383573115, -0.1005051658, 0.0430790223, -0.0218590107, -0.0175671224, -0.0155494707, 0.1107627824, -0.0260169450, -0.0512791425, -0.0695023909, -0.0123915588, -0.1111951768, -0.1227090508, -0.1508187056, -0.0592267662, 0.0817936063, 0.0163151156, -0.0624175966, 0.0143730892, -0.0433579087, 0.0062799770, -0.0335056633, 0.1232959107, -0.1002378538, -0.0446205735, -0.0702466071, -0.0373664312, -0.0932213366, -0.0383657776, -0.0602899231, -0.0798918381, -0.0530682243, 0.0824250504, -0.0192258991, 0.0780940428, -0.0528876707, -0.0689282492, 0.1123344302, -0.0563265420, 0.0069029862, 0.0337591320, 0.0821255893, 0.1029024869, 0.0054738126, -0.0082539609, 0.1375996023, 0.0258552358, -0.0275510885, -0.0001145503, 0.0153032932, 0.1065767929, 0.1080517545, -0.0461523943, 0.0678913444, -0.0806529522, -0.0037710839, -0.0358587094, 0.1537602097, 0.0102812573, 0.0468149707, 0.0024733094, 0.0811379477, 0.0963954180, 0.0079734046, -0.0841331407, -0.0224157777, 0.0242441930, 0.0443788320, -0.0714395642, 0.0183258932, 0.1355561614, 0.0124601964, -0.0513006710, -0.0672643334, -0.0317660645, -0.0160589498, -0.0584235154, -0.0071304543, 0.0138709396, 0.0760613233, 0.0290299244, -0.0807315931, 0.1510497332, 0.0865209103, 0.1232750714, -0.0484048761, -0.0739966407, 0.1214619800, -0.0562407486, -0.0124930544, 0.0831572786, 0.1187141612, -0.0411775485, -0.0688476637, 0.1281651706, 0.1241401210, 0.0871652737, 0.1107710078, 0.1188684180, -0.0382205583, -0.0837017596, -0.0715394467, -0.0709523112, 0.0204011425, 0.0230697617, -0.0480102487, -0.0374392457, -0.0332278162, 0.0478505567, -0.0746002272, 0.1355312020, 0.0912197158, -0.0676167831, -0.0816606805, -0.0460629389, -0.0588122346, 0.0066634794, 0.0859613940, 0.0069603515, -0.0070479261, -0.0494684614, 0.0463380925, 0.0590576567, 0.1020503193, 0.0420448296, -0.0395241901, -0.0288088452, -0.1126690358, 0.0338552780, -0.0438606441, 0.0282271653, -0.0801444277, -0.1054897904, -0.0205873027, -0.0822088048, 0.0761033520, 0.0443559065, -0.1266744733, -0.0031237192, 0.0568034165, 0.0004339530, 0.0648330152, -0.0495501757, -0.0873186067, 0.0517890155, -0.0108996285, 0.0811796039, -0.0737765208, -0.0886265635, 0.0619446449, -0.0524701215, 0.0850330517, 0.0304132104, 0.0899860859, -0.0403131731, -0.0642338470, 0.0603921153, 0.0248641763, -0.1188142151, -0.0203146767, 0.0250233412, -0.0728052109, 0.0933442786, -0.1040595025, 0.0512588806, 0.0212426372, -0.0666094869, 0.0314244032, -0.0262074638, -0.1285992563, 0.0260177664, -0.2146819532, 0.1169307157, 0.0519146100, -0.0322778188, -0.0704245567, 0.1049113050, -0.0998710170, -0.0359219499, -0.1540876776, 0.0449291505, 0.0033055306, -0.1723130196, 0.0363846011, -0.0492617488, -0.0251192115, 0.0392985977, 0.0252960883, 0.0289406665, 0.0115020508, 0.0741391927, 0.0681552291, -0.0834367946, 0.0367846079, -0.1369181722, 0.0329461806, -0.0220159311, -0.1335914135, -0.1214115992, 0.0989115462, 0.0686097294, 0.0757988542, 0.0433013737, 0.0533228181, -0.0111119933, 0.0474317670, 0.0054481495, -0.0681110620, -0.1395221502, -0.0190470666, 0.0185262635, -0.1589625031, 0.0645044968, 0.0555422828, 0.0276174117, -0.0191753525, 0.0338177830, 0.1130758524, -0.0658879057, -0.0801929608, 0.1267528683, -0.0181936026, -0.1195029989, 0.1303629875, 0.0073245452, 0.0004079617, -0.0576382764, 0.0616437718, -0.0745040700, -0.0724912584, 0.0301160142, 0.1230740100, 0.0243336372, 0.0108701643, -0.0532737859, 0.0135825397, -0.0977430269, 0.0237212181, -0.1364303082, 0.0157731380, -0.0542794392, -0.0393351689, -0.1131843403, -0.0909780115, -0.0864253342, 0.0739624128, 0.1512495577, -0.0208101701, 0.0265708193, 0.0468195900, -0.0545956679, -0.0206951033, -0.0235076789, -0.0383456461, 0.0910325050, 0.0535739735, 0.0832422897, -0.0577161573, -0.0494696572, -0.1113700122, 0.0059266649, -0.0711319745, 0.0611248203, 0.0407933518, 0.0236209538, -0.1336587220, -0.0462135784, 0.1012031510, 0.0599659011, 0.0341313742, 0.0546167381, -0.0201073717, 0.0377836078, 0.0309240445, -0.0643643141, -0.0977309048, -0.1001174822, 0.0141202994, -0.0220455527, -0.0671819970, 0.0067602037, 0.0189257599, 0.0536608361, 0.0838054344, -0.0114399586, -0.0960165113, -0.1251049936, 0.0028911210, -0.0586423203, 0.1115742475, -0.1129851639, -0.0873226151, 0.0745922700, 0.1280111820, -0.0449351221, 0.0552596264, 0.0123054814, 0.0895024166, -0.0004123924, -0.0928612277, 0.0471037365, 0.0356410891, 0.0045814547, -0.0159251094, -0.0050952383, 0.0439195856, -0.2032631040, -0.0005109661, -0.0733830333, -0.0850645676, 0.0563585162, 0.0263290536, -0.1339971423, -0.1453316063, -0.1720922291, 0.0036960135, -0.0524562187, -0.0097269658, -0.0079666479, -0.0783938318, -0.0579081401, -0.0384686366, -0.0071638846, 0.1333298534, 0.0367385373, 0.0412164479, 0.0603822470, -0.0723800883, 0.1037933975, -0.0441645682, 0.0567180291, -0.0938883275, -0.0124246469, 0.0663004667, -0.0199135114, -0.0044792416, -0.0131292455, -0.0334319919, -0.1844779998, 0.1633528769, 0.0031045547, -0.0327601060, -0.0442328528, -0.1253638566, 0.0042741369, 0.0469314270, 0.0106091313, 0.0143809896, 0.0567288436, 0.0834739655, -0.0754509792, -0.0283822846, 0.0549409576, 0.0732351169, 0.0959217399, -0.1032521427, 0.0174560323, 0.0353724472, -0.0133931031, -0.1173647121, 0.0804890171, 0.0499771573, 0.0479195714, -0.0925989002, 0.0910932198, -0.0068139653, 0.0228853654, -0.0990691707, -0.1204145402, -0.0994545966, -0.0827980638, -0.0446444526, 0.0042388733, -0.0500428230, -0.0540142879, 0.0892831907, 0.0018048196, 0.0725642368, -0.1159218848, -0.0881384388, 0.0228119679, 0.0908529013, -0.0291763935, 0.0396680757, 0.0262413379, -0.0558142290, 0.0273011792, 0.0556194596, -0.0445324145, -0.1021557525, 0.0593287572, -0.0570847653, 0.0566637702, 0.0423742272, 0.0997701585, -0.0227895975, -0.0373503529, 0.0312165115, 0.1241988987, -0.1523332149, -0.0865767896, -0.0485202707, -0.0186696369, -0.0824850872, -0.0644940361, 0.0879702494, -0.1348863542, 0.0549797378, 0.0882543474, 0.0118002174, -0.0764315203, 0.0722316056, -0.0167641994, -0.0137785999, 0.0212880317, -0.0895885006, 0.0563070327, 0.0254039206, 0.0157233551, 0.1036861762, 0.0661765784, -0.0689178556, 0.0185697917, -0.1070663109, 0.1067577824, -0.0264369827, 0.0036924388, 0.0342024118, 0.0672556162, 0.0903291479, 0.0536860935, -0.0647951365, 0.0576645695, 0.1211166903, -0.0026696478, -0.0284349304, -0.0793874860, 0.0924489945, -0.0669283643, 0.1294835657, 0.0235660337, 0.0361137241, 0.0640691072, 0.0325655341, 0.0057413457, -0.0147909150, -0.0534752235, 0.0551002920, 0.0738398731, -0.1273119301, -0.0311883334, -0.0508547612, -0.0917007029, 0.0296856146, -0.0076140938, -0.0545883738, -0.0942285061, -0.0900088176, 0.0267403647, 0.0530336909, -0.0456208885, 0.0177844316, -0.1310199201, 0.0229247566, -0.1136316434, -0.0260182265, -0.1338056177, 0.0300325919, -0.1000063717, 0.0204477347, -0.1003355980, 0.1357291341, -0.0153079377, 0.1253507286, -0.0466127507, 0.0721595362, -0.0820408836, 0.0906094909, -0.0007953480, 0.0796505138, -0.0414688252, -0.0989656597, 0.1256745756, -0.0369328782, 0.1480467021, 0.0023117373, 0.1367235333, 0.0806498751, -0.0607795604, -0.0585230030, 0.0546529219, -0.0251665730, -0.0433660224, -0.1074259430, 0.0619789846, -0.0036881154, -0.0059559639, 0.1587169766, 0.0710783750, -0.0212509613, 0.0249680448, -0.0058874078, 0.0108408844, 0.0604826622, -0.0506137572, -0.0032458710, 0.0391579159, -0.0459426083, 0.1005867720, -0.0397829376, -0.0201598331, 0.0656884164, 0.0070733470, -0.0848909393, 0.0753037259, -0.1135618463, 0.0607737675, 0.0836604536, 0.0767404139, -0.0368471034, 0.1042667553, -0.0757196993, 0.0304613207, 0.1089726239, 0.0569443628, 0.0184806734, -0.0661724582, 0.0406496003, 0.0881099850, -0.0471906252, -0.0117832683, 0.0682713017, -0.0845190659, 0.1235940754, -0.1151717827, 0.0562555641, -0.1064566448, -0.0376258269, -0.1290123612, 0.0445494615, -0.0730950534, -0.0388994813, 0.0609176122, 0.0169852208, -0.0917036906, -0.0780497417, 0.1090486646, -0.0832108036, -0.1198528856, 0.0633144155, -0.0480391458, 0.0671622828, 0.0989444107, 0.0016047392, 0.1053181589, 0.0424286462, -0.0935250744, -0.0686693788, -0.0268496275, -0.0070044696, -0.0512653328, 0.0576853342, -0.0159033649, 0.0402471833, -0.0532278679, 0.0186178684, 0.0982519239, 0.0256368276, -0.0829305425, 0.0803019106, -0.0305093005, -0.0381259210, 0.0810446292, 0.0025156129, -0.0944103226, 0.1068362445, 0.0935533717, -0.0118125547, 0.0703718215, 0.0025608442, -0.0751098543, 0.0251983907, -0.0921027213, 0.0435282476, -0.1335155964, -0.0165289510, 0.0276827514, -0.1127760932, 0.0520646162, -0.0440428667, -0.0903914645, 0.0309086423, -0.0660918355, 0.0052472400, -0.1259951741, 0.0205812603, 0.0639844984, -0.0275092926, -0.0470316485, 0.0789343715, 0.0249633249, 0.1011320874, 0.0753586963, -0.0709530190, -0.0085089905, 0.0466279201, -0.0442473069, -0.0362146869, 0.0953610316, -0.1741311103, 0.0071931072, 0.0228731073, 0.0841005966, -0.0563030243, 0.0532341115, 0.0231167935, -0.0481019616, -0.0127720442, 0.0727789253, -0.1323116720, -0.0977758467, -0.0167771466, 0.1197221056, 0.1197403669, -0.0863264427, -0.0369326472, 0.1259849072, -0.0907973647, -0.0717336014, -0.0921362489, 0.0240213815, -0.0507803522, 0.0053292913, -0.0439396687, 0.1663744748, -0.1015155390, -0.0135196839, 0.0954644158, 0.0550175384, -0.0302501749, 0.0668190271, 0.0779143348, 0.0110001098, -0.0319528915, -0.0080406563, 0.1147904769, 0.0530594140, 0.0363009460, 0.0826233774, 0.0254899431, 0.0453656800, 0.0094724027, -0.0281728636, -0.0583946370, -0.0957581624, -0.0912284181, -0.0391915105, -0.0589290224, -0.0684611350, 0.0796946734, -0.1072428972, -0.0338774882, 0.1146141514, -0.0524371639, 0.0609876551, 0.0509560257, 0.0722253174, -0.0363190286, -0.1020999029, 0.0172721669, -0.0970459878, -0.0092320247, -0.0157577880, -0.0171534829, 0.0497719795, 0.0300408211, -0.0771289542, 0.1180134788, -0.0414441340, 0.0324841999, 0.0506351404, 0.0699606761, 0.0249022860, 0.0475621149, -0.0612810142, 0.0064249253, 0.0012076194, -0.0918338224, 0.1046365350, -0.0296637900, -0.0073100333, 0.0504076406, 0.1058908626, 0.1235739514, 0.0754050985, -0.1511783004, -0.0006987766, -0.0391412899, -0.1089932024, 0.0197516549, -0.1612562835, -0.0456911772, -0.0547614843, -0.0957633033, 0.0262184329, -0.0106293187, -0.0160634313, 0.0427110903, 0.0273797493, 0.1266430169, -0.1572336704, -0.0819600746, -0.0126621798, 0.0444258377, -0.1028758585, 0.0023098795, -0.0149295833, 0.0570684709, -0.0200594068, 0.0253017265, 0.0246516690, 0.0882049352, 0.0590494201, -0.0318068229, -0.0757897645, 0.0445080362, 0.0554178022, -0.0329780988, -0.0573049448, 0.1071671546, -0.0510620065, -0.0480601229, 0.1260026991, -0.0351013914, 0.1357899904, -0.0601680242, 0.0596242584, 0.1109329462, 0.0178928021, -0.0478149951, 0.0800648257, 0.0001645160, -0.0170741230, -0.0780455619, 0.1019700468, 0.0713939890, -0.0667236447, 0.1054665744, 0.0498741902, -0.0788194537, -0.0097438162, -0.0609948188, 0.0808333158, -0.0545524098, -0.1081629843, 0.0041831913, -0.0819021836, -0.0584038608, 0.0645936653, -0.0180384796, -0.0767967254, 0.0480668992, -0.0236397963, -0.0489277095, 0.0823702365, -0.0890470073, 0.0636596903, 0.0363411866, -0.0087381378, 0.0549463518, -0.0112874471, -0.1278008223, -0.1068886295, -0.0650883168, -0.0309879426, 0.0119467536, -0.0127687734, 0.1042698100, -0.0413557626, 0.0813238099, -0.0827115029, 0.0810906738, 0.0007704188, 0.0469081290, 0.0305583533, 0.0502760820, -0.1031137556, 0.0974588245, -0.0737930983, 0.0314165950, 0.0481338538, 0.0893154591, 0.0331444368, 0.0367351323, -0.0556087196, 0.0569101274, 0.1296979934, 0.0759459883, 0.0476334989, -0.0664930344, 0.0201843176, -0.0687993690, -0.0933976471, -0.0689740106, 0.1047228649, 0.0826008841, -0.1307030916, -0.0765357688, 0.0839351416, 0.0418567210, -0.0640421063, 0.0898067132, -0.0297628995, 0.0483630486, -0.0645286739, 0.0353587009, 0.0113567980, 0.0289091747, 0.0588701293, -0.0676575229, 0.1012807712, -0.0004548806, 0.1324065179, 0.0141422395, 0.0961725265, -0.0743771195, -0.0590826906, -0.1187933236, -0.0539162606, -0.0886784270, -0.0754151121, -0.0897141695, -0.1163230613, 0.0440202206, -0.0746904388, 0.0691358373, -0.1153124347, -0.0157565586, 0.1004985645, 0.0482118540, -0.0781114846, 0.0137140993, -0.0015812396, 0.0140947038, -0.0352057181, 0.0555611178, 0.0232903529, -0.0534332320, 0.0053421957, 0.0642096251, 0.0431669541, -0.0267485734, -0.0656694993, 0.0139426300, 0.0439144038, -0.0740990266, 0.0024834718, -0.0371272974, -0.1180498526, 0.0721306279, 0.1063655317, -0.0607745349, 0.0245437380, -0.0518510044, -0.0214114487, -0.0696236342, -0.0913649201, -0.0312250089, 0.0980394110, 0.0222068429, -0.1443137974, 0.0589650683, 0.1101196110, 0.0081050992, -0.0815477818, 0.1218835562, 0.0120630274, -0.0874489769, 0.1237289160, 0.0931308270, -0.0519492589, -0.0955348387, 0.1313816756, -0.0289518554, 0.1272676885, 0.0219915416, 0.0853144377, 0.0738035217, 0.0351414420, -0.0488519110, 0.0773565397, -0.0084741646, 0.0737225264, -0.0330679826, 0.0447262898, -0.0869649723, -0.0559934862, 0.0133610796, -0.0683189556, -0.0560901836, 0.0570482612, -0.0023057926, 0.0494450517, -0.0940622315, -0.1061724201, -0.0121533079, 0.0091269854, -0.0419214219, -0.0893734097, 0.0715508834, -0.0265909135, 0.0920904577, 0.0833762437, -0.0775831714, 0.0535386577, -0.1581401676, 0.1084313616, 0.0970836058, -0.0637794882, 0.0949658081, -0.0103521561, 0.0457148999, -0.0148444511, 0.0010846707, -0.0108158467, 0.0339796394, 0.0172278117, 0.0828777552, 0.0132190036, 0.1114075705, 0.0965433419, 0.0541354567, 0.0017636695, 0.1122117713, -0.1811720729, -0.0631730855, -0.1520478874, -0.0929290950, -0.0403679870, 0.0144397523, -0.0983534008, 0.1027039513, -0.0783941448, 0.0055422597, 0.0567533970, 0.0539149009, 0.0484422706, 0.0128974458, -0.0930647627, -0.0146203432, -0.0103195105, -0.0460014828, 0.0887154192, -0.0992958322, 0.0413652100, 0.0625414625, 0.0351463035, -0.0105383266, 0.0482700877, -0.1361949742, -0.0736566857, 0.0204621535, -0.0373164453, 0.0292369016, -0.0856007785, -0.0708845556, -0.0371907949, 0.1032070518, -0.0511497147, -0.1374930590, 0.1184464470, 0.0732934549, -0.0297038350, 0.0474200211, 0.0081422022, -0.1170381233, 0.0074237068, -0.0465190448, -0.0684852079, -0.0996724293, 0.0471457541, 0.0833409503, 0.0473726913, -0.0830230340, 0.0536361821, -0.0295992997, 0.0774726868, -0.0951800346, -0.0257761776, -0.0856769383, -0.0661784187, -0.0636752099, -0.0357854068, 0.0411526710, -0.0594385676, 0.0469005331, 0.1261950433, -0.0254525524, -0.0200164169, 0.1467919648, -0.0537981018, -0.0689600781, -0.0503012463, -0.0905958116, 0.0074311891, 0.0124144629, -0.0062337504, 0.0086331153, -0.0349308550, -0.0043214657, -0.0443449616, -0.0413657203, -0.0226633586, -0.0476330929, -0.0320925340, -0.1386644244, 0.0099342382, 0.0574987642, -0.0705789402, 0.0088622784, -0.0001608027, 0.0113284672, -0.1098089442, -0.1075662449, -0.0899421349, -0.0082895728, 0.0557665601, 0.0513304919, 0.0581297427, 0.0762453005, 0.0663357601, -0.1452258229, 0.0471017584, 0.0419821590, 0.0415842049, -0.0712987334, 0.0149415480, -0.0216902625, 0.0870791748, 0.0509243049, 0.0516649708, 0.0003216655, -0.0139664104, -0.0319869965, 0.0828944445, 0.0050483835, 0.0184211954, 0.0639918968, 0.0326298289, -0.1727907658, -0.0130498018, -0.0597611703, -0.0103106080, 0.0483100042, -0.1614501476, -0.0185095500, -0.1188428551, -0.0836613700, 0.0668761060, -0.1863181144, -0.0283854418, -0.0185905043, -0.0151024982, -0.1502269208, 0.0591872968, 0.1178770438, -0.1139224544, -0.0299645904, 0.0659702048, 0.0154924188, -0.0873950571, -0.1836952418, -0.0241804607, 0.0050687687, 0.1166424081, 0.1093076244, -0.0943852663, -0.0412366316, -0.0290472042, -0.0530636162, 0.0387013182, -0.0319949053, -0.0115769878, 0.0227598194, 0.0132913301, 0.1145176440, 0.0276698750, -0.0047046584, -0.0696084872, 0.0206160769, -0.0196216702, -0.0004709409, 0.0533392243, -0.0306898933, 0.0467190333, 0.0812257528, 0.0178006217, 0.1051232293, 0.1298761666, -0.0195059087, -0.0903194845, -0.0415912531, -0.0752692446, 0.0843967721, 0.0889526382, -0.0768695697, 0.0663840696, -0.0779725164, -0.0357680209, 0.1062174141, -0.0945877284, -0.0438279286, 0.0974326953, -0.0251725707, 0.1057247445, -0.0426006578, 0.0859012827, -0.0461244173, 0.1184032261, -0.0723436624, 0.1375400126, 0.0996906087, -0.0965153947, 0.0385709368, -0.0502274483, -0.0816409290, 0.0032065050, 0.0033910682, -0.0582038946, -0.0978959277, 0.0397169814, 0.1416467428, -0.0933872536, -0.0400421433, -0.0633014515, 0.1111404747, 0.1159132272, -0.1055932045, 0.1891996115, -0.0799502805, -0.0633633733, -0.0610877275, 0.0399178490, -0.0945048630, -0.0035987161, -0.0414466299, -0.0307506602, -0.0882267654, -0.0780551955, 0.0203481372, -0.0313532017, -0.0352931879, 0.0535447001, -0.1021818593, 0.0056181829, 0.0730795860, 0.1195937768, -0.0253738984, -0.1021855772, 0.1095647663, -0.0443285368, -0.1229609251, -0.0616807379, 0.0240050107, 0.1199912354, -0.0560338907, 0.0003150569, 0.0671547055, -0.1394951642, -0.0640024245, -0.0589598045, -0.0246632732, 0.0645068586, 0.0045833248, 0.0744427666, 0.0302291419, 0.0308672115, 0.0405208468, 0.0924780220, -0.0146435266, 0.0826460272, -0.0961776599, 0.0372172408, 0.0891140997, -0.0321027040, -0.1284139752, -0.0588667803, 0.0779933259, -0.0675655380, -0.0252921171, 0.0609742515, 0.1091484129, -0.0372249447, -0.0078443587, 0.0777310356, 0.1128951609, 0.0652189404, 0.0546490587, 0.0268452745, 0.0414234959, 0.0046175448, 0.0448382981, -0.0165822785, -0.1274150908, -0.0701025501, -0.0452896357, -0.1039172411, 0.0007398264, 0.0695118979, 0.0464047343, 0.0962232798, -0.0514956340, -0.0106673706, -0.0992934704, -0.0728801638, -0.0807775334, 0.0505257882, -0.0524264686, -0.1553072631, 0.0464739613, -0.0955638662, 0.0987808555, -0.0603033118, -0.1298489869, 0.0375347994, 0.0536793806, -0.0228310451, 0.0630182922, 0.0063870531, 0.0050976290, -0.0519324020, -0.0122796763, -0.0603300817, 0.0651499033, -0.0390186310, -0.0089082392, -0.0336851440, 0.0375290215, -0.1679544300, 0.0489181876, 0.0022127614, -0.0352610908, 0.0214377455, 0.0845349878, 0.0876264349, -0.0493514538, -0.0092045106, -0.0244025774, 0.0249361992, -0.1251989901, 0.0019223930, 0.0645034462, -0.0336688571, 0.0326500572, -0.0321052782, 0.0402003415, -0.0950105041, 0.0508262292, 0.0285588559, 0.0440917723, 0.0178607479, 0.0800769255, -0.0717262700, 0.0834274814, -0.1210740656, 0.0355657041, -0.0657596812, -0.0787292346, 0.0279734600, 0.0248906072, -0.0584763996, -0.0855157077, 0.0740340352, 0.0238856561, -0.0841137022, -0.0315693654, -0.0554901995, -0.0767724440, -0.0469862223, 0.0556155927, 0.0904043093, 0.0002726167, -0.0290800314, -0.0246539544, -0.0631315038, 0.0564650632, -0.0769154876, -0.0985993966, 0.0358733274, -0.0616454333, -0.0502732433, 0.0067918529, 0.0831725448, -0.1380653679, 0.0472778343, 0.1456414461, -0.0070172641, 0.1242652610, 0.0670248196, -0.0184957050, -0.0334347151, 0.0552913472, 0.0073058396, -0.0640433729, -0.0104317721, 0.0167538188, 0.0157072395, 0.0095454147, -0.0335759409, 0.0751074329, -0.0787107497, 0.0672160685, 0.0832130760, -0.0656067878, 0.1121283770, 0.0503944904, 0.0404612608, 0.0426938795, 0.0375874490, 0.0341943130, -0.0359218419, 0.0018758503, 0.0137950704, 0.0958476439, 0.0742818788, 0.0294734333, 0.1076761410, -0.0914673656, 0.0439261086, 0.1038870737, 0.0627221912, -0.0750514343, 0.0076011526, 0.0679983348, -0.0980109796, -0.0394904912, 0.0104291765, 0.0507380627, 0.1046252474, 0.0872467384, 0.0167188849, -0.0391379520, 0.0357048474, 0.0225359406, -0.1128495336, -0.0910524651, -0.0738850459, -0.0552547798, -0.1380270123, -0.0161142722, 0.0035157637, 0.0866522118, 0.0861727446, 0.0626989082, 0.0478802696, -0.1035177559, 0.0891643837, -0.1066166162, -0.0977537483, -0.0383853130, -0.0143854730, 0.0264482535, 0.0283845961, -0.0562177077, 0.0246836040, -0.0932901129, -0.0007139532, 0.0668915436, -0.0688014254, 0.0793304071, -0.0375526734, -0.0848674327, 0.0080380542, -0.1053797081, -0.1088687629, -0.0454097316, 0.0006188523, -0.0871222988, -0.1117921174, -0.0046432461, -0.0826463550, -0.0033834842, 0.0515954085, -0.0296168961, 0.0503467880, -0.0542144850, -0.1175422817, 0.0496583879, -0.0762712359, 0.0153319705, 0.1001768857, 0.0782057047, -0.0388614796, 0.0489842296, 0.0637483895, 0.0921513736, 0.1204994246, 0.1304593682, 0.0651431009, -0.0748175681, -0.0147958826, 0.0503232740, -0.0417356268, -0.0366044976, -0.0097557977, -0.0979169756, 0.0020899093, -0.0745582655, 0.0605733283, -0.0167843625, 0.0781751871, 0.0855465084, 0.0360970534, -0.1433941126, -0.0508197285, -0.1586071402, 0.1029648706, 0.0635348782, -0.0598582476, 0.0475525558, -0.0333165005, 0.1545706987, 0.0761103407, 0.0503426529, 0.1407713294, 0.0016928625, 0.0435597263, 0.0136222653, 0.0049058148, -0.0047522853, -0.0502569266, -0.0266431440, 0.0413567387, 0.0037835855, -0.1391756535, -0.0165111925, -0.0950417072, -0.0849680603, -0.1092224196, -0.0339845121, -0.0649669319, 0.0360182151, -0.0906430036, 0.0647544265, -0.0917371884, -0.0455654263, 0.0518754981, -0.0906674713, -0.1129212901, 0.0517767332, 0.1077821776, 0.0567151196, 0.0668605864, -0.0388158709, -0.0654458106, 0.0188114718, 0.0447447039, 0.0315567479, 0.0626211241, -0.0540411025, 0.0179070067, 0.0540047623, -0.0546683408, 0.0094545558, -0.0631616488, -0.1033471823, -0.0835908800, 0.0128998263, 0.1399351209, -0.0907866359, -0.0555109456, 0.0144431200, -0.0022755933, 0.0590223670, 0.0357346274, 0.0234407112, -0.1139687523, 0.0422278009, -0.0283690430, -0.0504342802, -0.0883566365, 0.1128340885, 0.0210727248, -0.0420020521, 0.0593391433, 0.0724488348, 0.1074707508, 0.0597163513, -0.0235832818, 0.0482614860, 0.0731421337, -0.0731542632, -0.0041161776, -0.0498587266, -0.0111697372, -0.0951579735, 0.0222250000, -0.0831315517, -0.0610641204, -0.0555217005, 0.0157843269, 0.0226914436, -0.0541171543, 0.0382387377, 0.0470410287, 0.0770715177, -0.0837957114, -0.0609257184, 0.0335252620, -0.0061211083, -0.0543351099, 0.0982993841, 0.0911248028, 0.1211052686, 0.1260505766, 0.0205654372, 0.1077877805, 0.0547230914, -0.1065726802, 0.0603586622, -0.0355792679, 0.0704082400, -0.0113483444, -0.0060243648, -0.0311535224, 0.1132423654, 0.0971270874, 0.0537488088, 0.0784321949, 0.0265883543, 0.0804216266, 0.0242406838, 0.0620446578, 0.0452803895, -0.0172630176, -0.0597989447, 0.0875020474, -0.0644096658, 0.0312304515, -0.0182295460, 0.0010243182, 0.0362488255, -0.0969623700, 0.1124357581, -0.0683169290, -0.0257812049, -0.0406102091, 0.0110547040, -0.1814090908, 0.0621066950, -0.1001780182, -0.0080021983, 0.1008681729, 0.0090586618, -0.0785929784, 0.0021036898, 0.1105948314, -0.1086130366, 0.0253655110, -0.1129679084, 0.0394067243, -0.0560321063, 0.0186807867, 0.0270680171, -0.1009828597, -0.0044846330, 0.0817504972, 0.0120410463, -0.0847507119, -0.0261037685, 0.1304354966, 0.0363297351, -0.0895965099, -0.0780189037, -0.0786766931, -0.0592430532, 0.0330783352, 0.0275705829, 0.0850748122, 0.0026800663, 0.1348301172, -0.0616317205, -0.0349235646, 0.0478035808, 0.1082499474, -0.0409629643, 0.0195131302, 0.0789977834, 0.1554149836, -0.0235548876, 0.0597415306, 0.0505881049, -0.0053929230, -0.0513984226, 0.1486764848, -0.0043468913, 0.0689820796, 0.0627961978, 0.1324179024, -0.0345288478, -0.0620101951, -0.0134021007, 0.0067650252, -0.0286307987, -0.0517668016, -0.0272199083, 0.0418461077, -0.0728730932, -0.0332229733, -0.0686463788, 0.1088520363, -0.1431803852, -0.0659937114, -0.0442549735, -0.0342065468, -0.0014801600, -0.0826807842, 0.0993621275, -0.0884977430, -0.0016454738, -0.0372325927, -0.1008697823, 0.0346201807, 0.0971393511, -0.0222600494, 0.0866840184, 0.0450679995, -0.0631615818, -0.0798485875, 0.0427253991, 0.0510056093, -0.0974604636, 0.0367583036, 0.0516396314, 0.0407591723, -0.1118575782, 0.0204871334, 0.0878060460, -0.0141680902, -0.0010818490, 0.0533948354, 0.0901387259, -0.0668028444, -0.0296234600, 0.1090244353, 0.1059846804, 0.1190153658, 0.0722363517, 0.0992002040, -0.1113097221, 0.0624922663, 0.0565480031, 0.0946140811, 0.0502152815, -0.0317280143, -0.0952974707, -0.0876148418, -0.0702122152, 0.0229314249, -0.0411374755, 0.0074750115, 0.0179130733, 0.0622722022, -0.0746552870, -0.0379780158, 0.1024032831, 0.0251944270, 0.0227081776, -0.0232847724, -0.0158701707, -0.1107371300, -0.0210518837, 0.0893467888, 0.0608551763, 0.0324416757, 0.0747057647, 0.0576865748, -0.1471077949, 0.0390647240, -0.0067575071, 0.0188998245, -0.0747188181, -0.0816649497, -0.0451357849, -0.0046588355, 0.0407013819, 0.0635294616, -0.0936062187, 0.0167277884, -0.0017024734, 0.0159568600, 0.0571371652, -0.0026210626, -0.0337385461, 0.1490255594, -0.0417726152, 0.0272761863, -0.0709831938, -0.0065128570, 0.0192554556, 0.0325963609, 0.0558629520, 0.0538777597, 0.0068796831, 0.0508339405, -0.0578444563, 0.0121424925, -0.1503708959, -0.1303739101, 0.0350355245, -0.0664009601, -0.0092195431, 0.1040442735, -0.1336695254, 0.1054743081, 0.1358889490, 0.0647917092, -0.0396878533, -0.0456735156, 0.0262683947, -0.0079023736, 0.0614208467, -0.0707598031, -0.0598000735, 0.1242611855, 0.0548067987, 0.0558781922, 0.0904074609, 0.0780258402, 0.0360062122, 0.0869226456, 0.0493132807, 0.0418750718, 0.0282169841, -0.0068815872, -0.0682744086, 0.0756440163, -0.1204076856, 0.0070250686, 0.1405812055, -0.0026157724, -0.0095411045, 0.0520743020, 0.0299492311, -0.0851601213, -0.1251116693, -0.1446942687, -0.0159570891, -0.1161291972, -0.0373759307, -0.1318241358, 0.0345689803, 0.0037505659, 0.0676318109, -0.0452519357, 0.0306691844, -0.1394964010, 0.0303784963, 0.0754836276, 0.0538917482, -0.0543172471, -0.0555150546, 0.0043478841, 0.0046759564, -0.0241021663, 0.0937185809, 0.0663964525, -0.0313251056, 0.0800735503, -0.0301312692, -0.0014466586, -0.1128654853, -0.1420615464, -0.1108176261, 0.0127717284, 0.0306229126, 0.0191615541, 0.0788486674, -0.0599858351, -0.0506328419, 0.0013112392, 0.0055711945, -0.0694592148, -0.0361833349, -0.1328577846, 0.0194187462, -0.0522915013, -0.0999163091, -0.0306370407, 0.0147052687, 0.0672716126, 0.0400138386, 0.0522134602, 0.0735168979, -0.0980641991, 0.1093660221, -0.0923477858, 0.0355149917, 0.0664447024, 0.0402504057, -0.0189959053, -0.0214689262, -0.0624114685, -0.0995376706, 0.0189789236, 0.0671864375, -0.0253574327, 0.0852559283, 0.0134591497, 0.0618556589, -0.0822420418, -0.0282293223, -0.1029857025, 0.0350829847, -0.0982931927, -0.0748776123, 0.1027667373, 0.0090781301, -0.0098816929, 0.1028485820, 0.1175029352, 0.0197542962, -0.0321759507, -0.0491296686, -0.0198510494, -0.0658519268, 0.0337116532, 0.0791788846, 0.0959429070, 0.0267746709, 0.1090346649, 0.1036157906, -0.1407138556, 0.1002809554, -0.0706636831, 0.0879118070, 0.0408031084, -0.1128724515, 0.0497142784, 0.0188459773, -0.1045052633, -0.0343524888, -0.0509345718, -0.0310532544, 0.0153757809, 0.0789926350, -0.0548513979, 0.0493243523, 0.0129283816, -0.0625668839, -0.0791535974, -0.0823859125, 0.0677541494, -0.0920619220, 0.0638127401, 0.0371125489, 0.0173206199, 0.0509964973, 0.0568663776, 0.0011491723, -0.0895312652, -0.0685733631, -0.0193954892, 0.0115625355, -0.0677484721, 0.0224962551, 0.1159625277, 0.0076542972, 0.0254556444, 0.0385028943, 0.0469546393, 0.0835269466, 0.0324136950, -0.0921037048, -0.0140481200, 0.0317816846, 0.0234904271, 0.0852067247, -0.0737590939, 0.0373864137, -0.0651352033, 0.0971284360, -0.0232979413, -0.0480331481, 0.0319106691, 0.0054466589, -0.0381737649, 0.0744023919, -0.0604284443, 0.0372335389, 0.0057106381, -0.0234248769, -0.0870307907, 0.0704095587, -0.0604546145, -0.0848295167, -0.0787179694, -0.0446237959, 0.0656898320, 0.0380541831, 0.1198279336, 0.0054369611, 0.0626832992, 0.0997489914, 0.0341187306, 0.0928556174, -0.0712987781, 0.1535491496, 0.1429218948, -0.0170837604, 0.0093258396, 0.0686591789, -0.0494127721, 0.1321431547, 0.0241468139, -0.0429936200, -0.0629538000, 0.0309275109, -0.0052715391, -0.0405561663, -0.0279888455, -0.0314068533, -0.0159480367, -0.1280066967, -0.0191399455, 0.0506982952, -0.0353179760, -0.0004140187, -0.1000652611, -0.0426147580, -0.0132863708, 0.1130416095, -0.0351126380, -0.0925840959, 0.0338975266, -0.0183553677, -0.1328272671, 0.1204149947, 0.0428989604, -0.0862890780, 0.0378629230, -0.0104079107, -0.0742788985, -0.0050235987, 0.1469331384, 0.0239325650, 0.0830794126, 0.0001901134, 0.1159949899, -0.0171319954, 0.0216775928, 0.0380119085, 0.0085864710, -0.0126718497, -0.0888082013, 0.0327162631, 0.0551179983, 0.0752683729, 0.1133364588, -0.0737154633, 0.0762863159, 0.0060776514, 0.0231234655, 0.0085818777, -0.0479604006, -0.0550976805, 0.0842558965, 0.0852705240, -0.1327648163, 0.1304194629, -0.1093555316, 0.0666470230, -0.0591848530, 0.0758775026, -0.0183712617, 0.0826344043, 0.0799989477, 0.0947055072, 0.0459389165, 0.1064361259, 0.1251472980, 0.0735432804, 0.0427650884, 0.0450961664, -0.0176578723, -0.0224632528, 0.1480833888, -0.0074954466, -0.0697145909, -0.0072712614, 0.0644160211, 0.0488256961, -0.0639122352, 0.0614425503, 0.0658897310, 0.0973131061, 0.0671235844, 0.1058608890, 0.0369596966, 0.0714890733, -0.1666391641, -0.0377355963, 0.0817670375, -0.0719806477, 0.0405259803, 0.0597799867, -0.0899777710, 0.0450241789, 0.1407992244, -0.0403274335, -0.0535737760, 0.0845155120, -0.0462392196, -0.0179012660, -0.0474037156, -0.0808744878, 0.0514147952, 0.0769454911, -0.0319564156, 0.0372249559, -0.0474957936, 0.0125579210, -0.0610967241, 0.0612300932, 0.0550114661, 0.0021095567, 0.0846900567, 0.1033180058, 0.1364058703, 0.0755267292, 0.1094063371, 0.0201199893, -0.0226024184, 0.0955722556, -0.1120946482, 0.0241534933, 0.0712504834, -0.0370953120, -0.1563609540, -0.0058486764, 0.0550932623, 0.0408151485, -0.0646430776, -0.0826350525, -0.0137479128, -0.1323930770, -0.0563005693, 0.0073086689, -0.1140602455, 0.0526217856, -0.1565055698, -0.0236533135, 0.0713499337, -0.0619742498, -0.1025831252, 0.0276979767, -0.0115261395, 0.0144984853, -0.0287838001, -0.0514136888, -0.0558484010, 0.0039319731, -0.0444247872, 0.0958750024, -0.0967565626, 0.0450408570, 0.0985451117, -0.0905705169, 0.0511607490, 0.1100275517, 0.0745388195, -0.0171836875, -0.0909927189, -0.0815071613, -0.0889196992, 0.0606790930, -0.1041758806, 0.1380717009, 0.0989287570, 0.0693199560, -0.0600905009, 0.0887336060, 0.1087267175, -0.0337041989, 0.0306716524, 0.0459286831, 0.0682125911, 0.0078172637, -0.0299651101, 0.0606299192, 0.0938067138, -0.0941787958, 0.1386305988, 0.0561742261, -0.0246914867, -0.0239865351, -0.0942482278, 0.0993845761, -0.0707606152, -0.0931534022, -0.0421295315, -0.0735523552, 0.0402735248, -0.0355603173, 0.0334886611, 0.1271791160, -0.0851992592, 0.0323822647, 0.0191622023, 0.0222079363, -0.0292226411, 0.1156990081, -0.0844468474, 0.0495470650, 0.0557220690, -0.0190734845, -0.0311451647, 0.0138125299, -0.1007853374, -0.0566879585, -0.0989265814, 0.0429542959, 0.0941559672, 0.0239024833, 0.0099243401, -0.0528305992, -0.0841688439, -0.0426088497, -0.0277186502, -0.0599529035, -0.0622857995, -0.0387908965, 0.0949685276, -0.0596335530, 0.0855773091, 0.0043971459, 0.0224733762, -0.0734446719, -0.0200626720, -0.0227689669, 0.0613397211, 0.0098588886, 0.0018469626, -0.0485165715, -0.0451477654, 0.1231848076, 0.0588014871, -0.0451748855, -0.1044179052, 0.0662752092, 0.0057234475, 0.1065154597, -0.0790917575, -0.0851538703, -0.0764029324, 0.0295804832, -0.0105849057, -0.0764644742, 0.0523474440, 0.0297897831, 0.0593759678, 0.0749632195, 0.0981183797, -0.0534778871, 0.0268196259, 0.0889215320, 0.0728026628, -0.0375141576, -0.0086004259, 0.0310325995, -0.0088605946, -0.0151789216, 0.1058845222, -0.0898804665, 0.0340033397, 0.0175003372, 0.0580549575, -0.1032919884, 0.0778322071, -0.0179914124, -0.0066229310, 0.0076197591, 0.0651068687, -0.0330094211, 0.0508574285, -0.0244843047, 0.0104303323, 0.0920101106, -0.1284600645, 0.0340376459, -0.0118788164, -0.0390794203, 0.0065373383, 0.0056897141, 0.0235217325, -0.0344784260, -0.1286232919, 0.0818739086, -0.0182156898, -0.0485932156, -0.0019550198, -0.0332538858, -0.0104094800, 0.0075791287, -0.0394072011, -0.0964996889, -0.0120974472, -0.1128289253, -0.0887222961, 0.0227745213, 0.0983281285, 0.0467295796, -0.0436307974, -0.0581821427, -0.0326919071, -0.0118176742, 0.0428461805, 0.0658622012, -0.0694470853, 0.0817328766, 0.0335458554, 0.0020093883, 0.0068865120, -0.1725769192, -0.0737999380, -0.0691016316, -0.0039611002, -0.0188780818, -0.0318470821, 0.0773252770, -0.0743165612, -0.0948803052, 0.0973110497, -0.0466852002, 0.0728652701, -0.1320895404, -0.0548651628, 0.0811571330, -0.0802814886, 0.0368809402, 0.0958119258, 0.0714480057, -0.0070760860, 0.0314415693, -0.0854996890, 0.0241114330, 0.0387836099, 0.0581091382, 0.0638172105, 0.0486533009, 0.0446585380, 0.0540729761, -0.0285276864, 0.0588674881, -0.1516599953, -0.0890936330, 0.0134735154, -0.0663858354, 0.1163878664, -0.1194792390, 0.0904427320, 0.0634158775, -0.1157659963, 0.0100383367, -0.1038783118, 0.0426508822, 0.0259420108, -0.0269928202, 0.1026017070, -0.0229060352, -0.0061113364, -0.0776225552, 0.0515361466, -0.0741982907, 0.0580644198, -0.0369250998, 0.0126090897, -0.0779488310, -0.1039682180, -0.0284322016, 0.0496920273, 0.0117117548, -0.0507488400, 0.0380893685, -0.0515648499, 0.0275265798, -0.1131868139, -0.0675168410, 0.0524677075, -0.0322408453, -0.1310710162, 0.0730202571, 0.1265475750, 0.0317013822, 0.1576970220, 0.1274146289, 0.0327974483, -0.0088262716, 0.1027511433, 0.0050411257, 0.0043576295, -0.0040124427, -0.0564097315, -0.0498031080, 0.0796842352, -0.0339576229, -0.0191935822, 0.0782902986, -0.0774224922, 0.1338740885, 0.0141646536, -0.0654652193, -0.0625129640, -0.0606669262, -0.0896806121, 0.0176431816, -0.0134921717, -0.0223986376, 0.0482270457, -0.0456093140, -0.1282073408, -0.1554066837, 0.0361380242, -0.0766218081, 0.0607898161, 0.0739397854, -0.0321155190, 0.0262265261, -0.0320513584, -0.0472177453, -0.0589766204, 0.0785426497, -0.0635794476, 0.0219270159, -0.0860291645, 0.0565934554, -0.1026999727, 0.0031880646, -0.0808446109, 0.0942687467, 0.0193570592, 0.0452128649, 0.0765846521, 0.0756193548, -0.0127301998, -0.1192582473, 0.0449589752, -0.1444548219, -0.0676965564, 0.0229209047, 0.0674414486, 0.0832508504, 0.0050958665, -0.0176497679, 0.0340667963, 0.0722039565, -0.0399281830, -0.0151342209, 0.0059295031, 0.0971165672, -0.1339072585, 0.0517696887, 0.0480426960, 0.0435659215, -0.0390639193, -0.1032654569, 0.1219730526, 0.1197492406, -0.0301514622, 0.0540385507, 0.0798089430, 0.0633489266, -0.0267912727, -0.0406867824, -0.0435865894, -0.0654480159, 0.1451031417, -0.0099990964, -0.0777251646, 0.0812360123, 0.0876269192, 0.0751822367, 0.0384835973, -0.0413004160, -0.0590986386, -0.0525884032, -0.0665453747, -0.0396146998, 0.1508525014, -0.1068298519, -0.0999110043, 0.0646324307, -0.0378035046, 0.0868993476, 0.0360311754, -0.0151287047, -0.0016916150, 0.0080314260, 0.0258473475, 0.1085455194, 0.0117642032, -0.0883971676, 0.0490913875, -0.0584085137, -0.0445292592, -0.0288638286, 0.0629233792, 0.0834240839, 0.0580874234, -0.0432219803, -0.0252493955, 0.0786209702, -0.0599046275, 0.0312423278, -0.0496891476, 0.0252372567, 0.0682384446, -0.0514124967, 0.0488040820, 0.0454904102, 0.0703635886, 0.0575414747, -0.0852570385, -0.0603204444, -0.0110940794, -0.1008151695, -0.0563352406, 0.0168814901, -0.1165029928, 0.0224630311, -0.0224342998, -0.1083680093, 0.0258885603, -0.0108725941, 0.0005491842, 0.1289549321, -0.0860653743, 0.0685716346, -0.0611402541, 0.0603271835, -0.1238276064, -0.1044364050, 0.0762218162, -0.0976135880, 0.0629710108, 