//Numpy array shape [5, 3, 48]
//Min -0.153097867966
//Max 0.153249591589
//Number of zeros 0

#ifndef W3_H_
#define W3_H_

#ifndef __SYNTHESIS__
conv1d_3_weight_t w3[720];
#else
conv1d_3_weight_t w3[720] = {-0.0395284966, -0.0957070738, -0.1232484505, -0.0484555438, 0.1427448392, 0.0363365412, 0.0962539762, -0.0110821873, 0.0654779673, 0.0859016031, -0.1038620248, 0.0391629636, -0.1521931589, -0.1464187354, 0.1123850048, -0.0354270786, 0.1231315434, -0.0375605673, -0.0104409754, -0.1374101937, 0.0820199251, -0.0197941214, 0.0376847684, 0.0387344807, 0.0194673240, 0.0325215012, -0.0157945007, 0.1245756447, 0.0644687414, -0.1379520893, -0.0514088571, 0.0146169513, 0.1269527376, 0.0694253743, 0.0056951344, -0.0622464195, -0.1483395547, -0.0731159821, 0.0879003257, 0.0593888909, -0.0029157251, -0.1500586867, -0.1309055835, 0.1248672009, 0.1229143739, -0.0766054764, 0.1072723269, -0.0435956717, -0.1510357708, -0.0565393269, -0.0965497643, 0.0140889287, 0.0967911482, 0.0997142792, -0.1254216135, 0.1059665978, 0.0042727441, -0.1332709044, -0.0815595910, 0.1192201078, -0.1102558672, 0.0465207547, 0.1490567029, 0.1380263269, 0.0615112484, 0.0047744066, 0.1393495500, -0.0176260769, -0.1328998506, 0.0758160055, 0.1445498765, 0.1238926947, 0.1209920943, 0.0758761615, -0.0745606720, -0.0958705842, 0.1362793148, -0.0743311867, -0.1023896858, 0.0421054065, -0.0585441142, -0.0119453520, -0.0650420338, 0.1237155497, 0.1075026095, -0.0015006810, 0.0215846002, 0.1071565151, 0.0087183714, 0.0062708855, 0.1027684808, -0.0853045359, -0.1489245892, 0.0737531036, -0.1180711389, -0.1406591535, 0.0777525753, 0.1069436371, 0.0837476403, 0.1383135915, -0.1118841097, -0.1120941043, -0.0573214516, 0.0211832374, -0.1367814541, -0.0675085485, 0.0248520672, 0.1219454706, 0.0146300495, 0.1341452599, 0.1112219691, -0.0703082606, 0.0093839467, -0.0394781008, -0.1362585127, -0.1276229769, -0.0699030831, 0.0516326129, 0.0248258859, 0.0416245311, 0.1172620356, -0.0230247229, 0.0878992677, 0.1171499193, -0.0033562183, -0.0962206572, 0.0804779828, 0.0040406287, 0.0149670243, -0.1160609275, -0.1481883973, -0.0485710725, 0.0724886954, -0.1317792535, -0.1393478811, -0.0014831722, -0.0943747684, -0.1064236611, 0.0801903009, 0.0356900692, 0.0072283000, -0.1497632563, -0.1151371300, -0.1221748888, -0.0412181467, -0.0480288640, 0.0775016248, 0.1226182580, 0.0195648968, 0.0500535071, 0.1240687668, 0.0994189680, 0.0812098980, 0.0281171203, 0.1319187582, -0.0172630250, 0.0373860896, 0.0325983316, -0.1180224568, 0.0766755790, -0.0181601048, -0.0318207815, 0.0162053108, -0.0195850134, 0.0977193415, -0.0324074253, 0.1177268922, -0.0923184156, -0.0587655976, 0.1438378394, 0.0953516364, -0.0534292310, 0.0589858294, -0.0294984356, 0.0152197629, 0.0935031474, -0.0041583478, -0.0802849904, -0.0432656482, 0.1390547156, 0.0684547275, -0.0694519654, -0.1353027523, -0.1040419191, -0.0898734108, -0.0963346809, -0.1043704152, -0.0471610129, -0.1115221605, -0.1434834898, 0.1225972772, 0.0596928298, 0.1379376054, 0.0223256201, 0.1030164361, 0.1233041584, 0.1003863215, 0.0036817193, 0.0732243061, -0.1183318943, 0.1070310771, 0.1493607759, 0.0446044654, -0.0146466196, 0.0297038555, -0.0818229094, -0.0935561061, -0.0125660896, -0.1211195365, 0.0035772622, 0.0741547346, -0.0551679581, 0.0679525584, -0.0674362779, 0.0801253170, -0.0318839028, -0.1391647309, -0.0532377735, -0.1387355924, 0.0039918721, 0.1200385094, -0.1324619651, -0.0914993510, 0.0328219980, -0.1143886521, 0.1385661662, 0.1316021681, 0.1219941378, -0.0245795697, 0.0393230021, 0.0581991374, -0.1038963646, -0.1381106973, -0.0748611465, -0.1292317659, 0.0310286731, -0.1298570037, 0.1479519308, -0.1050255150, -0.1482551098, 0.1185461879, -0.0396813974, 0.0217604041, 0.0923126042, 0.0097009540, -0.0095163733, 0.0752162933, 0.0362187475, -0.1381933838, -0.0887168646, 0.0366436094, 0.0691714287, -0.0291910172, 0.0168359131, -0.0306586772, -0.0732256249, 0.0502048135, -0.0641439110, 0.0741888136, -0.0148642212, 0.0819997638, 0.0107007474, -0.1097297072, -0.1030416489, 0.1305220127, 0.0937966853, 0.0389681011, 0.0013562292, 0.1181326509, 0.0823602974, 0.0811492950, -0.1303077042, 0.0534653664, 0.0642848164, -0.1110860407, 0.1217467785, 0.0871893764, 0.0525000840, -0.0395292640, 0.0953255296, -0.1005491391, 0.0278807580, -0.0505737439, -0.0493033528, -0.0423026085, 0.0577433407, -0.0190025717, -0.1484784484, -0.0776064396, -0.0392669290, -0.0321872309, 0.1207694709, -0.1141287386, -0.0338716134, -0.1228401288, -0.1402652115, 0.0832836926, 0.0641031712, 0.0084473789, -0.1164180562, 0.0302408785, 0.0483098477, -0.1250715107, -0.1450910270, -0.0660014600, -0.0430318117, 0.0159546435, -0.0416120961, 0.0719055980, -0.0846290588, 0.0648111999, -0.0355869755, 0.0433384627, -0.0090497881, -0.1218023673, -0.1001680195, 0.0381070226, -0.0196108222, 0.1141678989, 0.0597220957, -0.0235447735, -0.0507381707, -0.1068224758, 0.0512891561, 0.0569631159, -0.0929517969, 0.1340879202, 0.0964651704, -0.0021077096, -0.1160359532, -0.0297294259, 0.0987336338, 0.0300289541, -0.0776854381, 0.1528953910, -0.0693290532, -0.0132769644, -0.0613930523, -0.0713806897, 0.1154683232, -0.1470653564, -0.0515168533, -0.0876087025, 0.0566575676, -0.1346525848, -0.0101200938, 0.0056917667, -0.1093201786, -0.0203481168, 0.0517338365, -0.0748336092, 0.0489317030, -0.0133357793, -0.0969080180, -0.1260532439, 0.1443137825, -0.0349365845, -0.0096167922, -0.1349006891, -0.0952014774, -0.0776185840, 0.1443529725, -0.0079187751, 0.0519850850, -0.0744308084, -0.0311011598, -0.0899532065, -0.1192936599, 0.0439509302, 0.1149742305, -0.1122889593, 0.1411405206, -0.0825392008, -0.0894543678, -0.0468789712, 0.0586500317, 0.0234902054, -0.0871958435, -0.0080901086, -0.0442937165, 0.0121192932, 0.1080896556, -0.0020113289, -0.0095609128, -0.0053692460, -0.1203279048, 0.1130402088, 0.0431491286, 0.1029363573, -0.1407842338, -0.1285817772, -0.1168686152, -0.0423073620, -0.1125823706, -0.1339227110, -0.0742746443, -0.1129080504, -0.0531509519, -0.1408143342, 0.0685327351, 0.0620609969, 0.0157978237, 0.0740359724, -0.0575189367, -0.1423206925, -0.1138365716, -0.1014378369, -0.0936382860, 0.1331115067, 0.1417960227, -0.0600530654, -0.0457722023, 0.0921275765, -0.1131086424, -0.0497905239, -0.1133775860, -0.1362658292, -0.1060919464, -0.0990539342, -0.0834629312, -0.1181368530, 0.1153055429, -0.0394677818, -0.0478807092, 0.1532495916, -0.0404309034, -0.1167785078, 0.1124856770, -0.1005188972, 0.0936588794, 0.0669556558, -0.1261021048, 0.0717537254, 0.1288700998, -0.0241792947, 0.0672850609, -0.0551886559, 0.1107683480, 0.0019053817, -0.1297738403, -0.0585790798, -0.0449913964, -0.1091287956, -0.0446252748, 0.0222421288, 0.1370843053, -0.1407019794, 0.0488981307, 0.0191991031, -0.0587054715, 0.1246368587, 0.1342158020, -0.0786948502, 0.1332825720, 0.1048199236, 0.0437427312, -0.0884855464, -0.1354028136, -0.0233775675, 0.0715413839, 0.0725142956, 0.0232497603, 0.1443039477, -0.0771163106, 0.0524588674, -0.1456595063, -0.0078861862, 0.0559399128, -0.0434605405, -0.0576890707, -0.1037564799, -0.1161028817, -0.0363375023, 0.0286726505, 0.0346443802, 0.0304401666, -0.0868966877, 0.0356527716, 0.0838759392, -0.0575314462, 0.0553926528, 0.1044496298, 0.0249792635, 0.0738775879, 0.0991055667, 0.0875771791, 0.1274403632, -0.0897138119, -0.0252235979, 0.0060233325, -0.0583687574, 0.0489977896, -0.1312713325, 0.1195447445, -0.0619080961, -0.0277640969, 0.0238393694, 0.1500667036, 0.0520274341, 0.0944391042, 0.1489540935, 0.1379632950, 0.1266032457, -0.0130608976, -0.1311997622, -0.0247772485, -0.0752955452, -0.0092597455, -0.1424054652, -0.1483591944, 0.0038206130, -0.0403989032, -0.0255385935, -0.0885222256, -0.0846203566, -0.0591840819, -0.0896796882, 0.0005940050, -0.0825829431, -0.0300528258, 0.0856247246, -0.0695000216, 0.0390572250, -0.0682223514, 0.1179492772, -0.1376694888, 0.0537031889, -0.0108512342, -0.1276735514, 0.1126275361, 0.0898119360, -0.0726158246, 0.0932893604, 0.1517162323, 0.0580246449, -0.0850103199, 0.0173582286, 0.1165986061, -0.1012556329, 0.0132558644, 0.0684222877, 0.1508739293, 0.1147834063, -0.0640598685, -0.0579884052, 0.0524394810, 0.0089619458, -0.0927105695, -0.1501467526, 0.1171760857, 0.0941579640, 0.1235249937, 0.0544995815, -0.0637380704, -0.1237268075, 0.1033052504, 0.0163171440, -0.0258374959, 0.1075146198, 0.1173850000, 0.0135924369, 0.1431940198, 0.1392432451, 0.0016696900, -0.0027849376, -0.1043533683, 0.1482722759, -0.1525419354, -0.0135590434, -0.0683821365, -0.0134133399, 0.0860670507, -0.1395389736, -0.1207353175, -0.1210175380, 0.0408011526, 0.0603905916, -0.1199015155, -0.0245236158, 0.0111658573, -0.1199973673, -0.0863484442, -0.0342656374, 0.0351904333, -0.1179138422, 0.0741632879, -0.1100949794, -0.0268146992, 0.1255910993, 0.0463289768, -0.1149038076, -0.0968834013, -0.0533853769, -0.1452949196, -0.0295239314, -0.0850281641, -0.1503311098, -0.0116750896, 0.1049213409, -0.0245409906, 0.0220106244, 0.0183221847, -0.0384963304, -0.0635802299, 0.1344861388, -0.0489762872, -0.0731427148, -0.0664381608, 0.0400851220, 0.0741339177, 0.0244117826, -0.0776061863, -0.0744722039, -0.0947619900, -0.0703768656, -0.1472768486, -0.0586713478, 0.1337473989, -0.1111436039, -0.0413546637, -0.1330410838, -0.0740956664, 0.1114185750, -0.0420387760, -0.0134001374, -0.1120512784, -0.1155361235, 0.0108508021, 0.0184451044, -0.0871698037, 0.1361772418, 0.0442085117, 0.0899312347, -0.0972363949, 0.1406337023, 0.0916208774, 0.0938183218, 0.0524307787, 0.0633725077, -0.1377068758, -0.1026240736, 0.1007100046, -0.0536595583, -0.0475025624, 0.0344165266, 0.1094567776, -0.0715953261, 0.1460694969, 0.1477588415, -0.0683038682, 0.1327632070, 0.0304456055, -0.0353161991, 0.1105296016, -0.0135290921, 0.1261428893, -0.1091080233, 0.0520721227, -0.0591615215, 0.1274692714, 0.0339092761, -0.0731439590, -0.1306003928, 0.0557631254, 0.0318841636, 0.1166958511, -0.0794571564, 0.0605371594, 0.0815184414, 0.0683976412, -0.1291601211, -0.0946605355, -0.1166758090, -0.1530978680, -0.0147363693, -0.0831997618, -0.0482531190, -0.1396018267, -0.0375381857, 0.0896742344, 0.0185499489, -0.0482784659, 0.0148895979, -0.1296656579, -0.1053950042, -0.1436070204, 0.0729212314, -0.0582146421, 0.0746148676, -0.0106104165, 0.0596194714, -0.0679005906, -0.0581282973, -0.1481893212, 0.1309256554, -0.0973892659, -0.1156989485, -0.0258652866, -0.0198016167, 0.0877699852, -0.0448704511, 0.1170940399, 0.1304300129, 0.1213621199, -0.0603023022, 0.1493672431, -0.0323672742, 0.1306378841, 0.0901142657, 0.0425579548, 0.0481245667, -0.1184343994, -0.0527306721, -0.1292776614, 0.1084772944, 0.0526479781, -0.1040410101, -0.1305275112, 0.0729511529, -0.0557999164};
#endif

#endif
