//Numpy array shape [5, 3, 48]
//Min -0.199881225824
//Max 0.185009941459
//Number of zeros 0

#ifndef W3_H_
#define W3_H_

#ifndef __SYNTHESIS__
conv1d_6_weight_t w3[720];
#else
conv1d_6_weight_t w3[720] = {0.1431493759, -0.1344259828, -0.0513035841, -0.0997006893, 0.1105668917, -0.1428463608, -0.0278097093, 0.1573957056, 0.1561055481, 0.1632749438, 0.0696168765, -0.0439741015, -0.0704462230, -0.0484383926, 0.0957340002, -0.0941597149, 0.1070132330, -0.0321497358, 0.0247592535, -0.0727254897, -0.0989961624, -0.1048965231, -0.1407243907, 0.1279585510, 0.1482570767, -0.0266749058, -0.0052774842, -0.1509089768, -0.1397158355, 0.1295368820, -0.0258604772, 0.1123477668, -0.0579200648, -0.1239942163, -0.0590141900, -0.0289041512, 0.1198934615, 0.0617060550, 0.0026123226, -0.0578487180, 0.0746845677, -0.0906111300, 0.0864554122, -0.1290090978, -0.0019247802, 0.1093211249, 0.0342786573, -0.0065003615, -0.0500847958, -0.1259484440, 0.0796750486, 0.0532013923, -0.1748926044, -0.1998812258, 0.1021755561, 0.0490702204, 0.0703269467, -0.0126540363, -0.1374528259, 0.0687417611, 0.0401770398, 0.0577875115, -0.1979900599, -0.0470717065, 0.0219812468, 0.0705848038, -0.1585907936, 0.0986930579, -0.0169188771, 0.1342928708, -0.0650138259, -0.1036435217, 0.1218361184, 0.0725280270, -0.1269174814, -0.1263288707, -0.0843763575, -0.0910080448, 0.0164322499, 0.1010340750, -0.0827764347, -0.1608859003, 0.1254900247, 0.0920747295, -0.0289715528, -0.1395347863, -0.1427142471, 0.0693443790, 0.0626286566, -0.0641018078, -0.0907139704, -0.0942562371, 0.1197045445, -0.1286569983, 0.1570986062, 0.1152643487, -0.0568541437, -0.0183503013, -0.1518597752, 0.0296829268, 0.0050370088, 0.0521830916, 0.0394003838, 0.0377317965, -0.0072036451, -0.1100914851, -0.0535406955, -0.0223961119, 0.0108313551, 0.0947064459, 0.0017116896, 0.0281715468, 0.0424517430, -0.0738854110, -0.0860906765, -0.0204797108, 0.0711446404, 0.0524223410, -0.0839100108, 0.0096812556, 0.0759696886, -0.0821131244, -0.1034772173, 0.0502954349, 0.1365115941, 0.1213637516, 0.0876147002, 0.0283703525, 0.0415037908, 0.0580462702, -0.0643057972, -0.0336792916, -0.1369867623, -0.0513102822, 0.0084556667, -0.0650420040, -0.0920227543, -0.1064503416, -0.0956105143, 0.0039915876, -0.0527820252, -0.0354875699, -0.0882878304, -0.0932964385, -0.1101521403, -0.0412691236, 0.0821178705, -0.1374557465, 0.0065796464, 0.1422904879, 0.1278652996, 0.0338749774, -0.1363586932, -0.0000534946, -0.0937362164, 0.0585295521, 0.0794078484, -0.1117489785, 0.0062431353, 0.1510682553, 0.0222878605, -0.0271446742, 0.0935823545, -0.0336379595, 0.0040349965, 0.0265292097, -0.0082893660, -0.0169525556, -0.0203155428, -0.0195581540, -0.0631527305, -0.0533289313, -0.1466948688, -0.0861624479, -0.1273312420, -0.0510186702, -0.0718169436, -0.0001089566, -0.0973547697, 0.1850099415, 0.0129191307, -0.0955870822, 0.0747947097, -0.0359569378, 0.1648221761, -0.1049085408, 0.0343535878, -0.0913677514, -0.1097240895, 0.0177663155, 0.1426281929, 0.0625118315, 0.1102039516, 0.0448689014, -0.0930842608, -0.1023820564, 0.1478317529, -0.0129737966, 0.1474341303, -0.0089569092, 0.0731886551, -0.0332657136, -0.0001067790, 0.0763684362, -0.1057367101, -0.1372639835, -0.0328747854, -0.0813489333, 0.0924556702, 0.0093421107, 0.0391113199, 0.0562196337, -0.1083388627, 0.0795440897, 0.1297410876, -0.1063607559, -0.1142696515, 0.0716170594, 0.0251781624, 0.1013735533, 0.1356781423, 0.0985643715, -0.0478537790, -0.0175013058, -0.1152440235, 0.1077998281, -0.1516508460, 0.0742748231, 0.0492153056, -0.0862200633, -0.0797401145, 0.0539858639, 0.0589140691, 0.0960721448, -0.0744023472, -0.1332705021, -0.0808857381, -0.1656823009, -0.1254684925, 0.0101797394, -0.1238144115, 0.0429735258, -0.0165592898, -0.1006609499, -0.1459740400, -0.0353166386, -0.0339075699, 0.0823363289, -0.0463191532, -0.0982510746, -0.0927118734, -0.0857142210, -0.0106260367, 0.1233005449, -0.0814981386, -0.0584963374, 0.1065904796, -0.0575665645, 0.0399274491, -0.0097225280, 0.1469246149, -0.0337168388, -0.0566436797, -0.0109644169, 0.0958158597, -0.0358920358, 0.0438653119, 0.0955609307, 0.0444269143, 0.0135339182, -0.1032195613, 0.0751789436, 0.1197542101, 0.0923892036, -0.1276765615, -0.0804908797, -0.0488460474, 0.0263481382, 0.0167022981, -0.0877007991, -0.0384454466, -0.0304140113, -0.0612919815, 0.0073193363, -0.1005245075, -0.0409828536, -0.0780476704, -0.1274147183, 0.0271335337, 0.0651184246, 0.0819761381, 0.1344452649, 0.0921362266, 0.1235972196, -0.1055407599, -0.0196808670, -0.0851370916, -0.0981813446, -0.0546292551, -0.0812886506, -0.0220481213, 0.0177562814, -0.0246601552, 0.1217478216, 0.0239663981, -0.0225753766, 0.0025468667, -0.0576351136, 0.0829234794, -0.0954120681, 0.1148997471, -0.1355000734, 0.0403396599, 0.0125582656, -0.0228808671, 0.0219282582, 0.0999713168, 0.0224847980, 0.0197256822, 0.0779712051, 0.0611157119, 0.0511135198, 0.0459178127, 0.0121805696, 0.0558676943, -0.0484815203, 0.0461198911, 0.1058159843, 0.0037958187, 0.0027325989, -0.0339688696, 0.1341275275, -0.0321937315, -0.0256027821, -0.0497159362, 0.0744200349, 0.0447239242, -0.0296486728, -0.0769620910, 0.1462972313, -0.0642035082, 0.1049229354, -0.1249863431, -0.0155330934, -0.0171444006, -0.0052562458, -0.0303203594, 0.0504578203, -0.1372450143, -0.0956794471, 0.0161216650, -0.0531663224, -0.0844778940, 0.0240665972, -0.0492196865, -0.0111347148, 0.0529599339, -0.0782978833, 0.0745395645, 0.0038600715, 0.0213490352, -0.1379105002, 0.0238248855, 0.0975551233, 0.0855430737, 0.0062584733, -0.1187099889, -0.0103782890, 0.0020352320, -0.1505933702, -0.0077379313, -0.0342122950, -0.1340140253, 0.0643880144, 0.1433061063, 0.0997809842, -0.0227588136, -0.0534626618, 0.0334181860, 0.1184308529, 0.0516701192, 0.1148996130, 0.0691308752, -0.0624657571, 0.0905365571, -0.0751134455, -0.1238531023, 0.0444614515, -0.0206296928, -0.0547093526, 0.1373147517, 0.0137959560, -0.0212786384, -0.0200739037, 0.0625212714, 0.0792729780, -0.0827229470, 0.0163657144, -0.1003919914, 0.1228891313, -0.0229783058, -0.0117440671, 0.0669206306, -0.0299679302, 0.1323813647, 0.0732184500, -0.0305795409, 0.0813986734, -0.0579710938, 0.0168296359, 0.0780711770, 0.0913074166, -0.0524415039, 0.0216565300, -0.0419365130, -0.0284431688, 0.0419227593, 0.0959100276, -0.0069079795, 0.0417916439, -0.0592774190, 0.0547012761, -0.0885936692, -0.0959871411, 0.0046749637, 0.0101943826, 0.0723238587, -0.1031323597, 0.0556551330, 0.0236095581, -0.0814262927, -0.0247344635, 0.0573353395, 0.0222402681, -0.0533271097, 0.0664361045, -0.1481033713, -0.1176911518, -0.0644374490, -0.1007403359, 0.0725004375, 0.1449732482, 0.0970172882, 0.0805230066, 0.0778934509, 0.0657774433, -0.0507224053, -0.0638812631, -0.0139483958, 0.0394459479, -0.0676866546, 0.0276123490, 0.0602939241, 0.0539056882, 0.0952411592, 0.0827302188, -0.0754189864, 0.1324137896, -0.0353248492, -0.0241105091, 0.0499130562, -0.0656745881, -0.0621188506, -0.1096247062, 0.0511760153, -0.0305999592, 0.0588194579, -0.0414903276, 0.0632631928, -0.0274608023, -0.0018302521, -0.0602328479, -0.1214694381, 0.1045759171, -0.0325838290, 0.0448571257, -0.0218178462, -0.0576116815, -0.0601028353, 0.0403449014, 0.0424676389, 0.0708960667, 0.1138394997, -0.0770124644, 0.0130725307, 0.0707121789, -0.0019208328, -0.0160545241, -0.0714894086, 0.0757731274, 0.0700225756, 0.0084527675, 0.1402611434, 0.1287132353, 0.0917572379, 0.0172023010, 0.0085059535, -0.0911794379, -0.0094787572, 0.0248456523, 0.0904154629, 0.0026668375, -0.0648904815, -0.0003400932, 0.0567360520, 0.0793889835, -0.0753232986, -0.1738582850, -0.1257846355, 0.0106752431, 0.0206532069, 0.0033285317, 0.0106310314, 0.1262402236, -0.0233367514, -0.0103007806, 0.0837310478, 0.0453415886, -0.1010630503, -0.1200133115, 0.0780528113, 0.0321381427, 0.0518189669, -0.0236450844, -0.0145068485, 0.0880543292, -0.0322933197, 0.0667931139, -0.0578256324, 0.0144990850, 0.1077845171, -0.0389488451, 0.0902378485, -0.0308747645, -0.0492430255, -0.0161293559, -0.0056578098, 0.0095117539, -0.0330116563, 0.0927181095, -0.0679778233, -0.0669176057, 0.0671565980, -0.0687857717, -0.1241279542, -0.0176298860, 0.0024727387, 0.0219456088, -0.0367403887, -0.0655237809, -0.0516095459, -0.1047567800, 0.0334884226, -0.0741862431, -0.0696732774, 0.0472702496, -0.1059493497, -0.0660324916, 0.0074130916, 0.0852269083, 0.0117134834, 0.0377849415, -0.0965527296, -0.0552466586, -0.0242376849, -0.0075647836, -0.0160839241, 0.0816524699, 0.0549996868, 0.0452329032, 0.0388330147, -0.0147900395, 0.0619269572, -0.0696344897, 0.0752557889, 0.0042109764, 0.0092878295, 0.0091798464, -0.0631868914, -0.0466098636, 0.0232830159, -0.0030447752, 0.0527025759, 0.0297802631, -0.0050329836, -0.1139155850, 0.0153994933, -0.0227378793, 0.0380502306, -0.0350077190, 0.0109093701, -0.0612570718, 0.0119703896, -0.0360025167, 0.0114659555, 0.0344701186, -0.1022769511, 0.0341420472, -0.0605914257, 0.0025741195, -0.0332741141, -0.0906708762, 0.0591783263, 0.0465053208, 0.0561326519, 0.0036015841, 0.0837654173, -0.0090059796, -0.0382537805, -0.0127007058, 0.0692169741, -0.0389338769, -0.1321365237, 0.0367163010, 0.0041580694, -0.0020838534, -0.0056589046, -0.0546938218, -0.0192467477, -0.0569077507, 0.0392318703, -0.0095090959, 0.0489736609, -0.0453125648, -0.0760902464, -0.0267911963, -0.0067349407, 0.0088365600, -0.0185305197, -0.0489567034, -0.0100454139, 0.0320735946, 0.0084990272, -0.0779222101, -0.0505956672, -0.1077678129, 0.0869289860, 0.0063001392, 0.0481294021, 0.0097698495, 0.0015877064, 0.0338717103, 0.0746331513, -0.0945747793, -0.0753811747, -0.0478411689, -0.0693173483, 0.1028866470, -0.0733892024, 0.0553619713, 0.0790211037, 0.0644535199, 0.0303010512, 0.0305069070, 0.1283908933, -0.0565227345, 0.0689059496, -0.0008118400, 0.0788410902, -0.0236893427, 0.0365703702, 0.0348586664, 0.1035930291, -0.0441042446, -0.1293702275, -0.0354977697, -0.0159735251, 0.0786550045, -0.0297271237, 0.0288285408, 0.0569885895, -0.0578616709, -0.0094588902, -0.0122667123, 0.0456063561, -0.0781280473, 0.0342518128, 0.0517088063, -0.0007990263, -0.0423172005, 0.0365678333, 0.0751516223, 0.0513068363, 0.0082017602, -0.0724394470, 0.0398810878, 0.0048973775, -0.0512327589, -0.0025991206, 0.0410353467, -0.0846160874, -0.0041508698, -0.0883695707, 0.0222060066, 0.0756649971, -0.0074822959, -0.0047930912, -0.0340401381, -0.0028957645, 0.0064990530, 0.0448744558, 0.0100588519, -0.0470168740, -0.0251448322, -0.0872563794, -0.0222698674, 0.0928540826, 0.0994386375, 0.0685640872, -0.0595883019, -0.0572689623, 0.0292600524, 0.0099665998, 0.0465596430, -0.0261710733, 0.0610706545, -0.0127976816, 0.0422755741, -0.0012876135, 0.0496702194};
#endif

#endif
