//Numpy array shape [5, 48, 64]
//Min -0.103509269655
//Max 0.103497169912
//Number of zeros 0

#ifndef W5_H_
#define W5_H_

#ifndef __SYNTHESIS__
conv1d_4_weight_t w5[15360];
#else
conv1d_4_weight_t w5[15360] = {0.0518115237, -0.0202511400, -0.0180421546, 0.0456010774, 0.0868171528, -0.0121572316, -0.0227203444, 0.0760301128, -0.0400150791, -0.0503456444, 0.0743039474, 0.0084248558, 0.0599192455, -0.0675761700, -0.0690928698, 0.0968481079, 0.0792072192, 0.1020378098, -0.0998153389, 0.0787067935, -0.0134467408, 0.0197462142, -0.0741718560, -0.0872448385, -0.0769479126, 0.0826131180, 0.0813000426, 0.0174253136, -0.0255193487, 0.0233579949, -0.0711825565, -0.1024058387, -0.0113051757, 0.0174902678, -0.1001077592, 0.0169981495, 0.0402000025, -0.0467265174, -0.0718577653, -0.0561331622, -0.0009062737, -0.0882981792, 0.1017393842, 0.0430749133, 0.0949807093, -0.0155456588, -0.0007120818, 0.0769642964, 0.1005693302, 0.0992170498, -0.0162761509, -0.0176422894, 0.0188086480, 0.0284370556, -0.0944795161, -0.0293281749, 0.0142488703, 0.0273668393, 0.0520009175, -0.0094731748, -0.0042527542, 0.0765077695, 0.0727111474, 0.0577992424, -0.0970991105, 0.0276626423, -0.0786195472, 0.0347623900, -0.0358135626, -0.0160331652, -0.0709899664, -0.0558518469, -0.0790133700, -0.0737101734, -0.0351545662, 0.0308941826, 0.0722741708, -0.0355137885, -0.0291370451, 0.0777362511, 0.0304411873, -0.0186978653, -0.0480432212, 0.0073485151, 0.0809201375, -0.0717833117, -0.0321581587, -0.0347501338, 0.0809379295, -0.0464937724, -0.0949399695, 0.0942538604, 0.0539235994, -0.0250213593, -0.0206287727, -0.0621885881, -0.0740151033, 0.0783083513, -0.0980067626, -0.0543360598, 0.1022275761, 0.0797422305, 0.0012249500, -0.0928821415, 0.0838324055, -0.0077533945, 0.0602401569, 0.0193800852, 0.0629386231, -0.0489061363, -0.0124225467, -0.0031034201, -0.0252167359, -0.0240014866, 0.0544953123, 0.0615778491, -0.0584402196, 0.0324088708, 0.0526704267, -0.0337215960, 0.0138842165, 0.0202416927, 0.0263834223, 0.0167013630, 0.0367655382, -0.0373717248, -0.1017940789, 0.0993817821, 0.0810717419, -0.0917587951, 0.0608883426, -0.0537331104, -0.0469858162, -0.0994556770, 0.0685016438, -0.0116173327, -0.0239506736, 0.0783845261, 0.0589220300, -0.0593178421, 0.0178464800, 0.0466585979, 0.0256013051, -0.0696583241, -0.0507503487, 0.0997919664, 0.0730315372, 0.0102519840, 0.0698984340, -0.0341774896, -0.0333573446, 0.0700183138, 0.1025798693, -0.0731133670, 0.0705695674, 0.0074623600, 0.0234622881, -0.0564958379, 0.0672730133, 0.0235139653, -0.1021211445, -0.0129791796, -0.0365992039, 0.0293216631, 0.0158206075, 0.0029873028, -0.0230875388, -0.1030515805, -0.0927168950, 0.0927639976, -0.0299394205, 0.0855429545, -0.0575735793, -0.0102751330, 0.0641372725, -0.0614117049, -0.0970464423, 0.0543061718, -0.0526286401, 0.0519651845, -0.0613517612, 0.0935047045, -0.0939304158, 0.0550876185, -0.0504325852, -0.0378738865, 0.0457762107, 0.0395303592, 0.0653597191, -0.0121475533, 0.0063030794, -0.0186975002, 0.0875854269, -0.0644173920, -0.1029792950, 0.0172984377, 0.0935736075, -0.0361081511, -0.0577856675, 0.0295927301, -0.0043691099, -0.0274037868, 0.0241504982, -0.0310748145, -0.0369992182, -0.0489395261, 0.0018415973, -0.0474719368, 0.0235268697, -0.0268910378, -0.0951015428, -0.0149933994, 0.0422322825, -0.0066743717, -0.0023793951, -0.0865869075, -0.0077359974, -0.0203857645, 0.0870671794, 0.0926800892, 0.0075683817, 0.0002579391, 0.0256802216, -0.0043103769, -0.0375458300, 0.0305278525, -0.0251686350, -0.0685296953, 0.0342385396, -0.0130237490, -0.0465052947, -0.0663209334, -0.0560819507, -0.0268627778, 0.0653955862, 0.0793588683, 0.0977594033, -0.0985873044, 0.0672398135, -0.0165021345, -0.0342228487, -0.0141177997, 0.0128261447, 0.0719020590, -0.1015063226, 0.0370294973, -0.0068828538, -0.0600639805, 0.0936195180, 0.0385949239, 0.0942869708, -0.1029153019, 0.0796271041, 0.0143169090, -0.0285160542, 0.0476520583, 0.0910702571, -0.0723905787, -0.0352257416, -0.0928589925, -0.0884975344, 0.0528673157, 0.0215870515, -0.0650405064, -0.0257347152, 0.0403856263, -0.0313797891, -0.0978535116, -0.0645534992, 0.0970953032, -0.0146099702, 0.0372801647, -0.0339211971, 0.0444592908, 0.0199159533, 0.0011365488, 0.0235772803, -0.0258281231, -0.0159751922, 0.0267925188, 0.0789705589, 0.0640533641, -0.0221261755, 0.0319527015, -0.0932744071, 0.0589677319, -0.0099315569, 0.0097012594, -0.0125326887, 0.0944740102, 0.0136728734, 0.0532002524, -0.0023521706, -0.0503079593, -0.0591978580, -0.0552343875, -0.0158867165, -0.0082718953, -0.0148585588, 0.0041951761, -0.0433410965, 0.0721942857, 0.0657051578, 0.0386044905, 0.0146824270, 0.0726439580, 0.0727280602, 0.0573281720, -0.0729896799, 0.0066196546, -0.0256592482, -0.0127660558, -0.0893287808, -0.0246241987, -0.0170396343, -0.0470660441, 0.0068320185, 0.0077781230, 0.0741309896, -0.0994586870, -0.0555656515, 0.0465801284, 0.0646980330, -0.0160754621, -0.0851870850, -0.0033363327, 0.1003220007, -0.0596409105, -0.1024229899, -0.0715147331, -0.0260745659, -0.0132837594, 0.0115187466, -0.0662492439, -0.0076148957, 0.0544715151, -0.0706061572, -0.1022175848, -0.0098149776, 0.0065119117, 0.0601941124, 0.0692826733, -0.0547766723, -0.1024182737, -0.0258897245, -0.0075519159, -0.0286451727, -0.0661078095, 0.0889031067, -0.0804416463, 0.0215748772, -0.0708109736, 0.0351958945, -0.0905786306, 0.0254966691, -0.0500284247, -0.0513729900, 0.0591111556, 0.0129498839, 0.0255001709, 0.0996026173, 0.0097129047, -0.0888860449, -0.0403930843, 0.0200260729, -0.0483124405, 0.0426325426, -0.0352597237, 0.0473966226, 0.0900678411, 0.0158105120, 0.0360382870, 0.0679008588, 0.0902139768, 0.0648846552, -0.0310003832, 0.0499342456, -0.0218573809, -0.0005898178, -0.0727445483, -0.1026541516, -0.0952209607, -0.0135819763, -0.0935318768, 0.0768002048, 0.0072095767, -0.0956914127, 0.0368736312, -0.0342356339, 0.0437182412, 0.0346190408, -0.0088626295, -0.0544254705, 0.0386771783, 0.0666313991, 0.0623307452, -0.0020345077, -0.0973384157, -0.0424509868, 0.0763591006, -0.0539399683, 0.0560926124, 0.0885923281, -0.0526504815, 0.0755618885, -0.0379744992, -0.0068573877, -0.0513407849, 0.0955661610, 0.0128665939, -0.0520327240, -0.0048058480, 0.0700478032, 0.0312199667, 0.0755156949, -0.1035092697, 0.0659214184, 0.0888654217, -0.0682975501, -0.0888571963, -0.1009317264, 0.0981849656, -0.0120634511, -0.1031149998, -0.0496857092, -0.0208314136, 0.0705813542, -0.0365213901, -0.0725234747, -0.0828134120, -0.0758093596, 0.0792050436, -0.0512559898, -0.0050242841, -0.1029092297, 0.0816033259, 0.0623796806, 0.0781394765, -0.0808432698, -0.0106096342, 0.0967222676, -0.0522582382, 0.0444351062, -0.0681083798, 0.0313067213, -0.0570286736, -0.0294071287, -0.0298085213, -0.0009074360, 0.0674232021, -0.0960351601, -0.0718026087, 0.0114730895, 0.0095888749, 0.0896828398, -0.0794406533, -0.0608879514, 0.0342230871, 0.0595578477, -0.0237929747, 0.0632524863, 0.0788911805, 0.0344842449, 0.0971629992, -0.0619302280, 0.0763037279, -0.0878557637, -0.0188294798, 0.0361154601, 0.0253961459, -0.0181468874, 0.0397144482, 0.1004376933, -0.0191697702, 0.0832736418, -0.0802610964, 0.0520662144, 0.0938947126, -0.0908272713, -0.0463204794, -0.0824092329, 0.0663784668, 0.0069515631, -0.0886475295, -0.0148494765, -0.0223350301, -0.0407446027, -0.0690810680, 0.0309859738, -0.0421318673, -0.0863661319, -0.0112031996, 0.0061494559, 0.0417712554, 0.0656241551, 0.0966228619, 0.0397393480, 0.0091743916, 0.0812051818, -0.0754166245, 0.0014572293, 0.0823988691, -0.0557661653, -0.0625592396, 0.0477967337, -0.0311164930, 0.0251730755, -0.0514092445, -0.0194946900, 0.0467475727, 0.0533466116, -0.0697698519, -0.0756260976, -0.0463172197, -0.0725694969, 0.0015358254, -0.0956528410, -0.0260705203, -0.0229443014, -0.0692308992, -0.0161338300, -0.0748214051, -0.0599639826, 0.0407188460, 0.0928602442, 0.0643779561, -0.0281409845, -0.0020411760, 0.0115886107, 0.0014174953, -0.0376895070, 0.0815505609, -0.0509422012, 0.0257618949, 0.0776159391, -0.0754049271, -0.0713508651, -0.0262586474, -0.0356725454, -0.1024752334, -0.0740019456, -0.0615158975, 0.0257201269, -0.0716068596, 0.0377314165, -0.0379196629, 0.0631524846, 0.0948303714, 0.0310212895, 0.0258171633, -0.0340166837, -0.0349163935, -0.0392652899, 0.0655766502, 0.0106412470, 0.0285474434, -0.0810650811, -0.0937561095, 0.0828356817, 0.0061639398, 0.0278622434, 0.0828706250, 0.0281846896, -0.0046647340, -0.0611516424, -0.0157138184, 0.0125391558, -0.0678806007, 0.0333535150, 0.0994856134, 0.0857930407, 0.0390578136, 0.0462859347, 0.0649812743, 0.0038666502, -0.0836630315, 0.0928859636, -0.0891659036, -0.0986231863, -0.0047155991, -0.0418556854, 0.1011727229, 0.0995063707, -0.0428701043, -0.0099842250, -0.0144561008, -0.0624542572, -0.0863229707, -0.0982799605, 0.0063039213, 0.0502357259, -0.0386358351, 0.0412712768, 0.0621941611, -0.0851969793, 0.0176449791, -0.0326034352, -0.0755406916, 0.0753485188, -0.0238091648, -0.0059245825, 0.0160007328, 0.0695571676, -0.0747035593, 0.0706543550, 0.0419560298, 0.0465150401, -0.0385776162, 0.0612127259, -0.0108982697, -0.0551702492, 0.0473475233, -0.0067467988, -0.0535296611, -0.0117859915, 0.0218466446, -0.0228476077, 0.0756659135, -0.0292498022, -0.0906580463, -0.0806267634, 0.0169996545, -0.0311082006, -0.0902595147, 0.0423765257, -0.0215087682, -0.0468962789, 0.0083366260, -0.0502677076, -0.0786938816, -0.0996298790, 0.0634077862, -0.0638268143, 0.0780739561, -0.0013094023, -0.0882626176, 0.0424578711, -0.0630415082, 0.0037095249, 0.0425161198, -0.0969845951, -0.0676290765, -0.0889486298, 0.1033311561, 0.0828359053, -0.0950464606, -0.0402159393, -0.0602094606, -0.0346039832, -0.0986088738, -0.0640718639, 0.0037811175, -0.0074995756, 0.0231746510, -0.0928896889, 0.0120627135, 0.0207894593, 0.0182881057, -0.0063096210, -0.0212682709, 0.0612728819, -0.0197215900, -0.0048962459, 0.0201942846, -0.0775028393, 0.0298711881, -0.0104363337, 0.0201291591, 0.0772804096, -0.0922826678, 0.0640589371, -0.0351094753, -0.0613809563, -0.0030515641, -0.0957074314, -0.0118141249, 0.0351277664, 0.0024627075, -0.0652633756, 0.0829982087, 0.0376796052, -0.0064948797, 0.0665227547, 0.0367407128, 0.0894720182, 0.0971619710, 0.0698936358, -0.0338992625, -0.0968137756, 0.1011562273, 0.0283264443, 0.0242030844, -0.0437405445, -0.0932518020, 0.0790466592, 0.0782006755, 0.0960812792, 0.0212512687, 0.0920578018, 0.0033543259, 0.0897418782, 0.0462979898, 0.0720450804, 0.0361142978, 0.0310787037, -0.0246703029, -0.0376216173, -0.0444619283, 0.0890117809, -0.0223252848, -0.0337829515, 0.0589982793, 0.0749971941, -0.0037556961, 0.0940860137, 0.0231239125, -0.0756193399, 0.0651235506, 0.0637087449, 0.0672159567, -0.0517973639, -0.0091800168, 0.0610906109, 0.0926752612, 0.0617943928, 0.0343813524, 0.0784507915, -0.0115563273, 0.0745147243, -0.0637485534, -0.0939180776, 0.0545136705, -0.0096417069, -0.0280735120, -0.0591406748, 0.0118179992, 0.0839955285, -0.0634656101, 0.0767421201, -0.0550676361, 0.0254857317, -0.0325703397, -0.0720693618, -0.0479092672, -0.0139871538, 0.0393458679, 0.0166377649, 0.0876090005, 0.0828312561, -0.0782069713, -0.0272081345, -0.0731882155, -0.0263773724, 0.0983814672, -0.0470425747, 0.0908337906, 0.0040228218, 0.0345773324, -0.0726152509, -0.0898004919, 0.0418671146, 0.0933737829, -0.1003157496, 0.0985665247, 0.0526176617, 0.0038999468, -0.0887900218, -0.0812170058, -0.0893455893, 0.0696848854, -0.0812022686, -0.0261089429, 0.0275492594, -0.0335414708, -0.0558550581, 0.0003469586, 0.0580272451, -0.0290177688, -0.0962243974, 0.0436930880, -0.0740711465, -0.0502645485, 0.0494063720, 0.0191865042, 0.0837784037, -0.0861316100, -0.0719143748, 0.0139187202, -0.0934103653, -0.0488932282, -0.0338253751, -0.0612801202, -0.0895704105, -0.0935535729, 0.0714822039, -0.0992532820, -0.0666814446, 0.0142297447, 0.1015168354, -0.0282056704, 0.0494205132, 0.0799662694, 0.0531450734, 0.0130681694, 0.0312803909, 0.0985188261, -0.0737829730, 0.0408839360, 0.0472910628, 0.0835777596, -0.0163380653, -0.0836122409, -0.0500024371, -0.0408118069, -0.0759950429, 0.0472257659, -0.0841298997, -0.0086950809, -0.0282422453, 0.0198722780, -0.0434036069, 0.0278099999, 0.0087641329, 0.0946558639, 0.0867126510, -0.0549590960, -0.0234092698, -0.0825116485, 0.0726353154, 0.0276253745, -0.0563466810, -0.0934536755, 0.0054024532, 0.0258724317, -0.0307684764, 0.1002219245, 0.0485317335, -0.0012191758, 0.0720933005, -0.0335151106, -0.0283544585, -0.0353551507, 0.0385162756, 0.1015014574, -0.0163022354, -0.0353217125, -0.0899522603, 0.0885144100, 0.0181323290, -0.0226838440, 0.0718458220, -0.0755932480, -0.0902501121, 0.0605259612, 0.0204573050, -0.0810616985, 0.0528904125, -0.0875243992, -0.0276726335, 0.0130122751, 0.0937120095, -0.0433293507, -0.0542909950, -0.0756140798, -0.0682219118, 0.0621011481, -0.0802635700, 0.0424543694, -0.0363592580, -0.0937933028, 0.0258573666, 0.0817833021, -0.0397960320, -0.0542069413, -0.0337607414, -0.0063243508, 0.0384936407, -0.0618124865, -0.0426872857, -0.0806662962, -0.0097344741, -0.0033631846, -0.0410388224, 0.0541571155, -0.0312504470, 0.0068015680, 0.0737493411, -0.0267451853, -0.0740882009, -0.0921456814, -0.0919256210, -0.0403650478, 0.0123313367, 0.0568499789, 0.0984726176, -0.0534099452, 0.0213576630, -0.0064248964, 0.0771547481, -0.0803115964, -0.0434821099, -0.0746784657, -0.0832792968, -0.0773289278, 0.0358835980, 0.0596239641, -0.0336315185, -0.0816450268, -0.0467644967, -0.0401515514, -0.0862831399, 0.0136362463, -0.0028988048, -0.0246869102, -0.0584032275, -0.0749424770, 0.0611238256, 0.0900492296, 0.0934715942, -0.0404194146, -0.0802662298, -0.0127389282, -0.0125433281, -0.1004472151, 0.0978517607, -0.0748754740, -0.0362477824, 0.0528889075, -0.1023050994, 0.0786641166, -0.0071485937, 0.0637715235, -0.0969060436, -0.0773428455, 0.0493505225, 0.0705467686, -0.0555156507, 0.0853418931, -0.0963406861, 0.0484270975, 0.0819178745, 0.0345995352, -0.0094728321, 0.0321246162, 0.0472229794, -0.0719608217, -0.0407644212, 0.0770958439, 0.0064767450, -0.0266020745, -0.0159501657, 0.0805958435, 0.0069238693, 0.0404842868, 0.0190743431, -0.0078024045, -0.0540893972, -0.0139155388, 0.0625307634, -0.0602441095, 0.0360372439, 0.0253583416, 0.0054079816, -0.0323760957, -0.0561457723, 0.0171508566, -0.0196077973, -0.0427930318, -0.0655378103, 0.0819277540, 0.0945190564, -0.0227266327, -0.0712842792, 0.0131972656, -0.0757068992, -0.0015212893, -0.0178133845, 0.0381470546, -0.1034584790, 0.0927266404, 0.0667106286, 0.0153614357, -0.0678275898, -0.0705879480, -0.0821799934, -0.0361517817, 0.1011043116, 0.0792403594, -0.0582387708, 0.0189651623, -0.0521414094, -0.0234917998, 0.0839233622, -0.0840903372, -0.0942327306, -0.0733672604, -0.0770568475, 0.0625279471, 0.1022056714, -0.0956947953, -0.0112438500, -0.0588984042, -0.0057271272, -0.0084667802, -0.0329689011, -0.0529678762, -0.0345233604, -0.0758442581, 0.0199012011, -0.0937044621, -0.0207625106, -0.0328917503, 0.0290935114, 0.0969061628, 0.0630710497, 0.0510944948, -0.0221980661, 0.0768962875, -0.0183211714, -0.0344031975, 0.0004725456, -0.0001430884, 0.0637342110, -0.0177201480, -0.0366109014, 0.0512237623, 0.0249738470, 0.0941909030, 0.0430398509, 0.0600015447, -0.0924781039, 0.0338244066, -0.0617612526, 0.0349654034, -0.0554750785, 0.1034364477, -0.0605249517, -0.0400206074, -0.0822564960, 0.0051852316, 0.0776085928, -0.1014443785, -0.0083039030, 0.0093449950, 0.0458561257, -0.0837468654, -0.0886801556, -0.0376898572, 0.0070965216, -0.0651532412, -0.0835339576, -0.0839148760, -0.0773609355, -0.0693680570, 0.0039615706, -0.0256733671, -0.0142469183, 0.0806632116, -0.0550719537, -0.0572021417, 0.0782752857, -0.0463250689, 0.0168568119, -0.0229861811, -0.0319462642, -0.0217762813, -0.0245621875, -0.0369644240, 0.0429271385, 0.0386428908, -0.0736615285, -0.0985559374, 0.0438730195, 0.0923098847, -0.0398380607, 0.0527004078, 0.0018040091, -0.0532738157, -0.0445946492, 0.0369511768, 0.0322028026, 0.0223334506, -0.0048494786, -0.0735311285, 0.0080499873, 0.1010727659, 0.0743189976, -0.0246146023, -0.0011651069, -0.0755454227, 0.0537092909, -0.0710652843, 0.0857571587, 0.0840407833, 0.0068350285, -0.0828181282, -0.0069981515, 0.0744088218, -0.0832391754, 0.0835134760, 0.0558351651, -0.0749381334, 0.0899330154, 0.0723813996, 0.0818035975, 0.0116529986, -0.0142715499, 0.0874359086, -0.0241740122, 0.0355877951, -0.0934446380, -0.0799104422, 0.0817971304, 0.1016615555, 0.0522808656, 0.0489090905, 0.0761620179, 0.0402508602, -0.0982014537, 0.0664628074, -0.0531877615, -0.0144062191, -0.0623124018, -0.0862352848, -0.0161603540, -0.0964478105, 0.0689828172, 0.1013589129, 0.0680334643, 0.0755641833, 0.1024236605, 0.0998982564, -0.0840213150, 0.0560573265, 0.0938233808, -0.0021958798, 0.0383054838, 0.1031606272, 0.0809632763, -0.0217492357, 0.0838477239, -0.0613488257, -0.0804986358, -0.0539617091, -0.0693349168, -0.0692027360, 0.0809875205, -0.0392673612, -0.0166383311, 0.0905705914, -0.0680307448, 0.0805981830, 0.0900530592, -0.0650196970, -0.0316252187, -0.0070354939, -0.0954142734, -0.0746689364, 0.0803411826, 0.0676574633, 0.0034590587, 0.0048355162, -0.0065389797, 0.0212608203, -0.0371717513, 0.0021377429, 0.0324444100, -0.0067098066, -0.0407274738, -0.0294043645, -0.0173461139, 0.0446161702, 0.0136238337, -0.0423155241, 0.0838671252, -0.0074962452, 0.0478020087, 0.0275961533, 0.0232043341, 0.0284515247, 0.0441814587, 0.0457601473, 0.0729095712, 0.0998532400, 0.0914086774, -0.0769754052, 0.0356888548, -0.0218264312, 0.0292663351, 0.0674222931, -0.0945409164, -0.0471347272, 0.0840384439, 0.0858656988, 0.0763927624, 0.0798770264, 0.0126275793, -0.0322413743, 0.0298250541, -0.0917820409, 0.0972154960, 0.0838350132, 0.0559695885, -0.0073657706, 0.0416134223, 0.0663796440, -0.0463244282, 0.0944729224, 0.0291982517, -0.1025353000, 0.0912854746, 0.0928138271, -0.0573920198, 0.0061745793, -0.0241459012, 0.0853537396, -0.0061637163, 0.0095311999, 0.0714996830, -0.0430660024, 0.0416625217, -0.0209815353, 0.0679067597, -0.0366371349, -0.0889539123, 0.0054273307, -0.0193584636, -0.0330354348, -0.0302992314, 0.0871401057, 0.0919105932, 0.0448541716, 0.0075257570, 0.0069830790, 0.0516440794, 0.0965171531, 0.0227709040, 0.0346944109, -0.0929483995, -0.0119120479, -0.0160141587, -0.0720231086, -0.0235640779, 0.0294378027, 0.0770839974, -0.1007525101, 0.0479473248, 0.0591744110, -0.0628910437, 0.0507429913, -0.0013121888, -0.0975429267, 0.0635764673, -0.0978918821, 0.0524855033, 0.0850016549, -0.0730714127, 0.0175458193, -0.0028774366, -0.0020086244, 0.0800533816, -0.0943285301, 0.0203451961, 0.0821572170, 0.0665119961, -0.0136255398, -0.0106159225, 0.0767221227, 0.0850654617, -0.0806724653, -0.0527689904, 0.0265529826, -0.0040280521, -0.0654575974, -0.0562280491, 0.0097350404, 0.0200452954, -0.0767346174, -0.0510909893, -0.0398626849, -0.0002998933, -0.0488528050, -0.0392693356, -0.0845025480, -0.0029521361, -0.0335184708, 0.0177095085, 0.0213655531, -0.0233226269, -0.0201007277, 0.0045753494, 0.0453445390, 0.0250708684, -0.0110973343, 0.0380527303, -0.0073722303, -0.0331319273, 0.0427465811, 0.0823300406, -0.0526443869, 0.0492040291, 0.0365347192, 0.0580327585, 0.0037806258, -0.0568213761, 0.0177964270, -0.0475096181, -0.0046202168, -0.0315999240, 0.0559420958, -0.0316853374, 0.0309268162, -0.0299296975, 0.0598047301, 0.0117569417, 0.0144441053, -0.0151890293, 0.0112553462, 0.0963969305, 0.0003273636, -0.0358521342, 0.0064391792, 0.0399767533, 0.0478334948, 0.0426306501, 0.0418127999, -0.0382151380, -0.0462190472, -0.0330751911, -0.0606557243, 0.0480258241, 0.0462827012, 0.0226015374, 0.0839167312, -0.0000426173, -0.0812713653, -0.0371955931, -0.0354016200, -0.0177917928, 0.0600054637, 0.0225475952, -0.1018216684, -0.0729352385, 0.0338650867, -0.0215034634, 0.0248077437, 0.0432815030, 0.0894658938, 0.0742311701, 0.0479337499, 0.0007056892, -0.0343227237, -0.0052818060, -0.0635626763, -0.0652826279, 0.0378088728, 0.0525970235, 0.0596096143, -0.0198833346, -0.0507039279, 0.0945571288, 0.0710120276, 0.0061386973, -0.0014022142, -0.0681992322, 0.0321822688, -0.0257991031, 0.0038342476, 0.0435667560, -0.0782597587, 0.0792146549, 0.1033863649, 0.0045789778, 0.0177054852, 0.0817565992, 0.0059890896, 0.0956508890, 0.0212665945, -0.0841942132, 0.0332352296, -0.0779299513, 0.0968108103, -0.0744989738, 0.0935690477, -0.0367956236, -0.0184752643, -0.0908143669, 0.0647327676, 0.0067706406, 0.0921761766, 0.0063330904, -0.0245918706, -0.0085989386, 0.0440762267, -0.0337058306, -0.0954855904, -0.0277454108, 0.0213382095, 0.0759012625, -0.0470854416, -0.0293864682, -0.1021069512, 0.0460576788, -0.0689908415, 0.0425204262, -0.0879869759, -0.0435772948, -0.0448781587, 0.0316905752, 0.0457593128, -0.0314659402, 0.0784851685, -0.0975086242, 0.0517870560, 0.0128148645, -0.0865384638, -0.0459901281, 0.0167031363, 0.0337984785, 0.0997048989, 0.0100703761, 0.0452705249, -0.0015093982, 0.0615059212, 0.0963498577, 0.0978786275, 0.0488196686, -0.1026331037, -0.0392100811, 0.0790785030, 0.0802355632, -0.0473331176, -0.0961048752, 0.0594013110, 0.0359671041, 0.0627440140, 0.0248181745, 0.0729160085, -0.0444492437, -0.0427977219, 0.0691876784, -0.0915510952, 0.0205011368, 0.0081686601, 0.0986615345, 0.0506727770, -0.0323594064, 0.0860013887, 0.0892708823, 0.0272077844, 0.0744535699, 0.0460378304, 0.0972177610, -0.0517389737, -0.1005837321, 0.0790849850, -0.0500968583, -0.0905706361, -0.0250078291, 0.0709983036, 0.0302074477, -0.0465082340, -0.0362597778, 0.0586330071, 0.0843563303, 0.0861026123, 0.0890466496, 0.0553990975, 0.0316984430, 0.0882317647, -0.0015272126, -0.0807275996, -0.0167050883, 0.0909380987, 0.0825048164, 0.0685861632, -0.0355671942, 0.0962821171, -0.0244274139, -0.0662306398, -0.0231651738, 0.0526067093, 0.0457884744, -0.0615393445, 0.0096069872, -0.0875173435, -0.0408416912, 0.0354409888, 0.0959346518, 0.0142129362, -0.0697598830, 0.1022524610, 0.0657280311, -0.0244851857, 0.1017085388, 0.0252411887, -0.0164509267, 0.1009226665, 0.0144386739, -0.0151155144, -0.0825553760, 0.0478853807, -0.0270163789, -0.0829251111, 0.0774945393, -0.0288863778, 0.0285931751, -0.0309706703, -0.0845421851, -0.0863029510, 0.0858199373, 0.0123587549, -0.0288549885, 0.0338797942, -0.0814814568, -0.0169827715, -0.0425272174, -0.0127853304, -0.0870643705, 0.0598716065, -0.0687708333, 0.1034844443, 0.0294960961, -0.0235951766, 0.0952825621, -0.0394365638, 0.0381498113, 0.0275327340, -0.0343691409, 0.0957917348, 0.0514446124, -0.0457710065, -0.0836167037, -0.0331536159, -0.0761105642, 0.0703700408, -0.0480425805, -0.0552874953, -0.0563085042, -0.0237306356, -0.0711364821, -0.0483697951, 0.0601544753, 0.0605321601, 0.0040360019, -0.0476476476, -0.0435085669, -0.0505433418, -0.0463123582, -0.0225537866, 0.0285760239, 0.0406531021, -0.0055416450, -0.0719908774, -0.0142499059, -0.0290825740, -0.0451745987, -0.0526598357, -0.0419852026, 0.0624960586, -0.0612817220, 0.0831422880, -0.0338308737, 0.0454665646, -0.0406382158, -0.0818706676, -0.0066471472, -0.0594364740, 0.0537419692, 0.0226055905, -0.0917166397, 0.0089164004, 0.0256643817, -0.0137364417, -0.0775096491, 0.0183972344, -0.0653164834, -0.0608383231, -0.0225858688, -0.0064949095, -0.0545292459, 0.0726449862, 0.0955224857, 0.0160176903, -0.0019448027, -0.0402192175, -0.0929793268, -0.0657430291, -0.0887534022, -0.0534135476, -0.0191906542, 0.0346249864, -0.0176263899, 0.0288866237, -0.0004970804, 0.0010211021, 0.0940772519, 0.0403698608, -0.0719655901, -0.0351331905, -0.0004687682, 0.0197942182, -0.0016102344, -0.0865289420, 0.0988994166, -0.0471009910, -0.0320778787, -0.0113960132, -0.0232274383, 0.0693250969, 0.1009741947, 0.0897250995, -0.0291541219, 0.0585401431, -0.0694266409, -0.0901187956, 0.0612718239, -0.0540652126, -0.0439655408, 0.0140214041, 0.0152569413, -0.0257698596, 0.0535888448, 0.0215205923, 0.0843728110, 0.0858098045, -0.0378247201, -0.0915409327, -0.0751732737, 0.0581507161, -0.0920320302, -0.0721549243, -0.0127729848, -0.0974769890, -0.0731487572, 0.0621173456, 0.0474117473, 0.0262949690, -0.0598156862, -0.0746498406, 0.0426782742, 0.0516632423, 0.0089865923, 0.0385777429, -0.0561483130, 0.0755397454, 0.0589911267, 0.0144982487, -0.0779823437, -0.0490671135, -0.0206438527, 0.0975195393, -0.0822156519, -0.0992230549, 0.0542490408, -0.0844482780, 0.0064878017, 0.0248376057, 0.0799938068, 0.0198175609, -0.0638792217, 0.0541800484, -0.0970034525, -0.0622132942, 0.0715685561, -0.0427523851, -0.0899732411, -0.0216575786, 0.0918547437, -0.0294998959, 0.0415415987, 0.0128169134, -0.0392802730, 0.0033234730, 0.0359438136, 0.0730360523, 0.0232250914, 0.0562036857, -0.0464029051, 0.0127173364, -0.0318784490, -0.0871854424, 0.0843936130, 0.0404279009, -0.0369071215, -0.0245091468, 0.0892288312, -0.0423347726, 0.0109523460, -0.0848943219, 0.0011740625, 0.0974132493, 0.0099520162, 0.0796177462, 0.0330249891, 0.0754688159, 0.0775895342, -0.0293497443, 0.0809585974, 0.0961121395, -0.0493900366, -0.0599314049, 0.0577339604, -0.0218889415, 0.0250828341, -0.0822557807, -0.0975816995, -0.0856662244, 0.0609764531, -0.0162939653, -0.0905271769, 0.0726945028, -0.0109460503, 0.0821153596, -0.0732944310, 0.0666758642, 0.1032568291, 0.0437734202, 0.0956690833, 0.0386592820, 0.0360635594, 0.0005838498, -0.0976022333, 0.0589029714, 0.0697834715, 0.0763499960, -0.0521460027, 0.0413892046, -0.0756236613, 0.0241756663, -0.0997333303, 0.0459022745, -0.0362112820, 0.0923551247, -0.0879078060, 0.0893468931, -0.0418286659, -0.0899137929, -0.0610301979, 0.0951596424, 0.0259476975, 0.0035790950, 0.0964022800, 0.0659844652, 0.0905738249, 0.0457266793, -0.0594821535, -0.1016167626, -0.0280937478, -0.0803730637, -0.0925789401, -0.0572831109, -0.0079980865, -0.0319475755, 0.1028173789, -0.0692029297, -0.0805635154, 0.0756115392, 0.0432095155, 0.0263739899, -0.0737656951, 0.0401026085, 0.0058133826, -0.0400006920, 0.0604511127, 0.0449011847, 0.0809938386, 0.0895920023, 0.1005864963, -0.0172276869, 0.0130744129, -0.0109879822, 0.0518822148, 0.0014279559, 0.0658948794, 0.0257992223, -0.0012058243, -0.0043642744, -0.0560059436, 0.0615385100, 0.0732962117, -0.0527556613, 0.1029563621, 0.0087155402, -0.0587212108, 0.0816866681, 0.0850705579, -0.0919949412, 0.0467083529, -0.0678099990, -0.0568742864, -0.0477902666, -0.0044787377, -0.0213024318, 0.0628114566, 0.0593210831, 0.0682317838, -0.0580929443, 0.0264572874, 0.0977176055, 0.0284716859, -0.0316544175, 0.0533924922, -0.0114031509, 0.0009329244, 0.0288492218, -0.0835440755, -0.0091588199, -0.0807070434, -0.0409077555, 0.0828561410, 0.1006193236, 0.0035320371, 0.0107127354, -0.0484134741, 0.0661767647, -0.0895863324, -0.0499730445, -0.0211476162, -0.0225861147, 0.0094109103, -0.0249844119, -0.0971452594, 0.0216002539, 0.0433173254, 0.0535549000, 0.0010620728, -0.0971442908, -0.0964117795, -0.0098020434, 0.0279287323, -0.0167379379, 0.0985356495, -0.0647245944, 0.0096856579, 0.0125339031, 0.0467654541, 0.0327129588, 0.0933136269, 0.0057034642, 0.0026926398, 0.0418740436, 0.0635939613, -0.0163916424, 0.0316685513, 0.0302639678, 0.0713771805, -0.0267652273, 0.0002549291, -0.0787351653, 0.0106265098, 0.0023562461, 0.0345361605, 0.0405821875, -0.0947144851, -0.0909479260, -0.0167923495, 0.0103914216, -0.0909043923, 0.0628934875, 0.0302794352, -0.0145662874, 0.0906252787, -0.0363601670, -0.0647491515, 0.0029499382, -0.0610893294, 0.0036740378, -0.0967829227, 0.0007767826, -0.0672280937, -0.0906985477, -0.0343805403, -0.0998917967, -0.0224116147, 0.0016888827, -0.0648695081, -0.0305047110, -0.0698148459, 0.0235815272, -0.0938425809, 0.0862932876, -0.0469948240, 0.0657328144, -0.0342332348, -0.0021242872, 0.0758850798, 0.0079504550, 0.0788707957, -0.0337575302, 0.0402065888, -0.0836678147, 0.0375207588, -0.0848429427, -0.0210919455, -0.0038482696, 0.0531713441, -0.0975329801, 0.0655981973, -0.0948994756, -0.0456621982, -0.0270940438, 0.0212567747, 0.0676161721, 0.0134717897, -0.0430672355, 0.0577555820, 0.1014603153, 0.0620003119, 0.0840475485, 0.0869735256, -0.0917024761, 0.0350537524, -0.0079356208, -0.0402181819, -0.0181772187, 0.0499706492, -0.0646789670, 0.0973950550, 0.0343125239, 0.0554705188, 0.0906333253, 0.0792720541, 0.0040289387, -0.0877522603, -0.0962370783, 0.0813111588, 0.0287191048, 0.0905627832, -0.0144817904, -0.0007299706, 0.0442984626, -0.0285065994, -0.0318559408, -0.0943302587, -0.0806460083, -0.1031946167, -0.1013705656, -0.0736894682, -0.0984211192, -0.0314486697, -0.0147978440, -0.0431617573, -0.1031041667, 0.0947433785, -0.0642685294, -0.0299210846, -0.0634915233, -0.0411516055, 0.0544909909, 0.0007024780, 0.0779141113, 0.0122938529, -0.0417351797, 0.0386647359, 0.0773394927, 0.0706688240, 0.0872036293, 0.0991683379, 0.0277550146, -0.0367482677, -0.0197291896, 0.1000779495, -0.0297229141, -0.0143203139, -0.0048436075, 0.0820566490, 0.0143559724, -0.0036487877, 0.0890464857, -0.0021187887, 0.0840405151, 0.0392488018, -0.0842870325, -0.0345198289, 0.0924165323, -0.0804235339, -0.0670188665, -0.0341942906, 0.0980773941, -0.0694811642, 0.0855132565, -0.0470791496, -0.0671497136, 0.0170044154, -0.0554137528, -0.0128550902, -0.0273133367, 0.0218131468, -0.0402092710, 0.0360157266, -0.0305586308, -0.0260113180, 0.0767974183, -0.0316023901, -0.0258461908, 0.0069065690, 0.0766230896, -0.0069528446, -0.0639201924, 0.0489777997, -0.0196382254, -0.0099576190, 0.0475746021, 0.0942516103, 0.0026431382, -0.0592544675, -0.0142359361, -0.0370611623, -0.0668234378, 0.0643478706, 0.0187419206, 0.0849328712, 0.0134512559, -0.0592950173, -0.0919067413, -0.0207399055, -0.0553037338, 0.0799605176, 0.0408976898, 0.0291746482, -0.0567344055, -0.0890600085, 0.0789886937, 0.0530904010, -0.0262869522, -0.0679353625, 0.0262992606, 0.0414757803, -0.0344719067, -0.0063825920, -0.1033994704, -0.0600480102, -0.0592563935, 0.0941062048, 0.0123160630, 0.0390620306, -0.0543864518, -0.0292439982, 0.0694678649, 0.0567843243, -0.0064609721, -0.0014012828, 0.0073993281, 0.0447132066, 0.0513526574, 0.0254078284, 0.0765021667, -0.0371442810, 0.0722990409, -0.0856234282, 0.0069244429, 0.0029785931, 0.0403932109, 0.0055566728, -0.0762306750, 0.0906055048, 0.0844144449, 0.0834067836, -0.0776730925, -0.0604478791, 0.0963225141, 0.0003626794, 0.0354190394, -0.0199360698, 0.0485836640, 0.0477190390, -0.0611837730, 0.0417345837, -0.0189475417, -0.0999802426, -0.0071175471, -0.0107323080, -0.0994796380, -0.0749852955, -0.0661816448, 0.0366778597, 0.0290598199, 0.0555669889, -0.0553725399, 0.1006635651, -0.0385002494, -0.0580011643, -0.0146099180, -0.0350212976, 0.0011520460, -0.0086346194, -0.0975788385, -0.0726709068, 0.0755881444, 0.0702402070, -0.0720525831, 0.0997618660, 0.0734117255, 0.0102047771, 0.0159385428, -0.0314399078, -0.0518185906, 0.0676225796, 0.0180748776, -0.0157361329, 0.0806227848, -0.0366404429, 0.0308301225, 0.0481827334, -0.0463047586, -0.0978569686, 0.0836476609, 0.0068470463, -0.0122276396, -0.0178955868, 0.0074163824, -0.0061490834, 0.0864113197, 0.0200052932, 0.0847035125, -0.0340666771, -0.0763263330, -0.0189298987, -0.0842971951, 0.0469013676, 0.0322166756, 0.0277576968, -0.0209957436, 0.0617590025, 0.0231080130, 0.0498601422, 0.0185293332, 0.0160834119, -0.0605179183, -0.0563457161, 0.0258819535, 0.0498288199, -0.0027854294, -0.0002509058, -0.0474471822, 0.0172000974, 0.0004523844, -0.0046401098, -0.0204321593, 0.0839319304, -0.0902855471, -0.0045988932, 0.0816067979, 0.0981402323, 0.0632538423, -0.0631419271, -0.0140971243, 0.0127331838, -0.0041967779, 0.1012253538, -0.0698065236, 0.0450311378, -0.0437824726, -0.0847995058, -0.0733829290, 0.0120340586, 0.0045228601, -0.1014624909, 0.0499203280, -0.0961644277, 0.0868418440, -0.0764321089, -0.0574474968, 0.0267300084, -0.0731254816, 0.0136738792, 0.0380180553, 0.1002122685, 0.0565881059, 0.0416348651, 0.0115585998, -0.0795591176, -0.0416065305, -0.0983891636, 0.0687641725, 0.0616310313, 0.0831772014, -0.0746943355, 0.0061253160, 0.0298726335, 0.0459768996, -0.0646292120, 0.0564862415, -0.0637530461, 0.0754435286, -0.0046621189, -0.0688834488, 0.0030750632, 0.0060395598, -0.1011774093, -0.0670767128, -0.0324834436, -0.0053180531, -0.0665367991, -0.0104480088, 0.0680227205, -0.0219746977, -0.0796920583, 0.0986202732, -0.0565450974, -0.0575195588, -0.0826691464, 0.0868041292, 0.0796738192, 0.0768867806, -0.0265317410, 0.0996112004, 0.0807299688, 0.0893969163, -0.0367743969, -0.0992249995, 0.0410467461, 0.0520805493, -0.0895275697, -0.0755687952, -0.0286774039, 0.0448217168, -0.1022358015, -0.0476554222, -0.0673413724, -0.1009518430, -0.0877626762, 0.0409530476, 0.0602128878, 0.0971473232, 0.0753699318, 0.0772766843, 0.0725189522, 0.0478884801, 0.0333994254, -0.0122018009, 0.1022971794, -0.0672821403, 0.0800468698, 0.0003339276, -0.0580496304, -0.0865275562, -0.0548199601, -0.0816851109, -0.0276208073, -0.0064542890, -0.0016693398, 0.0446818098, -0.0086317807, 0.0542385355, 0.0518706813, 0.0347414389, -0.0445251539, 0.0393514261, -0.0461848192, -0.0400954783, 0.0227828547, -0.0976365358, 0.0175477937, 0.0584564134, 0.0024352446, 0.0982596502, 0.1002769843, 0.0632722750, 0.0537381992, 0.0745882168, 0.0398291722, 0.0728172734, -0.0385608375, -0.0661170185, 0.0755073205, -0.0764019713, 0.0042532682, 0.0757857189, -0.0196113512, 0.0046876892, -0.0077373758, -0.0486795865, -0.0956530347, -0.0450323001, -0.0093444511, 0.0945443437, 0.0939092711, 0.0493713245, 0.0906515047, 0.0092904046, -0.0329555199, -0.0661620274, 0.0333113596, -0.0876844451, 0.0450101867, -0.0992153510, -0.0884588808, -0.0852743015, -0.0388344526, 0.0378702357, -0.0563770831, 0.0397859588, 0.0720250681, -0.0988734066, 0.0682501569, 0.0230852142, -0.0763813928, -0.0203681961, -0.0241185576, 0.0985818282, -0.0319543555, 0.0032351539, -0.0785354972, 0.0364388004, 0.0267585441, -0.0688591301, 0.0443098769, 0.0405315533, 0.0249533728, 0.0631069019, 0.0041188449, -0.0550560839, -0.0404427573, 0.0410061553, -0.0276173577, 0.0956437066, -0.0477517173, 0.0441950485, 0.0356267169, -0.0273232087, -0.0315123647, -0.0602722913, 0.0072576478, -0.1034250185, -0.0956161693, 0.0197079629, 0.0241866037, -0.0780356005, -0.0390099883, -0.0260029286, -0.0706481412, -0.0894773751, 0.0400364324, -0.0844922811, -0.0627505183, -0.0585205257, -0.0853876024, -0.0088099390, 0.0880935416, -0.0308096856, 0.0169359073, -0.0342953056, -0.0421951935, 0.0157903284, 0.0258137360, -0.0215078816, 0.0469289497, -0.0357789323, 0.0213670656, 0.0529636368, -0.0275740176, -0.0977558568, 0.0347998813, -0.0093810260, -0.0593844019, 0.0701473132, 0.1027890667, 0.0187228397, 0.0354846194, 0.0076150000, 0.0284516141, 0.0778130069, 0.0312090591, -0.0377630293, -0.0627900064, -0.0413854122, -0.0549468808, 0.0601290837, 0.0262814686, 0.0100095198, 0.0773217455, 0.0006477162, -0.0066154599, -0.0250553414, -0.0693486333, -0.0110480711, -0.0096114278, -0.0449521951, -0.0693614930, 0.0784732029, 0.0164610445, 0.0031672865, -0.0216052607, 0.0214470476, 0.0263151601, 0.0433355942, -0.0747396946, 0.0510967895, 0.0312178209, 0.0521331653, 0.0323025510, -0.0751567632, -0.0347030684, -0.0144952908, 0.0297940895, 0.0213009268, -0.0917272791, 0.0300486460, -0.0491994433, 0.0479053184, 0.0506631806, 0.0380881652, 0.0837635770, 0.0205148831, -0.0450937264, 0.0673764721, 0.0627354011, -0.0123198405, 0.0421797857, 0.0574477986, -0.0449406207, -0.0317538679, -0.0875646025, -0.0351746008, -0.0328071788, -0.0192953646, 0.0097813904, 0.0544743612, -0.0403123349, 0.0376470909, -0.0661429316, 0.0826823190, -0.0373766571, -0.0621385425, 0.0596178696, -0.0383496135, 0.0424511805, -0.0858319849, 0.0257698819, 0.0830009207, -0.0609792359, 0.0765834525, -0.0417467058, 0.0440902188, -0.0877961367, 0.0122863725, 0.0273562297, -0.0248112455, 0.0361145958, 0.0245618895, -0.0921707004, -0.0947025642, -0.0031036362, -0.0451456979, -0.0582848452, -0.0464051738, -0.0098082423, 0.0292249992, -0.0919578522, 0.1007850394, -0.0213753283, -0.0480067953, -0.0319570750, -0.0187539831, -0.0025469139, 0.1005392596, 0.0995142385, 0.0974554941, 0.0116816461, -0.0567068644, -0.0668277144, 0.0110944211, -0.0461391397, 0.1009673700, -0.0769571215, 0.0575442091, -0.0145315379, 0.0638006553, -0.0315704346, -0.0938927531, 0.0972448364, 0.0718287155, -0.0157108605, -0.0504690856, -0.0854582563, 0.0217426941, -0.0861645788, 0.0753983185, 0.0363234505, 0.0459095463, -0.0681955740, 0.0768922642, 0.0764795616, -0.0044025779, -0.0127251819, 0.0681044832, 0.0770385638, -0.0378454998, -0.0724024996, 0.0945586786, 0.0162458941, -0.0748780668, 0.0568633601, -0.0775072277, 0.0696391091, 0.0682232454, -0.0157826021, -0.0055166930, 0.0353090242, 0.0287594870, 0.0937044546, -0.0002390370, -0.0683077425, -0.0403449312, -0.0178272501, -0.0932782069, 0.0778525546, 0.0471370444, -0.0111663565, 0.0599986836, -0.0117202178, -0.0315084383, -0.0534304529, -0.0288135260, 0.0667500272, 0.0435554013, 0.0643510148, -0.0910820067, 0.0087466612, 0.0054960400, -0.0231843516, 0.0738549158, -0.0170404017, 0.0810845271, -0.0772616267, 0.0047129095, 0.0192212015, 0.0274963751, 0.0667602941, -0.0684455186, -0.0635203719, -0.0376059487, 0.0311321691, 0.0453205183, -0.0765670463, 0.0447828695, 0.1032521948, 0.0129961297, -0.0541574359, 0.0659963861, -0.1010281518, -0.0794409066, 0.0175648481, 0.0941494629, 0.0702956989, -0.0533444472, 0.0345327333, -0.0048990622, 0.0104064494, 0.0453179553, 0.0043206662, 0.0342445448, 0.0416845605, 0.0774525478, 0.0106663406, -0.0966635570, 0.0914494023, -0.0291701108, 0.0939108655, 0.0705898926, 0.0981398299, -0.0629930198, 0.1011669412, -0.0602697507, -0.0615632311, -0.0974470004, 0.0118698254, 0.0143496320, 0.0839160904, -0.0777804703, -0.0081477612, 0.0328404680, -0.0967898071, 0.0812138394, 0.0136277080, -0.0284939185, 0.0661353990, -0.0416448079, 0.0998022184, -0.0727535263, -0.0073046908, 0.0050821006, 0.0413503423, 0.0096165389, 0.0306045786, 0.0897684023, 0.0768308118, 0.0794181004, 0.0303410366, -0.0684269145, 0.0201464295, 0.0943806544, -0.0710126907, 0.0589114800, -0.0889776573, -0.0516429245, -0.0323117077, -0.0210156143, -0.0210702494, -0.0922553763, 0.0920974836, -0.0611133911, 0.0625471696, -0.0659454763, -0.0472250991, -0.0855317712, -0.0267050341, 0.0814447328, -0.0918549672, 0.0202919394, 0.0899211392, -0.0586051978, 0.0972217098, -0.0562406853, 0.0101713389, -0.0722865835, 0.0138950273, 0.0948848650, -0.0496294685, -0.0326402262, -0.0655326471, -0.0381273106, 0.0750192478, 0.0195782557, -0.0069568157, 0.0408767387, -0.0735944510, -0.0437469371, -0.0719798505, -0.0396304876, 0.0570715442, -0.0863879994, 0.0211479142, 0.0122918785, 0.0163254589, 0.0270240977, 0.0929495171, -0.0864432305, 0.0547730401, -0.0079984814, -0.0902921632, -0.0769389793, 0.0439607576, 0.0398462489, 0.0850832388, -0.0698122531, 0.0780075863, -0.0475846417, -0.0757772326, 0.0701242313, 0.0686089471, -0.0669845417, 0.0819324628, 0.0447454825, 0.0970812663, 0.0902504995, 0.0264550373, 0.0382654294, -0.0212763175, -0.1002822891, -0.0063160583, -0.0186540633, -0.0292478502, 0.0240057036, 0.0524058416, 0.0926519856, 0.0072159916, 0.0818330869, 0.0175764188, 0.0350340083, 0.0613022372, -0.0861248523, 0.0135674402, 0.0972108021, 0.0741092488, -0.0467749126, -0.0831188411, -0.0785619020, -0.0963533670, -0.0316088796, -0.0238920078, -0.0013847426, -0.0976657048, 0.0232255384, 0.0668944642, -0.0167886987, -0.0370950028, -0.1030614749, 0.0336942747, 0.0761209056, -0.0431669392, 0.0190362632, -0.0339168832, -0.0974472240, 0.0477379784, -0.0752821788, 0.0253540203, 0.0346082821, -0.0353471115, 0.0859557465, 0.0401880816, 0.0648641065, 0.0032305121, 0.0217064694, 0.0345038399, -0.0877960622, -0.0908949375, -0.0525711142, 0.0136239082, 0.0232437029, 0.0184105113, 0.0489169881, 0.0328563079, -0.0979069918, 0.0670071021, 0.0092252791, 0.1003395393, -0.0370431989, 0.0036829710, -0.0593903735, 0.0889248177, -0.0988207906, 0.0988437459, -0.0161799043, -0.0392515212, 0.0634048954, -0.0704919249, -0.0747494847, 0.0334027037, 0.0261238441, 0.0253026262, -0.0331940651, 0.0221714154, -0.0809913650, 0.0730284229, -0.0759567916, -0.0275187865, 0.0851537958, 0.0422687158, 0.0296194628, -0.0625271797, -0.0812577978, -0.0659586787, -0.0064547583, -0.0235223994, -0.0942063481, -0.0017953739, -0.0849126130, 0.0890447274, -0.0305459499, 0.0049367473, 0.0024585128, 0.0855269656, 0.0651816204, -0.0790332407, 0.0098372400, 0.0468584225, 0.0140193626, 0.0042353272, 0.0243789479, 0.0193525180, -0.0286654308, 0.0013601929, -0.0764965639, 0.0464277789, -0.0265070349, 0.0828229412, -0.0278131813, 0.0066091940, -0.0010296702, 0.0204141438, 0.0766926333, 0.0433166102, -0.0866375268, -0.0597196370, 0.0436664894, 0.0650491491, 0.0808884576, 0.0394864157, -0.0458242409, -0.0459968895, -0.0904261693, 0.0352912620, -0.0281086341, 0.0293704346, 0.0053528994, 0.0984859243, 0.0037918016, -0.0358698517, -0.0250047222, 0.0045816451, -0.0945299119, -0.0490996167, 0.0402420685, -0.0359030664, 0.0250751004, 0.0101176649, -0.0696759522, 0.0311199203, -0.0413838550, 0.0526226237, 0.0437748209, -0.0651574284, -0.0166371018, -0.0440663770, 0.0179814920, 0.0944396630, -0.0102916732, 0.0221792087, 0.0955514088, 0.0366673693, 0.0899017975, -0.0540992431, -0.0064991266, 0.1029790714, 0.0300328508, -0.0031243712, -0.0633727163, 0.0640393868, 0.1009643003, 0.0664022192, 0.1013828740, -0.0822825804, -0.0058259889, 0.0356555209, -0.0923974738, -0.0845928937, -0.0135123357, -0.0118539259, 0.0263627693, -0.1009131223, 0.0904461369, -0.0344367400, 0.0988393947, -0.1009863690, 0.0044011921, 0.0640987232, -0.0344186723, 0.0686958656, -0.0296707675, 0.1026857123, -0.0229195505, 0.0886895582, 0.0938892737, 0.0526188388, 0.0470486209, -0.0524172187, -0.0358565226, 0.0565764830, -0.0598310381, 0.0178449228, -0.0733552203, 0.0788284466, -0.0137382671, -0.0273173377, 0.0757994726, 0.0217417106, -0.0954466239, 0.0464838818, -0.0387261882, 0.0686014667, 0.0449037924, -0.0747255236, -0.0647531748, 0.0105024725, 0.0936626717, -0.0625377670, -0.0143307075, -0.0743312389, -0.0037107617, -0.0408011451, 0.0310129598, 0.1010055467, -0.0003022403, -0.0315447897, -0.1001521796, 0.0375601426, -0.0878777727, -0.0637647212, 0.0218977705, -0.0827342495, 0.0394949988, 0.0686881915, -0.0136004612, 0.0554770306, 0.0175422356, 0.1030314341, -0.0727698877, -0.0912376791, -0.0285314545, -0.0531845540, -0.0189448521, -0.0968695432, 0.0741931126, -0.0748221204, -0.0035102442, 0.0575046465, -0.0476361699, 0.0426750258, 0.0732734874, 0.0775718614, -0.0638631135, -0.0717647076, -0.0445185900, 0.0819477066, -0.0387467444, -0.0888866633, -0.0883676708, -0.0163628682, -0.0767225251, 0.0600060150, 0.0269923732, 0.0183688030, -0.0755272657, -0.0488331355, 0.0115120560, 0.0599687621, 0.1019970402, -0.0698572397, 0.0996971056, 0.0993421003, -0.0157055557, 0.0247958377, -0.0658181757, -0.0892732590, 0.0085271671, -0.0292062685, 0.0092576072, -0.0336468443, 0.0042396486, 0.0137265474, -0.0621491298, -0.0645424649, -0.0552618057, 0.0858997032, -0.0513497442, -0.0489666983, -0.0984938219, -0.0640452653, -0.0213676021, 0.0392522588, 0.0807980075, 0.0327351913, -0.0329742059, 0.0101670176, -0.0802036002, -0.0761623904, 0.0289855078, 0.0126084313, -0.0520675965, 0.0143532157, -0.0175348595, -0.0713969171, 0.0189027265, -0.0131510124, 0.0438490584, -0.0686156005, 0.0069934651, 0.0487718657, 0.0946327969, -0.0589458607, -0.0556300133, -0.0343535170, 0.0318102166, 0.0968287513, 0.0353499278, -0.1008044332, 0.0049872845, 0.0386479273, -0.0092308372, -0.0800781325, -0.0444594100, 0.0548214391, 0.0857086703, 0.0089855269, -0.0188838169, -0.0456348546, -0.0763020962, -0.0769925117, 0.0582609996, -0.0899764225, -0.0113333091, -0.1030055732, 0.0708019361, -0.0448283553, -0.0275649354, -0.0495761111, -0.0814529061, 0.0083084702, -0.0214906037, 0.0121594295, 0.0803194419, 0.0522708818, -0.1004742086, 0.0471756980, -0.0250430256, 0.0944646671, 0.0490973666, -0.0017710179, 0.0570297167, -0.0285902396, 0.0345211849, 0.0488919690, 0.0470945314, -0.0132251754, 0.0535759106, -0.0997584537, -0.0784779936, -0.0785069391, -0.1034590229, -0.0614812486, -0.0387005955, -0.0175928324, -0.0534459725, -0.0881094113, -0.0226037353, -0.0763117447, 0.0805075690, -0.0868559331, -0.0358662978, -0.0391769409, -0.0537767187, -0.0348628387, -0.0060087144, -0.0150469542, 0.0846773759, 0.0914516374, 0.0782406107, 0.0297413990, 0.0557847396, 0.0657317564, -0.0816981122, 0.0717951283, -0.0831458643, 0.0082330480, 0.0947126374, 0.0648636594, -0.0439345203, -0.0124005899, -0.0121885017, -0.0888934284, 0.0778880939, -0.0923286229, 0.0943098441, -0.0350309983, 0.0695675090, 0.0253312215, 0.0313381329, -0.0064912066, -0.0144180432, 0.0230104402, -0.0153009742, -0.0891872719, 0.0586550459, 0.0968701616, 0.0049184561, 0.0315722898, 0.0818315819, -0.0504318960, -0.0985446349, 0.0008158013, -0.0093773752, 0.0435360149, 0.0581752732, 0.0623608753, -0.0955980495, 0.0949832126, -0.0261820927, 0.0281701609, -0.0571312644, -0.0914369076, 0.0223070756, 0.0780177787, 0.0466878489, -0.0658965111, 0.0598416999, -0.0008326098, -0.0972167477, 0.0194021985, -0.0922048837, 0.0769881085, 0.0101701543, 0.0658214167, -0.0556774437, -0.0988206416, 0.0723107979, -0.0572798289, 0.0623172596, 0.0904166922, -0.0594371408, -0.0987195820, 0.0618496761, 0.0723318979, -0.0617764555, 0.0196882486, 0.0242957100, 0.0322183743, 0.0708485022, 0.0902905539, 0.0838308409, 0.1013022587, -0.0351165384, -0.1022154391, 0.0968549177, 0.0971055552, -0.0158563182, -0.0098648071, -0.0639753491, -0.0628782809, 0.0114450306, 0.0354777500, -0.0557639673, -0.0071102455, 0.0021844059, -0.0678464919, 0.0050974563, -0.0733971223, 0.0086827427, 0.0829041526, 0.0071691275, -0.1029345989, 0.0920625851, 0.0218422040, 0.0037807971, 0.0901597664, 0.0122510567, -0.0620109513, -0.0582415834, -0.0593491122, -0.0553410985, -0.0609393306, -0.0710246116, -0.0627841055, -0.0465391539, 0.0783716217, -0.0040531754, -0.0389542431, -0.0665882304, 0.0282096639, 0.0489962175, 0.0715689585, 0.0425490811, 0.0271196589, 0.0787178949, -0.0354875550, -0.0452825427, -0.0911276340, -0.0901084542, -0.0378516242, -0.0469255745, -0.0162661076, -0.0846475363, -0.0152306408, 0.0871869251, -0.0188014433, 0.0792252347, 0.0603645965, 0.0265768096, 0.0450278148, -0.0637224168, 0.0007048473, -0.0421123467, 0.0611184314, 0.0192401782, 0.0250070915, -0.0034894645, -0.0399289504, -0.0256647319, -0.0568624400, 0.0388407931, 0.0231451616, 0.0981531069, -0.0703320354, -0.0210224763, 0.0787322596, -0.0445868261, -0.0641525164, -0.0560301021, -0.0617786050, -0.0860964209, -0.0857724622, -0.0008750558, 0.0153184161, 0.0270897225, 0.0068701431, 0.0751250461, -0.0652915090, 0.0687094107, 0.0967911109, -0.0224351808, 0.0116554648, -0.0972647294, 0.0779920742, -0.1009316817, 0.0475449041, -0.0237440839, 0.0021125451, 0.0506335869, -0.0173189715, -0.0231181160, 0.0608803257, 0.0831562206, 0.0513908640, 0.0803563371, 0.0599106029, -0.0684790611, -0.0307242498, 0.0351852104, 0.0176373720, 0.0993459001, -0.1007037461, -0.0393208414, 0.0500529781, 0.0649677590, 0.0622396693, -0.0416419692, -0.0235569477, 0.0423902795, 0.0940025225, 0.0201939866, -0.0179289505, 0.0279930905, -0.1007639170, 0.0191145390, 0.0153428540, -0.0090225935, -0.0643215925, 0.0006636828, 0.0714131817, -0.0242665112, 0.0710306838, 0.0866173580, 0.0408208594, -0.0570674948, 0.0136417523, 0.0470147356, -0.0371283367, 0.0471598431, 0.0984425470, -0.0845950916, -0.0235820934, 0.0896107927, 0.0229531899, 0.0913430378, 0.0828035995, 0.0020283610, -0.0980355665, -0.0494169332, -0.0826081932, 0.0854531005, -0.0134524629, 0.0735252276, 0.1011889502, -0.0062641650, 0.0778320804, -0.0987253338, -0.0791864693, -0.0080694035, 0.0896900073, 0.0486372337, 0.0951303169, 0.0033337697, 0.0233834013, 0.0392905846, -0.0878396705, 0.0641438738, 0.0843249336, -0.0462846197, 0.0426240042, 0.0152020380, -0.0328688249, -0.0834656730, -0.0526118614, 0.0218080655, -0.0864356309, -0.0083282366, -0.0760693997, -0.0249741450, -0.0634789392, -0.0897929370, -0.0773283094, -0.0607709736, 0.0740260109, 0.0166788548, -0.0449947156, -0.0318403170, -0.0349700898, -0.0807675272, -0.0864782259, -0.0389045626, 0.0839405432, -0.0292694643, 0.0166199207, -0.0494971909, 0.0776460990, 0.0734517053, 0.0769921914, 0.0098766461, 0.0722336695, 0.0584292635, 0.0808961019, 0.0541415736, 0.0973194316, 0.0838405862, 0.1018002257, 0.0104243159, -0.0943930671, 0.0542457327, 0.0303998217, -0.0527994186, -0.1031117216, -0.0190464556, 0.0840873495, 0.0909656510, -0.0527410284, -0.0121604875, -0.0828967839, -0.0949507058, 0.0280953869, -0.0400685593, 0.0739281550, 0.0247088298, 0.0946395770, 0.0638296530, -0.0876755565, -0.0233372599, 0.0757277980, -0.0812061206, 0.0444183424, 0.0257303789, 0.0569510832, -0.0951174125, -0.0605752729, -0.0041664466, -0.0103008002, 0.0431891009, 0.0576336160, 0.0032115579, -0.0200410783, -0.0456184186, -0.0547204800, 0.0290334448, -0.0546062663, 0.0777831450, -0.0498914570, -0.0261951685, -0.0868189633, -0.0164625198, -0.0615239926, 0.0442638770, 0.0800405219, -0.0255083665, -0.0019375458, -0.0395865068, 0.0183929130, 0.0524238870, 0.0948651657, 0.0222482905, -0.0759531185, -0.0987382382, -0.0394649878, -0.0542598031, -0.0606839322, 0.0581257865, 0.0880604759, -0.0829529017, -0.0961208940, 0.0977785662, -0.0825204104, 0.0195722058, -0.0566449948, -0.0779257119, -0.0942579731, 0.0133702829, 0.0671364591, 0.0974867567, 0.1008947566, 0.0742620900, -0.0370331332, 0.0690463260, 0.0104273260, -0.0622331612, 0.0677399114, -0.0890374258, 0.0812757686, 0.0416495726, -0.0314837098, -0.0228818879, 0.0318092480, -0.0175649151, 0.1002110317, 0.0052286461, -0.0927446038, -0.0639735237, 0.0104426295, -0.0219458044, 0.0472322330, 0.0389965698, -0.0981654003, 0.0617885217, 0.1014634296, 0.0541529730, 0.0645463094, -0.0448894128, 0.0988291278, -0.0748150647, 0.0014186800, -0.0806886107, -0.0137467831, 0.0979143903, -0.0704426467, 0.0047224611, -0.0154068917, -0.0497611538, -0.0559501946, -0.0229163617, 0.0112978444, -0.0409920588, -0.0540170372, -0.0394191369, -0.0294998661, -0.0379393771, -0.0696429759, -0.0975633636, 0.0643858537, 0.0223659500, 0.0245997682, 0.0822578743, -0.0525195375, -0.0188209414, -0.0724460557, 0.0859889165, -0.0723242462, 0.0804833248, 0.0767845139, -0.0849855319, -0.0988045260, -0.0741360784, -0.0775057524, 0.0807798132, -0.1000377908, 0.0188698545, 0.0831896439, -0.0198222771, 0.0716175959, -0.0609304234, -0.0800285488, 0.0596535727, 0.1032489613, -0.0558575504, 0.0978102461, 0.0533678904, -0.0715413839, 0.0701715276, -0.0483656749, -0.0992109850, -0.0276338384, 0.0609165207, -0.0535806939, -0.0759306103, 0.0588435158, 0.0246545002, -0.0630484670, -0.0247392058, -0.0877940878, 0.0257520899, 0.0517027751, 0.0711581185, -0.0198350325, -0.0582494810, -0.0121802315, 0.0912209377, 0.0149284452, -0.0414645039, -0.0270045549, 0.0508276597, 0.0803881958, 0.0412407890, -0.0253485218, 0.0260649696, 0.0761665627, 0.0638734326, -0.0299800187, 0.0601098761, 0.0573013499, 0.0810377374, 0.0813015774, -0.0335063487, 0.0248070434, 0.0183985159, 0.0806907788, -0.0176365599, 0.0998013988, 0.0848952606, -0.0343525335, 0.0086911395, -0.0729277879, -0.0079742447, 0.0081107914, -0.0657821447, 0.0311373696, 0.0401367471, -0.0069727078, 0.0005234107, -0.0445491187, 0.0907093063, 0.0649123713, 0.0694766417, -0.0178641006, 0.0908734128, 0.0207084343, 0.0507616773, -0.0213495865, -0.0017841458, 0.0105118752, 0.0444395468, -0.1025714576, 0.0146792680, 0.0499447063, -0.0360432193, -0.0500402935, -0.0290051103, 0.0350019261, -0.0985941440, 0.0907015130, -0.0916597322, 0.0191096291, -0.1024013907, 0.0154217258, -0.0899631754, 0.0586928353, -0.0443190634, -0.0013871118, -0.0930933133, -0.0266685560, 0.0117807537, 0.0127578601, 0.0360118523, -0.0263418406, -0.0868221968, -0.1027660444, -0.0560947359, -0.0184117407, 0.1007323191, -0.0307397991, 0.0933539495, -0.0662701204, 0.1007890329, -0.0568347760, 0.0587529764, 0.0890724882, 0.0093530938, -0.0271082073, 0.1010250673, 0.0705258027, 0.1012663916, 0.0648931935, -0.0185389146, -0.0901640579, 0.0346184447, 0.0078784153, -0.0999411047, 0.0123064592, -0.0753865913, 0.0927609429, 0.0224072114, 0.0484803244, 0.0642348453, 0.0653459355, -0.0176201761, -0.0238455683, 0.0710954741, -0.0836862773, 0.0009621978, 0.0380721465, 0.0305975005, 0.0497459546, -0.0333608463, -0.0879864842, -0.1029128060, 0.0550711825, -0.0884723812, 0.0755953267, 0.1030936018, 0.0914848819, 0.0092719272, 0.0466617122, -0.0893331990, -0.0767949522, -0.0347291306, -0.0729774088, -0.0033117011, -0.0472568125, -0.0272489786, 0.0772079304, 0.0862126127, 0.0106800646, 0.0960307941, 0.0325483754, -0.0926384628, -0.0506882071, -0.0594919994, 0.0046615079, 0.0719415322, -0.0194260627, 0.0370591208, -0.0463143587, -0.0949578881, 0.0578154996, -0.0606064908, 0.0817486867, -0.0381254554, -0.0215762630, -0.0566401593, -0.0625052452, -0.0875735879, -0.0977839381, -0.0646095872, 0.0391629711, 0.0131994560, 0.0542453155, -0.0029706731, -0.0263379887, -0.0729568824, -0.0034632087, 0.0125123039, -0.0313298926, -0.0708720013, -0.0794923306, -0.0687972158, 0.0692069605, 0.0349547192, -0.0112277046, -0.0993631557, -0.0744395480, 0.0995920971, -0.0642583147, 0.0873043910, -0.0693218112, -0.0204926506, -0.0990420878, -0.0976490229, 0.0391836241, 0.0439489856, 0.1017511114, -0.0966132805, 0.0016202033, -0.0806220770, -0.0482318886, -0.0171239376, -0.1004932150, 0.0380584076, 0.0878090188, -0.0322511941, 0.0246113166, 0.0650712773, 0.0668627545, -0.0592624173, 0.0660114661, 0.0860951915, -0.0009758174, -0.0788431838, 0.0158666074, 0.0711154267, 0.0373090580, -0.0569071583, -0.0210295543, -0.0049934834, -0.0677140653, 0.0438898280, -0.0342286229, 0.0726189092, -0.0341048315, 0.0878908262, 0.0093552619, -0.0562754832, -0.0463323966, 0.0995149538, 0.0000121444, 0.0638903007, -0.0479746647, 0.0561240092, -0.0148742050, -0.0384438857, -0.0575000606, -0.0014904961, 0.0906049684, 0.0680216178, 0.0406716242, -0.0797142461, -0.0430497415, -0.0253095552, -0.0470780395, 0.0350842103, 0.0334297493, 0.0304221287, -0.0677838326, -0.0540719479, -0.0887605846, -0.0785748065, 0.0984006599, -0.0790646523, -0.0594626106, -0.0867314488, 0.0591605231, 0.0943454131, 0.0786152110, 0.0457827076, -0.0235949755, -0.0780347586, -0.0048127100, -0.0392557383, -0.0388008654, -0.0540061556, 0.0823626891, 0.0933412388, 0.0953787640, 0.0757441148, 0.0862602368, -0.0274362639, 0.0270003453, 0.0821731016, -0.0032866821, -0.0271676332, 0.0845056549, -0.0259293318, -0.0084151775, -0.0737226829, -0.0310013443, 0.0173121095, 0.0200462863, -0.0623535179, -0.0155799612, -0.0933870375, 0.0614605471, -0.0654212683, -0.0620122366, 0.0992303863, -0.0912499651, 0.0783694312, -0.0382257253, -0.0012694001, 0.0074882209, -0.0563216060, -0.0327033550, 0.0111220330, -0.0582239628, -0.0909049064, 0.0358944759, 0.0301480517, -0.0486183316, 0.0632277057, -0.0651993379, -0.0407023579, -0.0713322833, -0.1014645696, 0.0337796882, 0.0547511354, 0.0658516660, 0.0128128901, 0.0415863916, -0.1005198434, -0.0498687997, -0.0784078091, -0.0455794260, -0.0435693972, 0.0221311375, -0.0500719063, -0.0590705648, 0.0924162045, -0.0296292081, 0.0047634766, -0.0724300146, 0.0470951423, -0.1014894694, 0.0206017047, 0.0839553252, 0.0797633603, -0.0397458076, -0.0260756537, 0.0130719692, -0.0153767616, 0.0245205984, 0.0341587141, 0.0708432570, -0.0992532074, 0.0007213578, 0.0461251512, 0.0119636506, -0.0488817543, -0.0471953601, -0.1019384712, 0.0733463094, -0.0773119777, -0.0747764409, 0.0254188254, 0.0978088155, 0.0190196261, 0.0006740466, -0.0591742396, 0.0752911791, 0.0413511619, 0.0474150702, 0.0462930128, -0.0253079236, -0.0795284137, 0.0645218864, -0.0846957564, -0.0031566694, 0.0698188320, -0.0538215339, 0.0352417305, -0.0583301038, 0.0120414346, -0.0673021078, 0.0142158270, -0.0790800005, 0.0125299543, 0.0195185542, -0.0050135180, -0.0380932763, -0.0237236768, 0.0092566013, 0.0800152197, -0.0035818145, 0.0439377502, -0.0431063510, 0.0750623718, 0.0483925417, 0.0091312826, 0.0530884489, 0.0258826241, 0.0364359245, 0.0694200322, 0.1005062982, -0.0787550062, 0.0376425758, -0.0225356445, -0.0594746768, -0.0216810033, -0.0044001341, -0.0903504789, 0.0780631676, -0.0499256849, 0.1006419286, 0.0872271433, 0.0078027248, -0.0581948422, 0.0619989410, -0.0050336570, -0.0722428039, 0.0994695947, 0.0095178187, 0.0255211964, -0.0216251984, 0.0394723192, 0.0708699748, 0.0595255569, 0.0416397974, -0.0773619711, -0.0154275224, -0.0544866994, 0.0876838192, -0.0194678679, -0.0234707221, 0.1007007882, 0.0798931643, -0.0971334875, -0.0836187601, -0.0926104784, -0.0770438164, 0.0415371582, -0.0782355964, 0.0531907156, -0.0578722917, 0.0923672244, 0.0829321221, -0.0045211092, 0.0236406848, -0.0289438292, 0.0260784701, 0.0052397475, 0.0192206353, 0.0700254515, 0.0802808478, -0.0165684223, 0.0476063117, -0.0719594210, 0.0423227027, -0.1029403508, -0.0690994263, 0.0015952811, 0.0642943755, 0.0194564909, 0.0286374167, -0.0867406279, 0.0996559635, 0.0399254486, -0.0856529176, -0.0935804695, -0.0340691209, 0.0554626361, 0.0842703655, -0.0446377136, -0.0583615936, 0.0648547933, -0.0379049554, 0.0164289102, -0.0254525393, -0.0747672841, 0.0671981350, 0.0998065546, 0.0428229496, 0.0403731689, 0.0926379636, 0.0147056505, -0.0373991653, -0.0510831401, 0.0461873338, 0.0910045430, -0.0181168094, 0.0755354092, 0.0109548122, 0.0099807233, 0.0620193407, 0.0572034195, 0.0068986043, -0.0419453941, -0.0434803814, 0.0552724376, 0.0181060731, -0.0751208812, -0.0100001693, -0.0018327385, 0.1030499563, 0.0300272033, 0.0099437535, 0.0952788815, -0.0766758025, 0.0783604905, 0.0868183896, 0.0981497541, -0.0203483552, 0.0276848301, -0.0672725141, 0.0609504059, -0.0338837653, -0.0382265151, 0.0088012740, -0.0803866163, -0.0563459657, -0.0898043141, 0.0636528209, 0.0914357975, -0.0905704424, -0.0818838179, -0.0660898909, -0.0273103043, -0.0406586230, -0.0607766733, -0.0288422331, 0.0858672485, -0.0854924321, 0.0625681207, 0.0799117759, 0.0553394482, 0.0141753256, 0.0506216511, 0.1012634113, -0.0186255574, -0.0095379129, 0.0908345506, -0.0986143276, 0.0346022025, -0.0157156214, 0.0701134726, 0.0020127669, 0.0620236620, -0.0823698938, -0.0450212955, 0.0854032412, 0.0528341457, 0.0430676863, 0.0009508654, -0.0934923738, 0.0867832825, 0.0102500618, -0.0272254050, 0.0516957417, 0.0833002999, -0.0955634043, 0.0569061711, -0.0249905810, 0.0737740919, -0.0395565256, 0.0002428889, 0.0820244625, -0.0249686912, -0.0806324184, -0.0168448463, -0.0352993533, 0.0138173401, -0.0352871642, 0.0685847774, -0.0929143205, 0.1007546857, -0.0828432515, 0.0428778306, 0.0834341869, -0.0695728958, -0.0235992968, 0.0846883282, 0.0764947608, -0.0151169151, 0.0461490825, -0.0002685785, -0.0902790576, 0.0509005859, -0.0821454898, 0.0417976454, -0.0336752534, -0.0632728487, 0.0670262799, -0.0646558627, 0.0930539742, 0.1008566841, 0.0288828835, -0.0974839702, -0.0296145976, 0.0726595297, 0.0640693530, -0.0515486300, -0.0598445870, -0.0768291354, -0.0270559639, -0.0455616824, 0.0478789881, -0.0157434344, -0.0785550177, 0.0920543894, 0.0839693919, -0.0180200934, -0.0836603418, 0.0715455040, 0.0965691283, 0.1003735736, 0.0140772089, -0.0682212114, -0.0137082562, 0.0316685811, 0.0374388769, 0.0759107992, 0.0979762301, -0.1014726609, 0.0488267168, 0.0214218497, 0.0927447602, -0.0654527843, 0.0055764914, -0.0322229117, -0.0432164930, -0.0502942130, -0.0297885090, 0.0992121920, -0.1018151790, -0.0752816871, 0.0238502249, 0.0660063550, 0.0471285507, -0.0249452963, 0.0727393404, -0.0424064659, -0.0922254175, -0.1014701426, 0.0488928631, -0.0910497233, -0.0387647301, -0.0434993617, -0.0188390538, 0.0816225782, 0.0924573764, 0.0978164598, -0.0657393336, 0.1002301648, -0.0711654052, 0.0644581392, -0.0097320825, -0.0810126141, -0.1004824787, 0.0326975808, 0.0999533907, 0.0176541284, 0.0696659759, 0.1030447111, -0.0390983671, -0.0771794990, 0.0242582634, -0.0177380890, 0.1004380062, -0.0367255583, -0.0923630968, 0.0236999169, 0.0057895184, 0.0698260888, 0.0330452845, 0.0282366946, -0.0002955496, -0.0263005719, -0.0635885894, 0.0310789123, 0.0992690101, -0.0652245879, -0.0116362870, 0.0520336404, -0.0436253697, -0.0693654716, -0.0964777991, -0.0731493235, 0.0132984444, -0.0066867620, -0.0186314285, 0.0666322783, 0.0221682265, 0.0788740143, 0.0944337323, 0.0964074358, -0.0045074075, 0.0754692182, 0.0415225998, 0.0435764268, -0.0752038509, 0.0219096169, 0.0848433897, -0.0327627063, 0.0967937782, 0.0532476529, -0.0486708730, 0.0704401955, 0.0314782634, -0.1022074446, -0.0516991429, 0.0343076363, 0.0099640861, 0.0244231448, -0.0534652472, 0.0443404093, -0.0435009412, -0.0033838376, -0.0770105273, 0.0314490870, -0.0392817035, 0.0764058903, 0.0926040784, -0.0408643931, 0.0461339876, 0.0305994973, -0.0858392939, -0.0871181637, 0.0595575050, -0.0159517750, -0.0327939242, 0.0455575660, -0.0441214107, 0.0440757796, -0.0241554826, -0.0596884452, 0.0750136301, -0.0783362836, -0.0348041803, 0.0452791676, 0.0350538716, -0.0118323341, -0.0943417326, 0.0158543661, -0.0158133283, 0.0891083255, 0.0434772298, 0.0007841662, 0.0453904942, 0.0608570799, -0.0705628246, -0.0960720554, -0.0469109379, 0.0205869451, 0.0040684268, -0.0412380062, 0.0615275428, -0.0423993319, -0.0769041106, -0.0101725012, 0.0907037035, 0.0156975836, -0.0922309458, 0.0715925619, -0.0660146773, 0.0064352825, 0.0517488942, -0.0077745691, 0.0733611658, -0.0727370679, -0.0329599902, 0.0500812158, 0.0141615793, 0.0964918658, 0.0968455151, 0.0598675087, -0.0140786096, -0.0191422552, -0.0788464397, -0.0361197740, -0.0487901233, 0.0603863373, 0.0451685563, 0.0949740335, 0.0612066314, -0.0919486955, 0.0733812824, -0.0818700492, -0.0676620454, 0.0095591620, 0.0716584846, 0.0518503264, -0.0839136690, -0.0535329171, -0.0137487352, 0.0367148444, -0.0282247439, 0.0861481652, -0.1030279621, 0.0630073026, -0.0633518174, -0.0916334763, -0.0170589536, -0.0037473291, 0.0493414924, 0.0405653939, -0.0383522063, -0.0333024785, 0.0274825916, -0.1033301279, 0.0018440634, 0.0305596963, 0.0576625541, 0.0679239556, -0.1032089069, -0.0774037540, -0.0426388904, 0.0896518007, -0.0713758618, -0.0070360079, 0.0669190213, 0.0657810345, 0.0423064008, 0.0574104562, 0.0935386196, -0.0902655870, 0.0132441744, -0.0464330390, 0.0623101071, 0.0521447882, -0.0002645776, -0.0244750679, -0.0866996422, 0.0169114545, 0.0177346841, -0.0122039244, 0.0517361686, 0.0003093928, 0.0313993320, 0.0093897134, -0.0806526989, 0.0977177992, 0.0325509831, -0.0002546087, 0.0984702781, 0.0418102965, 0.0252035037, -0.0844815224, 0.0269397721, -0.1023477390, 0.0242945626, -0.0150374249, -0.0308562815, 0.0688605383, -0.0012182146, 0.0247347429, 0.0588860586, -0.0026743039, 0.0671999678, -0.0456129387, 0.0268262103, 0.0531062260, -0.0242652968, -0.0182371438, -0.0870409012, 0.0403526053, 0.0014306456, 0.0941669568, 0.0652145371, 0.0347076282, 0.0657809600, -0.0990545452, 0.0134143382, 0.0859081671, 0.0833041742, -0.0931253955, -0.0790414512, -0.0840313360, 0.0708829537, 0.0847439989, 0.0327336863, 0.0172031522, -0.0160850361, 0.0374668762, -0.0570121408, 0.0414166972, 0.0559949353, -0.0486920737, -0.0858759657, -0.0948533490, 0.0760933235, -0.0252879858, 0.0975116417, 0.0760560259, -0.1017167568, 0.0574653819, 0.0253383294, -0.0833519548, 0.0037913322, -0.0238715261, -0.0451853573, -0.0478849560, 0.0012148842, -0.0569855869, 0.0278683826, 0.0689164922, 0.0721655264, -0.0172083601, -0.0888988525, -0.0301690549, -0.0792424157, 0.0939160958, 0.0978168920, 0.0183879733, 0.0654865429, -0.0339361802, 0.0120232031, -0.0360532850, -0.0613205656, -0.0266999975, 0.0418510661, -0.0172524899, -0.0460821055, 0.0512061939, 0.0205541700, -0.0481173061, 0.0547376350, -0.0582102165, -0.0022868216, -0.1017407924, 0.0539857224, 0.0789201036, -0.0310951695, 0.0990629867, -0.0581146367, -0.0032259449, 0.0046709552, 0.0248596892, -0.0990178511, -0.0254514292, -0.0495880060, 0.0411268696, -0.0814986378, 0.0152952224, -0.0357167944, 0.0241940990, 0.0989611074, -0.0680115968, 0.0775326267, 0.0874830857, 0.0950038210, -0.0000518262, 0.0762151852, -0.0800245032, 0.0425386503, 0.0701397136, 0.0083901286, -0.0815907568, -0.0246880949, 0.0813907906, -0.0583834350, -0.0300231054, -0.0242368206, -0.0274344385, -0.0542504750, 0.0294220820, 0.0279539749, -0.0537809879, -0.0397499576, -0.0292204097, -0.0797398612, -0.0713265091, 0.0830824599, 0.0107168332, -0.0277317390, -0.0014854074, 0.0031159073, -0.0029645264, 0.0476497486, -0.0401795134, 0.0841740295, 0.0865865871, -0.0198936686, -0.0920281559, 0.0063284710, 0.0926363841, -0.0865827650, -0.0409444496, 0.0673548654, 0.0016034245, 0.0668513700, -0.0596976988, 0.0290140733, 0.0003277063, -0.0571019724, 0.0970463380, -0.0221957713, 0.0241210237, 0.0548411533, 0.0640322343, 0.0576668158, -0.0452339016, 0.0928592160, 0.0445004329, 0.0885801241, 0.0952083692, 0.0757063106, -0.0200878903, 0.0062859058, 0.0888947025, 0.0148550794, -0.0530019328, -0.0956972092, -0.0550079867, 0.0569146797, 0.1014607474, 0.0921112075, -0.1013753787, 0.0556193218, 0.0126571730, 0.0834731832, 0.0291378573, -0.0899916738, 0.0140953213, 0.0148459226, 0.0804206207, -0.0786127374, 0.0358926281, -0.0301061273, -0.0967964977, 0.1031609103, -0.0103317499, -0.0868759453, 0.0158773661, -0.0619356073, 0.0034834892, -0.0324428007, -0.0089234859, 0.0268535241, 0.0116731599, 0.0001983419, -0.0534066111, -0.0614271052, -0.0314422026, 0.1032143310, -0.0409830734, -0.0977550149, 0.0883217975, -0.0518371984, -0.0230105147, -0.0669667497, 0.0010888949, 0.0628637299, 0.0706623569, 0.0077351555, 0.0084532574, 0.0027788430, 0.0036869943, 0.0632450059, -0.0711006001, -0.0431868285, 0.0849835649, 0.0837287232, -0.0240288824, -0.0733195841, 0.0353980884, -0.0979662165, 0.0495009348, 0.0804574862, -0.0206102431, 0.0273030773, -0.0209033713, 0.0261733755, -0.0149467066, -0.0390794352, 0.0853119120, -0.0143469647, 0.0999828801, 0.0864242986, 0.0170002207, 0.0272066966, 0.0189013928, 0.0316452160, 0.0800242051, -0.0587508529, -0.0310032666, -0.0725387484, -0.0249822885, -0.0881265849, 0.0466762707, 0.0132215470, 0.0006445795, 0.0973999724, 0.0345844850, 0.0707843378, -0.0893935114, 0.0052660331, 0.0740102604, 0.0674020275, 0.0258142874, 0.0710936412, 0.0139626488, -0.0064192638, 0.0856276676, 0.0723083541, -0.0030784383, 0.1030280069, 0.0806007758, 0.0078266636, 0.0496511832, -0.0490133651, -0.0277469158, 0.0485611036, -0.0105725601, -0.0393889770, 0.0079883859, 0.0045739412, -0.0892994851, -0.0240701437, 0.0671996400, 0.0242560431, 0.0955875143, -0.1006429866, 0.1004140452, 0.0481714085, -0.0832316428, -0.0704775378, -0.0578442551, -0.0213000625, -0.0756468028, -0.0210633650, -0.0058320612, -0.0906808302, 0.0655305460, -0.0173127502, 0.0031873509, -0.0361419320, -0.0009040534, -0.0404777303, 0.1033491716, 0.0215345100, 0.0523603782, -0.0927201211, -0.0157003477, 0.0153303668, -0.0181554034, 0.0806240663, 0.0444634333, -0.0792152658, -0.0050045848, -0.0211780742, 0.0292047039, -0.0513448343, -0.0473379791, 0.0181177184, 0.0009579509, 0.0856964961, 0.0273400173, -0.0604947433, -0.0762666836, 0.0835824981, 0.0193651542, -0.1019071266, -0.0481256470, 0.0296235755, 0.0263748392, 0.0744776353, 0.0140177533, -0.0315248519, 0.0957506225, 0.0693396851, -0.0616304800, 0.0875919536, 0.0119086429, 0.0517467931, -0.0429296792, 0.1000222042, 0.0990393236, -0.0283263251, -0.0292410627, -0.0287476629, 0.0820457414, -0.1032885388, -0.0402337089, 0.1020605341, -0.0616326034, -0.0291720629, -0.0628625900, 0.0416593626, -0.0034303591, -0.0140207931, 0.0164857954, -0.0871171802, 0.0751068369, -0.0123929605, 0.0519086644, 0.0428308472, 0.0183162838, 0.0731468275, 0.0853037611, 0.0343069211, 0.0319483057, -0.0629540533, 0.0896643922, -0.0988365114, 0.0399891362, -0.0080785379, -0.0306280255, -0.0679125637, -0.0801942199, -0.0619204305, -0.0278990343, 0.0529570207, 0.0450321957, 0.0737671778, -0.0208405703, -0.0831605494, 0.0366432294, -0.0591566414, 0.0001787990, -0.0031116381, -0.0732649937, -0.0677591115, -0.0638669133, 0.0343190506, -0.0176706165, 0.0587138608, 0.0977911726, -0.0669174194, 0.0228024200, 0.0694125369, 0.0505865738, 0.0352094546, -0.0923737884, 0.0164308324, 0.0225170329, -0.0293840244, 0.0147410110, -0.0666299611, -0.0727064162, 0.0096885264, 0.0869538561, -0.0535624586, -0.0611345880, -0.0932202339, 0.0002363995, -0.0018591210, 0.0985178128, 0.0619022623, 0.1015756503, 0.0062370151, 0.1012163982, 0.0084881261, 0.0190300196, 0.0657641515, 0.0416217819, 0.0674822703, 0.0176202208, 0.0802020952, 0.0117096603, 0.0746984258, -0.0354598910, 0.0226159766, 0.1011005864, 0.0792370513, 0.0332874581, 0.0598683283, -0.0364482924, 0.0170163140, -0.0775865763, -0.0709073395, 0.0963519141, 0.0611771420, 0.0533853397, 0.0072646588, -0.0910599679, -0.0785769299, -0.0239941776, 0.0895389989, 0.0442464277, 0.0025926903, 0.0954835489, 0.0042613894, -0.0649211556, -0.0501676351, -0.0015503392, -0.0463235117, -0.0785679221, -0.0460198410, 0.0462069735, 0.0362188295, -0.0473614000, 0.0540053919, 0.0572588816, 0.0576483533, 0.0843373314, -0.0111697391, -0.0531509668, -0.0021286085, -0.1011737064, 0.0168960541, -0.0240558311, -0.0445312001, 0.0371242985, -0.0268045887, -0.0778397992, -0.0237691849, -0.0590341873, -0.0010230020, -0.0414579660, 0.0214205384, -0.0884406492, -0.0499201082, 0.0731510296, -0.0134611502, 0.0460399762, -0.0569741838, 0.0540639237, -0.0111839995, -0.0381479859, 0.0353465155, -0.0674196333, 0.0438405499, -0.0002327710, -0.0586139821, -0.0484019741, -0.0764408931, -0.0648557097, 0.0536467656, 0.0780522898, 0.0881273076, -0.0302731991, 0.0604851022, -0.0052615926, 0.0706847683, 0.0368695036, 0.0306476727, -0.0705869347, 0.0224759504, -0.0294518173, 0.0693214163, 0.0618185326, -0.0057377443, 0.0031891465, 0.0278969929, 0.0646471754, 0.0501977727, -0.0110797137, -0.0606238618, -0.0241045952, -0.0193787739, 0.0587588176, 0.0719283000, 0.0774551556, 0.0025533810, -0.0791030303, 0.1002040729, -0.0831312984, 0.0578502044, 0.0855313018, 0.0923243240, -0.0843222961, 0.0321217552, 0.0226955190, 0.0595673248, -0.0880861133, 0.0408371761, 0.0041124299, 0.0995320007, -0.0362726599, 0.0146904215, 0.0135910138, 0.0836162344, 0.0403179601, 0.0925927386, 0.0477041379, -0.0923140869, -0.0860550106, 0.0602158085, -0.0499246754, 0.0159668252, 0.0478938445, -0.0259156153, -0.0443761684, 0.0086271688, -0.0564919151, -0.0130761415, 0.0652007386, 0.0019506291, -0.0925344899, 0.0186838210, 0.0495661423, 0.0085565895, -0.0399114043, -0.1012426317, -0.0280285031, 0.0708235875, -0.1018693224, 0.0662240908, -0.0212128982, 0.0380170420, 0.0591951981, 0.0140521824, 0.0989496931, -0.0544959791, -0.0612290837, -0.0274497122, -0.0004096180, 0.0935867205, -0.0241319090, -0.0955094546, 0.0890285149, 0.0155510902, -0.0646527261, -0.0177368522, -0.1004405767, -0.0532484204, 0.0733826384, -0.0209653154, -0.0259200558, -0.0144107118, -0.0511310175, 0.0959116891, -0.0734190643, 0.0018175319, -0.0648205727, -0.0413420759, 0.0956078693, 0.0928436443, 0.0419207439, -0.0394106209, -0.0538346395, -0.0311084986, 0.0627179965, 0.0457883254, -0.0078153908, 0.0760362819, -0.0287060812, 0.0961740240, -0.0509410389, -0.0892771780, 0.0543260202, 0.0579853728, -0.0089663267, -0.0837120116, -0.0578897148, 0.0853205696, 0.0124398768, 0.0461275950, -0.0300787315, 0.0425210670, -0.0860392898, -0.0149113238, 0.0103402883, -0.0205427185, -0.0564406328, 0.0110626817, -0.0280659869, -0.0765144378, 0.0032383576, -0.0038633719, -0.0477170683, -0.0037767738, -0.0452201553, -0.0592130348, 0.0556977615, 0.0611194298, -0.0828208178, -0.1034671888, 0.0439512059, 0.0312512591, -0.0432880372, -0.0695042163, -0.0331828371, -0.0786396116, -0.0727099180, 0.0345085785, 0.0256719366, -0.0459677689, 0.0110935047, 0.0635574684, 0.0365487412, 0.0847390667, -0.0013195947, 0.0944240615, -0.0177147165, 0.0306403115, 0.0891331360, -0.0547681078, 0.0765803978, 0.0343271568, 0.0109279826, 0.0361153111, -0.0592338368, -0.0779576898, -0.0950314030, 0.0597406402, -0.0638005733, 0.0723797157, -0.0329096913, 0.0064077452, -0.0090022609, 0.0905720219, 0.0632749274, -0.0457075350, 0.1003148183, -0.0317907408, 0.0374094769, 0.0249848738, -0.0450197160, 0.0000425205, 0.0371909961, -0.0019073412, -0.1001990438, 0.0638247058, -0.0636642277, -0.0181356370, -0.0680913031, -0.0309070945, -0.0907399058, 0.0274808779, 0.0792935416, 0.0716655180, 0.1005808488, -0.0329908654, -0.0590846315, 0.0283771381, 0.0249443278, -0.0800905973, 0.0839602128, 0.0139107704, 0.0108096004, -0.0178620964, 0.0327265039, -0.0318147987, -0.0419462845, 0.0775320604, 0.0059304535, 0.0985860452, -0.0927183256, -0.0808132142, 0.0497831181, 0.0122617707, 0.0130849034, 0.0942649171, 0.0100303739, 0.0040118173, 0.0946915820, -0.0792443156, 0.0215303376, -0.0523122624, -0.0237673819, 0.0814101622, -0.0079426542, 0.0335223898, -0.0137658864, 0.0138769895, -0.0600684471, 0.0978704467, 0.0113304481, 0.0370423570, 0.0774956569, -0.0175426826, -0.0226651132, -0.0654350221, 0.0921811387, -0.0665664673, -0.0274584517, -0.0362920761, -0.0273186192, -0.0356030986, -0.0091593415, 0.1009710357, -0.0193583146, -0.0846519992, -0.0734134614, -0.0079566464, 0.0768114105, -0.0150591210, 0.0755087957, 0.0671599880, 0.0540484861, 0.0049385950, -0.0999651924, 0.0224038586, 0.0030526519, -0.0408324599, -0.0398594812, -0.0746565461, -0.0048526675, 0.0598750189, -0.0365578681, -0.0043282434, -0.0823158920, -0.0665640384, -0.0840026066, 0.0073603168, 0.0149174407, 0.0734527037, -0.0759262666, -0.0377746746, 0.0309818015, 0.0510625765, -0.0827774853, -0.0100148991, 0.0726397559, -0.0476364680, -0.0437822752, 0.0084166825, 0.0190430731, -0.1031008363, 0.0243303105, 0.0667675212, 0.0502790585, -0.0993844047, 0.0704951063, 0.0302021727, -0.0517568439, -0.0484413616, -0.0796611831, 0.0337489173, 0.0577533916, -0.0526636094, 0.0655746832, -0.0155495629, -0.0871761590, 0.0811413601, -0.0072314143, -0.0039840266, -0.0866744220, -0.0132159665, 0.1014770791, 0.0703460798, -0.0137153417, -0.0767244995, 0.0205899328, -0.0313259661, -0.0727944672, 0.0353620127, -0.0313623399, 0.1031590030, -0.0533758625, -0.0117099062, 0.0447054282, -0.0844631344, -0.0693423897, 0.0266798064, 0.0759384856, 0.0302394107, 0.0480633304, -0.0395180956, 0.0187288374, -0.0475197360, -0.0832100809, 0.0315959230, -0.0236344412, 0.0435270742, -0.0085259825, -0.0507518537, -0.0772927254, 0.0939961895, 0.0127405077, -0.0312843323, -0.0200759023, 0.0622321740, 0.0385904536, 0.0843869224, -0.0808569193, 0.0538009778, 0.0908017978, -0.0396910980, 0.0144614056, -0.0877369568, 0.0583821014, 0.0638667569, 0.0805319175, -0.0706457943, -0.0977009684, -0.0341427401, -0.0112590268, -0.0524886400, 0.0703879520, -0.0579262860, -0.0591498576, -0.0950826108, 0.0412066653, -0.0807729587, -0.0179321095, 0.0597184822, -0.0767767653, 0.0460877642, -0.0349722356, 0.0055411756, 0.0911290869, 0.0375078246, -0.0019848570, 0.0715424195, 0.0257240310, 0.0592262819, -0.0892910734, -0.0988054127, 0.0852021948, 0.0562308207, 0.0273585245, -0.0597527809, -0.0160111487, -0.0311780944, -0.0486041680, -0.0324281678, 0.0552624539, 0.0464083031, 0.0261926129, 0.0658649281, 0.0068553388, 0.0644339100, 0.0580755696, 0.0560498759, 0.0767323896, 0.0093488991, -0.0965405554, -0.0882935598, -0.0332908332, 0.0677490160, -0.0786474869, -0.0091789588, 0.0809030160, 0.0460957363, -0.0780875236, 0.0866910294, 0.0818476155, 0.0285680816, -0.0710157305, -0.1008278355, 0.0417112187, -0.0016344413, 0.0205437094, 0.0595183298, -0.0149454772, -0.0294447839, -0.0787425712, -0.0753559917, 0.0571146831, 0.0624583289, -0.0583822988, 0.0019659549, -0.0573241524, 0.0131692514, -0.0735000372, -0.0667733401, 0.0909920558, -0.0677122921, -0.0827679336, 0.0008280426, 0.0130513608, -0.0583989099, -0.0258954242, 0.0242538229, 0.0008344576, -0.0833769813, 0.0915454999, 0.0883593783, -0.0357634127, 0.0730316564, 0.0054659024, -0.0298573151, 0.0910733119, -0.0132151544, 0.0154610127, 0.0099027604, 0.0244005397, 0.0656312183, -0.0380327180, 0.0691882744, 0.0732253864, 0.0093064457, 0.0266670063, 0.0101606995, -0.0598086268, 0.0034181923, 0.0490720198, 0.0299705192, 0.0754329190, -0.0387398824, 0.0128172860, -0.0938979611, 0.0616122261, 0.0061146319, -0.0839606076, 0.0839552060, 0.0082196742, -0.0253508911, 0.0766775534, -0.0661422163, 0.0521256104, 0.0472830161, -0.0997058898, -0.0352772400, 0.0062730983, -0.0670533776, -0.0855415910, 0.0061724037, 0.0478886142, -0.0525346883, -0.0967615768, -0.0231415853, 0.0995676592, 0.0942441747, -0.0669085383, -0.0317225009, 0.0096617490, -0.0447272249, 0.0758280680, 0.0057665184, -0.0343120098, -0.0569305047, 0.0058662891, 0.0519323573, 0.0875802711, -0.0982797369, -0.0812921748, 0.0812942460, -0.0604516789, -0.0905378908, -0.1019208506, -0.0498772673, 0.0503043011, -0.0120628327, -0.0067429543, 0.0677389279, 0.0520019755, 0.0759537295, 0.0495375618, 0.1028291807, 0.0083783120, -0.1005742103, -0.0875291154, -0.0614770539, 0.1003044918, 0.0532984212, -0.0214583203, 0.0161180571, -0.0700224638, 0.0608602837, 0.0185911283, 0.0266116038, 0.0721174851, -0.0414018705, 0.0641449615, 0.0817105696, 0.0006583557, 0.0940764323, 0.0357507989, 0.0668004677, -0.0241720155, 0.0686396137, -0.0723893419, 0.0758997872, 0.0428918526, 0.0847776607, -0.0701946914, 0.0484271422, 0.0287322327, -0.0144714937, -0.0847542435, -0.0866311565, 0.0983996019, -0.0059241354, -0.0626706928, -0.0132102668, 0.0821707621, -0.0426995978, 0.0510616675, -0.0512603559, -0.0196741819, -0.0428410806, 0.0371977314, 0.0006984100, -0.0127480105, 0.0909347013, -0.0744892284, -0.0048977062, -0.0276198685, -0.0579705350, 0.0643073097, 0.0189946741, -0.0523009077, 0.0568163618, 0.1030628756, 0.0056478828, 0.0021764636, -0.0892386809, 0.0453883186, 0.0852231458, 0.0464540198, -0.0447629578, -0.0363807976, 0.0907454565, 0.0945703611, -0.0909871608, 0.0434172079, -0.0821114779, -0.0466557145, 0.0015926361, 0.0526225194, -0.0988357216, 0.0526935682, 0.0156430155, -0.0916828066, 0.0748843029, 0.0467894897, -0.0619892105, 0.0832656100, 0.0866840705, 0.0529753491, -0.0065828636, -0.0532219149, -0.0469117276, 0.0164247379, -0.0232752189, 0.0403794274, 0.1012775525, -0.0157626867, -0.0368627757, 0.0166701451, -0.0546505898, 0.0682271644, -0.0146010816, 0.0783436224, 0.0854229704, -0.0902432725, 0.0166373178, 0.0843722001, 0.0797417089, 0.0155522749, -0.0228606164, 0.0297233090, 0.0602143034, 0.0497665331, 0.0404214635, -0.0490835756, -0.0566464290, 0.0303973630, 0.0973170176, -0.0532102920, -0.0463442914, -0.0387220383, -0.0582949854, -0.0878934711, 0.0298930183, -0.0337172076, -0.0910458714, -0.0409343094, 0.0893651024, -0.0439172462, -0.0918083191, -0.0627325326, 0.0254326984, 0.0577865317, 0.0320515409, -0.0125532746, -0.0279532298, -0.0907682627, 0.0399178490, 0.0559522435, 0.0984542444, -0.0856396705, 0.0040103570, -0.0660281181, -0.0769027770, -0.0208397508, -0.0507702380, 0.0756856278, 0.0857456550, 0.0623535886, 0.0322927758, -0.0376096740, 0.0091174319, -0.0071419552, 0.0977622941, -0.0880142450, -0.0648892224, -0.0478597097, -0.0971166044, -0.0207000971, 0.0606372580, -0.0822605416, -0.0863489807, 0.0513748452, 0.0677130893, -0.0038481951, -0.0366411358, -0.0009756982, 0.0683367923, -0.0520187840, 0.0109269023, 0.0515682176, 0.0037112534, -0.0983498245, 0.0223100856, -0.0651962534, 0.0304666832, 0.0703044906, -0.0030733049, -0.0116546005, -0.0702131316, -0.0398852155, -0.0768156350, 0.0093391761, 0.0099230483, 0.0490342602, -0.0407826826, 0.0429271683, -0.0020085946, -0.0892593116, -0.0548250936, 0.0584881529, 0.0236193165, -0.0430722944, -0.1002981812, 0.0296077356, 0.0983121917, 0.0267184153, -0.0686448961, 0.0695296302, -0.0420543998, -0.0302568153, -0.0628201663, -0.0504186191, -0.0523086078, -0.0422512367, -0.0565451458, 0.0720209703, 0.0670432225, 0.0233952329, 0.0228202716, -0.0454749614, 0.0338544622, 0.0749450251, 0.0769894794, -0.0006351024, -0.0365741774, 0.0135965124, 0.0780623779, -0.0975511745, -0.0274855196, -0.0240212753, 0.0477847680, 0.0636642501, -0.0038116947, 0.0426089838, 0.1026062295, -0.0138394535, -0.0167926773, 0.0498179570, 0.0931430236, -0.0964268595, 0.0451849625, 0.1025295034, 0.0497521684, -0.0480861142, -0.1005684361, 0.0520576760, -0.0628300905, 0.0138383135, 0.0780713931, -0.0013370439, 0.0538451746, -0.0365387648, 0.1006303057, -0.0833912939, -0.0717119128, -0.0937633142, 0.0278595015, -0.0055079833, -0.0069076344, -0.0883627087, 0.0553543940, 0.0122306719, -0.0939716548, 0.0794800892, 0.1027678177, -0.0176070705, -0.0316463932, -0.0021311790, -0.0024314374, 0.0745611116, 0.0220991001, 0.0784834400, -0.0574356765, -0.0139104500, 0.0472029820, -0.0992028192, 0.0510801300, 0.0227532908, -0.0883476287, 0.0736506507, -0.0299122706, -0.0591836646, -0.0233958438, 0.0754717812, 0.0829076394, -0.0938109010, 0.0436057970, 0.0118231550, 0.0694471225, 0.0133926421, -0.0339887440, -0.0703982413, 0.0404224768, 0.0477263257, -0.1010570973, -0.0433303602, 0.0257615671, -0.0841027498, 0.0264937654, 0.0242665634, -0.0827289894, -0.0032856464, -0.0218728781, 0.0550343618, -0.0033080801, -0.1014708877, 0.0150397941, 0.0291630551, -0.0758402124, -0.0109883472, 0.0897498801, -0.0673107952, 0.0533232465, 0.0404669419, -0.1019035727, 0.0933284238, -0.0529518835, 0.0647205040, 0.1031489596, -0.0891083032, 0.0163842142, 0.0868526772, 0.0994893387, -0.0446124412, -0.0982466638, -0.0488331355, 0.0793207362, 0.0653005913, 0.0615321174, 0.0197311640, -0.0140529200, 0.0886603668, 0.0825139359, -0.0466309600, 0.0131890178, -0.0372606888, -0.0901878253, 0.0448337570, 0.0245825425, -0.0158470646, -0.0966684148, -0.0861612707, -0.0932016522, 0.0956927463, 0.0047749057, -0.0268590301, -0.0998904407, -0.0900125057, 0.0138453245, 0.0893869922, 0.0420108959, -0.0435953364, 0.0334768817, 0.0825284794, -0.0237005502, 0.0166904777, -0.0027460232, 0.0880304649, 0.0998220816, 0.0995357111, -0.0011322573, 0.0288997814, 0.0658036247, -0.0672194064, 0.0415862277, -0.0754194632, 0.0564309880, 0.0092796981, -0.0063856319, -0.0727532804, 0.0206922963, -0.0943006426, 0.0167763829, 0.0247755125, 0.0163247436, 0.0277549848, 0.0288136080, -0.0794198513, -0.0413111262, 0.0120224357, 0.0309648737, -0.0550678074, 0.0255329385, -0.0834031105, 0.0495029166, -0.0333193094, -0.0654404461, 0.0589378104, 0.0564909950, 0.0849421546, -0.0393652171, 0.0258438662, 0.0923932269, 0.0861270502, 0.0702526346, -0.0682905167, 0.1006148532, -0.0875352323, 0.0558695123, 0.0109439269, 0.0650699213, 0.0689274892, 0.0099487603, 0.0263852999, -0.0287511945, -0.0669124126, 0.0608357266, -0.0697313994, -0.0167525485, 0.0528281704, 0.0240036324, -0.0314579010, 0.0884064361, 0.1023626253, -0.0132526904, -0.0603509657, -0.0044150874, -0.0260924324, 0.0077013522, -0.0899275094, 0.0108089820, 0.0036152303, 0.1006079242, -0.0796111599, -0.0078511462, 0.0183642879, 0.0044637322, 0.0025799051, 0.0283967778, 0.0071834400, 0.0740547106, -0.0910971835, -0.0006481335, -0.0023422241, 0.0869689807, 0.0690881535, 0.0454671606, -0.0092593133, -0.0443391763, -0.0423883013, 0.0205684602, -0.0595002435, -0.0590882078, -0.0100324452, 0.0945568159, 0.0483273193, -0.0986018404, -0.0179914385, 0.0228243843, 0.0720091686, -0.0151486024, -0.0721907020, 0.0740730986, -0.0514711365, 0.0669087991, 0.0426780060, -0.0809068382, 0.0563534722, 0.0610580370, -0.0162272602, -0.0836172029, -0.0572316088, 0.0854111239, -0.0537029058, -0.0221280307, -0.0494100004, 0.0358095393, -0.0148088783, 0.0628809705, 0.0407110229, 0.0829939172, -0.0127412528, -0.0146319792, 0.0957228765, -0.0921679437, 0.0711032227, -0.0235809088, 0.0205083936, 0.0168075338, -0.0645310432, 0.0281433836, -0.0350952148, 0.0227611884, 0.0970108882, 0.0956359133, -0.0875567347, 0.0397333428, 0.0608194247, 0.0982360318, 0.0827699080, 0.0757852718, 0.0946760997, -0.0250924826, 0.0221707299, -0.1015460342, 0.0213747099, 0.0429298207, -0.0161677077, -0.0398809239, -0.0087050796, 0.0796792433, 0.0447216704, 0.0379996970, 0.0936365351, 0.0704645291, -0.0974633917, -0.0670843720, 0.0430859402, 0.0158059001, 0.0330206081, -0.1012478620, 0.0979709253, -0.0076037198, 0.0849178359, -0.0773819610, -0.0042582527, 0.0974562392, -0.0018270388, 0.0217346326, 0.0009398907, -0.0447449908, -0.0447680168, -0.0604199432, -0.0439526327, 0.0130922049, -0.0097416341, 0.0159401968, -0.0689396113, -0.0742967129, -0.0452857763, -0.0218258351, -0.0239824578, 0.0324033126, -0.0674667358, -0.0765853375, 0.0113684759, 0.0663855150, 0.0639284626, 0.0887941495, -0.0691499263, 0.0974077359, -0.0200716555, 0.0992764607, 0.0852420703, 0.0087933019, 0.0046854392, -0.0658001900, 0.0857094303, 0.0789518729, 0.0235281214, 0.0096196979, -0.0390118435, 0.0629124418, -0.0252067447, -0.0205273703, -0.0529114604, -0.1022005081, -0.1019893065, 0.0484282300, 0.0082007498, -0.0349334180, 0.0921491310, 0.0355611667, 0.0230672434, 0.0422089323, -0.0652078539, -0.0404952988, 0.0289444551, 0.0257586762, 0.0872031078, -0.0588103756, 0.1007569507, 0.0394431427, -0.0031690150, -0.0093018562, 0.0073941499, 0.0187086239, 0.0890879855, 0.0599384084, 0.0062557235, 0.0920013562, 0.0634037927, 0.0996667072, -0.0921517760, -0.0560054220, -0.0497299358, 0.0776427463, 0.0675650313, -0.0499833114, -0.0105079040, -0.0220972300, -0.0266407207, -0.0309519619, -0.0404663533, 0.0844100788, 0.0103652626, -0.0924863219, -0.0242635235, -0.0572564602, 0.0850164518, 0.0580636784, -0.0893886760, -0.0918933675, 0.1024438664, 0.0330330953, -0.0999621078, 0.0826304927, 0.0118380859, 0.0389280543, -0.0500303246, -0.0840646476, -0.1026802659, -0.0939465091, -0.0201753303, -0.0401808172, -0.0851736814, 0.0583998188, 0.0049327016, 0.0584621057, -0.0054690912, -0.0873439535, 0.0557378754, 0.0541252270, 0.0319028720, 0.0363922045, -0.0244076252, -0.0531174019, 0.0187001899, -0.0282502174, 0.0157852918, 0.0113090947, 0.0615066662, -0.0691892356, 0.0132928416, 0.0901854560, 0.0845590904, 0.0069976375, 0.0112388358, 0.0840902850, -0.0902479142, 0.0249084309, -0.0574754067, 0.0644539222, 0.0129612088, -0.0903476626, 0.0279532596, -0.0877237767, 0.0185222998, -0.0802723765, -0.0278029144, -0.0963682458, -0.0228200406, 0.0234251395, 0.0223280266, -0.0945501924, -0.0675001591, -0.0311098769, 0.0397154763, -0.0873349681, 0.0054190904, 0.0787478760, 0.0546931103, -0.0552254803, -0.0841867328, -0.0571355596, 0.0326758102, -0.0793058872, -0.0508336388, -0.0884349495, 0.0589107499, 0.0764864907, -0.0468036607, 0.0828647539, -0.0103244185, 0.0651468262, 0.0928997174, -0.0855081528, 0.0758442655, -0.0258830860, -0.0008168891, 0.0514601097, 0.0660895035, 0.1022708192, 0.0662619248, 0.0649380162, 0.0621782765, -0.0663369521, 0.0875877216, 0.0832753554, 0.0837711170, -0.0377130061, 0.0709685013, 0.0933932140, 0.0376098678, 0.0200599283, 0.0113179311, -0.0223981142, -0.0585168712, -0.0948888883, -0.0135517493, -0.0272203013, -0.0415903926, 0.0369791016, -0.1003211513, -0.0657799244, -0.0351286754, 0.0123521164, -0.0141483769, 0.0273208395, 0.0126953498, -0.0837947130, 0.0098868385, -0.0149889812, 0.0321254060, 0.0676555559, -0.0017419681, -0.0687896162, -0.0000365749, -0.0867168158, 0.0109488145, -0.0097468421, 0.0832884386, 0.0040501431, 0.0597357228, -0.0283253342, -0.0497595742, 0.0781295225, -0.0259593651, 0.0316114798, 0.0279213712, -0.0409374163, -0.0812475085, -0.0815166011, -0.1018879786, 0.0278943256, -0.0227624178, 0.0452993438, -0.0608882941, -0.0111296847, -0.0474506877, -0.0462576225, 0.0637853071, -0.0678764060, -0.0028451532, 0.0101367384, -0.0139010996, 0.0076550245, 0.0563499853, -0.0881162211, -0.0309136137, -0.0243935585, -0.0663420111, 0.0404167250, 0.0530669913, 0.0145704821, -0.1033744961, -0.0144680664, 0.0516953990, -0.0601520091, -0.0681602806, 0.0987014398, -0.0468806848, 0.0927569941, -0.0051143318, 0.0847783759, 0.0667887405, -0.0345049202, -0.0513070971, -0.0143950954, -0.0162929073, 0.0537946150, -0.0351920798, 0.0629220679, 0.0106300414, -0.0828814805, 0.0687597021, 0.0213883817, -0.0635493994, -0.0825429410, 0.0067951977, -0.0920932367, 0.0272741243, 0.0700300112, 0.0911340341, 0.0413465872, 0.0888459459, -0.0101208910, -0.0282865688, -0.0029818490, -0.0448766761, -0.0861851871, -0.1005400270, 0.0025905222, -0.0592928678, -0.0620453544, 0.0998994187, 0.0039810613, -0.0340598226, -0.0907242373, -0.0444186665, -0.0459340587, 0.0789745972, -0.0257978439, -0.0518694781, -0.0864953548, -0.0925297290, -0.0065559596, 0.0872337148, 0.0775178894, 0.0326442048, 0.1022603586, -0.0046307519, 0.0573137924, -0.0288003013, -0.0863945633, -0.0419982821, 0.0377233997, 0.0455390289, 0.0707352385, 0.0968036279, 0.0482172593, 0.0722480789, 0.0505179688, -0.0065677837, -0.0850211233, -0.0681097433, -0.0403237343, -0.0029307678, 0.0798901543, 0.0688901320, -0.0196898282, -0.0657046288, 0.0323553905, -0.0799412429, -0.0924993455, -0.0759814456, 0.0207155198, 0.0612122789, 0.0929178968, 0.0453747436, 0.1012867764, 0.0877665505, -0.0889195576, 0.0653430596, -0.0156115517, -0.0375600904, 0.0059777647, -0.0070059523, -0.0709523261, 0.0080747381, -0.0123817325, -0.0286096558, -0.0204231292, 0.0298244134, 0.0086013824, 0.1024440154, 0.0461216196, 0.0707589462, -0.0727819055, 0.0761732981, -0.0511051044, 0.0017778724, -0.0803290159, -0.0375730991, -0.1007273868, 0.0664606616, -0.0053068027, -0.0535818562, -0.0507967211, 0.0531815961, -0.0666094273, -0.0024765283, 0.0137457699, -0.0448489152, 0.0590621904, 0.0126790851, 0.0919643864, 0.0076175630, 0.0607823208, -0.0620504133, 0.0990702435, 0.0463439748, -0.0983284488, 0.0506503507, 0.0168164894, -0.0586933494, -0.0579158738, -0.0589831024, -0.0009131357, 0.0367085114, -0.0219264030, -0.0563086495, -0.0554997809, -0.0494559035, 0.0702628121, 0.0950412974, 0.0920143351, -0.0823746026, -0.0080275536, 0.0437751189, 0.0662304386, -0.1015283391, 0.0870595500, 0.0184836313, 0.0477630422, -0.0387528911, -0.0491790324, -0.0351003483, -0.0523151495, 0.0360542759, -0.0031955391, 0.0616208389, -0.0282756314, 0.0502079055, -0.0761475563, 0.0546203330, -0.0137883648, 0.0330026820, -0.0930952430, 0.0588030294, 0.0631418303, -0.0305074751, 0.0975340381, 0.0898711011, 0.0466143563, 0.0291253999, -0.0535385422, 0.0623494908, 0.0904236957, 0.0884802118, -0.0265896097, 0.0467284843, 0.0849011764, -0.0791968331, 0.0099500194, 0.0365131274, -0.0142637044, -0.0526787154, -0.0092872232, -0.0874349624, -0.0327718407, 0.0478473231, -0.0602866039, 0.0786696002, -0.0066275820, 0.0159858540, -0.0453776792, -0.0791947842, -0.0378201306, 0.0302016363, -0.0552248135, -0.0213843882, 0.0809919313, -0.0824667290, 0.0758956894, 0.0785209611, -0.0711593628, 0.0601517335, 0.0986463651, 0.0612488016, -0.0853534639, 0.0848350748, 0.0206911415, 0.0727539286, 0.0640530065, -0.0273277760, -0.0133678392, 0.0757196024, -0.0655075461, -0.0690619200, 0.0325549915, -0.0036058500, -0.0373092070, 0.0185508803, -0.0674706846, -0.1007163078, -0.0113240033, -0.0490252860, 0.0419858471, -0.0346133634, 0.0662456378, 0.0708965585, 0.0098054260, 0.0723189190, -0.0382955447, -0.0603550635, 0.0231249556, -0.0551109202, 0.0796104446, 0.0632092431, -0.0560733899, 0.0020503253, -0.0799252987, -0.0740143880, -0.0310846120, 0.0044062808, 0.0003124848, 0.0875093266, 0.0358392820, 0.0113768652, 0.0705868676, 0.0050828680, -0.0019090176, -0.0404421166, 0.0275066420, 0.0899112299, 0.0707523301, -0.0626175106, 0.0455184206, 0.0787726864, -0.0681459233, 0.0012603402, -0.0455659032, -0.0773580521, -0.0177362636, -0.0368422195, -0.0561063588, -0.0927687883, 0.0743247494, 0.0905850306, 0.0302009359, -0.0777769238, -0.0146524906, -0.0951047018, 0.0195245743, 0.0876918659, -0.0637088194, -0.0642400831, 0.0770830289, -0.0657304525, -0.1022161767, -0.0027098134, -0.0166317448, 0.0226321593, 0.0348832980, 0.0140318498, -0.0477048270, -0.0551570207, -0.0978121758, -0.0337307528, -0.0045973659, -0.0410467684, -0.0917636007, -0.0393255576, 0.0124487355, -0.0677347481, 0.0573905632, -0.0807995126, -0.0666228235, 0.0531170145, 0.0389085338, -0.0647332817, 0.0275189355, -0.0291724578, 0.0216198489, 0.0013652742, 0.0586685017, 0.0027144775, -0.0945077762, 0.0457191095, 0.0567969158, 0.1011856422, -0.0168747529, -0.0420176275, 0.0555165634, 0.1015306339, -0.0957301855, -0.0869329274, -0.0164334476, -0.0414773896, -0.0930234045, 0.0035924017, 0.0749093369, 0.0951667652, -0.0680082887, 0.0454955474, -0.0983619168, 0.0336086974, 0.0301695690, -0.0644782037, -0.1000674367, 0.0058451146, -0.0994051546, 0.0018563792, -0.0741109550, 0.0321365818, 0.0220740810, 0.0225143507, 0.0555678979, -0.0938286930, -0.1020303220, 0.0190757215, 0.0433451757, 0.0029114187, -0.0449747518, -0.0296793580, 0.0371708050, -0.0269880965, 0.0569891855, -0.0186046809, 0.0344367549, 0.0912827626, -0.0468106717, -0.0344071686, -0.0296864882, 0.0273411497, 0.1013567969, 0.0495701656, -0.0474303998, 0.0409215316, 0.0895476118, 0.0608064905, -0.0228089169, 0.0610129014, -0.0498404689, 0.0640029088, 0.0526830629, 0.0868316218, 0.0294024572, -0.0915529504, -0.0603530630, 0.0007143244, 0.0417404696, -0.0298061296, 0.0025758371, -0.0857404545, 0.1016077772, -0.0593154244, -0.0240035802, 0.0306038931, 0.0383018181, -0.0502197072, -0.0142280161, 0.0871543512, 0.0478952304, 0.0016048998, 0.0774432197, -0.0272225216, 0.0013081878, -0.0440615416, 0.0984004810, -0.0061580464, 0.0966112837, 0.0058696494, -0.0720672160, -0.0286150649, -0.0390418470, 0.0885402486, 0.0508979782, 0.0976084694, -0.0255149081, 0.0021344051, 0.0984792635, 0.0665538535, -0.0202963799, -0.0077445582, -0.0701377839, -0.0145160407, 0.0349740908, 0.0941062048, -0.0366942659, -0.0718681514, -0.0273543820, -0.0915689394, -0.0696285367, -0.0574024096, -0.0002800077, 0.0655671731, -0.1010975689, -0.0924319997, -0.0902571678, -0.0782182515, 0.0487257615, -0.0778265446, 0.0756031051, -0.0244653448, 0.0160406381, 0.0914498940, 0.0852015391, -0.0492924564, -0.0955346301, -0.0315580219, 0.0528702214, 0.0520789698, 0.0318747237, 0.0225107446, -0.0402415320, 0.0772009417, 0.0440069512, 0.0125976726, 0.0517651811, 0.0432088897, 0.0098386481, -0.0834472924, -0.0939265937, 0.0256167576, 0.0947805420, -0.0092702433, -0.0581603646, -0.1013231054, 0.0399246737, 0.0775530860, 0.0380279049, -0.0429056175, -0.0920500755, 0.0073918551, 0.0137179345, -0.1009038687, 0.0940254852, -0.0610303953, 0.1015301123, 0.0195910856, 0.0566957667, 0.0551554635, -0.0536863692, -0.0678257644, -0.0068531185, 0.0490511283, -0.0625623241, 0.0625071600, -0.0951743200, 0.0638087168, -0.0149914548, -0.0380610228, 0.0106305331, 0.0732528791, 0.0140874982, 0.0412845686, -0.0503627695, -0.0491036624, 0.0368375257, -0.0195879266, 0.1028136685, -0.0175046548, 0.0955963060, -0.0650293976, -0.0571145825, -0.0935670212, 0.0833679214, -0.0091464818, -0.0589777716, 0.0770831332, 0.0286884084, -0.0187735781, 0.0122477263, -0.0058619976, -0.0413659140, 0.0031162724, -0.0848380029, -0.0840841234, -0.0358106494, 0.0720005110, 0.0906994566, -0.0751709267, 0.0386745110, -0.0065570697, -0.0028285459, -0.0204098523, 0.0973531231, 0.0638774559, 0.0336587355, 0.0968040004, 0.0337195322, -0.0979108363, 0.0833321586, -0.0635136366, -0.0366138369, -0.0196510777, 0.0020674095, 0.0573208705, -0.0575366616, -0.0646732897, 0.0181212500, 0.0163347870, -0.0094153807, 0.0288838819, -0.0775148794, 0.0894655809, 0.0199279487, 0.0093857944, -0.0815522373, -0.0127892271, 0.0017587245, -0.0702326000, -0.0120414123, -0.0213647634, 0.0183556452, -0.0192704871, -0.0276917890, -0.0406881422, 0.0341777876, 0.0311398581, -0.1018326506, 0.0172808170, -0.0583900996, -0.0002607778, 0.0760740414, 0.0352303460, -0.0316137448, 0.0451669171, 0.0456660911, -0.0214401633, -0.0118594542, 0.0065688416, -0.0875728726, -0.0525808372, 0.0363585576, -0.0613144450, -0.0836266801, -0.0602737479, -0.0287478119, -0.0047565699, -0.0312437639, 0.0176698267, -0.0440811850, 0.0369086042, 0.0814037994, -0.0126529038, -0.0921756923, 0.0541012660, -0.0280643627, 0.0955553874, 0.0950291380, -0.0238968953, -0.0869398639, 0.0249596164, -0.0694252104, -0.0413227268, 0.0172268972, -0.0718105808, -0.1019719094, -0.0193033814, -0.0110134482, -0.1010465324, -0.0847956538, 0.0332513526, 0.0695319995, 0.0487772450, 0.0734051242, 0.0945565179, -0.0863107070, 0.0390968844, -0.1016780362, -0.0675961524, -0.0814718083, -0.0582845248, 0.0415541455, -0.0066536665, 0.0529241934, -0.0772298723, -0.0155617744, 0.0429076627, -0.0722138286, 0.0542221442, 0.0561766997, 0.0115177780, -0.0809595585, -0.0177669153, -0.0943534821, 0.0899995491, 0.0354747251, 0.0254549161, 0.0251983032, 0.0933195427, 0.0147265792, 0.0770987198, -0.0844415873, 0.0403287634, 0.0439799950, -0.0973174125, -0.0284442604, -0.0716338605, 0.0344827697, 0.0448466465, 0.0574721023, 0.1000885889, 0.0780550763, 0.0328248516, 0.0487338528, -0.0179571360, -0.0517909974, 0.0719767436, 0.1030141339, 0.0145805031, -0.0525375754, 0.0849277601, -0.0864968300, 0.0279545859, -0.0241296142, -0.0959307924, 0.0576571897, -0.0301811472, -0.0311230794, -0.0507862307, 0.0652342066, -0.0600578338, -0.0920761079, 0.0703317299, -0.0988764167, 0.0463343486, 0.0354649201, -0.0824435800, 0.0146859512, -0.0706422925, 0.0149130002, 0.0096017569, -0.0639104471, 0.0785992369, -0.0999391526, -0.0735976622, 0.0191398114, 0.0482046679, 0.0533035770, 0.0636786148, 0.0282898918, 0.0404404327, 0.0126795769, 0.0740746483, 0.0174035206, 0.0672965124, -0.0775422230, -0.0005762205, 0.0215069428, -0.0294608027, 0.0110026896, 0.0045456886, -0.0087872818, -0.0175879896, 0.1007341072, -0.0942362547, -0.0256247967, -0.0529570393, -0.0696640313, 0.0388864204, 0.0591093376, -0.0872016028, -0.0180723891, -0.0084111840, -0.0420741439, 0.0943777636, -0.0502426326, -0.0910065845, -0.1017536297, 0.0174863935, 0.0817623809, -0.0659450740, 0.0985671356, 0.0458643213, -0.0201988742, -0.0278220922, -0.0450583845, 0.0763326958, -0.0763978735, 0.0917403772, -0.0575437695, -0.0121110827, 0.0248553678, -0.0516122021, 0.0761185363, -0.0372679010, 0.0150982887, 0.0565731004, 0.0187031254, -0.0393748134, -0.0126335993, -0.0438033044, -0.0237943307, 0.0052178130, -0.0242592022, 0.0301236287, 0.0557884946, 0.0466408357, 0.0647944137, 0.0700663105, -0.0112364441, -0.0210648999, 0.0152628943, -0.0397482067, -0.0233730674, -0.0583422482, -0.0831418410, 0.0910139903, -0.0307378471, -0.0749919564, -0.0776145086, 0.0099713653, 0.0210167468, 0.0954728648, -0.0324347764, -0.0800227746, -0.0157804564, 0.0491173789, 0.0565516576, 0.0101174638, 0.0319141373, -0.0262912214, 0.0751606598, -0.0362404510, 0.0693229660, -0.0999780223, 0.0835595205, -0.0939341635, -0.0227708817, -0.0649665743, 0.0223989710, -0.0802545324, 0.0552873984, 0.0671371743, -0.0649555176, -0.0838999152, 0.0034005716, 0.0552653894, 0.0081490725, -0.0618955791, -0.0181835666, 0.0917240009, 0.0768672451, 0.0701854602, 0.0629741922, 0.0793066248, 0.0296520665, 0.0089833811, 0.0175494179, -0.0798743814, -0.0518978313, -0.0542847775, -0.0434358642, 0.0021777973, 0.0977723375, 0.0598770157, 0.0038534030, 0.0880939141, -0.0216441303, 0.0691667572, 0.0421490744, -0.0330068320, -0.0331534222, -0.0229627639, 0.0478001907, 0.0730199888, -0.0504360907, 0.0473262742, -0.1029147357, -0.0635395050, -0.0112456232, 0.0084980279, -0.0787203088, 0.0250009522, -0.0285041109, -0.0586571470, 0.0753894374, 0.0939490423, 0.0169174001, -0.0465184487, 0.0939261541, -0.0407539830, -0.0644972548, 0.0125443637, 0.0715265796, 0.0213632882, 0.0212126747, 0.0674725845, 0.0825267062, 0.0710801408, -0.0784179717, 0.0815964565, 0.0044865608, -0.0941696018, -0.0697205439, -0.0538439415, -0.0328255892, 0.0666881278, 0.0248872563, 0.0866351798, -0.0904106200, 0.0778254196, 0.0688500032, 0.0396045223, -0.0361667126, -0.0524741299, -0.0247672424, -0.0812169537, 0.0962483808, 0.0150121301, -0.0119337365, 0.0495432839, -0.0664789975, -0.0898930356, -0.0168449655, -0.1030434370, 0.1031392887, -0.0897171050, -0.0864389390, 0.0390150920, -0.0816905871, 0.0286689177, 0.0944001451, 0.0883896425, -0.0861675665, -0.0555200912, 0.0407051668, 0.0187328607, 0.0543908998, -0.0471240170, -0.0039326176, -0.0034783334, -0.0261425078, -0.0720640570, -0.0156335160, 0.0999668911, 0.0832341686, 0.0140411034, 0.0796581730, -0.0515036881, 0.0051386878, 0.0164141506, 0.0736088231, 0.0291811898, -0.0867369547, -0.0798086673, 0.0899167582, 0.0678694919, -0.0515197553, -0.0214727148, -0.0872873887, 0.0119825304, 0.0949702039, -0.0375786051, -0.0765870884, -0.0384866074, -0.0898885205, 0.0926239714, 0.0589348301, -0.0544041246, 0.0075746253, -0.0100892335, 0.0795058832, 