//Numpy array shape [5, 48, 64]
//Min -0.259169787169
//Max 0.366885840893
//Number of zeros 0

#ifndef W5_H_
#define W5_H_

#ifndef __SYNTHESIS__
conv1d_7_weight_t w5[15360];
#else
conv1d_7_weight_t w5[15360] = {-0.0239099339, -0.0251653232, -0.1012418419, 0.0356441103, 0.0396797806, 0.1250236034, 0.0790514350, 0.0069528031, -0.0146572255, -0.0296257362, -0.0420261547, -0.0695689693, 0.0421187617, -0.0458356999, 0.0756968409, 0.0229479522, -0.0777821839, 0.0312405434, 0.0633606762, -0.0216597654, -0.0224824864, -0.0082533536, 0.0574206710, -0.0866026655, -0.0907218009, -0.0959901288, -0.0685739890, 0.0005374533, -0.0027868545, 0.0641032606, -0.0684543625, 0.0199720580, -0.0125095258, 0.0102122286, 0.1367102712, -0.0452399999, 0.0187112279, 0.0454908162, 0.0534797423, -0.0057825702, -0.0433198772, 0.0001554917, 0.0821137950, -0.0213429462, 0.0267284624, -0.0413825028, -0.0757970512, 0.1116924137, -0.0014202491, -0.1153080165, 0.0037563269, -0.0189518426, -0.0453606881, 0.0163424723, 0.0888800770, 0.0481986925, 0.0133200614, -0.0470999144, -0.0520334467, -0.0462992862, -0.0574373193, 0.1033245921, 0.0032634963, -0.0588012822, -0.1330716610, 0.0591868833, -0.1165782288, -0.1091666073, -0.0323247351, 0.0466387160, 0.0141648911, -0.1079531088, -0.1226585731, 0.0425208434, -0.0728255734, -0.0265260190, 0.0648978874, -0.1092290208, -0.1255162209, 0.0517681390, -0.0704120025, -0.1130522043, 0.0062013590, -0.1107045263, 0.0233955197, -0.0483323038, -0.0525950156, -0.0947098583, 0.0926986411, -0.1374976784, -0.0932054222, 0.0888930187, 0.0014087291, 0.1414675415, 0.0330476500, 0.0596015863, -0.0426413231, 0.1567876190, 0.0593300201, 0.0129919760, -0.0263609886, -0.0421871617, -0.0351897031, 0.0176851172, -0.0191082340, -0.0813384503, 0.0435868129, -0.0317478143, -0.0667543262, 0.0070115812, 0.1267992556, -0.0428377688, 0.0075356090, 0.1444763541, 0.0103317304, 0.0205088165, -0.0262813270, -0.1267467737, -0.0159615483, 0.1048677340, 0.0118567580, -0.0135472668, -0.0510796681, 0.0726056919, 0.0881903842, 0.0248206314, -0.1260425448, 0.0746352598, -0.0629414544, 0.0216416176, -0.0378911830, 0.0246453080, 0.1289342642, 0.1331984401, 0.0114050759, -0.0006012360, -0.1137253642, -0.0273796488, -0.0184575804, 0.1016293764, -0.0358623862, -0.0154948067, -0.0599287786, 0.0289959144, -0.0187214408, 0.0293066539, 0.0327740535, 0.0481812805, -0.0415646248, -0.0007387667, -0.0434339382, -0.0490168221, -0.0292765461, 0.0662140846, 0.0131559130, -0.0311560407, 0.0800157264, 0.0161305666, 0.0040013231, -0.1438521445, 0.0801063254, 0.1016737968, 0.0251456816, 0.0969617963, -0.0779478699, 0.1406001598, 0.0590579025, 0.1100628749, 0.0390912592, -0.0708970502, 0.0309293047, 0.0180229936, -0.0429236591, 0.0572600029, -0.1236248165, -0.1049984172, 0.0256015752, 0.1162406728, -0.0396888331, -0.0091690309, -0.0115501061, -0.0365772769, -0.0060050394, -0.0835656375, -0.0220335163, 0.0484995581, -0.0058956300, 0.0074712252, 0.0997147486, 0.0583193190, -0.0482298061, -0.1325951815, 0.0019697594, -0.0717228130, -0.0755371451, -0.0826457590, 0.0882764906, 0.0122480905, 0.0133065162, -0.0593422838, 0.0359553136, 0.0036524620, 0.0328233689, 0.0790771395, 0.0240074825, 0.0139185283, -0.0357055925, 0.0534834452, 0.0475699231, -0.1248237863, -0.0272171348, -0.1149525046, -0.1600566953, -0.1476321220, -0.0103502590, -0.0510083809, -0.0626126081, 0.0662607402, 0.0278271232, -0.1538198143, 0.0685468540, -0.0515518039, -0.0694418848, 0.0610132813, 0.0039140522, 0.0261059962, 0.0239801779, -0.0650158301, 0.0278150886, 0.0432798229, 0.0196247008, 0.0539229363, -0.0290156268, -0.0573983453, 0.0852667242, -0.0804519281, -0.1451706439, -0.0764857158, -0.0184367243, 0.1187452078, 0.1174207926, 0.0890839547, 0.0292497817, 0.0540185720, -0.0547335595, -0.1014927775, -0.0669388697, -0.0124250539, 0.1245270148, -0.0330786109, -0.0544819459, -0.0239656214, 0.0665661618, 0.0549462438, 0.1387118250, 0.0722819492, -0.0069173584, -0.0430231430, -0.0113792783, 0.0509470701, 0.0042215488, -0.1565660536, 0.0316101871, -0.1059560329, 0.0237518717, 0.0370555371, 0.0222919453, -0.0185321830, -0.0634455234, -0.0595568791, -0.0720401108, -0.0825739503, 0.0271574482, 0.0836720988, -0.0639953017, 0.0488270149, 0.0577991568, -0.0243330076, -0.1273667514, -0.0460081920, -0.0739044696, -0.0420740470, 0.0845732465, -0.0094717927, 0.0645384863, -0.0210966244, 0.0048651807, -0.0468752831, 0.0342764780, -0.0434058048, 0.0629989058, 0.0936756358, -0.0124120526, 0.0596552826, -0.0033296461, 0.0315625668, 0.0498383045, -0.0991150513, 0.0020484321, 0.0395205021, 0.0347438417, 0.0830786973, -0.0050365557, 0.0315979347, -0.0356941819, -0.0342831984, -0.1041129082, -0.0224367566, -0.1725011766, 0.0131301647, 0.0634721890, -0.0941329226, -0.0675819889, 0.0652626082, -0.0594074801, 0.0194756761, 0.0573410988, 0.0233744811, -0.0433412194, -0.0227367096, 0.0866191760, 0.0651221573, -0.1903524697, 0.0471957587, 0.0567239113, 0.0772795975, -0.0441208147, -0.0384851992, -0.0164172538, 0.1016485989, -0.0065768007, -0.0031985694, 0.0778278261, -0.1145521328, 0.0865451396, -0.0773444250, -0.0669881329, 0.0435959436, -0.0259116217, 0.0116035109, 0.0229165554, -0.0003888558, -0.0048172474, -0.1224341020, -0.1132872254, -0.1861821413, -0.0118770702, -0.0186173506, -0.0337333865, -0.0122696441, 0.1082689613, -0.0281268004, -0.0338018797, 0.1235975698, 0.0814232901, 0.0218139645, -0.1530646831, -0.1352269053, 0.0009108041, 0.0115534775, 0.1214230880, -0.0268900618, -0.0579684190, -0.0385106318, -0.0304812994, 0.0549366586, 0.0096531976, -0.0921724588, 0.0148820952, 0.0598660894, 0.0342067890, 0.0958443284, -0.0904896557, -0.0663852170, -0.0874436274, -0.1744007170, 0.0222466104, 0.1064954922, -0.0358827300, -0.0952978358, 0.0275581833, 0.1529287100, -0.2146672159, 0.0800935403, 0.0753059983, 0.1191134080, 0.0587124452, 0.0460076816, -0.0754770562, -0.0407616012, 0.0632774904, 0.1232239977, -0.0010477370, -0.0391604640, -0.0187317822, -0.0336027518, -0.0055080876, 0.0355517603, 0.1049972102, -0.0063268854, 0.0789550915, 0.0494972579, -0.0085053733, 0.0913430601, -0.0426876172, 0.0925913975, 0.1083477363, 0.0834891200, -0.0717880651, -0.0148180760, -0.0512307547, -0.0317946635, 0.0030343528, 0.1079693064, 0.0347178020, 0.0867220312, -0.0061279493, -0.1147707552, -0.0211176835, -0.1284995973, 0.0995706543, -0.0667911917, -0.0531325638, 0.0055170986, -0.0591817498, -0.0869041756, -0.0030831820, 0.0178277772, 0.0388423875, -0.0780914873, -0.1509694308, 0.0419333912, 0.0269568283, 0.0068641375, -0.1270055473, -0.0303993635, -0.0603389181, 0.0218251161, 0.1319812536, 0.0475006327, 0.0154666938, -0.0249974132, 0.0374695919, 0.0078844475, -0.1530039310, -0.0700609311, -0.0643745586, -0.0274120066, 0.0233327392, 0.0645919219, 0.0938168094, 0.0780088007, 0.0012712972, 0.0146875884, 0.0195930991, -0.0509815924, 0.1255083829, 0.0061784941, 0.0785540789, -0.0751152411, 0.0583897680, 0.0470009930, 0.1658300906, -0.0951613411, -0.0009832894, 0.0963453129, 0.1187813506, 0.0172305759, -0.0691614598, 0.0662488416, 0.0178045891, 0.0694727674, 0.0225060526, 0.0336666219, 0.1017262489, -0.0474957339, -0.0294001773, -0.0231857542, 0.0592558049, 0.1288743764, 0.1139077544, -0.1650214791, -0.0122572826, 0.0153846974, -0.0228275172, -0.0275682695, 0.0528579690, -0.0436266176, -0.0316699371, -0.0273247194, -0.0341110304, -0.0523245670, 0.0633157790, 0.0479718596, -0.1431555003, 0.0560872182, -0.0108094579, -0.0988200903, 0.0234077275, -0.0649241805, -0.0022074212, 0.0182975698, 0.0650349855, -0.0348807834, 0.0170683190, 0.0305311140, -0.0128330085, -0.0998410136, 0.0664469451, -0.0262726527, 0.0027224778, 0.0712980181, -0.0356106833, 0.0141730290, 0.3668858409, 0.0072233723, 0.0369604602, -0.0774606168, -0.0337141976, 0.0650527030, 0.0625166818, -0.0342039354, -0.0283198226, 0.0030679181, -0.1391855329, 0.1155445650, 0.0287798941, 0.0698592290, -0.0181477442, -0.0362169184, 0.0651416034, -0.0995998532, -0.0921083465, -0.0313544385, 0.0060618958, 0.0879570022, -0.0226880275, 0.1239418685, 0.0574892275, -0.0896020532, 0.0222204104, -0.1497710943, -0.1130091846, 0.0781366155, 0.0291103348, -0.1477609724, 0.0557660758, -0.0320640951, -0.0256671142, 0.1075019315, 0.1352168620, -0.0673786998, -0.2115016282, -0.1310439855, 0.0328158028, -0.0463917293, 0.0779366642, 0.0816620737, -0.1308821887, 0.1334490627, 0.1222169772, -0.1511109620, 0.1114628613, 0.0103299031, 0.2100249827, 0.0511749312, 0.2066311091, 0.0218957178, 0.1848950684, 0.0390088707, 0.0823866501, 0.0595221594, 0.0324509442, 0.0909031108, 0.2242518961, -0.0914594680, 0.0310367234, -0.0520442799, 0.0655987710, -0.0358692743, 0.1348091662, -0.0645687282, -0.0744350255, -0.0594011918, -0.0675008148, 0.0493134446, -0.0759730414, -0.0689702630, -0.0742774308, -0.0374725387, -0.0283015072, 0.0167668536, -0.1501981914, 0.0149692455, 0.0474284030, -0.0374621786, -0.0446239337, 0.0447360650, -0.0834465250, -0.0737539455, -0.0462467410, -0.0006735399, -0.0524745695, -0.0502429903, -0.0553542189, -0.0889529884, 0.0748636723, -0.0029835473, -0.0164867826, 0.0461737141, 0.1223192364, 0.0663649663, -0.0915511996, 0.0698562562, 0.0348068848, 0.0871030539, 0.0312845372, -0.0699649006, 0.0562989004, 0.0085120872, -0.0189730730, -0.0086568445, -0.1379761696, 0.1141956970, -0.0483612195, -0.0049306597, 0.0088827722, -0.0728388131, -0.0694386885, -0.0730604455, 0.1240076721, -0.0998886600, 0.1004832461, 0.0704230517, 0.0259608105, -0.0524015911, 0.1212979108, 0.0928461701, 0.0571017824, -0.0846898407, 0.0330281742, -0.0697693378, -0.0762530863, -0.0839855820, -0.0670571700, -0.0011855530, -0.0656355470, -0.0388147198, -0.0478218570, -0.0698141530, -0.0883750394, 0.0207559429, 0.0501435734, -0.0490755774, -0.0829904377, 0.1185899079, -0.1010700911, 0.0104253637, -0.0762793124, -0.0651935637, -0.0196702462, 0.0291847736, -0.0261587184, -0.1089569405, 0.0967538506, -0.1093366891, -0.0570788272, 0.0448023826, 0.0013102815, -0.0092771025, 0.0305004567, 0.0153890252, 0.0092506623, 0.0962887779, -0.0706057101, 0.0561520271, -0.0156582706, -0.0166560896, -0.0876965076, 0.0374290720, 0.0325280838, 0.0506135412, -0.0020128982, 0.0671707764, -0.0390993059, 0.0898696035, 0.0249410886, 0.0538035445, -0.0044626850, 0.0414258651, 0.0680938065, 0.0152279418, -0.1091572568, 0.0452768654, -0.0845966339, -0.0175718982, 0.0116256000, 0.0891756192, 0.0313606150, -0.0058112256, 0.0493854210, -0.0556135736, 0.0304674841, -0.1209208146, -0.0568762384, 0.0271277502, 0.0621212311, 0.0103372149, -0.0587103255, 0.0698828325, 0.1185944900, 0.0047976621, 0.1208671555, 0.0484996326, 0.0333332829, 0.0637007654, 0.0399677008, 0.0213745497, -0.0641631857, 0.0194756594, -0.0014249281, 0.0256747827, 0.0713260621, -0.0923774540, 0.0915676877, 0.0106114466, -0.0037511422, 0.1156869233, -0.0598096475, -0.0742791966, -0.1354397088, -0.0963243097, -0.0991411284, 0.1275890172, -0.0978877768, -0.0813401788, -0.0708513856, 0.0243544932, -0.0579196103, -0.1219433695, 0.1210507751, -0.0631235614, 0.1100107878, -0.0067075910, -0.0678031296, 0.0377475731, 0.0123970099, 0.0628609508, -0.1092046872, -0.0597168691, 0.0846977606, 0.0268198606, -0.0242309328, -0.0717621222, -0.0980106741, 0.0386993065, 0.0311249569, 0.0180222094, -0.0355209932, -0.1189633757, 0.0019339076, -0.0648588166, -0.1341183484, -0.0023964115, -0.0728653371, 0.0688037947, 0.0429906808, 0.1008350626, 0.0984010696, -0.1137735695, -0.1776553541, 0.0024424028, 0.1464987546, 0.0308849141, 0.0597611591, -0.0968900844, -0.0104181869, 0.0219240058, -0.0487315282, 0.0338094458, 0.0093265316, -0.1552268714, -0.0503812954, 0.0106466217, 0.0705932975, -0.0070382585, -0.0500322394, -0.0672233105, -0.1179165989, -0.0428094268, -0.0065105525, -0.0530539341, 0.1042409539, 0.1231728643, 0.0419981629, 0.0402356870, 0.1111147404, -0.0477637686, 0.0538121425, -0.1134019420, -0.0743109956, -0.0146612041, 0.0411096700, 0.0776681229, -0.1100766212, 0.0603055954, -0.0946787745, 0.1402538568, 0.0730845854, -0.0431050360, -0.0752209947, -0.0030321677, 0.0678356290, 0.1258182228, -0.0434848927, 0.0553814210, 0.0449696593, 0.0443187095, -0.0579682067, -0.0733786747, 0.0111984052, 0.0013109260, -0.0718757212, 0.1227574497, -0.0056980583, 0.0875166655, 0.0712366849, 0.0207818542, 0.0917404592, 0.0176118445, -0.1494886726, 0.0124242473, -0.1896108091, -0.0751957744, -0.1199169457, -0.0644363686, -0.1639584303, 0.0104281781, 0.1217959151, -0.0259203166, -0.1015717164, -0.0656492189, 0.0896261334, -0.0858505890, 0.0431498326, 0.0084185153, 0.0052470625, -0.0000577546, 0.0783870444, -0.0556849651, 0.0761684701, 0.0818300918, -0.0475189015, 0.0789352655, 0.0092451703, -0.0095285987, -0.0800642744, 0.0625451729, 0.0805657059, 0.0935261026, -0.0202320013, 0.0484767668, -0.0542281084, 0.0133933369, 0.0945520550, 0.0489609241, -0.0320114605, -0.0467246994, 0.0659629703, -0.0309654083, -0.1871242970, 0.0190241449, -0.0974943936, -0.0442948304, -0.0033984105, 0.1887328029, 0.1505699605, 0.0266313571, 0.0261836275, -0.2373224795, -0.0358811766, 0.0573605448, 0.0072335633, -0.0661141798, -0.0531129614, -0.0468675084, 0.0153302867, 0.0484373532, -0.0026185310, 0.0210686028, 0.0684187934, -0.0640133694, -0.0426037125, -0.1186976954, -0.0754351392, 0.0423557051, -0.0187669862, -0.0290907510, -0.0242131893, -0.0380124971, 0.0865359008, 0.0379876308, -0.1447974294, -0.1176131889, -0.1218345836, 0.0905862451, -0.0583782159, 0.0024742414, 0.0147134662, -0.0640881360, 0.0883416310, 0.0006192444, -0.1002327502, 0.0693589300, -0.0148343118, 0.0700026527, 0.0099776685, -0.0175867900, 0.0733278021, 0.0442926884, 0.0289893486, -0.0921110511, -0.0582433455, -0.0223738924, 0.0517079867, -0.0542021431, -0.0321841352, 0.0099296076, 0.0047343937, -0.0515843481, 0.0178202074, 0.1795393676, -0.1655735224, -0.0503243580, -0.1020912006, -0.0037476348, 0.0916612223, -0.0322549567, 0.1299733818, -0.0850585401, -0.0447805338, 0.1878100932, 0.0719059780, 0.0001622386, 0.0141331851, 0.1049139649, 0.0418970659, 0.0060163136, -0.0665290356, -0.1061195210, -0.0483289398, -0.0053097215, -0.0381270088, 0.0936422125, -0.0298639927, -0.0595000610, 0.0473702103, 0.1351425648, -0.0380193144, -0.0228041541, -0.0146439848, -0.1124799550, -0.0157124288, -0.0616983660, 0.0421117693, -0.0601454116, 0.0438785665, 0.0283622649, -0.0692509040, 0.0632488653, -0.0493251570, 0.0186309572, 0.0293025449, -0.1069152355, -0.0182486475, 0.0368186012, -0.0232921299, -0.0108780488, -0.0374330916, 0.0995762050, 0.0793247297, 0.0334627926, -0.1266393811, 0.0338946506, -0.0478240289, -0.0773499906, 0.0330378786, 0.0991839916, 0.0430537648, -0.0917198062, 0.1056287214, -0.0566131547, 0.1032395139, 0.0424629152, 0.0667563230, 0.0941168889, 0.0529851615, -0.0630079284, -0.0653392002, 0.0557857193, -0.0031557346, -0.0286062639, -0.1176226437, 0.0062823729, 0.0856077597, -0.1047649309, -0.0868650675, -0.0247885343, -0.0414086543, -0.0854199007, -0.0234264340, 0.0535104908, -0.0829895213, -0.0433892608, -0.0291989911, 0.0095910691, -0.1131914482, 0.0543683879, -0.0016285981, 0.0288819876, 0.0337139405, -0.0023392532, -0.0602269880, -0.0867296830, -0.0144617232, -0.0218565390, 0.0336125605, -0.0403005630, -0.0723564997, -0.0467878394, 0.0733731389, -0.0543656535, 0.0786829665, 0.1201521084, 0.1028724164, -0.0093609989, 0.0594016649, -0.1048709080, 0.0048258114, -0.0211784020, 0.1001677290, 0.0919155702, 0.0711445585, 0.0597418994, 0.0551199131, -0.0492763631, -0.0232765041, 0.0340951234, -0.1208450571, 0.0371168703, 0.0259401053, -0.0535420664, 0.0438892469, -0.0687646568, 0.1214508563, 0.0725439489, 0.0615143515, -0.1071780324, 0.0832585767, 0.0589724220, 0.0256142244, 0.0505624302, -0.0724712610, -0.0325052887, 0.0088526951, 0.0973278359, -0.1422046423, -0.0078619644, -0.0361667909, -0.0383417867, -0.1033198982, -0.0539360605, -0.0250417870, -0.0167087764, -0.0890215561, -0.0868397802, 0.0453535765, 0.1031623483, 0.1010337994, 0.0304338150, -0.0553119294, -0.0100618154, 0.0288310274, -0.0030342857, -0.0591970459, -0.0426789559, -0.1305399835, 0.1288077235, -0.0423082188, 0.0744806305, 0.0492839999, 0.0150311301, 0.0000402480, -0.0524223335, -0.0920462683, -0.0571235493, 0.0782558545, 0.0353261419, -0.0078243548, 0.0488967299, -0.1852457821, 0.0838728622, -0.1188734323, 0.0699206367, -0.0688286275, -0.1083545536, -0.0924446061, -0.0772657916, -0.0050331126, -0.1064399034, -0.0629137531, -0.0772970915, 0.0851383805, 0.0434204154, -0.0964180082, -0.0649525523, 0.0335988365, -0.0803810135, -0.0461817645, -0.0272815861, -0.1785401702, -0.0173582211, 0.0785136148, -0.0067271544, -0.0224909484, 0.1238931268, 0.1166995913, -0.0250503812, -0.1364049464, -0.1090694964, 0.0397856236, -0.0219688620, -0.1790835559, -0.0299599916, -0.1306713223, 0.0994899943, -0.0626132563, 0.0295195412, 0.0438720062, 0.0491034500, 0.1382902265, -0.0664413646, 0.1276175231, -0.0702194795, 0.0317377970, -0.0298860092, 0.0294426847, 0.1201612651, 0.0924549252, -0.0003713093, 0.1806570143, -0.1351550519, -0.0068182480, -0.0338679589, 0.0364357233, -0.0794725120, -0.0569398403, -0.0529431030, 0.0267846975, 0.0375191942, 0.0532332473, -0.0513073131, 0.0361563377, -0.0271793604, 0.0846182257, -0.0468329936, 0.0209529232, -0.0895934105, -0.0245151334, 0.0265519358, -0.1018407568, 0.0362360179, 0.0334674455, 0.0158851780, -0.0596851557, 0.0155131016, 0.0462526940, 0.0575249419, -0.0283925701, 0.0886588395, -0.0222660918, -0.0232813936, 0.0284953453, -0.0512936451, 0.0228749588, 0.0196414702, -0.1174075082, 0.0923784673, -0.0287650246, 0.1244164929, -0.0776412785, 0.1054442376, -0.0224744566, -0.0009245705, -0.0268709343, 0.0008680145, -0.0244011898, -0.0024678495, -0.0668350235, 0.0507078096, -0.0003489738, -0.0794087797, 0.0683273599, -0.0723387972, -0.1006123945, -0.0438294820, 0.0277029481, -0.0050903778, -0.1207965687, 0.0114406571, 0.0818551406, -0.0174605660, 0.0092447400, -0.0396253839, -0.1003451198, 0.0067285672, 0.0843396112, 0.0498060249, 0.1072873697, -0.0016404038, 0.0607890151, 0.0517801717, -0.0032379590, 0.0700761601, -0.0200657602, 0.0196153168, -0.1365747899, -0.0383139253, -0.0890388563, 0.1259157956, -0.0221105609, 0.0511798225, -0.0563788936, -0.0373957492, 0.0298389811, -0.1475949287, -0.0884069875, -0.1384947300, 0.0065747253, 0.0800314248, 0.0142936669, -0.0277123172, -0.0889107287, 0.0318697616, 0.0357357487, 0.0740843713, -0.0411194488, 0.0635288805, -0.0585683845, 0.0091962582, -0.0102944681, -0.0694636852, 0.1051657870, -0.0512751155, 0.0827806070, 0.0001320972, -0.0105212824, 0.0169166028, 0.0309856273, 0.0352293402, 0.0162474960, -0.0331033394, -0.0060907914, -0.0039155167, 0.0315615907, -0.0821078345, -0.0081821652, 0.0360528082, 0.1596146226, 0.0374737158, 0.0178175364, 0.0355806425, -0.0141141741, -0.0840864033, 0.0471521914, 0.0826206952, -0.0533281565, 0.0573021732, 0.0069371546, 0.0427019522, -0.1494055092, -0.0826806575, -0.1481240839, 0.1057363451, -0.0657343417, -0.0794842020, 0.0854821056, 0.1086896658, 0.0521460772, -0.0277724769, 0.1081103981, -0.1340276003, 0.0815053135, -0.0330547467, 0.1556741148, -0.0491113141, 0.0550656803, 0.0041906014, 0.0523986481, 0.1621436626, 0.0692854226, 0.0739353299, 0.0380825102, 0.0301884823, -0.1304416209, 0.0092857592, -0.0300571136, 0.0360064358, 0.0000395302, 0.0993818939, 0.1142608076, 0.0084831882, 0.0373218916, -0.0310691092, -0.1025069207, -0.0145432893, 0.0391090401, -0.1452261657, -0.1039512977, -0.0110197160, 0.0254806187, 0.0746700466, -0.0969668627, -0.0001179850, 0.0278735384, -0.1011782810, 0.0999710560, -0.0607628636, -0.1187901199, 0.0776678100, -0.1037373245, -0.0463271700, -0.0757620782, -0.0695383176, -0.1812411994, 0.0252446812, -0.0698800460, -0.0610594787, -0.0014759830, -0.0275991354, 0.0240863990, -0.0579873510, -0.0695520267, -0.0268630590, -0.0169429127, 0.0037943532, -0.0331034437, 0.0448030643, -0.0582873374, -0.0356417634, 0.0898200274, 0.1055769548, -0.0153968893, 0.0186895356, 0.0287925210, -0.0590344630, -0.1054940298, -0.0096742166, -0.0452444032, -0.0573243313, -0.0457935147, 0.0224004071, 0.1099947318, -0.0767251551, -0.0312607363, 0.0004477324, -0.0080202324, 0.0832196176, 0.0562941059, 0.0691445172, -0.1167825907, -0.0444757082, -0.0164995436, 0.0926532075, -0.0472632311, 0.0994412154, 0.0104441168, 0.0639881045, 0.0781677887, -0.0213095564, 0.1161310077, 0.0449367538, 0.0874177516, 0.0235718358, -0.0936985612, 0.0162929334, 0.0138916839, 0.0702065006, -0.0694357455, 0.0839683637, 0.0305003058, -0.0049214102, 0.0446338058, -0.0043925252, 0.0679703876, 0.0837985054, 0.1210468337, 0.0108811380, 0.0477320440, 0.0945179164, 0.0779196918, -0.0465409309, -0.0896952897, -0.0788264126, -0.0823902190, -0.0747687742, -0.0435401835, -0.0566816814, 0.0864900276, 0.0098491842, -0.0126486029, 0.0519957244, 0.1166059673, 0.0013465522, 0.0980098099, 0.0776970312, -0.0169734117, -0.0163370613, -0.0238651950, 0.1878257245, 0.0406482518, -0.1273318827, -0.1469532847, 0.0414975956, -0.0303534009, 0.0396347493, -0.0134720793, -0.1153310984, -0.0375012420, -0.1368298829, 0.0447776578, -0.0237948187, -0.0565107241, -0.1124732941, -0.0702872500, -0.1014223546, 0.0794552267, 0.0989746451, 0.0490886308, -0.1394323558, -0.1411474347, -0.0393199585, 0.0028354239, -0.1233065352, 0.1282519549, 0.0108737648, 0.0013610268, -0.0669760481, 0.1257842481, -0.0142460046, -0.0439199395, -0.0603383929, -0.2591697872, -0.1321780235, 0.1085683256, 0.0381197445, 0.0693878308, 0.0779360235, 0.0968992636, 0.1124457046, -0.0526336320, -0.0113371992, -0.0087660104, -0.0191614665, 0.0617070533, 0.0548178479, -0.0865720212, 0.0605797917, 0.0279259495, 0.0268411860, -0.0077058063, -0.0287618376, -0.1030768976, -0.0531727821, -0.0397179238, -0.0490919463, 0.0120404586, -0.0145465815, -0.0098483469, 0.0077317115, -0.0772175938, 0.0538051240, 0.0593377650, -0.0196566097, -0.0289960466, 0.0508063436, 0.0577338524, -0.0465242565, -0.0849602744, 0.0279975813, -0.0136498287, 0.0856032744, 0.0596590899, 0.0851798281, 0.0414816849, 0.0482824817, 0.1302801371, -0.0311813019, 0.0824560896, 0.0886897445, -0.0459635481, -0.0311076585, -0.0197558366, 0.0408992022, -0.0896952003, -0.0313383341, 0.0129461754, 0.0922018364, -0.1256465018, 0.0552097969, -0.1173687726, 0.0811086223, 0.0057716039, 0.0150854057, -0.0508932956, -0.0162799358, 0.0496197045, 0.0590953194, 0.0312301982, -0.0191465467, -0.0609727353, 0.0812084153, 0.1025862694, -0.0764492154, -0.0064438651, -0.0354178958, -0.0693978965, 0.0938265920, -0.0425760821, 0.1496000141, 0.0905561298, 0.0716194659, 0.1002783924, 0.0243809670, 0.1299405843, -0.0269079339, 0.0687574595, -0.0080666905, 0.0898145437, 0.0140875187, -0.0794456080, 0.0132248309, 0.1076089591, -0.0074792756, 0.1003289297, 0.0108563425, 0.1085392088, -0.0480736867, -0.0141933644, -0.0103584835, -0.0337819345, -0.0497869700, 0.0459431559, 0.0391972847, 0.0825699940, 0.1484559774, -0.0480291471, 0.0587805323, 0.0395466685, 0.0638988838, -0.0839996338, 0.0279336218, 0.0964670181, 0.0188192967, -0.0442846082, -0.1616193205, -0.0285633393, 0.1153402925, 0.0830044076, -0.1348548681, -0.0400958322, -0.0057859262, -0.0706137121, -0.0681796670, -0.0017955162, -0.0714165643, 0.0147796795, 0.0940279439, -0.0202410631, 0.0093033100, 0.1160839126, 0.0117030116, -0.0928680971, -0.0774147362, -0.1345704645, -0.1124206856, -0.1171908155, -0.1585315019, 0.0108904485, 0.0153131867, 0.0752440095, -0.0892234966, -0.0871368274, 0.0510983579, -0.0386361256, -0.0255086757, 0.0853477865, 0.0826035514, 0.0852565989, -0.0017972772, 0.0962002650, -0.0123279616, -0.0442343801, 0.0457506962, -0.0514544919, -0.0024910900, -0.0714862347, 0.0046648001, -0.0061298497, 0.0571065359, -0.0498299003, 0.1193822324, 0.0637768507, -0.1048898250, -0.0167330541, 0.0587423891, 0.0727591962, -0.0609558299, -0.0748089626, -0.0821642354, -0.0060109124, -0.1910684109, -0.0595023669, 0.0480292700, -0.0391550772, 0.0877038017, 0.0571729653, 0.0283079725, 0.0692375302, 0.0765905678, -0.0923295841, -0.0567810871, 0.0183362737, 0.0451501794, 0.0610248707, 0.0318634138, -0.0543164574, 0.0702446699, -0.0443093255, 0.0405310877, -0.0137175992, -0.0418834090, -0.0026056967, -0.0151191121, 0.0110992407, -0.0058745537, -0.1191813573, 0.0502277240, -0.0075767608, 0.0845216364, -0.0504668206, -0.0455736406, 0.0325421318, 0.0426445380, 0.0748380199, 0.1546550542, 0.0054309578, 0.0749811232, -0.0887171924, -0.0004482025, -0.0336605534, 0.0520860516, -0.1113710403, 0.0761310160, 0.0153232347, 0.1104594767, 0.0720266625, -0.0679963008, -0.1211588308, -0.1333814114, 0.0242008846, -0.0261421893, -0.0276712663, -0.0145202326, -0.0203678459, -0.1120683029, 0.0378814638, 0.0590670481, 0.0524663962, -0.0010762305, -0.0394528881, -0.0313659646, -0.0618344843, 0.0173309725, 0.0251101218, -0.0915504918, -0.0265523791, 0.0582687259, 0.0273154508, 0.0768607184, -0.0717517138, 0.0383115187, 0.0320725292, 0.0892704129, -0.1053837687, 0.0461550318, -0.0005110758, 0.1192431301, -0.1502078176, 0.1304367632, 0.0089174230, -0.0877029821, -0.0092901280, 0.0537613519, -0.0588229038, -0.0937619731, 0.0473534018, -0.0472003184, 0.0136008188, 0.0376652330, 0.0588684902, 0.0490287542, 0.0066565913, 0.0367131270, 0.0152948610, 0.0475386493, 0.0710476190, -0.1473039687, -0.1455109417, 0.0783597454, 0.0800865144, -0.0274012089, 0.1225941032, 0.0403145105, 0.1013098285, -0.0693393275, -0.0339851826, -0.0498106591, -0.0448860712, -0.0176645406, 0.0190451425, -0.0909331813, -0.0489393771, -0.0632952526, 0.0498197041, 0.0514087826, 0.0506594628, 0.0340836942, -0.0248533320, -0.0985414311, 0.0002010948, 0.0360231027, 0.0457776189, -0.0315014906, -0.0497297160, 0.0243357681, -0.0847766101, -0.0844774991, 0.1112371385, -0.0186005794, 0.1402623206, -0.0437871590, -0.0362357087, -0.0645537153, 0.0159983113, -0.1264993101, -0.0541113913, -0.0038858149, -0.0955264270, -0.0287759472, -0.0856987908, -0.0680297688, -0.0790447369, -0.0765585974, -0.0323455296, -0.1156947240, 0.0674296021, 0.0246745981, 0.0351425782, 0.0688114539, -0.0710876063, 0.1373283118, 0.0031402151, -0.1288827062, 0.1094912216, -0.0610924587, -0.0784516037, -0.0278186277, -0.0466311462, 0.0881297365, -0.0653448626, 0.0684918910, -0.1262415946, -0.0080466690, -0.0288949646, 0.0291716363, -0.0293985661, -0.1048705652, 0.0095046740, -0.0028733790, 0.0339448117, -0.0059101367, -0.0435380228, 0.1217348352, -0.0473189540, 0.0070557180, -0.0340433978, 0.0642137825, -0.0153974760, -0.0185865518, -0.0156635586, 0.1065383628, -0.0678215325, 0.1068715379, 0.0348977111, -0.0246558469, -0.0632662326, -0.0148530593, -0.0214947499, -0.0482914522, -0.0365107022, -0.0734266862, 0.0090675894, -0.0771532580, 0.1408520043, -0.0547023118, 0.0473314188, -0.1134223044, -0.0817879662, -0.0813759193, 0.0313258171, 0.0441490375, -0.0843726918, 0.0121701537, -0.0179958381, -0.0303917769, 0.1004251167, -0.0823057070, 0.0334756561, -0.0325305611, 0.0101744309, -0.0347941294, -0.0667541847, 0.0316235647, 0.0361825451, 0.0006336931, -0.0679335967, -0.0408325382, 0.0787998214, -0.0515511110, 0.0936319977, 0.0059962412, 0.0436457992, 0.0060999328, 0.0355068743, 0.0559046306, -0.0163845457, -0.0288671758, 0.0046900520, -0.0615134686, 0.0234215893, -0.0940269530, -0.0703661069, -0.0892472267, -0.0434836745, 0.1059807613, -0.0173967481, 0.1138644964, 0.0168250576, 0.1156417206, -0.1525345892, 0.0336698703, 0.0476267450, 0.1074918360, 0.0973024741, 0.0218396839, 0.0687696785, -0.2240966707, 0.0333832279, 0.1039704084, 0.1300382018, -0.0096036820, 0.1288577318, 0.0623928383, 0.1229567900, 0.1000257134, 0.0206737109, 0.0940465406, 0.1763014942, 0.0590134710, 0.0047019608, 0.0859776661, -0.0239288453, 0.0113044409, -0.0451805927, 0.0905110314, -0.0534409620, 0.0728215426, -0.0453696251, -0.0811212063, -0.0059577655, 0.0457589068, -0.0035747951, -0.0958585888, -0.0514580831, -0.0806735232, -0.0752127320, -0.0515457056, 0.0402165279, -0.0656154752, 0.0512339212, 0.0824235305, -0.0182802472, 0.0717189685, -0.0040662726, -0.0589657277, -0.0329316892, -0.0555415787, 0.0237997063, 0.0891013518, 0.0151150590, 0.0390356034, -0.0258512367, -0.0267540589, -0.0606001280, -0.0041704844, 0.0294204634, 0.0388954654, -0.1559512317, -0.0553045608, -0.0648970008, 0.0189430229, 0.0017285334, -0.0340786614, 0.0374683887, 0.0316679627, 0.0159712564, -0.0293540359, -0.1018303037, -0.0042414963, 0.0212292261, 0.0642247722, -0.0698852465, 0.0185977034, -0.0337555371, 0.1112399027, -0.0378769636, -0.0284197330, 0.0516158864, -0.0713246763, -0.0274365302, -0.0498234071, 0.0362632126, -0.0099382810, 0.1184891537, 0.0679137334, 0.0070746508, 0.1126421019, 0.0248528793, 0.0624824204, 0.0009735205, 0.0275355689, -0.0228800625, 0.0617459305, 0.0034530114, 0.0469268486, -0.0111426562, -0.0210754573, -0.1001447514, 0.0590848438, -0.0166492909, -0.1040167063, -0.0533255190, -0.0556822643, 0.0570477955, 0.1593600065, -0.0094074113, -0.1077430472, 0.1765806377, 0.1288616210, 0.0715462416, -0.0335449316, -0.0463547260, -0.0133282579, 0.1028708741, 0.1267870516, 0.0302766170, 0.0131221935, 0.0962894186, -0.0326452293, 0.1015095338, 0.0115481429, 0.0564395562, -0.0143618286, -0.0584810898, -0.0534277856, 0.1469328403, 0.0773965120, -0.0620815009, -0.0413161814, 0.0827079117, 0.0957512558, 0.1071025953, 0.0790700465, 0.0560664833, -0.0184194166, -0.0328392014, 0.0171790123, 0.0851510987, -0.0318870172, 0.0248330496, 0.0753570721, 0.0948165134, -0.0431697257, 0.0491665341, 0.0417126715, 0.0771436021, 0.0709887818, 0.0185767673, 0.0033749312, 0.0843729824, 0.0603469610, -0.0505858660, -0.0325133167, 0.0239363685, 0.0139437402, 0.0863023549, -0.0912992135, -0.0282439664, 0.0226028785, 0.1222387105, -0.0583125651, 0.1383434087, -0.0698595271, -0.0680423304, 0.0151278349, -0.0318093859, 0.0935004503, 0.0917888880, -0.1052433103, -0.1178794280, 0.0357224979, -0.0993995667, -0.1174195111, -0.0272195153, -0.0528413728, -0.0269781817, 0.0965361223, -0.0536883548, -0.0420990326, -0.0175387748, 0.0474978685, 0.0116073154, -0.0621446595, -0.0095760375, 0.0530786328, 0.0899169892, -0.0442753918, -0.0740167946, -0.0432865545, -0.0296777971, -0.0830033347, -0.0765936971, -0.0404024720, -0.0417101718, -0.0934905112, 0.0071562496, -0.0794810653, 0.0281576011, 0.0597120896, 0.0909933671, 0.0003102586, 0.0587970540, 0.0012842818, -0.0520249940, -0.0064776503, 0.0173622202, 0.0713945925, 0.0349477865, 0.0944821388, 0.0892011747, -0.0462323725, 0.0567241572, 0.0250947252, -0.0204474609, 0.0643639266, -0.0292400289, -0.0260736719, 0.1086400077, -0.0093403729, -0.0161728486, 0.0014228852, -0.1011489406, -0.0456037298, 0.0120751876, 0.0057390840, 0.0041690143, 0.0889798328, 0.0468575507, 0.0135045443, -0.1009975448, 0.0717351735, -0.0717140362, 0.0031526173, 0.0119960578, -0.1846275330, -0.0501462631, 0.0987653285, -0.0560332835, -0.0395442173, -0.0533080250, -0.0607247129, -0.0296949334, -0.0320008695, -0.0622641779, 0.0213297978, 0.1034521982, -0.0178794190, 0.0702666566, -0.0174562205, -0.0863394439, -0.0119542247, -0.0063313171, 0.0420340858, -0.1031422466, 0.0115357609, -0.1800184399, -0.0533913262, 0.0079188263, -0.0428107977, -0.0857072473, 0.0445540845, 0.0135198701, -0.0488138236, 0.0939639658, -0.0617666095, 0.0172551200, -0.0951024294, -0.0237591751, 0.0983472392, -0.0703905001, -0.0418160930, 0.0951891616, 0.0578991845, 0.1221742183, 0.0461788699, -0.0891772583, -0.0754392892, 0.0907985568, -0.0426763929, -0.1726256609, 0.1254826784, -0.0051575382, 0.1045282409, -0.0679055005, 0.1256736517, -0.0362753272, -0.0196603239, 0.0205156580, -0.1604731083, -0.1800052226, -0.0839884058, -0.0239248555, 0.0526987910, -0.1297531575, 0.0614059716, 0.1362938285, -0.0087231239, 0.0152081419, -0.1934710890, 0.0740345120, 0.1364735812, -0.0256131217, -0.0320559479, -0.0538667552, -0.0081506865, -0.2139994204, 0.0323442444, -0.1588306278, -0.0554528944, -0.0038420812, -0.0418071635, 0.0312924273, -0.0282199197, -0.2327702343, 0.0693934560, -0.0966066867, -0.0118338643, -0.0535531454, -0.0503217578, 0.1530997902, 0.1134070605, 0.0099156965, 0.0093187476, -0.1049214005, -0.0602992699, -0.0545071699, 0.1314025819, -0.0407455489, -0.0129357399, -0.0478001684, 0.0153315244, -0.1168195978, -0.1463481337, -0.1062077358, -0.0533683375, -0.1429081261, -0.0794889927, -0.0306571666, -0.0974277854, 0.0278973859, 0.0529695600, -0.0131593142, 0.0512435772, 0.0615074560, -0.0695424825, 0.0375260301, -0.1405990422, -0.0519417822, 0.0128486473, 0.1479188651, 0.0436766893, 0.0431890376, 0.0200180747, -0.0623462535, 0.0782588348, -0.0244026817, -0.0210593324, 0.0450063460, -0.0134091014, -0.0669218376, 0.0200292524, 0.0946717411, -0.0856446400, 0.2011782974, -0.0010788826, -0.0626225173, -0.0534389094, 0.0780318752, -0.0146844145, -0.0455800183, -0.0359864943, -0.0414174087, 0.0268068258, 0.0946034119, 0.0464744121, 0.0411359705, -0.0110235885, 0.1011176482, -0.0227907021, 0.1006740630, 0.0449718982, -0.0295811445, 0.1441712081, 0.0562658757, -0.0175930280, 0.0484706871, 0.0160305258, 0.1014227793, 0.0747238174, -0.0815103799, 0.0276363399, 0.0113271000, -0.0375714786, -0.0445482507, 0.0303142723, 0.0649959296, 0.0144766560, 0.0644425005, 0.0243274607, -0.0977459848, -0.0108996201, -0.0176238399, 0.0291706566, -0.1460236311, 0.0100212693, 0.0034656727, 0.0949438438, -0.0965350419, 0.0093040597, -0.0772617161, -0.0704005882, -0.0086112516, -0.1009019017, 0.0391717628, 0.0000995793, 0.0168838780, -0.0583038107, 0.0095520355, -0.0644607842, 0.1231476367, -0.0150463218, -0.0887962133, -0.0464328863, -0.0683822632, -0.0280791838, 0.0198312365, 0.1068638116, -0.1009027511, 0.0079642022, -0.0859073550, -0.0318537019, -0.0073286910, 0.0257349908, 0.0994211435, 0.0127074607, -0.0072605764, -0.0623596162, 0.0104658799, 0.0335911252, -0.0380620174, 0.0643996522, 0.0198540203, 0.0543541126, 0.0882276595, -0.0814570412, -0.0145152034, -0.0883632302, 0.0805437118, 0.0595667847, -0.0993821695, -0.0031320290, -0.0682551861, -0.0349149294, -0.0763674304, 0.0088307057, 0.0144809140, 0.0320040584, -0.1136372685, -0.0304244701, -0.0897337571, 0.1193730980, -0.0470105968, 0.0418495759, -0.0351541080, -0.0247323960, -0.1400263608, -0.0328061432, 0.0115477461, -0.0066428557, 0.0734181255, 0.0263742972, 0.0856132284, 0.0238602720, 0.0752179772, -0.0769805908, -0.0208030995, -0.0261701513, 0.1123007834, 0.0072984970, -0.1207380742, 0.0747027099, -0.0913314149, -0.0526568256, 0.0495559350, -0.0686052069, 0.0544236079, -0.0489565358, -0.0063254964, 0.0354799479, 0.0162591431, -0.0193063505, 0.0686511174, -0.0379787758, -0.0293706711, -0.1263235658, -0.0574525446, 0.0364975445, 0.0690450072, -0.0322557054, 0.0621008761, -0.0608290359, -0.0039838240, 0.0323174074, 0.1415768564, 0.0375082567, -0.0903493166, -0.1138710976, -0.0818292275, 0.0311385188, 0.0218247082, -0.0934521556, -0.0233511981, 0.0525622629, -0.0850249603, -0.0817017034, -0.0719321817, -0.0571014099, -0.0959147587, -0.0266326219, -0.0025394731, -0.0451106317, 0.1266501546, -0.0443579145, 0.0463421792, 0.0290177222, -0.1448020190, -0.0280114189, 0.0502085276, 0.0216476899, -0.0538524501, -0.0552313998, -0.0442458875, 0.0265621990, -0.0007199724, -0.0582245924, -0.1143288389, 0.0662391335, -0.1203937456, 0.0456705615, -0.0985283479, 0.0744258091, -0.0514422506, 0.0893761292, -0.1017447039, -0.0747974589, -0.0527540073, 0.1100257114, 0.0168248489, -0.1003953591, 0.0995355323, 0.0512553565, 0.1610671729, 0.0580438636, 0.0828414187, 0.0302852876, -0.0338901840, -0.0536841340, 0.0981694609, 0.0947730392, 0.0634986609, -0.0861074552, -0.0671569481, -0.0011736567, -0.0139979655, 0.0256821867, 0.1156453937, 0.0143669527, 0.0384510197, -0.0471605249, -0.0612682365, 0.0158673022, 0.0372053571, -0.0633132756, -0.0354422331, 0.0095565347, 0.0437328890, 0.0528831519, -0.1220743433, 0.0126758935, -0.0175909568, -0.0359123237, 0.0622632764, 0.1052805409, -0.0177510772, -0.0711793080, 0.0614870377, -0.0503299795, -0.0933540761, 0.0190090593, -0.0795128942, -0.0131937908, 0.0569418147, -0.0039485889, 0.0082956320, -0.0089163370, 0.0495298617, -0.0776830837, 0.0657902434, 0.0093775159, 0.0877618268, -0.0467654131, 0.0754745156, -0.1350288093, -0.0284482501, -0.0178078786, -0.0160465110, 0.0672497526, -0.0237353742, 0.0611126423, -0.0182409436, -0.0068963780, -0.0536718853, 0.0365971066, -0.0240287464, -0.1106123403, 0.0304702446, -0.0579793118, 0.0501070581, 0.0710105747, 0.0277081802, -0.0547977164, -0.0039840033, 0.1044192910, -0.0699547380, -0.0297227520, -0.0725159347, -0.0031443443, -0.0277208742, 0.0596133843, 0.0404657200, -0.1101421118, 0.0387346596, 0.0442176051, 0.1003418863, -0.0158844814, 0.0487819873, -0.0479747765, 0.1149415299, 0.0993963256, 0.0590290613, -0.0732365921, 0.0919257328, 0.1066022962, -0.0326949358, -0.0886833891, -0.0022709698, 0.1741482168, 0.0283546727, 0.1144976243, -0.1155620068, 0.1414542198, -0.0647071600, -0.0461788103, 0.0358596668, 0.0048120082, -0.0538285784, -0.1561171710, 0.0009841656, -0.1112084389, 0.0134369321, 0.0189038906, -0.1013562307, -0.0517968610, 0.0496158451, -0.0155508826, -0.0760897025, -0.0090102311, -0.1345416009, 0.0148061262, 0.1056919470, 0.0744184703, 0.0028678824, 0.0402797759, 0.0448602363, 0.0573266521, -0.0001112345, -0.0905800313, 0.0242246538, -0.1359153986, -0.2232591361, -0.1393456161, -0.0928275660, 0.1777585298, 0.0169447791, -0.1124988347, -0.0177819785, 0.0918083414, 0.1527727246, 0.0887674391, 0.0953229219, -0.1866639107, 0.0769488066, 0.0708295777, -0.1020184383, 0.0581337176, -0.0832742006, 0.0466000438, 0.1831090152, -0.0026655335, 0.1052055135, -0.0458495058, 0.0512824655, 0.1192055047, 0.0397786722, 0.0479140989, 0.0088479221, 0.0980215147, 0.0389391370, 0.0991260633, 0.0526723266, 0.0139000220, 0.0247268137, 0.0141616696, -0.0698581636, -0.0804880038, -0.0209076572, 0.0166412424, 0.0342508219, 0.0278026313, -0.0186407715, -0.0317860097, -0.0338790528, 0.0353086852, 0.0141783180, 0.0290381406, -0.0768100023, -0.0363950990, -0.0513016544, -0.0487988219, 0.0543423817, -0.0740240663, 0.1390933841, 0.0048192721, -0.0903370008, 0.0356153958, 0.1059614047, -0.0667205155, -0.0006079598, -0.0808321014, 0.0430626161, 0.0201878194, 0.0206608567, 0.0293730497, -0.0440656133, 0.0540692918, -0.1124326810, -0.0142919607, -0.0451041274, -0.0447439402, -0.0667634234, 0.0190930478, -0.0494004525, -0.0326533131, 0.0910211802, -0.1097034886, 0.0290716719, 0.0683651865, 0.0010265508, 0.0700270236, 0.0084303385, 0.1465349048, 0.0281468779, 0.0137810865, -0.0130530754, -0.0473231599, 0.0025047723, 0.0289776400, -0.0397781990, -0.0496174507, 0.0798852220, -0.0541291647, -0.0413935184, 0.0041782726, -0.0573578738, 0.0113761630, -0.0989673808, 0.0213946272, -0.1216981262, 0.0331793353, -0.0045725419, -0.0489258096, -0.0743035600, -0.1332115531, -0.0656560212, -0.0222596694, 0.0019117410, -0.0929264575, 0.1084089205, -0.0890403464, 0.0029042943, -0.1436835378, -0.0015146347, -0.0098886229, -0.0455954894, 0.0076678004, -0.0373963490, 0.0991061702, -0.0828694999, -0.0188419092, -0.0120479492, -0.0400016904, -0.0536012314, -0.0659425557, -0.1177697256, 0.0017313305, 0.1353036910, -0.0329141133, -0.0821669996, -0.0192478076, 0.0486923046, -0.0592474565, 0.0636637360, 0.0017446367, 0.0181073174, 0.0085881073, -0.0741570592, -0.0380867161, -0.0815602839, 0.0728761107, 0.1015344486, -0.0428638682, -0.0909728184, -0.0265009645, -0.0266227890, 0.0118581345, -0.0396819115, -0.1361641139, -0.0164846852, -0.0457204245, 0.0424487777, 0.0690939203, 0.0762504712, 0.0011844888, -0.0439978875, -0.0692173764, -0.1238643229, -0.0479261801, -0.1232121065, -0.1318404227, -0.1087602153, 0.0341708995, 0.0314334072, 0.0928839967, -0.0066349735, 0.0853966177, 0.0433537997, 0.0956732556, 0.1022337303, 0.1100912169, -0.0652435049, -0.0908806249, 0.1072201654, -0.0555262715, 0.0658371001, 0.0081874793, -0.0681575239, -0.0245269537, 0.0431080535, 0.0862390622, -0.0183778927, -0.0002157626, -0.1235408932, 0.0932803601, -0.0344333313, 0.0858918056, -0.0001455120, 0.0964754894, -0.0235980600, 0.0739144906, 0.0859343037, 0.0265918579, 0.0140129644, -0.0024285177, -0.0425429083, -0.0612550750, 0.0117232036, 0.0329708979, 0.0399932191, 0.0033017874, -0.0415546857, 0.0381329097, 0.0420097448, -0.0946484879, 0.0066160578, 0.1328265667, 0.1108519956, -0.0380871333, 0.1356045604, 0.0451391488, -0.0421203934, -0.0697956234, -0.0323806815, -0.0040956410, -0.0322266035, 0.0172546003, -0.0343533568, 0.1522826105, 0.0330085717, 0.0362502374, -0.0210405011, -0.0795799941, -0.1032170206, 0.0700026751, -0.0812004358, -0.0913163647, -0.0452947170, 0.0800552592, -0.0048020589, 0.0118356766, -0.0251946170, -0.0145135708, -0.0841223747, 0.0124759078, 0.0228609554, -0.0044577974, 0.0705390349, -0.0804995820, -0.0295887403, -0.0647269338, 0.0895396769, 0.0154337315, 0.0046320045, -0.0349601246, -0.0284196977, 0.1374915242, -0.0265385546, 0.1190770492, -0.0574214011, -0.0390103012, -0.0880308896, 0.0484204441, 0.0446320698, -0.0840633437, -0.0068574222, -0.0837661177, 0.0149283204, 0.0435358807, 0.0980996490, 0.0061551556, 0.0617201664, 0.0959502086, -0.0082890131, 0.0828025192, -0.0497617014, -0.1237243786, -0.0804480091, -0.0336094201, 0.0775759369, -0.0003913973, -0.0291705932, -0.0513940379, 0.0407323129, -0.0546888337, 0.0262354277, -0.0140525866, 0.0150697315, 0.0960145146, 0.0592057481, 0.0402633734, 0.0153365284, 0.0262857359, 0.0070898412, 0.0164534431, 0.0298429448, -0.1222521514, -0.0264255609, -0.0462087467, -0.1622792333, -0.0025000183, -0.0309939906, 0.0898021236, -0.0511142761, 0.0093847588, -0.0437629893, -0.0112660974, 0.0391063951, -0.0469764881, 0.0792544782, -0.0328711905, 0.0725766048, 0.0819071308, 0.0222060475, -0.0768859461, -0.0688673928, -0.0280170348, -0.1395393014, 0.0087460428, -0.1176879480, -0.0067775906, -0.0812533945, 0.0352175012, 0.0650472641, -0.0766199678, 0.0364100151, -0.0441705883, -0.0282045659, -0.1338340640, 0.1650578082, -0.0088733044, -0.0599332117, -0.0384590030, 0.0671336353, -0.0290404931, 0.0774445459, 0.1026109457, 0.0218611322, -0.0536853485, 0.1050431132, -0.0067452034, 0.1031335965, -0.0355566181, 0.0846401528, -0.0069685467, -0.0487452336, 0.1640944630, -0.0287449118, 0.0449531637, 0.1376159936, -0.1198846400, -0.0607200302, -0.0764552206, -0.0852758214, 0.0087683406, 0.0211529098, 0.1250578612, -0.0786310062, -0.0389877819, -0.1387213320, -0.0427156277, 0.0201556627, -0.0467700064, -0.0828585625, -0.0190438181, 0.0906539038, -0.0569887832, -0.0884156674, 0.0850090235, -0.1055681556, 0.0200097486, 0.0024973964, -0.0093775885, 0.0714312866, 0.0081807747, -0.0749143437, 0.0510700755, -0.0127059156, -0.0062446361, -0.0964921713, 0.0398419276, -0.0128732221, -0.0676660687, -0.0467498936, -0.0141112832, -0.0372813046, 0.1859432757, -0.0452367477, -0.0444846153, -0.0722185522, 0.0691714361, 0.0577160381, -0.0616035685, -0.0276351124, -0.0009918751, 0.1592108458, 0.0306802411, 0.0949032828, 0.0353828818, -0.0491688550, 0.1090509146, 0.0267857052, 0.0498539843, 0.0413546003, -0.0213224664, -0.1265056878, -0.0450373664, 0.0891980827, 0.1251554489, 0.0130771473, -0.0553322099, 0.1096221060, 0.1598067284, -0.0097189574, 0.0314540155, -0.0205791909, -0.0358071998, 0.0129965367, -0.0342272185, 0.1544102430, 0.1072276458, -0.0251405369, 0.0221303664, -0.0470851585, 0.0581234433, -0.0738704652, 0.1057115346, -0.0773992836, -0.0261963215, 0.0209938399, 0.0044613550, 0.0599465333, -0.0046610115, 0.0821615160, 0.0120629612, -0.0965595469, -0.1232122853, -0.0671599656, 0.1111806929, -0.0799621791, 0.0729393065, -0.0420785844, -0.0458270460, 0.1157496348, 0.0146076772, -0.1106561273, -0.0880474001, -0.1239262968, -0.0620498061, 0.0537634529, 0.0310322642, -0.0528696664, -0.0253484081, -0.0299390964, 0.0149527658, 0.0175787061, 0.0932387486, 0.0827495977, -0.1215350479, -0.0581240728, -0.0309098344, 0.0024871295, 0.1266484112, -0.0568924397, 0.0399080962, -0.0509101897, 0.0454846993, -0.0017787489, -0.1158556864, 0.0780934840, -0.0112632951, 0.0470832065, 0.0842698291, 0.0671685264, 0.1047387943, 0.0006561622, 0.1493586600, 0.1102453247, 0.0379829481, 0.1122605428, -0.0713529587, -0.0263381079, 0.0329062231, 0.1299837977, 0.1029160991, -0.0382737145, 0.0712522939, -0.0335092247, 0.0263309907, -0.0048841289, 0.0779036582, 0.0029058899, -0.0108621176, -0.1498538256, 0.0109866476, -0.0127078602, 0.0090306168, 0.0531607829, -0.0067221047, -0.0857105404, -0.0230435580, -0.0498450957, 0.0213389676, 0.0201490540, 0.0355107747, 0.0918954015, 0.0473710820, 0.0383763537, 0.0241320692, 0.0996833667, -0.1254625320, -0.0001912755, -0.0536261983, 0.0593587682, -0.0778385773, 0.0609101057, 0.0442285538, 0.0021925257, 0.0022180742, 0.0597062223, -0.1000512391, 0.0001257204, -0.0976512581, -0.0696260259, -0.0410252735, 0.0306959208, -0.0027949568, 0.0415652245, -0.0242478605, -0.0534793735, -0.0710065663, -0.0879769921, -0.0469801202, 0.0139557179, -0.0445848182, -0.0621789694, 0.0147814639, -0.0966859534, 0.0654181987, -0.0657101125, 0.1242489815, -0.0001249111, 0.0541662574, 0.0469241105, -0.0450807251, -0.0049586548, 0.0273811053, 0.0915024579, 0.0956706628, -0.0341713205, -0.0894423425, -0.0005433010, 0.0277009122, 0.0094892830, -0.0512868911, -0.0266416296, -0.0279099941, 0.0686584711, 0.0149896676, 0.0663601309, 0.0205162987, 0.0096641285, -0.0603200123, -0.0714362711, -0.0118020363, -0.0750867575, -0.0282066949, 0.0566066317, -0.0314787775, 0.0702494904, -0.0040198993, 0.0125988023, -0.0325659141, -0.0494552925, -0.0507104434, -0.1479655206, -0.0929817259, 0.0247199945, 0.0672239587, 0.0171005558, 0.0122492453, 0.0244739670, 0.1202484220, -0.0214485563, -0.0411155783, -0.0215894543, -0.0581131615, -0.0300257374, -0.0012153410, 0.0734033510, 0.0638087764, -0.0803458691, -0.0444954745, -0.0264820661, 0.0605269484, -0.0015525569, -0.0947267190, 0.0727264956, -0.0288413409, 0.1398415118, -0.0489008948, -0.0106567210, 0.0220379960, 0.1145845428, 0.0152733056, 0.0843796059, 0.0722762644, -0.0107874433, -0.0220970921, -0.0330686308, -0.0846101046, 0.0847894177, 0.0274127871, -0.0991973430, -0.0078687919, -0.0086837672, 0.0065338169, -0.0910559669, -0.0290147550, 0.0237849001, 0.1313093305, 0.0731959790, 0.0805398747, -0.0852090120, -0.1416105777, 0.0194690954, -0.1305730045, 0.0127636595, 0.0374958143, -0.0366798453, -0.0199192539, 0.0952532664, 0.0889008418, 0.0500200987, 0.0280073211, 0.0621083565, -0.0945525169, -0.0682176650, 0.0728276670, -0.1171026900, -0.0198081490, -0.0218701847, -0.0266904663, 0.0157492589, 0.0379221663, -0.0291598421, 0.0561746955, -0.0402232073, -0.0346398205, 0.1007425264, 0.0274152793, 0.0243080854, -0.0364688300, 0.0277075768, -0.0738987476, 0.0201635752, 0.0972166434, 0.0654762387, 0.0072215353, -0.0243370421, -0.1116775721, -0.0302759297, -0.0085609090, -0.0246597454, -0.0252765063, 0.0855175853, 0.0881791785, 0.0231993720, 0.0144283855, -0.0265856385, 0.0228321720, -0.0306495782, -0.0361430049, 0.0159962587, -0.0914267153, 0.1311938018, 0.0144660762, -0.1081591100, -0.0612855218, -0.0395603441, -0.0334720910, -0.0472990312, 0.1349179000, -0.0409710258, -0.0258373562, 0.0137088895, 0.0951145887, -0.1072711498, 0.0349407382, -0.0157869570, -0.0305127893, -0.0790036693, -0.0258107744, -0.0141730607, -0.0203029700, -0.0104005337, 0.0099827964, 0.1036045551, -0.0115608908, -0.0113712549, -0.0265745725, 0.0111724399, -0.0720073581, 0.0118323136, -0.0637819991, -0.0155422799, -0.0673787147, 0.0145931132, 0.0077800378, -0.0111883860, -0.0233480204, 0.0125447493, 0.0367809497, 0.0075501888, -0.0818099976, -0.1314919144, 0.0947444886, -0.0437352471, -0.0181827322, 0.0770953596, 0.0203974824, -0.0867975876, -0.0838076919, -0.1135812551, 0.0374832116, -0.0220878851, -0.0186609272, 0.1196647063, 0.1039128825, -0.0896456167, 0.0536373407, -0.0116215060, -0.0222568680, -0.0868625194, 0.0257327240, -0.1134712324, 0.0133666024, 0.0304768588, -0.0388380140, -0.0511588231, -0.0357082710, -0.0552222468, 0.0488843955, 0.0348006450, -0.0081632417, -0.1216102690, -0.0996772200, -0.0201625563, -0.0223350264, 0.1041396260, 0.0534503050, -0.0610527620, -0.0901135430, -0.0564588681, -0.0355903767, -0.0885037631, -0.0063969623, -0.0416856073, -0.0696736723, -0.0321124159, 0.0523097888, -0.0273946300, 0.0570352972, 0.0234918837, 0.0587504730, 0.0078081926, 0.1005680263, -0.0918116793, 0.0402617715, -0.0264704023, 0.0043122880, -0.0060574231, -0.0496833138, -0.1098071039, 0.0310936682, -0.0418343320, -0.1504023671, 0.0072151758, -0.0578412004, -0.0203403924, -0.0691539943, -0.0300037656, 0.0361119211, 0.0514694825, 0.0123259444, 0.1432085186, 0.0046485919, 0.0004810972, 0.0895702243, 0.0565062799, 0.0428311862, 0.0111607583, 0.0701748058, 0.0506560579, -0.0357454792, -0.0463524051, -0.0027221909, -0.0544372089, -0.1036714017, 0.0010826874, -0.0928122252, 0.1471086890, -0.0323626921, 0.0453565083, 0.0006851412, 0.0160950869, -0.0620774068, -0.0157931987, -0.0276777875, 0.0775578618, 0.0224861726, 0.0432309508, -0.0831834897, 0.0521575920, -0.0650908053, 0.0061525269, -0.0936894566, 0.0412416235, 0.0361840650, -0.0558455102, 0.0335413739, -0.0158757586, -0.0290738177, -0.0527047701, -0.0535652749, -0.0650257394, -0.0159111340, -0.0159989651, -0.1348454505, 0.0916960537, -0.0775285810, -0.1538850218, -0.0140173174, 0.0057226047, 0.0202428717, -0.0363481902, 0.0683579221, 0.0473794527, 0.1136337295, 0.0675110668, 0.0309737232, 0.0080424258, -0.0033208763, 0.0677816272, -0.0272139851, -0.0701476783, -0.0078598186, -0.0583392046, -0.0441926271, 0.0798820108, 0.0944711566, -0.0078660334, -0.0785212666, -0.0903861523, -0.1682127863, 0.1214209199, 0.0429030061, 0.0496566258, 0.0868036523, 0.0497554988, 0.0444584563, 0.0801877379, 0.0457322411, -0.1313550770, 0.0294909161, -0.1568687707, -0.0876415521, 0.0674997866, 0.0939845741, 0.0571365729, -0.0771004036, -0.0691503212, -0.0269789062, -0.0135655170, 0.0061248373, -0.0330808535, 0.0016629973, -0.0662561134, 0.0994124115, 0.0077084848, -0.1118789613, 0.0474825688, 0.0612749457, -0.0550318547, -0.0008137353, -0.0049164407, -0.1405419856, 0.0092229955, 0.0826442465, 0.0046530697, 0.1215351224, 0.0319567434, -0.0147890681, 0.1095618531, -0.0580148511, -0.0660624504, 0.0536571778, -0.0791609064, -0.0106896879, -0.0298083834, -0.0417648628, -0.1477900594, 0.0487567671, 0.0375403203, -0.0508972853, -0.0595449582, 0.0727742016, -0.0032285410, 0.0650876537, -0.0430067293, -0.1370958388, 0.0187005308, -0.0011216914, -0.0254504308, -0.0411686003, -0.0631244481, -0.0524335466, -0.1411854327, -0.0438379571, -0.0366298966, 0.0958244279, -0.0385845974, -0.0181631427, 0.0253058020, -0.0980640277, -0.0416059121, -0.0138666388, -0.0302288514, -0.0132372938, -0.0539987199, -0.0200508274, 0.1214757487, -0.0511867777, 0.0064528189, 0.0345787555, 0.0204349123, 0.0612910055, -0.0517752320, 0.0105593204, 0.0559608005, -0.0366386287, -0.0143906130, -0.0397283323, 0.0023455359, -0.0104978187, 0.0272788368, 0.0008640246, -0.0877068266, 0.0358131602, 0.0250761285, 0.0589628927, 0.0169094261, 0.0447947904, 0.0136393616, -0.0146315852, -0.0550231524, 0.0175377429, -0.0455517396, 0.0131713478, -0.0390693732, -0.1199494526, 0.1152316034, -0.0724626482, 0.0552823357, -0.0328918695, 0.1450652778, -0.0470926762, 0.0951720104, 0.0103023723, -0.0394592546, 0.0068704681, -0.0640867501, -0.1458098143, -0.0380215347, 0.0434430316, -0.0362330079, -0.0544497967, -0.0111589124, 0.1161813438, -0.0352183990, 0.0762368962, 0.0024903133, -0.0794775635, 0.0998396054, -0.1029083356, -0.0629153103, -0.0590375029, -0.0602630228, -0.0013422177, 0.0255819224, 0.0241635852, 0.0400224961, 0.0622431077, -0.0604115352, 0.0321944244, 0.0100128818, -0.0130651193, 0.0786516741, 0.0767252073, 0.1348671913, 0.0614942387, 0.0404770523, -0.0407134108, 0.0593271293, 0.0141583933, 0.0791757107, -0.1394327879, -0.0815894902, 0.1729908735, 0.0478755422, 0.0829467252, 0.0259564314, 0.0263872799, -0.0515979379, -0.0447503366, -0.0687068924, 0.0260914247, 0.0710004792, -0.0791568905, 0.0560925826, -0.0475363620, -0.0341175236, 0.0481810458, 0.0200035665, 0.0210827570, 0.0128093166, 0.0111977346, 0.0539600849, 0.0801742896, 0.0447609797, -0.0377487764, 0.0650553480, 0.0954266712, -0.0479894392, 0.0121461526, 0.0270326789, -0.0558376499, 0.0092189088, -0.0398653485, -0.1319709718, -0.0678778887, -0.0065861573, -0.1040425822, 0.0704657137, 0.0562030450, -0.0548426695, -0.0179872382, -0.1180119812, 0.0382018238, 0.0243978128, -0.1251204014, -0.0244702566, 0.0406333879, -0.0633551329, 0.0444494225, 0.0814534798, -0.0118698534, 0.1884013712, 0.0232023019, 0.0317745805, -0.1623616666, 0.0191514678, 0.1137538031, -0.0651641712, 0.0027890536, 0.0238912683, -0.1563407630, -0.0799146742, 0.0177118536, -0.0370269455, -0.0979757756, -0.0121646486, 0.0741443262, 0.1108236462, -0.0308042429, -0.0750388205, -0.0633514076, -0.0151684191, 0.1195756271, 0.0492381528, 0.1099860072, -0.1282481104, -0.0361113921, 0.0068200971, -0.0659243315, 0.0133111235, -0.0292679090, -0.1129841357, -0.1174305454, 0.0394796357, 0.0328784846, 0.0404552668, 0.0312679596, -0.0194745567, -0.0082646376, 0.0039256332, -0.0849909186, 0.0303176381, 0.0457120091, 0.1189292520, 0.0327457525, -0.0249216799, 0.0223585702, -0.0477221571, -0.0910719708, 0.0018587048, 0.0906120539, 0.1373607665, 0.1107767299, 0.0056155836, -0.0170490164, 0.1503458917, 0.0756200030, 0.0281839184, 0.0021067932, -0.0311606042, 0.0889221504, 0.1305422336, 0.0257396027, -0.0147015778, -0.0456565246, 0.0002210446, -0.0047049597, -0.0089009330, -0.0289987270, -0.0555903204, 0.0633385181, 0.0408293270, -0.0350414850, -0.0427481756, 0.0270988811, 0.0913115442, -0.0226901211, -0.0122298347, 0.0671126470, 0.0334313363, -0.0039126822, 0.0771028847, 0.0976743326, -0.0034827101, 0.0563376434, -0.0329462327, -0.0328771435, -0.0088706641, 0.0197098944, 0.0391248539, 0.0238178894, 0.0805487558, -0.1358626783, -0.0286962930, -0.1294307262, 0.0792745948, 0.0537854768, 0.0994547084, -0.0076460862, -0.0188020412, 0.0204359256, 0.0699077398, -0.0279917251, -0.0596748739, 0.0104014259, 0.0214643180, 0.0333250761, 0.0056352695, 0.1296242923, -0.1225209460, 0.0196887515, -0.0070808246, -0.0362114199, 0.0293280054, 0.0166100077, -0.0251717642, -0.0235532261, 0.0968519449, 0.0047948235, 0.0122426189, 0.0106062600, 0.0237457585, 0.0454742797, 0.0771737024, 0.1135986298, 0.0093142455, -0.0679951161, -0.0754140690, -0.0860857964, 0.1277736872, 0.0164573397, 0.0762624070, -0.0318753123, -0.0809184685, -0.0844497532, 0.0200574044, 0.0679642186, -0.0148672573, 0.0540752858, -0.0079162465, 0.0147309816, 0.0025784231, 0.0288128555, 0.0329119526, 0.0691510364, 0.0550150685, -0.1021643355, 0.0618171580, 0.0178111829, 0.0049024466, -0.0318167545, 0.0622665137, -0.0628834516, -0.0108928652, -0.0626918375, 0.0318770371, -0.1040723994, 0.0426332429, -0.0341777988, -0.0087348185, 0.0209407788, -0.0795739368, -0.0129631599, 0.0059734448, -0.0313395821, -0.0656126514, 0.0584624670, -0.0491691157, 0.0319060311, 0.0534382910, -0.0495896488, 0.0220624730, 0.0834608376, -0.0107784960, 0.0691760406, -0.0283217803, -0.0598859936, 0.0605854616, -0.0254558884, 0.0141639160, -0.0820416510, 0.0171034336, -0.0720575005, 0.0340005569, 0.0983896405, 0.0023897863, -0.0155866351, 0.0240288712, 0.0289878994, -0.0502988398, 0.0312525332, 0.0023076814, -0.0131707927, 0.0493484102, -0.0510691777, 0.0865590051, 0.0546500236, -0.0294689387, 0.0599903502, -0.0612597130, 0.0470595099, 0.0567800216, 0.0339129083, -0.0307505187, -0.0211152900, 0.0075518759, -0.0121587068, 0.0195781682, 0.0559318364, 0.0903608426, -0.0705910325, 0.0460014306, 0.0422173254, -0.0288105942, 0.0694663972, 0.0040942058, -0.0212855767, -0.0344585329, 0.0178117026, 0.0652253926, -0.0415228754, -0.0367098786, 0.0025939269, -0.0515457839, -0.0453891717, 0.0874429122, -0.0028923699, 0.0177656952, 0.0365189463, -0.0931788906, -0.0376569927, 0.1253454685, -0.0517859906, 0.0949672535, -0.0797926635, -0.0223704204, 0.0961210355, 0.0391526483, 0.0256270748, -0.0226205364, -0.0008648469, -0.0232040565, 0.0615585782, 0.0120340791, 0.0285594594, 0.0683379844, -0.0176468603, 0.0404654033, 0.0629230067, -0.0326355994, -0.0301532224, 0.0551688299, -0.0684977919, -0.1025186256, 0.0145017747, -0.0434868447, -0.0105334669, 0.0193287414, -0.0833295137, -0.0015227487, -0.0651282221, 0.0332705714, 0.0250959322, -0.0849405453, 0.0446971804, 0.0452595539, -0.0358046144, -0.0396510847, 0.0524485670, -0.0627806187, 0.0516721569, 0.0349887833, 0.0296624899, -0.0428926423, 0.0029621418, -0.0044196001, 0.0250710882, -0.0545512475, -0.0439108945, -0.0153289167, 0.0976614431, 0.0706070811, -0.0025774518, 0.0341900550, 0.0265068375, -0.0519145504, -0.0774434507, -0.0447136126, -0.0380823649, 0.0159686822, -0.0130134327, 0.0311591886, 0.0883123204, 0.0383650288, -0.0902966335, 0.0293236673, -0.0474119410, -0.0958772078, -0.0113836871, 0.0000605718, -0.1093611568, 0.0096957060, 0.0038904331, 0.0464953370, 0.0574163720, 0.0166729596, 0.0202558618, 0.0601742268, -0.0070583955, 0.0754500851, 0.0786594450, -0.0815501437, -0.0540092103, 0.0140934428, 0.0168492291, 0.0172203090, -0.1190558374, 0.0488922372, 0.0201034620, -0.0388156511, 0.1063184813, 0.0050347028, 0.0605540425, -0.0600004047, -0.1502200067, -0.0514039956, -0.0054447637, -0.0012315989, 0.0570537671, -0.0923345163, -0.0344858691, -0.0449357480, -0.0147110969, 0.0904471204, 0.0075558899, -0.0344263650, 0.0224092677, -0.0455838852, -0.0019738993, 0.0273758955, 0.0312320832, 0.0543305278, 0.0196450353, 0.0442259610, 0.1412091255, 0.0653459802, -0.1123616323, 0.0107296864, 0.0345758572, 0.0050441422, 0.0581193604, -0.0562686175, -0.1031891331, 0.0164497625, -0.0286317393, 0.0129356934, -0.0546028204, -0.0751748383, -0.0904745683, -0.0676013455, -0.0883571580, 0.0028985799, 0.1611936092, 0.0558751486, -0.1096611172, -0.0245699733, -0.1087775379, 0.0763159990, -0.0197657682, -0.1082641631, 0.0625517517, -0.0357889161, -0.0708682016, 0.0443946198, 0.1201361641, -0.0344143510, -0.0518178232, 0.0539259948, -0.0657591149, -0.1469240636, -0.1290052682, 0.0013335932, -0.0476766378, 0.0112623060, -0.0818652511, 0.0133840414, 0.0418296233, -0.0607773140, 0.0976318270, -0.0183372069, -0.1189528853, 0.0091766538, -0.0541161597, -0.0543450564, 0.0345156752, -0.0214240309, 0.0769220814, -0.0125240982, -0.0263197925, 0.0660799071, -0.0137191080, 0.0690231696, -0.0174920354, -0.1046795547, 0.0361831412, -0.0699283630, 0.0469922759, -0.0778093785, -0.0016178386, 0.0925115943, 0.0136679420, 0.0929922014, -0.1055894047, 0.1312636286, -0.0640031546, 0.0428541750, -0.0165361799, -0.0497592315, 0.1073290780, -0.0331044644, -0.0096524982, -0.0425222516, 0.1014562920, 0.0419939235, -0.0488730669, 0.0365588069, -0.0336912125, 0.0253347028, 0.0604369603, 0.0703467652, -0.0610487536, -0.0793284848, 0.0949537978, 0.0346273147, -0.0703399330, -0.0081534311, -0.0260384437, -0.0406339616, 0.0270305034, -0.0646029189, 0.1277900785, 0.0313418061, 0.0196228847, -0.0283826906, 0.0020526191, -0.0002815695, 0.0248218253, 0.0610974915, 0.0001411672, -0.0268875528, -0.0895462856, -0.0710307732, 0.0423667058, 0.0534978397, -0.0676041245, -0.0761272013, -0.0805273280, 0.0722137019, 0.0256682355, 0.0264947619, -0.0311572794, 0.0181144737, -0.0677444041, -0.1037508473, -0.0137523571, 0.0681934133, -0.0188909918, -0.0458289497, -0.0308990441, 0.0354482010, -0.0260034744, 0.0393402725, -0.0917016789, -0.0079047251, -0.0201552231, 0.0883525759, -0.0642856881, 0.0335253924, -0.0048346370, 0.0066503487, 0.0207888037, -0.0272408314, 0.0359122045, 0.0149846245, 0.0023909325, 0.0341170095, -0.0028397427, 0.0575847663, -0.0458010510, -0.0150346225, 0.0374179445, -0.0852192342, -0.0616792031, -0.0343891755, 0.0642219558, 0.0382727608, -0.0248541404, -0.0399381816, -0.0334562585, 0.0980706066, 0.0553487167, 0.0408382453, -0.0232580416, 0.0122718951, 0.0714410096, 0.0287916325, -0.0286807287, 0.0466117710, -0.0409677476, -0.0441626199, -0.0720329136, -0.0450581908, 0.0407320708, 0.0430526920, 0.0164228380, -0.0257348772, 0.0832207128, -0.0537265912, -0.0567013249, 0.0257813334, 0.0550602376, -0.0514492355, 0.0295050330, 0.0178937018, 0.0752486587, 0.0450954176, -0.0776291564, 0.0140080843, 0.0089591891, -0.0049985098, -0.0703656599, -0.0184448250, 0.0145298038, -0.0416004434, 0.0345162041, -0.0330225192, -0.0961534828, 0.0203949250, -0.0716985688, -0.0421282910, 0.0003909690, -0.0504685789, 0.0011550001, -0.0534357056, -0.1285580397, -0.0907579660, 0.0451674499, 0.1119193807, -0.0322464891, 0.0137359099, 0.0142731797, -0.0377546102, 0.1060180590, -0.0079696979, 0.0306359846, 0.0137898354, 0.0584732667, -0.0914210528, 0.1033310369, 0.0433695316, -0.1069064066, -0.0968430489, 0.0918595716, -0.0121247470, -0.0241092388, 0.0484714359, -0.0984831974, -0.0586505048, 0.0243659467, -0.0251571462, -0.0822006688, 0.0661733672, -0.0264765136, 0.0278730895, 0.0090386281, 0.0069268118, 0.0253075138, -0.0161429774, -0.0075953021, -0.0674249306, -0.0522694737, 0.0353350788, -0.0330542065, -0.0157315750, 0.0765846893, -0.1012850106, 0.0044989246, -0.1028923020, 0.0362286903, -0.0282837283, 0.0313020982, 0.0510383695, -0.0925699249, 0.0781369135, -0.0393581055, -0.0741265416, 0.0008649779, -0.0107332775, 0.0932967141, -0.0366666578, -0.0371878929, 0.0653135628, -0.0383945890, -0.0898160860, 0.0284446534, -0.0899392515, -0.0538490042, -0.1314971745, 0.0978991017, -0.0286409557, 0.0306964684, 0.1449363679, 0.0295097772, -0.0453085303, 0.0448365547, -0.0954260305, -0.1169207022, 0.1345807910, -0.1350507587, -0.0825496987, -0.0397717394, -0.0297589228, 0.0327500887, -0.0488728918, 0.0240141694, 0.0217132121, -0.0139632905, -0.0292269457, 0.0108465981, 0.1409183145, -0.0938166827, 0.1171074808, 0.0693310350, 0.0321243890, 0.0909809098, -0.0311747175, 0.0913584232, -0.0502873808, 0.0732567757, 0.0700708628, 0.0038231551, -0.0643466637, -0.0827075839, 0.0479356498, -0.0447708070, -0.0319396779, -0.0983576998, 0.0143343182, -0.0782398656, 0.0671226606, 0.0219982024, 0.0393360257, 0.0455300845, 0.0334739350, -0.0278626774, -0.0673219040, -0.0107928198, 0.0057240152, 0.0484121516, 0.0340152234, 0.0058952132, -0.0438308716, 0.0353179500, -0.0368171483, -0.0406471156, 0.1019073799, -0.0483599417, 0.1044126749, -0.0647978634, 0.0266287811, -0.1227975264, -0.0222348273, 0.0908425972, 0.0040546730, 0.0655370653, -0.0213851258, -0.0022622570, 0.0823632851, -0.0453591757, 0.0466187410, 0.0380834639, -0.0505076237, 0.0234753415, -0.1015669182, -0.0082999915, 0.0214343052, -0.0275025405, -0.0541795492, -0.0929152369, -0.1006929129, 0.0536849350, -0.0807873085, -0.0686852559, 0.0778083131, 0.0283793844, -0.0439390615, 0.0530334301, -0.0105373068, 0.0671431869, 0.1100404710, 0.0230760407, 0.0422628038, 0.0049809995, -0.0287497174, 0.0578110404, -0.1013867930, -0.0723042712, 0.0078687342, 0.1179834753, -0.0056945761, -0.0028657971, 0.0214917883, 0.0150144622, -0.0503725931, -0.0728003457, 0.0328907929, -0.0255466867, 0.0344455689, 0.1157854274, -0.0021274060, 0.0382741988, -0.1095049456, -0.0221904945, -0.0764286369, 0.0028439746, 0.0842994824, 0.0758340880, -0.0282460731, -0.0402418151, -0.0366902724, -0.0972804204, -0.0973013341, -0.0272988286, -0.0255912878, 0.0023493227, 0.0102628944, -0.0509577617, -0.0618863553, -0.0236638729, 0.0748725533, 0.0262670014, 0.0682827979, 0.0087234611, 0.0100517431, -0.0905210003, 0.0762220621, 0.0337493084, 0.0548614487, 0.0250387788, 0.0567685366, 0.0991498306, 0.0306107514, 0.0244689584, -0.0689247325, 0.0795301571, 0.1051078811, 0.0423121564, -0.0209417976, -0.0522893853, 0.1140602306, 0.0307720359, -0.0063369796, 0.0935677886, 0.0137840798, -0.0402499028, 0.0880870521, -0.0160921756, -0.0206848960, 0.0584734865, -0.0367003679, -0.0656442419, -0.1122098044, -0.0260554124, 0.0362685062, -0.0312055927, 0.0131708458, -0.0100783221, -0.0177331809, -0.0917055905, 0.0331114754, 0.0294393562, 0.0638624430, 0.0359390154, 0.0831313655, 0.0459474996, 0.0377563424, 0.0959509835, 0.0243031122, -0.0227401424, 0.0153304730, 0.0386382863, 0.0343822949, 0.0720937997, 0.0612143688, 0.0461607687, -0.0212876908, 0.0858189091, -0.0543174669, 0.0879519805, 0.0131376470, 0.0283215661, 0.0006229543, 0.0498948172, 0.1135586798, -0.0246932041, 0.0421006978, 0.0837978646, -0.0395026207, -0.0107330065, -0.0544458590, 0.0526255295, 0.0208601896, -0.1119583175, 0.0399311408, -0.0464018732, 0.0231413189, 0.0170665309, 0.0394594930, -0.1097134873, -0.1000198647, -0.0791155994, -0.0773189515, 0.1345857084, 0.0122605516, -0.1311452389, 0.0793955997, -0.0783771649, -0.0422971360, -0.0759362131, -0.1009617373, 0.0521758348, 0.0268231966, -0.0563753322, -0.0123708816, -0.0476130508, 0.0213312786, -0.0701906830, 0.0209382176, 0.0885204524, -0.0416728668, -0.0747937411, -0.0190342795, 0.0924909487, -0.0629045144, 0.0929614380, -0.0411409698, 0.0719188005, -0.0495195389, 0.0501096435, 0.0629079565, 0.0013269507, 0.0609539226, -0.0157534331, 0.0069833952, 0.0191565044, -0.0811206400, -0.0028028737, 0.0092824241, -0.0615854599, -0.1024559215, -0.0262867752, -0.1080108657, 0.0650378540, -0.0859566629, -0.0062543522, 0.0508495197, -0.0616508201, 0.0962331295, -0.0674828142, -0.0137615772, -0.1080280393, -0.1012558043, 0.0692442134, 0.0392376855, -0.0363297984, -0.0190914404, -0.0293715913, -0.0171701089, 0.0058553019, 0.0011754081, 0.0602026731, 0.0050496389, 0.1131032705, 0.0521886386, -0.0042708642, 0.1190746874, -0.0526211895, 0.0429884195, -0.0789034739, -0.0220742207, -0.0000456311, -0.1101459414, -0.0111192474, -0.0024008558, 0.0980453491, 0.0213836357, 0.0499001928, 0.0476379432, -0.0070254463, -0.0240582079, 0.0682431534, 0.0801471919, -0.0644895956, 0.0697197393, 0.0499128699, 0.0425105393, -0.0018365295, -0.0702343732, 0.0426434726, 0.0994725674, 0.0308703352, -0.0538866632, -0.0979692265, -0.0635793731, -0.1198171824, 0.0545447469, -0.0447750576, 0.0091679990, 0.0566005111, 0.0876450986, -0.0570498519, -0.0204722658, -0.0467879549, -0.0038604022, -0.0984436423, -0.0531850234, -0.0406514928, -0.1536887437, -0.0390324406, 0.1206964552, 0.0398613960, 0.0320613272, 0.0580270030, -0.0075268536, -0.0056827744, 0.0072142803, 0.0320084989, 0.0553501584, 0.0147072347, -0.0506675765, 0.0365192406, 0.0738056153, -0.0254447963, 0.0955916867, 0.0041085761, 0.0044013085, 0.0625420213, -0.0381763019, -0.0854474232, -0.0330385715, -0.0528482124, 0.0107946750, 0.0249529891, 0.0184320547, -0.0437415987, 0.0063010054, 0.0446722172, -0.0189805441, -0.0200427882, -0.0454657599, 0.0019062506, -0.0572376810, -0.0040794900, 0.1165027022, -0.0608580448, 0.0003695930, -0.0193157289, 0.0171869025, -0.0579298437, 0.0861587897, -0.0527821891, 0.0269053467, -0.0070891562, 0.0324444547, 0.0056001148, 0.0090665054, 0.0076774857, -0.0804229826, 0.0654745921, -0.0102441981, -0.0128310341, 0.0397019163, -0.0378339887, 0.0700564831, 0.0774643198, 0.0816276446, 0.1105406061, -0.0236841477, 0.0586289875, 0.0270738322, 0.0444148369, 0.0628400296, -0.0409128629, 0.0485564247, -0.0391962826, -0.1241553575, 0.0443117507, 0.0118474150, -0.0355197489, 0.0515867993, 0.0419873297, 0.0615908653, 0.0446993783, -0.0135445409, -0.0496501476, 0.0151269166, 0.0620214231, -0.0551755205, 0.0169105716, 0.0061204657, -0.0264150966, 0.0646189600, -0.0660035834, -0.0520557836, -0.1075322479, -0.1007820293, 0.0655692741, 0.0798850283, 0.0942019820, 0.0539281145, -0.0565992817, 0.1039060354, -0.0590321086, 0.0080798268, -0.0908846334, -0.0811734796, 0.0967563167, 0.0496301949, -0.1099300459, 0.0339416675, 0.0651023537, 0.0044247680, 0.0222441517, 0.0382671580, -0.0508475751, 0.0543350838, -0.0450664833, 0.0671103001, -0.0222788099, 0.0588651747, 0.0934501141, 0.0648044199, 0.1279576719, -0.0428997763, 0.1544760913, 0.0302197821, 0.0303245299, -0.0787649006, 0.0550434291, -0.0172703508, 0.0054980461, -0.0733212456, 0.0362541005, 0.0056249648, 0.0479059741, 0.1392044574, -0.0323603079, -0.0534573384, -0.0333762728, 0.0755374357, 0.0869858265, 0.0385133550, -0.0737340227, -0.0778086334, -0.0504699424, 0.0058875238, 0.0539184660, -0.0562168285, -0.0473772734, -0.1522116810, -0.0652043596, -0.1283957809, 0.0350357033, 0.0375372842, -0.1440412998, 0.0366864689, 0.1002482101, 0.0704351291, -0.0041307034, -0.1047724113, 0.0350551605, 0.0229571089, -0.0167650543, -0.1181858629, -0.1165573373, -0.1157784089, -0.0471564345, 0.0040153973, 0.0387699828, 0.0113270171, -0.0423527099, -0.0007170475, 0.1209448278, -0.0187951233, -0.0618480556, 0.0701972172, -0.0365937352, -0.0156824980, -0.0394976214, -0.0567161627, 0.0893510953, -0.0001868128, 0.0598431230, -0.0338138267, 0.0586442053, 0.0684154630, -0.0400992595, -0.0236650631, -0.0427645296, -0.0683521107, 0.0825063735, -0.0429806747, 0.0631740987, 0.0784899890, -0.1589679271, -0.0724407732, 0.0243156943, 0.0063804826, -0.1193428710, -0.1422896087, -0.0475284606, 0.0946502462, 0.0561920963, -0.0349477045, 0.0183401275, 0.0797584653, 0.0199996885, -0.0328041054, -0.0894675031, 0.1397074908, -0.1231362000, -0.1371217817, 0.0070072589, 0.0035639161, 0.0893717632, -0.0705890805, -0.0519248247, -0.0385597534, -0.0029829163, 0.1644689739, 0.0030538896, 0.0671824291, 0.0569405779, -0.0011027888, 0.0407447629, -0.0010719664, 0.0657726079, 0.0477316901, 0.0988877937, 0.1688793898, -0.0933001786, -0.0337211490, -0.1054264158, -0.0144476546, -0.0371479765, -0.0496524721, -0.0535441339, -0.1283472329, -0.0816342682, -0.1008813158, 0.0066827810, -0.0759422407, 0.0012190467, -0.0706897005, 0.0105883954, 0.0589446500, -0.0418562107, -0.0545809306, -0.0649951398, -0.0861780792, 0.0420555435, 0.0860280693, -0.0844008923, 0.0505899638, -0.0672276542, 0.0892363191, -0.0987788588, 0.0718137100, -0.0412215702, 0.0980195105, -0.0967781246, -0.0885464400, 0.0349301621, 0.0420251377, -0.0254547521, 0.0347841382, 0.0182702001, -0.0624361783, -0.0379186720, -0.0381217897, -0.0161692295, 0.0758624449, -0.1134431735, 0.0586395189, -0.0524187572, -0.0348608233, -0.0372748859, 0.0426462516, 0.0223554056, 0.0774763227, 0.0517214015, 0.0346442200, 0.0588184148, -0.0757759586, -0.0177571755, -0.0708979145, -0.0851036757, -0.0816389248, 0.1099499911, 0.0415623188, 0.0280154496, -0.0181305278, 0.0752666742, 0.0815885067, -0.1215117127, -0.0026777752, 0.0853147730, 0.0062976000, -0.1040861830, 0.0128851542, 0.0285897907, 0.0371636041, 0.0703702420, -0.0223323945, -0.0201763790, -0.0998873785, -0.0991731435, 0.0233879890, 0.0236348864, 0.0755609348, 0.0435397029, 0.0339384787, 0.0405131914, 0.0230757911, -0.0669805631, 0.0059098434, -0.0124265030, -0.0696834475, 0.0746249855, 0.0041866107, -0.0315228142, 0.0760824457, -0.0979973003, -0.1026134342, 0.0414367430, -0.0564306006, 0.0187990069, 0.0308565814, 0.0338745639, 0.0157633834, -0.0687183961, 0.0117118396, -0.0450185686, -0.0940205753, -0.0371903256, -0.0543905161, 0.0251727384, 0.0444231443, 0.0000670520, 0.1448673755, 0.0319170728, 0.0673293322, 0.0320355408, -0.0584399179, 0.0467661209, 0.0093895625, -0.0806250721, -0.0214732587, 0.0302561335, -0.0677484497, 0.0339471102, -0.0061924635, -0.0138846263, 0.0782020614, 0.0564262979, -0.0841081068, -0.0345964916, 0.0390182063, -0.0636678934, -0.0404917710, 0.0147071136, -0.0283585247, -0.0578840151, -0.0056117922, -0.0033481645, -0.0517543815, 0.0793793052, 0.0567717887, -0.0079128714, 0.0585641339, -0.0647973865, -0.0669021383, -0.0012378728, 0.0189642683, 0.0033172322, 0.1035056561, -0.0590029024, 0.0035491150, -0.0062419544, 0.0185502861, -0.0530157313, 0.1089287549, 0.0837192312, 0.1163056567, -0.0811501741, -0.0739347041, -0.1102818847, -0.0416897088, 0.0285027176, -0.0875554606, -0.0203021448, 0.0347027779, 0.0926631019, -0.0215430148, 0.0050109765, -0.0641135648, 0.0155118238, -0.1009099260, -0.0213370826, -0.0147026144, 0.0033784076, 0.0229934212, 0.0417029075, 0.0515620485, -0.0329771079, 0.1085758209, -0.0359979458, -0.0454791263, 0.0179513693, 0.0605345592, 0.0165501423, 0.0751298815, -0.0062036272, -0.0221857987, 0.0792059377, 0.0492193140, 0.0019498824, 0.0825395659, 0.1023907065, -0.0477077775, -0.0524345376, -0.0715553015, 0.0435657501, -0.0538744889, 0.0218406394, -0.0046598492, -0.0027235774, -0.0550004430, 0.0048300750, 0.0065907747, -0.0906161517, -0.0252803341, 0.0585786700, -0.0521240309, -0.0346094482, -0.0677373186, 0.0056487056, 0.0276339687, -0.0549001247, 0.1018324792, 0.0448678769, -0.0121110650, 0.0842868164, 0.0552580431, -0.0361477956, 0.0793894753, 0.0293598492, 0.0139823342, 0.0257742181, 0.0877153277, 0.0321303196, -0.0496873595, -0.0536797009, -0.0697763190, 0.1020890027, -0.0012477539, -0.1122616604, -0.0701944456, 0.0446778610, -0.0372270420, -0.1166641042, -0.0477387011, 0.1326105297, 0.0473109111, -0.0605584830, -0.1175071076, 0.0443183146, 0.0179764759, -0.0205545947, -0.0693447739, 0.0683937743, -0.0113183865, -0.0497368984, -0.0389710627, 0.0725352168, -0.0376797318, 0.0553455427, 0.0101263700, 0.0456253998, -0.0275970679, -0.0318175741, -0.0217371192, 0.0437809899, 0.0627080277, -0.0234478358, 0.0758223459, 0.1059841514, 0.0248419121, -0.0299066026, 0.0217982549, -0.0778732076, 0.0216441210, -0.0445033833, 0.0473197550, -0.0504674502, 0.0156057002, -0.0809397921, -0.0947783366, 0.0127371456, -0.0431568585, -0.0245778859, 0.0337552577, 0.0245206747, -0.0588674285, -0.0157291107, 0.0048224609, -0.0059600505, -0.0466680266, 0.0193320252, 0.0061063110, 0.0947122797, 0.0183058344, 0.0170879494, 0.0721193999, 0.0413056053, 0.0985856801, -0.0208301935, -0.0378913879, -0.0174260978, 0.0449293889, 0.0394863077, -0.0717876032, -0.0712594837, -0.0036221009, 0.0289387517, 0.0950306207, -0.0075247153, -0.1317351162, -0.1289540827, 0.0370306447, -0.0392636731, 0.0701835454, -0.0578476265, 0.0042634783, 0.0533627868, -0.0603146926, 0.0002768537, -0.0073392037, 0.1729222089, -0.0166769680, -0.0742729828, -0.0183655135, 0.0017185825, -0.0150192333, -0.0459283963, -0.0802254677, 0.0712960586, 0.0102757644, 0.0452356525, 0.0386344939, -0.0649130046, 0.0628214851, 0.0961415097, 0.0310681481, -0.0143128475, 0.0405755043, -0.0564192757, -0.0705140159, -0.0262048487, 0.0850565284, 0.0434054211, 0.0190062169, -0.0808604956, 0.0155905513, 0.0378240794, 0.0873879939, -0.1319762915, 0.0275556333, 0.1232440844, -0.0097947484, 0.0810021088, 0.0161531772, -0.0152210006, 0.0627410561, 0.0821901262, -0.0055171805, -0.0417920761, 0.0531225652, 0.0314141437, -0.0358258449, 0.0526495464, 0.0441105478, 0.0670827255, 0.1345990896, 0.0050876602, 0.0190236885, -0.0759796500, 0.0306012332, -0.0757498220, 0.0945500508, -0.1032745689, 0.0346321277, 0.0784359649, 0.0355335139, -0.0206013881, 0.0266678184, -0.0197322033, -0.0718509778, 0.0055623059, -0.0090135178, -0.0673442334, -0.0513196997, -0.0328833275, -0.0633842051, -0.0181560218, -0.0584461391, -0.0951255709, -0.0437391959, -0.0077019352, 0.0109144682, 0.0194425695, 0.0096366648, -0.0790017396, 0.0661102906, 0.0380472168, -0.0167808011, 0.0550412573, -0.0399055630, -0.0162883867, -0.0142934769, -0.0154929906, 0.0406265743, -0.0435787551, -0.0098202145, -0.0028413611, 0.0107062152, -0.0487744324, -0.0808288828, 0.0558490269, -0.0198240932, -0.0387140326, -0.0329835117, -0.0489482768, -0.0915329829, 0.0867147371, 0.0517112352, 0.0873715281, -0.0292762257, 0.0423662886, -0.0005106013, -0.0239939261, -0.0199187510, 0.0407303832, -0.0256126411, 0.0388207138, -0.0709936842, 0.0116651375, -0.0316168070, 0.0406496786, -0.0645789281, -0.0030077759, -0.0621012524, -0.0177646019, 0.0441119447, -0.0654904991, 0.0345450863, -0.0641046241, -0.0044014840, -0.0286955666, 0.0622545592, -0.0902079493, 0.0099449009, -0.0925671980, -0.0263328366, -0.0107706729, 0.0584760197, 0.0213508718, 0.0781474337, -0.0162479877, -0.0760743245, 0.1017727554, -0.0676924512, -0.0625241175, 0.1394623518, 0.0253063776, -0.0304272417, -0.0913179889, -0.0524698906, -0.0001072098, 0.0361322202, -0.0596632399, 0.1159808338, 0.0250971057, -0.0050854632, 0.0576884076, 0.0134639889, 0.0206372440, -0.0770170167, 0.0182560831, 0.0466732420, 0.0124862492, -0.1048618928, -0.0381405689, 0.0705933347, 0.0924277678, 0.0238217134, 0.0558304079, 0.0246334579, -0.0860204250, 0.0759063140, 0.0551538467, 0.0482003689, -0.0235008895, 0.0588543788, -0.0494658835, 0.0738690719, 0.0535260774, -0.0553510897, -0.0358097516, 0.0168965943, 0.1197332516, -0.1043470055, -0.0925446972, -0.0372298136, -0.0320327766, -0.1112092435, 0.0434175432, 0.0836452469, 0.0021053620, -0.0088062491, 0.0521857850, 0.0356102288, 0.0188067127, 0.0290817395, -0.0354637243, 0.0841645822, 0.0406242162, 0.0068619377, 0.1075373515, -0.0283655766, 0.0299545527, -0.0145759434, 0.0532645807, 0.0015743050, -0.0752934217, 0.1164035127, -0.0892571658, -0.0431817397, 0.0608420298, -0.0547909886, -0.0445166156, 0.1011584401, 0.0177511852, 0.0760217756, 0.0993874893, 0.0467109084, -0.1049162075, 0.0587170273, 0.0438695475, 0.0830496624, -0.0394290239, -0.0599971414, -0.0155679295, 0.0581323542, -0.1164302677, -0.0739510655, 0.0208570026, -0.1187049970, 0.0830287859, 0.0106853107, -0.0014812457, -0.0275914539, 0.0282376111, -0.0503511466, -0.0533628166, -0.0740098730, 0.0625228509, -0.0073802024, 0.0288827326, 0.0516828671, 0.0129538132, -0.0498201214, 0.0464482568, -0.0984560624, -0.0314173251, -0.0202798583, -0.0180768762, 0.0771893486, -0.0574202910, 0.1121869683, -0.0294261184, -0.0872570127, 0.0416213386, -0.0798929483, -0.0714363009, 0.0545616187, -0.0488336086, -0.0150579764, 0.0420731306, -0.0728783682, 0.0796939880, 0.1173415929, 0.0037242393, 0.0952663496, -0.0045495513, -0.0050815949, 0.0027207115, 0.0569931455, 0.0972883254, -0.0282777026, -0.0689307004, 0.0256095249, -0.0017469908, 0.0090635531, 0.0510014854, -0.0413030833, -0.0218962133, 0.0019715121, -0.0075641586, 0.0293081105, 0.0797182247, 0.0324909650, 0.0951426625, 0.0297947656, 0.0555437580, 0.0256465375, 0.0070073837, 0.0687640011, 0.0556467064, -0.0070225946, -0.0878157988, -0.1406684667, 0.1006727070, 0.0318042152, 0.0633985549, -0.0456710421, 0.0165411793, -0.0383702107, -0.0071103908, 0.0579972491, -0.0563976206, 0.0128156254, 0.0035486892, 0.0851693749, -0.0258666184, 0.0148225846, -0.0535441563, -0.0827590451, -0.0031025733, 0.0837853402, -0.0127334418, 0.0684919655, -0.0521801822, -0.0451970026, 0.0573369823, 0.0815321505, -0.0862808451, 0.0233414546, 0.0137353968, -0.0216834266, -0.0096488474, -0.0718521625, 0.0254461449, -0.0393486097, 0.0839966759, -0.0394957513, -0.0765176788, -0.0176930744, -0.0098894229, 0.0051308214, -0.0558540933, -0.0393467359, -0.0175539181, -0.0134440502, 0.0130483694, -0.0587498322, -0.0661992952, 0.0338474624, 0.0655019283, -0.0461131074, 0.0092245862, 0.0978703350, 0.0423490778, 0.0474163555, 0.0861336365, 0.1303396374, -0.0250437204, -0.0153541313, -0.0834095776, 0.0615377277, -0.0635712817, 0.0916581303, 0.0819357857, -0.0131176589, 0.0311942138, -0.0241318550, -0.0679876283, -0.0172012411, 0.0428336412, 0.0081283748, -0.0538052320, 0.0399742126, -0.0028908493, -0.0172608383, -0.0583209507, 0.0423846170, -0.0786914602, 0.0490613803, 0.0905317292, 0.0288034808, -0.0280116275, 0.0445256047, 0.0152355945, -0.0286916085, -0.0204237476, 0.0617382899, -0.0601213165, -0.0539629869, -0.0354606546, 0.0900765434, -0.0419375934, 0.0902139097, 0.0702501759, 0.0588558353, -0.0819438919, -0.0565201752, 0.0417877734, -0.0360190831, 0.0461940952, -0.0282070562, -0.0382772423, 0.0690794215, 0.0884208456, -0.0432650819, -0.0231350791, 0.0748928711, -0.0653252676, 0.0273640025, 0.0050475993, 0.0302304812, 0.0909006745, 0.0557310767, 0.0931968912, 0.1071776971, -0.0671769753, -0.0606198497, 0.0082870340, -0.0706341565, -0.0000625633, -0.0000032612, -0.0334523953, 0.0333792455, -0.0935553461, -0.0378128625, -0.0220001750, 0.0286075994, 0.0272970293, -0.0723013282, 0.0195976906, 0.0270593986, 0.0064917128, -0.0760955736, 0.0919652730, -0.0216666423, 0.0158524364, -0.0398551784, -0.0137540428, -0.0705308169, 0.0059105847, 0.0575107634, -0.0284407716, -0.0209531076, 0.0834259838, 0.0782972127, -0.0043536653, 0.0656787083, 0.0269479062, 0.0159005933, 0.0313810706, 0.0602397844, 0.0504758060, 0.0319301933, -0.0111077204, -0.0173492208, 0.0894077718, -0.0004620643, 0.0378141478, -0.0840443149, -0.0413332321, -0.0201391689, 0.0907156542, 0.0580711514, 0.0269502774, 0.0376561098, 0.0491713434, 0.0527417026, 0.0082906270, -0.0480047874, -0.0197798926, 0.0526397116, 0.0885285884, 0.0263120960, 0.0238271281, 0.0271121804, 0.0100434422, -0.0067886072, 0.0245631635, -0.0094465064, -0.0577172413, -0.0498483963, 0.0212350804, -0.0378539823, 0.0000405262, 0.0606931560, 0.0275845286, 0.0657455698, -0.1175511330, -0.0518372729, 0.0938314348, -0.0595969632, 0.0673503131, 0.0667936131, -0.1044489592, -0.0413972922, -0.0562773384, 0.0488320291, 0.0066402797, -0.0040868334, 0.0797637030, 0.0838533938, -0.0626133680, 0.0110107083, -0.0641174316, 0.0176450741, 0.0071149818, 0.0358907506, 0.0928993300, -0.0705315322, 0.0222338121, -0.0011723142, -0.0087728212, 0.0276002102, 0.0052075866, -0.0599453747, 0.0922963694, 0.0118392268, 0.0271022543, -0.0996408686, 0.0249452144, -0.1083591804, 0.0300890170, -0.0617912933, 0.0268642679, 0.0292779375, -0.0406542458, 0.0033781035, 0.0509543829, 0.0146269370, -0.0385101549, 0.0186578035, -0.1192779392, -0.0744563937, -0.0768075213, -0.0777686238, -0.0125907436, 0.0190115571, -0.0429647304, -0.0300547648, 0.0200945139, 0.0865909085, 0.0568361655, -0.1290253401, 0.0336920172, 0.0227434188, 0.0855770484, -0.0542079248, -0.0888843909, -0.0628941730, 0.0307455789, -0.0570803173, -0.0696895272, 0.0095620872, 0.0381271206, -0.0848574564, 0.0375490040, -0.1545573771, 0.0236870982, 0.0450041220, -0.0154979313, 0.0271154996, -0.0914220661, 0.0138738705, -0.0174238998, 0.0470819511, 0.0738438144, 0.0768917650, 0.0421504155, 0.0138597582, -0.0703900531, 0.0233748499, -0.0940421149, 0.0669508800, -0.0977391005, 0.0074539427, 0.0079652313, -0.0475247689, -0.0678398982, -0.0276395902, -0.0605318360, -0.0072909393, 0.0613229573, -0.0660093278, -0.0056431503, 0.0434920304, 0.0196610335, 0.1207123101, -0.1001492888, 0.0325720608, 0.0252230000, 0.0219612420, 0.0668752789, -0.0841425881, 0.0176185295, -0.0375852808, 0.0134520028, -0.0421423353, -0.0163973439, 0.0307454243, 0.0114072934, -0.0151463887, -0.0626304224, -0.0839673132, 0.0440637320, 0.0421372503, 0.0396596864, 0.0301958304, -0.0821108669, 0.0515242815, -0.0256669074, 0.0395284258, 0.0155553585, 0.0463383831, 0.0491712280, -0.0359248482, 0.0366621055, 0.0484533235, 0.0013498823, -0.0000342168, 0.0005971878, 0.0007152547, -0.0905963778, -0.0168423951, -0.0273428485, -0.0018641831, 0.0873194039, 0.0742779821, 0.0094932569, 0.0592970178, -0.0505911559, 0.0527903475, 0.0300755501, -0.0142941140, -0.0545480549, 0.0583686791, 0.0396170951, 0.0458667949, 0.0381183252, 0.0157715641, -0.1412802786, 0.0584919341, 0.0801225379, -0.0054465220, -0.0315665081, -0.0707242116, 0.0476890989, 0.0537373647, -0.0298651475, 0.0706443414, 0.0130142514, 0.0162147172, -0.0817033350, -0.0257711634, -0.0365025140, -0.0926877633, 0.0206074975, -0.0533326641, 0.0145540936, 0.0460168645, -0.0787774175, 0.0358104333, 0.0343298651, 0.0426276810, 0.0080773644, 0.0369670428, 0.1038344279, -0.0420977362, -0.0161702354, 0.0373945870, 0.0509628169, 0.0239959545, 0.0132831782, -0.0484202765, 0.0566698089, 0.0543160439, -0.1395542175, 0.0132703539, 0.0416500531, -0.0387946106, 0.0225756280, -0.0945885330, -0.0926077813, -0.1097613499, 0.1007592604, -0.1371633708, -0.0613533296, 0.0522189662, 0.0805467963, -0.0247588363, -0.0238772184, -0.0618300326, -0.1380759180, -0.1102305651, 0.0252529103, -0.0231646504, -0.0272831507, 0.1223317981, 0.1118633971, -0.0059174127, -0.1262080669, -0.0841497853, 0.0312231556, -0.0886418000, -0.0298434980, -0.0945211127, -0.0170596950, -0.0446981415, 0.0944510922, -0.0516459346, -0.0459146909, 0.0502637774, 0.0184302684, -0.0846647248, 0.0026672641, 0.0899865627, 0.0122177266, -0.0930061713, -0.1011208296, 0.0501513481, -0.0387145318, 0.0751977265, -0.0810839012, 0.1434860229, 0.0535625815, 0.0618125536, -0.0997367799, -0.0185469594, -0.0109274667, 0.0889329538, 0.0231956057, -0.0805838034, 0.0266787522, -0.0160538852, -0.0231640395, 0.1606601775, 0.0195067544, 0.0291499943, -0.1686920822, -0.0093531879, 0.0724389032, 0.1475723982, 0.0035943210, -0.1094281748, -0.0450760834, -0.0302887131, -0.0779511780, 0.0211183466, 0.1048677787, 0.0314016752, -0.0026814772, -0.0929782167, 0.0280646961, -0.1078525856, -0.0806223452, -0.0180945005, 0.0700428858, -0.0692132041, 0.0791619942, -0.1447576880, -0.0620456524, 0.0748713836, 0.0183328334, 0.0958659425, 0.0589546524, 0.0734226480, -0.0472224690, 0.0006424481, -0.0368463583, 0.0211087577, -0.0481803454, 0.0728509203, -0.0496169068, -0.0957384109, 0.1107526347, -0.0879137889, 0.0528517626, -0.0244379528, -0.0273451749, -0.0453229956, -0.0871767029, 0.0264182538, 0.0947904810, 0.0547128767, -0.0253858585, 0.0833273977, -0.0730698854, -0.0636971444, -0.0764817148, 0.0283100940, -0.0355439335, 0.0538528375, -0.1205287278, 0.0299180523, 0.0101815527, 0.0414018147, -0.0452642143, 0.0254262667, 0.0399427153, -0.0757489726, -0.0632703230, -0.1233834401, 0.0155314598, 0.0177183580, -0.0956286266, 0.0517182350, -0.0090376837, 0.0598166846, -0.0689993426, 0.0500770360, -0.0958671048, -0.0608521327, 0.0420684963, -0.0565036833, -0.0117857102, 0.0732780918, 0.0413491800, 0.0430665649, -0.0855893940, -0.0044096676, 0.0260131657, 0.0537920371, -0.0120086223, 0.0248651989, -0.0801292956, 0.0070972587, -0.0153788775, 0.0940130427, -0.0194142126, -0.0196223743, 0.0444460213, 0.0730027556, -0.0491786860, -0.0074410494, 0.1108548939, 0.0227970891, 0.0338242874, 0.0130722355, -0.0547392629, -0.1012965366, -0.0026617968, -0.0628025755, -0.0790409371, -0.0029535876, -0.0266817510, 0.0282779559, -0.0125852330, -0.0652412847, -0.0661315918, 0.1246123090, 0.0863918662, 0.0856134370, -0.0780296251, -0.0662630126, -0.0469293296, -0.0055311122, -0.0174372010, -0.0378831290, 0.0024965401, 0.0765155777, -0.0668452159, 0.0275409799, 0.0092358375, -0.0539193936, -0.0992536023, 0.0464377441, -0.0659827664, 0.1026352420, 0.0518488362, 0.0028930805, 0.0136640258, -0.0009270148, -0.0861359835, -0.1011163965, -0.0260919929, 0.0514773689, -0.0739997551, -0.0390474163, -0.0310343876, 0.0237436276, -0.0132819666, 0.0573483147, -0.0957344174, 0.0188338496, 0.0329977088, -0.0155052366, -0.0329371393, 0.0056510265, 0.0122704254, 0.0072247009, 0.0970981047, -0.0400359519, -0.1051985919, -0.0417577699, 0.0534002334, 0.0265415739, -0.0523429848, -0.0340028368, -0.0251629706, 0.0506886505, 0.0393627957, -0.0674810261, 0.0836555138, -0.0746379644, -0.0085920803, 0.0509527028, -0.1277977675, 0.0796818435, -0.0086452551, -0.0281530265, 0.1066483557, -0.1004218534, 0.0552545823, 0.0108718658, -0.0537928827, 0.0819374546, 0.0652264729, 0.0871672854, -0.0945455804, -0.0068399538, -0.0602396503, -0.0559860989, -0.0395492762, -0.0037075817, 0.0814872831, -0.0459717438, 0.0487928316, -0.0341440178, -0.0517180339, 0.0419793241, 0.0196713787, -0.0873177797, 0.0055014645, -0.0157429297, 0.0912303627, -0.0483904183, -0.0567444786, 0.0324507914, -0.0814271495, -0.0308128651, 0.0533176661, -0.0244943574, -0.0912063941, -0.1429498643, -0.0034535443, -0.0624500811, -0.0231040101, -0.0145736737, 0.0653214082, -0.0464820601, 0.1150217727, -0.1086828336, 0.0597190261, 0.0129574286, 0.0213663969, 0.1198802739, 0.0492864661, -0.0245585162, -0.0676117465, 0.0310414862, 0.0795667991, 0.0276121721, 0.0462791547, -0.0567119531, -0.0337197371, -0.1320828497, 0.0633031130, 0.0016845643, 0.0745060295, 0.0165353902, 0.0601346567, -0.0652970374, -0.0041470048, -0.0443491600, 0.1331890821, -0.0741901174, -0.0106901042, -0.0421671905, 0.0454198346, -0.1092412770, -0.0713663027, -0.0202036910, -0.0376989655, 0.0325051546, 0.0463051721, -0.0155657912, -0.0173605289, 0.0657120720, -0.0400984697, 0.1092010811, 0.0359551907, 0.0048989328, -0.0859272406, 0.0052785454, 0.0063094827, -0.0631409660, 0.0376608446, 0.0502549447, 0.1069680899, 0.0481109358, 0.0555038154, -0.0612157509, -0.0484096818, 0.0725308061, -0.0131446850, 0.0869950801, -0.0200175960, -0.0692985430, -0.0553331189, -0.0666287169, 0.1101135612, -0.0544914044, -0.0260127913, -0.0181485023, 0.0333839208, -0.1330363005, 0.0840400085, 0.0076533952, -0.0445096008, -0.0234483089, 0.0964414924, 0.0736581013, 0.0703134239, -0.0785081834, -0.0017333014, 0.1214377806, -0.0139770852, -0.0299318284, -0.0317805223, 0.0207475517, 0.0224890299, 0.0099099735, -0.0408649929, 0.0004279714, 0.1135842279, -0.0435434952, 0.0135818748, -0.0701966509, 0.0834090635, -0.1230572611, -0.0211759023, 0.0605618730, 0.0406103395, -0.0558207370, -0.0048021735, -0.0433286354, 0.0066766101, 0.0578386523, -0.0483352914, -0.0875074267, -0.0464005657, -0.0992882624, -0.0703092366, 0.0536011793, 0.0052368809, -0.0404765271, -0.0251005441, 0.0651474744, -0.0832673758, 0.0609250329, 0.0179247577, 0.0712050796, 0.0659586713, -0.0369712338, -0.0417882055, -0.0148515357, -0.0028611938, 0.0853145048, 0.0219726115, 0.0025995104, -0.0668414086, -0.0347002931, -0.0368702896, -0.1069125012, 0.0411203690, 0.0423336588, -0.0816039518, 0.0519410968, -0.0880455524, -0.0622324422, 0.0334393382, -0.0340875424, 0.0017974954, 0.0706989840, 0.0887006819, 0.0392492376, 0.0152917728, -0.0378856882, 0.0349168330, 0.0513089783, -0.0378045440, 0.1158002988, 0.0139639303, 0.0519415922, 0.0982377827, 0.0510527641, -0.0195814725, 0.0098724933, -0.0523547344, 0.0877117366, -0.1324758679, -0.0534594841, 0.0432818606, -0.0616164282, 0.0098379105, -0.0118989069, -0.0690851212, 0.1041706428, 0.0882303491, -0.0336296409, -0.0572601371, 0.1054425910, 0.0535385683, 0.0911068618, -0.0016080068, 0.0061342516, -0.0040298556, -0.0021893736, 0.0323487185, 0.1048741639, 0.0427299663, -0.0174327157, 0.0561054870, -0.0589497611, -0.0638066456, -0.1026716679, 0.0468972437, 0.0712550357, 0.0626230165, -0.0678059831, 0.0755266398, 0.0663098395, 0.0093587972, 0.0597361289, -0.0509737916, -0.0716171339, 0.0098355478, 0.0399618857, 0.0003989455, -0.0424702056, -0.0635347068, 0.0082501564, -0.0168537032, -0.0750793293, -0.0154627981, 0.0575976297, 0.0813625678, -0.0327733569, 0.1150465757, 0.0827491730, -0.0614024065, -0.0454992056, 0.0256711915, 0.0518331379, 0.0566146895, 0.0587894022, -0.0587116219, -0.0639795437, 0.0402185284, 0.0118391728, 0.0919076651, 0.0569322333, 0.1011326909, -0.0997431278, -0.0815123841, -0.0408523455, 0.0656738728, -0.0635570064, -0.0598835349, 0.0743991360, 0.0394992083, -0.0896122605, -0.0591506064, -0.0459326953, -0.0227478314, -0.0664874315, 0.0429470763, -0.0373182856, -0.0446413197, 0.0142325703, -0.0244046599, 0.0795540288, 0.0330691822, 0.0036017047, 0.0319599882, 0.0212837458, -0.0384133309, -0.0111843543, -0.0813358650, -0.0371037163, -0.1213921309, -0.0007147531, 0.0149837350, 0.0431986451, 0.0349061042, 0.0298940204, 0.0334028564, -0.0257791802, 0.0717441961, -0.0137835890, 0.0397367850, 0.0528115779, -0.0593859926, -0.0253857039, 0.0408639722, 0.0477938466, 0.0638790578, 0.0825501978, 0.0654603541, 0.0307440609, 0.0621811934, -0.0499471202, 0.0673930496, 0.0208758321, 0.0934858993, -0.0605118200, 0.0821826085, -0.0071858866, -0.0047303522, -0.0439886898, 0.0893753469, -0.0955815092, -0.0794834793, 0.0188820604, -0.0750975907, -0.0796627775, -0.0305734165, -0.0654401705, -0.0172782224, 0.0747619644, 0.1610649079, -0.1092328578, -0.0095946481, 0.0884753987, 0.0903007463, 0.0457638875, -0.0852002725, 0.0058575519, -0.0741649792, -0.0083039766, -0.0464329086, 0.0084280893, 0.0212905258, 0.1037887409, -0.0542579964, -0.0282210335, -0.0457085893, -0.0401815027, -0.1042205617, 0.0717940181, 0.0819436610, 0.0763793364, 0.0203964692, 0.0126370024, 0.0034781094, -0.0186201781, -0.0640818998, -0.0401451141, -0.0585833862, -0.0271058101, 0.0588130206, -0.0417182259, 0.0679250881, 0.0228281375, 0.0616189949, 0.0330909379, 0.0269599687, 0.0463447012, -0.1857942939, -0.0915977359, -0.0852678493, 0.0386302434, 0.0777920410, 0.0535320267, -0.0830545276, 0.0507795177, -0.0316176154, -0.0770472661, -0.0895357728, -0.0915331468, -0.0003646740, -0.0359653793, -0.0205542352, 0.0440253988, -0.0083054872, 0.0986049399, 0.0167248752, 0.0563722327, -0.0431970283, -0.0152668031, 0.0223398451, 0.0008572509, -0.0484319925, -0.0464465469, -0.0522985943, -0.0194905605, 0.0027156048, 0.0146866413, 0.0778554976, 0.0828751326, 0.1456093043, -0.0186016653, -0.0061313962, 0.0733046010, 0.0305989105, 0.0690358728, 0.0747383460, -0.0970417559, -0.0082751950, 0.0346779674, 0.0480967946, 0.0440010726, 0.0798510015, 0.0608988814, 0.0701011494, 0.0842760056, -0.0432873070, 0.0199765209, -0.0758951902, 0.0448098779, -0.0871936455, 0.0454481728, -0.0868875459, 0.0643400028, -0.0709920526, -0.0240859818, 0.0924103409, 0.0177092943, -0.0129775554, 0.0693968013, -0.0445600003, -0.0069802091, -0.0073245144, -0.0363380574, 0.0134262731, 0.0490119569, -0.0459600389, -0.0197908431, 0.1156654656, 0.0583524629, -0.0253976770, -0.0690057799, 0.0095963245, -0.0477865413, 0.0184106827, -0.0683084503, -0.0150107937, -0.0299585406, 0.0403890610, 0.0155830774, 0.0628285334, 0.0223621111, 0.0296207294, -0.0345093310, -0.0490782559, -0.0485956147, 0.0339071937, 0.0117930062, -0.0846212953, -0.0248616096, 0.0910328105, 0.0199024007, 0.0018790429, 0.0710684136, 0.0972990692, 0.0201125629, -0.0014883830, -0.0292804241, -0.0795000792, -0.0160392802, -0.0628094375, -0.0189475045, 0.0875428468, -0.0030943870, -0.0257658605, 0.0720440820, 0.0113738785, 0.0041419538, 0.0873536915, -0.0346430652, -0.0186905097, -0.1315351278, -0.0806079730, 0.0146916946, 0.0303834137, -0.0566437319, -0.0439580269, 0.0777091756, 0.0664902329, 0.1080401316, -0.1477643400, 0.0755894184, 0.0232046172, -0.0914768279, -0.0153921992, 0.0191369001, -0.0074909935, 0.0371855088, -0.0399234183, -0.1356019080, 0.0079081142, 0.0612136424, 0.0527996309, -0.0677382126, 0.0638851225, 0.0269482601, 0.0303285401, -0.0569615215, 0.0901156738, 0.0633276030, -0.0600084849, -0.0270377770, 0.0469203778, -0.0192537121, -0.0133235399, 0.0102247111, 0.0510212183, 0.0931495428, 0.0260201804, -0.1362965405, 0.0986714363, 0.1547387987, 0.1595000029, 0.0138216643, 0.0016109489, -0.0222711302, 0.0916469246, 0.0415808335, -0.0288606938, -0.1196165606, -0.0571156554, 0.0527643636, 0.0498805940, -0.1369636208, -0.0324055590, -0.0613251999, -0.0704350099, 0.0195101742, 0.0974507555, -0.1556619108, 0.0096093044, 0.0034637968, 0.0034484437, 0.0882183313, -0.0947041661, -0.0759220049, 0.0202824119, -0.0626528412, -0.0036982286, -0.0122029884, -0.0387911126, -0.0084523167, -0.0613339394, -0.0537904426, 0.0223634858, -0.0235981196, 0.0486247018, 0.0009791681, 0.0480960384, 0.0128937149, -0.0575296916, 0.0617704764, 0.0971203521, -0.0420364439, -0.0469505936, 0.0046297940, 0.0248104259, 0.0592857003, -0.0639236271, -0.0247687846, -0.0022299979, -0.0964907706, 0.0278211702, 0.0517180450, 0.0124343280, -0.0419970192, 0.0596225709, 0.0779575855, 0.0533851944, 0.0227906480, -0.0558711439, -0.1544226110, -0.0134742539, -0.0028600479, 0.0487486757, 0.0059990124, 0.0755556226, -0.0698333085, 0.0486549586, 0.0658938214, -0.0130595025, -0.0454461128, -0.0136959329, 0.0389132574, 0.0494846366, 0.0281536262, 0.1142368317, -0.0496396832, 0.0594346747, 0.0142307384, -0.0430308469, 0.0291163232, -0.1309373230, -0.0493776053, 0.0055442713, -0.0609446242, -0.0557115115, -0.0201780014, 0.0411578193, -0.0014455353, 0.0438258946, -0.0701799542, -0.0281433444, 0.0148499142, -0.0623951219, 0.0608330220, -0.0081948834, 0.0516273193, -0.0841184333, -0.0095182471, -0.0791498348, -0.0059991782, 0.0443689562, -0.0157811940, 0.0348064266, -0.0770287961, -0.0462470949, -0.0984942988, 0.0534499437, 0.0894127861, 0.0615407005, 0.0747889876, -0.0268321447, 0.0378009826, -0.0374616347, -0.0763154253, -0.0386024266, 0.0565128848, 0.0685811639, -0.0013344618, -0.0267711300, 0.0151801109, -0.0680553094, 0.0348521471, -0.0640018657, -0.0403316207, -0.0215120055, -0.0411322191, -0.0406010114, -0.0132793374, 0.0552772842, 0.0283459518, 0.0408064015, 0.0626166165, -0.0474800766, -0.0067480654, 0.0790502578, 0.0572629645, 0.0279458631, -0.0836513638, 0.0455449112, 0.0152711337, -0.0680058151, 0.0582819767, 0.0118344538, -0.0174063314, -0.0088905189, -0.0881687254, 0.0073722587, 0.0573801957, 0.0201064125, 0.0065530944, 0.0738228187, 0.0288061518, 0.0266146306, 0.0355669558, -0.0802712739, 0.0945914015, -0.0541906916, -0.0003672315, 0.0715976655, 0.0976051539, -0.0763245523, 0.0422529466, -0.0725578293, 0.0009482754, -0.0348504707, -0.0193259381, 0.0070816739, 0.0415398516, -0.0394210033, 0.0139727155, 0.0668090954, -0.0753994361, -0.1274774075, 0.0036202951, -0.0056322645, 0.0806558430, 0.0105454698, 0.0882177502, 0.0050413087, 0.0916454494, -0.1098797172, 0.0428595059, 0.0678205267, 0.0356809013, 0.0581583790, 0.0727923512, 0.0541513488, 0.0013987756, 0.0822848752, 0.0437518619, -0.0988638699, 0.0354680754, -0.0062856986, -0.0082238587, -0.0799087957, 0.0606745891, -0.0406509377, -0.0871550739, -0.0057726959, -0.0403907038, -0.0256108791, 0.0130715650, 0.0583142303, -0.0182982292, -0.0347334407, -0.0159358550, -0.0167454835, 0.0532534122, 0.0507837459, 0.0620750599, 0.0497171097, -0.0243097488, 0.1006080434, -0.1273784339, 0.1185235456, 0.0434045494, -0.0056306613, -0.0415779762, 0.0016687880, -0.0607498661, -0.0192498062, 0.1071788371, 0.1432933956, 0.1317159832, -0.0366674326, 0.0788636506, -0.1189577654, 0.0945261419, 0.0946387127, -0.0064529679, 0.0455510356, -0.0149654150, 0.0296429396, -0.0600272566, -0.0511026792, 0.0074467482, -0.0144814467, 0.0011220879, -0.0217984430, -0.0604831167, 0.1285427511, 0.0438391604, -0.0847887471, 0.0458523147, -0.0077470187, -0.0225826874, 0.0796635449, -0.1175333560, -0.0847011954, -0.0497288182, 0.0038778505, 0.0939497873, 0.1300283372, -0.0479787700, -0.0208207127, 0.0091947932, 0.0038916555, -0.0730184764, 0.1043341383, -0.1487209052, 0.0443403013, -0.1035956517, -0.0987329260, -0.1457264274, -0.0959665477, 0.0181956030, 0.0198349617, 0.0282062721, -0.0612915717, -0.0266243573, -0.1175036207, -0.0104631875, 0.0416322798, -0.1342364848, -0.0527019463, 0.0395033546, -0.0450676493, 0.0382772908, 0.0717412680, 0.0950695053, 0.0745211840, -0.0287761409, 0.0514671691, 0.1028892323, -0.0121756401, 0.0112280129, 0.0741671696, 0.0063259462, -0.0293550435, -0.0849216208, -0.0605519935, 0.0470115766, -0.0651894435, 0.0234975535, 0.0710439980, 0.0544912070, -0.0669517145, -0.1345918328, -0.0401963107, 0.0377314314, 0.0240982007, 0.1071319506, 0.0176306088, 0.0789555311, -0.0331585035, -0.0305686407, 0.0252608545, 0.0610817224, -0.0170426704, 0.1068148091, -0.0422147401, 0.0143097267, -0.0064928508, -0.0553160943, -0.0313460864, 0.0766746476, 0.0871116444, -0.0327624343, 0.0410275497, -0.0045962380, -0.0561449826, 0.0592298210, -0.0347923152, 0.0204505492, 0.0083743064, -0.0557480603, 0.0182607956, -0.0779392943, -0.0758123621, -0.0332845151, 0.0384770595, -0.0065401415, 0.0561837479, -0.0068696304, -0.0825530663, 0.0752657950, -0.0458761305, -0.0154901044, 0.0073711481, 0.0254129972, -0.0586155653, -0.0926632434, 0.0129521079, -0.0921405479, 0.0312226359, 0.0772909299, -0.0871181637, -0.0768597126, 0.0385426804, -0.0486273207, 0.0370089374, 0.0334102698, 0.0074159415, -0.0683870167, 0.0799171254, -0.0101498282, 0.0283321198, 0.0400710069, -0.0490803048, -0.0492375158, 0.0736055300, -0.0343496390, -0.0097581204, 0.0712115392, 0.0038774214, -0.0119157163, 0.0678859428, -0.0023423417, -0.0463297032, -0.0297288168, 0.0879260153, 0.0284756720, -0.0575829186, 0.0774171948, -0.0700845346, 0.0875530541, 0.1146037504, -0.0463451631, 0.0097910082, -0.0982244089, 0.0097834375, -0.0366270244, 0.0907531604, 0.0805089325, 0.0603413172, 0.0663585737, 0.0267691668, -0.0127652967, -0.0238522999, 0.0071479441, -0.0015164204, -0.0795736238, -0.0279022455, -0.0231350325, 0.0359739363, -0.0195835456, 0.0810382217, -0.0361511111, -0.0926757306, -0.0729661360, 0.0607976988, 0.0133792814, 0.0402736738, -0.0267395061, 0.0631122664, -0.0222071093, -0.0697676241, 0.0101671852, -0.0254119541, 0.0499528274, 0.0487782471, 0.0640869290, 0.0315772183, 0.0695123151, -0.0063885828, 0.0276657511, 0.0062409430, -0.0324618258, 0.0236115661, -0.0419588089, -0.0624359921, 0.0457847379, 0.0458991639, -0.0302467272, -0.0149599547, 0.0763284788, -0.0092720659, -0.0031286185, -0.0484366752, 0.0644030944, 0.0635265335, -0.0419703722, -0.0735293105, 0.0085378066, -0.0272729732, -0.0680043697, 0.0397820398, 