//Numpy array shape [3, 64, 96]
//Min -0.266706943512
//Max 0.229325026274
//Number of zeros 0

#ifndef W7_H_
#define W7_H_

#ifndef __SYNTHESIS__
conv1d_8_weight_t w7[18432];
#else
conv1d_8_weight_t w7[18432] = {-0.0904759020, 0.1014329642, -0.1109242886, 0.0146290595, 0.0308227036, -0.0598305017, 0.0551263727, 0.0754545256, -0.0495455563, 0.0634400174, -0.0206935015, -0.0867311656, 0.1099910364, 0.0688896701, 0.0827448815, -0.0148248933, 0.0858701691, 0.0816239864, 0.0651796684, 0.0692163855, -0.1116449386, 0.0598605759, -0.1063723266, -0.0044699740, 0.0570465624, 0.0032684151, 0.1050325185, 0.0155728674, 0.0852909982, 0.0053235013, 0.0076244739, -0.0530455597, 0.0163553357, 0.0024420286, -0.0872596651, -0.0796860754, 0.0715283900, -0.0058506336, -0.0736972243, -0.1405111253, -0.1693523377, -0.0089541161, 0.0762230828, 0.0746451914, 0.1015227288, 0.0105640003, 0.0459871143, -0.0995966047, -0.0005896886, 0.0595623516, 0.0309408810, 0.0144818034, 0.0886392221, 0.0471326970, -0.1273241639, -0.0472352691, -0.1130740941, -0.0268427115, 0.0544679910, 0.0955824405, 0.0561311729, 0.0852761343, -0.0941851661, -0.0054454478, 0.0444232933, 0.0726301447, -0.0845525488, -0.0073368531, 0.0173182804, 0.0022425801, -0.0351229906, -0.0464495644, -0.1239763871, -0.0543628372, -0.0007635140, -0.0571824685, -0.0505409390, -0.0203571841, 0.0280407611, -0.1209618747, -0.0277671367, -0.0290115923, -0.0875329226, -0.1296034753, 0.0304775350, -0.0644469336, -0.0160254780, 0.0878144354, 0.1402595937, -0.0578176156, 0.0607772619, 0.0455175005, 0.0933517516, 0.1563140154, 0.0734369755, -0.0410278514, -0.1046763510, 0.0438793562, -0.0284485854, 0.1025395915, -0.1170586795, -0.0053446968, 0.0321568660, -0.0195547715, -0.0796017870, 0.1700538099, -0.0660612732, 0.0197502263, -0.0639826283, 0.1491506994, -0.0154583463, -0.0176332835, 0.0357538275, -0.1536891460, 0.0448041856, -0.0208429024, -0.0784152225, 0.0634184182, -0.0384239070, -0.0788752362, -0.0397240818, 0.1384790689, 0.0284491908, 0.0695599914, -0.0613716505, -0.0457613505, 0.0649117306, 0.0062930849, -0.1040972546, -0.0993333459, -0.0052043884, 0.0190819539, -0.0756609142, 0.0795924217, -0.0117817335, -0.0711430386, 0.0064685983, -0.0684509799, -0.0643801093, 0.0998052880, -0.0395776965, 0.0333148241, -0.0722879469, 0.0911718309, 0.0059848325, -0.0375981666, 0.0289849788, -0.0399816409, -0.0386946835, -0.0409263633, 0.1065623909, 0.0795092136, 0.0776898339, -0.0485672243, -0.0093524251, 0.0987082869, -0.0128706796, -0.0273395367, -0.0102965087, 0.0820228308, -0.0253759567, 0.0469115339, -0.0071964804, -0.0107632242, 0.0634387806, 0.0255481191, 0.0917221531, -0.0625617504, 0.0815343261, -0.0544393025, 0.0494948179, 0.0554041937, -0.0647825673, -0.0258175693, 0.0880701169, 0.0995292887, 0.0040704207, -0.0682080537, 0.1771330088, -0.0029737283, -0.0176461544, 0.1178792566, 0.0957407281, -0.0138485907, 0.0748717785, -0.1271176189, 0.0203992240, 0.0654141605, 0.0702375174, -0.1045148373, 0.0502639040, 0.0169498660, -0.0355940796, 0.0896493420, -0.0426873565, -0.0810336918, 0.1091201827, 0.0612891354, -0.0532103181, 0.0257868059, -0.0083816610, 0.1283813119, 0.0619173981, -0.0417212732, 0.0611237846, 0.0361594632, 0.2065744549, 0.0149686830, 0.0166047458, -0.0297619551, 0.0104946382, 0.0448736697, -0.0311156660, 0.0621828772, -0.0070806625, 0.0195939355, -0.0541224740, 0.0960804000, 0.2285340875, 0.1223476529, 0.0957511812, -0.0590742528, 0.1045573279, 0.0128104053, 0.0620320290, 0.0414504297, 0.0166220646, -0.1514420658, 0.0540777147, -0.0874805003, -0.0581279248, 0.0450262502, -0.0824419484, 0.1103741005, -0.0083333291, -0.0790007263, -0.0182373263, 0.0006161639, -0.0038388004, 0.0558393076, 0.0597939081, 0.1142487749, -0.0148331290, 0.1013193280, -0.0240213517, 0.0864193738, -0.0106869759, -0.1340933293, 0.0042657745, -0.0434184037, -0.2084828317, 0.0547826774, -0.0276165698, -0.0206506047, -0.0737851635, 0.0061710109, -0.0180527307, -0.0150028290, -0.2210757285, -0.0988177210, -0.0158161428, 0.0520662852, 0.0928911194, 0.0628192276, 0.0351251327, 0.0165052172, 0.0149302902, 0.0089290133, -0.0299758520, -0.0171225984, 0.0897458941, 0.1096517220, -0.0895706937, 0.0858081803, 0.0289803781, 0.0986651629, -0.0609197840, -0.0986749679, -0.0833072141, 0.0694325492, -0.0890337154, -0.2667069435, -0.1064732000, -0.1501953453, 0.0254764371, 0.0333310254, -0.0060221390, 0.0229986366, 0.0246106349, -0.0284338389, -0.0523284636, 0.0661785975, 0.0530203097, -0.0359812826, 0.0581021905, -0.0684983581, 0.0282531008, -0.0640098527, -0.0580742843, 0.0557437800, 0.0794991404, -0.0978778973, 0.0260561481, 0.0178403389, 0.0907772928, 0.0778972283, 0.0894002095, 0.1140653342, -0.0827336386, 0.0035732647, -0.0970629156, 0.0556199998, 0.0242306311, -0.0599454865, -0.0457003117, 0.1019354612, -0.0085511915, -0.0313500389, -0.0466907620, -0.0380009040, 0.1044537202, -0.0619402044, -0.0795882121, 0.0208309386, 0.1211534664, -0.0968106091, 0.0018908348, -0.0498267636, -0.0421504639, 0.0563823096, -0.0096237222, 0.0217316058, 0.0429374352, 0.0994389430, -0.0449448153, -0.0491009727, 0.0041333390, 0.1034925357, -0.0602452569, 0.0529652163, 0.0966061503, -0.0981097743, -0.1190872118, 0.0326958038, 0.0261314381, -0.0921668485, 0.0604684949, 0.1449323148, -0.0978467092, -0.0138620138, 0.0031607882, 0.0669031367, -0.1122467443, -0.0791313797, -0.1111018807, -0.1026170105, 0.0967883244, 0.0321749188, 0.0638673827, 0.0297021531, -0.1216487736, -0.0994607136, -0.0037881469, 0.0464773737, 0.0762913749, -0.0011368595, 0.0018041631, -0.0029692915, -0.0994853303, -0.0906861871, 0.0810151547, -0.1428454220, -0.1210971773, 0.1161700338, -0.0760240480, -0.0769601241, 0.0793000758, 0.0437671319, 0.1017566100, -0.0518797934, -0.0139032146, 0.0449535511, -0.0966859013, 0.0682411343, 0.0517831370, 0.0398866981, 0.0245533045, 0.0545850918, 0.0636877567, -0.0095170066, 0.1007491723, 0.0577850826, 0.0961710364, 0.0484108441, 0.0085066594, 0.0634073615, 0.1091175303, -0.0804480687, 0.0805823579, 0.0242664311, -0.0268470179, 0.1206119731, -0.0378033109, 0.0855182037, 0.0402922146, -0.0092312256, 0.0108659323, 0.0379904620, -0.0476165004, -0.1713929474, 0.1241437718, 0.0581435263, 0.0211709552, -0.0686875805, -0.0946301445, -0.0184194241, 0.1112756804, 0.0283923652, -0.0607819520, 0.0891578719, 0.1445685178, -0.0102903368, 0.1107166559, -0.1447173804, 0.0017217586, 0.0228229742, 0.0721583515, 0.0054425565, -0.0568753146, 0.1184045076, -0.0261561461, -0.0176097322, -0.0110857580, 0.1195725948, 0.0380848236, 0.0302072372, -0.0198444147, 0.0323906988, 0.0430054888, -0.0150658470, -0.1598737389, 0.0911512747, 0.0325356796, 0.0170183834, 0.0871731117, 0.0808704197, -0.0293108616, -0.0872848928, -0.0539001226, -0.0038706982, -0.0436545946, 0.0639812797, 0.0088673839, 0.1320664734, 0.0671008676, -0.0854349807, -0.0614937991, -0.0227407608, 0.0166361257, -0.0195605382, 0.1065268815, 0.0670268983, 0.0231279824, -0.0587365404, 0.0406347737, -0.1303130835, -0.1337579191, 0.1187659502, -0.0305666011, 0.0438314341, 0.0380670540, 0.0191263631, 0.0696775243, -0.0873829424, 0.0311559439, -0.0605909787, 0.0777058676, -0.0178322662, 0.0062644887, 0.1277119815, 0.0520555116, -0.0795660540, -0.0709306225, 0.0137058338, 0.0180511251, 0.0474918410, 0.0014385929, 0.0277511813, -0.0256553907, -0.1331319064, -0.0732615739, -0.0005951815, 0.1161305010, 0.0008332300, 0.0482122861, 0.0837708190, 0.0704674423, 0.0599904172, 0.0003828043, 0.0802846327, -0.1128773615, 0.0208776630, -0.0387271531, -0.0867444053, -0.0095259584, -0.0560890287, -0.0828565508, -0.1110801920, 0.0313126184, 0.0621718839, 0.0903984308, -0.0474499166, -0.0438087471, 0.0863932744, -0.0701405406, -0.0057093627, -0.0138848890, -0.0533666536, 0.1293897182, -0.0784636438, -0.1010915935, 0.0842571333, 0.0343160443, -0.0312310327, -0.0318794064, 0.0296329707, -0.0219579581, -0.0445372388, -0.0540252998, -0.0783497840, -0.0072892252, -0.0219118651, -0.0929553136, -0.0698776469, -0.1127137169, -0.0690060034, 0.0331069417, -0.0160111822, 0.1045534387, 0.0645132586, -0.0119366348, -0.0165909808, -0.0051994347, 0.0108148968, -0.0463710688, 0.0681188405, 0.0515558794, 0.0672226325, 0.0679852217, 0.0194102433, 0.0059700874, -0.1415980756, 0.0191701706, -0.0635486171, -0.0283923298, -0.0971148983, 0.0609103106, -0.0435558185, -0.0436805114, -0.0916415527, -0.0743648782, 0.0281956699, -0.1423344165, -0.0210446715, 0.0850856602, -0.0221521128, 0.1324364096, -0.0069409511, 0.0007454349, 0.0808430687, 0.1095661372, 0.0029062701, 0.0952774584, 0.0135053964, 0.0902144313, 0.0906749368, 0.0193201695, 0.0296323635, -0.0375102498, -0.0009338562, 0.0721401423, -0.0062991437, 0.0941822454, -0.0636702254, -0.0078627998, -0.0901805460, 0.0291762091, -0.0618514083, 0.0659912750, -0.0135369552, 0.0886760950, -0.1186203212, -0.0215689354, -0.1349364072, 0.0786118954, -0.1210089624, 0.0191354640, -0.0733319521, -0.0573881939, -0.0615380742, 0.0075570932, 0.0815433860, 0.0130331218, 0.0641851202, -0.1206098571, -0.0805561543, -0.0767458007, 0.0488993526, 0.0745034367, 0.0847682208, 0.0871718675, -0.0414267480, 0.0454223640, 0.0033614554, -0.0587052405, -0.0906892791, 0.0968818516, -0.0761933699, -0.1116109714, -0.0029420585, 0.0784194991, 0.0189877767, -0.0610853657, -0.0623051375, -0.0677164569, -0.0640158281, -0.0804081932, -0.0113400035, 0.0224309638, -0.0275525618, -0.0074584507, 0.0464442335, 0.1240089536, -0.0026784076, -0.0319194645, -0.0273168739, -0.0834331289, -0.0953051448, -0.0017434574, -0.1179546416, 0.0410554633, 0.0168653671, 0.0643693954, -0.0738992468, 0.0351521559, -0.0411131084, -0.0660516322, -0.0037401731, -0.0615358837, 0.0293179899, -0.0807148814, -0.1172465235, 0.0867457315, -0.0380445346, 0.1170112789, -0.0105756689, 0.0010591102, 0.0183035638, 0.0192110576, -0.1380839348, 0.1146782562, 0.0279531386, 0.0545694903, -0.0500164740, -0.0751905143, -0.0672415495, -0.1121463552, 0.0488280058, 0.0131003689, 0.0363033414, -0.0823238268, -0.0713170990, 0.0657024980, -0.1066858470, -0.0336440206, -0.0746226087, -0.0940037221, -0.0009675974, -0.0327655114, 0.0025109029, 0.0284224115, 0.1172621921, 0.0593363084, -0.0193184447, -0.0315668844, -0.0142734367, 0.1196788251, 0.0805307850, -0.0421582498, -0.1125207767, -0.0243493095, -0.0808627233, 0.0605968423, 0.0136457086, -0.0601867922, -0.0398758017, 0.0695514604, 0.1274612546, 0.0930330902, 0.0527318940, -0.1053153053, -0.1115312800, 0.0446544290, -0.0354055464, -0.1203884929, -0.0998415351, -0.0204223115, -0.0444754511, 0.0138803730, -0.0968741849, -0.0250713918, -0.0678271428, -0.0263111796, -0.0328335352, 0.0563103221, 0.0678931549, -0.0905118808, -0.0016534972, -0.0966633260, 0.0724015087, -0.0600284114, -0.1109440029, 0.0237239096, -0.0066816094, 0.0487314127, 0.0769015402, -0.0296644028, -0.0866805539, 0.0227467418, 0.0503510609, -0.0444262289, 0.0799249262, 0.0707745627, -0.0295308735, 0.1135226637, -0.1057244539, -0.0648491606, -0.0016302186, -0.0495142862, -0.1347867101, 0.0126234479, 0.0361989699, 0.0325345881, -0.0814610645, -0.0407223217, -0.0820658728, 0.0299168173, 0.0050358339, 0.0405798294, -0.0443689860, 0.0347699896, 0.0142419692, -0.0899854675, 0.0463351011, 0.0867038742, -0.0356020257, 0.0725764707, 0.0494660884, 0.0090237027, 0.0554088429, -0.0723475367, -0.0850713477, 0.0282198973, -0.0764436945, -0.0198253728, 0.0390560068, -0.0965692997, -0.0323069878, 0.0970515087, -0.0170345623, 0.0175971091, 0.0039212378, 0.0418337584, 0.0697316378, 0.0016713113, -0.0916060731, 0.0808565542, -0.0729790628, 0.0668137968, 0.1217342839, 0.0140036987, 0.0251650289, 0.1106375381, -0.1122474372, -0.0174072310, -0.1466079950, 0.0313137844, 0.0095359692, -0.0007358115, 0.0853784755, 0.0385345370, 0.0708469525, 0.0221491661, 0.1335550100, -0.0180621240, 0.0735583007, -0.0946048573, -0.0299647134, -0.0883128718, -0.0945992768, -0.0368486047, -0.0110973315, 0.0506221987, -0.1004665792, 0.0887200236, -0.0073526180, 0.0330627412, -0.1027199030, 0.0848168582, 0.1310190707, 0.0722634643, 0.0118983071, -0.0551566966, -0.0338992253, -0.0616013482, 0.1093660146, 0.0570279844, -0.0466526821, -0.0719463825, -0.0220468156, 0.0479375906, 0.0187627338, 0.0738148764, -0.0700680092, -0.1040917113, -0.0917975307, -0.1517588049, -0.0186961908, 0.0784889534, 0.1074135676, -0.0816879496, 0.0078029130, -0.0685385242, -0.0463684760, -0.1415510923, -0.1210194603, 0.0719010308, -0.0692328513, 0.0349622183, 0.0245820209, 0.0182765555, -0.0804899856, 0.0043800427, 0.0006079205, -0.0102572823, -0.0635800734, -0.0370686837, 0.0333762877, -0.1085105687, -0.0212459397, -0.0873831213, -0.0527687594, 0.0334757417, 0.0539516881, -0.0569881871, 0.0977591127, 0.0145358201, -0.0562468581, -0.0320151448, -0.0043110936, 0.0965968072, 0.1249710321, -0.0709911808, -0.0027797366, 0.0425198264, -0.0341582783, -0.0707868859, 0.0462249257, -0.0275027342, 0.1050791666, 0.0657068267, -0.0406821892, -0.0847629905, 0.0340254158, -0.0199962631, 0.0828488544, 0.0095522385, 0.0442703366, -0.0660910830, -0.0355307497, 0.0787760094, -0.0777239650, 0.0879509374, -0.0744905472, -0.0127261737, 0.0651342049, 0.1281833798, -0.0462017432, 0.0965401530, -0.0105649158, 0.0641157404, 0.0154363522, -0.0727730170, -0.0821235329, -0.0444040410, -0.0926228017, -0.0115328757, -0.0070701125, 0.0022029316, -0.0224192031, -0.0102039361, 0.0088561503, 0.0472536534, -0.0539934747, -0.0619694628, 0.0628174618, 0.0726953521, 0.0181389786, 0.1019375473, -0.0071267695, -0.0747133195, 0.0722904131, -0.0467834286, 0.0456056036, -0.0325257555, -0.1109491959, 0.1166202500, -0.0478844345, -0.1025949493, 0.0444579832, 0.0654768273, -0.0111811962, -0.0587330088, -0.0045864545, 0.0622331761, -0.0554926470, -0.0995323807, 0.0409093499, 0.0348273143, 0.0260099396, -0.0718211234, 0.0682454929, -0.0065437956, 0.0147360414, -0.0924908221, -0.1164382026, -0.0227253120, -0.0430247858, 0.0198229756, 0.0670483261, -0.0548033044, -0.0526467189, -0.0545127653, -0.1236225665, -0.0644994676, 0.0199557692, 0.1007683128, 0.0309025310, 0.0045665610, -0.0092703430, -0.0687696710, 0.0651667491, 0.1031414717, -0.0166980568, 0.0234857909, -0.0544271469, -0.0675504953, 0.0894619375, -0.0150794387, -0.0631751642, -0.0293185487, -0.0030923833, -0.0448930934, -0.0694621354, 0.1372090131, 0.0739310309, -0.0074479464, -0.0845632330, 0.1100786105, -0.0842685327, -0.0170842540, 0.0376123600, 0.0287329238, -0.0678671077, 0.0322028100, -0.0873993039, -0.0140568716, -0.0843882933, 0.1330492795, -0.0232133456, -0.0852548257, 0.0207069088, -0.0713814646, 0.0063333642, -0.0205975156, -0.0761237890, -0.0386043526, -0.1149299964, 0.0857192948, 0.0876206756, -0.0193395317, -0.0401013084, 0.0258906744, -0.0211696513, 0.0060194470, 0.0288265534, 0.0047720289, 0.0648932382, 0.0610737093, 0.1065627411, -0.1141008586, -0.1115487963, 0.0238557421, -0.0546169169, 0.0432300195, -0.0880836770, 0.0289962962, 0.0836546496, 0.0805453360, -0.0282603968, 0.0717715174, 0.0036112149, -0.0101119224, 0.0585407801, -0.0760053471, -0.0893671513, 0.0477123149, -0.0581010655, -0.1052552760, -0.0366480350, -0.0078608226, 0.0807098001, -0.0635010302, 0.0079516890, 0.0252095070, -0.0254975501, 0.0217512920, 0.0493022129, -0.0094966413, -0.0772780702, -0.0691132918, -0.0794968307, -0.1103388444, -0.0520192608, -0.0245199166, -0.0789967626, -0.0898973122, 0.0507337451, 0.0591021441, -0.0743584037, 0.0177842323, 0.0142563693, 0.0691221431, -0.0732042417, 0.0920111537, 0.1169725880, 0.0288262013, -0.0295842141, -0.0062695877, 0.0388919562, 0.0209758785, -0.0781913772, -0.0885477439, 0.0465635434, 0.0167136397, 0.0410837121, 0.0891342312, -0.0802086294, 0.0437637679, 0.0453598574, -0.0774806514, -0.0726636574, -0.0227345545, 0.0483829491, 0.0742159337, -0.0289163403, 0.0630813316, -0.0693790093, 0.1237399057, -0.0842029974, -0.0187565461, -0.0304653533, 0.0128164859, -0.0018170938, -0.0093150074, 0.0696050227, -0.0937352255, -0.0201199204, -0.0595908090, 0.1375039518, 0.0061621009, -0.0342580676, 0.0218968485, -0.1253664047, -0.0549471863, -0.1695458442, -0.0731771216, 0.0435604379, -0.0400223434, 0.0300300419, -0.0703203380, 0.1263459921, 0.1903422028, 0.0559412800, 0.0336523727, -0.0285466984, -0.0171385556, -0.0534878485, 0.0070742704, 0.0785925239, -0.0094556538, 0.0991167352, -0.0662914515, -0.0830610171, 0.1089327782, 0.0331594348, 0.0197098665, 0.0731994510, -0.0513545722, 0.0936156660, -0.0880035982, 0.0012807180, -0.0142460112, 0.1258629858, 0.0375013463, 0.0390355289, 0.1239186078, 0.0246361811, 0.0191211086, -0.0743664205, -0.0937239677, 0.2105009854, -0.0724991411, 0.0596989729, -0.0388997719, 0.1157263666, -0.0211875718, -0.1445139349, -0.1040650457, 0.0122934682, -0.0164805856, -0.0753591806, 0.1169496179, 0.2131655812, -0.0391645469, -0.0209431741, -0.1238766462, 0.0520924665, -0.0388438962, 0.1335919350, -0.0487454124, -0.0145467557, -0.0096838353, 0.1724367142, -0.0014116785, 0.0685919747, 0.0160999894, 0.0401588902, 0.0328709334, 0.0065391148, -0.0149085373, 0.0878505185, 0.0574808791, 0.0847254768, -0.0628451034, 0.0824086592, -0.0067428197, 0.0205408167, -0.0689429566, -0.0736225322, -0.0163926464, -0.0665930361, -0.0759680048, 0.1108005941, 0.0017378678, 0.0890174061, -0.0402444117, -0.1374373287, 0.0015853641, -0.1097706929, 0.0109166568, -0.0345591716, -0.0068381187, 0.0082003241, 0.0365248211, 0.0403986201, 0.0604462884, -0.0527271107, -0.0446548648, -0.0781739056, 0.0553061888, 0.0706515685, -0.0720844269, -0.1278878003, 0.1036459133, 0.0702823699, -0.0517025478, 0.0639844090, 0.0391464457, -0.0058830245, 0.0669824705, -0.0538762175, -0.0741531998, -0.2066288441, -0.0591187663, 0.0093820440, 0.2137008756, 0.0101104965, -0.0251107942, 0.0844378546, 0.0029479461, 0.0332782716, -0.0619588271, -0.0677374974, 0.0198474955, 0.0484438948, -0.0378449969, 0.0310622156, -0.0156937279, -0.0253114738, 0.0738962069, -0.0304620638, -0.0234941337, -0.0773154646, 0.0165332053, 0.0495502613, -0.1508915573, -0.0197832435, -0.0364379175, -0.0193221029, 0.0795550495, 0.0035755499, -0.1734621972, 0.0865449160, 0.0296726637, -0.0319631509, -0.0480111614, -0.1218377352, -0.0527110733, 0.0331715792, -0.0098727569, -0.0161816012, -0.0274755843, -0.0696022883, -0.0338397920, -0.0273470860, -0.0277287196, 0.1142914370, 0.0305252634, 0.0749917477, 0.0394603796, 0.0498432815, -0.0265626162, 0.0989816859, -0.0384302773, 0.0714815855, 0.0108748963, -0.0060132043, -0.0614610948, -0.0296327081, -0.1033339649, 0.0027390793, -0.1160489693, -0.0203362759, -0.0077567860, -0.1047023162, 0.0048088068, -0.0024832643, 0.1096695289, -0.0783225670, -0.0153281474, 0.0740731433, 0.0153494049, -0.0458841100, 0.0458403081, -0.0081028640, 0.0029678482, -0.0861417726, 0.0125992484, 0.0397500880, 0.1826038063, -0.1062906310, -0.1144240722, 0.0613974035, 0.0105930166, 0.0935619324, 0.0794930160, 0.0501682721, 0.0951425061, 0.1104523689, -0.0691093132, 0.0311586484, 0.0558304079, -0.1835236102, 0.0696177036, 0.0564650558, 0.0380420089, 0.0158690587, 0.0183262303, 0.1785098612, -0.1262527406, 0.0396678597, -0.0361511372, -0.0329601802, -0.0012801988, -0.0561964661, 0.0858029202, 0.0587240309, -0.0866754800, 0.0099784508, -0.0304739084, -0.1344211549, 0.0306444671, 0.0140824756, 0.0778488666, -0.0629993081, -0.0784065276, 0.0374481268, -0.0738476366, 0.1163584068, -0.0413065776, -0.0226609912, -0.0109324269, -0.0607680120, -0.1032198593, -0.0152165731, 0.0079898657, 0.0388422869, 0.0833252966, 0.1039116457, 0.0503734648, -0.0680660680, -0.0709561184, 0.0472581126, -0.0003998041, 0.0365141220, 0.0115490379, 0.1145629138, 0.0530045778, 0.0101363230, 0.0655778199, -0.1284090132, -0.1569535583, 0.0610145107, 0.0703694150, -0.0589226112, -0.1187151521, -0.1111566573, -0.0985282883, -0.0694435835, 0.0245613176, 0.0571126193, 0.0608678907, -0.0903772265, 0.0488649569, 0.1479498148, -0.0263719540, -0.0260953102, -0.0485459827, -0.0003060795, -0.0286414362, -0.0780790597, -0.0790235400, -0.0484767705, 0.0111378366, 0.0414887704, -0.0729851350, 0.1094632149, 0.0021094296, -0.0203496404, -0.0298213847, -0.1374736577, -0.0321124196, -0.0207368694, 0.0675961152, -0.0825996175, 0.1542623043, 0.0493721776, -0.1439399123, 0.0686002672, -0.0419677347, 0.0519893505, 0.0144961998, 0.0682103559, 0.0759090707, 0.0602200776, -0.1047535017, 0.0103137894, 0.0205226187, 0.0239449199, -0.0451032408, 0.0956519619, 0.0228212662, -0.0273103751, -0.0671726912, 0.0012257808, -0.0448695794, -0.0040032351, 0.0974249393, -0.0652941540, -0.0503857657, 0.0258571152, -0.0995080695, 0.1231353953, 0.0171395559, 0.0463099778, 0.1002225429, -0.1566397548, 0.1078569144, 0.0009379426, 0.0017561438, -0.0727416053, -0.0336187370, -0.0480264425, -0.0192800853, 0.0942934901, -0.0230478775, 0.0095106093, 0.1033852994, -0.1009244323, 0.0429698043, -0.0221552700, 0.0613170415, -0.0841080993, 0.0286946893, 0.0402027257, -0.0142097138, 0.0653467253, 0.1255166084, 0.0546512529, -0.0548762716, -0.1266563833, 0.0823586360, 0.0158818122, 0.0641352162, 0.0387545787, 0.1058536842, -0.1125684753, -0.1455652714, 0.0691997260, -0.0456370302, -0.0601952001, 0.0001028735, 0.0146463662, -0.0624698065, -0.0731951818, -0.0060778353, -0.0818872601, 0.0967426896, -0.0580419898, -0.1531122923, -0.0956010148, 0.0977582708, 0.0059737642, 0.0147775942, -0.0199041013, 0.0916611180, 0.1042102054, -0.0452412926, 0.0109584983, 0.0084980177, -0.0897935256, 0.0759119987, -0.0530579351, -0.1167806685, -0.0554797575, -0.0331416205, 0.1071521640, -0.1131332442, -0.0100008445, 0.0458558612, 0.0648810342, -0.0064881695, -0.0677190647, 0.0536704585, 0.0928941220, 0.0477251634, 0.0422931314, -0.0822153091, 0.0233366489, 0.1048183143, 0.0612237863, -0.0861179158, 0.0259852670, 0.0261573773, -0.0542792007, -0.0670740753, 0.0930963457, -0.0768317580, -0.0382647142, -0.0355695859, 0.0858366564, -0.0406170599, 0.0063672680, -0.1439416111, 0.0630349517, 0.0585149415, -0.0715513900, 0.0166674033, 0.0639734939, 0.0741702318, 0.0713902861, -0.0962822586, -0.0666042417, -0.0809444413, 0.0751544759, -0.0017421433, -0.0199677795, 0.0018576855, -0.0887707248, -0.0104535474, 0.0174544696, 0.0468422733, 0.0038703508, 0.0782290176, 0.0410648063, 0.0655718297, 0.0446334518, -0.0054748012, 0.0749873295, -0.0196297355, -0.0450671613, 0.0410001241, 0.0542373732, -0.0009712714, -0.0703317448, 0.0101710549, 0.1113282740, 0.0539053380, -0.0083800349, -0.0112592215, 0.0373685025, -0.0263992287, -0.0070585227, 0.0780375153, -0.1007896438, 0.0409776755, 0.0755978450, -0.0995469466, -0.0340344310, -0.0378525220, 0.0071769091, -0.0040831342, -0.1071877480, -0.0395728350, 0.0211263057, -0.0058116876, 0.0122731309, 0.0329001658, 0.0342858993, -0.0268351790, 0.0572849847, -0.0742652789, -0.0839501396, 0.1135930568, -0.0682762191, 0.0098620141, 0.0075228657, -0.0375824645, 0.0458783582, 0.0038129629, 0.0344120711, -0.0466035306, -0.0993990675, -0.0598569289, -0.0925068334, -0.1054686233, 0.0711284652, -0.0582537130, -0.0554921106, 0.0131164128, 0.0605617277, -0.0931852907, -0.0829552189, -0.0902188718, 0.0092446590, -0.0150611941, 0.0921420529, -0.0184103269, 0.1305595189, 0.0613427199, -0.0548582710, -0.0627838448, -0.0115693761, 0.0682948604, -0.0116952239, 0.0402860902, 0.0312645659, 0.0077511985, -0.0145866778, -0.0210491046, -0.0531002656, 0.0276555587, -0.1206884310, 0.0051503940, -0.0252808854, -0.0265501235, -0.0072283037, 0.0754636973, 0.0490212664, -0.0766271949, 0.0661082119, 0.0040862765, -0.0969823450, -0.1209302321, -0.0262431931, 0.0182568971, -0.0286215544, -0.1184448749, 0.0577537119, 0.0549351051, 0.0242965966, 0.0089602554, -0.1471198499, 0.1090104207, -0.0733904094, -0.0308354832, 0.0665299967, 0.0561312251, -0.0544812642, 0.0882247761, -0.0710919574, 0.0979598686, 0.0090816142, 0.0514740422, 0.0035328814, -0.0726817474, 0.0048859757, 0.0462779552, -0.0427546315, 0.0011120029, -0.0459140986, 0.0165451411, 0.0327587947, -0.0670955628, -0.0655927360, -0.0617194101, 0.1148711592, 0.1209683567, -0.0332207158, 0.0738772973, 0.0205398817, 0.1647426486, -0.0521742962, -0.0595908947, -0.0442598574, 0.1454977244, -0.0460750982, -0.0545951873, -0.0662744045, 0.0245438088, -0.0169550236, -0.1129468083, 0.0385630578, -0.0593696795, -0.0414727703, 0.0085198218, -0.0535640903, 0.0024686723, 0.0300661605, -0.0249643214, 0.0313245840, -0.0548949055, -0.0027219490, -0.0685232803, -0.0202252492, -0.0136550907, -0.1131505594, -0.0936016962, -0.0077513540, 0.0121502159, 0.0553290695, -0.1124091893, 0.0308570582, -0.0681990683, 0.0361662172, -0.0604378507, -0.0938502029, 0.1149762869, 0.0734032169, 0.0754478499, 0.0193889774, -0.0127895446, 0.0368880406, 0.0247299988, 0.0368231870, -0.0244502313, 0.0349477418, -0.0192278344, -0.0445063859, -0.0437657498, -0.0595072322, 0.0655134916, -0.1206574216, 0.1400125921, 0.0092678936, -0.1146800369, -0.0459838621, -0.0071569341, -0.0364458188, -0.0301971845, -0.0393518992, 0.0065541593, 0.0039266921, -0.0894626603, 0.0931888595, -0.0959920734, 0.0004240177, 0.0854342654, -0.1034346968, 0.0502196066, 0.0945333093, 0.0426766053, -0.0773224756, 0.0006057771, -0.0916380361, 0.0096454676, 0.1142073050, 0.0082754865, -0.0948858038, 0.0304284468, -0.0422055982, -0.0379935838, -0.0053216019, -0.0429244563, -0.0576640815, -0.0848412588, 0.0733243451, -0.0930925310, 0.0723299235, 0.0935221240, -0.0642615482, 0.1100633144, 0.0037213210, -0.0154216671, 0.0837160721, -0.0622871108, 0.0372922570, -0.0684856474, 0.0511712655, -0.0225504059, 0.0208534282, 0.0893959329, 0.0472449921, -0.0207736306, -0.0591798611, 0.0816267803, -0.0063259709, -0.0031132470, 0.0572300181, 0.0848873928, -0.0609410517, 0.0500342697, -0.0353772081, -0.0074926894, -0.0466416143, 0.0603098571, 0.0367660113, -0.1024321169, -0.0425403006, 0.0278440248, 0.0256101415, 0.0528232120, -0.0685346127, 0.0729626641, 0.0373722389, 0.0605661720, -0.1302159727, 0.0922091752, -0.0459324010, 0.0226495881, 0.0690144375, 0.0141337747, 0.0609895810, 0.0578163825, -0.0183882657, 0.1246451288, 0.0376628563, -0.0006783207, 0.0109162368, 0.0850017071, -0.0237500276, 0.0786268860, 0.0793286785, 0.0860178396, 0.0109211011, -0.0184561647, 0.0113208266, 0.0304139368, 0.0037182441, -0.0374159776, -0.0207907856, 0.0239473749, -0.1191321909, -0.1044213176, -0.0289591085, -0.0953873470, -0.0461619608, -0.0725374520, -0.0395103209, -0.0970646739, 0.0696825534, -0.0573486648, -0.1040927097, -0.0976235271, -0.1445255876, 0.0522862189, -0.0266700387, -0.0399229340, 0.0571103431, -0.0741021186, -0.1170828640, 0.0484621562, -0.0746701360, 0.1431418359, 0.0478202775, -0.0591345355, -0.0560683124, -0.1420476288, -0.0476226397, -0.0031353226, 0.0209123511, -0.0001582152, -0.0321380086, 0.0289715864, -0.0010776203, -0.0108067673, 0.0779165924, -0.0465998836, -0.0500302203, -0.0698650703, 0.0295131672, -0.0553935543, 0.0471480489, 0.0934764370, 0.1566666067, -0.0098591456, -0.0135643231, 0.1274238974, 0.0351457559, -0.0896126181, -0.1466706991, 0.0643241182, -0.0238412768, -0.0385256447, 0.1037900299, -0.0074901530, -0.0187749546, -0.0739874765, 0.0458438545, -0.0211272016, 0.0365619622, -0.0153549388, -0.1047650352, 0.1273616105, -0.0546115711, 0.0790734887, -0.0105095571, -0.0703591332, -0.0124122901, -0.1588762105, -0.0830884725, 0.0683774352, 0.1023776978, -0.0278154146, -0.0816347003, 0.0051786606, 0.0025940822, 0.0604760125, 0.0217542462, -0.0239536092, 0.0266881436, -0.0441364087, 0.0151501801, -0.0241299085, -0.1087781042, -0.0070110695, 0.0578321256, 0.0553436354, -0.0789464489, -0.0632848591, 0.0320260897, -0.1229458600, 0.0743794218, 0.0402788147, -0.0408381671, 0.0053559267, 0.0102561368, -0.0482840277, -0.0801266357, -0.0514630340, 0.0501421541, 0.0210800469, 0.0194652975, -0.0897926018, -0.0450847484, -0.1247172803, 0.0310161002, -0.1219301373, -0.0760338902, 0.0815771297, 0.0552878156, -0.0671646297, -0.0551046655, 0.0502902269, 0.0671913922, 0.0384434685, -0.0652780756, 0.0937777758, 0.1018896028, 0.1377043277, -0.0116002019, -0.0727101862, -0.0484673642, -0.0184364244, 0.0489299297, -0.0299803242, -0.1300912350, 0.0600059107, 0.1035422087, -0.1307311356, 0.0515437685, 0.0310105719, 0.0516777225, 0.1190097630, 0.0292415936, 0.0256116893, 0.0946246013, 0.0741798058, -0.0899678618, -0.0672406778, -0.0633216873, 0.0186590347, 0.1085596457, 0.0854714736, -0.0795599669, 0.0001264962, 0.0255028512, 0.0308238529, -0.0099836597, -0.1023932919, 0.0414275154, -0.1025475785, -0.0682677627, -0.0900845453, -0.0131126419, -0.0714786351, -0.0959993750, 0.0556575805, -0.0023103110, -0.0407993905, -0.0882402435, 0.0326388851, -0.0118892910, -0.0207602084, -0.0771993101, -0.0388182104, 0.0296079312, 0.0553971790, -0.0527275987, 0.0445167795, -0.0758353844, 0.0711344779, 0.0266560931, -0.0099396314, -0.0089899404, 0.0593975708, 0.0800164714, -0.0245308466, -0.0235177092, 0.0642671138, -0.0499371551, 0.1232364848, 0.0233022198, 0.0757128894, 0.0556000248, -0.0294816550, 0.1560806483, -0.1194425300, -0.0404996723, 0.0527457669, 0.0140350144, 0.0590649545, -0.0037674857, 0.0425508060, -0.0262553953, 0.0491703674, -0.1407705396, -0.0169012137, 0.0674502105, -0.1073228568, -0.1255363375, -0.0446914546, 0.0708735138, -0.0066374671, -0.0631939545, 0.0836020857, -0.0666365772, 0.0043580611, -0.1226759851, -0.0382479951, 0.0330458768, -0.0943957269, 0.1052442491, -0.1116096377, 0.0972970203, -0.0814461559, -0.0713395029, -0.0154810082, -0.0058379718, 0.1153697371, -0.0262235496, 0.1125455722, 0.0911612287, -0.0442086458, 0.0284537859, -0.0324313454, -0.0395042971, -0.0579170994, 0.0605645888, -0.0050005671, 0.0469462723, 0.0245659258, -0.0316180959, -0.1414944828, -0.0877331421, -0.0194209181, 0.1196184531, 0.0720016137, 0.0159920957, 0.0205477122, 0.0057335384, -0.0115392897, -0.1245020479, 0.0638675764, 0.0424831025, -0.0149059687, -0.0579975992, -0.0020891631, 0.0533772223, -0.0508150607, -0.0044952873, 0.0240488853, -0.0308726169, 0.0763851404, 0.0582220554, 0.1036109403, -0.1511517167, -0.0713371411, -0.0427180044, 0.0660920963, -0.0203091186, -0.0744400546, 0.0295034982, 0.0759937167, -0.0366778150, 0.0514630303, 0.1051125526, 0.0451704003, -0.0779135600, 0.0721909478, -0.0089781210, 0.0406434573, 0.1247051209, -0.0423463173, -0.0444943942, 0.0996292681, -0.0064061130, 0.0671858266, -0.0604801290, 0.0555338487, -0.1016491652, -0.0063985605, 0.1029595211, -0.0956271067, -0.0646728501, 0.0255848076, 0.0704184994, 0.0568089746, 0.0280735418, -0.0038379771, 0.0489489026, 0.0164493416, 0.0589055866, 0.1661542356, 0.0189261567, -0.0263700169, -0.0957193971, 0.0766260624, 0.0323616341, 0.0602520443, -0.0850804225, 0.0608653463, 0.0279213078, -0.0111278258, -0.0649185777, -0.0652734935, 0.1446774751, -0.1035897583, 0.0385390557, 0.0464186445, 0.0405943058, 0.0024706868, -0.0441035181, -0.0296675563, 0.0175983738, 0.0222146288, 0.1015876010, 0.0571080558, -0.1304183453, -0.0028336549, 0.0074890866, -0.0982761309, -0.0161869079, -0.0704691038, 0.0636966452, 0.1242349073, 0.1201844066, -0.0171528701, -0.0101634618, -0.0628436357, -0.0013196792, 0.0904603302, -0.0166089181, -0.0585775003, 0.0033445754, -0.0374716185, -0.0072915056, -0.1112666726, 0.1039017513, 0.0956892297, 0.0442687012, -0.0593534335, -0.0410351753, -0.0953232720, 0.0479522310, 0.0389671698, 0.0010404012, -0.0677452460, -0.0382641405, 0.0896235555, -0.0123079941, -0.0583413355, 0.0299655963, 0.0490811169, -0.1122910231, -0.0966572985, 0.1417140961, -0.0185869392, 0.0444247611, 0.0525510982, -0.0481235944, 0.1065918282, -0.0309598576, -0.0729296729, 0.0723284632, 0.0755024925, -0.0115365265, 0.0194042698, 0.0887576118, -0.0195444021, 0.0934929401, -0.0488031656, -0.0048919581, -0.1025809720, 0.0645033792, 0.0997818932, -0.0830727592, 0.0172479972, 0.0165525991, -0.0740146860, -0.0588692687, -0.0421648175, 0.1217024401, 0.0010284005, -0.1533763111, 0.1060751528, -0.0849445760, 0.0672341064, -0.1111447215, 0.0446974076, 0.0621999353, 0.0534286387, 0.0041549681, -0.0094595589, 0.0036999322, 0.0743966177, -0.0350810736, 0.0386828892, 0.0151118413, -0.0108339153, -0.0987620056, -0.0088734124, -0.0567705855, 0.0069686621, -0.0062235063, -0.0099269729, -0.0119537190, -0.0418858714, 0.0787909701, -0.0643578544, -0.0083169481, 0.0059262877, 0.0832237229, 0.1403647959, -0.0748413578, 0.0646183044, -0.0698564053, 0.0728273988, -0.1217867285, -0.1000200957, -0.0688759014, -0.1292985380, 0.1039705202, 0.0651847422, -0.0756169409, 0.0166262686, 0.0084096277, -0.1063893959, 0.1432799250, 0.0330430381, -0.1109987646, -0.0873684287, -0.0163941532, 0.0878969207, -0.0096440855, 0.0889265388, 0.0462808572, 0.0484961234, 0.0784565136, -0.0920840129, 0.0713219792, 0.1480916440, -0.0037080834, 0.0743066892, -0.0731561184, -0.0322040878, -0.0183116794, 0.0126378322, -0.1002177149, 0.0156038506, -0.0555891916, -0.0735538974, -0.0326020494, 0.0030288324, 0.0510993600, -0.1253073066, 0.0364889279, 0.0349947587, -0.0410891548, -0.0005542890, 0.0212827567, 0.0771216303, -0.1090914756, 0.0553751662, 0.0175271910, 0.0547280833, 0.0519583039, 0.0436483994, 0.0606411472, -0.0899545774, 0.0198931396, -0.0350249335, 0.0347409025, 0.0219924729, 0.0175152291, 0.0171778072, -0.0578320734, 0.0052434173, -0.0437387638, -0.0850809962, -0.0780310407, -0.0379181467, -0.0117377536, 0.0694691613, 0.0316793807, -0.0406765305, 0.1109300107, 0.0039808103, 0.0503188781, -0.0923456550, 0.0846289247, -0.0417784415, -0.0956418365, -0.0948901996, -0.1204506755, 0.0463092811, 0.0666122288, -0.0058341138, 0.0134580741, 0.0650788769, -0.0603016913, 0.0672471002, -0.0053960653, -0.0231171325, -0.0651660115, 0.0190663096, -0.0300558973, 0.0317189470, 0.0878774822, -0.0734984353, -0.1300535798, -0.1201747581, 0.0035040581, -0.0864996165, 0.0000643680, 0.0654117987, -0.1214180589, -0.0801170692, -0.0889670178, 0.0077493000, 0.1019623056, 0.0101191970, -0.0334171802, -0.0649373308, -0.0140182860, 0.1192246228, -0.0125751421, -0.0941763073, -0.0609733798, 0.0325743109, -0.0140077351, -0.0973695070, -0.0628469437, 0.0629543364, -0.0049829474, -0.0947345793, 0.0541567057, -0.1315345019, 0.0441399738, 0.0279646236, -0.0131474147, -0.1458018422, 0.0909200236, 0.0452274233, 0.0002340544, -0.0277687330, -0.0143292425, -0.0584221482, 0.0425952151, -0.0039744009, -0.0082371887, 0.1002091393, 0.0780575052, -0.0280952174, -0.0925697908, 0.0214657467, -0.0827831998, -0.1027749181, -0.0678259954, 0.0133204907, -0.0373780504, 0.0452528931, -0.0511943288, 0.0133743081, -0.0242265482, -0.0470284969, 0.0954679325, -0.1059008464, -0.0418069847, -0.0233558770, 0.0023842249, -0.0204092655, -0.0649463534, 0.0177464131, -0.0614373274, -0.0557586513, 0.0849431530, 0.0936906412, -0.0546603315, -0.1122267842, 0.0442597680, -0.0211327337, -0.0523844659, -0.0556403548, 0.0694967806, 0.0672230944, 0.0884103924, 0.1089519486, 0.0800986513, 0.0356474109, 0.0494064428, -0.0548790209, -0.0601469427, 0.1011538208, 0.0717806816, 0.1124853566, 0.1564265341, -0.0068306169, -0.0427366644, -0.0756823123, 0.0774563253, -0.0546513200, -0.0566432327, 0.0275926031, 0.0076230769, -0.1266533583, 0.0739172995, 0.0259470735, -0.1105706990, 0.0047803833, -0.0309969913, 0.0594286285, -0.0348010696, -0.0615456812, 0.0119656129, -0.0110826362, -0.1124579608, -0.0283777919, 0.0448743440, -0.0084847910, 0.0179712251, 0.0635982305, 0.0214382727, 0.0354609601, 0.0595418885, -0.0506142676, -0.0663617253, -0.0119236251, -0.0243540928, -0.0751031935, -0.0023875798, -0.0033684506, 0.0785364062, -0.0033221776, 0.0450499877, -0.0969169065, -0.0848438367, -0.0700237751, 0.0174303595, 0.0833217800, 0.0086644311, -0.0140928309, -0.0748801157, 0.0387737080, -0.1083642989, 0.1380570233, -0.0774414465, -0.0371136926, -0.0017200076, 0.0906599015, -0.0123502472, 0.0102762524, -0.0065783095, 0.0304896254, 0.0481864735, -0.0627377778, 0.1408222467, 0.0090134805, 0.0824288055, -0.0608683079, 0.1587413251, -0.1788085103, -0.0935366452, -0.0484908856, 0.0806082711, -0.0047890618, -0.1471664310, -0.0468995944, -0.0131415566, 0.0244064964, 0.0664363876, -0.1217867807, -0.0243421439, 0.0232061073, 0.0273371506, -0.0072243586, 0.0383663066, -0.0707369670, -0.1385016292, 0.0784129649, -0.0034404176, -0.0962489471, -0.0236016922, -0.0459171869, 0.0691185817, 0.0060105710, 0.0354032218, -0.0840364099, 0.0248169433, 0.1413582861, 0.0683255866, 0.0514067188, -0.1077020019, -0.0211089421, 0.0253949240, 0.0530126579, -0.0938328356, -0.0135546699, 0.0321909860, -0.1291899979, 0.0361224562, 0.0481919199, -0.1187605709, 0.0398456231, -0.0501946472, 0.0477137789, -0.0227815751, -0.0482018180, 0.0379011482, 0.0831408575, -0.1147571653, 0.0424513258, -0.0508927405, 0.1349109113, -0.0069481451, -0.0325623490, 0.1426263154, 0.0109788785, 0.0760319158, 0.0450476222, -0.0360433049, -0.0349926092, 0.0430493094, -0.0278973114, 0.0048407670, 0.0841829628, -0.0201563388, -0.0493232831, 0.0513275750, 0.0123226978, -0.0552743040, 0.0781118274, -0.0050330940, -0.0560799316, 0.0790695772, -0.0301408600, -0.0422692969, 0.0074588740, 0.0295455065, -0.0652352944, -0.1294289082, -0.0336995572, -0.2026704997, -0.0303936079, 0.0754317418, -0.0347979069, -0.0816694498, 0.0468298085, -0.0233038850, 0.0655865818, 0.1051510498, 0.0578964986, 0.0329109095, -0.0151456166, 0.0082221571, -0.0605833419, -0.0020412870, -0.0180947687, 0.0883180872, -0.0244659968, 0.0169451889, 0.0054140361, 0.0738090277, -0.0357955694, -0.0512967929, 0.0533848777, -0.0275183506, -0.0934157968, 0.1011876240, 0.0582919978, 0.0351653919, -0.0072273468, 0.1002190486, -0.0075641992, -0.0703689530, -0.0345677882, -0.0269727726, -0.0262711979, 0.0365111940, -0.0682730004, -0.0603841543, 0.1323579699, -0.0666370243, -0.1144275889, -0.0226709582, 0.0854712352, -0.0309659708, 0.0934596658, -0.0751206279, 0.0334429033, -0.0288757607, 0.0500924811, 0.0565483645, 0.0329091474, -0.0985514149, -0.0714409426, 0.1170053184, -0.0011158613, -0.1375216097, 0.0994185582, -0.0088943215, 0.1099969298, 0.1121134833, 0.1055065989, 0.0911466628, 0.1374717653, 0.0751078501, -0.0670423880, 0.1194076836, 0.0463205613, 0.0281520542, -0.0513721630, 0.0057754014, 0.0770431459, 0.0384288952, 0.0757475868, -0.0246105734, 0.0502160341, 0.0265381802, 0.0749260485, -0.0932031050, -0.0431924835, 0.0784011781, 0.0384537056, 0.0544056334, -0.1269955933, 0.0164169967, -0.0316942483, 0.0278025456, -0.0154400980, -0.0947863981, 0.1218305603, -0.0592588522, -0.0210109092, 0.0283532999, 0.0370126516, -0.1095655039, 0.0086506633, -0.1307196617, -0.0298366118, -0.0687164515, -0.0828132778, -0.1036279425, 0.0024677741, 0.0706936568, -0.0300238095, 0.0523218997, 0.0484662242, 0.0257365387, -0.0437667705, 0.1187377274, -0.0125308903, -0.1329520196, 0.0147491358, -0.0779209062, 0.1009881496, -0.0518912375, -0.0106224976, 0.0081332866, 0.0781694055, 0.0655424148, 0.0813876837, -0.0628924966, -0.0666480586, 0.0622364134, -0.0708057955, 0.0352104045, 0.0519953817, -0.0467729531, 0.1063917056, -0.0206380803, -0.0776116624, 0.0232894048, 0.1508375704, 0.1132664159, -0.0067840377, 0.0599638447, -0.0398596413, 0.0962656811, -0.1229585111, -0.0464206263, 0.0506417044, -0.0535081625, -0.0201835409, 0.0215573218, 0.0560270622, 0.0438216440, 0.1250901520, -0.0211472511, -0.0413599052, 0.0161054358, 0.0054088957, -0.0313697904, -0.0916658267, -0.0549487285, 0.0386224426, 0.0055462206, -0.0784662217, 0.0674151331, -0.0122897010, 0.0041235872, 0.0483546704, 0.1004774198, -0.0733431727, -0.0259024575, -0.0394975878, -0.0713273287, 0.0236294456, -0.0944525078, 0.0528339744, 0.0717169270, -0.0235831775, -0.0631869659, 0.0226130988, -0.0550072230, -0.0240742099, 0.0716482550, 0.0166265108, 0.0015635864, 0.0708360374, -0.0523406342, -0.0475534946, 0.0600842871, -0.0749546364, 0.0910203308, 0.0197196770, 0.0606369488, -0.1220998764, 0.0669133663, 0.0101985233, 0.1676651984, -0.0340885036, -0.0375988595, 0.0492111817, -0.0650675371, 0.0576026738, -0.0714533105, -0.0654702783, -0.0204508882, 0.1114776731, 0.1000481397, -0.1323211491, 0.0383310765, 0.1042001769, -0.0644028634, -0.0722427070, 0.0909899324, 0.0407802984, 0.0007090707, -0.0432944782, -0.0762343556, -0.0230127778, -0.0715620071, -0.0346615799, 0.0155874649, 0.0933473706, 0.0515174232, -0.0227083489, 0.0310812481, -0.0331246294, 0.0815140009, -0.1033443585, 0.0768730640, -0.0640607402, 0.0849770680, -0.0378311612, -0.0838999376, 0.0232597385, 0.0387696028, 0.0020855456, -0.0037863618, -0.0803321898, -0.0554952249, -0.0531764925, 0.0126491273, 0.0156686492, 0.0088117076, 0.0652472973, -0.0974537358, 0.0195787586, 0.0692498013, 0.0833760351, -0.1375932693, -0.0495346002, 0.1002776101, -0.1130982563, 0.0171445310, -0.0347052515, -0.0595214069, -0.1474422067, 0.0964132175, -0.0155081609, -0.0249929912, -0.0341105759, 0.0868701562, 0.1476910114, 0.0533641465, 0.0037485575, -0.0566118099, -0.0337718092, 0.1190710142, -0.0214068145, -0.0472873934, 0.0771440193, -0.0678741932, -0.0791861340, 0.1254020184, -0.0631167516, -0.0588018335, -0.0179382637, 0.0294779129, 0.0387044773, -0.0359926783, -0.0534547530, -0.0733387545, -0.0598814376, -0.0054167639, -0.0184596404, -0.1327417493, 0.0968087912, -0.0484352447, -0.0759026706, 0.0398639403, -0.0237801000, 0.0604943447, -0.0607452877, 0.0207268205, -0.0511334576, 0.0160314199, 0.0037622554, 0.0738158599, 0.0175763946, -0.0880815983, -0.0247408357, 0.0627378896, -0.0924497843, 0.0365728885, 0.0345353521, -0.0697617829, 0.0078446697, 0.0055652563, 0.0673025846, -0.0963113233, -0.0067484924, 0.0626246780, -0.0514007397, 0.1177810580, -0.0054270653, -0.0503262319, -0.0332419947, -0.0867599174, -0.0464169420, -0.1560411751, -0.0020807760, 0.0471934266, -0.0280944686, -0.0318683200, -0.0923999697, 0.0549146086, 0.0183894839, -0.0829819292, -0.0057737301, 0.0082504936, 0.0433950685, -0.1128065139, -0.0511966273, 0.0896347687, -0.0422325134, -0.0054664630, -0.0367327556, -0.0280886386, -0.0632722825, -0.0854448453, 0.0671729147, 0.0614102967, 0.0152103985, 0.0657025576, -0.0323540643, 0.0323813111, 0.0640664026, 0.0086422246, -0.0068448442, -0.0776508003, 0.1459882259, 0.0746017173, 0.0809929818, -0.0536251068, 0.0689629167, 0.1047042683, 0.0530401692, 0.0723659024, 0.0357719511, 0.0514476337, -0.0107325828, 0.0142431846, -0.0666562915, -0.0032023089, 0.0825405642, -0.0708590373, 0.0522662774, 0.0469113402, 0.0828531533, 0.0381969623, 0.0882331207, -0.0116607305, 0.0586550422, -0.0722550675, 0.0020223116, -0.1148001999, -0.0237447657, 0.1595063210, 0.0151906470, 0.0021982375, 0.0131294997, 0.0738118589, 0.0179519020, 0.0179048385, 0.0061169243, 0.0773533508, 0.0814697519, -0.0615573861, 0.0174498763, -0.0330879316, 0.0884150490, -0.0912750587, -0.0163584836, -0.0697731450, 0.0247382876, -0.0482195280, -0.0620663874, -0.0832289979, 0.0752213374, 0.0540071502, -0.0202327538, 0.1617911607, -0.0090928804, -0.0702502280, -0.0126835052, 0.0805779546, 0.0208697058, -0.1075758189, -0.0109889340, -0.0630390644, 0.0280923713, -0.0664315820, 0.0456624404, -0.0387765095, -0.0492291600, 0.0261292569, 0.0448498018, -0.0884350985, 0.0085305814, 0.1544996798, -0.0491366647, 0.0129934559, -0.0882087424, 0.0441151038, 0.1690616608, -0.0576096810, 0.0206302609, -0.0806286260, -0.0654518455, 0.0143958358, -0.1388816684, 0.0357885920, 0.0735863894, 0.0144351237, -0.1047819927, 0.0237182919, 0.0212773066, 0.0962535217, -0.0012609399, 0.0062045380, 0.0385967828, 0.0206366125, 0.0076303482, 0.0159530509, 0.0042654327, 0.0714941546, -0.0335895941, 0.0553068630, -0.0303908475, -0.1053207815, -0.0359370783, 0.1016539857, 0.0712289363, -0.0542997085, 0.0120753367, 0.0355546288, 0.1150127649, 0.0862038434, -0.0143933138, 0.0657138303, 0.0404411331, 0.0212749001, 0.0643312857, 0.0567028522, -0.0878770128, 0.0415257663, 0.1041737050, 0.0012160615, -0.0746509805, -0.0246056616, -0.0604197904, 0.0849914774, -0.0298846308, -0.0012464965, -0.0582194552, -0.0002691473, 0.0133110415, 0.0611279868, 0.0156348664, -0.0954084322, -0.0549648516, 0.0390070453, 0.0943350345, 0.0425935313, -0.0260730460, -0.1286823750, -0.0598841980, 0.1347497553, 0.1131893396, 0.1008507609, 0.0595290363, 0.0625633895, 0.0714269355, 0.0243546907, 0.0096460748, 0.0401601270, 0.1048978046, -0.0538938120, -0.0895639732, 0.0665976852, -0.0606109984, -0.0148690157, 0.0724642873, -0.0081588114, -0.0989707932, 0.1049635410, 0.0348688029, -0.1357761919, 0.1315735579, 0.1814096421, 0.0376442522, -0.0720383227, 0.0409369059, 0.0943042934, -0.0705114827, -0.0211505145, 0.0585755892, -0.0307448041, 0.0371920653, -0.0084341904, -0.1055638120, 0.0383093767, 0.0439437889, -0.0517052822, -0.1090429127, -0.0206944160, 0.0636249706, 0.0402794741, 0.0381862223, -0.0904419199, -0.0484510884, -0.1732927710, -0.0572871715, 0.1497247070, 0.0869015306, -0.0644433796, 0.0153842820, 0.0378370471, -0.0356992371, -0.1037650630, 0.0695804879, -0.0065972279, 0.0035844292, 0.1039732397, 0.1147837266, -0.0731204450, -0.1255062968, 0.0286720004, -0.0038941426, -0.1261899769, -0.1457532644, 0.0653359294, -0.0509136766, 0.0948140174, 0.0550135896, -0.0153142698, 0.0456378497, 0.0170878638, -0.0139261764, 0.0115951868, 0.0022710448, -0.0325465873, 0.1856517196, -0.0703020096, 0.0685818046, -0.0794297010, -0.0482723080, -0.0275798105, -0.1955208927, 0.0174489729, 0.0606355071, 0.0789235905, 0.0091414405, 0.0555902682, -0.0307899136, -0.1111418903, 0.0406903438, 0.0160540957, 0.0041265986, -0.0801953152, 0.0273872297, -0.0348275006, 0.1330498010, -0.0551260784, 0.0663635433, -0.1593676209, 0.0497246869, 0.0143993571, -0.1243596375, 0.0928239971, 0.0151004484, 0.0695183277, -0.0819525942, 0.1182179227, 0.0735658035, 0.0929077342, -0.0144169498, 0.1079430133, -0.0238054134, -0.0530760139, 0.0215700734, 0.0198214985, 0.1018988416, 0.0690785423, -0.0148874754, 0.0069962810, -0.0452732369, 0.0875799209, -0.0333832614, 0.0661686286, 0.0433253013, 0.0533767939, -0.0287540611, 0.1001829058, 0.0482504070, 0.0290521681, -0.0248479489, 0.0468768328, -0.1176819578, -0.1639802605, 0.0292784479, -0.0454426371, -0.0628925487, -0.0805350691, 0.0254422855, -0.1295375228, -0.0389497019, -0.0207565259, -0.0995272174, 0.0533910394, 0.0310711004, -0.0825508982, 0.1348226368, 0.0066259285, 0.1618352383, 0.0546217635, -0.0583338551, -0.0064582382, -0.0528290160, -0.0137202060, 0.0561628416, 0.0092104599, -0.0159825180, 0.0886724591, -0.0581922829, -0.0866277292, -0.0555606522, -0.0174003839, 0.0110385586, 0.0599305369, -0.0155655341, 0.0989257470, -0.1424127668, 0.0164339356, -0.0877120197, -0.0544288419, -0.0297799502, 0.0631285831, -0.1532721221, 0.0113548487, -0.0256380644, 0.1177836955, -0.1650626063, 0.0213635378, 0.0157634560, 0.0096867951, 0.0425287485, 0.0482738055, -0.1136956811, 0.0368547775, 0.0339098983, -0.0592905618, -0.0757000744, 0.0860348642, -0.0594934262, 0.0481884778, -0.0977273360, -0.0377525911, 0.0650361702, 0.0077449414, -0.1427220106, -0.0265125651, 0.0116265146, -0.0025982999, -0.0829049423, 0.0303379912, 0.0602072701, -0.0951275602, -0.0567644387, 0.0192838740, -0.0482281335, -0.0230213087, 0.0026687470, 0.0723722726, 0.1203467995, -0.0247947890, -0.0262448397, -0.0393436812, 0.0179268960, 0.0183812417, 0.0433178097, -0.0018888986, -0.0775415897, -0.0959221274, -0.0534349084, 0.0445994847, -0.0606632270, -0.0749687105, -0.0933305919, 0.1438169926, -0.0143290972, -0.0941932201, 0.0781016126, -0.0689071342, 0.1058038920, -0.0212605745, 0.0642576367, 0.0384698324, -0.0677418113, 0.0759079903, 0.1753274351, 0.1260822266, 0.0617434569, -0.0704712719, -0.1225890368, 0.0558054373, 0.1119412407, 0.0925271511, 0.0188850071, 0.0735694021, 0.0262931064, -0.0281305294, -0.0200029574, 0.0778784007, 0.0109614423, -0.0903407335, -0.0423755050, -0.0927121639, -0.0786816180, 0.0929093659, -0.0318840668, -0.0150685925, -0.1028289944, -0.0110513242, -0.0434892811, -0.0129489545, -0.0803582221, -0.0008233448, 0.0384495668, 0.0317150205, -0.0050468026, -0.1104166210, 0.0551027432, -0.0922036543, 0.0586569682, 0.1524295360, 0.1020804346, -0.0190750733, -0.0214804728, -0.0457404330, -0.0506667718, -0.0456474721, 0.1833958775, -0.0113540422, -0.0434847213, 0.0248390995, -0.0317986980, -0.0558626801, -0.0052471492, 0.0887847319, -0.1211814135, -0.0359922275, 0.0268592089, 0.0273238178, -0.0629962906, -0.0933514982, 0.1033627838, 0.0179375522, 0.0250384454, -0.0205902532, 0.0698456466, 0.0392022468, -0.0549568497, 0.0481148027, -0.0414366201, -0.0444917828, 0.0949515402, -0.1028034687, 0.0562188327, -0.0742307380, -0.0115463613, -0.0339174978, 0.1006662101, -0.0114187505, -0.0364168510, 0.0403806455, -0.0151375132, -0.1375747025, -0.0210114568, -0.0770640895, 0.0026778702, -0.0506961420, -0.0354130007, 0.0828587785, 0.0653112680, 0.0044686566, -0.0468557402, 0.0037912570, 0.0113963503, 0.0629559383, -0.0008283941, 0.0789594799, 0.0771551058, -0.0232997779, 0.0356243439, 0.0677796379, 0.0111713596, -0.0654662475, -0.0330549143, 0.0088533964, -0.0321119800, -0.1801121980, -0.0009254650, 0.0092809331, 0.0400149226, -0.0873674974, 0.0164881665, 0.0647652149, -0.0723777562, -0.0929187834, -0.1399550438, -0.0372247994, -0.0465732962, 0.0149394730, 0.0280366521, 0.0451831892, 0.0641154349, -0.0009256820, 0.0548627637, -0.0837786421, 0.0088925799, 0.0262379777, -0.0198910572, 0.0754720271, 0.0445466489, 0.0808912516, -0.0314270556, 0.0562041178, -0.0069391737, -0.0220994763, -0.0353963450, -0.1223071665, -0.1117197499, 0.0402883440, -0.0655261651, -0.0897699147, -0.0876275748, 0.0701484457, 0.0316192321, -0.0739456043, -0.0841318145, 0.0170159899, 0.0911940932, 0.0865909159, -0.0848813280, 0.0077086156, 0.1398051679, -0.0667264983, 0.0956989005, 0.0321508646, -0.0480798259, 0.0053641247, 0.0343399681, 0.0301709231, 0.0652282462, -0.0012072322, -0.0692422763, -0.0219862889, 0.0376895219, 0.0171527173, -0.1266626567, -0.0426449366, -0.0724609420, -0.0047043511, 0.0003422945, -0.0427664444, 0.0555790327, -0.0303243231, 0.0783097520, -0.0550819226, -0.1029650718, -0.0023605013, 0.0467063375, 0.0020644197, -0.0739631504, 0.0449275151, 0.0923355296, -0.0269310493, 0.0663953945, -0.0494021326, -0.0325028077, 0.0363751873, -0.0223333314, -0.0297962055, 0.1760976762, -0.1356340647, 0.0495459922, -0.0140734185, 0.0237502493, 0.1589335501, -0.0021427209, -0.0005708530, -0.0210487433, 0.1505354941, -0.1030218452, -0.0309907626, 0.0020698868, 0.1183617637, -0.0487779677, 0.1182393953, -0.0722474977, 0.0546953864, 0.0737756789, -0.0309648681, -0.0633466765, 0.0343271494, -0.0013608997, 0.0195701122, -0.0609092824, -0.0758624300, 0.1206950769, 0.0445437357, 0.0089217359, 0.0635596886, 0.0537838005, 0.1493318677, 0.0468833111, -0.0054628709, 0.1085242406, 0.0089574270, -0.0160977039, 0.0207147971, 0.0287949480, -0.0505391099, 0.0081698252, 0.0250373185, 0.0075248731, 0.1429014206, 0.0920802951, -0.0316032954, 0.0744309127, 0.0972077176, 0.0477307178, 0.0154892309, 0.0485102907, 0.0846819133, 0.0942037031, -0.0173755456, -0.0798591375, -0.0765424520, 0.0667564422, 0.0698727220, 0.0432843268, 0.1539625973, 0.0732682496, -0.0045788800, 0.0693473816, 0.0457636416, -0.0465725996, 0.0680427849, -0.1332579255, 0.0284939483, 0.0211904347, -0.0721005499, -0.0699657351, -0.0014386525, 0.0333029591, -0.0598145761, 0.0077215768, -0.0424259789, -0.0874122456, 0.0020258091, 0.0341811776, -0.0562868491, -0.0648883879, 0.0901132748, -0.0642956048, 0.0092637930, 0.0374233052, 0.0146134170, -0.0110053672, -0.0238273740, 0.0138461227, -0.0589031987, 0.0670348033, 0.0069161798, 0.1264212579, 0.0960795730, 0.0726596043, -0.0766519085, -0.2149913907, 0.0134889567, 0.0106427101, -0.0351380743, 0.0042718416, -0.1703137904, 0.0722379312, 0.0315389335, -0.0234415922, -0.1284028143, 0.0617248565, -0.0261229910, -0.0813149884, -0.0668985471, -0.0574692637, -0.0731850639, -0.0918808877, -0.0705611780, 0.0159900840, 0.0331350490, -0.0735811070, 0.0773071647, -0.0161742289, 0.0102365268, 0.1367905587, -0.0053962343, -0.0819767788, -0.0085332338, -0.0783652291, -0.0547462627, -0.0258719921, -0.1257109195, -0.0056049703, -0.0172565468, 0.0296684895, 0.0056827576, 0.0155702177, -0.0368459076, -0.0215989929, -0.0052704811, 0.0222475156, 0.0087512275, 0.1236287057, 0.0783513784, -0.0538962223, -0.1092886627, -0.0412072912, -0.0519382358, 0.0157135837, 0.0881777331, 0.1214573607, -0.0383968279, 0.0487974696, -0.0493728667, -0.0154138198, 0.1182024479, -0.0900825486, 0.0835238993, -0.0823448449, -0.0140952962, 0.0442582369, 0.0313249528, 0.1073042452, -0.0049391063, 0.0675179958, -0.1260684431, 0.0217974056, -0.0071311183, -0.0152067710, -0.0909371749, -0.0307418481, 0.0543864034, -0.0383772776, -0.0033329902, 0.0932090655, 0.0806730241, 0.0682972595, 0.0581004880, 0.0480202995, 0.0420373417, -0.0522994809, -0.0972902998, 0.0182088334, 0.1143934503, -0.0369634479, -0.1346405149, 0.1276614070, 0.1319914758, 0.0124310730, -0.0127102602, -0.0513783284, 0.0146761611, -0.0132099167, 0.0071615251, -0.1066128612, 0.1029892191, -0.0011149691, 0.0000006711, 0.0014577425, 0.1165414974, 0.0391241126, -0.0685703978, -0.0467359237, 0.1026015282, 0.0089944275, 0.0267341286, -0.0528761297, 0.0516779870, 0.0301336888, 0.0467003584, -0.0080704000, -0.0000497229, 0.1032674909, -0.0829776973, -0.0258666985, -0.0015477069, -0.0462803841, -0.0076525835, -0.0380357839, -0.0491141267, -0.0109770885, 0.0831254497, -0.0606828965, -0.1285112202, -0.0097346660, 0.0385579132, 0.0164055433, 0.0210503042, 0.1352038831, -0.0415906906, 0.0055791512, 0.1012741625, -0.0500467792, 0.0727053136, 0.0476378128, -0.0610390045, -0.0373704582, -0.0947377309, 0.0868727490, 0.0529502146, -0.0610198118, -0.0948470235, -0.0268136822, 0.0494788401, 0.0238352213, -0.0312079508, -0.0768722892, 0.0088325813, 0.0758480504, 0.0879681855, 0.0223549251, -0.0252464302, 0.0048180535, -0.0476597399, -0.1475648582, 0.1345734447, 0.0596869625, 0.0568245612, 0.0876900107, 0.1571578383, 0.0634905547, 0.0665518641, 0.0464181304, -0.0995118394, 0.0752520785, -0.0621385425, -0.0030298892, -0.0014604476, 0.0668139160, -0.1460794657, 0.0570384748, 0.0013176025, -0.0545730889, -0.0082751857, -0.0829188898, -0.0152194537, 0.0255664252, -0.0476939380, 0.0689300820, 0.1603083611, -0.0661832243, 0.0336193293, -0.0218539592, 0.1009470373, -0.0220414624, 0.0234420095, -0.0214007292, 0.0174042769, -0.0583396927, -0.0980594233, -0.0408266708, -0.0408212468, -0.1403684020, 0.0112095904, -0.0431452729, 0.1229728982, -0.0879683793, 0.0215837583, -0.0053756302, 0.0454266705, -0.2547681034, -0.1272974163, 0.0283647664, 0.0063246377, 0.1124284565, -0.1367407590, -0.0386646166, -0.0982649773, -0.1061060578, 0.0473546907, -0.1304884702, 0.1639755815, -0.1111709699, 0.0961437672, -0.1535906941, 0.0570169017, -0.0999791920, -0.0779801309, -0.0501672588, -0.0033076680, 0.0047778995, 0.1048536077, -0.0796007961, -0.1157662272, 0.0442336872, -0.0395239927, -0.0084167952, 0.2093898803, -0.0376806855, 0.0358575881, 0.0622726083, 0.0070486320, 0.0451341532, 0.0575543530, -0.0323733501, 0.0089328093, -0.0608024038, 0.0580888130, -0.0618929081, -0.0665212572, 0.0769264325, -0.0091736196, 0.0797305033, -0.1251407266, -0.0599592254, 0.0060187676, -0.0407176688, 0.0510013252, -0.0568471439, 0.0127281062, 0.1336981058, 0.0718715042, 0.0266802702, 0.0170541890, -0.0999718606, -0.0521975011, 0.0421861038, 0.0197731927, 0.0046055629, -0.0472737700, -0.0716958418, -0.0748390108, -0.0333774723, 0.0531209968, -0.1047152653, 0.1150116697, -0.0103596598, 0.0867662951, 0.0764372200, 0.0452321023, -0.0304503422, -0.0233515464, 0.0764119104, 0.0232374053, 0.0049994206, -0.0394190364, 0.0267783534, 0.0781634524, 0.0643995628, 0.0282935500, 0.0421320759, 0.0183801856, 0.0730574206, 0.0800615624, 0.0042812177, 0.1027441695, -0.0889359564, -0.0096201971, 0.1237435639, -0.1283409745, -0.0578994229, -0.0075743455, 0.0221100748, 0.1112433076, 0.0381985344, 0.0025664368, 0.1107841805, 0.0400839448, -0.0775678456, -0.0113811307, 0.0382995643, 0.0133447004, 0.0877557695, 0.1277511865, -0.0424362831, 0.0014168188, -0.0109835844, -0.1140648499, 0.0391844399, 0.0276449248, -0.0147010600, -0.0356874466, 0.0366668776, 0.0069967955, 0.0383460559, 0.0205058027, 0.0463307798, 0.0491423346, 0.0681400150, 0.0274237096, -0.0430359356, -0.0876054019, -0.0153214103, -0.0478665233, 0.0790230408, -0.0872104093, 0.1236371845, -0.0106731094, 0.0334338024, -0.0544431768, 0.0983786955, -0.0780343637, -0.0546863452, -0.0561243817, -0.0694799349, -0.0013206413, -0.1234752536, -0.0485957414, 0.1358121037, -0.0750475898, -0.1136042699, -0.1042470783, 0.0389321707, 0.0044384464, 0.0079371110, -0.0780386031, 0.0205599964, -0.0458065607, 0.0091773747, 0.0973937139, 0.1025650501, -0.1197928861, -0.1192442626, 0.0080448370, -0.0544063188, -0.0682781786, -0.0443633273, 0.0385937728, 0.0004245855, 0.0572923869, 0.0625894368, 0.0812989324, -0.0071959570, -0.0473568998, -0.0479218997, -0.0666636005, -0.1226802543, -0.1115856916, 0.1008623615, -0.0675497279, 0.0668842643, 0.0599466935, -0.1262288690, -0.0525226481, 0.0076227840, 0.0184205472, 0.0244429149, -0.0328121036, 0.0617156513, 0.0907927454, -0.0458902605, 0.0062891026, -0.0520324595, -0.0808380917, 0.1646865904, -0.0149376485, 0.1265389919, 0.0106096109, -0.0694838390, -0.0277727880, 0.0185680334, -0.0110132918, -0.0199004468, 0.0435110033, 0.0177826025, 0.0586941801, 0.0156062348, -0.0306821018, -0.1177473515, 0.0656456053, -0.0460163243, 0.0881714895, -0.0305140968, -0.0790352374, -0.0282907840, -0.0863900334, 0.0037402047, -0.0233990587, -0.0648267716, 0.0585963055, 0.0027360730, 0.0881321207, -0.1400378942, 0.0580014549, 0.1188500449, -0.0734183714, -0.0422854908, 0.0286961235, -0.1239782050, 0.0827374533, -0.0069066244, 0.0281896610, 0.1084104329, 0.0450536199, -0.0905945748, 0.1107266396, 0.0673449785, 0.0777540952, -0.0644533560, -0.0064354348, 0.0783212110, 0.0320422836, -0.0785277858, 0.1101635098, -0.0098637417, 0.0534145795, -0.0705971345, -0.0461343788, 0.1162805036, 0.0214987304, 0.1165147349, 0.1024433151, 0.0705513880, -0.0733658522, 0.0582701154, 0.1275347620, 0.1237782985, -0.0165223069, 0.0403744094, -0.1164025068, 0.0689762607, 0.0398431979, -0.0797670558, 0.0588730946, -0.0622596554, 0.0320644900, 0.0143097397, 0.0573475920, 0.0193979349, 0.0149357291, -0.0602057800, 0.1021960527, -0.1035527065, -0.0801864937, -0.0014116786, -0.0911847726, 0.0506421626, 0.0150825586, -0.0209419783, -0.0635130778, -0.0911718234, 0.0059420071, 0.0592180640, -0.0217280705, 0.1109760180, -0.0500878803, -0.0369763635, -0.0201022401, 0.0180646963, -0.1169519946, -0.0954629704, 0.1340373456, 0.0282724760, -0.0096994499, 0.0474344678, -0.0114608109, -0.1051295698, 0.0178897027, 0.0070814462, -0.0939513519, 0.0415158533, -0.0064011477, -0.1180713177, -0.0963172093, 0.0040672603, -0.0817421824, -0.0348303169, -0.0905007869, -0.0486453027, 0.0387091301, 0.0160133895, 0.0423983447, -0.1119248644, 0.1179912165, 0.0966463909, 0.0164095405, 0.0607712418, 0.0818078220, 0.0947619900, 0.0296782907, 0.0589444898, 0.1011457145, -0.0400166214, 0.0350302942, -0.0281889830, -0.0054845894, 0.0265089460, 0.0534011722, -0.0357313938, -0.0776337981, -0.1035064384, -0.0416782163, 0.0019891278, 0.0192085393, -0.0631932616, 0.0667400435, 0.0366447978, 0.0703293756, 0.1553131640, -0.1609560102, 0.0023404532, -0.0559346005, 0.0204923693, 0.0285914298, 0.1087487042, 0.0792577118, 0.0875892118, -0.0217750594, -0.0205952115, 0.0126057137, 0.0410338752, -0.1981973350, -0.0988181755, -0.0445766561, 0.0218459330, 0.0331291482, -0.0592034496, -0.0845407695, 0.0383614339, 0.1180945560, 0.0309542753, -0.0145191038, 0.0892188251, -0.0128549142, 0.0607712530, -0.0293502416, 0.0150606940, -0.0166423991, -0.0134230582, 0.1146211252, 0.0091793574, 0.0298814625, -0.0499328189, 0.0623206086, -0.0093487669, 0.0358817279, -0.0393066294, 0.0930491090, 0.0407563187, 0.0206721537, -0.0321473703, 0.0477044247, 0.0923223644, -0.0618612245, 0.0079775564, 0.0936928540, -0.0288550723, 0.0047242059, 0.0285579730, 0.0646152794, 0.0019098951, 0.0062162280, 0.0703511909, 0.0638993904, -0.0351054147, 0.0007382877, -0.0592989437, 0.0177797936, 0.0487290695, -0.0999740213, -0.0067950874, 0.0683685765, -0.1146786436, 0.0071339170, 0.0240588672, -0.0136955697, -0.0245900694, 0.0400964767, 0.0042898376, 0.0188126154, -0.0064408975, -0.0466038175, 0.0505721159, -0.0434688628, 0.0654554069, -0.0552693866, -0.0431006365, -0.0273870509, -0.0186513979, -0.1435452700, 0.1290064901, -0.0295703188, -0.0612412877, 0.0764836520, 0.0315287672, -0.0223779716, -0.0296138097, 0.0833251476, 0.0024572294, -0.0677669421, -0.0513513871, 0.0142773231, -0.0111706918, 0.0862882808, -0.1007973030, -0.0192221776, -0.0628749579, 0.0839309841, 0.1309999675, 0.0096007129, 0.0128717283, -0.0486963466, -0.0421162955, 0.0035905475, 0.0819723904, 0.0771069750, 0.1253993213, 0.1062298194, -0.0326455235, 0.0548829660, 0.0644661412, 0.0895845667, -0.0813996270, 0.1362072825, -0.0084133688, 0.0422808938, -0.1260452569, -0.0735332668, -0.0555943362, -0.0723683089, -0.0910939202, 0.1472765803, 0.0611402802, 0.1556773633, 0.1309695244, 0.0785827935, -0.0560734011, 0.0994364023, -0.0450819284, -0.0541963391, 0.0750318319, 0.1225309968, 0.0679300129, -0.0849554315, 0.0015330655, 0.0739819556, -0.0471918508, -0.0210700426, -0.0313135497, 0.0797698274, -0.0244810805, 0.0514120124, -0.0523022600, -0.0295306202, -0.1053301767, -0.1533446759, 0.1264883429, -0.0328308344, -0.0888374969, 0.0150495768, -0.0380971879, -0.0594678447, -0.0924637020, -0.0423496254, -0.0534312315, 0.1020372733, -0.0486995578, -0.1231432185, 0.0051147477, 0.0141564086, 0.1091049388, -0.0789712891, -0.0663761050, 0.1642972827, 0.0182119794, -0.0509242788, 0.1519566029, 0.0184232369, -0.0162730534, -0.0462350659, 0.0349703655, -0.1173749641, -0.1098526418, -0.0392174423, -0.0665415227, 0.1313112527, 0.0081152478, -0.0733037144, -0.0526073165, -0.1128607243, -0.0191465542, 0.1168219447, 0.0997618884, 0.0966175348, 0.1032577083, 0.0313137434, -0.0968730897, -0.0764760077, -0.0415811315, -0.0921624750, -0.0283015426, -0.0348628648, 0.0105840042, 0.0760086179, 0.1032423675, 0.0080618151, -0.0891253054, 0.0159301776, -0.0891214609, -0.1197615862, 0.1378993392, 0.0070604547, -0.0319725983, -0.0675168857, -0.0787907690, -0.1078075171, 0.0243795663, -0.0474397093, 0.0860511363, 0.1811144948, 0.0750316009, -0.0301542114, -0.0331019573, 0.0245557781, 0.0459448472, -0.0879847929, -0.0866825059, 0.0116736377, -0.0102437576, 0.0092752017, -0.0195543747, -0.0193032194, 0.0552113727, -0.0514633395, 0.1225171983, -0.2076248229, -0.0670800731, -0.0457009487, 0.0312448721, -0.0805758685, -0.0630483925, -0.0335769467, 0.0392924435, -0.0803900287, 0.1206942201, 0.0372663476, -0.0105647044, 0.0086494396, 0.1214555055, -0.0403462015, 0.0303487778, -0.0498386063, 0.0426990092, 0.0641758442, 0.0463286079, -0.0495002270, 0.0804416612, -0.0459542684, 0.0175802223, -0.1423014700, -0.0249695815, 0.2149574012, 0.0886537954, -0.0517373048, -0.0053984090, 0.0928649977, 0.0831018016, -0.1597317755, 0.0264164060, -0.0071547697, 0.0809314102, 0.0088357450, 0.0707251057, -0.0178578217, -0.0801910385, 0.0985234901, -0.1592089832, -0.1504203677, -0.0283837821, -0.0073044756, 0.0031695096, 0.0886618197, 0.1131560877, -0.1138869748, -0.0769947320, -0.0760083124, 0.0022500774, 0.0265253503, 0.1207068712, -0.0965703502, 0.0038819744, 0.0987640247, -0.0896016359, 0.0607679896, 0.0960526839, -0.0783645436, 0.0207418390, -0.0670706257, 0.0375197828, -0.0150410002, 0.0116991354, 0.0540963374, -0.0776222423, 0.0434364192, 0.0151203629, 0.0148002626, 0.0976098701, -0.1099403501, -0.0445334464, -0.0795533806, -0.0276236236, -0.1332277358, 0.0412846357, -0.1038193479, 0.0778687671, -0.0538697690, 0.0364627689, 0.0366230160, -0.0397581458, 0.0061841565, -0.0361553170, 0.1296035051, 0.0902142823, 0.0437684134, 0.0256420020, 0.0415218025, -0.0283982046, -0.0733271390, -0.0484761819, -0.1347622275, 0.0495548286, 0.0605705678, 0.0385164693, -0.0420312807, 0.0160737671, -0.1463340521, 0.0156490523, -0.1075302288, -0.0416116044, -0.0070589609, 0.0333214104, 0.1281363517, -0.1404391080, 0.0484964736, 0.1898133159, -0.1129548699, -0.1349332482, -0.0402591415, -0.0542614125, 0.1094524711, -0.0737213343, -0.0015438909, 0.2035389394, 0.0339536071, 0.0054928339, -0.0714917481, 0.0447737426, 0.0889226869, 0.0738949776, -0.0461243801, 0.1168977320, 0.0322075374, 0.0911437124, -0.0927839801, 0.0286186524, 0.0170815419, -0.0123926550, -0.0937602222, -0.1156769469, 0.1201969609, 0.1225759014, -0.0192798786, 0.0075754072, 0.0081418324, 0.0200304445, -0.0202982854, 0.0617830455, -0.0029840739, -0.1050943956, -0.0284411591, 0.0819968432, 0.0483581573, 0.0535473190, 0.0016333164, -0.1054091677, 0.0918205157, -0.1600864828, 0.0645375326, 0.0220035501, 0.1275436878, -0.1097628102, -0.0599503405, -0.0151644908, 0.0146615002, 0.0398313850, -0.0513993055, -0.0298078228, 0.0227091629, 0.0203056782, -0.0282692127, -0.0916417763, -0.0116420826, 0.0085249888, -0.0500735752, 0.1266707629, -0.0113970451, 0.0061166063, 0.0385736749, -0.0951847807, 0.1145229712, 0.0935188383, 0.0194805767, -0.0353840813, 0.0432022177, -0.0895699412, -0.0545672029, 0.0850968882, 0.0611294843, -0.0475274250, 0.0007216004, 0.0055685211, 0.1323899180, 0.1229054853, 0.0591153726, -0.0311731994, -0.0590020940, 0.0043976861, -0.0679801926, 0.0589846224, 0.0431291610, -0.0412223525, -0.0354359411, 0.0366752930, 0.0939816162, 0.0877070203, 0.0235879626, -0.0250480603, -0.0222207829, 0.0942774490, 0.0561946854, 0.0590174198, 0.0130128702, 0.1687673628, -0.0304640587, 0.0154492455, -0.0316978246, -0.0105668409, 0.0082174242, 0.0567828715, -0.0017508325, 0.1016638055, -0.0799177885, -0.0358032882, 0.1237982213, 0.0758290142, 0.0700660124, -0.1569596827, 0.0003680182, -0.0268252604, 0.1146570370, 0.0944445431, -0.0634081811, -0.0307374932, 0.0097992243, 0.1159672216, 0.1348113418, 0.0972095057, -0.0900749192, -0.0462674201, -0.0652355477, 0.0296724774, -0.0964947343, -0.1513631493, -0.0154550634, 0.0227151401, -0.0902391598, -0.0215625465, 0.0572200119, -0.0503704771, 0.0753182247, -0.1252539158, -0.0146928672, -0.0277864877, 0.1108133942, -0.0612251982, 0.0646844432, -0.0115226004, 0.1002957523, -0.0407066718, 0.0021585934, 0.0104168598, -0.0532711819, 0.0004310043, -0.0874306113, 0.1025713086, -0.0123222126, 0.0797580928, -0.0113604851, -0.0070833759, -0.0289225820, 0.0410808437, -0.0211808197, -0.1186202168, -0.0949289054, 0.1024941802, 0.0157234501, 0.0146619752, -0.0686308593, -0.0116908792, -0.0665529296, 0.0720592439, 0.0885207281, 0.0309813526, -0.0628957301, 0.0328993984, -0.0164030883, 0.0176901557, -0.0523577146, -0.1507725269, -0.0658838078, 0.1101857051, -0.0020686991, 0.0114808111, 0.0473709069, -0.0493858345, -0.1156297624, -0.0377104171, 0.1168315858, -0.0866916329, 0.0626882762, 0.0207590926, 0.0389694721, 0.0286825784, 0.0500597358, -0.0590369031, -0.0313495509, -0.0629117563, -0.0106269959, 0.0019894636, 0.1077700183, -0.1427627504, 0.0054017799, 0.0518560745, 0.0557094328, -0.0849142447, -0.0890956521, 0.0292235557, 0.0647379011, 0.0149203381, -0.1247318685, 0.0113643371, -0.0046983571, 0.1049131528, 0.0923798680, -0.0648944452, 0.0701073781, 0.0780101791, -0.1300326735, -0.0082672238, -0.0026487010, 0.0282063577, 0.0907124951, -0.0676025674, -0.0497444607, -0.0177472513, 0.0952971429, 0.1056638211, -0.0510040000, 0.0668728277, -0.0988510177, -0.0213859398, 0.0293896049, 0.0379196443, -0.0156182786, -0.0976131558, -0.0910405889, 0.0108374730, -0.0179348309, -0.0407706983, 0.0928583071, 0.0300824698, 0.1490005404, -0.0830466598, 0.0290406179, 0.0929444134, -0.0501944274, -0.0304518957, -0.0078703621, -0.0709666237, -0.0154429665, 0.0561920442, 0.0071280282, -0.0463998765, -0.0553613715, 0.0810476318, 0.0513967276, -0.0105052041, -0.0713577718, 0.0399900191, -0.0773876458, -0.0075425026, 0.0906473026, 0.0499028228, 0.0146257151, 0.0202271268, 0.0119599737, -0.0465264283, -0.0205384903, -0.0322419629, 0.0728174448, -0.0289458781, 0.0325526968, 0.0207454674, 0.0653100610, 0.0591589697, 0.0123627689, -0.1501106024, -0.1392324269, -0.1169120967, 0.0525555164, -0.0712008402, -0.1132065952, -0.0355429426, 0.0327884592, 0.0102835465, 0.0003967848, -0.0145524153, 0.0898575559, -0.0119444625, -0.0471231379, 0.0764664933, 0.0030635770, 0.0323878787, -0.0550057665, -0.0678279102, 0.0348129906, -0.0543335937, -0.0426568426, -0.0217624605, 0.0117969755, 0.0421436429, -0.0441496298, 0.0267373994, -0.0381449722, -0.0291173961, 0.0474845693, 0.0696904808, 0.1340388656, 0.0156420004, -0.1499688178, -0.1099345908, -0.0600111634, -0.0014818774, -0.0669692755, -0.0241570566, -0.0311079714, 0.0449655540, -0.0224254467, 0.0889209509, -0.0846764892, 0.1191661581, 0.0034075079, -0.0652758554, 0.0134899979, 0.0918063521, -0.0085416771, -0.0979861841, -0.0398920439, 0.1091339737, -0.0937159881, 0.0676074550, -0.0696267709, 0.0620671995, 0.0469114892, -0.1366136670, -0.1086946353, 0.0278062578, 0.0394038036, 0.0525877252, -0.0768718049, -0.0568797365, 0.0121967355, -0.0855052620, 0.0203647632, -0.0835001841, 0.1267262697, -0.0370421074, 0.0137044052, -0.0032826110, 0.0203221347, -0.0400334112, -0.0253154319, -0.0602122284, 0.0721681491, 0.0527914800, 0.0412791632, -0.0754004866, 0.0804473758, -0.0464103296, 0.0851607323, -0.0211323574, 0.0573539846, -0.0965563208, -0.0823959857, 0.0848285928, 0.0279468168, -0.1608356535, 0.1221309155, 0.0665626451, 0.1492214352, 0.0811250806, -0.0626481697, 0.0148989884, 0.0256805010, -0.0881692395, -0.0540361665, 0.0233949646, -0.0072480808, -0.0018345779, -0.0777300149, -0.0125178415, -0.0708129406, -0.1178692207, 0.0569507182, -0.0056692665, 0.1277987212, 0.0091166431, 0.0061189584, 0.0219600983, 0.0081089539, 0.1111550331, 0.0730852634, 0.0531427339, 0.0448054411, 0.0838442072, 0.0420155451, 0.1413390934, 0.1052718312, 0.0168636627, 0.0307942089, -0.0285469200, -0.0723527744, 0.0967648998, 0.0567169152, 0.0246385206, -0.0168011561, 0.0118670342, 0.1054056659, -0.0157646202, 0.0777094215, -0.0094892820, 0.0177270230, -0.0351379439, 0.0828472525, 0.0116625391, 0.0509990118, -0.0387562625, 0.0144344009, -0.0399396196, 0.0610871613, -0.0183985755, 0.0564752519, 0.0914335027, -0.1754513830, 0.0487886891, -0.1259217411, -0.0586887561, -0.0576579049, -0.0082282955, -0.0955769643, -0.1591261029, 0.0542740636, 0.0619254783, 0.0552200340, 0.0812742189, -0.0670700595, 0.0456624366, -0.1048769280, -0.1008644029, 0.0130748600, -0.0233152546, 0.0752657056, 0.0403497554, -0.0451044627, -0.1182399690, -0.0197931267, 0.0261316821, 0.0328506529, -0.0216864832, -0.0572363846, -0.0338408798, 0.0193986390, 0.0394374207, 0.0899957940, 0.0594510697, 0.0652911812, -0.0180259421, -0.0368045978, -0.0122693423, -0.1073735654, 0.0097571258, -0.0666258633, 0.0384473056, -0.0457795523, 0.0605314337, 0.0253155492, 0.1042731777, 0.0708551556, -0.0243973862, 0.0006978402, 0.0368325934, -0.0282590818, 0.1568573117, -0.0650276095, 0.0368277580, -0.0585595556, -0.0580060519, 0.0975378230, -0.0565537363, -0.0748029947, -0.0329610072, 0.0822998434, -0.0434490815, 0.0725061670, -0.0392151140, -0.1023211554, 0.0942935646, -0.0333875678, 0.0927194804, -0.0173936319, 0.1481926143, -0.0026541371, 0.1227736622, 0.0277103335, -0.0062310006, -0.1236629114, 0.1110492945, 0.0874981359, 0.0550482161, 0.1538529694, -0.0457496382, -0.0150335515, -0.0270885304, 0.0521043055, 0.1087784916, -0.0722857714, 0.0645279437, 0.0232093353, -0.0118917432, 0.0237027053, -0.0186488237, -0.1254915744, -0.0711945072, -0.0405998453, 0.0406877138, 0.0172907189, -0.0459484532, -0.0640122220, 0.0378263332, -0.0946258679, 0.0007986077, -0.0045940289, -0.0075731399, -0.0745483413, 0.0236925390, -0.1144167259, -0.1461569518, 0.0447087996, -0.0636163577, 0.0343989059, -0.1019233093, 0.0822011828, 0.1099169329, -0.0235839654, -0.0877937376, 0.0770667493, -0.0543989427, -0.0329135917, 0.0606208667, -0.0327597968, 0.0019792682, -0.0517561063, -0.1416685730, -0.0604849234, 0.0921439976, -0.0933759287, -0.0829544365, 0.0313298926, 0.1008407399, 0.0186381638, 0.1190560013, -0.1312313974, 0.0484621562, -0.0635690838, -0.0618251711, 0.0129959341, -0.0695170909, -0.0395987779, 0.0019898450, -0.0046558464, 0.0077748136, 0.0287869461, 0.0108271679, -0.0296299905, 0.0345257185, -0.0674163550, -0.0485024825, -0.0795080215, 0.1269893199, -0.0698708445, 0.0238467082, 0.0942118242, 0.0338887908, 0.0494182296, 0.0322539695, 0.0563429259, -0.0603061654, -0.1322316825, -0.0203825478, 0.0981134921, -0.0397163257, 0.1018006951, 0.0669486821, 0.1705037355, 0.0332419574, 0.0010423453, 0.1024638414, -0.0327175185, -0.0718921274, 0.0546442308, 0.1315965056, 0.0675696135, -0.0001599740, -0.0334781036, 0.0278309472, 0.1507351547, -0.1389383525, -0.0437765978, -0.0063324957, 0.0673995093, -0.0221232418, 0.0481790490, -0.0996765047, -0.0351739712, -0.1053913459, -0.0413496271, 0.0280483458, -0.1131661162, 0.0217008628, 0.0314946175, 0.0619375855, -0.0791463405, -0.1248042434, -0.1201781332, 0.1177141741, -0.0676422641, 0.0680592135, 0.0566002093, -0.1335267276, 0.0100918896, -0.0619418435, -0.0149497045, 0.0166787300, 0.0208464526, 0.0086484030, -0.0175993666, -0.0275621898, 0.1441517621, 0.0778916031, -0.1052681729, -0.0280607287, 0.0339513272, -0.0059534241, 0.0278801713, -0.1214014739, -0.1007303894, 0.0166187827, 0.0790924206, -0.1126149595, 0.0346831232, -0.0001525316, -0.0709097460, 0.0088463556, -0.0359837785, 0.0959966704, 0.1391363442, 0.0266536810, -0.1121333688, 0.1000612155, 0.0800073221, -0.0536120944, 0.0940424278, 0.0600486882, -0.1293470711, -0.0773643032, 0.0497174077, -0.0559146367, -0.0577462614, -0.0141069191, 0.0181376748, -0.0390289612, -0.0315360203, 0.0493792295, 0.0483234301, 0.0712682158, -0.0548796691, -0.0223170072, 0.0566072613, -0.1082665175, 0.1004169285, -0.0189682301, -0.0803274363, 0.1069002524, -0.0134194512, 0.0062954295, -0.1057310253, -0.2256648540, -0.0321759991, -0.0965793431, 0.0638107061, 0.0567655526, 0.0084352484, -0.0432165936, 0.0957861841, -0.0884861127, -0.0308293402, -0.0013950557, -0.0200838819, -0.0510563031, 0.0047718710, 0.0500467494, -0.0222678948, -0.0530170649, 0.0691096112, -0.0393603966, -0.0398182720, 0.0594826788, -0.0813572183, -0.0140879052, -0.0712106526, 0.0400116891, -0.0296781920, -0.0902431831, -0.1201188192, 0.0978121385, -0.0472254828, -0.1215759739, -0.1519809365, -0.0444065370, -0.0385740958, 0.1041717604, 0.0154133542, 0.0088031087, 0.0375941135, -0.0005427467, -0.0912776142, -0.0993416980, -0.0988167375, 0.0773853883, 0.0631978065, 0.0625593513, -0.0485479273, 0.0183734223, 0.1021161079, 0.0346099250, -0.0053654653, -0.0614542849, 0.0446028411, 0.0518366136, 0.0529692918, -0.0311540179, -0.0807491764, 0.0429322347, -0.0536826961, -0.1313585937, -0.0569548644, -0.0401394702, 0.0836633146, 0.0683637857, 0.0241608527, 0.0518106185, 0.1156450883, -0.0533133820, 0.0063479259, 0.0692212433, -0.0093243401, -0.1105532497, -0.0035930430, -0.0864095613, -0.1224054992, 0.0916163325, -0.0655251369, -0.0799850523, -0.0951443464, -0.0573786162, 0.0014966200, 0.0997964740, -0.0259638783, -0.0088767661, -0.0911891833, -0.0585800000, 0.0181655195, 0.0616860315, -0.0239286702, 0.0104199219, 0.0712813884, 0.1016517878, -0.0031094193, -0.0571907796, 0.0154195605, 0.0370399132, -0.0343134068, -0.0712800324, 0.0459668636, -0.0850986987, 0.0053706830, -0.0040247282, 0.0218819380, -0.0431674756, -0.1131971553, -0.1429661363, -0.0135066090, 0.0925728306, -0.0880247578, -0.0192026459, -0.0938736796, -0.1133641973, 0.0002431600, 0.0067216326, -0.0219294447, 0.0631338805, -0.0042803152, 0.0720592961, 0.0625473484, 0.0264923982, -0.0153467283, -0.0613651872, 0.0132211149, -0.0758050680, 0.0470747165, -0.0334572680, -0.0400323644, -0.0485105142, 0.0308627337, 0.0413176604, 0.0537368692, 0.0939144045, -0.0712136105, -0.1273927540, 0.1078949124, -0.0257997457, -0.0483177155, -0.0838401541, -0.1333291978, 0.1474455893, -0.0413743220, -0.0052799089, -0.0290491153, 0.0944526494, -0.0204336196, -0.0156035926, -0.0137575669, 0.1069023609, 0.0576667748, 0.0045201285, 0.0053446670, -0.0522807725, 0.0341010392, 0.0588750243, -0.0245055873, 0.0398548879, 0.0304500554, 0.0284634288, -0.0106901014, -0.0742221251, 0.0213493537, 0.1840199828, -0.0293119904, -0.0153214084, -0.0760636330, 0.1248942614, 0.0851619393, 0.0164318159, 0.0448569655, 0.0091077331, 0.0457389057, 0.1450204998, -0.0466107242, -0.1101867184, -0.1330717653, -0.0151641034, -0.0384376235, 0.0092806211, -0.0183643997, -0.0986946225, 0.0817641690, -0.0724330097, -0.0527452901, 0.0012679930, 0.0286630597, -0.0200503077, -0.0324008316, 0.0022044443, 0.0588957071, 0.0314593203, 0.0108578121, -0.0180076845, -0.0833341703, -0.1422990859, -0.0452404357, 0.0029254798, 0.0003310438, 0.0693300292, -0.0819943473, 0.0388362780, 0.1229510903, -0.1055778861, -0.1072181091, 0.0244729817, 0.0155094322, 0.1244587749, 0.0049384912, -0.0046781292, -0.1171960831, 0.0422803462, 0.0342407227, 0.1471228749, 0.0281140469, 0.0642058626, 0.0430524088, -0.0218989383, 0.0135483760, -0.0374591798, 0.0428878069, -0.0764842555, 0.0367333554, -0.0009230252, 0.0486095920, 0.0052315961, -0.1929886341, 0.0974521711, -0.0738705993, 0.0601295233, 0.0114280619, -0.0763227493, 0.0157822967, -0.0560754389, 0.0276239403, -0.0288866255, 0.0462288372, -0.0644608513, -0.0212290995, -0.0270616710, 0.0240499079, -0.0523914732, -0.0139639238, -0.0257122144, 0.0119174058, -0.0057027885, 0.0169265941, -0.1059314907, -0.0640112236, -0.1573724598, -0.0857050121, -0.0910552442, -0.0566460304, -0.0143987639, -0.0619042180, -0.0075878212, 0.0831310600, -0.0335403495, -0.0506631769, -0.0254470687, -0.0597305819, -0.0673066378, 0.0381873846, -0.0431778952, 0.0203113202, -0.0627114177, 0.0468500927, 0.0347251184, 0.0568964407, -0.1404020190, 0.0067448900, 0.0012620374, -0.0503942408, 0.1198193729, 0.0110037457, -0.1940018088, -0.0111343646, 0.1028507501, 0.0141868768, -0.0487250984, -0.0275555383, 0.0985536948, -0.0765847638, 0.0225218162, 0.0428412259, -0.0687840134, 0.0507800579, 0.0228005368, 0.0709921494, 0.0640777424, -0.0663042888, -0.0597166978, -0.0957273394, -0.0671097264, -0.0825147852, -0.0522585064, -0.0969487652, -0.0034067766, 0.0720707998, 0.1197813153, -0.0368235931, -0.0235059094, -0.1201357394, -0.0247372668, 0.0404206738, 0.0701194629, -0.0547788069, -0.0722183287, -0.0316650458, -0.0252572540, -0.0398922712, 0.0002975047, -0.0710788891, 0.1348712146, -0.1135358289, -0.0299614016, -0.0320381634, 0.0611448586, -0.1247671098, 0.2293250263, 0.0344848149, -0.0622323975, 0.0178855844, 0.0360440165, 0.0752845705, 0.0795380026, -0.0917007476, 0.0328826532, 0.0019091412, -0.0004933432, 0.0030866649, 0.0441370830, -0.0482861884, -0.0685948431, 0.1011458263, 0.0211941749, 0.0993229300, -0.0139568988, 0.1029014513, 0.0857029408, -0.0815311968, 0.0135935210, -0.0903177187, 0.1161237732, 0.1163093671, 0.0980156213, -0.0878030062, 0.0457706787, 0.1027051583, -0.0407534502, 0.0889812335, 0.1268120408, 0.0692983642, -0.0161169115, -0.0378158502, 0.0312288962, 0.1008859798, 0.0051398077, -0.1109158248, 0.1296685189, 0.0482063890, 0.0860993564, -0.0908965543, 0.0593033992, -0.0181860439, 0.0435624756, -0.0314455703, -0.0531229340, 0.0476054214, -0.0160396248, 0.0791638643, 0.1382863075, -0.1094580442, -0.0063901790, 0.0968904346, -0.0682156682, -0.1049711406, 0.0017679199, 0.0597488694, -0.0376270935, 0.0979589820, -0.0922263786, -0.0422326922, 0.0781598762, -0.0791324452, -0.0170264672, 0.0101854131, -0.0218332335, 0.0756639242, 0.1107544377, 0.1101954430, -0.0884779841, -0.0293190517, 0.1055930704, 0.0975586846, -0.0601140708, 0.0001197334, 0.1126993448, 0.1072541326, 0.0286574736, -0.1009556651, -0.0602235906, 0.0547799282, 0.0225869678, -0.0676832050, -0.0163450129, 0.0091917142, 0.0156939309, 0.0734350905, -0.0801754594, -0.0841707140, -0.1127712801, 0.1040709913, 0.0675287470, 0.0381472334, -0.0838057771, -0.0447226092, -0.0202673171, 0.0496577471, -0.0197547432, -0.1575240493, 0.0248439461, 0.0242765285, -0.0191111583, -0.0333111174, 0.0006545184, -0.0048179864, 0.0019481607, -0.0806244686, -0.0108851325, -0.0035850215, 0.0187814459, 0.0716406927, -0.0602048673, 0.0190631878, -0.0907037184, -0.0562500209, 0.0709862560, -0.0205312185, 0.0196052101, -0.0430279486, -0.0842436254, 0.0500725619, -0.1044749692, 0.0149398511, 0.0520460047, -0.0969851613, -0.1075520813, -0.0587086529, -0.0836737305, -0.0866875499, -0.0880706385, -0.1266255379, 0.1027534977, 0.0684339106, 0.0119801676, -0.0760754570, -0.0569558777, -0.0358774178, -0.0377492271, 0.0012025089, -0.0503703766, 0.0892787129, -0.1046870723, -0.0215026271, -0.0173540320, -0.0964909345, 0.1192239523, -0.1068843603, 0.0592132211, 0.0100256512, -0.0154141514, -0.0380339809, -0.0705815703, 0.0909972861, 0.0377053693, -0.0101311896, -0.0371747240, 0.0296995938, 0.0681500658, -0.0336466432, -0.1088137776, 0.1547206193, 0.1149785966, -0.0248622913, 0.0594359264, 0.0408058502, 0.0700387135, 0.0490815490, 0.0100264875, 0.0748867095, 0.0566873066, -0.0370064974, -0.0799568966, -0.0079409266, 0.1059497893, 0.0690926686, 0.0025451677, 0.0465862714, 0.0996776894, 0.0721498653, 0.1346819550, 0.0472167097, -0.0545785502, -0.0484822057, -0.0755163953, 0.1197913811, 0.0721992776, 0.0526325740, 0.0205562785, 0.0396983176, -0.1302849799, -0.0894139111, 0.0727402568, -0.0427916311, 0.1335350126, -0.0040324642, 0.0401499830, 0.0281728450, -0.0679713339, 0.0928084403, -0.0153477732, 0.0877301991, 0.0444294699, 0.0149583286, 0.0640806034, -0.1214437485, 0.0236112438, 0.0860021934, -0.0291592926, -0.0257134065, -0.0154214818, 0.0115957744, -0.0548306853, -0.1088063642, 0.0216085725, 0.0764088333, 0.0107353562, 0.0726803020, -0.0989473239, -0.0648773611, 0.1270625144, 0.0170305632, -0.0703135878, -0.0040963930, -0.0017348616, -0.0136154471, -0.0010471871, -0.0024464992, 0.1317788363, 0.0777023137, -0.0592813753, 0.0474293306, -0.0731847659, -0.0215046443, -0.0831949636, -0.0450668223, -0.1123020053, 0.1309944540, -0.0335998312, 0.0953885838, -0.0178104118, 0.0156613719, -0.1333005875, -0.0423955359, 0.0526380427, 0.0086926268, -0.0246277452, 0.0106401416, 0.0703542605, 0.1393913627, 0.1010692790, -0.0889545381, 0.0502674542, 0.0251660459, 0.0131319864, 0.0608058125, 0.0477915928, 0.0487572178, 0.0516293421, -0.1613336056, -0.1775086820, -0.0334937945, -0.0015790705, -0.0303698834, -0.0470680445, 0.0086410558, 0.0533865616, 0.0150484210, 0.0540166870, -0.1412016004, -0.0848793611, 0.0029566672, 0.0868260711, 0.0833075047, -0.0414607450, 0.0097784987, -0.0027869698, -0.1091400236, 0.0289620738, -0.0096466336, 0.1322266310, 0.0793622807, 0.0462018289, -0.0655322373, 0.0619487278, -0.0963424742, 0.0766109824, 0.0065982928, -0.0469694994, -0.0514372289, -0.0574609824, -0.0811009333, 0.0153161613, -0.0473661274, 0.0819352046, 0.0171572734, -0.1348547041, 0.0092319092, -0.0508665480, -0.0052735875, -0.0731108785, 0.0314244777, -0.0305467080, 0.0527255386, 0.0346953869, 0.0274056140, 0.0048908326, -0.0940264985, -0.0271686073, 0.0371719040, 0.1312137991, 0.1129770949, -0.0640867352, -0.0908155963, 0.0131898336, 0.0548644923, 0.0764051974, -0.0080232741, -0.0174019597, -0.0695756525, -0.1292685121, -0.0517861694, 0.0780491754, 0.0811499134, 0.0051349024, 0.0235493742, 0.0590855032, -0.0372625105, -0.1169871464, -0.0057273717, 0.0560639128, 0.0141213043, -0.0212762095, -0.0569763295, -0.0621518716, 0.0529976562, -0.0706839189, 0.1487915218, -0.0545139909, -0.0376052931, -0.1662878841, 0.1013100445, -0.0090763345, -0.0521117821, 0.0053389412, 0.0207942724, 0.1063883007, 0.0396972634, -0.0057542939, -0.1134736463, 0.0265179258, 0.0609718561, 0.0040571764, 0.0377459452, -0.0783944204, 0.0234827753, 0.0572323166, 0.0422840230, -0.0307821613, -0.0635567307, -0.0057351948, 0.0948719680, -0.0107125919, 0.0983026475, -0.0817630216, 0.0895059630, 0.1550810933, -0.0351446010, 0.1098909155, -0.0390591584, 0.0723098144, -0.0073482376, -0.0451280586, -0.0269667394, -0.0402764082, 0.0819092020, 0.0696260557, -0.0024650020, -0.0961336419, -0.0838033035, 0.0033718632, -0.0154400449, 0.0647882074, 0.0714468807, -0.0382969081, -0.0073178280, -0.0744124055, -0.0220718682, 0.1027365327, 0.1276777238, 0.0951363891, 0.0705666542, 0.0611756258, 0.0610058084, -0.0021261473, 0.0001550094, 0.0053648795, -0.0038333412, 0.0285481811, 0.0220707264, 0.0290646497, -0.1512708515, -0.0194126405, 0.0445832610, 0.0377783068, -0.0390929095, -0.1347609907, 0.1296434551, 0.1136626154, 0.0106335990, -0.0198160447, -0.0287372097, 0.1006741598, -0.0666076168, 0.0325870998, -0.0979711115, 0.0143272718, -0.1463858336, -0.0815447420, 0.0282634832, -0.0049106437, 0.0528578497, 0.0340153500, 0.0253973436, 0.0790483952, 0.0782342106, -0.0709581673, 0.0970253795, 0.0488223024, 0.0453645587, 0.0864592567, -0.0710381493, -0.0604222417, -0.0809361935, 0.0831290781, 0.0450989529, -0.0366419666, -0.0151777910, -0.0622704737, 0.0258938875, 0.0472342782, 0.0383965373, 0.1601712555, 0.0443262346, 0.0863071457, 0.1121234745, -0.0342861451, 0.0456857830, -0.0730431378, 0.1220529303, 0.0925002843, -0.0915412083, 0.0511735268, 0.0918276012, -0.0083638225, 0.0619475953, 0.0829095095, 0.0419981368, 0.1124110222, 0.0657418072, -0.0658907592, 0.1291176230, 0.0428733975, 0.0759975165, -0.0208389573, 0.0304084457, 0.0422736332, 0.0631255731, 0.0358207673, 0.0197300930, 0.0541233569, 0.0289694984, 0.0020625016, 0.0539489165, -0.0298812781, 0.0067125820, 0.0288920179, -0.0196150057, 0.0291300770, 0.0367718786, 0.0204585977, 0.0510195941, 0.0758406892, -0.0456114337, 0.0083908020, -0.0486052036, 0.0709011853, 0.0459210090, -0.1012977287, 0.0139014460, -0.0512986220, -0.0608600900, 0.0199938063, -0.0383156501, 0.0794782564, 0.0446085446, 0.0060055689, 0.0258628204, 0.0067865336, -0.1019108444, 0.0676578656, -0.0294021163, 0.0979183614, -0.0114034340, -0.0193480663, 0.0342045203, -0.0927292779, 0.1038323864, 0.0014525023, -0.0784466043, 0.0018225660, -0.0867679641, -0.0253601968, -0.0548643544, -0.0152759645, 0.0567211621, -0.0030668250, 0.0452849790, -0.0548176765, 0.0010335894, -0.0129998559, -0.0002915743, -0.0491208062, -0.0233242065, 0.1265381873, -0.0478658564, 0.0360470042, -0.1522547007, -0.0890222937, -0.0598060936, 0.1496773213, -0.0318971947, -0.0227179136, 0.0590987280, -0.0650094301, -0.1162014529, -0.0975240618, -0.0192115903, -0.0398768149, -0.1042950600, 0.0994133502, -0.0025477773, -0.0063833157, 0.0016793339, -0.1281188577, 0.0711359903, 0.0989540145, 0.0677978024, -0.0502571315, 0.0733255297, 0.0678445026, -0.0150780044, 0.0123097626, 0.0691495240, 0.0564835928, 0.0163019132, 0.0990856290, 0.1192741394, -0.0213168301, 0.0260334685, 0.0563220307, -0.1356241405, -0.0055896943, 0.0612664111, 0.1262076497, -0.0410437100, -0.0128413578, 0.0618694238, -0.1110612899, 0.0406506993, -0.0109166633, 0.1154734418, -0.0022023562, -0.0270062666, -0.0149656320, 0.0542268790, 0.0763681903, 0.0630998760, -0.0428465232, -0.0212369133, 0.0494860187, 0.0297793169, -0.1092924401, 0.0753255486, -0.0119648613, 0.0989045426, -0.0362704247, -0.0310600791, 0.0059580011, 0.1128753275, 0.0878926218, -0.0804835111, -0.0057572746, 0.0343825482, 0.1115600914, -0.0423821732, 0.0059933434, -0.1023793295, 0.0298854150, 0.0671780556, 0.1179318354, 0.0992372483, -0.0516726300, -0.0215069801, -0.0504959784, -0.0205742009, 0.0249477923, 0.0965466648, 0.0360406376, -0.0187988654, 0.1849191934, 0.0083277626, 0.0896280110, -0.0655139610, 0.1183659360, -0.0826095194, -0.0317098312, -0.0076109623, 0.1247380227, -0.2123669535, 0.1034138873, 0.0491323955, -0.0160407983, -0.0264624748, -0.0807176679, 0.0395653136, -0.0623277277, -0.0231635850, -0.0843853280, 0.0809481815, 0.0539294742, -0.0777592584, 0.0095816553, 0.0932964608, 0.1097055003, -0.0230148956, 0.0447975509, -0.0486146472, 0.1588694751, -0.2140425593, 0.0178834442, -0.0134112202, -0.1222039089, -0.0446904525, 0.0180505347, 0.1189177409, -0.0679219291, -0.0326164998, 0.0578968897, 0.0570518449, -0.1749543697, 0.0028677245, 0.0045033908, 0.0601543933, 0.0167136304, -0.0220260639, -0.0926315188, 0.0147942146, 0.0003564729, -0.0391299166, -0.0014105107, 0.1344797164, -0.0657680407, 0.0118410578, 0.0052254740, 0.0772664472, 0.0639720485, 0.0843812898, -0.1011686102, -0.1666825265, 0.1081487089, 0.1020071432, 0.0108243031, -0.1417578012, -0.0118930107, -0.1118025407, 0.0854813010, 0.1174240410, 0.0549527146, 0.0380221978, 0.1041772962, 0.0535570867, -0.0249858536, 0.0993704572, 0.0499574430, 0.0820652172, 0.0520264283, 0.0564434975, -0.0234756563, 0.0700503290, -0.0185182933, 0.1029190347, 0.0022721926, -0.0010878302, -0.0603407286, -0.0802902281, -0.0487504490, -0.1362287551, 0.0906141177, -0.0841626823, 0.0009419271, -0.0773993954, 0.0960103944, 0.0145832011, 0.0624597929, 0.0370718502, -0.0731333941, -0.0815908909, 0.0165944230, -0.1311795115, -0.0052036559, -0.0413559563, -0.0692456588, -0.0314376876, 0.0059059020, -0.0537749156, -0.0241829753, -0.0967688933, -0.0591509193, -0.0049302755, -0.0401637927, 0.0815518796, 0.0827236250, -0.0175797269, 0.0805413947, -0.0874128491, -0.0148533862, -0.0133266002, -0.0544595309, -0.0215866100, -0.1249668449, -0.0908139572, 0.0371322446, 0.0330525450, 0.0259129796, -0.1028339714, 0.0122189401, -0.0503490306, 0.0188411716, -0.0009597118, -0.0636082217, 0.1038053632, 0.0035088637, -0.0505973995, -0.0413353033, -0.0560379624, 0.0487761833, -0.0000798329, 0.0782375410, 0.0525766537, 0.0007001976, 0.0177279413, -0.0058765393, 0.0643254369, 0.0072202492, 0.0272149332, -0.0806893706, 0.0787330121, -0.0570064783, -0.0446638912, -0.0645051971, -0.0559673309, 0.0537856743, -0.0313381590, 0.0327390619, -0.0064093331, 0.0185950901, -0.0422033370, -0.0133736255, -0.0567252859, -0.0939733237, -0.0454590991, 0.0944416150, 0.1371960342, 0.0115940869, -0.0335832313, 0.0536370464, 0.0304980502, -0.0850863308, 0.0373159274, -0.0132635478, -0.1370639503, 0.0986863449, 0.0303282980, 0.0469736867, 0.0377181135, 0.0220054705, 0.0376491472, 0.0914731994, 0.0272831209, 0.0330548547, 0.0243136175, -0.0858143196, -0.0891751423, 0.0983999968, -0.0054497449, -0.0036389166, 0.0422205590, -0.0944208726, -0.0575072058, -0.0523277149, 0.0419454873, -0.1184370816, -0.0762699619, -0.1256026477, -0.0607435741, -0.0338341966, 0.0493389145, -0.0044075726, -0.0087040644, -0.0542684868, 0.1112593934, 0.0743933693, 0.0424380600, 0.0111337397, -0.0140945446, -0.0785893276, -0.0321985073, -0.0307464264, 0.0282706320, 0.0533488095, -0.0008972704, -0.0174602866, -0.0352075212, -0.0192748737, -0.0089680655, 0.0787201002, -0.0028421215, 0.0838990510, 0.0270272233, 0.0794086307, 0.0633358508, -0.1072177067, 0.0026190104, 0.1371003538, 0.1022446007, 0.0265917946, 0.0489757732, -0.0435636193, 0.0475207828, -0.0751567557, 0.0633223131, 0.0442984030, -0.0728252009, -0.0651859716, 0.0136012277, 0.0381974429, -0.0590837710, -0.0317521766, 0.0826473609, -0.0802800581, -0.0740387812, -0.0336193256, -0.0263373591, 0.0788238645, -0.0563194789, -0.1102904901, -0.0915939659, 0.0438291840, -0.1049773172, 0.0429648757, 0.0050534559, -0.0525104217, 0.1034036353, 0.0682047978, -0.0627328232, 0.0152517771, 0.0354954936, -0.0569728799, 0.0408638380, 0.0554868393, -0.0010665451, -0.0168360882, 0.0986896083, -0.0887972862, 0.0182034094, -0.0201998688, -0.0971557423, -0.1146131530, -0.0498595946, 0.0017067118, 0.0928577185, 0.0062994971, -0.0918609276, 0.0635514334, -0.0073085260, -0.0798860416, 0.0787242278, -0.0723949969, -0.0317799188, 0.0358275063, 0.0471325815, 0.0041969866, -0.0953202918, 0.0041445694, 0.0905849561, -0.0591207109, -0.0348165594, -0.0911110938, 0.0322819501, -0.0940911248, -0.0508937538, 0.0309908595, 0.1083950251, 0.0205873009, -0.0879068598, 0.0862026438, 0.0397200994, 0.0491208211, 0.0184873119, 0.0077371555, -0.0420514122, -0.0353478566, -0.0951548144, 0.0323424973, 0.0724630728, -0.0244096294, -0.0702020079, 0.0728776976, -0.0632023364, -0.0629041567, -0.0418724082, 0.0331133157, -0.0236009229, -0.0528433844, -0.0974291861, 0.0182665847, -0.0280671455, -0.1086433753, -0.0471623391, -0.0899688154, 0.0151419919, 0.0525516123, 0.0282356925, 0.0367640071, 0.0638317764, 0.0090787718, -0.0348962285, -0.0665803626, 0.0258031208, 0.0879857317, 0.0806908980, 0.0177363064, -0.0023315856, 0.1226759478, 0.0205728784, 0.0394386314, 0.0668457001, -0.0293608215, -0.0720412061, 0.0240921732, -0.0705191195, -0.0381756537, 0.0520636961, 0.0985992923, -0.0687779710, 0.0597463511, -0.0377119258, -0.0106503144, 0.0708977729, -0.0549143590, -0.0839090422, -0.0923547223, -0.0485538282, 0.0033458408, -0.1083428934, 0.0508088656, -0.0616846643, -0.0476546213, -0.0398373157, -0.0001260105, -0.0588353835, -0.0669813752, 0.0785551369, -0.0350008607, -0.0214120634, -0.0188832004, 0.0337347612, -0.0270720385, 0.0491722077, 0.0664151683, -0.0915632620, 0.0043955557, -0.0992980376, -0.0437184274, -0.0558614247, 0.1227614433, -0.0298391841, 0.0211186484, -0.0995202139, -0.0076329648, 0.0543891042, 0.0754787996, -0.0622369386, -0.0387080610, 0.0535751730, 0.0167561732, -0.0248051081, -0.0943444595, -0.0453533940, -0.0382036343, -0.0244157128, -0.0765141323, 0.1396717727, -0.0033892323, 0.0424789302, 0.0555877164, -0.0739965290, -0.0407731347, -0.0335455909, 0.0082185380, -0.0372817405, 0.0876044333, 0.0679510012, 0.0266367905, 0.0495206937, -0.0505771302, 0.0001376126, -0.0578365624, -0.0413301885, -0.0379157849, -0.0289100222, 0.0238254704, 0.0316215977, 0.0649797767, 0.0102952244, 0.0287632253, -0.0253499188, -0.0083304513, 0.0074791908, 0.0469742976, -0.0023689342, -0.0036723295, 0.1059624776, -0.0172566120, 0.0168132391, -0.0964080691, -0.0352386795, -0.1032487005, 0.0891282484, 0.0606078357, -0.1011298746, -0.0069084619, 0.0418133326, 0.0445997342, 0.0225240979, 0.0515328757, -0.0721237659, -0.0793144703, -0.0839906707, 0.0727283061, 0.0072764261, 0.0762483329, 0.0935828686, -0.1067567989, -0.0558932647, 0.0433502682, -0.0776027068, -0.0248271376, 0.0949364528, 0.0257865284, -0.0498205796, 0.0104263099, -0.0337476507, 0.0693986937, 0.0390835404, -0.0377330370, -0.0041143312, 0.0413685814, -0.0157111976, 0.0869523883, 0.0360802785, -0.0295522604, -0.0133879110, -0.0382705368, -0.0879660845, -0.0101249311, 0.0298745651, -0.0698424578, -0.0262493175, 0.0116728805, 0.0911275223, 0.0862111598, 0.0373981819, 0.0666879416, 0.0505037718, 0.0895018429, 0.0635235086, 0.1205237284, -0.0346415341, 0.0279576182, 0.0167885255, 0.0529664606, -0.0625128224, 0.0406085253, -0.0716729611, 0.0589870624, 0.0457412079, -0.0057208724, 0.0211142357, 0.0071477052, 0.1100473776, 0.0391631462, -0.0183741096, -0.0284661222, 0.0443622991, 0.1128703952, 0.0589446127, 0.0515269749, -0.0512873046, -0.0162525531, 0.0509151891, -0.0437431075, -0.0226869453, -0.0112097785, 0.1003155783, -0.0501214936, 0.0464557856, 0.0615161173, -0.0265960004, 0.0927280188, -0.0084009711, 0.0672005415, -0.0192418266, 0.0480439067, -0.0387841612, -0.0215067677, 0.0198013633, 0.0450483598, -0.0794732943, -0.0173578188, 0.0160360038, 0.1210520864, 0.0201405101, 0.1126239896, -0.0603424199, -0.0455454327, -0.0465703048, 0.0484490767, -0.0372018032, -0.0819964632, 0.0777240172, -0.0763557926, -0.0443916842, -0.0955284238, -0.0218882430, -0.1014251038, 0.0548620671, 0.0628481805, 0.0167420711, 0.0040916814, -0.0024744270, 0.0188005455, 0.0267304685, 0.0823993087, 0.0543733574, -0.0980418846, -0.1045660004, -0.0006156506, 0.0859340727, -0.0597918257, -0.1658684909, 0.0132146869, 0.0110417921, 0.0676491931, -0.0352499224, 0.0311397910, -0.0293693971, 0.0151286824, 0.0649042800, -0.0580489263, 0.0269691981, -0.0435680784, -0.0036942409, 0.0055711349, 0.0134899588, 0.0146545414, -0.0342035629, 0.1188549995, 0.0030303753, -0.0931597576, -0.0469837449, -0.0306167025, -0.0200234521, 0.0567223728, 0.0057797120, 0.1620701700, -0.0249771252, -0.0319238417, -0.0281683598, 0.0111579895, 0.0331227332, 0.0593920313, 0.0162734836, -0.0441482663, 0.0706154630, 0.0411085822, 0.0352739431, -0.0812972561, 0.0214402992, 0.1221507266, -0.0196641665, 0.0498195365, 0.0625557601, 0.0382262804, 0.0750912800, -0.0635157526, -0.1362015158, 0.0597653911, -0.0251810178, -0.0911568925, -0.0541251972, 0.0319585018, 0.0990095809, -0.0089872107, 0.0748764873, 0.0029930004, 0.0321564227, 0.0620100982, -0.1171798185, 0.0588102527, -0.0613431707, 0.0184553023, 0.0172663257, -0.0572658367, 0.1127062514, 0.1022745743, -0.0770725682, -0.0319058560, 0.0829115883, 0.0284982007, 0.0572550818, -0.0134990094, -0.0323518477, -0.0216833372, -0.0875107050, 0.1087131873, 0.0161639303, 0.1178274602, -0.0889946222, -0.0686723292, -0.0038175432, -0.0168126319, 0.1010425687, 0.0543200448, -0.0188341364, -0.0193440113, 0.0463048741, 0.0379972197, -0.0950748473, 0.1030096039, 0.0469957776, 0.0034165147, -0.0720392689, 0.0418202952, 0.1057499200, -0.1176397204, 0.0215300694, 0.1128378883, 0.0322504304, -0.1292017549, 0.1046789885, 0.0127563737, -0.0719609559, 0.0301043540, -0.0371040702, -0.0425810590, -0.0876728669, 0.0594193302, 0.0360668637, -0.0336620174, -0.0195666514, -0.0796696544, -0.0016248887, -0.0192441307, 0.0271639116, 0.0409782305, -0.0645152479, 0.0017626389, 0.0614247732, 0.0680069327, -0.0621049330, 0.0851072595, -0.0258451812, 0.0123446314, 0.0970291644, 0.0888058990, 0.0178957824, 0.0283258464, -0.0461791754, -0.0480827987, 0.0340995118, 0.0872083232, -0.0098003587, 0.0383359566, 0.0105032884, -0.0299498104, -0.0654801577, -0.0528070554, -0.0417612232, 0.0638148114, 0.0550269112, -0.1104019731, -0.1310117543, -0.0391482152, -0.1112198010, -0.0800034925, -0.0631520227, -0.1300504208, -0.1252193153, -0.0246219765, 0.0171200633, -0.0292572957, -0.0343890414, -0.0340016112, -0.0115110381, 0.0217791796, -0.0985051394, 0.0778525546, -0.0492318496, 0.0012873866, -0.0972134173, 0.0276706535, 0.0954468623, 0.0089076897, 0.0458862334, -0.0403194018, 0.0140305031, -0.0453943349, -0.0072789248, -0.0515663996, -0.0072331401, 0.0926757604, -0.0022546367, 0.0353502259, -0.0665936619, 0.0749793649, -0.1056049541, -0.0712135732, -0.0438027829, 0.0362386629, 0.0055947588, 0.1184425801, 0.0042149471, -0.0467570461, -0.0428995639, -0.0910434872, 0.0056233485, 0.1009477451, -0.1057480127, -0.0291692093, 0.0660071671, 0.0102730272, 0.0100465268, 0.0730286390, -0.0664620250, -0.1177337915, -0.0034504065, -0.0759722367, -0.0255195182, -0.0622822531, -0.1075080261, -0.0396357104, 0.0800298676, -0.0753974319, 0.0975525901, -0.0600233711, 0.0080374610, 0.1217868626, 0.0694030300, 0.0683278516, -0.0196089409, 0.0449919961, 0.0676294640, -0.0634054244, -0.0968479365, 0.0882470161, 0.0149881272, 0.0538274087, 0.0473537557, -0.0722546950, 0.0021202972, 0.0934519544, 0.0812909305, -0.0830045789, 0.0160528328, -0.0246885419, -0.0175730884, 0.0032521090, 0.0736818984, 0.0950898379, -0.0528182164, 0.0526474044, 0.0673389658, 0.0093550123, 0.0701572970, 0.0720501840, -0.0648055226, -0.0557763465, -0.1111255512, -0.0635281205, 0.0010547619, -0.0268358830, -0.0224424582, -0.0247536022, 0.0091087203, -0.0900654271, -0.0479965135, -0.0614120625, -0.1169188619, -0.0677696839, -0.0268039946, 0.1082470492, -0.0508117899, -0.0880312994, 0.0083207842, 0.0199870802, 0.0335449055, -0.0477764346, 0.0234201290, -0.0508311167, -0.0116545698, -0.0692818016, -0.0783080757, -0.0344168246, 0.1156948879, 0.0180433802, 0.0143986642, -0.0266602356, 0.0563397333, 0.0585218966, -0.0580796972, 0.0624964349, 0.0042058085, -0.0108321598, 0.0102654891, 0.0317390412, -0.0762890279, 0.0929936171, 0.0435680263, -0.0561438575, 0.0750640184, -0.1050809398, 0.0332694612, 0.0202432275, 0.0383923538, 0.0325383991, 0.0006512608, -0.0503553897, 0.0641415641, -0.0368880033, 0.1338213086, 0.0583962612, 0.0625565350, -0.0312676243, -0.0710221305, -0.0414335728, 0.0885317251, -0.0683911592, -0.0006656995, 0.0449518822, -0.0211544037, -0.0203211866, -0.0790665373, -0.0616819859, -0.0093299774, 0.1011712253, -0.0399811752, 0.0766826421, 0.0433992483, 0.1261923462, -0.0049476456, -0.0591997243, 0.1143835485, -0.0577419475, 0.0383671299, 0.0612291098, -0.0526607186, 0.0248627588, 0.0177252050, -0.0620997436, 0.0666946545, 0.0740471855, -0.0290538594, 0.0534006581, 0.0213440228, 0.0224456117, -0.0457932316, -0.0025025071, -0.0345224924, -0.0030498595, 0.0111254193, 0.0814748406, -0.0146282250, 0.0152909737, 0.0790014714, 0.0231103729, 0.0249348022, 0.0963714272, 0.0545014441, 0.0523944423, -0.0119113242, -0.0891309977, -0.0529751591, 0.0900384784, -0.0577949695, 0.0500466302, -0.0252949595, -0.0161302723, 0.0536367558, 0.0113688651, -0.0531909131, 0.0530030243, 0.0661114752, 0.0741828009, -0.0961203054, 