//Numpy array shape [128, 512]
//Min -0.459172725677
//Max 0.442399650812
//Number of zeros 0

#ifndef WR10_H_
#define WR10_H_

#ifndef __SYNTHESIS__
lstm_5_recurrent_weight_t wr10[65536];
#else
lstm_5_recurrent_weight_t wr10[65536] = {0.0670891404, 0.1441348195, 0.0031428947, 0.0328301340, 0.0506911017, 0.2515952587, -0.0597982146, 0.0555392057, -0.0154236183, 0.0301939547, -0.0770074949, 0.1320726871, 0.1159506813, -0.0632149577, 0.1873959303, 0.0926294476, 0.2365306318, 0.0155986901, 0.0636008978, 0.0454110615, 0.0622803904, 0.1216228679, 0.1520060599, -0.1352429986, 0.1750800163, -0.0592775084, 0.1504001468, 0.1363639981, -0.0259732790, 0.0932610333, 0.0919408053, 0.0912529901, 0.1314707249, 0.0994100422, 0.2180278152, 0.2200076580, 0.1887044609, 0.1097851768, 0.0352414995, 0.0231252406, 0.0913518295, -0.0234792605, 0.0512493104, 0.0173253287, 0.1314583719, 0.0423187017, -0.0852166265, -0.0477846414, 0.0939603671, 0.0595584624, 0.0555887669, 0.1227510571, -0.0892124251, 0.1028738394, 0.0769612417, 0.0787000880, 0.0525712520, -0.0984370783, 0.1971426606, 0.0140687414, 0.1071295440, -0.0449812412, 0.1087979749, 0.0204578489, 0.0740898624, -0.0150417285, 0.0567656644, -0.0020649733, 0.0185996592, 0.1653820425, 0.1342075914, 0.1395632178, 0.0490895882, 0.1808696389, 0.1727358550, 0.0806478560, 0.0287408102, -0.0091898395, 0.1142225116, 0.0985380039, 0.0021295180, 0.1038846672, 0.0571713112, 0.0124620106, -0.0771429092, 0.1128892899, -0.1327728778, -0.0733073205, -0.0397587456, 0.0103776604, 0.0839094818, 0.0693269819, 0.0628855526, 0.0372348353, 0.0549772643, 0.0567876995, 0.0220210049, 0.0602545291, 0.0313161761, 0.0209023412, -0.1336897016, 0.0722953007, 0.0060684346, -0.0436322205, 0.0192849543, 0.2025344372, -0.1190545410, 0.0020963699, 0.0036317233, 0.1189917475, 0.1223547310, 0.0137068275, 0.0371562727, 0.0560593084, -0.0720064566, 0.1279001236, 0.0927663967, 0.0639758334, 0.0159432851, 0.0153356306, 0.1751287133, -0.0965898708, -0.0288371686, -0.0050958986, 0.0650944784, -0.1114475876, 0.0488540754, 0.1151136979, 0.0213996004, -0.0670732781, 0.0484144725, 0.0713721067, 0.0243363250, 0.0201646630, -0.1162477583, -0.1988644898, 0.0175214577, -0.0314366445, -0.1128687412, 0.0706090480, 0.1929815412, -0.0448339731, -0.0940847546, -0.0249785427, -0.0649745017, -0.1602991074, -0.2281374186, 0.0450615361, 0.0122480514, 0.0447999388, 0.0319869816, 0.1140517443, -0.0413569473, -0.1306320280, -0.0004517645, -0.0682735965, -0.0881408453, -0.0365901776, -0.1370411217, -0.0424862094, 0.0753826424, -0.0339442082, -0.0001123877, 0.0827774182, 0.1409539282, -0.1120552272, -0.0170796141, -0.1250974089, -0.0381165296, -0.0495832860, -0.0093363011, -0.0135967238, 0.1157647297, -0.0213792976, -0.0036293087, -0.2722788751, 0.0472756550, -0.1409044117, 0.0616280101, 0.0432663225, 0.0167829711, 0.0367227420, -0.0029575911, -0.0663739443, -0.0486337952, -0.1082694605, 0.0358279534, 0.0953800827, 0.0848631635, -0.1224902719, -0.0011886632, -0.1715777665, -0.0090347454, 0.0398496427, -0.0816610232, -0.0214733537, -0.0208494402, -0.0425015315, 0.1252852380, 0.0991113186, 0.0318079181, -0.0479354151, 0.0003778501, -0.0984748155, 0.0513113849, -0.0658870712, -0.0695794970, -0.0477140024, 0.0277498160, -0.2130113542, -0.1144011542, -0.0517383330, -0.1548496634, -0.1602704525, -0.0634083077, -0.1744497120, -0.1750068367, -0.0541836023, -0.1127949506, 0.1021364853, -0.0846566781, -0.0073448275, -0.1347555220, 0.1373032480, -0.0009868445, 0.0975737944, 0.0855210647, -0.0655075610, -0.0470768809, 0.0501051918, -0.0335143395, -0.0937837213, 0.0695583969, 0.0863228664, -0.0564629734, -0.0010228987, -0.1051063985, 0.1112133488, 0.0299314931, -0.1006212533, 0.0169917531, 0.0468128435, -0.2034342885, 0.0722995177, 0.0278764423, -0.1163891405, -0.0963018239, -0.0025046780, -0.0989161581, -0.2953495383, -0.1257304549, 0.0848443806, 0.0113764117, -0.0895015821, 0.0945529565, -0.1149228811, 0.0006909952, -0.0106293745, -0.0326592177, -0.0791819245, 0.0047777654, 0.0616795421, 0.0923477635, 0.1119994521, 0.0636837929, -0.0007676333, -0.0728289708, 0.1357341409, 0.0192132331, -0.0066741258, -0.0807114244, -0.1100164428, 0.0159366615, 0.0831670091, -0.0122996457, -0.0273236763, -0.0196505897, 0.0505024306, 0.0913147107, -0.0137781659, -0.0844924897, 0.0135412514, -0.0466075465, -0.1044478565, 0.0362692587, -0.0628904253, 0.1213828251, 0.0396644920, 0.0307131093, -0.0312440544, -0.0971009806, 0.0059333448, 0.0060034031, -0.1243743896, -0.0308399517, 0.0052137421, 0.0486908630, -0.0098050404, -0.0037686208, -0.0037932929, 0.0135560706, -0.0183638874, 0.0433412120, -0.0128913671, -0.0148062166, -0.0082201213, -0.0325005315, -0.0230615716, -0.0501598343, 0.0662354827, -0.0130457142, 0.0963347703, -0.0622062385, 0.0669388697, 0.0903984010, 0.0565032624, 0.0196137056, -0.0063609113, 0.0034112674, 0.0054600784, 0.0845761746, 0.0814411491, 0.0372563154, 0.1059128344, 0.0100154756, -0.0613449365, -0.0291492566, -0.0171637591, 0.1588526219, -0.0289843306, -0.1317670047, -0.0481989309, -0.0440363325, 0.0490769818, -0.0396346003, 0.0933616310, -0.0720442012, -0.0324357599, -0.0020310958, -0.0158266537, 0.0020269211, 0.0034802265, -0.0332675427, -0.1239907816, -0.0750290155, 0.0879152417, -0.0649074242, -0.0261792783, 0.0761851519, 0.0366294347, 0.0635838509, 0.0709587410, -0.0014952484, 0.0428762659, -0.0029466453, 0.0261939298, -0.1110258847, 0.0895349458, 0.0352503248, -0.0313279778, 0.1048476920, -0.0669415593, 0.0070074373, 0.0516176224, 0.0594470426, -0.0412227660, 0.0003101020, 0.0276981443, -0.0374560095, -0.0673344731, 0.0542246774, -0.0603200048, -0.0140759256, 0.0450676754, -0.0055142571, -0.0404235758, -0.0877341405, 0.1280782521, 0.0133296307, -0.0876968205, 0.0701311231, 0.0438552089, -0.0627211183, -0.1119089797, -0.0051804329, 0.0780244991, 0.0267230570, -0.0106462035, 0.0839841887, -0.0659742132, 0.0103494599, -0.0122685563, 0.1238679066, -0.0689848587, -0.0913579985, 0.0331381261, 0.0626991391, -0.0598201305, 0.0022824111, 0.0007790565, 0.0126402937, -0.1041045263, 0.0069641424, 0.2320471108, 0.0814088285, 0.0716621950, 0.1102241725, 0.0906112939, 0.0583348162, 0.0006502752, 0.0527445413, -0.0054152957, -0.1162810251, 0.1357031018, -0.1112273857, 0.0163260084, -0.0157647431, -0.0451582931, 0.0712940022, 0.1099639013, 0.1364813298, 0.0288975555, -0.0710855797, -0.0870890915, -0.0674316958, 0.1188512594, 0.0344378911, -0.0342605822, -0.0534346662, 0.0589605048, 0.0166913215, -0.0287188906, 0.0223028399, 0.0276396610, 0.1055053025, 0.0623763464, -0.0734285265, 0.0597598031, 0.0395664796, 0.0403276347, 0.0152832046, 0.0025760964, 0.0183753408, 0.0793490708, 0.0327730142, -0.0088510420, -0.0026027395, -0.0107670724, 0.0222771280, -0.0425534360, -0.0372256339, 0.0617776588, 0.0336087756, -0.2164098620, 0.0960747451, 0.0566300824, -0.0047309473, -0.0173913967, -0.0784777626, -0.0901691839, 0.1344398260, 0.0228949133, -0.0604845658, -0.0580641106, -0.0523595288, -0.0470636562, -0.0456588268, -0.0317119397, -0.0691566095, -0.0647930652, -0.0067359377, -0.1159315929, -0.0183197241, -0.0458742715, -0.0772100762, 0.1235601008, -0.0191249773, 0.0423344187, 0.0399129353, 0.1366178542, -0.1295934021, 0.1003359109, 0.0365678146, -0.0005079739, 0.1033321619, 0.0229411460, 0.1603708267, -0.0330587327, 0.0948211998, 0.0374633148, -0.0335160159, 0.1037344560, 0.1426240355, 0.0618387014, -0.0308386590, -0.1793145984, -0.0677817315, 0.1723260134, -0.0082037346, 0.0726594403, 0.1023498476, -0.0247606430, 0.0091610653, 0.0209524538, -0.1655977219, -0.1475811899, 0.0919286236, 0.0371710882, -0.0609488040, -0.0488086976, 0.0996560156, -0.0424837582, -0.0268376656, -0.0425599180, -0.0063897003, 0.0652655885, -0.0420770831, 0.0305069461, -0.1504455805, 0.1273587197, 0.0121970568, -0.1501466036, 0.0217051860, 0.0441906936, 0.0244033057, -0.0396192484, -0.0397155993, 0.0107589355, 0.0331985764, -0.1991910636, 0.0410240740, 0.0194183066, -0.1451177746, 0.0122568440, 0.0337970071, -0.1556552351, 0.2078315467, 0.0186609831, -0.0214953143, 0.1162016988, 0.0194748156, 0.1197562963, 0.0547107384, -0.1357917637, -0.0552433096, -0.0494660512, 0.0580666177, 0.0329131074, 0.0903364718, -0.0746196732, 0.0575675778, -0.0209341347, 0.0671963394, -0.1273187101, 0.0181153808, 0.0290332660, 0.0089552524, -0.0546851829, 0.0968668684, -0.1071714237, 0.0461133011, -0.2205801457, -0.0974031165, 0.1382758170, 0.0759593993, 0.0354641899, 0.0901424959, 0.0069922972, 0.0793724135, 0.0351043344, 0.0906030908, -0.0763794035, -0.0235351287, 0.1052874699, -0.0281005614, 0.0315136872, -0.1813931465, 0.0478911884, -0.1060058847, 0.0317454785, -0.1456099749, -0.0833792686, 0.0176386945, -0.1203045920, -0.0470505469, -0.0200747140, -0.0178916808, -0.0229758322, -0.0287217554, -0.0199655052, 0.0810102746, 0.1316705644, -0.1405124217, -0.0500262417, 0.0733023509, -0.0289307553, -0.0694243610, 0.0695638061, 0.1486801356, 0.0176516902, 0.1083791777, 0.2327572852, 0.1017379537, 0.0969473049, -0.0626005232, -0.0350813977, 0.1765519828, 0.0752613619, -0.0120214503, 0.0935688391, 0.1564170718, 0.0031582303, -0.1282605380, 0.1235204116, -0.0820237547, -0.0547808222, -0.0759655386, 0.1230630353, 0.1329513639, 0.0501869507, -0.0369496532, -0.0458338521, 0.0392073542, -0.0057651447, 0.0388770550, 0.0273635332, 0.1167529747, -0.0799521208, 0.0270660780, -0.0827794075, -0.0462594964, -0.0938557088, 0.0905955881, 0.0570144840, -0.0458524078, 0.0476435609, -0.0177727547, 0.0230949204, -0.1335363239, -0.0389089026, -0.1354358494, -0.1061151326, 0.0921747163, -0.0165775027, -0.1791642457, 0.1326790601, -0.1624049842, -0.1304145455, -0.0177908447, -0.0152415773, -0.0250766855, 0.0791927278, 0.0606161095, 0.0092037963, -0.0442303121, -0.0611774586, -0.0584141836, -0.1031934544, -0.0014560490, 0.1754786074, 0.0210206863, -0.1398416013, -0.1055895761, -0.1297048926, 0.0257964078, 0.0511495210, -0.0443862416, -0.0749481767, -0.0310151745, -0.0097148744, 0.0926084816, -0.0491449162, -0.0039633284, -0.1744428128, -0.0359671824, -0.1133877188, -0.0896782875, -0.0613242798, 0.0114871198, -0.0485895649, 0.1666981578, -0.0039894138, 0.0673278421, 0.0090563446, 0.0183422714, -0.0089965062, 0.1539667845, 0.0877319723, 0.0167281367, 0.2165706605, -0.0862485543, 0.1838128120, 0.0082977219, -0.2625102103, -0.0635966361, 0.0112373261, -0.0294568241, -0.1126142517, 0.1482112706, -0.0329738334, 0.0486042574, -0.0384108201, 0.0904479697, 0.0183444824, -0.1503500789, 0.0816120356, 0.0014991589, 0.0140658515, 0.0226634517, -0.0384432562, 0.0268088803, 0.1339151561, -0.2228630483, -0.1162463874, 0.0606612191, 0.0354646146, -0.0610884652, -0.1092008054, 0.1455643624, 0.0937148184, -0.1836547852, -0.0017095731, 0.0850398839, 0.1294935942, 0.0407201648, -0.0328081883, 0.1294423640, 0.0989679620, 0.0100315399, 0.1426527053, -0.0225263406, -0.0316319689, -0.0767816827, -0.0644899011, 0.2506671250, 0.0646658316, -0.0924159437, -0.0534160659, -0.1166398376, 0.0338460729, -0.1142836660, -0.0505154431, 0.1238501221, 0.0428237915, -0.0243427549, -0.1305222660, 0.0907329991, 0.1260599494, 0.1422202140, -0.2502051294, 0.1265623569, -0.2417464256, -0.1184391826, 0.0111163892, -0.0703238621, -0.1122246459, -0.0022535634, -0.1998837441, -0.1336179972, 0.0399247222, 0.0319916569, -0.0676616579, -0.0243932065, 0.0769950822, -0.0556089804, -0.0088676186, 0.0754907131, 0.0203397721, 0.0605930239, -0.0287491586, 0.0385108218, 0.0267128516, -0.0277039334, 0.0730076805, 0.0965199172, -0.0574451461, -0.0989012867, 0.0886523724, 0.0958912969, 0.0578831397, -0.0064818901, 0.0647395849, 0.0052653672, -0.0168052372, 0.0782045797, 0.0073356940, -0.0240636971, -0.0928546786, -0.0778635591, 0.0090896850, 0.0633174405, 0.1245104373, 0.0863016024, 0.0034957053, 0.0035472701, -0.0121497195, 0.0158451647, 0.0435485728, 0.1542672515, -0.0568302423, -0.1117841825, -0.0166202206, 0.1029403433, 0.1498786807, 0.0177774336, 0.0461308621, 0.0392869189, -0.0837286785, 0.0317294188, 0.0279024467, 0.0938903391, -0.0594516024, 0.0731926039, 0.0847993344, -0.0282276012, -0.0663197562, -0.0059215291, 0.0168113597, 0.0022707903, -0.0062920237, -0.0350918733, 0.0871961340, -0.0350564569, 0.0251399614, -0.0049848021, -0.0444609486, 0.0201753397, 0.0221347976, 0.0180637687, -0.0846575722, -0.0169788953, 0.0328723975, 0.0203319304, 0.0092432695, 0.1115964055, 0.0831160918, -0.0282166563, 0.0298485048, 0.0063609723, -0.0305975862, 0.0637575015, 0.1656816006, -0.0427442752, 0.0229609180, -0.0405559428, 0.0155197205, -0.0162121039, -0.0716848224, 0.0044564968, 0.0002408483, 0.0488838106, -0.0084798113, -0.0417944901, -0.0300022196, -0.0442186445, -0.0873086303, -0.0061389762, -0.0536063090, 0.0026182737, 0.0349067859, -0.0371746570, 0.0108910473, -0.0351855531, -0.0287365522, 0.0048919418, 0.0068589896, -0.0023351728, 0.0338552818, 0.1380641609, -0.0460847728, -0.0417058095, 0.0323906951, -0.0491931327, -0.0007184513, -0.0057665738, 0.0268581156, -0.1014097631, -0.0691397488, 0.0663420558, -0.0896557793, -0.0571733601, -0.1514743567, -0.0060306857, 0.0603197254, 0.1103111133, -0.0308876224, -0.0604142249, -0.1137924045, -0.0275047384, 0.0355882905, -0.0226623323, 0.0411538333, -0.0625758842, -0.0094326641, 0.0694835186, 0.0614955612, -0.1632889509, -0.0529649667, -0.1524592042, 0.0638767406, -0.1265945137, -0.1143651381, -0.1146193370, 0.0001521176, -0.0149404919, -0.0493345745, -0.0635374188, 0.0685359240, 0.0269642081, -0.0455295481, 0.0017707269, -0.1304491311, 0.0538283736, -0.1026206315, -0.0558237284, 0.0679206178, -0.0111421430, -0.1213523969, -0.1665010005, -0.0853106603, -0.0869444013, 0.0058058789, 0.0121189198, 0.0235978607, 0.1448627412, -0.0515774302, 0.0696907714, -0.1550733447, 0.0320946686, 0.0113127567, 0.1533414572, -0.0407253802, -0.0343903303, 0.0772926956, 0.0340765081, -0.0570186898, 0.0589152463, -0.0285853595, -0.1226276159, -0.0150213595, 0.0099431025, -0.0545680337, 0.0017423746, -0.0394394211, -0.0557607561, 0.0468595400, -0.0318573266, 0.0608989224, 0.0182529073, -0.0752471685, -0.1043089703, 0.0207123365, -0.0503136292, 0.0133120697, 0.0249715447, -0.0661789626, -0.0551353991, -0.0231733732, 0.0960322618, -0.0983555317, -0.1258129328, 0.0210330244, -0.1386924237, -0.0353980288, -0.1299312711, 0.0183491502, 0.0540350005, -0.0161872562, -0.0406465940, 0.0318513103, 0.0293947253, -0.0093022194, -0.0072961883, -0.0011379520, 0.1359735727, 0.0233150590, -0.1969855428, -0.0174151789, -0.0687051862, -0.0155172301, 0.0673458651, 0.0478730239, 0.0049674711, -0.0489693023, -0.0102257179, 0.1499675363, -0.0079135774, 0.1104428917, -0.0091257077, -0.1017334759, -0.1091609746, -0.0189980902, -0.1600401849, 0.0545583330, -0.1012455150, 0.1937391907, -0.0231603514, 0.0447135344, 0.1802021116, 0.0900828987, -0.0958511978, -0.0169668309, 0.0568859056, 0.0025667574, 0.0011811157, -0.1763262302, 0.1200739592, -0.1524143815, 0.0526343808, 0.1276081651, 0.0953136533, -0.0808070675, 0.0383823402, -0.2257292867, 0.0434259661, -0.0541340001, 0.1033500731, 0.0128588462, 0.1026968285, 0.0810999796, 0.0361095965, 0.0854197666, -0.0089774542, -0.0257799346, -0.0799638927, 0.0181916840, 0.0487073883, 0.0922324136, -0.0253159199, -0.1656249017, 0.0429617167, -0.2338946462, -0.0612302572, -0.1345349252, -0.0303219501, -0.1349878609, -0.0415482037, -0.0513423868, -0.1740177870, -0.1830948293, -0.0779361427, -0.1271878928, -0.1613907516, -0.0899831802, -0.0176557526, 0.1372430772, 0.0294799656, -0.2064937055, -0.1351924837, -0.3151928484, 0.1293564439, 0.0228492096, 0.0459731519, -0.2333766222, -0.1132992804, -0.0345379189, -0.0002603831, 0.0510310680, -0.0613246374, -0.0439030863, -0.1746941060, 0.0179967936, -0.1008899212, 0.1248435080, 0.0588807799, -0.0668489859, -0.0052298396, 0.0760938898, -0.0615960211, 0.1916792989, 0.1007531434, -0.0614624247, -0.0645831898, 0.1336157173, -0.1237145066, 0.0747501105, -0.0380995087, 0.0272567589, -0.0672846809, 0.0338473357, -0.1309002638, 0.0012760614, 0.1117938459, -0.0234579630, -0.0428975113, -0.0512363799, -0.1889963001, 0.0917745307, 0.0137129445, -0.0942346230, 0.0488378778, 0.0507523939, 0.1797357649, -0.2017101645, 0.0613111183, -0.1070427895, 0.1043709889, -0.0551643334, -0.2363600284, -0.0008208815, 0.1219279766, 0.0042440258, -0.2552036345, -0.0059873979, -0.0038795704, -0.1158417910, -0.1911027580, 0.0690399408, -0.2245592326, 0.0417184941, 0.0206181966, 0.0275841150, -0.1606926918, 0.0187651757, -0.0985889435, -0.0295571238, 0.1151430607, -0.0996991917, -0.1239065826, -0.0190745853, -0.0905883685, -0.0277916230, -0.1590930223, 0.0667295754, 0.1661240011, -0.0682908148, -0.1083062440, 0.1424523592, -0.0104545262, -0.1669362783, 0.0171172712, 0.0394545980, -0.1120220050, -0.0190507285, -0.0526324362, -0.0417854376, 0.0050461544, -0.1948435307, 0.1991384625, -0.1276596040, -0.1051352024, 0.0008638988, -0.1139000580, -0.0246649701, -0.1085426360, -0.1302134842, -0.1346215010, 0.0054221875, 0.0320251174, 0.1358302981, 0.0593961030, -0.0771854669, -0.0361662321, 0.2801330090, 0.1723941863, 0.0138817849, 0.0097484784, -0.0403152220, 0.0233698543, 0.0082566151, 0.1011457294, -0.0570801310, -0.0144159617, -0.0002802025, 0.0782706961, -0.0109244119, 0.1147359535, -0.0508477911, -0.0709956065, 0.1512377560, 0.0363455117, -0.0911125764, -0.0406181701, 0.1001056433, 0.0869892836, 0.0311954785, 0.0702850521, -0.1369349957, -0.0056497194, 0.1705405265, 0.0213216152, 0.0632398427, 0.0982382074, 0.0839337036, 0.1879373044, 0.1456006616, 0.0836240128, 0.0120248795, 0.1148173138, 0.1036031768, 0.0143291326, 0.1394783705, 0.0990467817, 0.0279637221, 0.0885703564, 0.0609349683, -0.0152026322, 0.2000243366, 0.0908312052, 0.1156673878, -0.0400037840, 0.0438693203, -0.0307523422, 0.0875075459, 0.0102490596, -0.1112473756, 0.0563988946, 0.0560197867, -0.1063774377, 0.0094071822, 0.0557114445, 0.1260966957, 0.0232667699, 0.1005395651, 0.0829231516, 0.1503687650, 0.0248310901, 0.1560299844, 0.1622751504, 0.1183877066, 0.0876012519, 0.0933445469, 0.0377733782, 0.0661312565, 0.1227014288, 0.0973811224, 0.0047604959, 0.0572313108, 0.0597981326, -0.0062014381, -0.0859617144, 0.1257641315, 0.0634954795, 0.0321620516, 0.0463580266, -0.0099058524, -0.0870809630, 0.1581487358, -0.0077651022, 0.0013063671, 0.1792550534, 0.0873463601, 0.0976538882, 0.1014614850, 0.1289027631, 0.1014388651, 0.0433863215, -0.0058106477, 0.0314045660, -0.0884481892, 0.0006813944, 0.1618629545, 0.1374302506, 0.0024900667, 0.2009266913, 0.1241915300, -0.0882950723, 0.0281058569, 0.0844463408, 0.0917534456, 0.0222499352, 0.0540431365, 0.0142107848, -0.0000973303, 0.1004265770, -0.0896958113, 0.1927205771, 0.0971903428, 0.0162863415, 0.0904553980, 0.0132686086, 0.0210184027, -0.0221204069, -0.0056432071, -0.0359127708, -0.0149769261, -0.0089680487, 0.1393130273, -0.1871825606, -0.0659998506, -0.0887593403, -0.0283705126, 0.1048967615, 0.0106507577, -0.0519160256, -0.1352347434, -0.0203493219, -0.0208341870, -0.0601290241, 0.0020671533, -0.0352153070, -0.0634630173, 0.0562625527, -0.1201582998, 0.0686732307, 0.0505994856, -0.0570471361, -0.0086448276, 0.0087387674, 0.0556761771, 0.0998309180, 0.0197321419, -0.0000884543, 0.1567611992, -0.0280948021, -0.0622377098, 0.0695081726, -0.0189022478, -0.0832813829, 0.0425514951, -0.0985859334, 0.0356413461, -0.0438168049, 0.0910488144, 0.0070188711, 0.0679783449, 0.1460446566, -0.0666359067, -0.0210008156, -0.0550028309, -0.0117531996, 0.0210599359, 0.0007826055, -0.0592095554, -0.0164386742, -0.0238753799, -0.0298514459, 0.0030596158, -0.0688150451, 0.0876329318, -0.0207103919, -0.0485087372, 0.0919536725, 0.0007112997, -0.0475364365, -0.0702287853, 0.0512884296, 0.0868278593, 0.0209852494, -0.0810304806, -0.0000548378, -0.0302194096, -0.0290824771, 0.0184755493, 0.0263101552, 0.0312765241, 0.0618205667, -0.0461456068, -0.0952284783, 0.0540040098, -0.0448774323, -0.1375105679, -0.0117909200, 0.0418545902, 0.0175142568, -0.0011374170, -0.0344088301, -0.1477832496, -0.0840523839, -0.0531182289, 0.0278765839, -0.0307350066, -0.0341087058, -0.0583858341, -0.1499403864, -0.0400091149, 0.0132729635, -0.0191441365, 0.0759075806, -0.0360763296, 0.0368750207, 0.0029373276, -0.0679831728, 0.0349811614, -0.0414615795, -0.0189152602, 0.0404913500, 0.0708913729, 0.0584346168, -0.0560161434, 0.0384633057, 0.0822849721, 0.0100848451, -0.0702546537, -0.0397159979, 0.0427918844, 0.0744213611, -0.1234547868, -0.0458484255, 0.1211340427, -0.0438888222, -0.1153236032, 0.0124115264, -0.0858950317, -0.0058449549, 0.0129012000, 0.0114898365, -0.0507728867, 0.0068896357, 0.0394315310, 0.0329613946, -0.0476374440, 0.0052957162, 0.0974324495, 0.0432235822, -0.1132297665, -0.0706495494, 0.0327145942, -0.0915454477, 0.0026809042, 0.0382293016, -0.0121647744, -0.0464981422, 0.0155201098, -0.0192897655, 0.1195635349, 0.0233406499, -0.0915227532, -0.0791174471, 0.0207544658, 0.1373899430, 0.1092229262, 0.1226290613, 0.0105658947, -0.0055931387, -0.0203489754, 0.0031931773, -0.0677705333, 0.0230267141, 0.1574855000, -0.0192514732, 0.0687148869, -0.0848502815, -0.2622954845, 0.0736703053, 0.1178429797, 0.1531961411, -0.0637790337, -0.0737901405, -0.0215669926, 0.0807563141, -0.1077587157, 0.0402159803, 0.1591927558, 0.0257541016, -0.0378185213, 0.0056467564, 0.0661412701, 0.2111137509, -0.0476040132, 0.0359885395, 0.0311643556, 0.0868934169, 0.0732769668, 0.0302091576, 0.0871288627, -0.0714632869, 0.1708972901, 0.0144554544, 0.0546444356, -0.0626570135, -0.0854323283, 0.0169253983, -0.0062326444, -0.0266250707, 0.0354346335, 0.1244630739, -0.0452394783, 0.1269043088, -0.0135318451, -0.0922912806, 0.1351094246, 0.0356078632, -0.0196531732, 0.0447918177, 0.0499993302, 0.0205620266, 0.0093898280, 0.1048508808, 0.0021924092, -0.0398497991, -0.0406001732, -0.0077375062, -0.0932614505, 0.0363634266, -0.1367257982, -0.0575759783, 0.0163220987, 0.0086970516, -0.1027870402, 0.0534690768, 0.0096669290, -0.1651362777, 0.0581557415, -0.1418261379, -0.0481718034, 0.1240540445, 0.0500748791, -0.1193106249, 0.1101774722, -0.0231105555, -0.0107860193, 0.1383247524, -0.0936037898, -0.0164384935, -0.1446946263, 0.0207000598, 0.1276585311, 0.0493815839, -0.0025415609, 0.2307509780, 0.1488793790, -0.0123163462, -0.0596343800, 0.0852039009, 0.0517854989, 0.0297785029, -0.0534763820, 0.0582839921, 0.0972998589, 0.0662366226, -0.1201292500, 0.0823800042, 0.1489096880, 0.0081693167, -0.1587447375, -0.0571821369, -0.0130604114, 0.1167703569, 0.0213176534, -0.1110436320, 0.0871951580, -0.0302305557, -0.0136747500, -0.0262862295, -0.1159853041, -0.1358605474, -0.1304241121, -0.0888029858, 0.0311373658, 0.0484446026, -0.1910115629, 0.1030308530, -0.0516478382, -0.0166246481, -0.1107594818, 0.0229740180, -0.0033522591, -0.0136629241, 0.0347285047, -0.0416153073, -0.0753919706, -0.1430931389, 0.0428727269, -0.1749226451, -0.0570349358, -0.0275492594, 0.0220676791, 0.0271797292, -0.1878828406, -0.2358549088, -0.0195191372, -0.0279087666, -0.0800426006, 0.1083863005, 0.0213368125, 0.0109366141, 0.0241313111, -0.0468729250, -0.1364260167, -0.0611848533, 0.0043775542, -0.1123460308, 0.0034100658, -0.0293281097, -0.1051705405, 0.0598616824, -0.0060936268, 0.0313104950, -0.0358553790, 0.0663243011, 0.1623434573, 0.1039725095, 0.0449168608, 0.0661477596, 0.1355011016, 0.1586898565, 0.1322630197, 0.1251375228, -0.0308401939, -0.0678938106, 0.0513826609, -0.0474668518, 0.0316956975, -0.0260155797, -0.0162909217, 0.0967602059, -0.1262232065, -0.0522940271, 0.0898646712, -0.0021233156, -0.0353927389, -0.0547126532, 0.1090657786, 0.0720336288, -0.1352700293, 0.0026654818, 0.0334311835, 0.0150662363, -0.2394520491, -0.2474897057, -0.0904410630, -0.0597594678, -0.0936339647, -0.1649877131, -0.1101764664, -0.0531004630, -0.0754070207, -0.1132617965, 0.0651266873, -0.0073454133, -0.0857065991, 0.0547819212, 0.0368751287, -0.0093147131, 0.0502182953, -0.1164994389, -0.0020599968, -0.0134032918, -0.0542561337, -0.0987903029, 0.0123465322, -0.1625312716, -0.0757101029, -0.0529493317, -0.1283724308, 0.0393614843, -0.0671978667, 0.0478301980, 0.0597827993, -0.1712256670, -0.0569144748, -0.1083412543, -0.0842847973, -0.1204475090, -0.1223551258, -0.0617236272, -0.0428464413, 0.0034814999, -0.0464080870, 0.0805817321, -0.0748601630, -0.0565942526, 0.0615547523, -0.1522735655, -0.0895336270, -0.0981023461, -0.0986090750, -0.1154011413, 0.0466274768, -0.1733853668, -0.0001778268, -0.0846164003, -0.0861414224, 0.0475438386, -0.0248877052, -0.0102823358, 0.0219313670, 0.0840371028, 0.1231135428, 0.0407130830, 0.1310990304, 0.0655741841, 0.0949945003, 0.0321967937, -0.0133592747, 0.0719941407, -0.0639702901, 0.0890268683, 0.0295868888, 0.2375135124, -0.0305841472, 0.2371654660, -0.0065235621, 0.0589066260, 0.0531696156, 0.2093527317, 0.0395961925, 0.0051751882, 0.0310890917, -0.2488519847, 0.0507054813, 0.0797768757, 0.0743115842, 0.1809232384, 0.0839168578, 0.1035122052, -0.0082019549, -0.1328543276, -0.0952068046, -0.0671796277, 0.0483103916, 0.0174226370, 0.0069950875, 0.0452268906, -0.0080515975, -0.0627918392, 0.0217498317, 0.0533569679, -0.0149149150, 0.0794772580, 0.0601123236, 0.0840379223, 0.0674796626, 0.0214448571, -0.0027310774, 0.0261725783, -0.0729624256, -0.0155693153, 0.0507701300, -0.0243646353, 0.0515248068, 0.0810314864, 0.0341703705, 0.0685035437, -0.0044789994, -0.0012387467, 0.1435371488, 0.0871285349, 0.1623688340, 0.0804933757, 0.0285001155, -0.0421635434, 0.0242656469, -0.0105854161, 0.1674576402, 0.0175972451, 0.0904354304, 0.1428037584, 0.2045420706, 0.1364185661, -0.0919279531, 0.1225840971, 0.1187411249, 0.0755025968, 0.1765915304, 0.1387733221, 0.0751815811, 0.0495127141, 0.1052547097, -0.0048423833, -0.0245423317, 0.1518027931, 0.0194157604, 0.0140984403, -0.0290074218, 0.0354316197, 0.0895668119, 0.1848464757, -0.1065926850, 0.0069671050, -0.1073864028, 0.0507694744, -0.0713194609, 0.0086575206, 0.0065954649, 0.0251688939, -0.0197656751, -0.1154386848, 0.0270792153, -0.1015105546, -0.0618857071, 0.0815194473, -0.1931639761, 0.0719652995, -0.0245726388, 0.0602974668, -0.0803435892, 0.1586907357, 0.0260166749, 0.0776045099, -0.1062755138, 0.0096998429, 0.0550777577, 0.1874205917, 0.1370191872, -0.0060299556, -0.0140765570, 0.0737353489, 0.0904814675, 0.0542668290, 0.2337893993, 0.0695064589, 0.0356327631, -0.0051035620, 0.0449782647, -0.0220076237, -0.0044234432, -0.0375826061, -0.0801169127, -0.0511570014, -0.0446055569, -0.0314096920, 0.0510697253, -0.0028942018, 0.0435254462, 0.0245108437, 0.0341314599, -0.0831210092, 0.0656477287, -0.0447354764, -0.0150744962, -0.0353561155, 0.0224596914, -0.1014445871, 0.0005857291, -0.0355890356, 0.0016609068, 0.0274477713, 0.0548084900, -0.0142955957, 0.0083728572, -0.0209807660, -0.0151047381, 0.0292882584, 0.0111636920, 0.0393095724, 0.0627648011, -0.0123339565, -0.0272901542, 0.0091833621, 0.0120577132, -0.0328293853, -0.0713603944, -0.0093795657, -0.0213351492, -0.0040622940, -0.0668941364, -0.0010924891, -0.0218855888, 0.0257541873, -0.0016339491, 0.0934119374, -0.0024911710, 0.0463883281, 0.0338411331, 0.0411474966, -0.0125074582, -0.0012934210, -0.0040731006, 0.0284027848, 0.0587929636, 0.0650495663, 0.0347698592, 0.1086349040, 0.0020991247, -0.0323126093, -0.0027340115, 0.0119506205, -0.0135470340, -0.0628451034, 0.0496552810, 0.0144962836, 0.0473743603, -0.0767629892, 0.0527030006, -0.0231951382, -0.0845284387, 0.0394592732, 0.0091747520, 0.0153515339, -0.0813026950, 0.0834934115, -0.0589155778, 0.1123011857, 0.0312372409, -0.0385274589, 0.1034436002, -0.0331297778, 0.0974512026, 0.0056037428, 0.0006192443, 0.0162028223, 0.0529660769, 0.0184779372, 0.0489979759, 0.0255033989, -0.0004569800, -0.0007798402, -0.0617335811, -0.0197675750, 0.0538876839, 0.0129638417, -0.0127043491, -0.0374973007, 0.0153682325, -0.0371634662, 0.0993112922, -0.0148936333, -0.0102002257, 0.0258049741, 0.0473248810, -0.0708909333, -0.0388657153, 0.1235122830, -0.0591330938, -0.0641366616, 0.0248141717, -0.0171364117, 0.0230731592, -0.0202607159, -0.0040809410, -0.0364035219, -0.0005974473, -0.0478338972, -0.1347946972, -0.0159288682, -0.0491710380, 0.0221474171, 0.0511392057, 0.0701959804, -0.0569562279, -0.0486830622, -0.0822196826, 0.1070553288, -0.0197044667, 0.0834104568, 0.1086385399, -0.0427767858, 0.0487901829, 0.1110010296, -0.0371143557, -0.0988842249, 0.1005543470, 0.0458763689, 0.0577124692, 0.0785725117, 0.1208394766, 0.0229961742, -0.0000068135, 0.0298159737, 0.0226588212, 0.1368630975, -0.0983659998, -0.0051777666, -0.0737014860, -0.0902660862, 0.0190252829, 0.1442570090, -0.0237888116, 0.0822833031, 0.0040734108, 0.1697812229, -0.0053576534, -0.0285527781, 0.0897479057, -0.0794200152, 0.1163926944, 0.1006460935, 0.0565391630, -0.0469870679, -0.0002953637, -0.0604220890, -0.0308750533, 0.1784954369, 0.0127814338, 0.0235545635, 0.0875913799, 0.0267619248, 0.0106183356, 0.0796118677, 0.0914129093, -0.0999484658, 0.0222091600, -0.1037726700, -0.0407096781, -0.0300740860, -0.0045858198, 0.0188599341, 0.0519308783, 0.1041816324, -0.0758209601, -0.0126620242, 0.0479154289, -0.0254145805, -0.0125580430, 0.0883792266, 0.0281155873, -0.0376535691, 0.1369855851, 0.0168165527, 0.0566874780, 0.0385269932, 0.0622214004, 0.0577255115, -0.0378921852, -0.0116954558, 0.0509196408, 0.1078479290, -0.0355306901, 0.0925622731, -0.0086969798, -0.0198109988, 0.0453331359, 0.0447224677, 0.0280943904, -0.0081508998, 0.0031622285, 0.0404693931, -0.0568649098, 0.0004707132, 0.0365800895, -0.0422026515, -0.0699554756, -0.0125588235, -0.0374118723, -0.0595996678, -0.0902847275, -0.0168519709, -0.1369494200, 0.0418918282, 0.0162763279, -0.0002870367, 0.1078865305, 0.0400053747, -0.0164385848, -0.0116418041, -0.0044368552, 0.0167178661, -0.1551796198, -0.0709717423, -0.0559991598, 0.0396383181, -0.0229878183, 0.0339000374, -0.0159188025, 0.0568524227, 0.0622767434, 0.0484791733, 0.0159586184, 0.0858698115, -0.0313244984, 0.0434873551, -0.0170936976, 0.0618203767, 0.0143249845, 0.0208469853, 0.1724194586, 0.0544783026, 0.0546503179, -0.1668760628, 0.0167314298, 0.0425338708, 0.0460128151, -0.0987463295, -0.0287591666, 0.0626967326, 0.0413737372, 0.0319471695, 0.1089736149, -0.0514345616, 0.0641289949, 0.0283570420, 0.1747792065, -0.0603537895, -0.0790889189, -0.0882110745, -0.0278776698, -0.1369491220, 0.0709025860, 0.0131651917, 0.0434557535, 0.0889431462, 0.0395298153, 0.0633882135, 0.0595965348, 0.0267621577, -0.0281076580, 0.0263140574, 0.0079368819, -0.0815132409, 0.1117815971, 0.0302118994, 0.0400606133, -0.0510356575, -0.1357018501, -0.0801539347, 0.1127957106, -0.1163357347, 0.0627872050, -0.0316703729, -0.0845708624, 0.0453692339, 0.0148209501, -0.0103277117, 0.0554950051, -0.0240645874, -0.0285609625, 0.0321290009, 0.0053682001, -0.0183194727, 0.1622528136, 0.0063920892, -0.0405496657, 0.0007178542, 0.0923180804, -0.1324957013, 0.0515339077, 0.0761305988, -0.1539525837, 0.0417049378, -0.0616028495, 0.0168384388, -0.1091029048, 0.1608469486, 0.1284485906, -0.0140935387, 0.2195665389, 0.0456748456, 0.0163607839, 0.1030787751, 0.0911813751, -0.0087724505, 0.0160318762, -0.0415220410, 0.0190706644, 0.1136424989, 0.1841697693, 0.0393793695, -0.0200348869, -0.0433112308, -0.0337740704, -0.0161687490, 0.0210596118, 0.0160494354, 0.0293643884, 0.0300994460, -0.0835546255, 0.0590193085, 0.0478660800, 0.0234405994, 0.1204473078, -0.0720140636, 0.0615004227, 0.0331062749, 0.0758550167, -0.1069626659, -0.1015602127, -0.1295900047, 0.0285893194, 0.0334935039, -0.0258515496, -0.2027486861, -0.0545400418, -0.1377676874, -0.1801343709, -0.1311878264, -0.0537356436, 0.0347860605, 0.0767108053, 0.0068830554, 0.0809867978, 0.0069318609, -0.0662863553, -0.1336089969, 0.0015509129, 0.0671864450, -0.0469253585, 0.0714870393, 0.0298436917, -0.1960720718, 0.0548397116, -0.0358635075, 0.0532881804, -0.0391688570, 0.0961922333, -0.0661887974, 0.0544902869, -0.1652745008, 0.0194511227, 0.0335365534, -0.1308114529, -0.0489990525, -0.1975162327, -0.1062450558, -0.0240421593, 0.0496332496, -0.0170918480, -0.0575643815, 0.1136533991, -0.0671805739, -0.1336693168, -0.0941000283, 0.0230900515, -0.0250189416, -0.0564575903, -0.1008223891, 0.0508287475, -0.0393220522, 0.0756666809, -0.0349156410, 0.0955830291, 0.1457822323, -0.0328675061, 0.0425411984, 0.0180724952, -0.0932933912, 0.1338796318, -0.0721595213, -0.2382463515, 0.0960902497, 0.1744920611, 0.0512617305, -0.0800392330, -0.0101908296, -0.0014750590, -0.1240326762, 0.0566093735, -0.1161904186, -0.0751800165, -0.0393255129, 0.0208324622, 0.0079828501, 0.0831365287, -0.0959951133, 0.1698927283, -0.0290270746, -0.0276856367, -0.0944522172, 0.2533036172, -0.0498799235, -0.0911562592, 0.0158454217, 0.0028605850, -0.0928826630, 0.0650338605, 0.0394363850, -0.0862352103, 0.0239929650, 0.1090686321, 0.0118490607, -0.0304922685, 0.1158591807, 0.1488162130, 0.0926839486, -0.0363552757, -0.0287362002, -0.0444256291, 0.0473111980, -0.0843428150, -0.0820423886, 0.1135325581, 0.0375688449, 0.0760742053, 0.1423764974, -0.0617045574, -0.0692780763, -0.1537465900, -0.0676380470, -0.0837951079, 0.0054668775, -0.0757665336, -0.0270405896, -0.0125316000, -0.1143120304, -0.0580571927, 0.0236965418, 0.1362939924, 0.0109202974, 0.1491444856, -0.1343356967, 0.1661560833, 0.0233008862, -0.0471320637, -0.1032279283, -0.0083755376, -0.0236637332, 0.0643341616, -0.1370763183, -0.1411406696, -0.0148811247, -0.0493233986, -0.1763341427, -0.0764135122, -0.1838959157, -0.0344270803, 0.0763794631, 0.0783548281, -0.0072708856, -0.0083927670, 0.0756344721, 0.0663873926, -0.1116283238, 0.1079344302, -0.0011619786, -0.0655808300, -0.0868887603, 0.1097202897, -0.1529022157, -0.0114375362, -0.0560888834, -0.0800712407, -0.0086786011, -0.0373062454, 0.0760502890, -0.0465902165, 0.0363309607, -0.0337665416, 0.0201804154, 0.0623805635, -0.0620056093, -0.0325156786, 0.0899274796, -0.0124786505, 0.0526780598, -0.0271084215, 0.0854001641, 0.0242852215, -0.0129420431, -0.0538112782, 0.0743936151, 0.0398801230, -0.0394381545, 0.0012477722, -0.0455938764, 0.0784103125, 0.2094261348, -0.0799493268, -0.0343122482, -0.0120635740, -0.0294625945, 0.0344682708, 0.0223120358, -0.0513501801, -0.0073889317, 0.0587358437, 0.0011825757, -0.0478796959, 0.0871088430, 0.0984585285, 0.0805140063, -0.0670448989, -0.0890920162, -0.0310071595, 0.0392971449, -0.0581764169, -0.0088704135, -0.0322429910, 0.1770144701, 0.0556044243, 0.0261288807, -0.0143074859, 0.0252976380, -0.0806100294, -0.0187924784, -0.0189171638, -0.0196088273, -0.1735058725, -0.0184002873, -0.1927108765, -0.0635131076, -0.0742540509, 0.0484270081, -0.0833495855, 0.0036528539, 0.0601669215, 0.0777442232, -0.0150406742, -0.0846491605, 0.0636638477, -0.0647219643, 0.0426211432, -0.0838268921, 0.0500508286, -0.1861139238, 0.0963285118, -0.1186259240, -0.1291051656, -0.0461087711, -0.0538611524, -0.0033596698, -0.0805770233, 0.0387363881, 0.0745376721, 0.0323832780, 0.0145228980, 0.0477824770, 0.0066925813, -0.0874840543, 0.0304836296, -0.0283922758, 0.0906836912, -0.0498057902, 0.0337768868, 0.0302050486, 0.0212827455, -0.0820423663, 0.0996169448, 0.0580922067, 0.0115917893, -0.0405347273, -0.0129028112, 0.1475239247, -0.0764156058, -0.0764625818, 0.1234480217, -0.0535466485, 0.0742081702, -0.0544489995, -0.0477610193, 0.0167678967, 0.0664478615, -0.0324413478, 0.0292370897, 0.0430109724, -0.0037351737, -0.0130524430, 0.0366170071, 0.0303776655, -0.0046637505, 0.0295106061, 0.0354272388, 0.0443551764, -0.0610925406, 0.0156511758, -0.0313962027, 0.0655152053, 0.0474136509, 0.0153697766, -0.0034382292, -0.0472104028, 0.0536725484, -0.0580100901, 0.1202842593, -0.1152049676, 0.0883656889, 0.0602758043, -0.0322058909, 0.0077261738, -0.1190547869, -0.0758507401, -0.0859185830, 0.0113041308, 0.0989166945, -0.0760393888, -0.0366706625, -0.0153827928, -0.0873859003, 0.0032722978, -0.0598066300, -0.0173084214, -0.0418459550, -0.1670676023, 0.0401333869, -0.0447543375, 0.0937154740, -0.0002499181, 0.1858532727, -0.0435409099, -0.0581245795, -0.1368636191, -0.0542003959, -0.0879803374, -0.0142697813, -0.0295800250, -0.0128065385, -0.0107274717, 0.0079422938, -0.0791424662, 0.0769530982, -0.1268354207, -0.0670816004, -0.1385360509, -0.1024575904, -0.1204512045, -0.0242065638, -0.0199067704, 0.0624121539, -0.0571824163, 0.0195729937, -0.1030291766, 0.0461192168, -0.0862888917, -0.2105600536, -0.0535073802, 0.1845177263, -0.0923243240, -0.0336607136, 0.0273112468, -0.0868017152, -0.0955943391, 0.0061071329, -0.0318310224, -0.1327860355, 0.0677862763, 0.0692540184, -0.0733808801, -0.0011736716, 0.0521709733, 0.0426019020, 0.0234970432, -0.0169951711, -0.1026512310, -0.0285038818, -0.0939730331, 0.0893208683, 0.0211686380, -0.0287550688, -0.0410442948, 0.0560018979, 0.0762524679, 0.0824604705, -0.0588899851, -0.0875250623, -0.0017006190, -0.1129329279, -0.0057849446, 0.0682063252, -0.0890413299, -0.0411609970, 0.0621908829, 0.0827140957, 0.1314010918, 0.0531956628, 0.0997207910, 0.0544765815, 0.0206352659, 0.0833956599, -0.0134796007, 0.0364905447, -0.0862383619, -0.1473718882, -0.0726389140, 0.0054843263, -0.0909927487, -0.0658797994, -0.0716333389, -0.0361637287, -0.2624590695, -0.0262256954, -0.0448831171, -0.0593979210, 0.0731187910, 0.0421292670, -0.0556973182, -0.0555307567, -0.0653107166, 0.0340762027, -0.1076772809, 0.1807089746, 0.0334028266, 0.0033433943, 0.0217886548, -0.0404233411, 0.0202020276, -0.0541157052, -0.0472239740, -0.0730243400, -0.0383547023, -0.0425118245, -0.0830853656, 0.0048033344, -0.0322156921, 0.0101357792, 0.0619707964, -0.0973345116, -0.0663679689, -0.0935619548, -0.0186882224, -0.0603279285, -0.0127670625, 0.0589681417, -0.1919195354, -0.1279494613, -0.0789790750, -0.0324097611, -0.0081418874, 0.0119609311, -0.1396449059, 0.0963829905, -0.0313802063, -0.0745450482, -0.0977145731, -0.0735156760, -0.0138097536, -0.0414330214, -0.0270254277, -0.1074983776, 0.0525965504, 0.1062436700, -0.1181472167, -0.0238842648, -0.0393969491, -0.1879155636, 0.0165565610, -0.1226974055, 0.1166292429, -0.0102765793, -0.0002148082, -0.0287370291, 0.0379391983, 0.2057565153, 0.0277351756, 0.0065783462, -0.1694480479, -0.0067419214, -0.0025847345, -0.0812423453, -0.0282149129, -0.1265206337, -0.0334908254, -0.0651421100, -0.1045690477, -0.0053239968, -0.0982716754, 0.1129835546, -0.1110982373, 0.0335676484, -0.0065565552, -0.1130820289, -0.0834849924, 0.1004282981, 0.0988006070, -0.0751704872, -0.0985734090, -0.0717421323, -0.0691157207, 0.1253071427, -0.0685374364, -0.1340503693, 0.0787909031, -0.0124154836, -0.1118796244, -0.0862511024, 0.0728813186, -0.1028380245, -0.0734735653, 0.0011308716, 0.2286295593, -0.1169862002, 0.0097237453, 0.0285600182, 0.0237654559, -0.0826710463, -0.0026625451, 0.0597888157, 0.0779790580, -0.0043928968, -0.0282099880, 0.2462980002, 0.0029437693, -0.0344769470, 0.0937833861, -0.0338475965, -0.0269628540, -0.0305038504, -0.1061296239, 0.0219580140, -0.0356910899, 0.0027169362, -0.1247514114, 0.0216134619, -0.0638848916, -0.1741409302, 0.0100775892, -0.0051786164, 0.0044268756, -0.0139986947, -0.1776131094, 0.0070378943, -0.1860402375, -0.1330833733, -0.0504634641, 0.0137969274, 0.0058201151, -0.0882665738, 0.0298810545, -0.0078781480, 0.1267072111, -0.1926277727, 0.0103643117, -0.0397772640, 0.1487127990, 0.1071780846, 0.1453877538, 0.0051520481, -0.0510093197, -0.1658882946, 0.0699228719, 0.0279571954, -0.0908987299, 0.1677044481, 0.0343801565, 0.0155198714, 0.0812930986, 0.2197110504, 0.0466298722, 0.0503484793, -0.0606436469, 0.1332048476, -0.0984654725, -0.0513681062, 0.0077477242, -0.0737980828, 0.1341048032, -0.0879762843, 0.1141128168, 0.1742822379, -0.1121125221, 0.1041410193, -0.0108169951, 0.0976423472, 0.0340348072, 0.2015926987, 0.0235066600, 0.0305572469, 0.0391268581, 0.1975223422, 0.0125503065, 0.0047975378, -0.0466338918, 0.0965174660, 0.0278677586, -0.1783463061, 0.1307242662, 0.0171961952, 0.0736584067, 0.0237215776, -0.0235840604, 0.1455136389, 0.1400967240, 0.0710578337, -0.0549888462, 0.1441554576, 0.0090615135, -0.0245781019, -0.0396376513, -0.1489647776, -0.0555252805, 0.0333200358, -0.0062102629, 0.0421455763, -0.0089124907, 0.0723432004, 0.0443726406, -0.0237090681, -0.0799815506, -0.1626533270, 0.0034693817, 0.0981201977, 0.1468637735, -0.0010178986, 0.0283900313, 0.1487988830, -0.1009080783, 0.0630182028, 0.1797358990, 0.1039475426, -0.0603660084, 0.0893107876, -0.0123799797, 0.1634260118, 0.1520456672, 0.0534738190, 0.0707264915, 0.1085943282, 0.1830726713, 0.0335568562, 0.0338406414, 0.1538726836, -0.0359107591, -0.1153978854, 0.1244494468, -0.0064914073, 0.0097473953, 0.0866958052, 0.0290330406, 0.1447968930, 0.0775454789, -0.0022519501, 0.2688981593, 0.0113453893, 0.0315174386, -0.1798245013, 0.1111498475, 0.0149284098, 0.1662460119, 0.0484681837, -0.0499324501, 0.0854296312, 0.0199390762, -0.1879610717, 0.0032820860, 0.0815467611, -0.0119574778, 0.1149007306, -0.1022922993, 0.0036741931, -0.0447881781, 0.0265438110, 0.0579730384, -0.0072592674, 0.0578681231, 0.1058560833, -0.0670091212, -0.1966466904, 0.1247062162, -0.1012143716, 0.1135909557, 0.0260636471, 0.1252896339, 0.1845387667, 0.1192448065, 0.0009453077, 0.1517970264, 0.0913147032, -0.0832686424, -0.0510403477, -0.0350618623, -0.0018958203, -0.0423890352, 0.0242817253, -0.0702234581, -0.0419036485, -0.0618969612, 0.0809046477, -0.0669608265, -0.0697863400, -0.0051033790, 0.0603015535, 0.0574273840, 0.0439341404, -0.0442997888, 0.0699442849, -0.0799606293, 0.1352683902, -0.0491370521, 0.0105748810, 0.0662950799, 0.0005506803, -0.0107636284, 0.0501487851, -0.0525886901, 0.0208148137, 0.1148161963, -0.1136533320, -0.0804278255, 0.0187951848, -0.0006725948, 0.0361567996, -0.0158497859, -0.0352452882, 0.0095048016, 0.0357535146, 0.0414352827, 0.1435073167, 0.0159096308, 0.0387112647, -0.0819819346, -0.0255406573, 0.0757481307, -0.0465540737, 0.0578433685, -0.1366813034, 0.0018479859, -0.0037895560, 0.0697394162, -0.1160101965, -0.0144744888, 0.0975756049, 0.0528711826, -0.0337696113, -0.1311495304, 0.0510560311, -0.0680907965, 0.0592850149, -0.0965163559, -0.0003889450, 0.0935185850, -0.1089699119, -0.0244074538, 0.0204488505, -0.0625197440, 0.0496478006, -0.0091829635, -0.0381385311, -0.0135870893, -0.0451765582, 0.0128087346, -0.0702610463, 0.0186470598, -0.1131499484, -0.0472006425, -0.0335749350, 0.1580162495, 0.0302791446, 0.0367336050, -0.0578049272, -0.0035514331, 0.0504008420, -0.0268131010, 0.0720905215, -0.0336820409, -0.1049102023, 0.0225465037, -0.0343636759, 0.0193712059, 0.0922425240, 0.0479175150, 0.0322173908, -0.0668877885, -0.0488957018, -0.0256124381, 0.0360660851, -0.0210998207, 0.0444951952, -0.0587038584, 0.0387277827, -0.0169205684, 0.0060021146, 0.0338437557, 0.0163331758, 0.0480882935, 0.0233934484, -0.0272116773, -0.0724133998, -0.0938560367, 0.1581626683, -0.1091911271, 0.0428840667, -0.0802482665, 0.0013388505, -0.0760591626, 0.0443102084, -0.0495578200, -0.0532631092, -0.0453050844, 0.0245377421, 0.0253795069, 0.0019074625, 0.1119233891, 0.0925958753, -0.0091350768, 0.0020459241, -0.0218770392, 0.1235533729, -0.0702457801, -0.0436339229, 0.0594552010, 0.0210266579, 0.0362017266, 0.0805743560, -0.0426948555, 0.0718215778, -0.0688354596, 0.0085389866, 0.0339018553, -0.1035726219, -0.1557263732, -0.0643588603, 0.1477734596, -0.0179544818, 0.0543181077, 0.0137988711, -0.0670419931, -0.0474648140, -0.0884133503, 0.1049489379, 0.0378442258, 0.2847767472, 0.0593459457, 0.0592791177, -0.0209141821, 0.0514263734, 0.0646686703, 0.1661012918, -0.0301273223, 0.0000900274, 0.1418111324, -0.1536391973, 0.0511105955, 0.1111854613, 0.0547558516, 0.0183295235, 0.0167675093, -0.0125913145, 0.0084011275, 0.0378398746, -0.1212522313, 0.1670659184, -0.0085132131, 0.1165317222, 0.0643371642, 0.0639143437, 0.0158338472, -0.0202181488, -0.1279073507, 0.0020029466, -0.0009707318, -0.0731097460, 0.0027122882, 0.1321198940, 0.0301375557, -0.2088260055, -0.0191409830, -0.0523981005, 0.1593643278, 0.0997586101, -0.0419505611, 0.1317535043, 0.0434028395, -0.0833720416, 0.0053779231, -0.0950289816, -0.0319425426, -0.0877188146, -0.0789561644, 0.0249748416, 0.0622647703, -0.0291730501, 0.0004557830, 0.0211697314, 0.1169145405, -0.0157485455, 0.0036112536, 0.0684198663, 0.0151353125, -0.0359895490, 0.1468560845, -0.0871657804, -0.0183804948, 0.0728056431, -0.0480248258, 0.2189068347, 0.1321598887, -0.1206201315, 0.1910437346, -0.1299650669, -0.0215216577, -0.0271438863, 0.0537448451, 0.0414246842, -0.0551378876, 0.0195625611, -0.0711321980, 0.1143407896, 0.0409569629, -0.1569232643, 0.0417119227, 0.1213751957, 0.0142798154, 0.0259293877, 0.0055986438, 0.1396348923, -0.0915861279, 0.0373861752, 0.0063307602, 0.0246859509, 0.0464801900, 0.1030902937, 0.0206522401, -0.0588043518, 0.0412340611, 0.0468358956, 0.1197128966, 0.0153405229, 0.0399855673, 0.1712010205, 0.0295243654, 0.0377912410, 0.1435526311, -0.0125161596, 0.1751480401, 0.0554220788, -0.0073776580, 0.0754659697, 0.0111227464, 0.1900759190, 0.0106007615, -0.0740771592, -0.1096083820, -0.1415427029, -0.0596839450, -0.0729309469, -0.0622669533, -0.0491261967, 0.1811829954, -0.0849429145, 0.0330977924, -0.2467778325, -0.2029870749, 0.0201682765, 0.0314679220, 0.1862425804, -0.0191358794, 0.0215591416, -0.1603002399, 0.0350721478, -0.1010046452, -0.0096614072, 0.1149244308, -0.0162334144, -0.0885737240, 0.0046218368, 0.2410017997, -0.1197598726, -0.0465645492, 0.0083295526, -0.0110297250, 0.0097974418, -0.0155207552, 0.0567980073, 0.0260409862, -0.0998403430, 0.0985526517, -0.0117838830, -0.0210615154, 0.1511183828, -0.0542677008, 0.0018449592, -0.0880913064, 0.0242711082, -0.1351184994, 0.0804264545, 0.0964418352, -0.0316073596, -0.1505021453, -0.0702900812, -0.0570471957, -0.0021643385, -0.0521563403, 0.0176168848, 0.0020687608, -0.0482028760, 0.0194384642, -0.0243970063, -0.0730157569, -0.1014136970, 0.0106638474, 0.0394955650, -0.0394643210, -0.1145133972, 0.1193800867, -0.1063120589, -0.0286957286, 0.0229092557, -0.0170355961, -0.0537897907, 0.0476641431, -0.0957665890, 0.0947552994, 0.0324353985, 0.0774042904, -0.0972869024, -0.0418506861, 0.1107089818, -0.0053326660, -0.0218986087, -0.0675560012, -0.0194504783, -0.0297960658, -0.0698745549, -0.1622510850, -0.0107033309, -0.0380771756, 0.0183848850, -0.0578349754, 0.0731031522, -0.0417154394, 0.0146412477, -0.0572952516, -0.0723439679, -0.1062279493, 0.0892021880, -0.2522899806, -0.0398760475, 0.0313943103, -0.0431316160, -0.0904099271, -0.1616674364, -0.1502127498, -0.1175889447, 0.0784493387, -0.0455700792, -0.1008104011, -0.0611545593, 0.0765701756, -0.1364728510, 0.0116181504, -0.0087055601, 0.1531918645, 0.0205169693, 0.0006209226, -0.1422378123, 0.1133634672, -0.0573307835, 0.0102502741, 0.0573612861, -0.0087144161, -0.0612455793, 0.0504520908, -0.0995351225, -0.1308435500, 0.0489363223, -0.0912362561, 0.0047201067, -0.1317065507, 0.1318189651, 0.0490139052, -0.1271784604, -0.0874095038, 0.0449981503, -0.0524928048, -0.0566510148, -0.0180536993, -0.0651480183, 0.0208486971, -0.2564669549, 0.0570459962, 0.0983738974, -0.0222181715, 0.1747563928, 0.1190271899, 0.0436002240, 0.0073295473, -0.1289646626, -0.1613453627, 0.0478370525, -0.0650175884, -0.0631237924, -0.0146583989, -0.0564699396, 0.1429723799, 0.0146981804, -0.2548127472, -0.0079934681, -0.0290197153, 0.0432236046, 0.0164289754, 0.0910462365, -0.0369009897, 0.0861756355, -0.0446739122, -0.0697629079, 0.0379889086, 0.0090193721, -0.0386389717, 0.0410266444, -0.0065287086, 0.1407183409, -0.1449954510, -0.0038274534, 0.0342191942, -0.0533274077, -0.0909687206, -0.0547244437, -0.0296182577, 0.0234232415, -0.0121936835, 0.0172860865, -0.0509120338, 0.0440225042, 0.0465324894, -0.1348171979, -0.0126721459, 0.0788876638, -0.1548719108, -0.0153431818, -0.1138244569, 0.1249441803, -0.0326146595, -0.0081324186, 0.1200096533, 0.0494670346, 0.0193004683, 0.0443592928, 0.0190079268, -0.1577342153, 0.1172530502, 0.0423522592, -0.0825520903, 0.0704888776, 0.1676405221, 0.1573643237, -0.0469914824, -0.0833898261, 0.1006850228, -0.0998219624, 0.1633261740, -0.1275935322, -0.2139475346, -0.2223271281, 0.0474235937, 0.0884065405, 0.0830001011, 0.1447617412, 0.0337940343, 0.0528391860, 0.2034930140, 0.0639142320, -0.1370610893, 0.0231011305, 0.0106310472, -0.2483252287, -0.1346859634, 0.0511023104, -0.0773676932, 0.0050995005, 0.1108947322, 0.0289634559, -0.0657818094, -0.0640676990, -0.0250375923, 0.1048747078, -0.0110775512, 0.0822487995, 0.0900461525, -0.2341070920, 0.1557605416, 0.0074745477, 0.0608177371, -0.0484431237, 0.0115607148, -0.0390994400, -0.0169116817, 0.0645230561, 0.0295872334, -0.0174728334, 0.0111274784, -0.0002993727, 0.0653811172, -0.0164203439, -0.0874984860, 0.0883576572, 0.1427685916, -0.0957655683, 0.0312548019, 0.0975072607, -0.0523321778, 0.1456842571, 0.0134802656, -0.0041159848, -0.0607716441, 0.0261983778, -0.0114918891, 0.0375199094, -0.0337046720, -0.0642658323, 0.0810636431, -0.0921622142, 0.0679818541, 0.0205891710, 0.0361873433, -0.0336630531, -0.1040723920, 0.0222138464, 0.0310418401, -0.1347468942, -0.0205805581, -0.0356326066, -0.0951018259, 0.0251112338, 0.0599207208, -0.0373478420, -0.0020260699, 0.0117808031, 0.0293637961, 0.0039789081, -0.0123148980, 0.0161187258, 0.0227890257, -0.0490059294, 0.0813048184, -0.0228517689, 0.0236140713, 0.0719714463, 0.0277526323, 0.0344741195, 0.0494797938, -0.0008456473, -0.0064372420, 0.1094490886, -0.0588809997, 0.0246647242, 0.0693076476, -0.0036608574, -0.0465299152, -0.0321868919, 0.0623807758, 0.0371676460, 0.0927439332, -0.0711787194, 0.0001358084, -0.0749499351, 0.0397765450, 0.0706909075, 0.0716830716, 0.0170722865, -0.0269919615, 0.0933012068, 0.0126907425, -0.0300612282, 0.0827594250, 0.0980414301, 0.0699103102, -0.0381542221, 0.0050998139, -0.0070993286, 0.0282135252, -0.0351126082, -0.0053993105, 0.0282048490, 0.1153057441, -0.0559135973, -0.0594419688, -0.0895570293, -0.0089478688, 0.0631191656, 0.0979458466, 0.0457054563, -0.0143641494, 0.0285576507, -0.0054927785, 0.0761053339, 0.1924767792, -0.0763757974, -0.0642686337, -0.0035217893, -0.0039270883, 0.0287162978, 0.0250718985, -0.0442302860, -0.1439595670, -0.0149169676, -0.0495064072, 0.0503660627, -0.1299377084, -0.1177291647, -0.0965192020, -0.0344493948, 0.1282221675, 0.0639929622, 0.0365650579, 0.0327768698, -0.0440391414, 0.0543801077, -0.0199996457, -0.0965295136, -0.0074521434, 0.0320842825, 0.0189753454, -0.0291703716, -0.0132039124, -0.0480361506, -0.0350943655, -0.0227125194, 0.0593832247, -0.0238596089, -0.0713461637, 0.0910042301, -0.0842244923, 0.1310359389, -0.0877468958, 0.1207144186, -0.0273351725, -0.0003068560, -0.0960366726, 0.0020696998, 0.1376385093, -0.0473013707, 0.1133662239, -0.0272118486, 0.0129599255, -0.1810608357, -0.0242802128, 0.1945361197, -0.0128757078, -0.0013150125, 0.0550044142, 0.0509830862, 0.0435295627, 0.0020132712, -0.0406833068, 0.0070736520, 0.0756765231, -0.0265594851, 0.0879449099, 0.0145403789, 0.2702736855, 0.0042929086, -0.0199763328, -0.1536680460, 0.0314676762, -0.0239962824, 0.0654319972, 0.0120028425, -0.0160763003, 0.0185212996, -0.0354171209, -0.0807232708, 0.0931542590, -0.0777434260, -0.0455244519, -0.0051034493, -0.0568663590, 0.1258407086, -0.1172608063, 0.1076595709, -0.0234327540, -0.0415120795, -0.1359765828, -0.0721745938, -0.0370125212, 0.0394353680, 0.0222165752, 0.1194539219, 0.1146559268, 0.0202566013, 0.0697700679, 0.0616718903, 0.0259977728, 0.0005854289, 0.1696393788, -0.0439673476, -0.0845502913, 0.0380475819, 0.1662909240, -0.0170229562, -0.0634563863, -0.1375294030, -0.1799512804, -0.0477100499, -0.0721356869, -0.1988370866, 0.0323006958, 0.0376458727, -0.0085272780, -0.0137501415, 0.0228370447, 0.0931706876, 0.0502517074, 0.0508830771, 0.0627912804, 0.0280163884, 0.0318000391, -0.1042651013, -0.0845273659, 0.0032291580, -0.0869477242, 0.0122709321, -0.1386983246, -0.0074943271, 0.0633467063, 0.0585929528, 0.2492928654, 0.0096470751, -0.0367129371, -0.0161712579, 0.0337589011, -0.0985288844, -0.0300977845, -0.0180872530, 0.0377474204, -0.0642546639, 0.0700910911, -0.0334677212, -0.0278077591, 0.0053679822, 0.0426532328, 0.1247893572, -0.0361556336, 0.1391861737, -0.0622196905, -0.0062652999, -0.0229761414, 0.0425455756, 0.0461815633, 0.1781921834, 0.0555803776, -0.0086207008, 0.0078827608, 0.0698669925, 0.1207358763, 0.0188243650, 0.0179590452, 0.0373634435, -0.1178957745, 0.0392623246, -0.0123395547, 0.0382355973, 0.0521553382, -0.3439039588, 0.0937600061, -0.1234200522, -0.0204902794, 0.0533126406, -0.0093597872, -0.1123440489, -0.1759119928, -0.0643448904, -0.0081898207, 0.0109124798, 0.0475356467, -0.0749168992, 0.0786687955, -0.0478304811, -0.0664105937, -0.0338891670, -0.0995483473, 0.0787936375, -0.0454970375, -0.1928552687, 0.0745042339, 0.0589406937, 0.0850985125, -0.0859059244, 0.0206926484, 0.0860552937, -0.0099478727, 0.0879318044, -0.0957073718, 0.1071411297, 0.0718718246, 0.0244771764, -0.0576074012, 0.1474838853, -0.0345618017, -0.0088756215, 0.0080506345, 0.0913540572, -0.0426115468, 0.3820858002, 0.0196066927, 0.0567404665, -0.0819099694, -0.1714847535, 0.0439558923, 0.0786872581, 0.0480343848, 0.0611656271, -0.0689549297, 0.1979840100, -0.0322726667, -0.0654681101, -0.2932381332, -0.0818375126, 0.1636183560, -0.0703477263, 0.1174606457, -0.0876926780, -0.0920634642, -0.0337226614, -0.0053926208, -0.0312100109, -0.0845775083, -0.1856183857, 0.0632860512, -0.0377634875, 0.0145874303, 0.0196050592, 0.0423964150, -0.1499175578, -0.0975690410, -0.2042998224, -0.1868823022, 0.1212572306, 0.0633678809, -0.1188172698, -0.0993191823, -0.0533874482, 0.2142372727, 0.1155335009, 0.0217972919, -0.0768432915, -0.2061495483, -0.1413395256, 0.0899105221, -0.0534234159, 0.0917176679, -0.0310432445, 0.0302930381, 0.1028223485, -0.0397088043, 0.1381686628, 0.0010343196, -0.1211557016, -0.1734839231, 0.0788879767, -0.0154469488, 0.0799083337, -0.1575443596, -0.0808914974, -0.1377665848, 0.0097416025, 0.0048427442, -0.0538896583, 0.0218796358, 0.0177562889, 0.0437795892, -0.0783103183, 0.0772730708, -0.0167540796, -0.0594697669, 0.1450884044, -0.1083336994, -0.1165948957, 0.1699823737, 0.0167710632, 0.0239165165, 0.0449074544, 0.0548430420, 0.0814275369, 0.0132823568, -0.0094760675, -0.0765557289, 0.0730882362, 0.0171697661, -0.1142990589, 0.0445896424, 0.1210350171, 0.1563430279, -0.0200077817, 0.0629177094, 0.1034161299, 0.0007396355, -0.1429587901, 0.1550760418, 0.0412809029, 0.1198730320, 0.1466806978, 0.0678469241, -0.2601912320, 0.0078847958, 0.1085935310, 0.0353455879, -0.0913526639, 0.0274367575, -0.1492899805, -0.0194393806, 0.0853532106, 0.1804347634, 0.1572667509, 0.1492688954, -0.1451557428, -0.0456494242, 0.0624155402, -0.0943906233, 0.0647766590, -0.0618968681, 0.1016624197, 0.0611483827, 0.0114162713, 0.0423033535, 0.1053088233, 0.0153443329, 0.0702689514, -0.0058570253, 0.1367083937, -0.0661056787, 0.2029612064, -0.0524211153, 0.0862420350, 0.0433272719, -0.1379982829, 0.0501485281, -0.0099662971, 0.1934436858, 0.0860604718, -0.1753256172, 0.2319553345, -0.2901470065, 0.0550711118, -0.2165033668, -0.0991504192, 0.1157923490, -0.0698628426, 0.0562459715, 0.1582413763, -0.0301078502, -0.0755471364, -0.0344299898, -0.0201961976, -0.0261338633, -0.1157651469, 0.1941663325, -0.0286942217, 0.0081745144, 0.0140363621, -0.0459359065, -0.1614325047, -0.1414747089, 0.1347490251, -0.0329835787, -0.0076141632, 0.0824049413, -0.0588011146, -0.0819788277, 0.0131277004, 0.3349067569, 0.1116053015, 0.0829287395, -0.1829427481, -0.2077910453, 0.0122704096, 0.0334913209, 0.1107610911, 0.2372676730, -0.1337810755, 0.0869494155, 0.0372503325, 0.0065049166, 0.1397229731, 0.0785121471, 0.0338382907, -0.0598227531, 0.0213126671, -0.0246479772, 0.0520541519, -0.0271985643, 0.0604575165, -0.0239192843, 0.0982391760, -0.0897300765, 0.2173265517, 0.0603951402, 0.0661384761, 0.0217840169, 0.0435509495, 0.0676991567, -0.1147571951, 0.1158767566, -0.0142684812, -0.0080218166, 0.0568651184, 0.1427008212, 0.0037287301, -0.0048791650, -0.0451689027, -0.0154727753, 0.0366402492, -0.1786700785, -0.2181286365, 0.1438908428, -0.0816584304, -0.1626349092, -0.1060253456, 0.0703969002, -0.0743997246, 0.1428030282, 0.0533514395, 0.0207503848, -0.1131246611, 0.0298459306, -0.0151156690, -0.0921625271, 0.0421817936, 0.0180433709, -0.0595597066, -0.0279590115, 0.0314721279, 0.1591640413, 0.0066004656, -0.0323544033, 0.0684785768, 0.0415699817, 0.0079257796, 0.1074395478, 0.0446595810, 0.0229119007, -0.1523038745, -0.0108145326, 0.1778577268, 0.0392213054, -0.0408223830, 0.0758044571, 0.1138462797, -0.0617114082, 0.0659288242, -0.1190503314, 0.0614096075, 0.0282308534, 0.0008901837, -0.1338293403, -0.0061658500, -0.0068121795, 0.0233930182, -0.0489634722, 0.0442766882, 0.1212255061, -0.0044710091, -0.0202551484, -0.0727161393, 0.0078210505, 0.0013366439, -0.1734320372, -0.0852750018, 0.0765605196, 0.0918825194, -0.1417159140, 0.0285762120, -0.0054789749, -0.0878856331, -0.0642533302, -0.1232012212, 0.0057387785, 0.0251424685, 0.1301917136, -0.0160891488, -0.0077572013, 0.1082483307, -0.0684138611, -0.0218932517, -0.0735877454, -0.0270276908, -0.0738640726, -0.0523958281, 0.0913280174, 0.0873309374, -0.0780627355, -0.0538193062, 0.1449624747, -0.0094685107, -0.0382190458, 0.1225466728, 0.0677725971, -0.0512409545, 0.0299333986, 0.0697943866, 0.0315479860, -0.0282797050, -0.1058209389, -0.1736780852, 0.0506140292, -0.0529581942, 0.1245140210, -0.0439054556, -0.0605661310, 0.0402053855, -0.0901510641, 0.1189506203, -0.0851157308, -0.1247660592, 0.0785492212, 0.1828133911, -0.1241759062, 0.0595905632, 0.0333167203, 0.0765738413, -0.0048958762, 0.1043750867, 0.1190229654, 0.0531015992, -0.0747630522, 0.1049757302, 0.0086539611, -0.0248243697, 0.0079749487, -0.0806349367, -0.0475599095, -0.0112848906, 0.0987510160, -0.0514683947, 0.0712063238, -0.0342071280, 0.0626742169, 0.0355533771, 0.0826298669, -0.0370844938, 0.0054221624, 0.0257935543, -0.0688805878, -0.0091901291, -0.0229592584, -0.0801087990, 0.0600772426, 0.0552223697, -0.0195435844, -0.0543050207, 0.0844871923, 0.0690595433, 0.0392538458, -0.1189814359, 0.0328926221, 0.0017035268, -0.0906479284, 0.1686587632, 0.0626906380, -0.1427587420, 0.0694074631, -0.0505535901, 0.0244618729, 0.0013886952, 0.0967577398, -0.1846671551, 0.0629462525, -0.0179522559, 0.0776915103, 0.0444615632, -0.0387610830, -0.0469549298, 0.0548681431, -0.0149261495, 0.0336579047, 0.1151741147, 0.0310915913, 0.2101270705, 0.0052662683, 0.0278778225, 0.0574746840, -0.0495512970, -0.0562618040, -0.0038294720, -0.0119660590, -0.0981367603, -0.0841073096, -0.0747904554, 0.1106559783, 0.0057506678, 0.1243384406, -0.1860877872, 0.0938877016, -0.0601660646, 0.1033915058, -0.0363866575, -0.1102203131, 0.2321367860, -0.0589159168, 0.0048138620, -0.2113240510, -0.1847192198, 0.0283813085, -0.1922963858, -0.0834113359, 0.0299059395, -0.0779010206, -0.0759868771, -0.1470458657, -0.0103864316, -0.0194191337, -0.1144750044, 0.0217544287, -0.1139184311, -0.0318001620, -0.0344555862, -0.0778799206, -0.1252668947, 0.0706533343, 0.0202180017, 0.0572456717, -0.1182875708, -0.0388483927, 0.0023627628, -0.0035057575, -0.0052910624, 0.3380063176, 0.1895156801, -0.0248335470, -0.1611679345, -0.1975896657, -0.0435617305, 0.0145303281, 0.0382614657, 0.0554880835, -0.1843764335, 0.1332206279, -0.0016434017, 0.0162928179, 0.1065867692, 0.0492977127, -0.0038679650, 0.0414611362, -0.1002233848, -0.0979130417, -0.0192830060, -0.1241768375, 0.0555326119, 0.0436551385, 0.0619991124, 0.0110752499, -0.0388253592, 0.0314644016, -0.0974462107, 0.0732597858, -0.0947463140, 0.0022237622, 0.0166668892, 0.0539941490, 0.1010663956, 0.0713622794, 0.0021453954, 0.0991378427, -0.0395881459, -0.0467270650, -0.0318679325, 0.0261776820, -0.0367753990, -0.0628720820, -0.0001683232, 0.0511145741, -0.0104853921, -0.0445152111, -0.1594364941, -0.2476297617, -0.2214915454, 0.0241859183, -0.1996429265, -0.0106102368, -0.0193889868, -0.0881733820, -0.0351307839, -0.0550425276, -0.1224451736, -0.0631742552, -0.1175736934, -0.1746468395, -0.0607289523, -0.1101774573, -0.0086352713, -0.1022529155, -0.0560061783, -0.1026787609, -0.2679879665, -0.0290173367, 0.0475359671, -0.1111408323, -0.0191231929, -0.0942774117, -0.0632587373, -0.0679230765, -0.0133993616, -0.1430130601, 0.0077531529, -0.2234036773, -0.0930234417, -0.0016728663, -0.0745162442, -0.0736753121, 0.0172970053, -0.0696990788, -0.1208108887, -0.1020321399, -0.0582950264, 0.0381561853, -0.1982940435, -0.1299069971, 0.0868426263, -0.0966989920, 0.0060733845, -0.1327816397, -0.0253874958, 0.0181708001, 0.0563689247, -0.0404050574, -0.0020089846, -0.1989405006, 0.0104211671, -0.0716155767, -0.0728204027, -0.0486172065, -0.1003332138, -0.1396259218, -0.0692794323, -0.1708896309, 0.2927374840, -0.0373901166, -0.0338447914, -0.1076203063, -0.0354639664, 0.1039659753, -0.1634808332, -0.0976870954, -0.0404356718, -0.1366717517, -0.1139832661, -0.1230527833, -0.1758994013, -0.2980911732, -0.1547874063, -0.2268961817, -0.1731022149, -0.0866373181, -0.3703878820, -0.0927867144, -0.0954863504, -0.2529298663, -0.0918312445, -0.1804746985, 0.0246562678, -0.0970055982, 0.0048212665, -0.2950551808, -0.0949662924, -0.1915369183, -0.1589761227, -0.0656292140, -0.1149378344, -0.0264567863, -0.0145069901, -0.0756087303, -0.0328669623, -0.0948712751, -0.1051057577, -0.1056935489, 0.0506689698, 0.0074390573, -0.1601434350, -0.0281402692, -0.0148356250, -0.1180984825, -0.1782295555, 0.0807736814, -0.2074406594, -0.0782349780, -0.1653509587, -0.1403041631, -0.0061983261, -0.0503483489, -0.1175940186, -0.2540633976, -0.0664046258, -0.2506860793, -0.0411895290, 0.0770653114, -0.1356635392, 0.2350022197, 0.0728863776, -0.0118264621, -0.0610309392, 0.1337211579, 0.0848506987, 0.0502069704, 0.1739091128, 0.1284738928, 0.0053052166, -0.0467286855, 0.0944526866, -0.0345985591, 0.0900559425, 0.2274708301, 0.0880198106, 0.1284085810, 0.0111596165, 0.1535288095, 0.0094054090, -0.0099387541, 0.1182483733, 0.0150193553, 0.0165260099, 0.0892964303, 0.0353412889, 0.0446762629, 0.0951384678, -0.0075867125, 0.0326534547, 0.1674199402, 0.0975408852, -0.0181011334, 0.1121117771, 0.1128840968, 0.0980907083, -0.0717682689, 0.1478000134, 0.0505404845, 0.0885529965, 0.0423156954, 0.1138266474, 0.1317739338, -0.0556438006, -0.0583211891, 0.0854007080, 0.0424250849, 0.1976177096, 0.0760814771, 0.2228987664, 0.0652630776, 0.0897323117, 0.1376729906, 0.0551285259, 0.1266313940, 0.0448792987, 0.0595930554, 0.0202298071, 0.0799833909, 0.1468892246, -0.0644334480, -0.0311439410, 0.1795033067, -0.0833492354, 0.0338571519, 0.1369734854, 0.0687072575, 0.1231440753, 0.1034333855, 0.3029336333, 0.0956920162, 0.0946739689, 0.0540808998, 0.2733306885, 0.1142188907, 0.1738815904, 0.0079437308, -0.0886981711, 0.2349764407, 0.1646466404, 0.1860727519, 0.1671461910, 0.0988139659, -0.0300519727, 0.0132793011, 0.0870905742, 0.1108541936, 0.1256365180, -0.0168512799, -0.0610102117, 0.2010326385, 0.0813531578, 0.0342140049, 0.1886830181, 0.0800937861, -0.0977585912, 0.0073881485, -0.1673056781, 0.0775549188, 0.0352714323, 0.0230820179, 0.1795002222, -0.0404813439, 0.0431443118, 0.0757834837, 0.1439697444, -0.0748538822, 0.1237766966, 0.1016735807, 0.0856080800, 0.1234719828, 0.1308556795, 0.0150871789, -0.0726347268, 0.0273615234, 0.0357593857, 0.0876617506, 0.0606438555, 0.0181031320, 0.0811513811, 0.0776873454, 0.0212300159, -0.1319090575, 0.0599760301, -0.1081530005, 0.0443300121, 0.1408652365, 0.1821631789, 0.0679062381, -0.0717952251, -0.0333006904, -0.0347389169, -0.0089874594, -0.1028442830, -0.0036939839, 0.0230088830, 0.0902941376, -0.0343657658, 0.0869278312, 0.0030271483, -0.0255175103, 0.0018983599, 0.0380398817, 0.0485443212, -0.0242295358, -0.0352775194, -0.1148325279, -0.0779229626, -0.0017527001, -0.0429530889, 0.0029057891, 0.1166753024, 0.0603216812, -0.0356417634, -0.0432281680, 0.0036650351, -0.0000994057, -0.0339934304, -0.0988651589, -0.0424108170, 0.0892049223, -0.0484130867, 0.0542586111, -0.0078657521, -0.1603679210, -0.0556240194, -0.0110167041, -0.0211006999, 0.0451424271, -0.0602416843, 0.0032745898, 0.0080318768, 0.0650717840, -0.0297978260, -0.0040220087, -0.0014108224, 0.0795331374, 0.0142185874, -0.0541464463, 0.0138296951, -0.1396584362, 0.0226762276, 0.0094399657, -0.0536058806, 0.0118110217, -0.0142947203, 0.0836703926, -0.0396465436, 0.0911123753, -0.0243193079, -0.0692131445, -0.0629943684, 0.0323669836, 0.0619236715, -0.0358414352, -0.0278701298, -0.0077059260, -0.0506986640, -0.0168670509, -0.0527251661, -0.1054681838, -0.0012556899, 0.0454056785, -0.0056326878, 0.0375178270, 0.1632150859, 0.0147278300, 0.0283571016, -0.0017397299, -0.0111070732, 0.0178093370, 0.0604502708, 0.0370784141, 0.0279041957, 0.0131115587, -0.0329646282, 0.0428498611, 0.0151434196, -0.0075737420, 0.0255499557, -0.0136825256, -0.0943668187, -0.0700039342, -0.0041269320, 0.0072867265, -0.0130494703, -0.0321649499, 0.0333415605, 0.0718389750, 0.0075989803, 0.0681891441, 0.0730272233, -0.0334831253, -0.0688956156, -0.0749621391, 0.0113768149, 0.0991579592, 0.0333752520, -0.0134593090, 0.0398945175, -0.0803033113, -0.0672494695, 0.1483406425, 0.0249235798, -0.0000647246, 0.0338682644, 0.0651728958, 0.0624646023, -0.0545860007, -0.0424985290, -0.0862694383, -0.0568358190, 0.0536770374, -0.0813718140, -0.0415651724, 0.0887251422, -0.0067489943, -0.1496701092, 0.0718639791, -0.0147412075, 0.0042380923, 0.1313991994, -0.0478047952, 0.0796083957, 0.0154814394, -0.0784897879, -0.0678119212, 0.0116283754, 0.0458192118, 0.0567338243, 0.0949228406, 0.0536263920, 0.0195966400, 0.0494524688, 0.0904842168, -0.1346591562, -0.1366709024, -0.0672234744, 0.0458075628, -0.0127347559, 0.0018280912, -0.1759309322, 0.0404444337, 0.0261980388, -0.0164916944, -0.0807410032, 0.0290543530, -0.0862670690, -0.1548094302, -0.0539310127, 0.0470724627, 0.0773259699, 0.0072031128, 0.0412299633, -0.0453594550, -0.0425458588, -0.0937403366, 0.0140252076, 0.0671001077, -0.0273339525, 0.0485855788, 0.1088321954, 0.0225321855, 0.0212437678, 0.0071899584, 0.1069844291, -0.0583166666, 0.0317255072, 0.0858565494, 0.0768178254, 0.0919933990, -0.0726098567, -0.0435697287, -0.1842942536, 0.0964244381, 0.1091071740, 0.0143688051, -0.0937282518, 0.0453243293, -0.1570776850, -0.1348371655, -0.0295925699, -0.0124350982, 0.1084633991, -0.0401190035, 0.1589946002, 0.1148490012, 0.0154400235, 0.0375331938, 0.0642604530, 0.1013736799, 0.0736859739, -0.0076614278, -0.1516634822, -0.0824025646, 0.0381646343, -0.0133685051, -0.0401128307, -0.0254474804, -0.0563537888, -0.0853734016, 0.0087697394, 0.0059469375, -0.0523327328, 0.1362745613, -0.2301652580, 0.0768998414, 0.0604525506, 0.0758897364, 0.0326396935, 0.0748080239, -0.1259188503, -0.0086541474, -0.2354723811, 0.1222482398, -0.0521241575, -0.0087210862, 0.1286203712, -0.0336354263, -0.0247183144, 0.0880234689, -0.0064739408, -0.0313975774, -0.0186636355, 0.0574948080, -0.0078294175, 0.0158372503, -0.0192708708, 0.0719447732, -0.1185350493, 0.0975896567, -0.0049149208, 0.0835601836, 0.0012714025, -0.0186158009, 0.0916671008, 0.1653057784, -0.1130681187, -0.0664837360, 0.0547163934, -0.2542425394, -0.0221002270, 0.0399967432, -0.0256583486, 0.0550503731, -0.0542962104, -0.0924942121, 0.0367606394, 0.0560209937, -0.1851182729, 0.0077010780, -0.1672326475, -0.1269145608, 0.0945445225, 0.0409488045, -0.0869275033, -0.0315212756, 0.0763150230, -0.1024027392, 0.0137852086, -0.0768720284, -0.0216287468, -0.0984689668, 0.1554779708, -0.1384607255, 0.0642570704, 0.0410557874, -0.2253159434, 0.0168358460, -0.0562795848, 0.0271736048, 0.1192950755, -0.0150092673, -0.0267393403, -0.1109718084, 0.0107362773, -0.0047469144, -0.0129644061, 0.1658766121, -0.2143355012, -0.0232989844, -0.1156923324, -0.0830314383, 0.0963108242, 0.1639291793, 0.1448495835, -0.0132424226, 0.1199996769, 0.0834547654, 0.0196454879, 0.0537995175, 0.1308340281, 0.2388930321, 0.2680583000, -0.1836283803, 0.1008840054, -0.0010804462, 0.1374545991, -0.1607589871, -0.0035216995, -0.0707193166, 0.0106763048, -0.0022365246, -0.0201918874, -0.0590487830, -0.1057913303, 0.0026335907, -0.0112093389, -0.0019234249, 0.0270771924, 0.1054560319, 0.0664391443, -0.0536345020, -0.3292640746, -0.0954889879, -0.1472475380, 0.0564219505, -0.0752839446, -0.2827685475, -0.0779105201, 0.0842555538, -0.0088240188, -0.0060499138, -0.1452040225, 0.0950679630, -0.0534122325, -0.1209328920, -0.0930475816, -0.0467797928, -0.2249793708, -0.0750632808, -0.0299646463, -0.0020015980, 0.0653789416, 0.2718453109, 0.0498429202, 0.0208573565, -0.1004543304, -0.1682436466, 0.0312379524, -0.0239694957, -0.0043190881, 0.0897518024, -0.0241067074, 0.0185017586, 0.0370529965, -0.0056341626, -0.0713385567, -0.1322304308, -0.1087765768, 0.1080112755, -0.0874798223, 0.0444304422, -0.0193769243, 0.1050862074, -0.0112417703, -0.0005247939, 0.0468912050, 0.1493064314, -0.1903496087, 0.0638911352, -0.0215684343, -0.0153664984, -0.0297028162, -0.0313218795, -0.0210164543, -0.2203070521, 0.0839358568, -0.1886845678, 0.0784367397, 0.1123728752, 0.0729762241, -0.0082873460, -0.0598111339, -0.1150318086, -0.0759371892, 0.1143404990, -0.1246204898, 0.0331391990, 0.1124476716, 0.0471692160, 0.1609878093, 0.0436905883, 0.0303469468, -0.0489724874, -0.0624904819, 0.1290083528, 0.0539856441, 0.0818752050, -0.0182975885, 0.0960853025, 0.0942730680, -0.1024799272, 0.0045855674, 0.0624258816, -0.1705410928, 0.0366377085, 0.1263716519, -0.1305342019, 0.0816722363, 0.0478990413, -0.0048204339, 0.0026277713, 0.1207482070, -0.0609905086, -0.0978502855, 0.0610033646, -0.1168280169, 0.0655541345, -0.0009391026, -0.1072313488, 0.0536002964, 0.0279193856, 0.1660791934, 0.0783807710, 0.1137141660, -0.0947045088, 0.1248255894, -0.1036258191, 0.1101816297, 0.1005933806, 0.1034501195, -0.1345418841, 0.0232362356, -0.0533675812, 0.0418469273, 0.0404341929, 0.0881433636, 0.0598795973, 0.1471965462, -0.0262354724, 0.0957213268, -0.1140124500, -0.0168546829, 0.0458458848, 0.0264228228, -0.1189829186, -0.0114359893, 0.1393338889, 0.1332339048, 0.0932401940, 0.1031977534, -0.1103286594, 0.1211392954, 0.0804385692, 0.0467771962, 0.0145469820, -0.0175027810, -0.0660110414, 0.1171735898, -0.0935490653, 0.1933113337, 0.0206750594, 0.2236238718, -0.0347567759, -0.1211425439, 0.0443213917, 0.0962697789, -0.1512188166, 0.0079277260, 0.1299891174, 0.0313696116, 0.1873762310, -0.0039835684, 0.0108329644, 0.0173114873, -0.0346537642, -0.0685141534, 0.0016670132, -0.1825797856, 0.0824792832, 0.1817398816, -0.1278261989, 0.1184071153, 0.0244179387, 0.0340498909, 0.0203923490, 0.0180131756, 0.0080285501, -0.0012164927, 0.1007065699, -0.0438124798, 0.0470470600, 0.0270235725, 0.0761130303, 0.0323484577, 0.2029350251, -0.0213834643, 0.0557157435, -0.0902880579, 0.0805722773, 0.0570264533, 0.1570535302, 0.0123673743, -0.2018259466, -0.0013971217, -0.1486623883, 0.0192482173, 0.0415060520, 0.0217692535, 0.0193135981, 0.1179868802, 0.0165741537, -0.0542106368, 0.0217492823, -0.0614115968, 0.0350663662, -0.1789362282, 0.1409271657, 0.1389647573, 0.1468662173, -0.0245750081, -0.0448892824, -0.0584307238, 0.1145518124, -0.0435401984, -0.0516991131, 0.0565556772, -0.0487976372, 0.0888224095, 0.1022363156, 0.0510078929, 0.0320008621, 0.0592753664, 0.0492161438, -0.0747553185, -0.0536177717, 0.0505565964, 0.0444978513, -0.0317020901, -0.0649278909, 0.0253654569, 0.0075064767, 0.0998764560, 0.0015971516, 0.0102678789, -0.0975591540, 0.0851177797, -0.0354006775, 0.0308106355, 0.0064815935, 0.0475714542, 0.0477927439, 0.0189927127, 0.0035820843, -0.1365081072, -0.0127805527, 0.0268792473, 0.0353779942, 0.0581701472, 0.0441090204, -0.1108757034, 0.0149995796, -0.0137373740, 0.0877214149, 0.0153697450, 0.0352345444, -0.0061448952, 0.0139200632, 0.0185445081, -0.0493752025, 0.0946339890, 0.0781650320, -0.0445179716, 0.0723165423, -0.1941127330, 0.0584518313, -0.0667993277, -0.0263441317, 0.1286293417, -0.0076127597, -0.0237221364, -0.0479421243, 0.0523151048, 0.0931002796, -0.1092714816, 0.0661313534, -0.0088911783, -0.1201524287, 0.0172678195, 0.0291021764, -0.1090778336, -0.0086917058, 0.0303173736, 0.0492067374, 0.0254694242, 0.0781858638, -0.0386752076, -0.0215027761, -0.0288771428, -0.0061498941, -0.0068322229, -0.1186880544, -0.0551935323, -0.0707352981, -0.0284554437, 0.0651476532, -0.1314779818, 0.0447644740, 0.1637836397, 0.0912484750, -0.0323129147, -0.0593256839, 0.0121037066, -0.0044163936, -0.1243077740, -0.0535347238, -0.0394293144, 0.0749778375, 0.0297649987, -0.0385476090, -0.0271774512, 0.0062028538, 0.0587228015, 0.0085692219, -0.0387685969, 0.1166770905, 0.0234807916, -0.0594698191, -0.0598916784, 0.0798604414, -0.0036503468, 0.0001216938, -0.0267711543, 0.0584191717, -0.0207461789, 0.0118227936, 0.1605933309, -0.1872326881, -0.1523025632, -0.0988805145, 0.0307096317, 0.1959235072, 0.0029388005, 0.0443030782, 0.1207705885, -0.0756031945, 0.0958221778, 0.0441479608, 0.0153343370, -0.0249247998, 0.1074293330, 0.0220576692, 0.1156883314, 0.0846889392, -0.0105460258, -0.0211880244, -0.0222164541, -0.0835401863, -0.0019047118, 0.0818161145, -0.0196998175, 0.0533193611, 0.0941158757, 0.1063953340, 0.0416896492, -0.0056844410, -0.0154621331, 0.0349301323, 0.0351609662, -0.0603115931, -0.0090643866, 0.1737552732, 0.0001617032, -0.0092509398, 0.0090370644, -0.0160126984, 0.0578214675, 0.1342599988, 0.0253830217, 0.0677443668, 0.1148113534, 0.0198947527, 0.0308471452, -0.0799111053, 0.0472563915, 0.1088312641, 0.0564372577, -0.0826989338, 0.0002312216, -0.0175173916, -0.0228089355, 0.0354467444, 0.0771742314, -0.1316175610, 0.1590936333, -0.0352452025, -0.0044615171, -0.0207592528, -0.1022349074, 0.0508875586, -0.0755424872, -0.1935098022, -0.0457345471, 0.2866044641, 0.0584687106, -0.0451058820, 0.0844738930, -0.0433088765, 0.0546722449, 0.0324970596, 0.0198840406, -0.0410100371, -0.0472438112, -0.1077758446, 0.0368391909, -0.0171257164, 0.0962546021, 0.0160950031, -0.1465456933, -0.0789809525, -0.1723730266, 0.0289347395, 0.0710877776, -0.1211605147, -0.0454584211, 0.1084332988, -0.0384233743, -0.0248576496, 0.2218216062, 0.0399474725, -0.0740927085, 0.0385326184, -0.0963683128, 0.0307338461, -0.1100022942, -0.0412812494, 0.0133200716, -0.0073320763, 0.0646078363, 0.0455369875, -0.0372384265, -0.0533089936, 0.0598262101, 0.0250464231, -0.0302510224, -0.0789951012, -0.0028847100, -0.0245392155, 0.0013495302, 0.1044338122, 0.0027331789, 0.1077673510, -0.0956170261, -0.0050880169, -0.0018048370, 0.0434638038, 0.2061813027, 0.0410351716, 0.0869927704, -0.1192723885, 0.2444316000, -0.1601112634, -0.0121626975, 0.0396645255, -0.0585397631, -0.0736986324, -0.0994761735, -0.2099684775, 0.1067728177, -0.0039560604, -0.0673964843, 0.0794945061, -0.0094046695, 0.2414980531, 0.0558925979, 0.0484056175, 0.0162982121, -0.1364992261, 0.2515091002, -0.0589671470, -0.0311830342, -0.1010506451, 0.0167328753, -0.0839526057, -0.0123057216, -0.0687157735, -0.1513617933, 0.0947668701, 0.1496233046, -0.0533951446, -0.0486536175, 0.0359241515, 0.0959573761, -0.0437267758, 0.0531457774, -0.2696941495, 0.0065671038, 0.0405697376, -0.0866778195, -0.1134617999, -0.0632458776, -0.0665686429, -0.0035756694, -0.1243688837, 0.0208555087, -0.0500408970, -0.0135354418, -0.0925390273, 0.0825344622, -0.0871541798, -0.0176884215, -0.0222339015, -0.0745211393, -0.0310263559, -0.0681098402, -0.0717959851, 0.1210594401, -0.0748051479, 0.1312316507, 0.0635959953, 0.0940566882, 0.2232040316, 0.0296654049, 0.1322757304, -0.0668160319, -0.0791309699, -0.0889749378, -0.0205296334, -0.0377738103, 0.1170996130, -0.0102689955, -0.0052987314, -0.0251072124, 0.0245883241, 0.0579173528, 0.0441765152, -0.0191154666, -0.0659187809, 0.1272752285, -0.2619781494, 0.0069352342, 0.0322470441, 0.1244687364, 0.0008719498, -0.1260917187, -0.0012915609, -0.1315862536, -0.0897793695, -0.0821070299, -0.1029981300, -0.0169617143, 0.0579667203, -0.0394842178, 0.1006902829, 0.0412825979, -0.0069853142, 0.1360470504, 0.1622311324, -0.0558708571, -0.2149767131, -0.0325754099, -0.0734162182, -0.1511179805, 0.0364227891, -0.1348316371, 0.1163962111, -0.1128245741, -0.2406395525, -0.0337734781, -0.1238003299, 0.0732511654, 0.1053029448, 0.0031566792, 0.1411642134, -0.1379262656, -0.1128971353, 0.0375530347, -0.0198912974, 0.0817180648, 0.1520461738, 0.0377012044, 0.0035840166, -0.1531105191, -0.1918421686, 0.0537142903, -0.1387130767, 0.0337861478, -0.1554208994, -0.0869551376, -0.1099401340, -0.0720122978, 0.0213772692, 0.0047853068, -0.0185319111, 0.0786402002, -0.2373367995, -0.0219565202, 0.0123898303, -0.0169741698, 0.0216479544, 0.1228199005, 0.0708797500, 0.0338216946, 0.0869606584, 0.0177579336, -0.0564273968, 0.0842113271, 0.1000048518, 0.0075795013, -0.0955710188, 0.0476492271, -0.0301803444, -0.0156052494, -0.0942372307, -0.2360735685, 0.1504241228, 0.0310109425, -0.0384667963, -0.0309164431, -0.0274553485, 0.0759353936, 0.0570987724, 0.1574699134, -0.2013480067, 0.1931694150, -0.0798851624, 0.0527915247, 0.0079176044, 0.0195739269, -0.1455581635, -0.0587293692, -0.0859997496, 0.1016564816, -0.0859521180, -0.0348296724, 0.0151072452, 0.0764179900, -0.0475614704, -0.0529662333, 0.0000551837, -0.0499019958, 0.0056399871, -0.0882457122, -0.0246554501, 0.0123692555, 0.0280894078, -0.0282274075, -0.0349990688, 0.0337412320, 0.1891222298, 0.1750845015, 0.0407101363, -0.0142576173, 0.0062519908, -0.1255689114, -0.0434348918, -0.0868846551, -0.0291642137, -0.1670604199, 0.0178244263, 0.0492540710, 0.0487250909, 0.1814213246, 0.0783745944, -0.0006273662, -0.1008752286, 0.0917448476, 0.0292911753, 0.0741618574, -0.0535908155, 0.0375856124, 0.0145956995, -0.1236883178, -0.1851894557, -0.0075922473, 0.1218359619, -0.1307974309, 0.1209167913, 0.0048242430, -0.0618176609, -0.0918975696, 0.0029767326, 0.0047310330, 0.1013654321, 0.0099565089, 0.0697954595, -0.0358956829, -0.0750608519, 0.0493741892, -0.1700616926, -0.2067330927, -0.0803265721, -0.1350985020, 0.0771107897, 0.1225365102, 0.0747919753, -0.0643464699, 0.0396471247, 0.1172565892, 0.0228055343, 0.0487566851, 0.2267830074, 0.0741218999, -0.0014439097, 0.1246828437, 0.0360453129, -0.0816989914, 0.0214481335, -0.0193875749, -0.0093770064, -0.0506802686, 0.0041236486, 0.0284033753, 0.1891179681, 0.0154765733, -0.1950404942, -0.1259420663, -0.1222299859, -0.1627433002, 0.0649140850, -0.0780846477, -0.0225194469, -0.0190202706, 0.1119857952, 0.0390820727, 0.0793574601, -0.0922878087, -0.0796450749, -0.0420681871, -0.0164140761, 0.0180267524, 0.0011239804, -0.0855191350, -0.0448458381, -0.0405404083, -0.0064666225, -0.0220227167, 0.0453053974, 0.0022195841, 0.0937353149, 0.0488098897, -0.1569943130, 0.1387647539, 0.0813588724, 0.0715036020, 0.0724877790, -0.0606001057, 0.0691556111, -0.0116633950, 0.0286808405, -0.1087132916, -0.0595778748, -0.0415415093, 0.0842814445, -0.0088659870, 0.1715966910, 0.1053468212, 0.0555126779, -0.0192291643, 0.0040034079, -0.0042437804, -0.0355708487, 0.0359157547, -0.0317012593, 0.0987595692, -0.0363895148, 0.0000421491, 0.0407193638, -0.0046598446, 0.0337607265, 0.0102526816, -0.0358180702, -0.0601541176, -0.1102115661, -0.0618933067, -0.0111781480, -0.0018253783, -0.0112428879, 0.0061995485, 0.0037726685, 0.0812925100, -0.0431144722, 0.0095936088, 0.0904979631, -0.1130584553, -0.0334739052, -0.0148500241, 0.0407658704, 0.0053279120, 0.0534862690, 0.0843358934, 0.0299979150, -0.0469323657, -0.1077575758, -0.0573916286, 0.0214447454, -0.0820620880, 0.0590547994, -0.0687673539, -0.0337495320, -0.0540066995, -0.0347864591, 0.0530449711, 0.0928396657, 0.0305766873, -0.0220741630, -0.0128371865, 0.0395152271, -0.0818406120, -0.0472475104, -0.0712803751, 0.0254303291, 0.0060389135, -0.0175782684, 0.0417384580, -0.0318958573, -0.0086998940, -0.0534598231, -0.0185302552, -0.0196017772, 0.0809468627, -0.0009254231, 0.0528000556, -0.0527990237, 0.0035820380, -0.0834992528, -0.0875239372, -0.1022205651, -0.0492679328, 0.1124888882, 0.0422657691, -0.0460483395, -0.0997590497, 0.0216811076, 0.0137228295, 0.0813886374, -0.0456226096, -0.0952362493, -0.0468592495, -0.0690992102, -0.0209772531, 0.0699098781, 0.0026949802, -0.0770490840, -0.0789962336, 0.0256996453, -0.0115473373, -0.0025706424, 0.0439830385, -0.1171839461, -0.0257220473, -0.1925062835, -0.0419228896, 0.0127518298, 0.0126909912, -0.0034345516, 0.1164943501, 0.1332528442, -0.0510207303, 0.1585173458, -0.0620949939, -0.0590685196, 0.1702625602, 0.1408291459, -0.0295877978, -0.0159535781, -0.0072096335, -0.0286553483, -0.1079344153, -0.0854002759, -0.1945815831, 0.0575869791, 0.0150431376, 0.0520688184, 0.0098196091, 0.0112914909, 0.0326782987, 0.0228641555, 0.0185877178, -0.0891613439, 0.0528893508, 0.0358134136, -0.0770868286, 0.0405823365, 0.0329135209, -0.1410681307, 0.0575330779, -0.1178747267, -0.0542291254, -0.0532884374, 0.0791363791, -0.0528858528, 0.1259308606, -0.0786405280, 0.0244396664, 0.0035176089, 0.0604384243, -0.0371721908, 0.0717213601, 0.0558954552, -0.0566270091, 0.0421761759, -0.0596351214, 0.0823104978, 0.0530589595, 0.1759593785, 0.0637689829, -0.0048858207, -0.2089083195, -0.0420169570, -0.0975911096, 0.0393548794, -0.1693191081, 0.0664974600, 0.0148120876, 0.1015678197, -0.0003789712, 0.1709473729, 0.0251678471, 0.0936465710, -0.0975318030, 0.0750292316, 0.1366991103, 0.0920784473, 0.1223688349, 0.1263351291, 0.0298094526, -0.0291191619, 0.0416874066, 0.0162256975, -0.1638484299, 0.0327631831, -0.0881581455, -0.0713702589, -0.0378357694, -0.0909355655, -0.1389393210, 0.0702950135, -0.0318378098, -0.0307035279, 0.0551450960, 0.1807092875, -0.0710146874, 0.0037278235, -0.0117063001, -0.0256206449, -0.2321951389, -0.0499938689, -0.0441089608, 0.0825703889, 0.0274967402, -0.0232861023, -0.0637911707, 0.0940895826, 0.1120206639, 0.0804688632, 0.0503235310, 0.1711647511, -0.0194683764, -0.0248133261, -0.0567797981, -0.0439168401, -0.1584795266, 0.2047051191, -0.0600620136, 0.0355068184, -0.1649025083, -0.0613048896, 0.0472456403, 0.1253854632, 0.0188052803, -0.0053467075, -0.1002224460, -0.1845120192, 0.0156736299, 0.0527430922, 0.0392967761, -0.0008323290, 0.0642525926, 0.0790558010, 0.0747344121, -0.0491637327, 0.0844998062, 0.0821929127, -0.0398385972, 0.0242278688, -0.0418563075, 0.0825234056, -0.1390414089, 0.0006427788, -0.0107279103, 0.0185757484, -0.0603717901, 0.0555697381, -0.0182969738, 0.0150616402, 0.0111812614, -0.0783256441, 0.1705014408, -0.0016642687, -0.2191598713, -0.0575100183, -0.0074764974, -0.0590285175, 0.1424968988, -0.1817573309, -0.0372279957, -0.2093065679, -0.0211639497, 0.1140849143, 0.0644330904, -0.0167460237, 0.0585726276, -0.0102652945, -0.0317446105, -0.0761196092, -0.0347156711, -0.0268855467, -0.0311774723, 0.1448265016, -0.0698487461, 0.0178484805, 0.0759640336, 0.0082887877, -0.1118839383, -0.0643398538, 0.1095664725, -0.0335919559, -0.0771591291, -0.0577641986, -0.0481015593, -0.0466879234, 0.0896038264, 0.0892656595, -0.0138548277, 0.1147897020, -0.0283117741, 0.1537571847, -0.0031621084, -0.1571930051, 0.1169525608, -0.0124409543, -0.0459040776, -0.0386320651, -0.1666260809, -0.1155132651, -0.0031341526, 0.1490645856, -0.1110826731, -0.1379990876, -0.0163749177, 0.0356750749, 0.0688690245, -0.0478299893, -0.1182458997, -0.1145533398, 0.0342875980, -0.0492532700, 0.0847995579, -0.0235322881, 0.0677988008, 0.0589747690, 0.0421858579, -0.0277853347, -0.0438630618, -0.2186120450, 0.0302513391, -0.0398276709, -0.1708248407, -0.1228557602, 0.0556489564, 0.0677140877, -0.0602932796, 0.0654810518, -0.0026515857, -0.0701646805, 0.0631845891, -0.0959108919, -0.0198746920, 0.0062075495, 0.0558357276, 0.0385979488, -0.0959824771, -0.0729890466, -0.1310520321, 0.0015986759, -0.1672705859, -0.1393911988, -0.0197611731, -0.0485021807, -0.0022918594, -0.0036686533, -0.0970645398, -0.0740560070, 0.1112378314, -0.0041971672, 0.1016232446, 0.1513542533, 0.0701366290, -0.2203207463, 0.1023493484, -0.1518986076, -0.0555306599, -0.2257139385, -0.0958163813, 0.0480020829, -0.0861730650, 0.1358674020, 0.0336709246, -0.0594984703, -0.0204044245, 0.0399232097, 0.0428940281, 0.0502615459, -0.0058227596, -0.0891279727, 0.0182304326, 0.1163341776, 0.0563832596, 0.1555242091, 0.0328900069, 0.1060588807, -0.0250653476, 0.1229990199, 0.0967296138, -0.0326720774, 0.1574833095, -0.1245447099, 0.0521649793, 0.1893117726, 0.0179243926, -0.0761112720, 0.1663853675, -0.0517376550, -0.0175154228, -0.0306414478, -0.0626460090, 0.1149659976, 0.0745880306, -0.0229630582, 0.0470470041, 0.0222600345, 0.0835055187, 0.0294836573, 0.0094592823, -0.0279237237, -0.0029287827, 0.1234672517, 0.0179884564, 0.0820887238, 0.1301155835, 0.0416585952, -0.0473072082, 0.0478950255, -0.1477804184, -0.0548838302, 0.1415220052, 0.0918163806, -0.1012988985, 0.0718737468, 0.0325695239, 0.1584337205, -0.0078564472, -0.0521986857, -0.0805711374, 0.1036678627, 0.1010153741, 0.1390996724, 0.0691292211, -0.0911049172, 0.0006959736, -0.0166773312, -0.0295211133, 0.0158971734, -0.0374016389, 0.1812526882, 0.0941834003, -0.1293631941, 0.1201595068, 0.1115402728, 0.1766878664, 0.1031466648, -0.1104056910, 0.0118872393, 0.1003225222, 0.1237470582, -0.0042682309, 0.0457643084, 0.0774978995, 0.0179969016, 0.0255106874, 0.0353268981, -0.0639547631, 0.1399099827, 0.0338806063, -0.0728161335, 0.0562624782, 0.0489939637, 0.1583793014, 0.0078629497, -0.0066003748, 0.0368788429, 0.0427166298, 0.1517171115, 0.0759422407, 0.0935186520, -0.0051991348, 0.1527938396, -0.0351643190, 0.1247084737, 0.0199607275, 0.0311850943, -0.0480210297, 0.3021542728, 0.0063821874, -0.0262520462, -0.0096941488, 0.1029113755, 0.1223570332, 0.0007335318, -0.1207331941, 0.1343183815, -0.0418692939, 0.1174135879, 0.0510400869, 0.1933141053, 0.0499906316, -0.0917752758, 0.0932601765, 0.0856102854, 0.0477340743, 0.0537672602, -0.0543531738, -0.0178636685, 0.0137047172, -0.0108331190, 0.0321513377, 0.0010175761, 0.0623377375, -0.0093378592, -0.0608331673, -0.0471345074, -0.0778175443, -0.0613960139, -0.0306706969, -0.0508676320, -0.1366255283, -0.1014187858, 0.0767845809, 0.0932796970, -0.1059412435, 0.0414667577, 0.0117106540, 0.0424587838, -0.0478165075, 0.0503458008, 0.0696763992, -0.0776508376, 0.0308897365, 0.0266894121, 0.0095958179, 0.0187933482, 0.0031742358, 0.0209709387, -0.0789533108, 0.0227917079, 0.0184993111, -0.0281824637, -0.0959758684, -0.0268410817, 0.0052358815, 0.0259435493, 0.1394466162, -0.1051901057, 0.0229461063, -0.0171080381, 0.0137818372, -0.0346133150, 0.0203036238, -0.0895808414, 0.0887266994, 0.1069679335, 0.0096532106, -0.0433801375, -0.0163766909, -0.0133837992, -0.0282313190, -0.0678805411, 0.0382160284, -0.0181881711, -0.0954094827, 0.1203565896, -0.0022330841, 0.0430251881, -0.0282709375, 0.0473506078, -0.0268473756, -0.0292168446, -0.0076231738, 0.0090615135, 0.0132183507, 0.0730459690, -0.0075064008, -0.0475850552, 0.0386639722, 0.0929411277, -0.0915942043, 0.0693994910, -0.0324615166, 0.0905801505, 0.0113397799, -0.0119398842, 0.1078300551, -0.0545426719, -0.0427881293, 0.0284480359, -0.0619161278, 0.0104492391, 0.0677847117, -0.1497002542, 0.0543909036, -0.0786745250, -0.0255740043, -0.0163992047, -0.0243222415, 0.0072582541, 0.0779149532, 0.0431763455, -0.0226487555, 0.0055881767, -0.0122621357, 0.0672650114, 0.0047041886, 0.0031283859, -0.0612452962, -0.0406119414, -0.0495067127, -0.0860174969, 0.0172829591, 0.0214658789, 0.0099893343, -0.0275222417, -0.0761778429, -0.0100965006, -0.1221839562, 0.0099514602, -0.0659922212, 0.0730512068, 0.0628503114, -0.0590965748, 0.0071539399, -0.0836090446, 0.0291318465, -0.0780609250, 0.0631246194, 0.0043389350, -0.0800296664, 0.0247195978, -0.0673219934, -0.0086226091, -0.0032546902, 0.0394196585, 0.0371134318, 0.0076368786, 0.0374063924, -0.0787603706, -0.0679019019, 0.0115627395, 0.0977907777, 0.0458980612, 0.0352306664, 0.0232261326, 0.1093883067, 0.0842064396, 0.0878788829, 0.0986572504, 0.0568930730, 0.1426398903, 0.0472470820, 0.0782709941, 0.0435505472, -0.0083079701, 0.1705065817, -0.0283537935, 0.0648419857, 0.0529625975, 0.0041411724, -0.0583007224, 0.0905187204, -0.0008627372, 0.0191395376, 0.0443669632, -0.0217557978, -0.0030462272, 0.0719152540, -0.0290143453, 0.0754318237, -0.0302889161, 0.0250785202, 0.0460728519, 0.0625244901, 0.0160866100, 0.0040328014, 0.0437894426, 0.0576426983, 0.0506816581, 0.1336408556, 0.0315377153, 0.0773932785, 0.0107749281, -0.0279089734, 0.0747240633, 0.0542809479, -0.0159002449, -0.0108785927, -0.0102437446, 0.0314204805, 0.2087910324, 0.0338065848, 0.0467863530, 0.0410175771, 0.0169229265, -0.0649256036, 0.0187088009, 0.1524069309, -0.0594247691, 0.0893400237, 0.0934459195, 0.0064837993, -0.0260652658, -0.1039583459, 0.0369093791, -0.0849023238, 0.0722223669, -0.0519176535, 0.0305498634, -0.0645049438, 0.0299778860, -0.1090871543, -0.0277306456, -0.0544932894, 0.0617305487, -0.0410802551, 0.1027529091, 0.0679695010, 0.1274290234, 0.0163586549, 0.0147029012, 0.0261948742, 0.0272821002, 0.0875950828, 0.0327310860, -0.0576581135, 0.0396891534, -0.0324735530, 0.1025387198, 0.0445357002, 0.0942513347, 0.0777235925, 0.1074628755, 0.0111758588, 0.0266131610, 0.0077644284, 0.0919949412, 0.0575575642, -0.0710066184, -0.0306815971, 0.0465927012, 0.0098764133, 0.0226140451, -0.0269645732, 0.0468948707, -0.0332194306, 0.0387576073, 0.0604672283, -0.0659061670, 0.0169062186, 0.0130907521, 0.0056013805, 0.0092823794, 0.1020823270, 0.1264625937, 0.1891514957, -0.0243733171, 0.1070045382, 0.0707808062, 0.1361028403, -0.0481444187, 0.0423135199, 0.1720575392, -0.2497533411, -0.0969536081, -0.1080267653, -0.1412469298, -0.1056390330, -0.0318909697, -0.3497296572, -0.2028331012, 0.0935669839, -0.0558785200, 0.0132523272, 0.0141971502, 0.0019777515, -0.1456003338, -0.0144833904, -0.0299058538, -0.1564412564, -0.1102193594, -0.1354070455, 0.0403192006, 0.1421807110, -0.2290459275, -0.0015611008, -0.0475092940, -0.0181775540, 0.0838408172, -0.1761356741, -0.0355086774, -0.0915117487, -0.1196600497, 0.0866577327, -0.2244374752, 0.0940665603, -0.0143519146, 0.0684498698, -0.0270859357, -0.0327506401, -0.2377461195, 0.0595741719, -0.0773263127, 0.0658800304, -0.0147844115, 0.0798270628, -0.0205305815, 0.0578992441, 0.0791411400, 0.1046105698, 0.0821956694, 0.1301526725, -0.0083716633, 0.0698922575, -0.1093985736, 0.0402906165, -0.2316447049, -0.1318003833, -0.1044984758, -0.0162650775, -0.0272421408, 0.0626151338, -0.0385774970, -0.0605539121, -0.0059913914, 0.0470553599, -0.0457695127, -0.0284550525, -0.0979173854, 0.0091259507, 0.0978655517, 0.0473600812, -0.0119834663, -0.0961042568, 0.0141375400, 0.0260660928, -0.1050978974, 0.0650296956, -0.0132251941, -0.0663086474, 0.0069294362, -0.0478670150, 0.0956831053, 0.1142962500, 0.0043345094, 0.1176047027, -0.1723000407, 0.0269080251, -0.0992080420, 0.0199600365, -0.0392157510, -0.1382972300, -0.1044267491, 0.0475861765, 0.1074728221, 0.0438644812, -0.0262239445, -0.0032185949, 0.0887188390, 0.0933764726, -0.0258710980, 0.1078979447, -0.1353307515, 0.1108099222, 0.0256664548, -0.0239854604, 0.0057765436, -0.0641974732, -0.0955378413, -0.0202684533, -0.0740544870, -0.1383722275, -0.0148068601, 0.0708654150, -0.0521501638, -0.0009212548, 0.1517625302, -0.1073389947, 0.0030329179, -0.0079857223, 0.0348069780, 0.0279157460, 0.0546633378, 0.0746425167, -0.1526103169, 0.1061350033, 0.0380079411, 0.1107539758, -0.0117294164, -0.0128936097, 0.0612139553, -0.0480581112, 0.0729720891, -0.0814165175, -0.1265165955, -0.1682396233, 0.0085488418, 0.0561130010, 0.1660090983, 0.0740810558, 0.0296642613, 0.0925451592, 0.0953225568, 0.1004541516, -0.0426612087, -0.0256605018, 0.0711389259, -0.1363038719, 0.0421063006, -0.0178826917, 0.0554697625, 0.2304326743, -0.0978614837, 0.1187841669, -0.0824989155, -0.0363750681, 0.0162874013, 0.0452310406, 0.0671102703, -0.0182062462, 0.1459435672, 0.0373944156, 0.0272984505, 0.0223859884, 0.0320845544, 0.2203979045, -0.0078037498, 0.1123560816, -0.0472704582, 0.0815287158, -0.0628943965, 0.1033201590, -0.0072018490, 0.0151044829, -0.1133818552, 0.1477382183, 0.1573190391, 0.0444157794, 0.0953713730, 0.0270871818, -0.1165287495, 0.0853239819, -0.0058002346, 0.0303819627, 0.0983675048, 0.0231811199, 0.0776308253, 0.0468578227, 0.0964481011, 0.1493306011, 0.0453523137, 0.0339683704, 0.2059650868, 0.1131615117, 0.1037004143, 0.0769767985, 0.0185531713, 0.0432995968, 0.0693976060, 0.0491491444, -0.0477782115, 0.0380241461, -0.0205054861, 0.0701001808, 0.0575134009, 0.2483357489, -0.0349632502, 0.0823884681, 0.0872537047, -0.0396323837, 0.0755058900, 0.0536426753, -0.0366703346, 0.1012878641, -0.2399165481, -0.0850673094, -0.0333857872, 0.1119191274, 0.0261413921, -0.1038435921, -0.0376693346, 0.0847278386, -0.0481899716, 0.1792917550, -0.0272678137, -0.0844984576, -0.0707218274, 0.1599419713, 0.1002637669, 0.1772130877, -0.0474916585, 0.1933119893, -0.0885380358, 0.0996121541, 0.0093038846, -0.0098791309, -0.1647880375, 0.0863904133, -0.0224472266, -0.0014706829, 0.0268685874, 0.1071914434, -0.0079519181, -0.0004317543, 0.0889215097, 0.1711722612, 0.0561707765, 0.0880893618, 0.1074119806, 0.0870183483, -0.0131102959, 0.0373390913, -0.2062834948, 0.1745945066, 0.1561461389, 0.1439857632, 0.1641486436, -0.0053983396, 0.0375564992, -0.2103675008, 0.0374055728, 0.0046039415, 0.1183916181, -0.0032266425, 0.1801713109, -0.0583347641, -0.0584917068, -0.0239885319, -0.0957021937, -0.0088738315, -0.0008955942, 0.1014396399, 0.0648389012, -0.0471788011, -0.0042431671, 0.0868197754, -0.0696315169, -0.0988475978, 0.1351510435, -0.0259975158, 0.0815209597, -0.0544379354, 0.0127111413, -0.0667576492, 0.0201806407, -0.0448504277, 0.0588684194, 0.0088938363, 0.0323328078, 0.0055249399, 0.0018266286, -0.0143932663, -0.0284828115, 0.0212232322, 0.0947176144, 0.0646936670, -0.0223743916, 0.0437538810, -0.0825231895, -0.1195843369, -0.0292795412, -0.0102086533, 0.0925694034, 0.0629870147, -0.0096809855, -0.0339547172, 0.0517763123, 0.0501058474, 0.0392135605, -0.1197417006, 0.0365919396, -0.1061965600, 0.0640668347, 0.0006747881, -0.0124504436, -0.0345901102, -0.0244152267, -0.0123099759, -0.0268008541, 0.0400395282, 0.0158606265, -0.0163703058, 0.0195165891, 0.0380503088, -0.0684772283, -0.0435218364, 0.0717865080, -0.0606386475, -0.0195398480, 0.1329835355, -0.0273172949, 0.0978582427, 0.0425599329, 0.0616411082, -0.0346574485, -0.0873049647, -0.0238586348, -0.0332314745, 0.0894294307, 0.0067764325, 0.0417261794, -0.0238650441, -0.0503179654, 0.0387250036, 0.0917217508, 0.0013245352, 0.0305811055, -0.0232154913, 0.0514997207, -0.0179730691, -0.0333275683, 0.0208549537, -0.0598392747, -0.0670234337, 0.0158415996, -0.0164942015, 0.0613515303, -0.0887671933, -0.1882406324, 0.0307623520, -0.0805696771, 0.0730605572, -0.0674884170, -0.0176800769, -0.0981826633, -0.0035266702, 0.0349891670, -0.0206142794, -0.1445902139, 0.0194155425, 0.0038306981, 0.0202527028, -0.0291336607, -0.0646017715, 0.0233023446, -0.0424928963, 0.0603884794, -0.1169068366, 0.0862876624, -0.0386891365, 0.0907321572, -0.0234487131, -0.0816791877, -0.0299331397, -0.0478572436, -0.0145343728, 0.0366699062, -0.0547928847, 0.1293135583, -0.0179499574, -0.1808714867, 0.0254550930, 0.0736498684, 0.1057513356, -0.0609235056, -0.0762074515, 0.0199210178, -0.0228243768, 0.1103961468, 0.0421538316, -0.0640705302, -0.0006603112, 0.0108381668, -0.1266283542, 0.0632452369, -0.1050018668, 0.0544667505, 0.1703870744, -0.0217086878, 0.0404629372, -0.1186236516, 0.0276468843, 0.1141969562, -0.0091742780, 0.0021011741, 0.0448103957, 0.0221951306, 0.0351296514, -0.0038734220, -0.0763972327, 0.0953807905, 0.0529725142, 0.0444837697, -0.0375188440, -0.1397395581, 0.0771532208, -0.0290808547, 0.0049510747, -0.0063632834, 0.0572164133, -0.0547277890, 0.1125697047, 0.0456603207, 0.0675635561, 0.0962277278, 0.0528320186, -0.0033805948, 0.0451781638, -0.1333702356, -0.0442973226, 0.0995291546, -0.0461343415, 0.1376036108, 0.0801015794, 0.1614969522, 0.0238551833, 0.0914852470, 0.0079427827, 0.0780634508, 0.0253491290, -0.1253505498, -0.0137881758, -0.0477965064, 0.0303571709, 0.0381342918, -0.0127789415, -0.0024411120, 0.0244534593, 0.0547119118, -0.2524612546, -0.1034966484, -0.0245013516, -0.1833232939, 0.0584360808, 0.0359534472, 0.0416545831, 0.1484836042, -0.0825991407, 0.0356806107, 0.1002606004, -0.1605846286, 0.0155629711, 0.0215850119, 0.0392880067, -0.0059462264, -0.1552399993, 0.0043950966, -0.0911819264, -0.0610492937, 0.1947667152, -0.0337799080, -0.0534636788, -0.0495643206, 0.0381742381, 0.2505435944, -0.0551847331, -0.0662429705, 0.0883076191, 0.0495122820, -0.0285644494, -0.0160181578, 0.0312943533, -0.1394421011, -0.0174046010, 0.0168893356, -0.0268263649, -0.0058704265, 0.0969363824, -0.0851462930, -0.0324218161, 0.0172724761, 0.1125744209, 0.0541975275, 0.0205902588, 0.0301844981, 0.0144832563, 0.0901016369, -0.0426100232, -0.2249658257, 0.1078766957, -0.0387721881, -0.0772883371, 0.1141461730, 0.0402331725, -0.1132589281, 0.0011125330, -0.0972332880, -0.1171436235, -0.0098435907, -0.1397526711, 0.0041160886, -0.1578694582, 0.1272744834, 0.0985520557, 0.0462249070, -0.0253253095, 0.1199498400, -0.0061653727, -0.1663219333, -0.0787172690, -0.0666866004, -0.0245193783, -0.0993405506, -0.0475866422, 0.0573959388, -0.0274887457, -0.1509043127, 0.1034321263, -0.0888221115, -0.0761257187, -0.0234436300, -0.0766182691, 0.0346640535, -0.0973564461, 0.0011317704, -0.1030570641, 0.1586141139, -0.1202919111, -0.0307499394, -0.0002449511, 0.1077530682, -0.0769708976, -0.0281661544, -0.0892641544, -0.0073577962, -0.1661134511, 0.0505070463, -0.1056125909, -0.0177563634, -0.0486769751, 0.0318357833, -0.1195663810, -0.0078064934, -0.0353413336, -0.0014916891, -0.0031791683, 0.0610989369, -0.0729120374, 0.0226429440, 0.0243677981, -0.0227235314, -0.0038173997, -0.1129831076, -0.0355332457, 0.1031046957, 0.0288145114, 0.0411021188, 0.0006103580, -0.0958986729, -0.1055488288, -0.0484590009, -0.0037831031, -0.0841748416, -0.1549885422, -0.0423106588, -0.0215242263, -0.0546955019, -0.1623694450, -0.0763072148, -0.0698065609, -0.2088712752, 0.0124636646, 0.0281861387, -0.0702164471, -0.1788659394, -0.1513087153, -0.0656603426, 0.0093598580, 0.0791460648, -0.0564344525, 0.0960739851, -0.0233873762, -0.0570350215, 0.0202882905, -0.0612201504, 0.0312371701, 0.0196089614, -0.1721158028, -0.1126367301, 0.0339427255, 0.1184444875, -0.0242147185, -0.0037920314, -0.0114535838, -0.0312718563, 0.1182719618, 0.1171026826, -0.1315670162, -0.0053820936, -0.0332823358, 0.0865460858, 0.0673081502, -0.0974298939, -0.0918764845, -0.1324725896, 0.0504561700, -0.0195900183, 0.1501698196, -0.0458428450, -0.1709817052, -0.1041522473, -0.0410662480, -0.0567930788, -0.0751639456, -0.0802731812, 0.0818430781, 0.0903699547, 0.1192836687, 0.0105605125, -0.0568692721, 0.0194841996, -0.1174137220, -0.1153387651, -0.0569311082, -0.0963395983, -0.0082609113, -0.0834388658, -0.0056798616, 0.0356981196, 0.1345635206, 0.1723867804, 0.0347043388, 0.0514930487, 0.0252721887, 0.0453062207, -0.0049935230, 0.1934756041, 0.1971397102, 0.1071464494, -0.1105376408, -0.0025681297, 0.0881737843, 0.0477028675, -0.0320858099, -0.0443933345, 0.0162263643, 0.0164073687, 0.0437665284, -0.0819524899, 0.2107011676, -0.0329335853, -0.0511294529, 0.2135479897, 0.0024835197, 0.0476326905, 0.0970970690, -0.1388018280, -0.0170951355, 0.0069331294, 0.2613578141, -0.0983950198, 0.0145642767, 0.1123101264, 0.0556783713, 0.1178928837, -0.0572594628, -0.0965371504, -0.0752451494, -0.0841250792, 0.1600493640, 0.0749891177, 0.1827466190, -0.0180952735, 0.0204588771, -0.0558479726, -0.0047433414, 0.0419954211, -0.0258196536, 0.0404021442, 0.0512282252, 0.1189776137, -0.0551518276, 0.0307716671, -0.0653225258, 0.0581861697, 0.0580662936, -0.0665076822, 0.0320094004, -0.0144015914, -0.1204929054, -0.0052483473, 0.1076591238, -0.1277938187, 0.0740949884, 0.0082106078, 0.0838885307, 0.1583548784, 0.1538357437, -0.0761774927, 0.0008673454, 0.1375256926, 0.1453711689, -0.0120087378, 0.1954298168, 0.0262482483, 0.0115230931, 0.0642541349, 0.1041373760, 0.0738018900, 0.0533670485, 0.0682537258, 0.0162477661, 0.0324185267, -0.1331946701, 0.1045916751, -0.0348409489, 0.1746440977, -0.1094475761, 0.0935749635, 0.0808001757, 0.0957734734, 0.0284764208, 0.0077042608, 0.1744399369, -0.0201803297, -0.1528974026,