//Numpy array shape [128, 512]
//Min -0.170036256313
//Max 0.185927122831
//Number of zeros 0

#ifndef WR10_H_
#define WR10_H_

#ifndef __SYNTHESIS__
lstm_3_recurrent_weight_t wr10[65536];
#else
lstm_3_recurrent_weight_t wr10[65536] = {-0.0419259071, 0.0111583434, -0.0676558614, -0.0216363594, -0.0002857695, 0.0610329695, 0.0304030925, -0.0348029472, -0.0311131347, -0.1182353720, -0.0637562573, 0.0236268807, -0.0333806723, 0.0410592481, 0.0115902759, -0.0139112025, 0.0029253603, 0.0423662476, 0.0078056268, 0.0634795204, 0.0528311729, 0.0010785636, -0.0498315357, -0.0230041035, -0.0251773167, -0.0200093407, -0.0384533778, -0.0031154342, 0.0772018284, -0.0207774322, 0.0097735934, -0.0170873236, 0.0753725395, 0.0849873647, 0.0561922491, -0.0843257830, -0.0315134823, 0.0342881829, -0.0004602242, 0.0338638052, 0.0224797316, 0.0257686637, 0.0070004053, -0.0142830666, 0.0224904511, 0.0565921403, -0.0637623593, -0.0348221660, 0.0102531249, -0.0400195979, 0.0244909208, -0.0110099912, -0.0390680805, 0.0044279471, 0.0121443393, -0.0292807482, 0.0007398879, 0.0588313527, -0.0526688397, -0.0009332004, -0.0045130295, 0.0396435820, -0.0475710034, 0.0157297403, -0.0315081030, 0.0067507881, 0.0395138822, -0.0309577249, -0.0878265947, -0.0691124052, -0.0249716807, -0.0151209673, 0.0320437327, 0.0180368386, -0.0081512639, -0.0569013506, 0.0210271180, -0.0289567690, -0.0120056113, -0.0362557210, 0.0532168560, 0.0083160568, 0.0211897288, -0.0226512570, -0.0943832770, -0.0435800813, -0.0920704231, -0.0116436873, -0.1124741584, 0.0397306345, -0.0385299996, 0.0307294391, -0.0332444832, -0.0274899025, -0.0353688337, 0.0004200625, 0.0590370744, 0.1100941896, 0.0279941093, -0.0491471738, 0.0194243602, -0.0614111312, -0.0303036217, 0.0327849761, -0.0129546728, 0.0598482043, 0.0295537598, 0.0774150342, 0.0350787453, 0.0122948531, -0.0023157352, 0.0427273512, 0.0192258302, 0.0160823129, 0.0311997365, -0.0173119884, -0.0548557229, -0.0176445600, -0.0819135904, -0.0135924332, -0.0308677386, 0.1079666615, -0.0145662492, 0.0044887373, -0.0065058507, -0.0335211381, -0.0072076293, 0.0602179989, -0.0461879522, -0.0194195695, 0.0707429349, 0.0064627593, 0.0512582958, 0.0260092895, 0.0623523854, -0.0345899276, -0.0115793319, -0.0241713263, -0.0181214307, -0.0259004291, 0.0777434185, 0.0251429994, -0.0601239204, -0.0213034265, 0.0252914298, 0.0500357263, 0.0403749235, 0.0475792810, -0.0259799715, -0.0386615172, -0.0240438990, 0.0572448075, 0.0515161976, 0.0851948559, -0.0005790598, 0.0125955157, 0.0254203547, 0.0642809570, -0.0278965998, 0.0564031415, 0.0723387152, 0.0149088278, 0.0001066222, -0.0029232791, -0.0625715405, -0.0490184128, -0.0084000481, 0.0070998590, 0.0268240832, 0.0853615701, 0.0698782280, 0.0298893936, -0.0465969257, -0.0224104170, -0.0297709592, 0.0424804389, 0.0351248607, 0.0538157150, -0.0137169706, 0.0900016055, -0.0003353595, 0.0109766312, 0.0460354611, 0.0337347612, 0.0063077845, 0.0257016607, 0.0466268286, -0.0012474383, 0.0021801540, 0.0355251208, -0.0709578097, -0.0266555604, -0.0540599599, 0.0250535272, -0.0274136756, -0.0685377643, -0.0083875321, -0.0349996686, -0.0245019943, 0.0387790725, 0.0077033476, -0.0506253131, -0.0711387917, -0.0070506064, 0.0398328602, 0.0305172671, 0.0024913519, -0.0252198502, -0.0325345695, 0.0260986798, -0.0225349814, -0.0036457421, -0.0241541285, 0.0464339405, 0.0014327980, -0.0053466987, 0.0434445851, 0.0024145795, -0.0194836706, -0.0382607467, -0.0159271266, -0.0117334351, -0.0008664000, -0.0226003192, 0.0219433252, -0.0222241133, 0.0691698045, -0.0400606729, 0.0007183166, 0.0161507055, 0.0289199539, 0.0393436365, 0.0701654404, 0.0260477755, -0.0215922967, -0.0503663756, -0.0472923480, 0.0143804187, -0.0859262720, -0.0375115611, 0.0101544829, -0.0228200834, 0.0203165077, 0.0289918985, 0.0564819612, 0.0406949520, 0.0164944530, -0.0822185501, -0.0117553817, 0.0490826704, 0.0022739489, 0.0895173922, 0.0525026172, -0.0631470978, 0.0103250789, -0.0270088427, -0.0225987639, -0.0469368473, -0.0440866239, 0.0065911058, -0.0423479490, -0.0208398476, -0.1001816839, -0.0475979783, -0.0202233531, -0.0541716851, 0.0013117077, -0.0461514145, 0.0998619348, -0.0121627999, -0.0088469880, -0.0276982449, 0.0167025812, -0.0317515209, -0.0213633794, 0.0133793391, 0.0346042216, 0.0466206148, 0.0297571998, -0.0398550294, -0.0412572920, -0.0106663816, -0.0201290883, -0.0318371393, 0.0272636767, 0.0344599336, 0.0605972447, 0.0401846915, -0.0420101508, 0.0241151061, -0.0157500878, 0.0455447696, 0.0149876392, -0.0558377504, 0.0815819651, -0.0156555008, 0.0307541117, 0.0229541901, 0.0328723490, -0.0769404396, 0.0649722070, 0.0461855531, 0.0360988975, -0.0985329673, -0.0280297678, 0.0351012833, 0.0923007205, -0.0072253426, -0.0911294296, 0.0437513776, 0.0132767633, -0.0438753627, -0.0737043619, -0.0160331633, -0.0450605676, 0.0406945162, -0.0009041956, 0.0159881394, 0.0170534942, -0.1017107219, 0.0869952068, -0.0720548108, 0.0533981994, 0.0261543207, -0.0399763398, -0.0245775487, -0.0022773352, -0.0040830788, -0.0143649401, 0.0309318975, 0.0561684147, 0.0836517811, 0.0611284859, -0.0113658160, 0.0083651058, -0.0178488754, 0.0179859754, -0.0764704272, 0.0828315318, 0.0712554529, 0.0226416923, 0.0062639783, 0.0315965191, -0.0522302277, -0.0545319021, 0.0087336581, -0.0693569481, 0.0060103820, 0.0154003343, 0.0429997742, 0.0534596294, -0.0003643144, -0.0191313121, -0.0015312115, -0.0324478969, 0.0552069396, -0.0089958487, -0.0067513809, 0.0287785213, -0.0146229686, 0.0548036285, -0.0027070728, 0.0613605976, 0.0512319319, 0.0337457433, -0.0162200537, -0.0321144946, -0.0020389494, -0.0409579761, -0.0081429370, 0.0247936677, -0.0499314517, 0.0013608185, 0.0290308986, -0.0671624243, -0.0215402301, -0.0043403292, -0.0660707504, -0.0340088755, 0.0172977000, 0.0841184035, -0.0634114593, 0.0291309450, -0.0605161898, -0.0863516405, -0.0027892266, -0.0226990283, -0.0221992955, 0.0857225358, 0.0258618854, 0.0173138045, 0.0353204049, -0.0077573541, -0.0172625855, 0.0509209670, 0.0983225480, 0.0348338224, 0.0487283766, -0.0425084271, -0.0208429769, 0.0401514545, 0.0458463170, 0.0503779650, 0.0221478380, 0.0979000181, -0.0176087450, 0.0054878308, -0.0339003131, 0.0097763715, -0.0091136312, -0.0082656927, 0.0223231707, -0.0199395400, -0.0940088779, -0.0810938552, 0.0012329817, 0.0228147600, 0.0168890934, -0.0324246772, 0.0905341581, 0.0282904487, 0.0886479989, -0.1001028866, -0.0142407324, 0.0240055881, -0.0080114212, -0.0372706503, -0.0524254069, 0.0131161129, -0.0465950035, -0.0159342512, -0.0913451836, 0.0437587500, 0.0945706815, -0.0562609211, 0.0207291842, -0.0657708943, 0.0220616683, -0.0231775288, 0.0010502641, -0.0217741560, -0.0123096257, 0.0340987518, 0.0072464980, -0.0385576822, -0.0533263236, 0.0642634928, -0.0413597897, 0.0067614927, 0.0565510951, -0.0120192077, 0.0002373958, 0.0082458043, -0.0033480299, -0.0679759905, 0.0262135006, -0.0498103201, 0.0904143080, 0.0236722473, -0.0164232850, -0.0274763629, 0.0848773122, 0.0255193338, -0.0369865671, -0.0532718524, 0.0145399570, 0.0884175077, -0.0440712683, -0.0642752945, 0.0378978848, 0.0038076569, -0.0154390233, -0.0930957943, 0.0123691903, -0.0150352940, -0.0583660342, 0.0492842831, 0.0360708199, -0.0154743306, 0.0374714397, 0.0150290132, 0.0338524133, -0.0529907569, -0.0063639511, -0.0430448130, 0.0418221056, -0.0967803672, 0.0016110335, -0.0423774347, 0.0304499939, 0.0281152241, 0.0668768883, -0.0012877635, 0.0323854163, 0.0069397897, 0.0158723351, 0.0359537415, 0.0279495046, 0.0415563360, -0.0965634584, -0.0404589809, -0.0375752635, 0.0164062399, 0.0933628902, -0.0893339962, 0.0030904273, 0.0757683814, -0.0796131045, 0.0150296027, 0.0199756492, -0.0151358945, -0.0166153256, 0.0509483255, -0.0567181110, -0.0294499323, 0.0243677329, 0.0153757306, -0.0033591939, -0.0266844034, 0.0050535868, -0.0055286409, -0.0106775295, 0.0118546784, 0.0001017571, -0.0140037062, 0.0415221415, -0.0179257542, 0.0311617665, -0.0568562634, 0.0249555279, 0.0128733739, -0.0062897746, 0.0165307559, 0.0110725639, -0.0191106237, -0.0278908126, -0.0658456087, 0.0104200775, 0.0020230457, -0.0041919593, 0.0978185013, 0.0251812786, -0.0586236641, -0.0007236398, 0.0153175769, 0.0442669280, -0.0368936025, 0.0579023361, 0.0438470617, -0.0095280539, -0.0031522613, -0.0316402763, -0.0144522963, -0.0554790348, -0.0318727642, -0.0356841646, -0.0232449081, 0.0382838622, 0.0020893360, 0.0241744835, 0.0649469942, 0.0030348417, -0.1233464628, -0.0045199827, -0.0190503374, 0.0318106972, -0.0844553635, -0.0524873957, 0.0513659604, 0.0207033977, 0.0407747291, -0.0158718321, 0.0176729914, 0.0076864064, 0.0398891270, -0.0133386729, 0.0173621513, -0.0373348258, -0.0112566724, 0.0655668676, -0.0387175009, -0.0213852134, -0.0359015055, 0.0140334526, 0.0381866805, 0.0221809652, -0.0200997517, 0.0570670925, -0.0485141687, -0.0541798845, -0.0950323120, -0.0853262842, 0.0172342993, -0.0005532249, 0.0076673636, 0.0908324569, 0.0297332648, 0.0827090442, 0.0253558047, 0.0582077317, 0.0141563360, 0.0247305296, -0.0727340877, 0.0639358759, 0.0836333707, 0.0407078862, -0.0744915009, 0.0189614389, 0.0372448154, -0.1022713780, -0.0709120110, -0.0177814197, 0.0659918785, 0.0590110645, -0.0237265751, 0.0409522802, -0.0745498389, -0.0337891132, 0.0340030007, -0.0147956172, -0.0201295502, -0.0473609455, -0.0611473955, 0.0503865369, 0.0374401584, -0.0100795664, -0.0266719423, 0.0093302941, -0.0039134505, 0.0549593084, 0.0006554108, 0.0474123657, -0.0133344624, -0.0369492583, 0.0409183055, -0.0100010978, 0.0781674907, 0.0137189562, -0.0024524711, 0.0171314199, -0.0162027236, -0.0679968074, -0.0295301937, -0.0255397204, 0.0630605891, 0.0067198803, 0.0314089172, 0.0320160016, -0.0323827490, -0.0146914618, 0.0395825095, 0.0295261722, 0.0341232978, -0.0253202524, 0.0222637374, 0.0336964466, 0.0097911712, 0.0105287554, 0.0249800701, 0.0032361157, -0.0350919962, -0.0224941559, -0.0195038877, -0.0456354208, -0.0131892161, -0.0199992005, -0.0184197519, -0.0179128926, -0.0120445825, 0.0839654356, 0.0424624421, -0.0355252437, -0.0316383988, 0.0158188343, 0.0061817355, 0.0305859800, 0.0055844658, 0.0649835765, 0.0179801863, -0.0889406800, -0.1227404997, -0.0079727471, -0.0904683620, -0.0096882600, 0.0114736333, -0.0414356068, -0.0052435845, 0.0854775161, -0.0203543827, -0.0034751990, -0.0524446629, 0.0432674028, 0.0436834097, 0.0696622208, -0.0396062434, 0.0207585748, -0.0176865552, -0.0253091343, -0.0240669902, -0.0202701353, -0.0476585366, -0.0558401197, 0.0177238770, 0.0193033740, 0.0380263403, -0.0647093132, 0.0027157280, -0.0579479374, -0.0461203791, -0.0100651411, 0.0095690591, -0.0145784700, 0.0223265402, -0.0399560481, 0.0463537276, -0.0170262661, 0.0798411891, 0.0053518997, -0.0411515757, 0.0885727182, 0.0229789130, -0.0268445779, 0.0078006918, 0.0162165463, -0.0427110419, 0.0156979281, 0.0021059611, 0.0803159252, 0.0047648996, -0.0082298722, 0.0197156444, -0.0167789534, -0.0366784446, 0.0111831725, 0.0717736408, -0.0452466831, -0.0221140869, 0.0402012616, -0.0260359850, 0.0003209031, -0.0469742231, 0.0055660247, -0.1058467031, 0.0351214632, -0.0862294286, -0.0510362126, -0.0282336175, 0.0487154871, -0.1030447111, -0.0711169168, -0.1192682162, 0.0198638774, 0.0843642801, -0.0497547872, 0.0558804944, 0.0297178365, 0.0835975334, 0.0199985374, -0.0951967761, -0.0251691155, -0.0291387886, 0.0199955497, -0.0295361206, -0.0010304060, -0.0120654348, -0.0090951081, 0.0261946321, 0.0686681345, 0.0226334408, 0.0682101026, -0.0046650534, -0.0163993947, -0.0468724333, -0.0121043101, -0.0058532450, -0.0528742559, 0.0578705966, 0.0437997878, 0.0243210662, 0.0110046566, -0.1075082719, 0.0134861106, -0.0740317479, -0.0186423156, 0.0000326876, 0.0122614065, -0.0779842883, 0.0134937679, -0.0173627455, 0.0111864321, -0.0445333645, 0.0560365766, -0.0137321502, 0.0345164575, -0.0380284190, -0.0436999053, 0.0706267580, 0.0004962678, -0.0587194115, -0.0479339510, -0.0269611385, -0.0354722477, 0.0111729717, 0.0217463337, -0.0163835734, 0.0722751394, 0.0163193345, -0.0255933404, -0.0049386900, 0.0635878369, 0.0516493171, -0.0223356672, -0.0407116003, -0.0251639280, -0.0165684819, -0.0326825343, -0.0646343604, 0.0055125919, 0.0564772934, -0.0031532208, 0.0334066376, -0.0937968642, -0.0452683978, -0.0042911442, 0.0626557246, 0.0027491646, 0.0383802280, 0.0103335120, 0.0116054500, 0.0452774800, -0.0720796213, -0.0045840037, -0.0043241312, -0.0151991518, 0.0032042176, -0.0525932759, -0.0599676147, 0.0135345850, 0.1018480882, -0.0536027178, 0.0330221206, 0.0072307033, -0.0293513834, -0.0821161643, 0.0863954499, 0.1048111990, -0.0774676651, 0.0308664106, -0.0560809895, 0.0866988003, 0.0474126898, -0.0611462109, 0.0402472951, 0.0449115224, 0.0001900604, -0.0102094151, 0.0268663820, -0.0520597324, 0.0047333250, -0.0385368690, -0.0135331219, 0.0275719725, -0.0627193749, 0.0326850526, 0.0529727452, -0.0777122751, 0.0046780426, 0.0792208686, 0.0327669084, 0.0434932150, -0.0765311942, -0.0441994667, -0.0740508810, 0.0319128744, 0.0506697297, -0.0282045584, 0.0825089291, -0.0452036224, -0.0019124402, -0.0536018014, -0.0003625976, 0.0235597920, -0.0511797816, -0.0930374786, -0.0518316403, -0.0485850796, -0.0124500748, 0.0038410909, -0.0187371653, -0.0643635839, -0.0138731124, 0.0066279881, 0.0709941238, 0.0338604823, -0.0433070473, -0.0990890488, -0.0018530125, 0.0267941114, -0.0328879543, -0.0049392637, -0.0399106182, -0.0513942130, 0.0721326470, 0.0184217002, -0.0076694633, 0.0026196837, -0.0347351879, 0.0736186355, 0.0491810068, 0.0680422187, 0.0068703787, -0.0432489365, -0.0429636538, 0.0437314287, -0.0426043943, -0.0383259282, 0.0028490969, -0.0295694564, 0.0237026215, 0.0159235746, 0.0814500973, -0.0128594628, 0.0138248010, 0.0241822097, -0.0140809463, 0.0457608476, -0.0081150085, 0.0023001712, 0.0278087370, 0.0335694700, -0.0069645015, 0.0069208234, -0.0080149854, -0.0325746611, -0.0177047625, -0.0994257331, 0.0070679057, 0.0016812480, -0.0394712053, -0.0018252493, 0.0502408072, -0.0233255737, 0.0470162444, -0.0174533781, 0.0015230759, 0.0204763915, -0.0457342193, -0.0466367751, -0.0104088094, 0.0392203555, -0.0448375940, -0.0717118680, -0.0016690802, 0.0618687943, -0.0207516272, -0.0689241216, -0.0190365072, 0.0511921421, 0.0596261099, -0.0263964944, -0.0003330551, 0.0259816758, 0.0300814062, -0.0641564801, 0.0914429426, 0.0038273123, 0.0100762462, -0.0151569908, 0.0290795825, -0.0038940490, 0.0135490140, 0.0029758487, -0.0159891117, 0.0159879159, -0.0768609270, -0.0434164889, -0.0289851762, -0.0031813171, 0.0325497128, 0.0662196651, -0.0015923076, -0.0192826428, 0.0279447921, -0.0112601109, -0.0612390377, -0.0530242845, 0.0639152527, 0.0218829680, -0.0309799742, 0.0149513939, -0.0591300614, -0.0078196842, -0.0096362205, -0.1118187606, -0.0320043229, -0.0972752571, -0.0142310597, -0.0625636131, 0.0031702337, -0.0275264587, -0.0434753858, 0.0392110869, -0.0244448893, 0.0274241120, 0.0227955133, 0.0573251992, 0.0383210666, -0.0458789431, -0.0088744098, 0.1080760807, 0.0549502149, -0.0995829329, 0.0664477572, -0.0292444322, 0.0205371361, -0.0134867840, 0.0529120415, -0.0383333676, 0.0234207455, -0.0001684993, 0.0074644564, 0.0256482325, 0.0033166287, -0.0518183447, 0.1044804603, -0.0495540090, 0.1132311821, -0.1023813039, -0.0389451645, 0.0984347835, 0.0302105583, 0.0188225415, 0.0152082630, -0.0541975796, 0.0582114048, 0.0064718332, 0.0177880730, 0.0419951826, -0.0310783274, -0.0134304632, -0.0060063843, 0.0053569246, 0.0230100956, -0.0017575435, 0.0035598734, 0.0050912737, 0.0584871136, 0.0224798694, 0.0511875786, 0.0209884644, 0.0880965218, -0.0091681117, 0.0507254153, -0.0872239470, 0.0106473938, 0.0008686292, 0.0289458651, -0.0437156856, -0.0020728251, 0.0206491910, -0.0409097597, -0.0149003258, -0.0131116360, -0.0106808729, 0.0263387021, 0.0327226259, 0.0297063552, -0.0294348747, 0.0390231349, -0.0023147012, -0.0486436151, -0.0441444032, -0.0014667183, -0.0121552199, 0.0507811494, 0.0043222541, 0.0802113712, -0.0699647442, -0.0289595593, -0.0145992031, 0.0754212067, 0.0023742113, 0.0281660091, -0.0504780412, -0.0862348974, -0.0334548503, -0.0122798923, 0.0220429096, 0.0167812388, 0.0058489325, -0.0039122337, -0.0020306986, -0.0603343695, -0.0183299221, -0.0301078558, 0.1054071933, -0.0289893188, -0.0403021686, 0.0566397607, 0.0419818684, -0.0408734977, -0.0981514007, 0.0964444503, -0.0284481756, -0.0390857533, -0.0427286886, -0.0673487410, 0.0361939408, 0.0926327854, -0.0626067594, -0.0185546838, 0.1027779579, 0.0008804910, 0.0183900855, -0.0133164562, -0.0578702763, 0.0402863175, -0.0870198086, -0.0066174455, 0.0178691782, 0.0325387791, -0.0397706032, 0.0552986488, -0.0714529380, 0.0170754530, -0.0005289540, 0.0427455641, -0.0374588259, 0.0144140627, 0.0029871603, -0.0325823203, 0.0492759049, -0.0453267209, 0.0053619370, -0.0896365568, -0.0072024688, -0.0039484296, -0.0311608817, -0.0096319932, 0.0024834529, 0.0067519746, -0.0001884783, -0.0718862116, -0.0564423054, -0.0680607259, 0.0046452666, -0.0136865694, -0.0606109388, -0.0153318215, 0.0560980625, -0.0096064433, 0.0103994980, 0.0682029203, 0.0753076300, 0.0196792092, 0.0005716627, 0.0776057839, 0.0390936248, 0.0400839597, 0.0088563487, -0.0026870715, 0.0178471841, -0.0406479500, -0.0029740559, -0.0556256361, 0.0068019698, -0.0523666963, -0.0001310860, 0.0546156093, -0.0249238256, 0.0731602684, 0.0247661043, -0.0219259225, -0.0363949090, 0.0317502171, -0.0126318149, 0.0010276516, 0.0032305093, -0.0010190489, 0.0026196123, 0.0467693582, -0.0133639053, -0.0149656367, -0.0136166662, 0.0102408752, 0.0050921375, 0.0461607724, -0.0039335266, 0.0217361785, -0.0190291684, 0.0229756068, 0.0483045429, -0.0543168336, -0.0439269096, 0.0089816041, 0.0031991671, -0.0112744961, -0.0563089401, 0.0144492276, -0.0720854402, -0.0614968352, -0.0541674457, -0.0292165838, -0.0126201725, 0.0114974389, -0.0017646973, 0.0367158949, -0.0072997124, -0.0778955221, 0.0182788763, -0.0277693346, 0.0738002509, 0.0101411380, 0.0564820394, -0.0554216839, 0.0334594026, 0.0320173874, 0.0239467118, 0.0094643971, -0.0435395949, 0.0217876565, -0.0083059054, -0.0080896905, -0.0207046904, -0.0036599203, -0.0408471040, -0.0628832206, -0.0090507250, -0.0740894228, 0.0642300323, 0.0390923433, 0.0549601428, -0.1055898294, -0.0003724946, 0.0681179538, -0.0141150495, -0.0086801723, 0.0148911476, -0.0384870917, 0.0036252509, 0.0406909287, -0.0356553979, 0.0724964738, 0.1313622296, -0.0296124760, 0.0100841876, 0.0025808979, 0.0294104517, 0.0619008988, 0.0101898592, 0.0252175499, 0.0118183251, 0.1070837080, 0.0054184655, 0.0606318675, 0.0630625486, -0.0675621182, 0.0141691156, 0.0335523263, 0.0030766949, -0.0050679082, 0.0161758438, 0.0125862667, 0.0462517440, 0.0049029021, -0.0172028206, 0.0509823300, 0.0498005822, 0.0230160356, -0.0668134913, 0.0364047810, -0.0097649600, 0.0388773903, 0.0961253569, 0.0559109971, -0.1020046026, -0.0422708727, -0.0376206040, -0.0637152940, -0.0016213781, 0.0064322222, -0.0304699242, -0.0059583951, 0.0360409953, 0.0636043921, -0.0409809016, 0.0318814740, 0.0126504041, 0.0719406977, 0.0516978130, -0.0715378821, -0.0051575312, -0.0541459993, 0.0039787758, 0.0595334508, 0.0672976747, -0.0019785904, -0.0333813317, 0.0052051824, 0.0186918322, -0.0214972775, -0.0507988445, 0.0230819173, -0.0238996632, 0.0607949458, 0.0356472135, -0.0137911346, -0.0339912660, -0.0008900333, 0.0104584005, 0.0559082776, 0.0346576497, 0.0297214761, 0.0350850672, 0.0412763134, -0.0486722887, 0.0118263578, -0.0093622971, -0.0694582090, 0.0376324169, -0.0628561154, 0.0058162166, 0.0446747914, 0.0005099149, -0.0796650425, 0.0947402865, 0.1173312142, -0.0418150350, -0.0776515380, -0.0337721668, -0.0386069417, -0.0137732103, 0.0772803575, -0.0291441139, 0.0237877779, -0.0339997001, 0.0308309160, -0.0708858743, -0.0321063027, 0.0001128535, -0.0130623076, -0.0545905642, -0.0113850962, -0.0192628056, -0.0386280157, -0.0384034142, -0.0566753373, 0.0399094298, 0.0872767270, 0.0760526061, 0.0434561707, -0.0424172059, 0.0503523797, -0.0258536339, 0.0236873366, 0.0389236212, 0.0382394604, 0.0429686755, -0.0725672618, 0.0378800333, -0.0117404498, 0.0486581028, 0.0046737418, -0.0379941948, 0.0114497803, -0.0273950081, -0.0007886989, -0.0149783269, 0.0187177397, -0.0379029214, 0.0274777003, -0.0367128775, 0.0159092937, 0.0049180603, -0.0209344868, -0.0524477027, -0.0570045449, 0.0794095621, -0.0081672929, 0.0402130075, -0.0093179736, -0.0845116675, 0.0455255024, -0.0609341636, -0.0199308358, 0.0416023098, 0.0935030878, 0.0786901638, -0.0732426196, 0.0419657417, -0.0225495249, -0.0006974834, 0.0147426203, 0.0228843838, -0.0516967662, -0.0092739053, -0.0702426806, -0.0355559029, -0.0736454874, 0.0663898215, 0.1194369271, 0.0527446046, -0.0354313552, 0.0688072816, -0.0258750711, 0.0610315427, 0.0259032976, -0.0047125290, -0.0075697061, 0.0512710996, -0.0187799558, -0.0173541345, 0.0202049799, 0.0407787114, 0.0082801208, -0.0648166388, 0.0363320448, 0.0173956305, 0.0036123050, 0.0366937518, 0.0011959842, -0.0491806604, 0.0002681399, -0.0257280543, -0.0290424991, 0.0591048151, -0.0293531865, -0.0573173054, 0.0016717976, -0.0541900843, -0.0522654131, 0.0419603549, -0.0356841572, 0.0561922342, 0.0032265037, 0.0726354793, 0.0448041745, 0.0756051093, -0.0076607545, -0.0097921668, -0.0376664586, -0.0027116546, 0.0351058319, -0.0603986196, -0.0298586451, 0.0255848896, -0.0323248245, 0.0591883659, 0.0172261689, -0.0167658981, -0.0442674272, 0.0016383242, 0.0619572327, -0.0022052014, 0.0507612973, -0.0472524278, -0.0011996133, 0.0530393720, -0.0770656765, -0.0882370174, 0.0068365149, 0.0278073102, -0.0034600720, 0.0258162189, -0.0392747447, -0.0713292956, 0.0185383577, 0.0366345011, -0.0551914982, 0.0417185947, 0.0811822191, 0.0468639769, -0.0409454852, 0.0031984732, 0.0023737277, -0.0364619307, -0.0308555160, -0.0797220170, 0.0019691023, 0.0223540813, 0.0001920955, -0.0547880419, 0.0216754396, 0.0292145722, -0.0374496058, -0.0194545984, 0.0660678372, 0.0340085477, 0.0423629321, 0.0529562570, 0.0141124474, 0.0110461833, 0.0097799739, -0.0011361570, -0.0462329760, -0.0171857513, -0.0227302536, 0.0539241619, -0.0896488205, 0.0012896089, 0.0166899040, -0.0212473888, -0.0566713922, -0.0192237105, 0.0122961206, 0.0464663133, -0.0386565477, 0.0496477708, 0.0073939292, -0.0554124489, -0.0364623666, -0.0155338813, -0.0075002555, -0.0158325117, -0.0741141886, 0.0139876809, -0.0047680037, 0.0546368323, 0.0625861362, 0.0542621017, 0.0383277722, 0.0038228850, -0.0103743523, 0.0311551280, 0.0079855798, -0.0268759541, -0.0397386998, -0.0333480313, -0.0611192286, -0.0560229532, 0.0338786021, -0.0797148570, -0.0116816331, 0.0565736331, -0.0487105213, -0.0317163505, 0.0215648748, -0.0520652756, 0.0267308950, 0.0304995775, -0.0906160697, 0.0241341107, 0.0383446403, 0.0336705111, 0.0531100184, 0.0157759860, 0.0482364595, -0.0463232473, -0.0700913519, 0.0903601348, 0.0363587178, 0.0030732455, 0.0035749651, 0.0761627257, -0.0677749068, -0.0420413129, 0.0129034733, 0.0406314358, 0.0204571187, -0.0026254752, -0.0214491542, 0.0224597342, -0.0739655346, 0.0003543877, -0.0302954596, -0.0620038435, 0.0474069677, -0.0541159660, -0.0209262688, -0.0365159959, 0.0364122055, 0.0179649405, -0.0044522034, -0.0072782957, 0.0722243413, -0.0231731702, -0.0530876778, 0.0043818327, 0.0327725038, 0.1208672002, -0.0073020519, 0.0214874540, 0.0125325089, 0.0024847719, -0.0085175112, 0.0007156059, 0.0087797306, -0.0062521659, 0.0824773610, 0.0492164642, -0.0241121575, -0.0032780785, 0.0087226126, -0.0416934788, -0.0123813991, 0.0272359494, -0.0321163572, 0.0203830544, 0.0590533651, -0.0818201602, 0.0170618426, 0.0643779710, -0.1320249587, -0.0060899649, 0.0289190840, 0.0200609155, 0.0221627057, -0.0055976808, 0.0003504644, -0.0354870185, -0.0378060378, -0.0906328410, 0.0576986857, 0.0012528864, -0.0480887555, 0.0321091190, 0.0221532248, 0.0262942258, -0.0502824895, 0.0354873501, -0.0259384010, 0.0122399796, -0.0067478693, -0.0372780189, -0.0197373908, -0.0372610763, -0.0064065512, -0.0201272108, 0.0178235583, -0.0594516098, -0.0140464650, 0.0044835433, 0.0136842960, -0.0021831370, -0.0051502888, 0.0243205782, 0.0139783211, 0.0141879488, 0.0860181749, 0.0157133378, 0.0027964266, 0.0601807833, 0.0025858618, 0.0305425506, 0.0426598936, -0.0072591910, 0.0279950909, -0.0374492817, -0.0564736612, 0.0891255215, 0.0271534175, -0.1240576208, -0.0098395087, 0.0012221101, -0.0560364164, -0.0908963159, 0.1115442738, 0.0316164829, -0.0076863621, 0.1033918336, 0.0349223800, 0.0390092991, 0.0704729781, 0.0886545703, -0.0207271595, -0.0469325222, 0.0329239480, 0.0047089336, -0.0397200659, -0.0564002693, 0.0250090882, -0.0743076131, 0.0875768140, 0.0655872971, 0.0315129459, 0.0489210859, 0.0100014191, 0.0330014117, 0.0914362147, -0.0125205303, -0.0502967946, 0.0109056486, 0.0122399656, -0.0515804850, 0.0320301428, -0.0098486571, 0.0461025238, 0.0047393828, 0.0642553568, -0.0606522337, -0.0145914629, -0.0078965193, 0.0343148485, 0.0527555943, 0.0091357557, -0.0245906841, -0.0003071884, -0.0108749475, -0.0411525071, 0.0003524116, 0.0619897209, 0.0749560595, -0.0114514790, 0.0038147117, 0.0487087071, 0.0077885520, 0.0349084884, 0.0329055637, -0.0941393971, -0.0332195908, 0.0380955674, 0.0597155802, 0.0018583341, 0.0410500467, -0.0185881872, 0.0019571015, 0.0008219562, 0.0334136114, -0.0570134260, 0.0814864561, 0.0605744347, -0.0437767021, -0.0255571716, 0.0103387600, 0.0294716451, 0.0114026600, 0.0068561481, 0.0027413210, 0.0515462831, 0.0431351736, 0.0546175800, 0.0340479650, 0.0468863845, -0.0540171675, 0.0530245006, 0.0066719907, -0.0204195064, -0.0253490731, -0.0342113785, -0.0185987316, -0.0144780306, 0.0840622857, 0.0010257405, 0.0275461860, 0.0322929174, -0.0226328820, 0.0752746090, -0.0232150294, 0.0452744588, 0.0174487177, 0.0443749540, 0.0194047876, -0.0216691606, 0.0141581288, -0.0276332218, 0.0246753786, -0.0116662700, -0.0460057966, 0.0346751027, -0.0241295416, 0.0734217539, 0.0931333378, -0.0258055795, 0.0102950176, 0.0105347792, 0.0044919066, 0.0014097313, 0.0116888788, -0.0120276781, -0.0153841889, -0.0048987367, 0.0312353987, -0.0011846507, 0.0667079687, -0.0132090300, -0.0095510492, -0.0225366727, 0.0915454999, -0.0150425844, 0.0466929376, 0.0283551626, 0.0067807809, -0.0617318600, 0.0347415991, 0.0333820544, -0.0416936278, -0.0783412457, -0.0082341470, -0.0231384188, -0.0332019068, -0.0353752300, 0.0251139626, -0.1324589998, 0.0446132794, -0.0636914000, -0.0206532944, 0.0717219785, 0.0080999993, -0.0117338272, -0.0361358300, 0.0035157828, -0.0859229118, -0.0187173914, 0.0043363692, 0.0195450634, 0.0358638205, 0.0013050558, -0.0005153421, -0.0145274689, -0.0857708454, 0.0161246583, -0.0289302673, 0.0133640533, 0.0336655676, -0.0263050329, 0.0190126263, -0.0316089503, -0.0131468307, -0.0201718267, 0.0317917578, -0.0301309712, -0.0387841724, 0.0398855917, -0.0335902348, 0.0010215836, 0.0652732030, 0.0099955332, -0.1107968688, 0.0804948732, -0.0178912580, -0.0315719582, -0.0508706011, -0.0047144573, -0.0247426648, 0.0507227890, 0.0261674523, 0.0085930843, -0.0211835317, -0.0265081190, -0.0797187909, 0.0102309668, 0.0630039349, -0.0169005878, 0.0044015339, -0.0451004356, 0.0023611160, 0.0553707182, -0.0827925205, -0.0374185145, 0.0500643663, 0.0240783263, 0.0131324930, -0.0711649433, -0.0891779587, -0.0117015587, 0.0869778469, 0.0042267987, -0.0364505500, -0.0238231197, -0.0202937759, 0.0396806896, -0.0277300868, 0.0306666363, -0.0000601283, -0.0220863391, -0.0008245184, 0.0050056861, 0.0208574627, -0.0173149761, -0.0734976456, -0.0296047367, -0.0321565270, 0.0043339436, 0.0842542201, 0.0339290313, -0.0100725396, -0.0135748060, -0.0625591204, -0.0245972611, -0.0969677269, -0.0998192877, -0.0540196896, 0.0562697016, 0.0588496402, -0.0406326726, 0.0197139531, 0.0498609021, -0.0588709712, -0.0710398555, -0.0555850528, 0.0042679324, 0.0300276987, 0.0030226721, 0.0793009847, -0.0204430707, -0.0109594464, 0.0263267737, 0.0357235409, 0.1146412492, 0.0953363404, -0.0559919327, 0.0101934532, -0.0141966548, -0.0536084510, 0.0202310476, 0.0123335440, -0.0353957079, -0.0023671207, 0.0882727057, 0.0551420487, 0.0159983356, 0.0618676469, -0.1050424203, -0.0423653387, 0.0100492071, -0.0183340590, -0.0169630907, 0.0133866370, 0.0364066586, -0.0351126231, 0.0130268196, -0.0032493542, -0.0394976437, -0.0126092033, -0.0558992848, 0.0210166927, 0.0216575377, -0.0512733459, 0.0081865396, -0.0737798214, -0.0388530530, 0.0163142495, 0.0316224433, 0.0313884430, -0.0747487396, -0.0306642372, 0.0175814293, 0.0077130590, -0.0214707013, -0.0513329022, 0.0032470168, 0.0334612727, -0.0099288002, 0.0463408716, 0.0970570967, -0.0212619342, -0.0596681647, -0.0474590994, 0.0389013514, 0.0219886750, -0.0091090063, -0.0033463845, 0.0471846499, -0.0919697136, -0.0417438373, 0.0653495267, -0.0386676788, 0.0301612876, 0.0386306420, 0.0041848207, -0.0325910226, -0.0385907628, -0.0677996129, 0.0511987656, 0.0414709672, 0.0055393004, -0.0321653076, 0.0398157686, -0.0106746396, -0.0464219563, 0.0242093857, -0.0100911092, -0.0215762798, -0.0672882348, -0.0216074493, -0.0427179486, 0.0119979521, 0.0147795510, -0.0362833291, 0.0160604939, -0.0428927653, 0.0151686855, -0.0162796378, -0.0296778791, 0.0161092766, -0.0836430192, -0.0435206629, -0.0535184853, -0.0168721192, -0.0147785069, 0.0025886763, -0.0347688533, -0.0008857592, -0.0704674050, -0.0408749916, 0.0223427340, -0.1021130234, -0.0056524351, 0.0516671687, -0.0702825710, 0.0906102955, -0.0234237667, -0.0145141175, 0.0276834723, -0.0346223786, -0.0439992994, -0.0137158344, -0.0571095534, 0.0099222297, -0.0549256280, 0.0567764267, -0.0936843604, -0.0267756153, -0.0446879081, -0.0156163573, 0.0178710558, 0.0710381716, -0.0011690711, 0.0001980258, 0.0310554802, 0.0382799730, -0.0024423092, -0.0116607966, 0.0111370590, -0.0496130548, -0.0533016548, -0.1099942997, 0.0586169623, -0.0463146009, 0.0052454071, 0.0031719850, -0.0999563485, -0.0707898512, 0.0342908949, 0.0075036800, -0.0267784204, 0.0018265233, -0.0188341700, 0.0067523839, -0.0067492914, 0.0175637044, 0.0088973427, -0.0483698286, -0.0397843011, -0.0356704183, 0.0408686437, -0.0667058900, 0.0520723425, 0.0366572067, -0.0300229527, 0.0348236002, -0.0323432423, 0.0237407684, -0.0061390707, -0.0278778095, 0.0412214324, -0.0494216010, 0.0266700983, 0.0096982997, -0.0414751731, 0.0526563786, 0.0297925286, 0.0288966186, -0.0069652935, -0.0747343898, 0.0316715240, 0.0367141664, 0.0082552135, 0.0835432038, -0.0031550459, -0.0104288338, 0.0706725940, -0.0253827535, -0.0729398876, 0.0209604483, 0.0271282177, 0.0527809300, 0.0212072730, 0.0059665735, 0.0381512493, 0.0545191579, -0.0768347755, -0.0367264450, 0.0177343264, -0.0038108595, 0.0391983800, 0.0042487960, -0.0037340373, -0.0749206096, 0.0319615118, 0.0798748508, -0.0441805832, 0.0777777955, 0.0780033395, 0.0366011709, 0.0318577774, 0.0149918711, -0.0328225866, 0.0519638099, 0.0817610472, 0.0918414816, -0.0061015594, 0.0192938410, 0.0124720661, 0.0632782653, -0.0053313477, 0.0046954933, -0.0420811288, 0.0364733338, 0.1237726659, -0.0274709240, -0.0033125803, 0.0409279466, 0.0589641482, -0.0589907095, 0.0025267883, 0.0386501774, 0.0535041951, 0.0061709546, 0.0411044620, -0.0598719716, 0.0109100454, 0.0494265445, -0.0571667850, 0.0283398069, 0.0333867073, -0.0350978449, 0.0385217778, 0.0615231730, 0.0730725527, -0.0091894930, -0.0186946560, -0.0220183358, -0.0014664474, -0.0169301257, -0.0289210081, 0.0153375845, 0.0399598032, 0.0009242340, -0.0215207972, 0.0445458144, 0.0360784009, -0.0203056987, 0.0196507666, -0.0368461832, 0.0092343353, -0.0788061917, 0.0204438306, -0.0655412152, -0.0037499839, 0.0355851389, 0.0234950855, 0.0065241563, 0.0136674866, 0.0237165615, -0.0249586049, -0.0142835164, -0.0688944161, 0.0039232671, -0.0418657139, -0.0168853793, -0.0566654764, 0.0015589646, 0.0616067424, 0.0824836493, 0.0010590815, -0.0349030159, 0.0200017337, 0.0147340503, -0.0640747473, 0.0141891818, -0.0028303866, -0.0094343992, -0.0288861748, -0.0571186393, 0.0171750002, -0.0462236777, -0.0107127028, -0.0437935516, 0.0116191301, -0.0799681321, 0.0549275056, 0.0211097654, -0.0524411872, 0.0320227630, -0.0001597878, -0.0420042090, -0.0699917078, 0.0206116680, -0.0288405679, 0.0031715643, -0.0752370209, 0.0384354070, -0.0255406722, 0.0679806620, -0.0997060835, 0.1167300642, 0.0043232888, -0.0189400110, 0.0143480357, -0.0273204576, -0.0062957625, 0.0507358275, 0.0438388661, 0.0140293716, -0.0336752459, -0.0390961394, 0.0582575724, 0.0777226239, -0.0026099405, -0.0214341637, 0.0190753452, -0.0189588349, -0.0304880049, -0.0166241154, -0.0034031200, 0.0052250330, 0.0245625861, -0.0085748089, -0.0195465982, 0.0361334682, 0.0041050604, 0.0002219136, -0.0355014950, -0.0165301748, 0.0169640705, -0.0694642067, 0.0396013260, -0.0434462242, 0.0628992915, 0.0397323817, 0.0577122867, -0.0475619882, 0.0793205574, 0.0594982095, -0.0934916064, 0.0104534058, -0.0321481265, -0.0791992769, -0.0038003514, 0.0064810514, -0.1052144393, -0.0161763988, 0.0298871305, -0.0874123722, -0.0703073815, 0.0674780384, -0.0205197670, 0.0176950283, 0.0059529818, -0.0807151496, -0.0331615359, -0.0030297870, -0.0883709416, 0.0328517109, 0.0238430947, 0.0332625397, -0.0028839610, 0.0323253088, 0.0281652268, -0.0428582728, 0.0581262931, 0.0136888372, -0.0431518033, 0.0319827162, 0.0193296168, -0.0285515077, -0.0556885898, -0.0294173472, 0.0750096217, 0.0683086887, -0.0368246958, -0.0393444039, 0.0096370066, -0.0265661683, -0.0145680793, -0.0126153771, -0.0008061399, 0.0442826524, 0.0454292931, -0.0593800992, -0.0715140775, 0.0023224116, -0.0071789497, 0.0714135021, -0.0299180616, -0.0299529061, 0.0520477146, -0.0220957641, -0.0433441177, -0.0110283028, -0.0182602201, 0.0291403364, 0.0404922590, 0.0377222523, 0.0081041064, 0.0362765677, -0.0349398740, -0.0213608854, -0.0342738926, -0.0355915502, 0.0204284284, 0.1155737638, -0.0510225557, 0.0259316079, 0.0042296574, -0.0422407538, 0.0307630077, -0.0077568460, -0.0208255835, 0.1120639965, 0.0929989293, 0.0351107530, 0.0750529170, 0.0710979849, 0.0476944484, -0.0275988765, -0.0414009504, 0.0280468259, -0.0330390520, -0.0159184858, 0.0510426983, 0.0417545140, 0.0628710538, -0.0027694867, 0.0503874570, -0.1179153025, -0.0176748671, 0.0077010021, 0.0135399699, 0.0021967296, 0.0172263198, 0.0620159507, -0.0143365674, -0.0863031447, 0.0326778069, -0.0258603450, 0.0874186233, 0.0859830976, 0.0176992565, -0.0400061086, -0.0246414654, 0.0011205790, 0.0332481787, -0.0499812104, -0.0203578025, -0.0722183734, -0.0755985901, 0.0303026214, -0.0852800459, 0.0119124167, -0.0271453504, -0.0159341469, 0.0106130904, 0.0397314951, -0.0362922251, 0.0023691347, 0.0197802875, -0.0309128463, -0.0680101141, -0.0312618650, 0.0988854989, 0.0068011861, -0.0660699382, 0.0000355945, -0.0089760553, 0.0285378508, -0.0247839149, 0.0402559116, 0.0403814875, 0.0032215414, 0.0364698023, -0.0346476063, 0.0389951319, -0.0212728884, 0.0157257505, -0.0273401216, 0.0213267300, 0.0188079998, 0.0302316286, 0.0763306767, -0.0135618299, -0.0064848540, 0.0276235994, -0.0271488540, 0.0249291677, 0.0003320132, -0.0198845714, 0.0180925205, 0.0010304361, -0.0109715955, 0.0163827855, -0.0032519670, -0.0365270898, -0.0083183404, 0.0471529029, 0.0221877806, 0.0010181601, 0.1022661328, 0.0338131785, -0.0512719154, 0.0992225707, -0.0695530474, 0.0518765822, -0.0019728113, -0.0245949328, -0.0364888087, -0.0187637098, 0.0093987230, 0.0458618514, -0.0496345088, -0.0253233444, 0.0020634665, 0.0384744890, -0.0684682056, 0.0338577107, 0.0724566430, 0.0495265871, -0.0121477582, -0.0030454677, -0.0152576007, 0.0202268362, -0.0020698537, 0.0350271054, 0.0049134297, 0.0385878310, -0.0104073659, 0.0060678655, -0.0560961999, -0.0226938687, 0.0527910069, -0.0292261634, 0.0469095930, 0.0527142845, 0.0154377408, 0.0223876331, 0.0396658257, 0.0408588126, -0.0667208135, -0.1054629758, -0.0414810665, 0.0521636382, -0.0164525267, 0.0270956345, -0.0348771289, -0.0441735983, -0.0183808878, 0.0801352561, 0.0148548502, -0.0560019873, -0.0411880426, -0.0653611645, 0.0348494947, 0.0319090039, 0.0515498333, -0.0298838280, 0.0497279689, 0.1102322191, 0.0119745582, 0.0793451965, -0.0311990511, 0.0136223203, 0.0268597081, 0.0496991798, -0.0435305499, -0.0122651737, -0.0643787682, 0.0730969235, 0.1190025508, 0.0008119878, -0.0870551318, -0.0639072508, 0.0036765784, -0.0474702492, 0.0222430043, 0.0083217472, -0.0141381500, -0.0703877509, -0.0321962312, 0.0081990846, -0.0118100736, -0.0261925124, 0.0069060246, -0.0548595674, -0.0235367119, 0.0418186709, 0.0258912202, -0.0080453381, 0.0184682086, -0.0045270990, 0.0415141396, -0.0083818920, 0.0749831200, 0.0147954058, 0.0108230859, -0.0649453253, 0.0370480083, -0.0582214408, -0.0241961442, -0.0285120849, -0.0107995495, 0.0049009616, -0.1102108508, -0.0135853924, 0.0178517755, -0.0286852159, -0.0099663176, 0.0024902301, 0.0587817430, -0.0822256207, 0.0006655015, -0.0309171118, 0.0216668155, -0.0440688990, 0.0224038810, -0.0751835778, -0.0075268177, -0.0194192193, 0.0357378423, -0.0117838662, -0.0380208716, 0.0026960748, 0.0156300440, 0.0298317596, 0.0202126112, 0.0533240587, 0.0046629980, -0.0534545220, 0.0405738056, 0.0636688247, -0.0548918620, -0.0177983753, -0.0204544235, 0.0645850599, 0.0321278162, -0.0376269855, 0.0608702749, 0.0431301966, -0.0379480012, 0.0165561642, -0.0454193391, 0.0434188917, 0.0580621772, -0.1018736959, -0.0626322404, 0.0660467297, 0.0103574488, 0.0544393361, -0.0319031514, 0.0030213108, 0.0041991211, 0.0184694361, -0.0051161582, 0.0052510332, -0.0842352584, 0.0270944629, 0.0617827326, 0.0133883497, -0.1024780869, -0.0139812678, 0.0120280571, -0.0321081877, -0.0392141752, 0.0540393665, -0.0716907680, -0.0643569231, -0.0181883313, 0.0385074243, -0.0234321784, 0.0395420119, 0.0559359454, -0.0307480264, -0.0533724837, -0.0260374378, 0.0279061757, -0.0788204670, -0.0121648982, 0.0387869515, -0.0760380849, -0.0312716961, 0.0849148184, -0.0131383799, 0.0861915946, 0.0087821633, -0.0324180089, 0.0926733762, 0.0260067768, -0.0026805848, 0.0549927950, 0.0023413398, -0.0302329883, -0.0344583951, 0.0770194381, -0.0005249735, -0.1073827147, 0.0309107825, -0.0246840827, 0.0378080644, 0.0673909634, 0.0808783770, -0.0264821798, 0.0191566907, 0.0030264906, 0.0127776926, -0.0699896738, 0.0613834597, -0.0460603684, -0.0124328602, -0.0660802200, 0.0524476245, 0.0864787996, -0.0154656600, -0.0419258177, -0.0496010333, 0.0603153557, 0.0138982199, -0.0008640587, 0.0079198591, -0.0064331419, 0.0082712006, -0.0236042943, 0.0696787834, -0.0161295440, -0.0353823528, -0.0430440158, 0.0500252321, 0.0153713552, -0.0041696979, -0.0495564193, -0.0791552216, 0.0280737355, 0.0015555583, -0.0274508372, -0.0436966754, -0.0015888596, 0.0001168155, 0.0028583459, -0.0169688798, 0.0539940186, 0.1265757680, -0.0378313847, 0.0343186967, 0.0176099055, -0.0195582192, 0.0677754655, 0.0479116850, 0.0014216353, 0.0277625024, -0.0623781271, -0.0628707036, 0.0176217742, 0.0375904888, 0.0587345622, 0.0306464341, 0.0853765905, -0.0463821925, -0.0798416361, 0.0416685864, 0.0238409545, -0.0463841148, 0.0237279329, 0.0474497341, 0.0104096308, 0.0089094108, -0.0113814902, 0.0136976819, 0.0121566877, -0.0582317151, 0.0103058042, -0.0069887592, 0.0126327332, 0.0059933867, -0.0112198815, -0.0163026266, 0.0450653434, -0.0037370729, 0.0044787796, 0.0350957252, -0.0044360589, 0.0010302651, -0.0180527400, -0.0086526200, 0.0630303323, 0.0371359475, -0.0591221787, -0.0106428349, -0.0067728655, 0.0021719311, 0.0329436362, 0.0373929366, 0.0868854672, -0.0418807343, 0.0076177926, 0.0140527776, 0.0233990792, 0.0013924531, -0.0260230675, 0.0065878592, 0.0388209708, 0.0260235183, -0.0155028580, 0.0799734518, 0.0119018257, -0.0378602184, -0.0260749273, -0.0839020684, -0.0684050918, 0.0010707986, -0.0204393659, 0.0318982042, 0.0604832843, 0.0488724373, -0.0362569541, 0.0447865389, 0.1005397588, -0.0106299361, -0.0834628046, 0.0180509090, 0.0313589759, 0.0946552232, 0.0193144698, 0.0505439378, -0.0091161486, 0.1051866636, -0.0162623487, 0.0775013864, 0.0374247432, -0.0294368360, -0.0104454607, -0.0782306567, 0.0701192617, -0.0591251142, -0.0268813372, 0.0037069479, -0.0256486796, 0.0247456431, -0.0251780171, -0.0735655054, -0.0369590931, 0.0163527355, -0.0128009841, -0.0432375856, 0.0136242276, -0.0305722710, 0.0332010910, -0.0444424339, 0.0883404464, -0.0281517282, 0.0333479904, -0.0312340632, -0.0126537550, 0.0118859876, -0.0449930839, 0.0387064889, -0.0062234933, -0.0851965174, 0.0306705404, 0.0337797925, 0.0232760999, -0.0187352169, 0.0661221147, -0.0458330624, 0.0965763032, -0.0093571106, 0.0494415946, 0.0104881581, 0.0894366726, 0.0604594238, 0.0766365305, -0.0272668190, -0.0218602363, -0.0203133170, 0.0037210002, -0.0115124881, -0.0209735967, -0.0206896774, -0.0266237669, -0.0441096276, -0.0244300719, -0.0112307100, 0.0173556507, -0.0688659325, -0.0275657158, -0.0196136199, -0.0624874346, 0.0362911299, 0.0767083243, -0.0215082746, -0.0298516266, -0.0130291171, 0.0726920515, 0.0308499075, -0.0151826153, 0.0403940268, -0.0429082625, 0.0627314821, 0.0083517246, -0.0359448567, 0.0020856529, 0.0659022927, -0.0296441913, 0.0102145933, -0.0050655333, 0.0185514521, -0.0021865168, 0.0263881199, -0.0301038045, -0.0296814013, -0.0345105752, 0.0357415117, 0.0745938644, 0.0195042733, -0.0770558268, -0.0359292738, -0.0911502093, 0.0098849377, 0.0364757217, 0.0167523846, -0.0182653815, -0.0279001035, -0.0221069343, 0.0262230244, -0.0472701341, 0.0152382394, -0.0131418817, -0.0106949080, 0.0200366937, 0.0031673424, -0.0293758791, -0.0226241201, -0.0582603440, -0.0557804815, -0.0362850018, -0.0096222088, -0.0167077836, 0.0481297374, -0.0082054436, 0.0198738240, -0.0640973374, 0.0906439051, -0.0121708568, 0.0396544226, -0.0068760617, -0.0330641344, 0.0210474227, 0.0698750466, -0.1071823463, 0.0029780883, 0.0769800022, -0.0382067785, 0.0212729648, -0.0481430776, -0.0343629643, 0.0537659228, 0.0015104410, 0.0278646406, 0.0107217012, 0.0954746231, 0.0179429706, 0.0610566139, -0.0322984084, -0.0131840324, 0.0364681222, 0.0118240174, 0.0715462267, -0.0014497722, -0.1026099175, -0.0636916682, -0.0389766209, -0.0045810435, -0.0873311535, -0.0055608107, -0.0611036234, -0.0963716656, -0.0414323658, 0.0457614213, -0.0947229192, 0.0681170300, 0.0507046767, -0.0410631746, 0.0584923066, 0.0295244530, -0.0358127169, 0.0952038914, 0.0128828250, -0.0168444514, -0.0356372744, 0.0125954859, 0.0366729237, -0.0470422655, 0.0203957874, 0.0877708346, 0.0648074001, -0.0291315299, -0.0259675980, -0.0839641318, 0.0017423632, -0.0589395538, 0.0299378950, -0.0520577729, 0.0031432344, -0.1047902554, -0.0167869087, 0.0447134376, 0.0283185318, 0.0607392937, -0.0249280836, -0.0252099112, 0.0295192767, 0.0361354575, 0.0025226986, 0.0452479608, -0.0756468847, 0.0068339100, 0.0175053403, -0.0010259193, -0.0561499670, 0.0510142446, -0.0452200361, 0.0793454126, -0.0508684479, -0.0119540319, -0.0682323724, -0.0603982471, 0.0385430232, -0.0541051328, -0.0308540314, -0.0344025008, 0.0668032691, -0.0413105749, -0.0406014733, -0.0182350241, -0.0444499329, 0.0126558281, -0.0268099885, 0.0522448905, -0.0040773172, 0.0446686037, 0.0062231543, 0.0114752315, 0.0421530381, 0.0246434212, -0.0428721383, 0.0252492614, -0.0595961623, -0.0813027248, 0.0209472589, -0.0471144021, -0.0123874042, 0.0391291082, 0.0379299000, 0.0078607090, -0.0399489328, 0.0024426435, -0.0662309974, -0.0142844114, 0.0177501030, -0.0552607737, 0.0181639194, 0.0323932841, 0.0297472626, -0.0153901130, 0.0638377070, -0.0399514921, -0.0364104100, 0.0136553636, -0.0116293905, 0.0433261655, 0.0951327905, -0.0433482751, 0.0364455916, 0.0563174784, -0.0276506599, -0.0158823598, 0.0524666384, -0.0246347077, 0.0119584799, 0.0138764363, -0.0185873136, 0.0136805847, -0.0034210733, 0.0741931349, -0.0397972316, -0.0314642116, -0.0494597442, 0.0118950289, 0.0491371714, 0.0061550541, -0.0201563984, 0.0428204685, 0.0149069428, -0.0131288934, -0.0202620458, 0.0424515493, -0.0453255735, -0.0081780441, -0.0037943921, 0.0120160850, -0.0631465614, 0.0160590895, 0.0184159689, -0.0375358388, -0.0082699172, -0.0313271061, -0.0089194356, 0.0713145286, -0.0377157442, -0.0348816104, -0.0515173040, -0.0413263589, -0.0201277714, 0.0477165766, 0.0176061094, -0.0724547505, -0.0262534134, 0.0003410198, 0.0000097583, -0.0044246679, -0.0112514310, 0.0648299307, -0.0155078238, -0.0160567872, -0.0478370562, -0.0290085804, 0.0280744899, -0.0566324554, -0.0145199606, 0.0799315348, 0.0004034573, -0.0852018073, 0.0053525409, 0.0112808570, -0.0961209834, 0.0402390063, -0.0381908044, -0.0304041915, -0.0048764399, -0.0182159394, 0.0334943347, 0.0005731564, -0.0136123160, 0.0577318072, 0.0050546541, 0.0439397283, 0.0201258063, -0.0219618734, -0.0665605962, -0.0791387632, -0.0236222241, -0.0298263356, -0.0269190837, 0.0144037670, 0.0890745968, -0.0483281612, -0.0974847078, -0.0273039844, -0.0068186130, 0.0077272421, -0.0385341272, 0.0786332637, 0.0393423438, -0.0015570534, 0.0148173580, 0.0803063512, 0.0078372452, -0.0402102284, 0.0280275103, 0.0213175081, -0.0389366969, 0.0763257667, 0.0062380456, 0.0532948226, 0.0020541884, 0.1229034737, -0.0121809375, -0.0377797671, -0.0133108944, -0.0000836418, 0.1011178493, 0.0012559730, -0.0790312365, -0.0289342999, -0.0622115098, -0.0249478947, 0.0021069506, 0.0194032788, -0.0138536151, 0.0236388445, -0.0366742015, -0.0676958412, 0.0295305662, -0.0325985886, -0.0050834082, -0.0728383139, -0.0202103648, -0.0204023123, 0.0339351892, 0.0539278761, 0.0705385283, 0.0045681619, 0.0217149705, 0.0350778699, -0.0639668778, 0.0244297329, -0.0701195672, 0.0282680709, 0.0202598404, 0.0386177301, -0.0052816444, 0.0497197509, -0.0442351811, -0.0189738013, -0.0305199809, -0.0396618582, 0.0076297610, 0.0601382665, 0.0110617625, 0.0630975887, -0.0678587705, -0.0881156847, -0.0305707324, 0.0306469128, -0.0108860275, -0.0272050723, -0.0281425491, 0.0538469627, 0.0171989854, -0.0057257265, -0.0281728897, 0.0211169440, -0.0190446340, -0.0217552874, 0.0711345375, 0.0363539942, 0.0077284435, -0.0124668507, -0.0777173489, -0.0167759918, -0.0113581587, 0.0073982286, -0.0008054879, 0.0478135198, 0.0714484453, 0.0427188016, -0.0786285624, -0.0766430870, 0.0739843026, 0.0333838314, -0.0812908262, -0.0031805309, 0.0215873551, 0.0024703895, 0.0544366054, -0.0032935310, 0.0221681129, 0.0077976640, 0.0219890587, -0.0396447852, 0.0291462690, -0.0077602123, -0.0629128069, 0.0052699959, -0.0430614427, 0.0357577987, 0.0081623280, -0.0430934206, 0.0704619810, -0.0304504428, 0.0854124650, -0.0162984021, -0.0325084664, 0.0032498597, 0.0073389621, -0.0125795938, -0.1212926358, 0.1199667826, 0.0038488731, -0.0238104761, 0.0229848698, 0.0570816062, 0.0278041475, -0.0722608268, -0.0500724241, 0.0062656868, -0.0766374767, 0.0208759941, -0.0269030910, -0.0162490904, 0.0448252112, -0.0254863407, 0.0519793890, -0.0327830948, -0.0294826701, -0.0039977226, 0.0686175972, -0.0885367468, 0.0375183485, 0.0187322013, -0.0023595868, 0.0138840601, -0.0185065027, -0.0457856990, 0.0007424603, 0.0216463264, 0.0528215170, -0.0621641874, 0.0498795696, 0.0458408371, 0.0201665759, -0.0122315511, 0.0307369493, -0.0311403964, -0.0332901031, 0.1379694492, 0.0179407783, -0.0680579990, -0.0414556563, -0.0173348989, -0.0861661583, -0.0181373879, -0.0072788713, -0.0467758141, 0.0285913181, -0.0368799902, 0.0106175542, -0.0260221176, -0.0315031372, 0.0509813875, -0.0567267165, 0.0006365161, 0.0167857986, 0.0243166368, -0.0147225242, -0.0278026555, 0.0195252076, 0.0680745915, -0.0282921996, 0.0784303844, 0.0478145927, 0.0646936521, 0.0542126559, -0.0034480402, 0.0436715595, 0.0841622278, -0.0434670821, -0.0953733027, -0.0569046214, -0.0409493707, 0.0727183297, 0.0532687157, 0.0017062817, -0.0092786504, -0.0534184724, -0.0130457263, -0.0192674957, -0.0684667155, -0.0114248907, 0.0015372076, 0.0240573250, -0.0077483291, -0.0872638971, -0.0133794732, 0.0416479781, -0.0136796376, 0.0272725485, 0.0245362315, 0.0556825064, 0.0750875399, 0.0986122489, 0.0636935979, 0.0183492452, -0.0395769700, -0.0212336592, 0.0115860850, -0.0251501482, -0.0274848137, -0.0170284286, -0.0375330858, 0.0178959854, 0.0458852798, -0.0479297265, -0.0334296562, 0.0034647970, 0.0414649323, 0.0214061402, 0.0520438254, 0.0367756858, 0.0043602278, -0.0460309945, 0.0475564934, 0.0445836224, 0.0318831541, -0.1175434813, -0.0653786585, -0.0148250889, -0.0018023006, 0.0072327824, -0.0346803963, 0.0777267665, 0.0683356896, 0.0208006110, 0.0299188122, 0.0544625372, 0.0616189241, 0.0455699749, -0.0197253935, -0.0058037005, 0.0188638270, 0.0220059454, -0.0111541506, -0.0377877653, -0.0259719063, -0.0387246981, 0.0013930225, -0.0064038900, 0.0108204708, 0.0860103667, 0.0178874899, 0.0257539302, 0.1084319577, 0.0260012541, -0.0267898813, 0.0123573579, -0.0045662695, -0.0384157673, 0.0635572597, -0.1076291054, -0.0024713287, -0.0281347372, -0.0102764051, -0.0355795734, -0.0720739216, 0.0094647352, 0.0066826502, 0.0502707846, -0.0669035092, 0.0103772888, 0.0086056273, 0.0824601352, 0.0563845038, -0.0351619944, 0.0523552038, 0.0076814769, -0.0409741551, -0.0391239896, -0.0498484299, 0.0095293950, -0.0546667092, -0.0205191430, 0.0320725515, 0.0610931590, -0.0096891690, -0.0013092642, 0.0861017928, -0.0177620165, -0.0404690392, 0.0115840053, 0.0105569763, -0.0159367770, 0.0454675518, 0.0139017496, -0.0430544503, -0.0367485322, 0.0464755632, 0.0350341648, 0.0397825837, -0.0101615349, 0.0578557327, -0.0643487647, 0.0212478824, 0.0008710423, -0.0081405146, -0.0085526537, 0.0439422131, 0.0119831888, 0.0383337513, 0.0551469065, -0.0180522855, 0.0492827408, -0.0614226907, -0.0605787002, -0.0222125631, -0.0448851436, 0.0486307032, -0.0070259953, 0.1071944982, -0.0154920071, -0.0260226876, 0.0226184800, -0.0899158269, -0.0325306468, 0.0317639969, -0.0332971774, 0.0036064091, 0.0562166348, 0.0383043215, 0.0232717805, 0.0205565598, -0.0223197043, -0.0072496943, 0.0450243354, -0.0182154849, 0.0304048490, -0.0620852150, -0.0499411449, -0.0065666698, -0.0227309912, 0.0198728554, 0.0203151852, -0.0312624872, -0.0330974720, 0.0354685858, 0.0597078539, 0.0103016477, -0.0051240744, 0.0121476082, -0.0122506777, -0.0440745093, 0.0616022907, -0.0115676010, -0.0368334167, 0.0379813910, 0.0282908194, 0.0212026983, -0.0735275894, -0.0162062347, -0.0227385927, 0.0132849412, -0.0872787163, -0.0587702505, -0.0107079204, -0.0223620310, 0.0887061730, 0.0029729074, 0.0448996611, -0.0635320097, 0.0132055804, 0.0159791205, -0.1167549863, 0.0137409251, 0.0856031328, -0.0114126299, -0.0281593949, -0.0766820535, -0.0138082067, 0.0239150263, -0.0253722910, -0.0078391349, 0.0094963368, 0.0043114452, -0.0091800215, -0.0227131639, -0.0431929678, -0.0080072926, 0.0984623805, 0.0132839587, 0.0524833649, 0.0307411663, 0.0131020248, -0.0506324545, -0.0760427639, -0.0587655790, 0.0163440295, 0.0075989706, 0.0012488315, -0.0578622408, 0.0306542739, 0.0670239702, 0.0184711460, -0.0134165678, -0.0505664758, -0.0483215377, -0.0644403324, -0.0304632932, 0.0054093371, 0.0555554815, 0.0027500759, 0.0360645503, -0.0187062696, 0.0042427089, 0.0363404118, -0.0367027372, 0.0283636581, 0.0369478092, -0.0053011840, -0.0132755376, -0.0350444540, -0.0129003460, -0.0830575600, 0.0245504193, 0.0393457599, 0.0048741195, 0.0764166415, 0.0041623376, 0.0461325943, -0.0515775830, -0.0366778374, -0.0144694550, 0.0696820095, -0.0032482627, -0.0027283765, 0.0455175973, 0.0064346232, -0.0207621790, 0.0197143313, 0.0015868947, 0.0354194194, 0.0264274832, 0.0194093697, -0.0132362526, -0.0012014164, -0.0852386877, -0.0154115008, 0.0067855832, -0.0591737144, -0.0276578497, -0.0341359414, -0.0415922627, -0.0919759348, -0.0513325185, 0.0278726630, 0.0983658805, 0.0605813712, 0.0661096051, 0.0116753681, -0.0258450061, 0.0554370284, 0.0079811672, 0.0559646934, -0.0216992963, -0.0039458214, -0.0658249184, 0.0399514176, -0.0320715792, 0.0772137716, -0.0508926772, -0.0497207940, -0.0058489228, -0.0377585366, -0.0400725193, 0.0733509213, -0.0616833344, 0.0232822932, 0.0056841010, -0.0318303220, -0.0304649752, -0.0458459482, 0.0438656434, -0.0446272157, -0.0036717576, 0.0692850947, -0.0367354937, -0.0218666028, 0.0765288025, -0.0424371585, 0.0097022373, -0.0659471527, -0.0076642698, 0.0557130873, 0.0765133649, -0.0653806180, 0.0840417519, 0.0230100751, 0.0833656415, -0.0328137837, 0.0502551720, -0.0091698673, -0.0153909288, -0.0407784544, -0.0229797140, 0.0022221906, -0.0154259456, 0.0061985385, -0.0296708681, -0.0011810360, -0.0324395820, -0.0333544463, 0.0269361213, -0.0060536508, 0.0162828732, 0.1034410000, -0.0531784743, 0.0176013410, -0.0118103242, -0.0369572192, -0.0369827040, -0.0074968236, 0.0419929102, -0.0226175431, -0.0570365563, -0.0163491406, -0.0581539869, 0.0205476303, 0.0066769822, -0.0081394510, 0.0835199431, -0.0656156391, 0.0102973785, 0.0415503569, -0.0135153271, -0.0640132427, -0.0516201779, 0.0390259884, -0.0265443325, -0.0112638157, 0.0058731246, 0.0685865954, -0.0064714933, 0.0028352914, 0.0732526407, -0.0136776296, -0.0318498425, 0.0508427918, 0.0366411097, -0.0376625918, 0.0638943538, 0.0199169479, 0.0459523872, 0.0843957663, 0.0177223161, 0.0194571652, 0.0522242151, 0.0499325246, 0.0655716807, -0.0745592564, -0.0544742048, 0.0336665772, 0.0649773180, 0.0205372572, 0.0108966995, -0.0044716150, -0.0482644290, -0.1092620566, 0.0590258054, -0.0770215765, 0.0312548205, -0.0204421710, 0.0095448093, 0.0238784887, 0.0592340082, 0.0041331546, 0.0372566879, 0.0409897305, -0.0641098842, -0.0377841443, -0.0641786754, 0.0339207500, 0.0111075873, -0.0597314760, 0.0598990507, -0.0059936312, 0.0148156695, -0.0648472160, 0.0071268510, 0.0459417775, 0.0272919834, -0.0343877524, -0.0128753046, -0.0354031920, -0.0371786729, -0.0818740427, 0.0712595284, 0.0061197751, 0.0525759682, 0.0341887251, -0.0327819772, -0.0628172532, 0.0352890231, -0.0360796750, 0.0081722885, -0.0012601733, 0.0661248863, -0.0415293910, 0.0531613678, -0.0195979327, -0.0071159755, -0.0942180976, 0.1259636283, -0.0839349777, 0.0786154494, 0.0097049298, 0.0334801860, -0.0391266681, 0.0235767737, 0.0991117507, -0.0228153430, 0.0397776179, -0.0109051708, 0.0023666497, 0.0457579419, 0.0141439531, -0.0310013294, -0.0319931805, 0.0057772193, -0.0470702499, 0.0282565914, -0.0186777711, -0.0774720088, 0.0221117958, 0.0276656933, 0.0086531602, 0.0769775584, 0.0320755690, -0.0712052435, 0.0182664506, -0.0778005794, 0.0550185516, -0.0414246917, -0.0143999355, -0.0257307440, 0.0075225532, 0.0512938015, 0.0152110029, 0.0801043659, -0.0640731454, 0.0416434333, -0.0376990512, 0.0410087593, -0.0361861140, -0.0126233548, -0.0746069998, 0.0299774967, -0.0364379659, -0.0274552517, 0.0166144799, -0.0139948083, -0.0297430605, 0.0331837423, 0.0460497849, 0.0422198139, -0.0469911024, 0.0166747048, -0.0102576371, 0.0379879661, -0.1043569073, -0.0063292007, -0.0482302904, -0.0056112437, 0.0304350015, -0.0043290933, -0.0068797814, 0.0860664546, -0.0876033902, 0.0221926831, -0.0196728017, 0.0170393456, 0.0395627320, -0.0094373794, 0.0251845233, -0.0167741142, -0.0732870474, 0.0752308592, 0.0390685461, 0.0381632783, 0.0872768834, 0.0266608633, -0.1032502651, -0.0700803399, -0.0135489469, 0.0377853028, 0.0050947182, 0.0010624665, 0.0067724464, -0.0146787986, 0.1115192845, 0.0220812391, -0.0379460305, -0.0069160271, 0.0129841622, -0.0575359017, -0.0270034187, 0.0587377921, -0.0546442606, -0.0013075578, 0.0032611676, 0.0023606503, 0.0628495961, -0.0843259767, 0.0454492234, 0.1053948924, 0.0574920364, 0.0284708217, -0.0204438791, -0.0197028443, -0.1101695001, 0.0633404627, -0.0282840803, -0.0444657579, 0.0307838377, -0.0125073306, 0.0257293321, -0.0096590519, -0.0307272971, -0.0105757564, 0.0272685420, -0.0319451764, -0.0590467416, -0.0360259041, -0.0051116920, -0.0525235645, -0.0422225520, 0.0287876762, -0.0568503253, 0.0130626727, 0.0376671925, 0.0629672259, 0.0594728366, 0.0890370905, 0.0173344128, 0.0080743190, -0.0557999946, -0.0418995619, -0.0829224065, -0.0118584922, -0.0347472765, -0.0187362973, -0.0144943157, 0.0282164831, -0.0676266104, 0.0452450514, -0.0127272233, -0.0022718213, 0.0312237181, 0.0735022277, -0.0165689774, -0.0045995959, -0.0388080478, 0.0404007994, 0.0413662717, -0.0118596796, 0.0218200777, 0.0003747372, 0.0149211027, 0.0291209165, 0.0709887370, 0.0830480382, -0.0269774627, -0.0018278258, 0.0070023909, -0.0411311164, -0.0368577540, -0.0492648855, -0.0158428252, 0.0398002937, -0.0105273416, -0.0542491153, -0.0400493741, 0.0195489228, -0.0446548015, -0.0402702801, 0.0355462693, 0.0324311033, 0.0206495747, -0.1104614437, 0.0310334601, 0.0551176257, 0.0387022160, 0.0099004759, 0.0148181152, 0.0304619111, 0.0078502800, 0.0719802082, 0.0426208749, 0.0151210343, -0.0117039587, -0.0003941959, 0.0818538144, -0.0478508696, -0.0433959626, 0.0387189463, -0.0092006791, -0.0087677231, 0.0045900987, 0.0338550471, -0.0081682038, -0.0068646595, -0.0018175798, -0.0175429042, 0.0255929772, -0.0079799714, -0.0269105844, -0.0495366640, 0.0315822251, -0.0386047214, -0.0515779518, -0.0095864935, 0.0295617152, 0.1005402207, -0.0300023351, -0.0229705069, -0.0527461581, -0.1627195179, -0.0160485487, 0.0872092843, -0.0278391987, 0.0420139246, -0.0601927526, -0.0049092947, 0.1230334416, -0.0377535783, -0.0008340916, -0.0143107697, 0.0254003908, -0.0361206979, 0.0341626182, 0.0162370689, 0.0000259071, 0.0159397796, 0.0299561061, -0.0084424065, 0.0289044715, 0.0038418700, 0.0131971799, -0.0218145847, 0.0395651534, -0.0396206342, -0.0156962350, 0.0678615272, 0.0186874960, 0.0540623926, -0.0243471060, -0.0206587221, -0.0484493971, 0.0167836752, 0.0546473376, 0.0185912140, 0.0205089450, 0.0346782058, -0.0304792933, -0.0441058390, 0.0012476679, 0.0098222345, 0.0042299391, 0.0059076138, 0.0327909961, -0.0698650926, 0.0391370580, 0.0049181343, -0.0146554857, 0.0193190761, -0.0337586217, 0.0328943506, -0.0137468372, 0.0602087155, -0.0000811070, 0.0008232762, -0.0667658001, -0.0049494123, -0.0106700510, 0.0378078036, 0.0042037172, -0.0398279205, -0.0123298047, 0.0211883020, -0.0545599423, -0.0475858748, -0.0655285791, -0.0268390495, 0.0288002472, -0.0293026268, -0.0204215534, 0.0110770445, 0.0555238575, -0.0000945501, 0.0306537822, -0.0453219973, 0.0038768398, -0.0045982026, -0.0015752669, 0.0124667883, -0.0311039574, 0.0244034361, -0.0125426464, 0.0087856492, 0.0068664588, 0.0240630861, 0.0127458740, -0.0187085029, 0.0026634713, -0.0072234953, 0.0099267391, 0.1084429473, -0.0636453778, 0.0138230026, 0.0363300405, -0.0312701650, -0.0016163914, 0.0305949077, -0.0075908476, -0.0140840579, -0.0175525658, 0.0175047796, -0.0353119895, 0.0794430152, 0.0283143055, -0.0035311067, 0.0235341303, 0.0690523311, 0.0759996921, 0.0092172390, 0.0346732289, 0.0414790362, -0.0884871185, 0.0234856289, -0.0561868325, 0.0350051299, -0.0243965071, 0.0308333859, -0.0169650093, -0.0196251608, -0.0856782943, -0.0096621849, 0.0862336680, -0.0168130100, -0.0067866608, 0.0086904522, 0.0017162252, 0.0168922730, -0.0269647352, 0.0747741759, 0.1324692816, 0.0149273770, 0.0099667897, 0.0075876722, -0.0030016256, 0.0354439281, -0.0113457115, -0.0579889752, 0.0536511801, -0.0006261305, 0.1117230505, 0.0205638930, 0.0278425962, -0.0132523822, 0.0015332955, -0.0035539626, -0.0478983596, 0.0054324353, 0.0082937460, -0.0077496152, 0.0229370911, 0.0120721664, 0.0194698945, 0.0418989472, -0.0559928790, -0.0321736634, -0.0541807897, -0.0206845868, -0.0375583544, 0.1086807996, -0.0371583961, -0.0323237590, 0.0732074007, -0.0310028307, -0.0156045454, 0.0084563131, 0.0777752995, -0.0844186917, -0.0484216549, 0.0052063633, -0.0358309783, -0.0560614243, -0.0009581319, -0.0146932323, -0.0360066742, 0.0299856663, -0.0275707915, 0.0609459020, -0.0383681878, -0.0047901310, -0.1422306448, 0.0108017055, 0.0546576045, 0.0039341627, -0.0153800827, 0.0124782864, 0.0583515465, 0.0099209538, 0.0354270786, -0.0152930599, -0.0781564713, 0.0327270627, 0.0138709396, 0.0034534787, -0.0276374705, 0.0494125523, -0.0586951151, -0.0557684600, -0.0227551218, 0.0143214324, -0.0167908818, -0.0247570854, -0.0900376961, 0.0210460667, 0.0067241620, 0.0574335344, 0.0095815342, 0.0186504796, 0.0241410639, -0.0139404181, -0.0723668411, -0.1018603593, -0.0986782834, 0.0747585520, -0.0228686333, -0.1055398956, 0.0049602953, 0.0235805735, -0.0243974589, 0.0302243195, 0.0066858730, -0.0041639926, -0.0203975961, 0.0401839726, -0.0808306411, 0.0205440409, 0.0357312746, 0.0388259478, -0.0516525321, -0.0235622618, 0.0510942340, 0.0133159803, 0.1015967056, 0.0874502659, 0.0119571202, -0.0236053690, 0.0667655021, -0.0027492270, -0.0751326382, 0.0085252654, -0.0126260966, -0.0219937246, 0.0625509992, -0.0330419093, 0.0360554792, -0.0113476040, 0.0821724981, -0.0189095791, 0.0011507152, -0.0039241407, 0.0217283666, 0.0275006220, 0.0436061919, 0.0148940682, 0.0347639546, -0.0026143682, 0.0073168920, -0.0347422250, 0.0556555204, 0.0131769013, -0.0382673033, 0.0680859014, -0.0168307703, -0.0019764910, 0.0632651299, -0.0048365220, 0.0483451486, -0.0175491851, -0.0806047171, -0.0101017542, 0.0176033471, 0.0256107450, 0.0388877168, -0.0129697360, -0.0274898335, 0.0474558473, 0.0084227435, -0.0059402580, 0.0193671007, -0.0664768890, -0.0541757531, -0.0384092741, -0.0268851537, -0.0526723489, -0.0207566768, 0.0304232277, 0.1134907603, 0.0467516892, -0.0616099983, -0.0078044115, -0.0219669007, 0.0275758095, -0.0126372278, 0.0005649575, -0.0451382734, -0.0093740998, -0.0246590711, 0.0139753101, 0.0192688145, 0.0793169811, -0.0650134683, 0.0745753795, 0.0003328212, 0.0403475836, -0.0271406975, -0.0181283597, 0.0019231462, -0.0438713208, 0.0006916113, 0.0014259238, 0.0315565914, -0.0157173090, -0.0224515852, 0.0309023689, -0.0036121050, -0.0148666659, -0.0251042247, -0.0089922454, 0.0428517573, 0.0278656483, 0.0006652595, 0.0477685668, -0.0599172376, -0.0195976868, -0.0077733337, -0.0153162079, -0.0163313337, 0.1125094891, 0.0535493679, 0.0383825302, -0.1050198972, 0.0789046362, -0.0199584644, -0.0328554362, -0.0031989664, -0.0807423145, -0.0225794520, 0.0018613627, -0.1007047594, -0.0586829893, -0.0140141118, 0.0493698567, -0.0291872304, -0.0149081545, -0.0496401489, 0.0437769406, 0.0254254732, 0.0059735337, 0.0206248425, 0.0208016969, 0.0679963082, -0.0064307852, 0.0680445060, -0.0246795826, 0.0124044940, 0.0133888461, 0.0248864349, -0.0595955178, -0.0046271915, 0.0142268967, 0.0410899408, -0.0385093614, 0.0308158379, -0.0413419306, 0.0952470750, 0.0175003838, 0.0736768171, 0.0028726517, 0.1055605337, 0.0101693012, -0.0459573641, -0.0271830056, -0.0530676320, -0.0509433001, 0.0016393820, -0.0017557088, -0.0113686202, -0.0596732721, -0.0005244273, -0.0630323291, 0.0098350774, 0.0164940171, -0.0002356227, 0.0144894384, 0.0475033186, -0.0596322417, -0.0053042835, -0.0054815062, 0.0367334932, -0.0426896811, -0.0331725217, 0.0076047955, -0.0210694186, 0.0191142224, -0.0054684570, 0.0046823351, 0.0541112572, -0.0128342621, 0.0361504555, -0.0551159382, 0.0065437853, -0.0073534194, 0.0275837108, -0.0370964035, 0.0531210937, -0.0280077346, 0.0128398370, -0.0190215390, -0.0440986231, 0.0423347913, -0.0021141630, -0.0694512054, -0.0668092370, -0.0573881231, -0.0415864177, -0.0607118532, -0.0491500869, -0.0170916636, 0.0568466410, -0.0269253775, -0.0171784330, -0.0656629354, 0.0294056237, -0.0025865277, -0.0220199861, 0.0319089293, -0.0011485638, 0.0786632150, 0.0094753504, 0.0188160930, -0.0255005136, 0.0150163891, -0.0278507881, 0.0176194981, 0.0067965141, -0.0406933725, 0.0457321107, -0.0341718197, 0.1221002564, 0.0214357488, 0.0120132454, 0.0405077189, 0.0612369776, 0.0596288219, -0.0371210985, -0.0371176824, -0.0195655171, 0.0107480334, 0.0618763864, -0.0527533479, 0.0186858661, -0.0425456874, 0.0087334067, -0.0480286665, 0.0220069736, 0.0025974149, 0.0159895197, 0.0033574840, 0.0147039741, -0.0149735566, -0.0304556824, 0.0948466808, 0.0169514660, -0.0144703723, 0.0153192496, 0.0030856391, -0.0503524840, -0.0641664416, -0.0505283587, -0.0307221450, -0.0221124515, 0.0013518664, 0.0488040000, -0.0443776697, -0.0318638124, 0.0296085402, 0.0368264392, -0.0051771281, 0.0082576126, 0.0694927871, -0.0245915838, -0.0760359764, 0.0061696689, -0.0179066025, -0.0222410727, 0.0176369511, 0.0598771088, -0.0493599586, -0.0711714625, -0.0338076167, 0.0230258331, -0.0224798359, -0.0230650157, -0.0234872997, -0.0483475849, 0.0712754279, -0.0312864222, 0.0080109406, -0.0259733833, 0.0290799886, -0.0171260163, -0.0360660441, -0.0498390496, -0.0385958999, -0.0604378842, 0.0568291582, -0.0439480320, -0.0098614376, -0.0158495270, 0.0287277941, 0.0339855365, -0.0292376000, 0.0063793324, -0.0545867793, 0.0907307118, 0.0187401921, 0.0553030372, 0.0247317571, 0.0025975932, -0.0127054900, -0.0890013427, -0.0263178349, -0.0163941849, 0.0453326181, 0.0381339081, -0.0231802985, 0.0581322722, 0.0030070206, -0.0584606640, -0.0973167792, -0.0138941454, 0.0301357750, -0.1280859858, -0.0199828614, -0.0546928346, -0.0227319282, 0.0315128639, 0.0372655131, 0.0043849172, 0.0329185612, -0.0337830037, -0.0811167359, -0.0118135782, 0.0214476157, -0.0936727226, 0.0488254204, -0.0088192271, -0.0295443535, -0.0034468502, -0.1246580705, -0.0470456369, 0.0473774448, 0.0102938255, -0.0012441752, -0.0175164081, -0.0582780428, 0.0188439079, -0.0593163036, 0.0451484844, -0.0730057657, -0.0034975605, -0.0491487570, -0.0302751847, 0.0137836449, -0.0472950041, -0.0616786852, -0.0412405729, -0.0197444875, -0.0322539099, -0.0790453777, -0.0366027430, 0.0329068303, 0.0345819853, 0.0431739725, 0.0688241571, -0.0056635845, 0.0562115982, -0.0279083438, 0.0004529099, -0.0039783963, 0.0408514887, 0.0194222331, -0.0179505311, -0.0259409025, -0.0185323134, 0.0148430988, -0.0074524535, 0.0186117105, 0.0645851791, 0.1140844151, -0.0702945590, -0.0766049176, -0.0354180932, -0.0649174899, 0.0117943678, -0.0190643594, 0.0768174902, 0.0402500033, 0.0034985717, 0.0187502336, 0.0260882694, -0.0705729723, -0.0411777087, -0.0220474470, -0.0408767313, -0.0656553656, 0.0645970181, 0.0305575095, 0.0342675410, -0.0682469979, 0.0183427967, 0.0451312140, -0.0189076234, -0.0046332376, 0.0958950147, -0.0339641124, 0.0123691391, 0.0543533675, 0.0175738968, 0.0674721226, 0.0395364091, -0.0776302889, -0.0036934153, 0.0218017176, 0.0893307701, -0.0132887736, 0.0278744828, -0.0057449676, -0.0090379426, -0.1306507289, 0.0776993409, -0.0013360763, 0.0597533435, -0.0849918947, 0.0475561582, -0.0401497819, 0.0109262802, 0.0736684129, 0.0457341261, 0.0268661045, -0.0039970372, -0.0308458228, -0.0258191042, 0.0131577030, 0.0760969892, -0.0001969645, -0.0745646283, 0.0166359656, -0.1128866822, -0.0386331528, -0.0849215761, 0.0074186325, 0.0054678195, -0.1096302420, 0.0760782957, -0.0126410071, -0.0007867203, 0.0168257020, 0.0391552672, -0.0491158329, -0.0103678433, 0.0081068845, 0.0233633425, -0.0742182434, 0.0480096005, 0.0124280937, -0.0518956110, -0.0085897464, -0.0678167716, 0.0042051096, -0.0750510916, 0.0102388281, -0.0631785765, -0.0141053982, -0.0325628296, -0.0465113148, -0.0496765636, -0.0254753940, 0.0600839704, -0.0119639747, -0.0114063881, -0.0172764622, 0.0038265183, -0.0424879715, -0.0111323083, -0.0371851027, -0.0565917082, 0.0093354704, -0.0541644618, -0.0211101398, -0.0338567048, -0.0587869734, 0.0401411429, 0.0190290567, 0.0395560674, -0.0235133357, -0.0574057251, 0.0551819839, 0.0290473215, 0.0287833102, 0.0357707255, 0.0232824124, 0.0038825078, -0.0104920603, -0.0553094894, -0.0217100959, -0.0011402941, -0.0237508528, -0.0525678545, 0.0341000482, -0.0191492792, 0.0581147969, 0.0278768502, -0.0928024873, -0.0333501250, -0.0466973335, -0.0332869031, 0.0017480308, -0.0990749151, 0.0071635158, 0.0273243636, -0.0592889264, 0.0197540391, 0.0772509575, -0.0068425373, 0.0057134996, 0.0562019907, -0.0429767370, -0.0997552276, 0.0055381591, 0.0396804661, -0.0220679697, 0.0363537669, 0.0051885527, -0.0429085307, -0.0646538585, 0.0199575499, 0.0311272517, 0.0128420759, 0.0222036224, -0.0442199521, -0.0013005916, -0.0438694060, -0.0633119121, 0.0013026386, 0.0095958272, -0.0445968769, -0.0506150201, 0.0823008195, -0.0417145677, -0.0271645170, -0.0127292210, -0.0203549676, -0.0123269167, 0.0023628855, -0.1051718369, 0.0296890698, 0.0127892680, 0.0125384480, 0.0209474750, -0.0449417308, 0.1000027880, -0.0310905799, -0.0549151748, -0.0023820885, 0.0101587046, -0.0304930806, -0.0086392434, 0.0362351649, 0.0279660299, 0.0045474446, 0.0656578243, -0.0146968784, -0.0004902864, -0.0046439972, 0.0611763783, -0.0351170450, 0.0011811806, -0.0133125782, -0.0052486015, -0.0296624005, -0.0308948196, 0.0574606583, -0.0490895920, -0.0442223065, -0.0375644937, -0.0292912461, 0.0311485399, -0.0180952121, 0.0019351802, 0.0063996725, 0.0118728718, -0.0015461557, 0.0920790061, 0.0286133364, -0.0207381621, -0.0061530340, -0.0408563316, 0.0216199551, 0.0177508704, -0.0378431976, 0.0525812097, -0.0564628839, 0.0099501610, 0.0963105261, 0.0236659646, -0.0065469779, -0.0571660958, -0.0505984314, -0.0145213697, -0.0358943008, -0.0349467322, 0.0285961442, -0.0115247043, 0.0408955701, -0.0073537454, 0.0569665208, 0.0010736315, -0.0162594765, 0.0243763402, -0.0964084491, 0.0201389473, -0.0219993405, -0.0336939506, -0.0131121967, -0.0379096121, 0.0051516700, -0.0373762026, 0.0702892318, -0.0022805091, 0.0400849506, 0.0072634579, 0.0264351126, 0.0536735915, 0.0074725919, -0.0259665102, 0.0054565165, -0.0181645285, 0.0103489188, 0.0156750474, 0.0438827723, -0.0368418321, -0.0665503144, -0.0152196568, -0.0619529262, -0.0657660365, -0.0158534888, -0.0527288690, 0.0297086239, 0.0730521455, -0.0088120503, -0.0136477351, 0.0178209487, -0.0559976771, 0.0044081677, 0.0665492117, 0.0596087053, -0.0123943388, 0.0219189711, 0.0922642499, -0.0555197969, -0.0465425812, 0.0247009173, -0.0028366130, -0.0513597578, -0.1144907326, -0.0576453954, -0.0662021339, -0.0494833253, -0.0126726106, 0.0672705993, -0.0079429056, 0.0126245217, -0.0542108379, -0.0638381243, 0.0640640482, -0.0534152985, 0.0263259560, 0.0959753916, -0.0501871109, 0.0520876087, 0.0947456956, -0.0428395383, -0.0152786793, -0.0210166071, -0.0769891888, -0.0246707313, 0.0096275322, -0.0824866965, -0.0304276254, -0.0322598219, -0.0326497667, 0.0856871828, -0.0508260652, 0.0186304580, -0.0330744907, -0.0012176438, -0.0342018381, -0.0145935994, 0.0091840494, -0.0044707116, 0.0389204174, 0.0313370712, -0.0349415801, 0.0698362812, -0.0116576971, -0.0363628902, 0.0059688557, 0.0159142241, 0.0492434762, 0.0071725361, 0.0287207365, 0.0340966210, -0.0226262733, 0.0835723281, -0.0612331554, 0.0086394157, 0.1287448257, 0.0523664840, 0.0413849242, -0.0329686403, 0.0765537322, 0.0549807250, 0.0610298552, 0.0627596155, 0.0070689674, 0.0236649252, 0.0074160770, 0.0213612653, -0.0081351474, 0.0248200037, 0.0332662836, -0.0268078633, 0.0407252945, -0.0329958089, 0.0036612526, -0.0043545538, 0.0208487175, -0.0239417963, -0.0203912891, -0.0015317784, -0.0374751836, 0.1042356864, 0.0013902243, -0.0889513418, -0.0462799445, -0.0440416299, 0.0502940640, 0.0050291466, -0.0465148799, -0.0683854222, -0.0372496583, -0.0664336309, -0.0447161756, 0.0676372945, 0.0462416373, 0.0301179513, -0.0256226845, -0.0278291646, -0.0785963088, -0.0895156339, -0.0074222409, 0.0418103747, -0.0568470992, -0.0787727460, -0.0259118658, -0.0202944130, 0.0641557947, -0.0280035790, 0.0248894244, -0.0426465981, -0.0342244171, 0.0076933596, 0.0224547479, 0.0203048885, 0.0303369798, 0.0290404521, 0.0470529534, -0.0751812607, -0.0139179844, 0.0306163784, -0.0008031473, -0.0326865353, -0.0477405675, 0.1736133099, -0.0285296086, -0.0483954400, -0.0538326390, -0.0042144284, -0.0713283047, 0.0430675186, 0.0790772736, 0.0125700990, -0.0076602949, -0.0160175208, 0.0363259763, 0.1171841025, 0.0590616800, 0.0535506755, -0.0532701574, -0.0273386296, -0.0582237169, 0.0058583869, 0.0737781972, -0.0541469306, 0.0020739995, -0.0483269431, -0.0097685140, 0.0555531979, -0.0391691029, 0.0591832288, -0.0655451417, -0.0085549140, 0.0006431210, 0.1434988827, 0.0166766234, 0.0907765254, 0.0549757108, 0.0314005017, -0.0274467841, -0.0002457388, -0.0009701736, -0.0295975804, -0.0082901614, -0.0415934622, -0.0419266447, 0.0590174459, 0.0184356570, -0.0398661196, -0.0173378475, 0.0232487191, 0.0288285762, 0.0440874435, 0.1064997017, -0.0126145519, 0.0199974813, 0.0222147424, 0.0246144608, -0.0171125401, 0.0426049083, 0.0126814926, 0.0064913239, 0.0337736793, -0.0345633179, -0.0588968433, -0.0367082991, -0.0155542968, -0.0421301238, -0.0110228918, -0.0426143296, -0.0374841392, 0.0394675396, -0.0348746441, 0.0454217643, -0.0270943772, 0.0025840160, 0.0053791897, 0.0343984812, 0.0255990792, -0.0042778542, -0.0539317243, 0.0532132387, 0.0358572230, -0.0073781935, 0.0212648753, -0.0430221483, -0.0125259524, -0.0299497638, 0.0268294662, 0.0011468576, -0.0045514386, 0.0544988886, 0.0306654125, 0.0519628897, -0.0084323976, 0.0338807888, 0.0262733400, -0.0357588828, -0.0161338374, -0.0455372669, -0.0044820476, -0.0049434192, -0.0642204210, -0.0879863724, 0.0371553972, 0.0385922603, -0.0130833965, 0.0213443227, 0.0139796995, 0.0641040131, 0.0020622299, 0.0444396473, -0.0538052022, 0.0504644960, -0.0154274544, 0.0239988267, 0.0292149410, -0.0435623005, 0.0127581526, -0.1154889241, 0.0031918681, -0.0243738554, 0.0712727606, -0.0077573592, -0.0414949358, 0.0243932959, 0.0064026928, -0.0151530933, 0.0376251042, 0.0461254418, 0.0006321889, 0.0220820960, -0.0215787664, -0.0218898878, 0.0533271842, -0.0015066778, 0.0289816130, 0.0896561816, 0.0186862741, 0.0304614045, 0.0358865559, 0.0429623164, 0.0213511307, 0.0450239182, 0.0600095689, 0.0403102189, -0.0022423267, 0.0754857361, 0.0210032109, 0.0359143578, 0.0483993739, 0.0260337256, -0.0138537418, 0.0367556438, -0.0434374362, -0.0577796884, 0.0668827072, -0.0439933017, -0.0341808721, 0.0711799115, 0.0111261476, -0.0324242897, 0.0246576518, 0.0258778669, -0.0251767710, 0.0072151809, 0.0241568200, -0.0076794559, -0.0326849595, 0.0220987555, -0.0406041220, -0.0207299553, -0.0783886462, 0.0162951723, 0.0143975839, -0.0128134051, 0.0594409369, 0.0545344166, -0.0120539553, -0.0047435844, 0.0918851942, -0.0213702023, -0.0164372623, 0.0100263292, 0.0877869725, 0.0669407919, -0.0197318830, -0.0552026778, 0.0301058441, -0.0133694299, 0.0523849614, -0.0747431368, 0.0375695862, 0.0327786878, 0.0214179959, -0.0261678305, 0.0064682653, -0.0473299101, -0.0515529923, -0.0685861260, 0.0533749759, 0.0937137678, -0.0544605926, 0.0093998462, 0.0409424938, 0.0179358870, 0.0468529873, 0.0090494240, 0.0224396288, 0.0109553915, 0.0380769074, 0.0243118741, -0.0430767499, -0.0087672621, 0.0287894309, -0.0981733426, 0.0582164265, -0.0482437164, 0.0204027388, -0.0346901752, -0.0278487783, -0.0201363564, -0.0203226041, 0.0506623834, 0.0261227470, -0.0388355330, -0.0659491718, 0.0667869598, -0.0471664220, -0.0310919471, -0.0110303462, 0.0042323787, -0.0049196985, -0.0176571440, 0.0044107004, -0.0003460745, 0.0250040293, 0.0915919468, -0.0332529098, -0.0488423444, 0.1048697010, 0.0471467674, -0.0216529220, 0.0279387236, -0.0032030707, 0.0062692701, 0.0218295231, -0.0037767708, -0.0504402369, -0.0335353464, -0.0271990746, -0.0002114697, -0.0455929860, 0.0841034502, 0.0237714797, 0.0519561507, -0.0363423228, 0.0035843777, 0.0337382667, 0.0453922115, -0.0226372480, 0.0497876666, -0.0298492219, 0.0448798947, 0.0042260019, -0.0197873674, -0.0045382031, -0.0689964890, 0.0073866867, 0.0097209355, 0.0041864221, -0.1230622157, -0.0802614838, -0.0283126868, 0.0469261669, 0.0289723724, 0.0697262734, 0.0420605689, 0.0154221486, 0.0137109868, -0.0804956034, -0.0164701901, -0.0744365454, -0.0853781030, 0.0085538384, -0.0144637898, -0.0188682117, -0.0148627590, 0.0265151113, 0.0341696963, 0.0442933850, -0.0135861784, 0.0029526290, 0.0268334411, 0.0760334581, 0.0002708776, -0.0027080462, -0.0341526568, 0.0613359846, 0.0247959681, 0.0338493697, -0.0259590335, 0.0385554694, -0.0113979094, -0.0478608422, -0.0038475019, -0.0302284490, 0.0067407195, 0.0645024851, 0.0116317831, -0.0074226893, -0.0264121760, -0.0467749462, -0.0347350016, 0.0130455391, -0.0699311569, 0.0623992793, 0.0206975024, 0.0392224491, 0.0513405800, -0.0041084755, -0.0632523522, 0.0211693011, 0.0353207961, 0.0355263799, -0.0151656605, -0.0135172000, -0.0129803754, 0.0630384758, -0.0141139030, -0.0519955754, -0.0151770096, -0.0054288926, -0.0111484099, 0.0331140757, 0.0381421819, 0.0073216222, 0.0108925411, 0.0172017664, 0.0549734086, 0.0162573121, 0.0007175561, 0.0326741822, -0.0058909114, -0.0575660281, -0.0804740414, -0.0399389677, 0.0429781415, -0.0111181848, 0.0213955753, -0.0145221464, -0.0412690416, 0.0419366360, 0.0560979694, 0.0189221334, 0.0470114276, 0.0013616272, -0.0200619921, 0.0050712773, -0.0276877973, -0.0368298218, -0.0048497496, 0.0615314618, 0.0203497633, 0.1061891988, 0.0023210673, 0.0037072396, 0.0096776402, 0.0106071737, -0.0348116979, -0.0329301171, 0.0657104105, 0.0410568826, 0.0376731269, 0.0012945393, -0.0860424042, -0.0470124036, -0.0410094820, 0.0561306551, 0.0537173264, 0.0505222417, 0.0055414750, -0.0241661780, 0.0125659835, 0.0532041565, 0.0160833895, -0.0026414590, -0.0207208917, -0.0766772553, 0.0302058775, 0.0439749733, -0.0380764008, -0.0235830676, 0.0111652799, 0.0149292257, 0.0673112571, -0.0254083034, 0.0289771687, -0.0492942855, -0.0633843020, -0.0976043269, -0.0285685994, -0.0041600224, -0.0559471957, -0.0120830555, 0.0193491671, 0.0294355471, -0.0540863611, -0.0444091149, 0.0431186408, 0.0255179685, 0.0048920289, 0.0054289373, 0.0061208084, -0.0328467824, 0.0305656828, 0.0188297294, -0.0183277261, -0.0025124922, 0.0143246353, -0.0196585115, -0.0911665559, -0.0232337657, 0.0180988126, 0.0537581369, 0.0737772360, 0.0734087750, -0.0171194412, 0.0210738871, 0.0106590167, -0.0273264013, 0.0063399612, 0.0189592466, -0.0341463611, 0.0381644852, -0.0710249767, -0.0336745009, -0.0820216462, 0.0190795921, -0.0795346498, 0.0145397894, 0.0307767130, 0.0468112305, 0.0241880957, 0.0700306892, -0.0273352228, -0.0056371810, -0.0414577574, -0.0236510020, -0.0278118234, 0.0442649648, -0.0043348623, 0.0125713488, -0.0142909791, -0.0538174771, -0.0306506902, -0.0035853032, -0.0108081689, 0.0162723996, -0.0604529865, 0.0819074214, 0.0092232544, 0.0780054182, -0.0323723368, -0.0289136805, -0.0041056057, 0.0300075933, -0.0562247783, 0.0142718321, -0.0167333111, 0.0585548021, -0.0365539640, -0.0884747654, -0.0121379495, -0.0242263451, -0.0270451643, 0.0269085094, 0.0191414896, -0.0624232739, -0.0128672412, 0.0031053834, -0.0536599942, 0.0384455808, -0.0668063015, -0.0004670336, 0.0239287633, -0.0019670823, 0.0163449533, 0.0693969131, 0.0023262026, 0.0083054425, -0.0747456625, 0.0183636788, 0.0577648394, 0.0184913203, 0.0584633797, -0.0270274896, 0.0532003269, -0.0241519399, -0.0435766429, 0.0959679335, -0.0332288668, 0.0219568908, 0.0211112201, -0.0086870678, -0.0586456805, 0.0140040908, -0.0400793552, -0.0284734629, 0.0551074333, 0.0527514219, 0.0105606169, -0.0472665131, -0.0971133783, 0.0667103678, -0.0491141640, 0.0216670893, 0.0013595882, -0.0994919538, -0.0609467253, -0.0093405563, 0.0070511373, 0.0870786533, -0.0824278891, 0.0122420443, 0.0636361018, -0.0009016576, -0.0480653569, -0.0472329706, 0.0019327980, 0.0882630944, -0.0181105062, -0.0116663137, -0.0884886906, -0.0028662854, -0.0605340004, 0.0683018193, 0.0280886535, -0.0195095520, -0.0412018448, -0.0367927700, -0.0276284628, -0.0120839681, -0.0648593605, -0.0531308576, 0.0342549086, -0.0885377228, -0.0312194079, -0.0043641473, 0.0129861413, -0.0047062598, -0.0511512980, 0.0631932467, 0.0197485946, 0.0229695663, 0.0736468583, 0.0365077630, -0.0048196670, -0.0726077259, 0.0374299549, -0.0736127123, -0.0734151676, 0.0278356373, -0.0151625481, -0.0269443765, 0.0517786369, 0.0138083817, -0.0863206238, -0.0752327517, 0.0470448881, -0.0882236585, 0.0469740033, -0.0161149185, -0.0434548296, -0.0703619048, 0.0401761197, 0.0195917450, -0.0294493586, -0.0137210544, 0.0080416324, 0.1414270997, 0.0213798583, 0.0585074984, -0.0106551573, -0.0228190217, 0.0228564218, -0.0276482198, -0.0301070325, -0.0013694996, -0.0184572525, -0.0201825686, 0.0599338375, 0.0302271266, 0.0248919185, 0.0062229577, -0.0071394751, -0.0429844931, -0.0031545628, -0.0422122516, 0.0216196589, 0.0232431516, 0.0555025525, 0.0306918509, 0.0392210595, -0.0020219791, 0.0818902105, 0.0611225143, -0.0564402863, 0.0392052568, 0.0018629511, 0.0060048248, 0.0052482630, 0.0048314896, -0.0003446322, 0.0273607634, 0.0056817620, -0.0487953760, -0.0511787981, 0.0246085357, -0.0059515350, 0.0948487669, 0.0209628474, 0.0028923936, 0.0686502382, -0.0359659232, -0.0278580021, 0.0650619715, 0.0117412489, 0.0508051962, 0.0013967392, -0.0175942145, -0.0322251506, 0.0148245003, 0.0082777329, -0.0201725718, -0.0414228588, 0.0930310264, 0.0477592088, -0.0067728395, 0.0054458654, 0.0080470722, 0.0093586650, 0.0277985409, -0.0507264063, 0.0595388897, -0.0832754970, 0.0238883849, 0.0256598964, 0.0778917745, 0.0360516272, -0.0059358142, -0.0163646434, -0.0935890526, -0.0374432206, 0.0104845166, 0.1086376384, 0.0021022053, -0.1205388680, 0.0389006250, -0.0277552325, 0.0434447415, -0.0815429240, -0.0304294135, 0.0520464070, 0.0783612877, -0.0317010283, 0.0241641495, -0.0543820187, 0.0548902079, 0.0595309064, -0.0288972035, -0.0181972627, 0.0042947959, -0.0469159819, 0.0004912792, -0.0827535838, 0.0035457732, -0.0472096391, -0.0255178194, 0.0382274464, -0.0313122161, 0.0695160776, -0.1260192245, 0.0114261918, -0.0598360077, 0.0207114667, -0.0713259876, 0.0089211324, -0.0491861515, 0.0588955171, -0.0165464487, 0.0384358652, 0.0217334013, -0.0808897391, 0.0273452364, 0.0417222679, 0.0319416784, 0.0087913573, -0.0506176502, 0.0034173978, -0.0342999734, -0.0043620337, 0.0328337029, -0.0365538225, 0.0059001213, 0.0124726603, 0.0804303885, -0.0194673482, -0.1162846610, -0.0548276305, -0.0592689291, 0.0449833162, 0.0551791824, 0.0152490288, 0.1139348149, 0.0316662155, -0.0212519020, -0.0234175753, -0.0585843176, -0.0243810639, 0.0294904877, 0.0432245135, -0.0053430735, 0.0146260876, 0.0687018409, -0.0343787000, -0.0939288139, 0.0050054207, -0.0534286201, 0.0141473580, 0.0074657141, 0.0439474657, 0.0034183932, 0.0297621898, 0.0003721281, 0.0632303506, -0.0597829893, -0.0165080540, -0.0305686612, 0.0776026547, 0.0165587552, -0.0090096816, -0.0027832361, -0.0107430676, -0.0553953983, 0.0069621382, -0.0382806435, 0.0147623662, 0.0409439467, -0.0686938986, 0.0040045576, -0.0270105377, -0.0796088576, -0.0589865036, -0.0507309511, 0.0526159443, -0.0212034490, -0.0168553777, -0.0516323671, 0.0231610164, -0.0307347178, -0.0210665800, -0.0289627481, -0.0404356830, -0.0456982255, -0.0413292311, 0.0157116614, -0.0612267070, -0.0125492355, 0.0393548720, 0.0203903001, -0.0021138259, -0.0701886714, -0.0180605650, -0.0272919051, -0.0625361651, 0.0998101830, -0.0029283259, 0.0001934106, -0.0105963694, -0.0113178957, -0.0448160805, 0.0565799400, -0.0616002157, -0.0186878126, 0.0504742824, 0.0540070012, -0.0712986812, -0.0290356930, 0.0362545364, -0.0193467680, 0.0350127369, -0.0215055868, -0.0529180132, -0.0355855078, 0.0596676320, -0.0489160605, -0.0489354692, -0.0171862300, 0.0111749377, 0.0099847699, -0.0011141538, -0.0636971369, -0.0103483405, 0.0039537381, 0.0215311311, 0.0468991846, -0.0564185046, -0.0009277940, -0.0364858247, -0.0328938030, -0.0385331772, 0.0032926255, 0.0564014763, 0.0573811904, 0.0180766657, -0.0380443595, -0.1147344559, 0.0155843692, 0.0213514343, -0.0322128311, 0.0765972957, 0.0474038161, 0.1674017757, 0.0626684725, 0.0153760035, -0.0856787860, -0.0038093594, 0.0152920019, 0.0494847372, 0.0514023863, -0.0293815807, 0.0068266238, 0.1002207622, 0.0559987575, -0.0024677906, 0.0620823912, -0.0680362210, -0.0659870803, 0.0232445635, -0.0048298379, 0.0221460611, -0.0017971653, -0.0623639934, -0.0077296821, -0.0320873633, -0.0064509427, -0.0205566287, 0.0477081500, 0.0138774831, 0.0553647391, 0.0460954458, -0.0092845466, 0.0613909587, -0.0053846799, -0.0559648275, -0.0039721457, -0.0416507907, 0.0405850708, -0.1201863214, 0.0217610486, -0.0596393794, 0.1048064679, -0.0000655456, -0.0356369093, 0.0080545992, 0.0180222541, -0.0188637897, 0.0502933376, 0.0587216839, -0.0266605914, 0.0069174129, -0.0078544859, 0.0467707999, 0.0486578755, 0.0465301722, -0.0061233873, -0.0040863841, -0.0012492397, -0.0381787904, -0.0825299472, 0.0267479457, 0.0010915929, -0.0111782979, 0.0109727196, -0.0697916299, 0.0140190786, -0.0520374328, 0.0051714778, -0.0300410092, -0.0082834102, 0.0633049235, 0.0211224370, 0.0270619132, -0.0246503614, -0.0090448065, 0.0266413093, 0.0795444027, 0.0212605018, -0.0268630479, -0.0579502508, 0.0795879886, -0.0739996508, -0.0352879800, -0.0229803100, -0.0426391289, 0.0109200925, 0.0055872817, -0.0529193655, 0.0599053688, -0.0370283611, 0.0741195828, -0.0378514417, 0.1152269542, -0.0119843129, -0.0394969210, -0.0513249449, -0.0761855170, 0.0291075036, -0.0572145060, 0.1019705161, 0.0156100504, -0.0518942252, 0.0045837765, 0.0736921728, 0.0195301995, 0.0176461805, 0.0297649167, -0.0298189018, 0.0009262329, -0.0078558130, -0.0216123816, -0.0363091230, -0.0156387631, 0.0262763202, -0.0742048472, -0.0001760027, 0.0212408416, 0.0058209319, 0.0328890085, 0.0088797798, -0.0375264995, 0.0744641796, 0.0473010689, -0.0214489941, 0.0737429932, -0.0537047572, 0.0035633473, -0.0273435246, 0.0563710444, 0.0146552101, 0.0875395387, -0.0520999059, -0.0177173223, -0.1003151610, 0.0250460431, 0.0164022800, -0.0073316488, -0.0680242553, -0.0225542393, -0.0526859984, -0.0220285133, -0.0258939937, 0.0117385183, -0.0181719474, -0.0177355241, 0.0188767686, -0.0251945201, 0.0403340906, 0.0500487685, 0.0148696918, 0.0277373008, -0.0023457538, -0.0527532548, 0.0177869834, -0.0524634086, 0.0255367234, -0.0193330087, -0.0185307637, -0.0215743110, -0.0287373215, 0.0262700673, 0.0391485058, 0.0054934993, -0.0234244186, -0.0652307793, 0.0684452578, -0.0020011950, -0.0942113698, -0.0101193795, -0.0256872587, -0.0214686058, -0.0281625241, 0.0043522650, 0.0594064370, 0.0076943352, -0.0439826883, 0.0054158168, -0.0812326744, -0.0102770654, 0.0119048608, -0.0202090628, 0.0073688179, -0.0547649674, -0.0185823310, 0.0136142867, 0.0391035415, 0.0239194892, 0.0738121644, -0.0227278285, -0.0122497352, 0.0209015906, -0.0206908658, 0.0623714365, -0.0100827552, 0.0244867858, 0.0200905930, 0.0664447248, 0.0006473009, -0.0021167176, -0.0310854558, 0.1002251059, -0.0668956190, 0.0021918935, 0.0164154880, -0.0153226182, 0.0107011236, -0.0032877116, 0.0491369739, 0.1300034821, -0.0305103529, -0.0560019203, -0.0040768567, -0.0267389677, 0.0014643443, 0.0458214208, -0.0277788043, 0.0200078022, 0.0363679342, 0.0026222621, 0.0002389066, -0.0377429351, -0.0067603523, 0.0510202572, -0.0424283557, 0.0098674027, 0.0357946567, -0.0854820833, 0.0330843963, -0.0455305725, -0.0172790736, 0.0474027172, 0.0505642071, -0.0294736419, -0.0356875658, 0.0520283282, -0.0175573006, -0.0659867004, -0.0903025419, -0.0631981939, 0.0530534871, 0.0834719241, -0.0140487170, 0.0347535200, -0.0354403891, 0.0276278928, 0.0019145084, 0.0312885456, -0.0538758785, 0.0146999676, -0.0197538976, -0.0166277401, 0.0626175255, 0.0122651272, 0.0126074301, 0.0218279529, -0.0389412791, 0.0155492257, 0.0632588342, -0.1218090206, 0.0071776919, 0.0180835705, 0.0276436992, 0.0368166752, -0.0203461442, 0.0063997190, -0.0216909721, -0.0227633044, -0.0414669141, -0.0677822158, -0.0250378549, -0.0279855598, 0.0684839487, -0.0326885357, -0.0140529256, -0.1048189774, 0.0124940025, -0.1001882106, 0.0431939103, -0.0382226221, 0.0579926148, -0.0362131447, -0.0343314372, -0.0215120576, 0.0245540440, 0.0076309415, 0.0185279697, -0.1019809917, -0.0036810311, 0.0017613331, 0.0499013588, 0.0327221900, -0.0241361316, -0.0067973081, -0.0328825004, 0.0162185114, 0.0022442276, -0.0052701430, 0.1262168288, 0.0171039384, -0.0302273147, -0.0314683095, -0.0725366026, 0.0023119044, -0.0077615194, 0.0131631773, -0.0010610726, 0.0928689390, 0.0063892440, 0.1002144367, 0.0370785967, -0.0033502541, -0.0103306323, 0.0530932881, 0.0039776564, 0.0835697278, 0.0173002742, -0.0069158068, 0.0196479242, -0.0495204255, 0.0344834588, -0.0217659697, -0.0301876813, -0.0357902125, -0.0439483933, -0.0315618180, 0.0060732896, -0.0141136292, 0.0198844168, -0.0406867042, 0.0451116525, -0.0021309534, -0.0259476826, 0.0417454690, -0.0137177398, 0.0104099037, 0.0547312796, 0.0050863214, -0.1195179820, 0.0343450233, -0.0016954197, -0.0744924545, 0.0347235836, -0.0008431004, -0.0100355428, 0.0510329977, 0.0020650229, -0.0124726407, 0.0896111727, 0.1136539429, -0.0343321040, 0.0401518941, -0.0294325836, -0.0163611565, -0.0339775160, -0.0134766977, 0.0602348745, -0.0182563551, 0.0940027758, -0.0225189161, 0.0074257664, 0.0092219384, -0.0423811525, 0.0960474312, 0.0090275491, -0.0442651100, 0.0028746203, 0.0671151131, -0.0256070979, 0.0328020528, -0.0046358905, -0.0326354355, -0.0304122902, 0.0541080609, 0.0093550803, -0.0632389039, -0.0451859757, 0.0688772276, 0.0329530574, -0.0314639322, 0.0176530331, -0.0223767087, -0.0115512181, -0.0408890955, -0.0225129202, 0.0546931513, -0.0286307056, 0.0303305238, -0.0720106587, -0.0454535745, -0.0969024748, 0.0009471346, 0.0249550063, 0.0191741437, -0.0519141965, -0.0012691487, -0.0510721765, 0.0181304757, -0.0570040941, -0.0230166074, -0.0230887439, 0.0274621136, 0.0561985336, 0.0137753831, -0.0150096789, 0.0063648801, -0.0286668688, -0.0256457664, -0.0442054905, 0.0033666654, 0.0658878461, -0.0156397745, 0.0280109644, 0.0854442716, -0.0770874619, 0.0732085258, -0.0181937702, -0.0033624880, -0.0336311720, -0.0450192839, 0.0065805339, 0.0444008559, -0.0430060700, 0.0107113291, -0.0357484631, 0.0062301629, -0.0485737659, 0.0180119872, -0.0230980217, -0.0237214472, 0.0037587266, 0.0118489414, -0.0540968515, 0.0182187501, -0.0422176570, 0.0664319694, 0.0003295327, 0.0357737206, 0.0379530899, 0.0019137482, -0.0447904840, 0.0603385568, 0.0514816344, 0.0420781039, -0.0216850787, 0.0402486399, 0.0291965120, 0.0115083884, -0.0196781438, -0.0434496701, 0.0093879020, 0.0719768181, 0.0517131984, -0.0663153380, 0.0465043485, -0.0627571270, -0.0449819118, 0.0590878688, -0.0154535035, -0.0211216621, -0.0182567053, 0.0378608219, -0.0371273868, -0.0886914581, -0.1454990208, 0.0615917370, 0.0255690813, -0.0319339186, -0.0069353748, 0.0153235504, -0.0069967113, -0.0827744678, 0.0522000305, -0.0327475667, -0.0614830330, 0.0934170187, 0.0361093171, 0.0165477693, -0.0484704077, 0.0011325562, 0.0217147395, -0.0737785101, -0.0294298641, 0.0032116224, -0.0332499593, -0.0123257432, 0.0231770780, -0.0953869596, -0.0188199356, -0.0418661796, -0.0133803859, -0.0276438091, -0.0837977901, 0.0012288606, 0.0070294314, -0.0227219462, -0.0085432269, -0.0177925192, -0.0259007309, 0.0295694787, -0.0357254595, 0.0375799723, -0.0028915778, 0.0526559055, -0.0019110412, -0.0186584666, 0.0096032582, 0.0855606943, -0.0445552543, -0.0609312505, 0.0105904024, -0.0826073363, 0.0079063661, -0.0668207332, -0.0380901843, 0.0194665752, -0.0170531832, 0.0300454013, -0.0666255727, 0.0240701213, 0.0114636943, 0.0123152686, -0.0664466545, -0.0269762259, 0.0257306248, 0.0090930890, -0.0270652436, -0.0060797343, -0.0041289283, -0.0474691913, -0.0120215146, -0.0120509136, 0.0544945300, -0.0507324748, 0.0258386005, 0.0363130122, 0.0523166806, -0.0007740427, 0.0552298650, -0.0303590950, -0.0755917877, 0.0267361514, -0.0273440462, 0.0883093923, -0.1117283106, 0.0161267258, -0.0236288439, 0.0576027781, -0.0554257892, -0.0690635368, -0.0426595584, -0.0535865203, -0.0231551975, 0.0589676909, 0.0421022363, -0.0607371256, -0.0342525095, -0.0072442144, -0.0364130959, -0.0242551751, 0.0182490274, 0.0454598404, -0.0853968784, 0.0303244554, -0.0121909194, 0.0070690289, -0.0437833592, -0.0151044065, -0.0522013381, -0.0585875139, -0.0440928899, -0.0109831542, -0.0156550277, 0.0108312974, 0.0522376336, -0.0571242347, -0.0294588320, -0.0151114948, -0.1088703945, -0.0584316105, 0.0020577880, -0.0443372875, 0.0316559225, 0.0712600797, 0.0242791735, 0.1003093719, -0.0268631410, -0.0100538954, -0.0744906440, -0.0410201326, 0.0845288858, -0.0984318182, 0.0002928707, -0.0142502291, -0.0621274002, 0.0452937707, -0.0240020957, -0.0632481873, -0.0113814902, 0.0322581828, 0.1167852953, 0.0327181369, 0.0484899580, 0.0310421754, 0.0630979985, -0.0400501341, -0.0011687144, 0.0715343505, 0.0039667403, 0.0377644971, -0.0434270799, 0.0221868847, -0.0035550164, -0.0271917582, 0.0399820954, -0.1144595072, 0.0150662698, -0.0556618720, 0.0218244344, 0.0095287282, -0.0092832353, 0.0097950399, 0.0046742298, -0.0422612354, 0.0587651581, 0.0334513411, 0.0217623040, 0.0690065175, 0.0638819039, 0.0107579706, -0.0591042563, -0.0222933888, -0.0364316106, -0.0508440658, -0.0537627973, -0.0288615022, -0.0002973089, 0.0467107818, 0.0296415202, 0.0627231821, -0.0218764003, 0.0248344559, -0.0038720081, -0.0041821226, 0.0556591675, -0.0063422117, 0.0074287402, -0.0527819470, 0.0721269399, 0.0331187695, -0.0423513986, 0.0357869193, 0.0118996538, -0.0485619716, 0.0014929827, 0.0350365229, -0.0129565271, -0.0618245862, 0.0445722938, 0.0545717366, -0.0328172520, -0.0339366868, 0.0240636021, 0.0185660776, -0.0050346786, 0.0774305910, 0.0469681397, 0.0329604708, 0.0265873820, 0.1074996740, -0.0081429984, -0.0442285948, 0.0612540022, 0.0626735389, 0.0072953403, -0.0491091609, 0.0122049386, -0.0077688256, 0.0097539453, -0.0191108342, 0.0294431467, -0.0102615748, 0.0122407880, -0.0187357757, 0.0664995089, 0.0354358777, -0.0467856191, -0.0745145530, -0.0410090387, 0.0038922345, 0.0342545807, -0.0595719293, -0.0527640767, -0.0459148511, 0.0023644853, -0.0120752556, -0.0217463933, 0.0110318549, 0.0442010984, -0.0370061100, -0.0599108525, 0.0585484169, -0.0212821402, 0.0186358094, -0.0283280611, 0.0377227738, 0.0357722417, -0.0711691305, -0.0754171684, -0.0100190677, 0.0283177067, 0.0320163667, 0.0093052657, 0.0150197856, -0.0648030117, -0.0153557369, -0.0592864342, -0.0352400355, -0.1028498560, 0.0740227550, 0.0109161288, 0.0293385889, 0.0242734645, 0.0024146247, 0.0268753655, -0.0069233347, -0.0220793672, -0.0130895618, 0.0298171267, 0.0316773541, 0.0467608795, 0.0063799554, -0.0391742289, -0.0430323780, -0.0303593427, -0.0157525167, 0.0161861815, -0.0040290570, 0.0150290458, -0.0061921664, -0.0273258630, -0.0005222764, -0.0542305186, 0.0030319681, -0.0021923520, 0.0009130519, 0.0456857234, 0.0176108442, 0.1139259636, -0.0412129760, -0.0744248331, 0.0343710743, 0.0403213575, 0.0320720375, -0.0081130173, -0.0170749426, -0.0194818601, 0.0164806433, 0.0079568382, 0.0635990575, -0.0031176899, -0.0769014284, -0.0708617046, 0.1125166565, -0.0179150179, -0.0821852684, -0.0217449628, 0.0104428222, -0.0862444937, -0.0085019376, 0.0604974441, 0.0224326365, -0.0011473615, -0.0104572345, -0.0498778187, 0.0053835269, -0.0132939117, 0.0105689522, 0.0259707365, -0.0893736333, 0.0070666373, -0.0130658560, -0.0307848230, -0.0360824354, -0.0781548172, -0.0778838098, -0.0373896211, 0.0308662988, 0.0452416204, -0.0475603417, 0.0322750062, 0.0278015099, -0.0682059079, 0.0321444608, -0.0674629584, -0.0216427837, -0.0464568473, -0.0399849005, 0.0643736646, 0.0371870026, -0.0127921319, -0.0504152365, -0.0125773428, -0.0267462265, 0.0070088333, -0.0351733416, 0.0714923888, 0.0107921977, 0.0660897195, 0.0514630340, 0.0109235477, -0.0304263830, 0.0542053506, 0.0110361837, -0.0062509319, -0.0208825395, 0.0001544876, -0.0171053223, 0.0778179541, -0.0272073559, 0.0395010337, 0.0351981334, 0.0193907227, 0.0528039075, 0.0361778215, 0.0131027745, 0.0163848270, 0.0106201470, 0.0134133622, -0.0141596049, -0.0352551937, 0.0354513824, 0.0105682276, -0.0375224315, -0.0350166336, 0.0076207537, 0.0626535118, 0.0967810452, -0.0753618106, -0.0132903736, 0.0077506369, 0.0096441284, 0.0249789767, 0.0734808519, -0.0645019114, -0.0184746478, 0.0603283569, 0.0349305421, -0.0476080067, -0.0406376421, -0.0326967463, -0.0292124916, 0.0423804447, 0.0456135049, -0.0242139734, 0.0312729292, 0.0028019939, 0.0101370513, -0.0715297312, -0.0324574187, 0.0156860352, 0.1038439646, -0.0008355472, 0.1115600988, 0.0222040657, 0.0063823899, -0.0228569694, 0.0636748150, 0.0851168931, -0.0104514528, 0.0642458424, -0.0698771924, 0.0302180853, 0.0051489738, -0.0895253420, 0.0173970219, -0.0202359725, -0.0901896134, -0.0009876329, 0.0148165058, -0.0309769213, -0.0519084185, 0.0199822877, 0.0158303212, 0.0320184305, -0.0431036763, -0.0426164679, 0.0352318510, 0.0252943449, -0.0427361988, -0.0872159377, 0.0006290729, -0.0334298424, -0.0447904952, -0.0357692279, -0.0074740537, 0.0059813955, -0.0043146536, -0.0794675276, 0.0207190253, -0.0192185845, -0.0288636647, -0.0011355518, 0.0395127796, -0.0308089610, 0.0078284722, -0.0400749072, -0.0399279594, 0.0804622620, -0.0094561428, -0.0427888110, 0.0399961509, -0.0695285872, 0.0408800356, 0.0030958187, -0.0427148007, 0.0329141840, -0.0000068266, 0.0303747281, -0.0093162609, 0.0776221678, 0.0351776369, -0.0673971176, 0.0437144488, 0.0468416214, -0.0464267731, -0.0091040246, -0.0558098033, 0.0154643059, -0.0955553800, 0.0320922732, 0.0021707974, -0.0194638148, 0.0265026186, 0.0463052690, 0.0755911320, 0.0816292763, 0.0100161098, 0.0046969601, 0.0172159523, 0.0204134118, 0.0379529111, 0.0281127319, 0.0256230496, 0.0065619908, 0.0085251769, 0.0201320797, -0.0165202115, -0.0402889773, -0.0317196548, -0.0273192786, -0.0347713120, 0.0589695424, -0.0384552851, 0.0409036428, 0.0251523629, -0.0364978388, -0.0238451660, 0.0779478252, -0.0269738436, -0.0481577441, 0.0328985900, 0.0343730338, 0.0051405579, -0.0031694388, -0.0497883856, 0.0232003238, 0.1127370596, 0.0259413850, 0.0235881973, 0.0046688360, 0.0628457069, -0.0850098357, 0.0619776510, -0.0255070999, -0.0154891759, 0.0301044658, -0.0422754809, 0.0038413629, 0.0248717070, -0.0109925736, -0.0482744165, 0.0107960245, -0.1146287918, -0.0279669892, -0.0393001772, 0.0251073167, 0.0069224900, -0.0461965054, 0.1014702544, -0.0318492949, 0.0366586819, 0.0337118134, 0.0093835033, -0.0051373765, 0.0017117523, -0.0434225276, 0.0596121028, -0.0537169650, -0.0018795975, 0.0287794285, 0.0144949025, 0.0351130292, 0.0079959575, -0.0252804644, -0.0296918191, 0.0180809014, -0.0312766992, -0.0183328949, -0.0419408493, -0.0242102407, 0.0381202251, 0.0534651726, 0.1017184183, -0.0705856904, -0.0825354904, 0.0051721120, -0.0313627496, 0.0233941153, 0.0117952935, -0.0466688871, -0.0807100385, 0.0921769291, 0.1150385514, -0.0679391772, 0.0282984413, -0.0118143940, 0.0069047255, -0.0201845337, -0.0069333212, -0.0708113909, -0.0407514311, 0.0936676562, 0.0621092245, -0.0536182411, -0.0647952557, -0.0137588223, 0.0079119410, -0.0132360253, 0.0231536180, 0.0380997919, 0.0448901504, -0.0327198766, -0.0558089912, 0.0344014093, -0.0127207302, 0.0336111672, 0.0396131426, 0.0543031767, 0.0190093536, 0.0341510363, 0.0371323973, -0.0497288182, 0.0088335061, -0.0052002938, -0.0205616672, -0.0360240266, -0.0732434392, -0.0235925801, -0.0271713156, -0.0134731783, -0.0087669147, 0.0040393197, -0.0131475953, -0.0596996397, -0.0118392454, -0.0103288935, 0.0188700538, -0.0449352190, -0.0301520880, -0.0018630512, 0.0633610412, -0.0059833876, 0.0667561069, 0.1032534167, 0.0046141371, -0.0038583959, 0.0329121277, 0.0731623992, 0.0359636769, 0.0116213951, -0.0181260929, -0.0321214721, 0.0200470388, 0.0379504077, -0.0767023787, 0.0120038465, -0.0137110529, 0.0294189043, 0.0945939422, 0.0079816291, 0.0043937517, 0.0552195013, 0.0738959834, -0.0533726588, 0.0394385383, 0.0154343313, -0.0042277761, 0.0372672603, 0.0342432186, 0.0183117781, -0.0086949077, 0.0291262381, 0.0143833626, -0.0198664851, 0.0818316415, -0.0009155767, 0.0152756786, 0.0411190055, -0.0349641852, -0.0263158437, -0.0349698626, -0.0071434863, 0.0223325379, 0.0774897337, 0.0476783291, -0.0890918151, 0.0009179614, 0.0288398731, 0.0243289731, 0.0658085197, -0.0238324273, 0.0512875468, 0.0620823093, 0.0176204182, 0.0196420811, -0.0465660356, 0.0228769816, -0.0433652066, 0.0261312053, -0.0069892183, 0.0219611954, -0.0519358143, 0.0550327823, -0.0393246375, -0.0146009205, -0.0182402581, 0.0039376849, -0.0164994225, 0.0379463099, 0.0162892919, 0.0286157690, 0.0480574928, -0.0165243484, 0.0434803627, -0.0552736297, 0.0172716323, -0.0234386194, 0.0805218890, -0.0666900799, 0.0535963066, -0.0282604508, 0.0500150360, -0.0042796009, 0.0155204702, 0.0430341586, -0.0385295749, 0.0153147709, 0.0497235619, -0.0379239433, 0.0470272824, 0.0402970538, -0.0104900291, 0.1060272008, -0.0798804015, -0.0480660051, -0.0202989932, 0.0176902153, 0.0248749927, 0.0082913619, 0.0250578932, -0.0723798648, -0.0422986783, 0.0346746333, 0.0457453988, -0.0387138836, -0.0202969685, 0.0922684297, 0.0476783141, -0.0193562992, 0.0219395887, -0.0117569007, 0.0450648852, -0.0253697373, 0.0166767593, 0.0200894009, -0.0357291885, 0.0818032697, 0.0767439604, -0.0049227779, 