//Numpy array shape [128, 512]
//Min -0.687080860138
//Max 0.681999087334
//Number of zeros 0

#ifndef WR9_H_
#define WR9_H_

#ifndef __SYNTHESIS__
lstm_4_recurrent_weight_t wr9[65536];
#else
lstm_4_recurrent_weight_t wr9[65536] = {-0.1393432468, 0.0674881414, -0.0121385567, -0.3593519926, 0.0691794977, 0.1251218319, -0.0640087947, -0.2398026884, -0.2360047251, 0.0274377763, 0.0515425093, 0.0012932905, 0.2355512679, 0.0756813139, 0.0694209635, 0.0589533858, 0.1560443193, -0.0084311254, -0.0144234477, -0.1897253692, 0.1108910516, -0.0028220217, 0.0800679326, 0.1648806930, -0.0335292332, -0.1507389843, -0.1627536565, -0.0213335175, -0.2131091803, 0.0098105473, 0.1116638333, -0.1126358286, -0.1328579038, -0.0208641645, -0.0009930562, 0.1654774100, 0.1262447089, -0.0608226657, 0.0670408905, 0.0372696407, 0.0540772565, -0.1631335467, 0.0261775088, 0.0398473442, -0.0331657864, -0.0093882848, 0.0876882449, -0.1962446570, 0.0641504601, -0.1453129500, -0.2372129560, -0.0696084797, -0.1990304142, -0.0878746659, 0.0306313187, -0.0208142847, -0.0430672243, 0.0410060994, 0.0346531197, 0.0559687130, -0.1408729404, 0.0436830595, 0.4048216939, -0.0551633500, -0.0883198828, 0.0029410159, -0.0969594494, -0.0900470838, -0.1068895012, -0.0440035574, -0.0959181488, 0.0068490794, 0.0455294997, 0.0152196260, -0.0825738683, 0.1516710669, -0.1329013556, 0.0663123727, -0.1282577366, -0.1463918835, -0.0587868206, -0.0875971913, -0.0172277652, -0.0068596797, 0.0107577490, -0.0737821832, -0.1912479550, 0.0801670402, 0.0929770693, 0.0704348609, 0.0917744488, 0.0590573773, -0.2778333426, -0.3825531900, -0.2760137320, -0.1921149641, 0.0398930535, -0.2046693414, 0.0545156188, 0.0149391294, -0.1857250780, -0.2554703653, 0.1824009269, 0.1132965237, -0.0631351694, 0.1504156590, 0.0875895396, -0.2076078057, -0.1194180772, 0.0974032059, -0.1928893328, -0.1123944372, 0.2035102546, -0.0926593021, -0.0164241586, -0.0732730255, 0.0180823710, -0.1459484100, 0.1880373061, -0.1099377945, 0.0190079678, -0.1433561891, -0.1317618191, 0.0851932317, 0.0265322737, 0.0271812994, 0.0172807556, 0.1155235618, 0.0035372602, -0.0090133511, 0.0244806278, -0.0959562659, 0.0531809889, -0.0172791686, 0.0224258006, 0.1376021057, 0.0438863412, 0.0707814917, 0.0242452286, 0.1201309711, 0.0794810355, 0.0185687467, 0.0656200647, 0.0712587386, 0.0920092314, -0.0336381383, 0.2080382705, 0.0333871096, 0.0639993176, 0.2342867106, -0.1978123337, 0.1004275084, -0.0474747047, 0.2420511693, -0.0071235662, -0.1115269437, 0.0911224261, 0.0788519382, 0.1668036282, 0.1521849930, 0.0772788525, -0.0338114835, 0.0154864481, 0.0635653287, -0.1323680431, 0.2890624702, -0.0320267379, 0.1342590749, 0.0654746965, 0.0178140178, -0.0157416742, -0.1121071726, 0.0764838383, -0.0495949686, -0.0151787372, 0.0778780654, 0.0554971062, 0.0264319442, 0.1270229667, 0.0679988712, 0.1404521316, 0.0312307030, 0.1360800117, 0.0807260051, -0.0917430967, 0.0928261578, 0.0581971258, 0.1096481979, -0.0539833792, 0.2879991233, 0.2044772357, 0.2643786371, 0.0832212046, 0.0883407816, 0.0796893388, 0.0077489438, 0.0049371044, -0.0423064306, 0.0101138642, -0.1240627691, -0.0136991143, -0.1295869946, 0.0162744727, 0.3010860384, 0.0793132558, -0.0251213294, 0.0451008044, 0.0063415668, -0.0081166551, 0.1302670538, 0.2056526542, 0.2019783109, 0.1263187975, -0.0282760821, 0.2085058093, -0.1003715023, -0.0628642142, 0.1110606566, 0.3419581652, 0.0642907992, 0.0414297543, 0.2456563413, 0.1805528849, 0.0526829474, -0.0631556213, 0.1953941137, 0.0392138027, 0.0464049689, 0.1952085495, 0.1007278264, 0.0796879828, 0.0122834342, 0.1194431260, 0.0026983293, 0.0074278014, 0.0455966853, 0.3507869542, -0.0177052449, 0.0431753807, -0.0307460167, 0.1388959885, 0.2517437041, 0.1338379383, 0.0240331460, -0.0898689702, -0.0576310419, 0.0325314775, -0.0132142659, 0.0573500767, 0.0616350546, 0.1098273024, 0.0623904504, 0.1290035099, 0.1988485008, 0.0502533987, -0.0055283862, -0.1237264425, 0.1507907659, 0.0279086754, 0.0336455405, 0.0398978777, -0.1020949557, 0.0757729188, 0.0840021968, -0.1819077432, -0.0210254658, -0.0777696371, 0.0044442913, 0.0611792132, 0.0442892313, 0.0481362157, -0.0079674572, -0.0343632251, 0.0985920802, -0.0598597303, -0.0045179124, -0.0650402680, 0.0591603145, -0.1324803978, -0.0533007458, -0.1154279858, -0.1126216352, 0.0292553734, 0.0001554386, -0.0150600160, -0.0263149757, 0.1412271261, -0.0169909131, -0.0220573545, 0.1094841510, 0.0332905091, 0.0541746840, 0.0051251282, 0.0760555491, -0.0117389858, -0.0628402457, -0.0475330837, -0.0211429875, -0.0431953035, 0.0954215303, 0.0249062553, -0.0997400060, -0.0129193962, -0.1165610999, -0.0260851979, -0.1443280578, 0.0129380058, -0.0233677439, -0.0358420908, 0.0120110363, 0.0054013901, -0.0551766232, -0.0259625912, 0.0327681899, 0.0745695606, -0.0659034923, 0.0667968765, -0.0716652423, -0.0119676599, -0.0294581205, 0.0069708233, 0.1064605191, -0.0128964856, -0.0535279214, -0.0061011491, -0.0055941613, 0.0281492472, -0.0561990291, -0.0608644821, -0.0175110754, 0.0178874880, 0.1345770061, -0.1552897543, 0.1313800067, 0.0681212246, 0.0031503343, 0.0558131412, -0.0047209952, 0.1292535812, 0.0655262917, -0.0749447197, -0.0204501972, 0.0639552772, 0.0096157845, 0.1588133276, 0.0762669370, 0.0593903139, 0.0031811141, 0.0406765938, 0.1255014837, 0.0488356538, 0.0620591864, 0.0857078731, 0.0239299461, 0.0401413701, 0.0802453160, 0.0499588326, -0.0278317966, -0.0856682062, 0.0302415844, -0.1304596961, 0.0726623386, 0.1434558034, -0.0562551655, -0.1173657700, 0.1914075762, 0.0309803281, 0.0094792126, 0.0174627099, -0.1233726889, -0.0064057321, -0.0501483828, -0.0793202743, 0.0300583560, 0.0514544547, -0.0782326311, -0.0003526987, -0.1044423580, -0.0273177363, -0.0178818330, -0.0127953412, 0.0031240426, -0.0562749170, 0.0372267216, 0.1063098386, -0.1500358433, -0.1048865840, 0.1226338446, -0.1612900794, -0.0784939080, 0.2032435983, 0.0510347150, 0.1927621812, 0.0522694886, -0.0906827524, 0.1174614429, 0.0641754121, -0.0299783666, -0.0659565702, -0.0953900069, 0.0887015015, -0.0344156958, 0.2261444777, -0.1739273369, -0.0700879470, 0.1047862694, 0.0324680246, -0.0048643965, 0.0065736687, -0.0264327638, 0.0904714838, 0.2315064967, -0.0079505146, -0.0162814520, -0.0112255234, 0.0564559661, 0.0776101127, 0.0654610395, 0.0951160491, 0.1424918026, -0.0761086941, 0.1005151570, 0.0710992217, 0.1628179401, 0.0045439675, -0.0160669666, -0.0733248517, -0.1072863936, 0.0056515732, -0.1661322564, -0.0325748250, 0.2136696130, 0.0238667335, 0.0800164714, 0.0674922764, -0.0996362343, -0.0043934444, -0.0633434355, -0.0357615761, 0.0182841159, 0.0898550898, 0.2171350420, -0.0919783488, -0.0618584231, -0.0644185841, 0.1732279509, 0.1791311055, 0.0466435365, -0.1682319641, 0.3254554868, -0.1572534591, 0.0248953272, 0.1214571819, 0.0206559822, -0.0062636524, -0.0983985513, 0.0749234110, 0.0351744853, 0.1336694807, 0.0935694799, 0.0190484095, 0.0363094620, 0.0332080834, 0.0434142314, -0.0005838923, -0.0169114526, 0.2992779911, 0.1881223023, -0.0054662027, -0.0225766450, 0.1205984354, 0.0258864723, -0.0581826642, 0.0459294841, 0.0470797345, 0.0468685031, 0.0900706798, -0.0090600271, 0.1643582284, 0.0002177451, 0.2732115984, 0.3036561906, 0.0340402313, 0.0523199551, 0.0154481037, -0.0478798710, -0.0088621359, 0.0184667353, -0.1879879981, 0.0182564929, 0.2136435360, 0.0268461183, 0.0301744044, -0.0192266870, 0.1272858232, -0.1388383955, -0.0312933400, 0.0296881031, 0.1288262159, 0.1307315230, -0.1276834905, -0.2527002394, -0.0206295252, 0.0675846487, -0.0083798198, -0.0581087694, 0.1110924929, -0.0706292316, 0.1040377691, 0.0026517177, -0.0099040726, 0.0743370503, -0.2396260649, -0.1539419442, 0.1101627871, -0.3332196772, -0.1527727544, 0.1474063396, -0.1336161941, 0.0265524928, -0.0692128018, 0.0379325040, 0.0039586108, 0.2528509498, -0.2496189028, 0.2537194192, 0.1649969518, -0.0536392108, -0.2040894926, 0.0483021550, -0.0032129679, 0.0939026624, -0.0359101482, 0.0898953378, 0.3847746253, 0.0263021309, 0.1791441590, 0.0563221425, -0.0300145186, -0.1987215579, -0.0267486740, -0.0894471407, -0.0157874599, 0.1164360493, -0.0794344619, -0.1431357414, -0.0894918144, -0.1359908283, -0.3474470377, -0.0469294302, 0.0315013453, -0.0525840297, 0.1407138407, -0.0574772134, -0.1329107434, 0.0301939622, -0.3284675181, 0.0318722054, 0.0941659212, 0.0250368416, 0.1667632461, 0.0308632292, -0.1442116648, 0.0998000801, 0.1845227778, 0.1212522313, -0.0472222902, 0.0276080873, 0.2349849790, -0.3743670285, 0.1190460548, 0.2350803316, -0.2524236143, -0.0258499905, -0.0327654332, -0.0960736051, -0.0331713520, 0.2716575861, -0.0238772240, -0.0609176941, -0.0693078488, 0.1570989937, 0.2091454715, 0.0340708122, -0.0664702132, 0.1100024953, 0.0250970740, -0.0077907569, -0.0248188321, -0.1392504126, 0.1277913451, -0.1427963525, -0.1477375925, 0.2518517375, 0.0772593245, -0.1100800931, 0.0543681420, -0.0017855125, -0.0138829425, 0.1131352633, 0.0632115528, -0.0550002605, -0.0542546250, -0.0147326393, -0.1848318726, -0.2648994327, -0.1857393384, 0.3424243629, -0.0804039165, 0.4597490430, 0.1523408443, 0.3260228932, 0.1012725160, 0.0680331364, 0.3425723016, -0.0217339117, 0.0182574596, 0.1672420204, 0.3362377584, -0.1561872214, -0.3282981515, 0.0906082913, -0.0054813125, 0.0135406954, 0.1061154976, -0.1194103137, -0.4873093963, -0.0731423497, -0.1192413270, 0.1000772193, -0.0760363340, 0.0666112825, 0.1710091382, 0.0131996097, 0.1159093454, -0.0329777300, 0.0889846683, -0.0006472722, 0.0639533326, -0.0726585612, 0.0577079616, 0.0936809182, 0.1172536910, 0.0942985937, 0.2212638110, 0.0409915596, 0.0897312835, 0.1676958799, 0.1170402169, 0.2243136466, 0.1096749976, 0.1126697659, 0.0504075661, 0.0823364705, 0.2066133171, 0.0650360212, 0.1583011001, 0.0129296798, -0.0112262927, 0.0255959462, 0.0153599158, 0.1754824519, 0.1020954102, 0.0790930837, -0.0188730694, 0.1989863813, 0.0172119029, 0.0351503380, -0.2272264957, 0.0073113656, 0.1727509648, 0.0723895431, 0.1095848233, -0.0356869921, -0.1350399405, 0.1901924312, 0.1056094393, 0.0110040018, -0.1198903620, 0.1129458547, -0.0811855420, 0.2086870968, 0.2565034032, 0.0157114565, -0.1101326644, -0.0434443578, -0.0973706618, 0.3027451336, -0.0186647493, 0.2423757315, -0.0580520630, 0.0872916877, -0.0042255996, 0.0662810281, -0.0342602432, 0.1025133133, 0.1269030124, -0.0430609435, -0.0448316224, 0.1009634286, -0.0870201290, 0.1110048592, 0.1230274811, 0.1612382233, -0.0752526149, 0.0423623100, -0.0042413445, 0.0952511728, 0.0024589761, 0.0362131074, 0.1798036993, 0.0556751452, 0.1160826311, -0.0997951254, 0.1138808876, 0.0697643533, -0.0596850887, 0.2850999534, 0.4564854205, 0.0332497805, 0.1159717590, 0.0768854022, 0.0052782926, -0.0533785895, 0.1490194649, 0.1174920723, -0.0733435899, -0.0602986626, 0.0112794368, 0.0488906801, 0.0767196119, 0.0557508208, -0.0446651429, 0.1218538210, 0.0444346741, 0.0908132568, 0.1061362177, 0.2142109275, 0.1110650152, 0.0738107264, 0.0593487136, 0.1905143708, 0.0805490613, 0.0590858124, -0.0344724655, 0.0744075850, -0.1062755063, 0.1614603102, 0.0492991805, -0.0501811020, 0.1292696297, 0.0296626426, 0.2178827822, 0.1197569519, -0.0270286761, 0.2190490663, -0.1241274253, -0.0998014957, 0.0747225583, 0.1237777993, -0.0394231565, 0.0586765595, 0.0731909648, -0.0941422358, 0.2689682543, -0.0551547483, -0.0374859273, 0.1872360557, -0.0033072140, 0.0112844622, 0.1261114776, -0.0057871304, -0.0182618853, -0.0816432089, -0.0155854868, -0.1797012836, 0.1417057365, -0.2540863156, 0.1054344550, -0.2155953795, 0.1630803198, 0.2214679569, 0.0031753166, -0.0512563325, -0.0559518449, 0.0089423275, 0.0207388029, 0.1282242835, 0.1103115529, -0.0786416456, -0.3694271445, 0.0252311900, 0.2156585455, 0.1835364401, 0.0645173937, -0.2913150787, 0.0465582274, 0.1467471421, 0.1048537642, -0.0711361840, 0.0531315170, -0.0310421139, -0.0646027699, 0.0354073085, -0.1157646030, 0.0256645773, 0.1335440874, 0.0949457884, 0.0383273475, 0.1632243991, -0.0373011492, 0.0198774692, 0.0467785262, -0.0804297552, 0.0818781406, -0.0760649145, 0.1417562515, -0.1477233171, 0.1144315377, 0.0272659454, 0.0571343191, -0.1438693255, 0.1740639210, 0.0179699771, 0.0753017217, -0.0577943586, -0.0454390720, -0.0888209119, -0.0425317250, -0.0624641776, 0.0622016452, -0.0419819728, 0.0391277596, 0.1345742941, -0.0775858685, 0.0799313560, 0.1555802971, 0.0007925513, 0.0974099562, 0.0536372922, 0.0407261252, -0.0379969925, -0.0346730128, 0.0128460098, -0.1559630334, 0.2646647692, 0.1206903607, 0.1010225490, 0.0153862974, -0.0925584137, -0.1157207787, -0.0210168138, -0.0029251643, 0.0902359262, 0.0355518572, 0.0449324101, -0.2498771250, 0.1117851734, -0.0558362678, 0.0147707844, -0.0196397826, 0.0857275501, -0.0625590160, -0.1271775067, 0.0001396892, -0.0589163154, -0.0042922022, -0.0869329497, 0.1296443492, -0.0414736606, -0.0944127440, 0.0706614107, 0.1611472964, -0.1434536576, 0.0508043692, 0.2039351761, -0.0732577518, -0.0320866518, 0.0083715962, 0.0135145346, 0.0357527137, -0.0641953275, 0.0322668329, -0.0514803864, 0.0533439890, 0.0669228360, 0.1355083585, -0.1132778600, -0.0324634016, -0.0006763740, -0.0382615067, -0.0172918811, -0.0188639686, 0.0825099498, -0.0741165504, 0.1257223636, 0.1439527571, 0.1453036666, 0.0801428184, 0.0090577295, -0.2127129883, 0.0260394085, 0.1968259513, -0.0668823794, -0.0511530526, -0.1245062724, -0.1245572418, 0.1041841060, -0.0372250564, 0.1613924056, 0.0857240856, 0.0418364443, -0.1327637881, -0.0229183361, 0.1197145879, -0.0340250470, -0.0605787300, 0.0707652941, -0.1024278477, 0.0591800287, -0.0925181210, 0.1019697040, 0.1245259717, -0.1226708144, 0.0882163867, -0.0462335870, 0.2438111752, 0.0635485798, -0.0282093678, 0.2833400071, 0.3891638517, -0.0345218107, 0.0493529476, 0.1475045830, 0.0093490062, -0.0202159602, -0.0620977171, 0.1834899783, 0.1699510813, -0.0251662377, -0.2332548499, -0.0119171422, -0.0301396158, 0.1558105052, -0.0359146707, 0.1206455305, 0.0234045815, 0.0168161076, 0.0510303155, 0.0525832437, -0.1013194025, 0.0299338643, -0.0360029712, -0.1853262186, -0.0650479198, -0.0958858728, -0.0693623871, 0.2578372955, -0.0268299300, -0.1170524955, 0.0622542650, 0.0010244922, 0.0254436862, -0.0972904712, 0.4967245758, -0.1194098890, 0.0587579831, -0.0411990173, 0.0576044954, -0.0026447992, 0.1353951395, -0.0630457997, 0.0703292638, 0.2456617355, 0.1049252003, -0.0112164207, 0.0787489042, -0.1059193984, -0.0971611142, 0.2884421945, -0.0578280203, 0.1225845143, -0.0907915384, -0.0497154035, 0.0024370106, -0.0619673654, -0.0113817714, 0.2003600448, -0.0891969651, 0.1985015273, -0.0320098922, 0.1063849777, -0.2941864431, 0.5218653679, -0.0992469192, 0.1791159213, -0.0210820753, 0.0366678648, -0.1095292196, -0.1060124561, -0.0209186766, 0.1437624097, 0.0796205103, 0.0371629857, 0.3005800545, -0.0261699185, -0.0723800361, -0.0204097629, -0.0025829822, 0.0795872062, 0.0412743203, 0.1158521995, 0.0252406131, -0.0342746601, 0.4577993453, 0.1076502949, -0.1608914435, -0.0345509872, 0.0169718768, -0.0649551600, 0.3261004090, 0.3659655750, -0.1265028417, -0.0741639882, 0.0105153751, -0.0635152385, -0.0680462718, 0.0508515500, 0.0215082970, -0.0238922928, -0.1468690634, -0.1338473260, 0.1324202269, 0.0884780809, -0.0130977426, 0.0012829163, 0.0843192860, -0.0353168398, -0.0411840715, -0.0332532823, -0.0378590226, 0.0590439737, -0.0584429726, 0.0449015573, 0.0541479811, 0.3662260473, 0.1169231907, -0.0436491184, 0.0314935856, -0.0300517548, 0.0606331043, -0.2097510844, 0.0428062789, 0.1295821220, 0.0066825435, -0.0494139306, 0.0015981259, 0.0055525955, -0.0300247055, -0.0610796362, -0.0624048002, -0.0665401667, 0.1795093715, -0.1404867470, 0.0529723838, 0.0669297278, -0.1581018269, 0.2938043773, 0.2091499120, -0.0317157730, 0.0516652539, -0.1390695721, -0.0032488559, -0.0361973904, -0.0104849851, 0.0981221646, -0.1660200804, 0.1484917551, 0.0953580961, 0.0018135631, 0.0505163893, -0.1377146542, 0.2781135142, 0.0061972714, -0.1681559682, -0.0315493830, -0.0413511395, -0.0074864384, -0.0311911460, 0.1760414988, -0.0173837282, -0.1011675522, 0.0748685226, 0.0464782715, 0.0752626956, 0.1331067681, -0.0523371771, 0.0773300231, 0.1770091057, -0.1001716629, -0.1563478559, -0.1500555426, -0.0444357842, 0.0307434797, -0.1394678950, 0.1114315242, -0.0193799231, 0.0216251854, -0.1021319330, 0.0198870897, 0.1972170919, -0.0266758036, 0.1765565276, 0.0228674263, 0.0151105318, 0.0431534611, -0.0010191354, 0.0070877546, -0.0541633517, -0.0806795955, -0.1561700404, -0.1397829503, 0.0132799810, 0.0243168063, 0.0813754350, 0.3612463176, -0.0207714159, 0.0961174592, 0.1480946988, -0.0548398420, 0.0140356831, 0.0333374068, -0.2089098096, -0.0393417515, -0.1255585402, -0.0930594578, -0.0443460867, -0.1534395516, -0.0423801318, -0.0709796175, 0.0154207312, 0.3081278503, -0.0936546102, 0.0042204843, 0.0194755774, 0.1763516515, -0.0296210721, 0.1244356930, 0.1568297893, 0.0265795570, 0.0074951798, -0.0485901460, 0.1094656959, 0.1640909165, 0.1177156344, 0.2237189859, -0.0156863946, 0.1395667046, 0.1060836762, 0.1787289977, 0.2296990603, 0.0038043486, 0.0611943565, 0.0157257374, 0.0857657865, 0.1170687079, 0.0660167038, 0.1196848005, 0.1005608439, 0.0217515659, 0.1331518143, 0.0927522331, 0.0585246123, 0.1668118387, 0.0314535163, -0.0460147858, -0.0725580677, 0.1169418842, 0.0271657500, 0.0211784039, 0.0832826123, 0.0591471121, 0.0459253788, 0.0614688024, -0.0489227809, 0.0347501412, 0.0568439849, 0.0803995654, 0.1383236349, 0.1083690003, 0.0784234181, 0.0200494900, 0.0975414291, 0.1377169341, 0.0045168092, 0.1066570505, 0.0981031954, 0.1197229922, 0.0637726337, 0.1642573029, 0.0472741202, 0.0091752615, 0.1533500552, 0.1084362045, 0.1186561286, 0.0665248409, 0.0744611919, 0.0923470855, 0.0464118943, 0.2717611790, 0.1729660332, 0.0638496578, 0.0205834936, 0.0471319519, 0.3444180787, 0.2049711794, -0.0227215569, 0.0499549061, 0.0661214367, 0.0838145092, -0.0399861597, -0.0165459048, 0.0167167839, 0.0682534128, 0.1540692300, -0.0197052117, 0.1133162752, 0.0946130827, -0.0274645332, 0.0096652759, 0.1226269156, 0.1034982726, 0.0940473378, 0.0543365814, 0.0890884995, 0.0740716457, -0.0578460731, 0.0003067107, -0.0562435724, 0.0910247639, -0.1053545102, -0.0021632330, 0.2295341194, 0.0759178922, -0.0149030620, 0.1131027415, 0.1353105456, 0.0273808204, 0.0496158861, 0.0452297963, 0.0282713491, -0.0058541186, 0.1259525120, 0.0763320327, 0.1380455941, 0.0945564881, 0.0577118099, 0.1370446384, 0.1849629581, 0.1391345561, 0.1357710958, 0.0819016695, 0.0865795687, 0.1013794020, 0.1690638512, 0.1508563906, 0.0981127992, -0.0122376056, 0.0118468795, 0.1012905166, 0.0828508437, -0.0003689710, 0.1584246159, -0.0380818136, 0.0748562589, 0.1264148057, 0.0576566197, 0.1024991944, 0.0747685507, 0.0893062055, 0.0315933935, -0.0491980202, -0.0028026369, -0.0515542068, 0.1014214233, -0.1134584919, 0.0397418849, 0.0777940527, 0.0355161317, -0.0808001012, -0.0293062329, -0.0319864601, -0.0066899448, 0.0549789853, 0.0035021657, -0.0010046765, -0.0509144925, 0.1263816059, 0.0614558868, -0.0269961897, 0.0527586751, 0.0081717372, -0.0192503240, 0.3311640322, 0.0261024125, -0.0128771132, 0.0570284836, -0.0086890673, -0.0281679574, 0.0907733962, 0.0278718695, -0.0599741191, 0.0016128393, 0.0021193982, 0.0725977048, -0.0160350222, 0.0291155595, -0.0228398535, -0.0461725667, 0.0630555302, -0.0815046281, 0.1958982050, 0.0282969885, 0.1185583919, 0.0148926070, 0.1244403869, 0.0175511800, 0.0411191024, 0.0272329897, -0.1453467757, 0.0220656618, 0.0591772385, 0.0305048935, -0.1385349780, 0.0512882881, -0.0717821196, 0.0048258416, 0.0355000868, -0.1265451610, 0.0385199822, -0.0292273704, 0.0610093661, -0.0010309155, -0.0197782293, 0.0267490391, 0.0148838852, -0.0213560145, -0.0411535427, 0.0980961770, -0.0299470387, 0.0170853119, 0.1453542411, 0.0384810306, -0.0226222444, 0.0439134873, -0.0253879577, -0.0321134701, 0.1107642725, -0.0201262385, -0.0259524845, 0.0055336072, -0.0360237919, -0.0285213795, 0.0027017733, 0.0098163569, -0.0786576495, 0.0184531938, 0.0660651177, 0.0594883859, 0.0872971788, 0.0301123522, 0.0617214851, -0.0436646715, -0.0097422022, -0.0045821057, -0.0433606207, 0.0730098486, 0.1314219534, 0.0038400250, -0.0411423743, 0.0889059082, 0.0236979648, 0.0216168743, -0.0270031933, -0.0012708742, -0.0220422521, -0.0208675936, 0.0592991412, -0.0192681588, -0.0453963615, 0.0135392044, 0.0389836133, 0.0200121161, -0.0175884031, -0.0075902706, 0.0449197069, -0.0652855933, 0.1311584711, 0.1292912811, 0.0868861005, 0.0742884576, -0.0043956493, 0.0204921290, -0.0281418916, 0.0769153461, -0.0224393513, -0.1351237446, 0.0594575852, 0.0686249286, 0.0508976802, -0.0466468744, 0.0410901085, 0.0241330098, -0.0119017465, 0.1174662411, 0.0524961352, 0.1145930663, -0.0128317587, 0.0222593509, -0.0235431232, -0.0176905189, -0.0219447911, -0.1055564210, 0.0071289469, 0.0552252382, -0.0564712025, 0.0276074745, 0.1063505784, -0.0164125711, 0.0793638453, 0.0088992389, -0.0129597494, -0.0050895913, -0.0536511131, -0.0284211040, 0.0773869902, 0.1812235117, 0.0676990822, 0.1000825316, 0.0426729470, -0.1280310601, 0.0567845441, 0.0871102288, 0.0723578334, 0.1250509024, 0.0221305005, 0.1194868237, -0.0789394677, 0.0200163890, 0.0304401722, 0.0640655458, 0.1227510348, 0.0577517115, 0.0344247520, -0.0123366024, 0.3305636346, 0.0312103052, 0.0193399433, 0.0979954302, -0.1045977399, 0.0336982198, 0.0087365527, -0.0075278068, 0.0220627990, 0.1997523755, 0.3815026879, -0.0192753896, 0.0406538770, -0.0486997999, 0.1816841513, 0.0419581197, 0.1029435173, 0.0090077724, 0.1791488826, 0.0103720520, -0.0461719669, 0.1340491325, -0.0145224053, -0.0264131054, 0.0335732996, 0.4221263826, 0.0228504948, 0.1011985987, 0.0419705287, 0.0810581148, 0.1846314073, 0.0219733324, 0.0742529854, 0.0215397030, 0.0190424919, 0.0640647784, 0.1317331493, -0.0651673451, 0.0058824308, 0.1799229085, -0.0134353796, 0.1266586483, 0.0352190249, 0.1542307585, 0.2137678862, 0.1185613424, -0.0118402280, 0.1203646064, 0.0221933629, 0.0237422530, 0.0528889559, 0.0809219778, -0.0053637777, 0.0063425438, -0.0206848327, 0.0471587442, -0.0589360297, 0.0753657594, 0.0744957998, 0.3048861623, 0.0042980318, 0.1943295896, -0.0596091188, 0.1036380678, -0.0413852483, -0.0724039525, 0.1162846088, 0.1263361275, 0.0270043984, 0.2272536755, 0.0833991989, 0.1551243514, 0.1780162752, -0.0732458755, -0.0175532792, 0.0176487453, -0.0318367556, -0.0370894745, 0.0460224152, 0.1082211360, 0.1042364389, -0.1226065755, 0.1175835133, 0.0369149111, 0.2467270643, 0.1499410868, 0.0145601062, 0.0790801346, 0.0188983716, 0.0887362659, -0.2634744346, 0.2292772979, -0.0837207809, -0.0687235445, -0.2707018852, 0.1599946320, 0.0873878151, 0.1713629961, 0.0852263719, 0.0113952160, -0.0736686140, 0.0045440244, -0.5014188886, -0.0882785544, 0.0058267699, 0.0477391742, -0.1138402298, -0.0594206117, -0.1457368135, 0.0867430493, 0.0727826580, 0.0684399307, 0.1976117939, 0.0733601451, 0.0982191712, 0.2561157346, 0.1047067717, 0.0330434814, -0.1601532251, -0.0711229667, 0.1577733755, -0.2479668558, 0.0972840041, -0.0040280521, -0.0519964993, 0.1537743509, 0.1432036459, 0.0183181334, -0.0232263207, -0.0056851269, 0.1008546725, 0.0133031271, 0.1376836747, 0.1417248100, -0.0670001209, -0.1380293071, -0.0358482301, 0.1190994009, 0.1446968019, -0.0270104334, -0.1509527713, -0.0024532268, 0.0739172250, 0.0651789978, 0.1387470812, -0.0216654744, -0.0306329262, 0.0158336107, 0.1568879187, 0.0811884031, -0.0590643585, -0.0651837885, -0.0014405140, -0.3470886946, 0.0270917155, -0.1042305604, -0.0902156681, 0.1519094408, 0.0696044043, -0.0285920035, 0.0558584332, -0.0091403779, -0.1589260399, -0.0073030414, 0.0688746572, 0.1632489264, 0.1033683196, -0.0211983360, 0.0683655515, -0.1408803910, -0.0069924239, 0.0502547286, -0.0028246567, 0.0167082325, 0.0837169066, 0.0950380266, -0.1065306738, -0.0430931747, 0.0369798318, 0.0798535794, -0.0609314740, -0.0170934312, -0.0389037207, 0.0486548245, 0.1008198932, 0.0651746020, 0.1089809760, 0.1174063012, 0.1277362406, 0.0233423337, -0.1027941480, 0.0413218886, -0.0326833539, -0.1474505812, 0.1887852699, 0.3159429133, 0.0592352562, -0.1053606123, -0.0812388584, 0.2082239389, 0.0873873308, -0.0675506517, 0.0952958465, 0.0651626363, -0.0999377295, -0.1384890378, 0.1232183874, 0.0409643203, -0.0179636963, -0.0747789592, -0.1573491544, -0.0197738819, 0.0639466718, -0.1319561154, -0.0573961474, -0.0138180461, -0.0171068981, 0.0004221459, -0.1267450452, -0.1185434014, -0.1209768951, 0.0074497336, -0.0294138957, -0.0785516649, 0.0338163227, 0.0793657452, 0.0712420195, -0.0963663235, -0.1492900997, -0.0743181929, -0.1416389495, -0.1063906699, 0.1458317339, -0.0423565954, 0.0684068725, 0.0151022710, -0.1315518320, 0.1857632995, 0.0405556783, 0.0850246996, -0.2779911757, -0.0881769136, 0.0528410934, -0.1280121505, 0.0174839403, -0.1220353916, -0.1425922364, -0.1364030987, -0.1523109972, -0.1550475061, 0.0283565447, 0.0388710834, -0.0199726056, 0.0338471346, -0.0993439481, -0.0764674395, 0.0396963209, -0.0161407627, 0.0128754852, -0.0061634392, -0.0472272895, -0.0110970736, 0.0052167885, -0.0231228024, 0.0026925667, -0.0509500094, 0.0495880432, -0.0437006727, 0.0061234478, -0.0975871757, -0.1678276658, -0.0821595117, -0.0708703771, 0.0482020155, 0.0136318291, -0.1656781584, 0.0542477444, 0.0398992784, -0.1088725477, -0.0827932656, -0.1581074744, 0.0293753147, -0.0082127852, -0.1171877384, -0.0367275290, 0.0810980648, -0.0239914432, -0.2388955355, -0.2744104862, -0.0646166056, -0.1763083488, 0.0320825614, 0.0286910944, 0.0468330756, 0.0226739720, -0.0149235521, -0.0248001367, -0.1563583165, 0.1130712181, -0.1325453520, 0.0261413082, 0.0601815619, -0.0110079367, 0.1054841802, -0.0644158125, -0.1064938903, 0.0992073193, 0.0458379611, -0.0153664770, -0.1722840816, -0.1788147390, -0.0267513283, -0.1976488233, 0.0239553563, -0.0014064538, -0.0207731687, 0.0887587592, -0.2079647779, 0.0579421744, -0.0920307040, -0.0698531866, -0.1989819258, -0.0539943315, -0.0422221310, 0.0729828626, 0.1673022211, -0.0533901379, 0.0461688824, 0.0311854165, -0.0551176891, -0.0877977386, -0.2635586560, 0.0537188388, 0.0299990550, -0.0126239005, -0.1489756405, 0.0041715703, -0.0227404870, 0.0866562426, -0.0801691413, -0.0748030394, 0.0080722813, 0.0969282165, 0.0411951505, -0.0690234825, 0.0606716946, 0.0279144123, -0.2160336971, 0.0070929006, -0.0905345678, -0.0515268706, 0.0477837250, 0.0251947567, -0.0821008310, -0.0369730741, 0.0323662795, -0.1325687915, -0.0766882002, 0.0159822833, 0.0310293194, 0.0016132286, 0.0326975323, 0.0196793918, -0.0710689127, -0.0644446760, -0.0179374851, 0.0219001919, -0.0777631477, -0.0223832987, 0.0429338478, -0.0572762638, -0.0427893288, 0.0631692931, -0.0237355959, 0.0561248586, 0.0354443155, 0.0438116975, 0.1310584098, -0.0305618979, 0.0003435846, 0.0166468211, -0.0569993481, -0.1454980671, 0.0183504485, 0.1093310118, -0.0285015255, 0.1088584140, 0.0431992374, 0.0373922028, -0.0716657192, 0.1066565737, -0.1661079377, 0.0099060684, -0.0816731378, -0.0594735853, 0.0012109680, -0.0461275540, -0.0833536759, 0.0434120968, -0.0106964102, -0.0044353600, -0.0640435591, 0.0470908694, 0.1090151519, -0.1050137207, -0.0005963594, -0.0064102341, -0.0755978227, -0.0932004452, -0.0142209092, 0.0110213133, 0.0663618147, -0.0453108139, 0.0106972335, -0.0589576066, 0.0670473874, -0.0079148877, 0.0046272818, 0.1361557543, -0.0844305828, -0.0021389062, -0.0352032036, -0.0029605711, 0.0627422333, 0.0032864101, 0.0488104001, 0.1236767918, 0.1128623560, 0.0047901440, -0.0758968294, 0.0019260359, -0.0172152519, 0.0246959347, 0.0767176002, -0.0331709087, -0.0125457598, -0.0291877799, -0.1368761063, -0.0492885970, 0.1904911995, 0.0271695778, 0.0394951403, 0.0861025602, -0.0039165462, -0.1318805814, 0.0477690808, -0.0657541752, 0.0508429557, 0.0713160187, -0.0085667847, -0.0327597596, -0.0871434957, -0.0401524603, -0.0266486593, -0.0524151474, -0.0218060259, -0.0402196534, -0.0707440153, 0.0810650066, 0.0233137719, -0.0217156336, 0.0311434250, 0.1670780629, -0.0690494403, -0.0378848948, -0.0642500073, -0.0147628728, 0.0525167286, 0.0493984297, -0.1127339005, 0.0923345461, -0.1689741910, -0.0216485634, 0.0750265121, 0.1658602059, 0.0700330138, -0.3398069143, 0.1341001391, 0.0931237414, 0.0362299867, 0.1230351180, -0.0002600278, 0.0166382138, 0.0263746493, -0.1464186311, 0.0070923679, 0.0350198597, -0.1256748289, -0.0908528343, 0.0976199731, 0.0626314729, -0.0221277606, -0.0554387569, 0.1116949692, 0.0260570180, 0.0295696743, 0.0138383824, 0.0249762833, 0.0049137906, 0.0193241183, -0.0502141416, -0.0859797448, -0.0028765618, -0.0424469002, -0.0847746879, -0.0978966653, -0.0255083311, -0.1392829120, 0.0814618319, -0.0080673648, 0.0250136014, 0.0146258278, -0.3130786121, -0.1011329368, 0.0543835945, -0.0459530987, 0.1817638129, 0.0073869200, 0.0463982336, 0.0713212639, 0.1419569254, -0.1197842211, -0.0819767937, 0.0761677399, -0.0040190141, -0.1256346554, -0.1109461039, -0.1174479201, 0.0385241508, 0.0970067605, -0.0246247407, 0.1142991781, 0.1096759737, -0.0115964236, 0.1458519250, 0.0592049547, 0.0976056084, -0.0439292304, 0.0820433274, -0.1742687970, 0.0325500034, -0.1067015752, -0.0359450281, -0.0185281392, 0.0124360416, -0.0242770724, 0.0135161616, 0.0419410691, -0.2178849727, -0.0017374628, 0.0420675948, -0.1835114211, -0.0160330273, 0.0288873166, 0.0091954153, -0.1343256682, -0.1519858539, -0.2847321630, -0.1096700281, -0.2055989206, 0.0540479571, -0.0278856624, 0.0081207147, 0.0323298685, -0.0989958793, -0.0929702148, -0.0621847287, 0.1473511904, -0.0994471535, 0.0850324258, -0.0210156459, 0.0127784070, 0.0719861463, 0.0424103625, -0.0726612136, -0.1639486700, 0.2186811864, 0.0757774189, -0.2064660043, -0.1922126412, 0.0478769429, -0.1287250668, 0.1264431924, -0.1266956329, -0.1799793243, 0.0499534458, 0.0956814587, -0.1646436006, 0.0492294468, -0.0360372476, -0.0174845960, -0.1937828213, -0.0677182898, 0.1878952384, -0.0693177283, 0.0776996017, -0.1391322166, -0.1135914773, -0.2133090645, 0.1647600234, 0.1335563511, 0.2244598866, 0.0293979049, 0.1547369212, -0.1726619452, 0.0686175227, -0.0165163986, 0.0294496063, 0.1223580241, 0.0063190041, -0.0562336296, -0.1469992548, -0.1749783903, 0.0696080774, -0.6870808601, -0.0591621920, 0.0599932075, -0.2177823484, 0.1339806318, 0.0938313603, -0.0844806805, -0.2559725642, 0.0660324469, 0.1251452118, 0.0212214217, -0.0405667275, 0.0238749813, -0.3008262217, 0.0275194794, -0.1695768386, -0.0606097542, -0.1267044842, 0.0182201266, 0.1310109794, -0.1347390711, -0.0206625480, 0.0297445655, 0.1142642200, -0.1271264255, -0.0614928231, -0.0457440391, -0.3410131335, 0.1658301353, -0.0824162364, -0.0883357599, 0.0264672469, -0.0571109466, 0.0637018457, 0.2738374770, 0.0942109004, 0.1712715477, -0.0533115864, 0.0334462561, -0.1843347549, 0.0112439692, 0.0167246144, -0.1311653703, 0.0893571302, -0.2791289091, 0.0171171986, 0.0107452571, -0.1401024014, -0.0611235201, 0.4075009525, -0.0344254114, -0.1846196055, -0.0669309422, -0.0473513827, 0.2720136344, -0.1802454144, -0.0917367935, 0.0250329692, -0.1714764684, -0.0552966781, 0.2316205353, 0.2419388741, -0.0414208584, -0.0339171365, -0.1633479446, -0.0343865640, -0.0842883587, 0.0265336893, -0.0720281973, -0.0611717477, -0.0542756133, -0.3576941192, -0.0147023583, -0.2321749628, 0.2308028042, -0.0726521835, -0.0153296730, -0.0986294672, -0.0270120930, -0.3228470385, -0.0050464687, 0.1898885965, -0.1650647521, -0.1322488189, -0.0181786492, -0.0103932861, -0.2505789399, -0.1471001506, 0.0950573832, -0.1176535115, 0.0210805330, -0.1919354796, -0.1180401072, -0.1895683408, 0.1635081917, 0.0618680716, -0.0864284337, 0.1011468023, -0.0371445529, 0.0493817739, 0.1494957656, -0.0462795347, -0.0050158394, -0.0104602342, -0.2281002253, -0.1270850152, 0.0863562599, 0.0248123631, 0.0133767761, -0.0898063928, -0.0509714223, 0.0233433973, -0.0016975597, -0.1165479422, 0.0634479597, 0.1189910173, 0.0226639751, 0.0583468825, 0.0026834940, -0.1504718959, -0.0058187852, -0.0349997543, -0.0179002620, 0.0175104290, -0.0020555488, 0.0486168861, -0.2187743634, -0.0381060839, -0.0652353540, -0.0912739933, 0.1901353896, -0.0414783843, -0.0525275320, -0.0875407234, 0.1348412484, 0.1260473579, 0.0172579065, -0.1546992660, 0.0043736589, 0.0592350475, 0.1814665794, -0.1750316620, 0.1346723586, -0.1442906260, 0.2177607864, -0.2241200805, -0.0392830074, -0.2186861932, -0.0288482010, -0.0647928342, 0.0050260937, 0.0916397870, -0.0580629520, 0.0135223139, 0.0943232179, -0.0502196029, 0.0516688377, -0.0932855457, -0.0371334068, 0.1092459783, 0.0078069102, 0.0232876353, -0.1198558956, -0.0197827201, -0.0928459391, -0.0448810942, 0.0559313484, -0.0287757721, -0.0043504355, -0.0842952132, 0.1384901404, 0.0245894827, -0.2079337984, -0.3030306399, -0.0478214622, -0.1640534550, -0.1155207083, -0.1123227999, -0.1130488962, 0.0854083598, 0.0498502627, -0.0034867150, 0.0251804665, -0.1461634934, -0.1609961838, -0.3903530836, -0.0299179330, -0.0233224276, -0.0056812023, -0.0790404528, 0.1773728132, -0.1749978215, -0.1259151697, 0.0057555814, 0.0542637222, -0.0274049733, -0.1209580973, -0.0978120491, 0.0264740661, 0.0278421361, 0.0792056546, 0.3109987378, 0.1285351217, -0.1532146931, 0.1143890321, 0.0108678564, 0.0740377456, -0.0841352567, -0.0170557741, 0.1465022415, -0.1671744734, -0.0211287420, -0.0432367213, -0.1220973879, -0.0849696472, -0.1236373559, -0.0542571507, -0.0494056977, -0.0743098333, -0.0847954229, -0.0454796068, 0.0660470054, -0.1586190909, 0.3037152290, -0.2631332576, -0.2250733823, -0.1653819084, -0.1272245198, -0.1473639756, 0.0857319459, -0.1411032528, -0.0633922517, -0.2313933671, -0.1479475796, -0.0026857904, -0.0667780787, 0.1176471338, -0.0268788747, 0.0077163270, -0.1392407268, 0.0255775116, -0.0795819759, -0.0638643354, -0.0281792022, -0.0802247897, 0.0409550294, -0.0848108754, 0.0203803182, 0.0012674705, -0.0210091248, 0.0561117977, 0.0288497414, 0.1206173152, -0.0998318791, -0.0221820883, -0.1323287785, -0.0943381935, 0.0914812461, 0.0982974395, 0.0595890768, 0.0992760435, -0.0747281611, 0.0346241631, 0.0178400110, -0.0871141404, -0.0836852640, -0.1001907364, 0.0111251147, 0.0522641651, 0.0431191064, 0.0165786464, 0.0396511480, 0.0691200569, 0.1612735838, 0.0103176348, 0.0851291269, -0.0502265766, 0.0488062091, 0.0015543107, -0.0342908651, 0.0083333347, -0.0192418806, 0.0874493346, 0.0296369307, -0.0664410368, -0.0701471344, -0.1279294044, -0.0103871459, -0.0534585565, 0.0698232725, -0.1259115040, -0.0942709595, -0.0554921217, -0.0688406006, -0.0871176273, -0.0288773533, -0.0496750586, 0.0153893959, 0.0816585049, -0.0488137603, 0.0339370295, -0.0628680810, 0.0236315988, 0.0569676086, 0.0935625061, -0.0800078735, -0.1016041338, -0.1492695957, 0.0157354865, 0.0281911101, 0.0428375863, 0.0223880652, 0.1008779854, 0.0754394531, 0.0812373683, 0.0700218603, 0.0652505308, 0.0412318781, -0.0150582977, -0.0930770487, -0.1954608560, -0.0574092828, -0.0595019534, -0.0257986560, 0.0059650326, -0.0253636464, -0.0247191880, 0.0946645737, 0.0403926484, 0.0343053602, 0.0211533271, 0.0048926589, 0.1152044162, -0.0702334717, 0.0531541631, 0.1026111245, 0.0101750782, 0.2111821622, 0.0114354948, 0.1183476225, 0.1365749389, 0.1301442683, 0.0062030819, -0.0150041943, 0.0014400989, 0.0576062463, 0.0154510597, 0.1175556257, -0.2378588766, -0.0520755164, -0.0012464523, -0.0884992033, 0.0223841704, -0.1502449661, -0.1205429360, 0.0288088787, 0.1724458635, -0.0542363524, -0.0361667126, -0.0790454522, 0.0928701237, -0.0107060969, -0.0289931782, 0.0174296945, -0.0687619522, -0.0212795418, -0.0502723269, -0.0455227606, -0.0048321439, -0.0395668224, 0.0010962746, 0.0951443091, 0.0058660214, -0.0615092926, -0.0369623415, 0.1044145301, 0.0782780126, -0.0227392763, -0.0015745270, 0.0269870590, 0.1629836857, -0.0419988371, -0.2971069217, 0.0201496743, 0.0860959291, 0.0528743193, 0.1375604570, -0.1139816865, 0.1314259768, -0.0461591519, 0.1590918899, 0.0378207341, -0.0312508233, 0.0836801752, -0.0907221660, 0.1908353120, -0.1262561381, -0.2944186926, 0.0837190896, -0.0553023182, 0.2009104788, -0.1114581227, 0.1519723684, -0.0227277968, 0.1085228547, -0.2158706784, -0.0173359532, -0.1069846377, -0.0277503151, 0.0365789123, -0.0549633950, -0.1868484169, -0.0882402658, -0.3403196335, 0.1085063294, -0.1948101372, 0.0353295021, 0.2605859041, 0.0292151142, -0.0333868861, -0.0172298606, 0.0290432237, -0.0151959928, 0.1399275064, -0.0720697194, -0.0760206133, 0.0482012071, -0.1245854124, -0.2570641935, 0.1252808422, 0.1362736374, -0.0354484916, 0.0473855883, -0.0486582518, 0.1343010217, 0.0862607285, 0.0090199606, 0.0135595016, 0.1633563191, -0.3205731511, -0.2312153727, 0.0904671177, 0.0546649359, -0.0847285017, 0.0953044221, -0.2117254287, -0.1257966906, -0.0702134669, 0.0149967447, -0.2138488442, 0.0512776598, -0.0228086356, -0.0261212718, -0.0678690895, -0.1179042011, -0.0662293583, -0.0179744344, -0.0582248867, -0.0724277198, 0.0065504615, 0.0987162292, -0.0984007642, -0.0219054259, -0.1618790776, 0.0710132644, 0.1063494310, 0.0089350734, -0.0047023138, 0.0096212290, -0.1909961998, -0.1041036472, 0.0743243247, 0.0959136561, -0.1347499490, 0.0187427532, 0.0476106480, -0.0034075945, -0.2687520683, -0.1136241332, -0.1333676428, 0.2459279597, -0.0838920772, -0.1693565100, 0.1233982965, 0.0043441863, -0.0067770490, 0.0133959632, 0.2486985922, -0.0084967455, -0.0368786715, 0.0136594307, 0.0055290344, -0.0822810307, 0.0475374460, -0.1994593740, 0.0148339905, -0.0030752209, 0.0205303524, 0.0100548631, -0.0852996334, -0.1460512877, -0.1372367889, -0.0356448516, -0.0692361072, -0.0734019950, -0.0301458333, -0.1393858790, -0.0738177374, -0.1043162569, -0.0547994524, -0.0790658072, 0.0934131071, -0.0970102549, -0.0671619549, -0.1877485514, -0.0623142608, 0.2379012704, 0.0411604568, 0.1401254535, 0.0457060821, 0.0886425748, 0.1511460841, -0.0360723436, 0.0872508064, 0.0821365416, 0.1642872393, 0.2462741882, 0.0565109178, -0.0127375601, -0.0026826814, 0.1455765814, 0.0478378907, -0.1935259253, -0.1355072856, -0.1759287268, 0.0615931712, -0.1187942699, -0.1491477787, 0.2041222453, -0.0195184350, 0.0890452787, -0.1631722599, -0.1063552350, -0.0087671457, -0.1734665930, -0.1096445918, 0.0690185204, 0.1226923093, 0.1926936954, -0.0119014364, -0.1487476677, 0.0725986362, 0.0095506897, -0.2176808715, 0.1538261175, 0.1212754473, -0.0985404328, 0.0103526087, 0.1834679693, -0.0573810153, 0.0348424353, -0.0954037234, -0.0719311461, 0.0397639126, -0.0946450755, -0.0395469815, -0.0086173322, 0.0729233027, 0.1864047199, -0.1373619586, -0.2997835875, -0.1129557043, -0.1106954068, 0.1031805351, -0.0384097733, -0.0519384593, 0.0532549918, 0.0002228803, 0.1355991513, 0.0119460700, -0.0194699056, -0.1780742109, 0.0937592909, -0.1176068112, 0.0332651213, 0.0507339798, 0.0979108512, -0.0974484384, -0.1608949751, -0.0520008244, 0.0265627690, -0.0901111066, -0.1999880075, -0.0583635606, 0.0543651395, 0.0179135669, 0.0633999556, -0.0215687901, 0.0291121639, 0.0382328257, -0.1613348424, -0.1821427643, -0.1414296031, 0.0438341238, 0.1450892538, 0.1142748073, -0.1422347873, -0.0552979782, -0.2017801404, 0.0352288783, -0.0225564204, -0.0021416491, -0.0183845311, 0.0433884114, 0.0342764035, -0.0765630528, -0.0279996712, 0.0197871849, 0.0246886034, -0.1124461293, -0.0272392500, -0.0834191367, -0.0412951484, 0.0203712564, -0.1162490398, -0.1085563675, -0.2482672334, -0.1734090894, -0.0548088253, -0.1412895620, 0.1234869361, 0.0441505201, -0.0988609269, -0.1341470331, -0.1941103339, -0.0463077985, -0.1244409084, -0.1098145097, -0.1322977543, -0.1424487680, -0.0614984259, -0.1731862426, -0.0834975690, 0.0154742897, -0.1129505262, -0.1073592901, 0.0915931389, -0.1386512071, 0.0929159895, -0.0383482277, 0.0475357622, -0.0822802559, -0.2578085661, -0.0302525386, -0.1739888638, -0.2012504339, -0.0918274224, -0.0035215849, 0.0636525229, -0.0553057194, -0.2031571418, 0.0275086369, -0.0841919184, -0.1428116113, -0.2521967292, -0.1730281264, -0.1067527756, 0.0416467451, -0.0982285067, -0.2279338986, -0.2316642404, -0.2488484681, -0.0500132814, -0.0954756364, -0.1058833078, -0.1467297673, -0.1725345701, -0.0557159409, -0.1767846495, -0.1556435972, -0.0561435968, -0.1307016611, -0.1297493875, 0.0160229616, -0.0407454073, -0.2184754610, -0.1749780923, -0.0197783522, -0.0418563411, 0.0071655526, -0.1657465696, -0.1069954410, -0.1229799688, -0.0114259031, -0.1113117412, -0.1739175916, -0.0949852243, -0.1873777509, -0.1739546806, -0.2826953828, -0.0018041676, -0.0065739108, -0.1359021217, -0.0960813910, -0.0437214859, 0.0416040719, -0.1438147128, -0.1205942109, -0.0100300796, -0.2593261898, -0.1513460428, -0.0325566530, -0.1489071250, -0.1747967303, -0.0713868961, -0.1242686659, -0.1112449169, 0.0166677851, -0.0313400105, -0.3137044609, -0.1159542724, -0.0279522464, -0.2226269245, -0.0645216927, -0.1835142672, -0.1679194868, -0.0592158809, -0.3380986750, -0.0170483179, -0.1988793314, -0.1895201951, -0.3183835149, -0.2175993919, -0.1652573496, 0.0532110594, -0.1205833033, -0.1045370549, 0.0258440450, -0.0026814279, -0.1281222999, -0.2416281551, -0.0483246334, -0.1959197670, 0.0104264747, -0.2646829188, 0.0245669577, -0.1883816719, 0.0682831705, 0.0468377098, -0.0252609048, 0.0372924581, 0.1418449134, 0.0098899957, -0.1271843314, 0.0878333524, -0.0364025384, 0.1081786007, -0.0434152484, 0.0429824106, -0.0421425439, -0.1020056382, -0.0050436598, -0.0342681780, -0.0053734989, 0.0211866722, -0.1306781918, 0.0573487878, -0.2169186771, 0.0397255830, 0.0256063752, 0.0109035857, -0.0962885916, 0.1616078615, 0.0274691824, -0.0860237926, -0.0124466242, -0.0774181411, 0.0327773057, -0.0816478059, -0.0237766318, 0.0580817014, 0.0052610249, -0.0694327354, -0.0613365434, -0.0696469322, 0.0531271435, 0.0832590386, 0.0402768664, 0.0043195011, -0.0237901136, -0.0746807605, -0.1197107509, -0.0274098031, -0.0506852828, 0.0150649603, 0.0294589028, 0.0505571663, -0.1277299225, -0.0616902225, 0.0031242187, 0.1152129471, 0.0263607949, 0.0019903281, 0.0633243993, -0.0368373357, -0.0471478291, 0.0983728841, 0.0359484218, -0.0391127244, 0.1594218910, 0.0170020889, 0.0560836680, -0.1069481224, 0.0256602354, -0.0360540301, 0.0820107535, -0.0634509996, -0.0559437871, -0.1099336743, -0.0837074295, 0.0714847893, 0.0286944676, -0.0969791636, -0.0396463312, -0.0955867022, -0.0493881181, 0.0320068561, -0.0015558500, 0.0112905679, -0.0496116877, 0.0288977232, -0.0195958447, -0.0457118042, -0.0489557050, 0.1669345051, -0.0053188386, 0.0412695929, 0.0833743066, -0.1325874329, -0.0055136741, 0.1126597449, -0.1247835383, 0.0665920749, 0.0215880610, 0.0244449489, -0.0586568750, -0.0561024919, -0.0035837379, 0.0650787130, 0.0562301613, -0.0683042184, -0.0379062556, 0.1990691870, 0.0673138946, -0.0662465543, 0.0095405793, -0.0029478278, 0.0818699896, -0.0602140501, -0.0618087202, -0.0235739499, 0.0433977842, -0.0075910143, -0.0856155232, -0.0956332758, -0.0206836648, -0.0898116082, 0.1468599141, 0.0924943238, -0.2312713116, 0.0062191188, -0.0325897634, 0.0527665801, -0.0045175245, -0.0906430110, -0.1710362732, -0.1116781533, 0.0648306683, -0.0282569379, 0.1337547302, -0.2100064903, 0.0022766248, -0.1141379178, -0.2289888412, 0.0424035229, 0.0520085096, -0.0106406398, 0.0259306040, -0.0248750336, 0.1102052033, 0.0627715066, -0.1927517056, 0.0468624830, -0.1121206954, -0.1403194517, 0.0322383307, -0.0970483720, 0.0741929710, -0.0216090418, -0.0398421213, -0.0489085279, -0.0913912877, -0.1838510334, -0.2341497391, -0.0779850259, -0.0571448319, -0.0834582746, 0.0964371711, -0.1953480393, -0.0826481506, -0.0861935690, -0.2065511346, -0.1635196507, -0.0053880657, 0.0779744983, 0.0217298139, -0.0565181635, -0.1495554596, -0.0027544179, -0.0221368298, -0.1210796833, -0.0589151867, -0.1517102420, 0.0228931475, -0.0667057410, -0.2478257716, 0.0370832905, -0.1375410855, 0.0396803506, 0.0054346011, -0.0696056187, -0.1916700304, -0.1699275076, 0.0260712001, 0.0371678770, -0.2742314935, -0.1124167070, -0.0199321453, -0.2683563232, -0.1381921023, -0.2407840639, -0.0922575146, -0.2568971515, -0.2195109129, -0.0331803784, 0.0350319222, -0.0234224554, -0.2668858469, -0.0821414962, 0.0082466258, 0.0376990177, -0.2059852183, -0.1707625389, -0.1235191375, 0.0132444166, -0.1550686955, 0.0042559132, -0.1044525206, -0.1435712427, -0.0387825817, -0.1448137909, -0.0266280789, -0.0605943277, -0.0972771198, 0.0697330907, 0.0117245084, -0.0425475687, -0.2398764789, -0.1085079387, -0.2555241883, -0.2054731995, -0.1817495525, -0.0649761260, 0.0074979020, -0.0482027568, -0.1243138164, 0.0059931846, -0.0295030531, -0.1116847694, -0.1070410907, -0.0236800946, -0.1263508499, -0.1490391344, -0.3156704009, -0.0522533916, -0.1693127304, 0.0748916864, -0.0092090508, -0.1493925899, -0.1968937814, 0.0328736417, -0.2458636016, 0.1017070487, -0.2241743803, -0.0012688764, -0.0197861865, 0.0043531093, -0.1645593047, -0.0875728950, 0.0075727091, -0.2256801426, -0.1375755519, 0.0185803697, -0.1447263360, -0.0291163214, 0.1313767284, -0.0714551806, -0.0103083886, 0.0330434218, 0.0854716226, 0.1733840853, 0.2215530425, 0.0047650021, 0.0832433775, -0.1463809907, -0.1583775729, -0.0255285017, -0.0456907637, 0.0133118303, 0.0240390506, -0.0042196549, -0.0468854532, -0.1897579581, 0.1688632816, -0.1083990708, 0.0202849507, -0.0706130117, 0.1191445366, -0.1370008439, 0.1255431622, -0.0202977285, -0.0650422648, -0.0972432196, 0.0840722024, -0.0489026047, -0.1317165941, -0.0844391063, -0.0068879649, 0.1503271908, -0.0676849112, -0.1356287748, 0.0314147696, 0.2049181610, -0.1013808176, 0.0469812565, -0.0910828337, -0.0149846124, -0.2218322605, -0.1035257801, 0.1018612236, -0.0884848088, -0.0260068178, -0.1727135032, -0.1458049119, 0.0369051583, -0.0337833315, -0.0073144352, 0.2465483546, 0.0076718917, 0.2459494025, 0.1168143898, -0.1354986578, 0.0939477682, -0.1223811656, -0.0309737455, 0.2901423275, -0.1098351926, 0.1774798781, 0.0048221936, 0.1934352815, -0.0451056510, 0.0243839864, -0.1153409779, -0.0726236776, -0.0259628855, -0.1764970124, -0.1010953411, -0.0530636087, -0.1989032030, -0.1175566986, -0.1888657659, -0.0580261201, 0.1006550938, -0.1124401540, 0.0519589037, 0.1147368997, -0.2906585336, -0.0760944411, 0.0729046613, 0.0292192716, 0.0814430043, 0.3258767128, 0.1716824025, -0.1310426295, -0.1218181625, 0.0086117154, -0.3263790905, -0.2214446664, -0.0949875191, 0.0682512894, 0.1771984845, 0.0581913888, 0.0059906142, 0.1497424990, 0.2301043868, 0.2638449669, -0.0102460571, -0.1995792240, 0.1776691973, 0.0951473862, 0.0210945569, -0.2723715305, -0.0955728889, -0.1774488091, -0.1834017187, -0.2349032760, -0.2775217295, -0.4306211770, 0.0311777052, 0.2724853456, -0.0940720662, 0.0736219063, -0.0942412093, 0.1466420293, 0.0261429232, -0.2147375494, -0.0610538013, -0.0264624823, -0.0785070583, 0.1325810403, 0.1211962178, 0.3159726858, -0.0754536986, -0.0145566361, -0.2676898837, 0.4007683098, 0.1665169448, -0.0244259089, 0.5056874156, 0.1028288305, -0.0531370938, -0.0020439206, -0.0282153264, 0.0529361963, -0.0406310856, 0.1191909090, -0.0146052027, 0.0625129417, -0.0589137375, 0.2281996608, -0.0950068682, 0.0225994252, 0.0325953439, 0.0118663907, 0.0431608371, -0.0033541429, -0.0603541285, -0.2400620282, 0.1463522613, -0.0989365280, 0.0614166632, -0.1167740896, -0.0015651230, -0.0333313309, 0.1225652546, 0.2017887533, -0.1704158634, -0.1242560372, 0.2403440624, 0.0824793279, 0.2004286647, 0.0623395368, -0.1196078211, 0.1129175052, 0.0400676280, -0.0120783960, -0.0995429456, -0.1372406483, -0.1316588074, 0.0525163449, 0.0613011643, -0.0008629933, -0.0084327674, 0.0471602865, 0.0406098142, -0.0284170005, 0.2059905678, -0.0247698855, -0.0574991629, -0.1329609454, 0.1407051980, 0.1155130565, 0.2358481586, 0.0244083703, 0.3104345202, 0.0287413783, 0.1690459102, 0.3323860466, -0.1097345874, -0.0174278878, -0.0318916216, 0.0086940080, 0.0111181308, -0.0122077595, -0.0893426538, 0.0330392867, -0.1228771806, -0.0427601151, 0.1761499792, 0.0848465860, 0.1173936129, 0.1044311598, -0.1947845072, -0.0241859239, 0.2945348918, -0.0420112759, 0.1867728531, 0.1118609384, 0.0437809005, -0.0588833801, 0.3331078291, 0.2581429482, -0.0706984252, -0.1726065725, 0.0084758149, -0.0642926916, -0.1358079761, 0.0076852185, -0.1539847404, 0.2123052776, 0.0121084303, 0.0213330667, -0.0195006244, 0.1258021593, 0.1586562544, 0.0165271964, -0.2030857652, 0.1219193488, -0.0467406474, -0.0589364506, -0.0445379429, 0.1459463537, 0.0295283012, 0.0781169087, -0.1332749426, 0.0612317398, -0.0997692347, -0.1911134869, 0.0495598726, 0.0982536450, 0.2080353945, -0.1358018965, -0.2162479460, 0.0086418670, -0.0360062979, -0.0160722807, -0.0070783631, 0.0540656559, 0.0238479525, -0.1527303457, -0.0045806933, -0.0132853724, 0.2374301851, -0.0447129868, 0.0856090188, 0.0898390710, 0.1362667382, 0.0124354800, 0.0107704438, -0.0853925645, -0.0229190327, 0.0070409253, 0.0037803729, -0.0386942439, -0.0304890033, 0.0030954517, -0.0506222434, 0.0060186754, 0.0925092772, 0.1559075862, -0.0794753060, -0.0595633797, 0.0267333742, -0.0610410832, -0.0486259609, -0.2513796985, 0.0007406698, 0.0072645731, 0.0918752253, 0.0169194918, 0.0269852057, -0.1004247069, -0.0042329147, -0.0780560300, 0.1152359173, -0.0407103486, 0.1322954744, -0.1928742230, -0.2221335024, -0.2259880602, 0.0004777863, -0.0301986709, -0.0440915227, 0.1450216919, -0.1034051254, -0.0414131619, -0.0397433713, 0.0812418982, 0.0826936513, 0.1167992130, -0.0187983103, 0.0565805994, 0.0636967868, 0.0807222277, 0.0335877202, -0.1826490164, 0.0165729523, 0.0460425392, 0.0645771772, 0.2483972907, -0.0470525399, -0.0002227859, 0.1056508645, -0.0025454063, -0.0977425948, 0.0061854348, -0.1510838568, 0.1104123816, 0.0384488553, -0.0313626304, 0.1154656187, 0.0734133497, 0.0013557185, -0.0092336582, -0.0112185162, -0.1139216945, -0.2849189937, -0.0759519711, -0.1122553125, -0.0412842520, -0.0063963975, -0.0053016725, 0.0483847596, -0.2382196337, -0.0999441892, 0.0753813684, -0.0444296114, -0.0000209984, -0.0516896546, -0.0017582738, -0.0640919134, 0.0091651641, 0.1399219334, -0.0524831191, 0.0118359551, 0.0288288761, -0.0269030184, 0.2315992713, 0.1237092391, -0.0816394240, -0.0971015468, -0.0135887573, 0.0444498137, 0.0716730878, 0.0654816628, 0.0311397389, -0.0294299498, -0.2880007029, 0.0356649868, 0.1838777661, -0.0205887333, 0.0137782814, 0.0887936577, -0.1416427195, -0.0937447101, 0.0019357185, -0.0616995580, -0.0855433643, 0.0851597860, -0.2469176054, 0.2173708379, 0.1071917266, -0.0815399587, 0.0922668576, -0.0338345394, -0.0886308998, 0.0163126849, -0.1281793565, -0.0593379252, -0.0268008336, -0.0010837982, -0.0138224252, 0.1270426214, 0.0985958055, -0.1070417464, 0.0978487730, 0.0195020754, -0.0730785504, 0.0343849920, -0.0144007374, -0.0822871700, -0.0757120848, -0.0453028530, -0.1033941656, -0.0118961185, 0.2134138644, 0.0901978016, -0.0972192436, -0.0736737847, 0.0206536334, -0.0631931275, 0.0300262161, -0.0946521834, -0.1240039393, 0.4842650890, 0.1099905372, 0.1785458624, 0.1229857951, -0.2680555284, -0.0610896721, -0.0173756685, -0.1734710187, -0.0730264857, -0.0256173294, -0.3350770473, 0.0835367665, 0.0360395908, -0.0119246366, 0.2470374256, 0.0969244763, -0.0960540101, -0.0515706651, -0.0686307549, -0.2443460077, 0.1084028110, -0.1464629024, 0.1288839877, 0.2464214265, -0.2258142233, -0.2145810425, -0.0301475432, 0.0252905246, 0.1015016884, -0.1619699299, -0.1032707319, 0.0147560975, -0.0973853245, 0.2228192240, 0.0077198287, -0.1269106269, 0.2179205418, 0.0024154992, 0.1730538607, 0.1719236225, -0.0934812576, 0.1137587130, 0.0360475630, 0.0366405770, -0.0485356711, -0.0484760329, -0.2267566919, 0.1530508101, 0.1311744153, -0.0632338449, 0.0014649816, 0.0157143958, -0.2920666337, -0.0406564325, -0.1722952276, 0.0092420243, 0.1644345075, -0.1027207971, -0.0707379729, 0.0156141603, -0.0120849600, 0.1817944497, -0.0671125874, -0.3690636456, -0.1970792860, 0.2105091363, 0.0451548286, 0.0831011161, 0.1277440190, 0.3128027320, 0.3729406595, -0.0645056963, -0.0259220414, -0.1462473571, -0.0650538504, 0.0885179415, -0.0175162535, -0.1265688241, -0.0169176646, 0.0463186130, -0.0387463942, -0.0694243163, -0.1096744761, 0.0227838345, -0.0588559397, 0.0607004911, -0.1112380400, -0.0675614700, -0.1596332788, -0.0058516846, 0.0178757124, 0.1641457826, 0.1994354725, -0.1585368067, -0.0403392576, -0.0662558377, 0.0119219413, -0.0004486168, 0.1040184870, 0.3040622175, 0.1516879946, 0.1135200188, -0.1844067425, 0.0926400349, -0.2192455232, -0.0566007979, 0.0057184990, 0.1686249971, 0.0685563534, 0.2757571936, -0.0343061090, 0.0129000917, -0.0574473925, 0.2079310119, 0.0637082607, 0.0225171875, 0.1556811929, -0.0496127643, 0.0321162641, 0.0489876643, -0.0604156442, 0.0860754475, 0.0565320365, 0.0610579625, 0.0584551729, 0.2015915066, 0.0553958192, 0.0761656463, -0.0863479003, 0.0156197799, 0.0992178544, 0.0138062797, 0.1956096143, 0.1938696206, -0.3116338253, -0.1419415921, -0.1247869208, -0.1404499263, -0.1061883345, -0.0970285013, 0.1371392310, 0.0049646683, 0.1688169539, 0.0599798486, -0.0097673871, -0.0221402310, 0.0982670560, 0.1226969212, 0.1252556890, 0.3012765348, 0.1735547930, -0.1388901025, 0.1932400167, 0.0759966373, 0.1203072593, 0.0654525533, -0.1181675270, -0.0766031444, 0.1545466930, 0.0883245692, -0.0010945164, 0.1884255111, -0.1558691114, 0.0222947039, 0.0484091826, 0.0285984930, -0.1331140250, 0.0135015929, 0.0564406104, 0.2529024184, 0.0162731279, -0.2201929390, 0.0968845934, -0.1032175794, -0.0311090089, -0.0654761195, 0.1623265743, -0.1357580721, 0.3482629955, 0.1010159403, -0.0266835708, 0.0044975714, 0.0628066957, -0.0633166879, -0.1374816597, 0.0644211397, 0.0183733553, 0.0507763289, 0.1197301373, -0.0211518034, 0.0293979123, -0.2213980705, -0.1607460976, 0.0534975305, -0.0897158980, 0.0485094041, -0.0879028365, 0.0926735252, -0.0230184589, 0.0532719232, -0.0790891051, -0.0404226780, 0.0342567265, 0.1404476613, 0.0527226068, -0.0134657677, -0.2045206726, -0.0112253223, 0.1220316589, 0.0660119802, 0.1802290231, -0.0203837249, -0.0363700874, -0.0734606385, -0.0109141190, 0.0328407660, 0.1353096366, 0.2063017339, -0.0491870791, -0.1749560982, 0.0964810103, -0.0468290672, -0.1169556454, 0.0155215114, -0.0487202331, 0.1270817369, 0.0012968645, 0.0880329907, 0.1161094084, 0.1309240311, 0.2343604118, -0.0981902778, 0.1086900979, 0.0567465425, -0.0243603997, -0.0984909683, 0.0614415817, -0.4404750764, 0.0758672208, -0.0154429646, 0.1266112477, 0.0278503187, -0.0388382971, 0.0720464289, -0.1370834112, 0.1703077555, 0.0578469671, 0.1390770376, 0.1118874028, 0.1190258861, 0.1749673486, -0.1133517846, 0.0671116635, 0.0634315610, -0.1923380196, 0.0271088798, 0.2017962486, 0.0554471016, 0.1020392478, 0.0279896017, 0.0570705980, -0.0260985233, -0.0556666218, -0.1690915078, 0.1768291742, -0.0622706860, 0.1693882793, 0.0272887703, 0.0503523126, -0.0380665027, 0.0816311538, -0.0102041606, -0.0229050778, 0.0101744737, 0.0841713622, 0.0952601954, 0.0758523569, 0.1165223345, 0.0185308885, 0.0350290686, -0.0286647938, 0.0767634735, 0.0124310507, 0.0867315382, -0.0302419830, 0.1003886238, 0.0031283880, 0.0505375788, 0.2151439786, 0.1118891016, 0.1669580936, 0.0179739874, 0.0850246176, -0.0358196348, 0.0470698327, 0.2610543072, 0.1437748820, 0.0992508158, 0.0680601671, 0.1100104526, -0.0096418196, -0.0572926253, 0.0008211805, 0.1093622297, -0.1395447254, 0.0862086266, -0.0159493331, 0.1070979089, 0.0497020781, 0.1595093310, 0.0166540798, 0.0262427274, 0.0927056223, 0.0320952833, 0.0209724288, 0.1148182750, 0.2010222375, -0.0028958272, 0.0866498649, 0.0903152749, -0.0162405912, 0.0325020216, 0.1042358801, 0.1099991575, 0.0960750431, 0.0871701762, -0.0823501423, 0.0902398378, -0.0859018490, 0.0391054302, -0.1326518506, -0.0317969248, 0.1258013844, 0.0453885421, 0.0672648102, 0.2773759067, 0.0385184847, -0.0943646058, -0.1566690952, 0.1596081704, -0.1031660065, 0.0530576296, 0.0061838171, 0.2590949535, 0.0392130315, -0.0962187126, -0.0139223710, 0.1759336740, 0.0460206456, -0.0049747960, -0.0281413142, -0.0599904470, 0.1364926845, -0.0785644352, -0.0495631695, 0.0582316332, -0.0227819085, 0.2758190930, 0.1361609250, 0.0390746556, -0.0246797297, -0.0352524593, 0.0413818918, 0.0068607973, -0.1922681481, -0.1337950677, 0.0099836681, -0.1092732772, -0.0362146273, 0.0091972025, 0.0495071262, 0.0104911104, -0.0335732661, 0.0114323469, 0.1183645278, -0.0865114629, 0.0358444937, 0.1117009819, 0.1464551389, -0.0842485726, 0.0027568124, -0.1204534322, 0.0301720314, -0.0313453637, -0.0482610874, -0.0328421034, 0.0017952026, -0.0481889360, 0.0480470024, -0.0565751903, -0.0499885827, 0.0967002138, -0.1151691377, -0.0057927370, -0.0231866017, 0.0683178157, -0.1620044112, 0.0679432377, 0.0633390471, -0.0893598497, 0.0574897267, 0.0956150666, -0.0498852022, -0.0500144921, -0.0005653935, 0.0761488676, -0.0205476582, -0.0034757934, -0.0323138349, 0.0135858478, -0.0312725082, -0.0149268573, 0.0316651240, 0.0602838770, 0.0157077480, 0.0069176424, 0.0363968983, 0.1267818958, -0.0417308919, -0.0028722086, -0.0057340339, 0.0230745245, -0.0695106611, -0.0603274852, 0.0121923434, -0.1223131418, -0.0864360034, -0.1072189063, -0.1185922548, 0.0621973425, 0.0699319094, -0.0887431502, 0.0806476325, -0.0076165977, 0.0222166497, 0.1201701090, -0.0345030539, -0.0413957499, -0.1075526625, 0.0462597832, -0.0117334193, 0.0291561913, 0.0304787010, 0.0034886657, 0.0208733659, 0.0211480316, -0.1078286842, -0.0413731746, -0.0228296630, -0.0227936618, -0.0110427029, -0.0596559346, -0.0151663749, -0.0060500270, -0.1285656244, 0.1059754267, 0.0033832102, 0.0436233915, 0.0914929062, -0.2226673514, 0.0836305469, 0.0811249986, -0.0560331829, -0.0068649896, -0.0789073035, -0.0112181297, -0.0265489519, 0.0403680056, 0.0269726757, 0.0071728798, -0.0744551942, 0.0493687131, 0.0309095941, -0.0559480563, 0.0052960832, 0.0117788520, -0.0966217518, -0.1285976171, 0.1018092483, -0.0364222117, 0.1353698075, -0.0880153924, -0.0727680326, -0.0210542195, -0.0604328476, -0.0142647140, 0.0315427780, -0.0034052033, 0.0207771696, 0.0062737847, 0.0925731584, 0.0831232443, -0.0870692506, 0.0285169389, 0.0288910270, -0.0411241800, 0.0529905893, 0.0621585399, -0.0101045417, -0.0113835800, -0.0128922667, 0.1267332435, -0.0494756624, 0.0988414288, 0.1636893153, -0.0224077664, 0.1751296967, 0.0512352064, 0.0078261327, -0.0108574061, 0.0690630749, -0.0050090230, 0.2208658308, 0.1376592517, 0.2205749601, -0.1121650189, 0.0847656876, 0.1014430821, 0.1187221184, -0.2041281760, 0.2657422423, 0.1978752911, 0.1775544286, 0.0521192439, 0.1614345908, 0.0300381240, 0.0413354225, 0.1367883980, -0.0006822284, 0.0496758744, 0.0873881578, 0.1234546602, 0.0603770725, 0.1785893887, 0.1211591363, -0.0987151265, -0.0758440122, -0.0793449432, -0.0392075814, 0.0970062315, 0.0318572149, 0.1629630178, 0.0660848245, -0.0269041974, 0.1738632619, 0.2324838042, 0.0252514258, 0.0034853923, -0.0034171417, -0.0462801494, 0.2004453540, 0.1834261715, -0.0108268177, 0.1411609501, 0.2181002051, 0.0314766876, 0.1128260568, 0.1127863899, -0.0989730582, 0.1258954108, 0.0057233530, 0.1769041717, 0.0348143429, 0.0619259551, -0.2694913447, 0.0630746558, 0.1319113821, -0.0491563939, 0.0742165297, 0.0512105338, 0.0581197739, 0.2129085511, 0.0313447900, 0.0461033396, 0.0578793325, 0.0068846811, 0.0361204594, -0.0058371346, 0.0281811804, 0.0708220303, 0.0332646593, 0.2396369576, 0.0536587872, 0.1572593749, -0.0123162000, 0.0521824956, 0.0656709224, -0.0311080869, 0.0527528264, 0.1585581005, 0.0133320065, -0.0826200545, 0.0835683718, 0.0712987110, -0.1608935446, 0.0766130388, -0.0302216336, 0.0408266187, 0.1005510986, 0.1242662221, 0.2123679668, -0.0727733895, 0.0000150939, 0.0623283908, -0.0600652248, 0.0032697078, -0.1081399918, 0.0505953431, 0.0756290928, -0.0695977956, -0.0531707630, 0.1435799301, 0.0341354273, -0.1657958180, -0.0628658906, 0.0481348485, 0.0984156281, 0.0202056840, 0.0333121382, 0.1301009059, -0.2033214122, 0.1422548145, 0.0155867673, 0.2623655796, -0.1284861714, 0.2693754435, 0.0777998418, 0.0929459706, 0.2257917076, 0.1546813697, 0.0078978734, 0.0768808126, 0.0337964967, -0.0832034498, -0.0499150828, 0.0147942025, -0.0300277341, -0.0717451796, -0.0569678657, -0.2122543156, 0.0727176890, -0.1260317415, 0.2950212061, -0.1996980757, 0.0509814732, 0.1830166280, -0.2270025909, -0.1472908854, -0.0065013757, -0.0495229587, -0.1814074069, 0.3394414186, 0.0909178779, -0.1446030885, 0.0672294125, 0.2087280750, 0.0680446327, -0.0551005416, 0.2631734014, 0.0158736743, -0.0860917270, 0.3047763407, 0.0404884741, 0.1438862681, 0.0710744858, -0.1500231773, 0.0271125082, 0.1849207878, 0.1096530780, -0.5002105236, -0.0407712385, 0.0832961351, 0.2179292291, -0.1880248785, -0.0642861649, 0.0369209275, -0.1793093532, 0.0471113101, 0.0281835534, 0.1787015498, -0.1380001158, 0.1440773457, 0.0769139007, 0.0282515064, 0.1599086076, -0.0019280824, -0.0003215492, 0.0014446988, -0.0369765237, -0.0133912619, 0.1144446284, 0.0180978086, 0.1882724762, 0.0166537259, 0.0681264922, -0.1104458049, -0.1545840651, -0.0067391288, -0.0143684922, 0.1092624813, -0.2060071826, 0.1156088933, -0.1305615157, 0.0661528632, -0.0968032032, 0.0244736709, -0.2263719440, -0.1848440915, -0.1590566635, -0.0163007136, -0.0158856772, 0.0570499822, 0.0979674235, 0.0729360878, 0.0494987257, 0.2271550745, -0.0088611934, -0.0266417414, -0.0494357497, 0.0447899364, 0.0648332909, -0.1572443694, -0.0721381456, -0.2694547474, -0.0487544537, 0.0853117630, -0.0421167575, -0.0311538335, 0.0415798575, -0.0015329181, 0.1514380276, 0.2608890831, 0.2125975639, 0.0328056961, 0.0399620719, -0.0839125216, -0.1464011967, 0.2327603549, 0.2247765809, 0.1175589189, 0.0198753346, 0.2936488390, 0.0913580135, -0.0586046949, 0.1160894409, 0.0904066190, -0.0628005117, 0.2423873991, 0.1131363213, 0.0152344955, 0.0177813191, 0.0375193357, -0.0638058707, 0.0621618107, -0.0549191907, -0.0233770236, 0.0174657851, 0.1958767325, -0.0088919559, -0.0527190641, -0.1013275608, 0.1854429990, -0.2049217969, -0.0486764908, -0.0147255724, 0.1553195715, 0.0886500552, -0.0750926211, 0.1557484716, 0.0336738043, -0.1340683103, -0.0415737554, 0.1504954845, 0.0195520502, 0.0029476804, -0.0128680319, 0.1882071346, -0.0356550850, 0.2534486949, 0.1767247468, 0.1378989667, -0.2283761203, -0.0703223422, 0.0411636420, 0.1712698489, 0.0141498642, 0.0196563173, 0.1879391223, -0.0318461880, 0.0707473978, -0.0643978864, 0.1545404643, 0.0132117774, 0.1127033681, -0.0307388529, -0.2448105067, 0.1130069345, -0.0302818939, 0.0493004806, 0.0001353641, -0.1538489759, -0.0492348038, 0.0957303569, 0.1418517232, -0.0355816148, -0.0503656007, 0.0051673492, -0.0377960131, 0.2325947285, -0.1155870408, 0.2150755823, -0.1932514906, -0.1177337915, -0.1063712612, 0.0550863817, -0.1889634430, -0.0040373267, -0.2031442970, -0.0822962672, -0.1138175726, -0.0047650430, 0.1075889021, -0.2186002880, 0.1350489557, 0.1255072951, -0.1248259991, 0.0150714992, 0.1093826517, 0.1605499685, -0.0541386195, -0.1415997893, -0.2902197242, -0.0441168174, -0.0050418316, 0.1761848032, -0.2063077539, -0.0881246552, 0.1829722077, 0.1924589425, -0.0491495803, 0.0245986320, 0.1167092174, 0.0852829739, 0.0213335995, 0.1682766378, -0.1330067366, 0.1522592455, -0.0892984867, -0.1594037116, 0.2160867751, 0.1315966845, 0.2303034067, -0.0292499475, 0.2366273999, 0.0366925895, 0.2977245450, 0.2452928573, 0.0227326322, -0.1671761572, 0.1394187957, 0.1263848841, -0.0659084767, 0.0529939346, 0.0033560158, -0.2330053151, 0.2032263875, 0.0498548634, 0.0474833213, -0.0373602547, -0.0315249525, 0.1901227236, 0.1314270049, -0.0572547205, 0.1402546614, -0.0126246223, 0.0044108969, 0.0319592059, -0.2106682956, -0.1473011374, 0.0191090629, -0.0830837041, 0.3377622068, 0.0797107741, 0.0469421074, 0.0260977298, 0.0328601375, 0.2427847087, 0.1637681127, -0.1306736767, 0.0502291732, 0.0345744416, -0.0303685311, 0.1067334935, 0.1485202909, -0.0683869049, -0.1011532247, -0.0753458366, 0.0777137652, -0.0038982648, 0.1533144265, 0.0404356010, -0.0023296133, 0.1171462014, 0.1078908816, 0.0474172607, 0.0483773574, 0.1916870028, 0.1751388460, -0.0353976935, -0.0396129079, 0.0519362465, -0.0024374714, 0.0059901532, 0.1542718709, 0.0971662402, 0.1144296080, 0.1135116816, -0.0127440067, -0.0292733628, 0.0728702098, 0.0753069147, 0.0119385459, -0.0490313470, 0.0040168138, 0.0086292895, 0.1009914577, -0.0104313763, -0.1245836094, -0.0044445056, -0.0251531769, 0.0141297188, -0.1534272134, 0.1474791914, 0.0112225041, -0.0748258531, -0.0930046663, 0.0663899779, 0.0248776264, 0.1067356467, -0.1411519498, -0.1418405771, -0.1360106617, -0.0227233302, -0.0274460465, 0.0068648057, -0.0730021968, 0.0439117327, 0.0277740508, -0.0910135880, -0.0788661465, -0.0381742716, 0.0065283738, -0.0759674758, 0.0583075024, -0.0525938831, 0.1595999599, -0.0268796459, 0.0213518851, 0.2390671819, 0.0005836480, 0.0576265231, -0.1383100897, 0.0250998288, -0.2841464877, 0.0496393815, 0.2096175551, -0.0567889363, 0.0423606969, -0.0182290953, 0.0966736749, 0.0171187893, 0.0196345523, -0.1044149622, -0.1374858767, 0.0734881684, -0.0601047687, 0.0488633625, 0.1561833173, -0.0614144653, -0.0002523969, -0.0515899211, -0.1199278906, 0.1450055242, 0.0730825886, -0.1308917999, -0.1944506019, 0.1577750444, -0.0337533392, 0.0147947818, -0.0964618027, 0.0216029529, 0.1694875509, -0.1270459741, 0.0248144120, 0.0837677270, -0.0356043130, -0.0389009714, 0.3100429475, -0.0700336397, 0.0737615004, 0.2669136822, 0.2857907712, -0.1371416301, 0.2264187634, 0.1342103630, 0.1349485964, -0.1040036380, -0.0303383376, 0.4794809818, -0.0739226043, -0.0246603806, -0.0275868513, -0.1983354241, 0.1724897176, -0.0771814436, 0.0685392842, 0.1491210461, -0.0542149432, 0.1373855472, -0.1441601664, -0.0864597186, 0.0797763467, 0.2798694372, -0.0297975354, 0.0968657434, 0.1814486682, 0.0886532515, -0.0535678230, 0.3742954433, 0.0862522721, -0.0446363129, 0.1506663412, 0.2193663418, 0.2701102495, 0.3135614395, 0.0962281600, 0.0510948487, -0.1582789421, -0.0630566180, 0.0635465756, 0.0266877711, -0.1396329552, 0.0446675904, -0.0220859498, -0.0531368554, 0.1487918347, -0.1135341376, -0.1553366780, -0.1488181055, 0.0707718953, -0.0659846887, -0.0922541618, 0.0393487699, -0.0223095249, 0.0037462299, -0.0553296059, 0.1865651011, 0.0551822186, 0.0965661481, -0.1943543553, 0.0509543344, -0.2176510245, 0.1830528826, 0.0838582218, 0.1114851013, -0.0213717744, 0.1560535431, -0.0285280757, 0.0611186624, 0.0487637930, -0.1294534951, 0.1188244894, -0.0839267150, 0.0119633414, 0.0204053745, -0.2328902036, 0.2257433236, 0.0975634456, 0.0351492800, -0.0731781647, 0.0511813983, 0.1235558167, 0.0500991940, 0.0082590980, -0.0431607850, 0.0629664510, -0.1267065853, 0.0138236172, 0.0763945580, -0.0296831429, -0.0712062046, -0.1855708957, 0.0361995287, 0.0909519866, 0.1102923825, 0.0879065990, 0.0453766733, 0.1222319379, -0.0080031622, 0.2547226548, 0.0233812965, -0.1427215487, 0.0711856857, -0.0305829085, -0.1389031559, 0.1622831523, 0.1055904776, 0.1533350497, -0.0740373284, -0.1479461491, 0.2810873091, 0.0185307134, 0.2981890440, 0.1393742561, -0.2028750032, 0.3041658401, 0.0574884713, -0.1619348228, -0.0221731160, -0.0539941452, -0.0856507272, 0.2252352685, 0.1244805604, 0.1528369188, -0.2076330036, -0.0759912059, 0.0473758206, 0.0341866240, 0.2154281586, 0.1350189596, 0.0107308440, 0.0579982102, 0.1544360220, -0.0822723359, 0.0781938583, -0.0707717016, 0.0659294873, 0.0060553695, -0.0306494925, 0.0005081862, -0.0717933029, -0.0663299263, 0.0086851232, -0.0558458418, 0.1869411916, -0.2006599158, -0.3526437879, -0.0750891119, -0.0870971382, -0.0179783031, 0.1559466571, 0.0583604686, 0.1453036666, -0.0144604798, -0.0677376464, 0.0246265624, 0.1783727109, 0.0239321627, 0.0068051741, 0.2202524543, 0.1621455699, 0.2393892854, 0.2840737402, -0.1014782488, 0.0176768303, -0.0024725045, -0.2211643606, 0.0302707441, -0.1909176558, -0.0994840562, 0.1922820807, -0.1750865579, 0.0368827358, 0.0154952062, -0.0008298804, -0.0072066314, -0.1081172600, 0.0591646694, -0.2054769397, -0.3815947473, -0.1017780900, 0.2069858313, 0.1318583488, -0.0870159864, 0.0846233815, 0.3025475144, 0.0375881977, -0.1289547682, 0.0589974858, 0.0481228568, -0.0678650588, -0.0395370498, 0.1875376850, 0.0298870839, 0.0671008453, 0.0643148795, -0.1448369175, -0.0208448339, -0.1391841620, -0.0604672730, 0.0774005949, -0.0513115376, 0.1238097847, 0.0861081854, -0.1125896722, 0.1853812039, 0.0929459780, 0.1270867884, 0.1119937152, -0.0957457125, 0.1191358045, -0.0889960751, 0.0560084768, 0.1012026221, -0.0038564957, -0.0645485520, -0.0142317647, -0.0315653309, 0.0845411792, 0.1426849812, 0.1475521028, -0.0083857914, 0.0942894071, -0.0564100668, -0.0469355173, 0.0145031661, -0.0250335541, 0.1361550987, 0.0994104296, -0.1098508909, -0.0119232861, -0.0164702795, 0.0077789919, 0.0828407854, -0.0040674875, 0.1128505692, 0.0563941896, 0.0781086832, 0.2124529481, -0.0318788253, 0.0447992384, -0.1466954201, -0.0147990920, 0.0515045039, 0.0025984417, -0.0312650912, 0.0087430198, 0.1168383434, -0.1429748982, -0.0773108304, -0.1405016482, -0.0761850327, 0.1930062175, -0.1704266220, -0.0596839488, -0.0280433036, -0.0069812713, -0.0619977564, -0.0507088974, -0.0272300579, -0.1456698328, -0.1049329489, -0.1373224854, -0.0908812061, 0.0468871444, -0.0224202424, -0.1377435774, 0.0414472446, -0.1436367929, 0.0279049575, -0.0035155625, -0.0711032301, -0.0711511970, -0.0565590113, -0.1472197920, 0.0711158961, 0.1242543459, 0.0599052496, -0.1031262279, -0.0799905583, -0.0468108580, 0.0239897650, -0.0766673312, 0.0159709472, 0.0202510208, 0.0072161756, -0.1330377907, -0.0334201530, -0.0726440623, -0.0299742725, -0.0577122457, 0.0101714320, -0.0827231929, -0.0126847057, 0.0000970801, -0.0024982749, -0.0453865789, 0.0162819009, -0.0431338213, -0.0327723548, -0.0356242768, -0.0298363101, -0.0477627888, -0.1899757832, -0.0546905398, -0.0445287488, 0.0062013110, -0.1783739626, -0.0137879672, 0.0434326604, -0.0912500694, -0.0273466539, -0.0044548730, -0.0024551214, 0.0324078724, -0.2653923929, -0.1470812708, 0.0206398945, 0.0274789166, -0.0555709936, 0.0073656957, 0.0082774274, -0.1186625808, 0.0081800474, 0.0828211308, 0.0637637302, 0.0031684146, -0.0051230649, -0.1591634601, -0.0179109387, 0.0724989250, -0.1459684074, -0.0030398013, -0.0152799189, -0.0032718172, 0.0104787610, -0.1496940851, -0.0538631864, -0.0153843462, 0.0576177835, -0.0359620117, 0.0282154065, -0.0238232259, 0.0254469477, -0.0611507259, 0.0746877417, -0.0466756374, -0.0424655974, -0.0999358818, -0.1105626076, -0.0902714282, -0.0396731384, -0.1004258022, -0.0282250494, -0.1103842780, -0.0405683257, -0.0586465299, -0.0205612909, -0.1300658882, -0.0127024613, -0.1013481617, -0.0700404868, -0.0549310446, 0.0008360598, -0.0086064618, -0.2561858892, 0.0302240476, -0.0539601371, -0.0083774365, -0.0350849144, 0.0008914201, 0.0104308957, -0.0859329775, -0.0759925395, -0.0745424703, -0.0569750108, -0.1068385318, -0.0374714546, -0.1401357651, 0.0415771492, 0.0222886242, -0.0869989172, -0.0483231321, 0.0159936864, 0.0324081443, -0.0404051133, 0.0571858920, 0.0151891885, -0.0222525168, -0.0071530398, 0.0020828717, -0.0052401107, 0.0720764399, -0.0954068229, -0.1449811310, -0.0084825596, 0.0019671759, -0.0507568605, -0.0839880109, 0.0296437107, 0.0118186707, -0.0529615916, -0.0310388394, 0.0557135120, -0.1104528084, -0.0290306527, 0.0434916504, -0.0395404249, 0.0256105885, 0.0679482371, -0.0941245556, -0.0170716308, -0.0946794748, -0.0107243536, -0.0359769985, -0.0097947260, -0.0898031294, -0.0302343275, -0.0058848350, -0.0372337475, 0.0487766303, -0.0211903080, -0.0217175838, 0.0540260226, -0.0652267188, 0.0033511503, -0.1113577336, 0.0682180300, 0.0056007449, -0.0172647126, 0.1692716330, -0.0209798347, 0.0080278749, -0.0549474955, 0.0487195291, -0.0208876580, 0.1225121841, 0.0322473086, -0.0149046881, 0.1228459999, 0.0125265997, 0.0838729516, -0.0053491741, -0.0351364799, -0.0675192475, -0.0129027218, -0.0143914744, -0.0213639215, 0.0370826945, -0.0662151873, -0.0431490652, 0.0132730957, 0.0008442525, 0.0042932103, 0.0882993639, -0.0684645176, 0.0630405918, 0.0760677010, 0.0043949340, 0.0731723905, -0.0063694469, -0.0061909226, 0.1411630511, 0.0979796126, 0.0377445072, -0.0328464769, -0.0013652645, 0.0244657025, 0.0775867030, 0.0150944423, -0.0607443936, -0.0345174074, -0.1174974963, 0.0265822355, -0.0284164511, -0.0188167542, -0.0323466472, -0.0860353410, -0.0345969796, -0.0767697468, 0.0384474285, -0.0974743962, -0.0165569689, 0.0384881645, -0.0253347196, 0.0239353161, -0.0181123745, 0.0022206509, -0.0790569037, 0.0416779369, -0.0987916365, -0.0542864129, -0.0104449866, 0.0098396800, -0.0297768097, 0.0668680072, 0.0751342401, -0.0410754457, -0.1112636924, -0.0112512298, -0.0460864119, -0.0405729897, -0.0201906431, -0.0645819902, 0.0065913657, 0.0570189841, -0.0576045811, -0.0545050018, 0.0059885993, -0.0338672698, -0.0958224460, -0.0116347624, -0.0091116987, -0.0009762237, 0.0562391579, -0.1370242387, -0.0212988444, -0.1414766461, -0.0042290408, -0.0279107448, 0.0431021117, -0.0338625275, 0.0304549262, 0.0529758409, -0.0291297734, -0.0615292303, 0.1044526696, 0.0512164496, -0.0184740238, 0.0229741856, -0.0364607461, -0.0226634014, 0.1601277888, -0.0131764803, -0.0429604203, -0.0677479208, -0.1485404372, -0.1802651584, -0.0572824851, 0.0092801265, 0.1149954051, -0.0518839620, -0.0154416338, -0.1490359157, -0.0393642895, 0.0123608699, -0.0950576216, 0.0033186160, -0.0667198449, -0.1033463553, 0.0753419325, -0.0424198024, 0.0303826854, -0.1586209089, 0.1288262904, 0.0402223803, -0.1143966317, 0.1056887433, -0.2477154285, -0.0546426810, 0.0662908256, 0.0363203324, 0.0381124169, 0.0510953367, -0.1050481647, -0.0027670253, -0.1638474613, 0.0730718970, -0.0280229263, 0.1368561983, 0.0317300856, -0.0684943795, -0.0227963869, 0.0919045880, -0.0938433930, -0.0404156297, -0.0754477307, -0.1021882296, -0.0287716780, -0.0116467522, 0.0395071097, -0.2788877487, -0.0008267681, -0.0729492977, 0.0566940308, -0.0887154192, -0.1021692902, 0.0723498836, -0.0095355166, -0.0196280293, -0.0407983810, -0.0125551401, -0.1007900983, 0.0664698854, 0.0204811189, -0.1207078099, -0.0305831451, -0.0123315724, 0.0164466351, -0.0072000599, -0.1798285693, -0.1267216057, -0.0105431313, 0.0179796070, -0.0707856417, -0.0907192081, -0.0408640429, 0.0420752726, -0.0797038227, 0.0647067800, 0.0155679090, -0.0342465788, -0.0407150127, -0.0725775510, -0.1057498604, -0.1910644025, -0.0255376715, -0.3603399694, 0.0609956346, 0.0491186492, -0.0152764469, 0.0114327772, -0.1041118801, -0.0280811451, -0.1343498081, -0.3039174378, 0.0603292622, -0.0934807286, -0.0096945185, -0.0037653688, 0.0645727590, -0.0364560150, 0.0141701037, -0.0633974895, -0.0704027861, -0.0412170365, 0.0060679908, -0.1588360071, 0.1263215840, -0.0409785397, -0.0324846059, 0.0527685359, 0.0737010762, 0.0203731637, 0.2471913695, -0.3025453389, -0.0907910615, -0.0489232540, 0.1194597036, 0.1355221570, -0.0426202938, -0.0733570009, 0.0653758645, 0.0178907085, -0.1206595600, 0.0067959814, 0.0582612790, -0.0134316683, -0.2765911818, -0.0286048464, 0.0708707049, 0.0945173800, 0.0657811165, 0.1976054311, 0.0981347859, 0.1726264805, 0.1298539042, -0.0240366645, -0.0879131407, -0.0175948143, 0.1604615897, 0.3242763281, 0.0790799335, -0.0695453584, -0.0409425534, 0.0334045775, 0.0668784156, -0.0089828037, 0.1370769888, 0.1595865488, -0.0889476985, 0.0020940388, -0.0834844336, -0.0763131902, 0.0517635867, -0.0021145043, -0.0222701095, 0.1183903813, -0.1066231132, 0.0364717953, -0.0070123440, -0.1111347750, -0.1438038349, 0.1951770186, 0.0736353844, 0.0601442382, -0.0184803382, 0.1458784789, -0.1627941132, -0.1746693701, -0.0775490031, -0.0908367038, -0.0076279482, 0.1071105599, -0.0004971484, -0.0445432626, 0.0633164942, -0.0687321126, -0.1373303384, 0.0218943469, 0.0548951663, -0.1877739727, 0.0825430378, -0.0071004140, 0.2469291240, 0.1401642412, -0.1236806288, -0.0040102717, -0.2140837014, 0.0557880737, 0.1930599213, 0.0452788472, 0.0327553973, -0.2178351730, 0.0285383854, 0.0193645358, -0.0156638287, 0.0163607895, -0.0791512430, 0.0098740710, 0.2082077861, 0.1311590970, 0.0615682080, 0.0038176409, 0.1130775213, 0.0509652719, 0.0157777127, -0.1650811434, 0.0418975838, 0.3037705421, 0.1370053738, -0.0707684681, 0.0407192111, -0.1120739281, -0.1332463026, -0.0218770131, -0.2312551141, 0.1916745454, -0.0500098430, -0.0408860296, 0.0643225163, -0.0764053613, -0.1081424132, -0.1995484829, -0.1032083705, 0.0099253207, 0.0102148270, 0.0383196361, -0.0930616558, -0.0313562825, -0.0771860927, 0.1089977548, -0.0100101558, 0.1531771421, 0.4634751678, -0.0114875147, 0.0609802902, -0.0273795929, -0.1476982981, 0.0316382498, -0.0431198180, 0.1467702687, -0.1252822578, -0.0339428671, -0.1038951799, -0.0801442266, -0.0278671496, -0.0599368960, -0.1142376959, -0.0675089732, -0.1029191986, 0.0412207060, -0.0138048679, -0.0381220132, 0.0961948186, 0.0257505029, -0.1168480590, 0.0624830052, 0.2021182925, 0.0420132540, -0.0475583673, 0.0045545893, -0.0059890808, 0.0485115685, -0.1025757492, 0.0354553051, -0.1607316881, 0.0206762459, 0.0508561693, 0.0408435799, -0.0808348507, 0.1323470473, -0.1203416884, 0.0441672429, -0.0830754265, 0.0165106971, -0.0588144846, 0.1863423586, -0.0882371292, 0.1522664875, -0.0749970749, -0.1075797230, -0.1740360260, -0.0966750681, -0.0757787675, -0.0347799808, -0.0401106700, -0.0844806954, -0.0827249363, -0.0919760019, -0.0440272316, 0.0849599242, -0.0847744644, -0.0646286830, 0.0315457620, -0.1471064985, 0.1119884551, -0.1029723883, -0.1018419042, -0.0984212682, 0.0520725213, 0.0262849871, -0.0045871623, -0.0327582583, 0.0010308580, 0.0250353254, 0.0432588570, 0.0011799041, 0.0798590407, 0.0643033758, 0.0543765575, 0.0592218339, -0.0313900039, 0.0739021525, -0.0255539119, 0.0237369351, 0.0653798431, 0.0658277273, -0.0638805404, -0.0280344188, -0.0745357350, 0.1361503899, 0.0250453614, -0.0842920840, -0.0361928344, -0.1507805735, 0.0455262698, 0.0596775860, 0.0357372612, -0.0728492141, -0.1403561085, -0.0071453708, -0.1566094160, 0.0780758932, -0.0433291346, -0.0999307111, -0.0547420010, -0.1448221952, 0.0326486751, 0.1890044808, -0.1516387165, 0.0497288704, -0.0530236065, -0.0956966430, -0.0061910367, 0.0333918221, -0.0306815486, -0.0168235544, -0.0790841505, -0.0863174722, 0.1055996418, -0.0737464949, -0.0479876846, -0.0120676784, -0.0286410358, 0.0279111695, 0.0776214674, -0.1018030420, -0.0619846545, 0.0463526100, 0.1432921886, 0.1041028649, -0.0950471833, -0.0275305100, -0.0643809140, 0.0133865820, 0.0262704100, -0.0614443533, 0.0485761464, -0.0881051943, -0.0091429027, 0.0718262568, 0.0446919203, 0.1128271818, 0.0325413719, 0.0136056971, -0.0248116143, -0.0333933085, -0.0526513793, 0.0715197995, -0.0858825222, 0.0031961026, 0.0306758992, -0.0462563969, -0.0647244006, 0.1236287132, -0.0425890908, -0.0111885592, 0.0728097111, 0.0484626144, 0.0350304954, -0.0159801729, 0.0119127268, -0.0397406928, -0.0541512743, -0.0879414752, 0.1000047252, 0.0804098994, 0.0697148293, 0.0174146593, -0.0774698108, 0.0258058123, 0.0033797363, -0.0890704840, -0.0673186779, 0.0841906518, -0.0299578086, 0.0372701026, -0.0406076163, -0.1235596389, 0.0098950574, -0.0358600654, 0.0978227258, 0.0812588558, 0.0190455746, -0.0543821789, 0.0708616152, -0.0653591827, 0.1228929609, 0.0642193854, 0.0034174402, -0.0702802762, -0.0210531671, 0.0125869913, 0.0149415564, 0.0015378122, 0.0232452918, -0.0251002628, -0.0195422620, -0.1037083566, 0.0661022067, -0.0253361799, -0.1641394645, -0.0456976406, 0.0328737684, 0.0303062275, 0.0058290754, 0.0165555906, 0.0623749755, 0.0084401472, 0.0066156224, 0.0050116507, -0.0323071294, 0.0250620972, -0.0509913042, -0.0377400033, 0.0044737393, -0.0903348774, -0.1343489289, 0.0669564083, 0.0141491536, 0.0858443230, 0.0098414915, -0.0179447848, 0.0126804383, -0.0205005854, -0.0125522446, -0.1223167554, -0.1031141430, -0.0565776676, 0.0514835343, -0.0212581158, 0.0595960282, -0.0003815552, 0.0315585807, 0.0732688755, -0.0155615285, 0.1108175367, -0.0255548712, -0.0844596922, 0.0804537460, 0.0784896538, -0.0543148071, -0.0825526640, 0.0240540877, -0.0066998214, -0.0632697269, -0.0197145380, 0.1149760261, -0.1034370959, 0.0544732474, -0.0634298846, -0.0812030360, 0.0171451457, -0.0192161910, -0.0094701434, 0.0366181023, 0.0083204545, -0.0391498916, -0.0481116250, 0.0561065935, 0.0337659419, 0.0288560186, 0.0007965771, 0.0225500800, -0.0134767499, 0.1865762323, -0.0121862832, -0.0290395226, -0.0780579671, -0.0141686704, -0.1327916384, 0.0350169726, 0.0274100974, 0.0529039204, 0.0057860035, 0.0608452559, 0.0724425763, 0.0621673539, -0.0758826286, 0.0841152146, -0.0193788353, 0.2192275524, 0.0602801628, 0.1966650039, 0.0654343739, -0.0163052343, -0.0353548676, -0.0210496988, -0.0840090737, -0.0630198792, 0.0275296997, 0.0684776828, 0.0425716192, -0.0017419097, -0.2005263120, -0.0246150047, 0.0663163215, -0.0540261306, -0.1191522703, -0.1094850525, 0.0551745817, 0.1455277652, -0.0116128540, 0.1033435315, -0.1673455983, 0.0849082544, 0.1312887222, -0.3505055904, 0.0432666093, -0.0182586964, -0.1808605343, 0.2002247274, -0.0071446751, 0.1057917103, 0.1268827915, -0.0657269210, 0.0206267126, -0.1322553903, 0.0289320257, 0.0927144438, 0.0437357053, 0.0090061594, 0.0610555373, 0.0190709531, 0.0128657762, 0.0141000226, 0.0425537936, -0.0028411732, -0.1633428782, -0.0059035728, -0.1215747967, 0.1357655674, -0.1016920879, 0.0281370580, -0.1074167266, -0.0179453585, 0.0311289001, -0.0912706628, -0.1183994338, 0.0285770260, -0.0933702737, 0.0474162623, -0.0654894188, -0.0643137097, 0.0774392188, 0.0725689232, -0.0290306080, 0.0308097005, 0.0811946839, 0.0647814646, 0.0388399437, -0.1179065108, -0.3603675067, -0.1518959999, -0.0505976826, -0.1313484609, -0.0188819468, -0.1311978251, 0.1488387436, -0.0069751451, -0.0620095842, -0.0825321972, -0.0008219787, 0.0928871259, -0.0181364678, -0.0187017899, 0.0118319830, 0.1376196295, 0.0337567292, 0.0431309119, 0.1162355095, 0.1995086372, -0.0194300096, -0.1162658185, -0.0088733118, -0.2389431596, -0.0379486717, 0.1309643835, -0.0773315728, -0.0619447529, 0.0018377959, 0.0041028224, -0.0644751638, 0.1799682230, -0.0642965361, -0.1452305913, -0.1329384744, -0.1150511280, 0.3640168011, 0.0323849060, -0.0350573547, -0.0680161342, -0.1531902254, 0.1396912187, 0.1289429814, 0.1302164346, 0.0217289831, 0.1004461050, -0.0554065332, 0.1150725558, 0.0210172087, -0.0665037408, 0.0194633268, 0.1909984052, 0.0678183064, -0.0136945099, -0.0997611359, -0.0952282771, 0.1073979437, -0.0691636875, -0.0592141710, -0.0689175650, 0.0627687052, 0.1000539437, 0.2942742407, 0.1433153898, -0.1092483029, -0.1809760481, -0.1341476589, -0.0564546399, 0.0799618587, 0.1452577412, 0.3167592287, -0.0455331430, 0.2247445732, 0.0487556495, -0.0552939698, 0.0296584982, 0.0996962115, 0.0354938507, 0.1913314313, 0.1700616181, -0.0017494063, 0.0732761472, 0.0652670190, -0.0656702444, 0.0928618461, 0.2392915338, -0.0521919020, -0.1521051079, 0.0820172578, 0.0589119792, 0.1780364662, 0.0635870770, -0.0366729982, 0.0111572500, 0.0906482339, 0.1032834649, 0.1335869730, -0.0595666990, -0.1100915819, 0.0996543691, 0.0225847140, -0.1378986239, -0.1609115601, 0.2345602810, -0.2157869637, 0.2204834819, -0.0518325716, -0.2274824977, 0.1854876429, 0.0729445145, -0.0910059884, -0.1939002126, 0.0322887860, 0.1489025652, 0.1495542228, -0.1880436391, 0.0314441063, -0.2140875012, 0.1209806725, -0.0449332595, -0.0071714837, -0.0120639754, -0.2594053745, 0.1564193219, 0.1442859024, 0.1591925174, -0.1412955374, 0.1759938747, -0.1808387041, -0.0877546892, 0.0255764909, 0.1538248062, -0.0382177867, -0.1021452621, 0.0765945762, -0.0349502265, -0.2174610794, 0.1454320401, -0.2966100872, 0.0372931249, -0.0462333560, 0.2544170916, -0.1000730619, 0.1362611651, -0.0127774980, -0.1472355574, -0.0571231991, 0.0178429410, -0.0489060469, 0.2226252556, 0.0065130047, -0.0479931347, -0.1062448248, -0.0589107312, -0.1971687227, 0.0357928462, 0.1443043947, -0.0457255691, -0.0894599184, -0.0295976028, -0.2571681142, -0.1992393583, 0.0026074809, 0.0560802557, -0.3207252920, 0.0809811279, -0.0737349018, -0.0554258414, -0.1366450936, -0.0056521506, 0.2643781900, -0.0724547654, -0.1594098210, 0.0366170444, -0.1673863232, 0.0899447948, -0.1589221656, -0.0295716207, -0.0624050014, -0.0848704055, -0.2847278714, -0.2455852479, 0.0407816768, -0.1642611325, 0.0652049705, 0.2271785438, -0.0743803158, -0.3508602083, 0.1066382825, -0.0202435460, 0.0493934564, -0.1154355705, 0.0315763429, 0.1626894325, 0.1999148875, 0.1347391903, 0.0584785603, -0.1138990298, -0.0275968332, -0.2357013971, 0.1374787092, -0.1700176597, -0.0034797327, 0.0495159552, 0.1304989606, 0.0389426649, 0.1285191476, 0.0604293868, 0.0659217313, 0.0026105745, -0.0405954123, -0.0836490244, 0.1801820546, -0.1151056588, -0.1084210873, -0.2308307290, -0.0830750689, -0.0760253444, 0.0739622042, 0.0110775456, -0.0827016756, 0.0296178982, -0.0135438042, 0.1390332133, -0.0538626388, 0.0763049796, -0.1070684791, -0.1014704406, -0.0628135577, 0.2119285017, 0.0633913204, 0.0272887796, 0.0204082988, -0.1532484442, 0.0287385155, -0.0367177427, -0.1430029869, -0.0379968956, -0.0811895281, -0.1331564933, -0.0436214171, 0.0935739502, -0.1682576239, 0.0894616172, 0.0526220612, -0.0951925665, -0.0391219258, -0.1224194169, -0.0227454882, -0.0263885483, -0.0585709140, -0.1335048676, 0.0590395965, 0.0915372819, 0.0237788279, -0.0038182386, 0.0130482158, -0.0397416353, -0.0694119707, -0.3315446377, -0.0054288157, -0.2736391723, -0.0674351379, 0.0216531307, 0.1029861793, 0.2411720008, 0.0561612807, 0.0536973514, 0.0702252761, -0.0278532449, -0.0366647914, -0.0656461641, -0.1999889761, 0.0135427555, -0.2081467807, -0.0150211425, 0.0391938873, -0.0484927557, -0.1609701663, -0.0761090294, -0.1886443347, 0.1313145459, 0.0988280997, -0.2860373557, -0.0355311334, 0.0355879292, 0.0006336300, 0.2234202623, -0.0926734731, -0.0949648023, 0.0262694228, 0.1488677263, 0.0128149958, 0.0268737208, 0.0683142692, -0.0796841457, -0.0607223138, -0.0094549488, 0.0750975758, -0.0649620369, 0.0098073790, 0.0020458107, -0.0736177787, -0.1821757108, 0.0182745624, 0.0753521770, 0.0018294604, 0.0568976142, 0.0834398046, 0.0503662340, -0.0727292448, 0.0125384750, -0.0228916034, 0.0979921147, 0.1102681905, -0.0906587690, -0.0644354746, 0.1160889342, 0.0225950815, -0.0112247299, -0.1257565022, 0.0895247534, 0.1342541873, -0.1311056614, -0.0060386080, -0.0187042560, 0.0919998363, -0.0983346701, 0.0778500736, 0.0073982272, -0.1924065650, -0.0785624385, -0.2076507062, 0.0585125946, 0.0953750089, 0.1699423194, 0.1164833829, 0.0986806303, -0.0632935464, -0.0104306303, 0.0102766976, -0.1433546841, 0.0594906695, -0.0720062852, 0.0047554551, 0.0036627976, 0.0295713656, -0.1520075053, -0.0510430373, 0.0868114233, -0.0192474239, -0.0296912827, -0.2172932178, 0.0382537432, 0.0571610518, -0.0280221496, 0.0842573941, 0.0121101718, 0.1841954440, -0.0444333330, -0.0458252206, 0.0519762523, -0.0367189683, 0.0377736539, 0.0348885804, 0.0223985650, 0.0341589898, 0.1359945983, -0.0356851742, -0.0559473261, -0.1999958307, -0.2019091547, -0.3356301486, 0.0480013713, 0.0413318910, -0.0402185284, 0.0389418267, -0.1046026796, -0.0283089317, -0.0369349048, -0.0714416355, 0.0420627110, -0.0485093892, 0.0606392771, -0.1898626089, 0.1459757686, -0.0585250668, 0.0721311346, -0.0094329342, 0.0082912976, -0.0754569098, 0.0782787353, 0.0645074397, -0.0004616553, 0.0592248216, -0.1253978163, -0.0565997474, -0.0526425168, 0.0685972422, -0.0281703044, 0.1586758345, -0.0574938804, 0.0080506355, -0.0125097064, -0.1750119030, -0.0626977906, -0.1070972085, 0.0924774185, -0.0163712762, 0.0635232925, -0.0987135023, -0.1906112880, -0.0113345096, -0.0490567647, -0.1257610470, -0.0896362513, 0.0934796780, -0.0523080863, 0.0397602245, -0.0503096431, 0.0032082410, -0.0405282974, 0.0275122821, -0.1211202666, 0.1352835298, -0.0773064867, 0.2121942341, -0.0747737065, -0.1792828143, -0.0478376485, -0.0036934868, -0.0333995409, 0.0226248950, -0.0374492928, 0.0999153480, 0.2356098592, -0.0966640487, 0.1340834051, 0.0222349409, -0.3475116491, 0.0590024926, -0.0586549379, 0.0596045591, -0.1865106672, -0.1352952719, 0.0032950542, -0.0694759786, -0.0322229676, -0.2276076972, 0.0321053043, -0.0989010707, 0.2817817330, -0.2511385381, 0.1078036949, 0.1847724468, -0.0368979573, 0.0804060549, -0.4025997519, 0.1586637050, -0.1051943004, -0.0006401586, -0.0203951094, -0.0099308454, -0.0668515339, 0.0641544387, -0.1679629236, 0.1637136340, 0.0174593516, 0.3089489043, -0.1271955371, 0.0238832124, -0.0915752277, 0.0115748849, 0.0752196684, 0.0970154926, -0.1775413901, -0.1548388451, -0.0389805399, 0.0487409197, 0.1639524102, 0.1862929910, 0.0790692195, 0.2477460802, 0.2835260928, -0.1370821446, 0.0231412910, -0.0878299475, -0.1542865932, -0.2426003218, 0.0309978891, -0.0737732798, -0.1338754445, -0.0438551493, 0.0484786145, -0.0484012738, -0.0247481707, 0.1151365042, -0.0022386264, -0.0475662574, -0.1260056496, -0.0806265995, 0.3797722459, -0.1114146486, 0.0831471309, -0.0558226705, -0.0407028720, 0.1741635352, -0.1705136448, -0.1294344962, 0.2082271576, 0.2156142294, -0.0151155042, 0.1529718488, 0.1429496855, 0.1633299738, -0.1025688648, -0.0294725131, 0.0628397167, -0.0164992325, 0.0233328324, 0.0995584205, 0.0864269659, 0.0143551882, -0.3228395283, 0.0140932137, 0.1010871604, -0.0530058630, -0.3039970696, -0.3107095063, -0.0080432165, -0.0183499530, 0.1128084138, 0.0324855149, -0.0724256858, 0.1816763729, 0.0224170070, -0.0615820251, 0.1126006991, -0.0132977096, -0.0627597868, 0.0577148460, 0.0805143192, 0.1345809698, 0.0697955787, 0.0169192050, 0.0182922985, -0.0796592534, -0.0147230728, -0.0004296242, -0.0904911906, 0.0291776322, -0.0065578963, 0.1363902688, -0.0583185628, -0.2348541319, -0.0691280812, -0.0780805647, 0.0619374029, 0.1181454435, 0.0642912611, -0.2312063873, 0.1458035558, -0.1646582335, 0.0143250767, -0.1591755301, 0.0755544677, 0.2050929666, 0.0058404137, 0.0793764517, 0.3054123521, 0.1572977006, 0.1482254267, 0.4082822800, -0.0137308724, -0.0490138493, 0.0819536522, 0.1316647679, 0.0566049740, -0.0092684664, -0.1020040065, -0.0609866865, -0.0390473530, -0.0712260678, 0.0366614275, -0.0902371332, 0.0934306383, 0.1384243518, -0.1400157362, -0.0634298548, -0.0314811841, -0.2125344127, 0.0580971055, -0.1727211475, -0.1445780545, 0.1404467374, -0.0946158469, 0.0066537573, -0.0734985694, 0.0666899458, 0.1987615228, -0.1136049181, -0.0991149694, -0.0922049507, -0.0909169465, -0.0139490925, -0.1506084502, -0.0636542216, -0.2789561450, -0.0864161998, -0.1554943919, -0.1725586802, 0.0603501089, -0.0279196836, 0.0236859061, -0.0271663107, -0.1468199492, 0.0427025221, 0.0449743234, -0.1659032553, -0.1436310112, -0.0882872120, 0.0193422958, -0.0191853978, -0.1037998646, -0.0316591039, -0.0663699284, 0.1051254198, 0.0195105392, 0.1727942228, -0.1632357538, -0.1394153535, 0.0238354206, 0.0078487564, -0.0115174670, 0.0723529160, 0.2615319490, 0.1425647885, -0.1056589708, 0.1510502696, -0.1270738989, 0.1886288971, -0.0651898161, 0.1382466853, 0.0317705944, 0.2860865891, -0.0647337884, -0.1660990268, 0.0009814643, 0.1228060797, -0.1010262966, 0.1650994122, 0.0125247436, 0.1152632684, 0.0958703905, 0.1878089011, -0.0062341075, -0.2211607099, 0.0098287966, -0.3861476481, 0.0180921797, 0.0888419822, -0.4953097105, 0.0192281120, -0.2383311093, 0.3270367682, -0.0126735512, -0.2043088675, -0.0350453630, -0.1622836888, -0.1467657089, -0.2702091634, 0.0350150354, 0.3072599471, -0.1173250675, 0.1732419580, -0.1647375077, -0.0102540972, -0.0138041331, 0.0215047896, -0.0114043411, -0.0406728163, -0.1234136298, 0.0726504922, 0.2002462447, 0.1672977954, 0.1961586773, 0.0712022856, 0.1700556725, -0.1602895707, 0.0210041534, 0.2044439167, -0.0219880957, -0.0197160654, -0.0351108015, -0.0526884682, 0.0142742656, -0.1665615588, -0.0793324411, 0.1901064068, 0.2918696105, 0.1286451221, 0.0688883215, -0.1555204093, 0.1391638517, 0.0145878540, -0.2006499916, -0.1456089467, -0.0037421836, -0.0882167220, 0.0700303912, 0.1197932437, 0.2550405562, -0.1087189913, 0.1732863784, -0.0964257047, 0.0807776004, 0.1023792326, -0.0875297114, 0.0129037667, 0.0329643339, -0.1634293497, 0.0384031162, -0.0197690595, 0.0641344860, -0.1398525238, -0.0175562240, 0.0170934312, -0.0219874308, -0.0033432245, 0.0352437049, 0.0134410989, -0.1326442510, -0.1442095637, -0.1123652235, 0.0845156163, -0.1575689763, 0.2277495265, 0.1136642247, 0.0032423749, 0.0170986410, -0.0468810983, 0.1698494703, -0.0520185530, 0.1343684644, 0.0328406803, 0.4109733105, -0.1299786270, -0.2302525491, 0.0981746316, -0.0007766592, 0.2386052608, 0.0037435095, -0.0428221971, 0.0956000462, 0.1880323142, -0.1078885347, -0.1000679880, -0.0540824160, 0.1510739475, -0.0200796034, 0.0961485207, 0.0593828224, -0.1634750217, 0.2780364752, -0.0165245160, -0.0699538141, -0.0145343877, -0.0713669807, 0.0850942880, 0.1312058419, -0.0124879908, 0.0163366888, 0.0648137033, 0.0336378366, -0.0848264545, -0.1061666086, -0.0198088530, -0.0507006533, -0.2013034672, 0.2083699852, 0.1070982441, 0.0938689560, -0.0110160541, 0.0333708934, 0.1349382848, 0.0361047648, 0.2697890401, 0.0194220319, 0.0031659107, 0.1117077917, 0.1180416122, -0.0224892944, -0.1931216568, 0.0357057899, -0.0446225591, -0.1520016789, -0.1157910302, 0.1255961806, -0.0745119601, 0.1060408279, 0.0567735992, 0.2099008411, 0.0376550630, -0.0452024974, -0.1085387841, -0.2088458091, -0.0740392879, 0.0638399273, -0.0349214822, -0.0318958089, 0.0405238532, -0.2368932813, -0.0146604748, 0.0772171393, -0.0590980835, 0.1881560683, 0.0067592636, 0.0483028442, 0.0502925180, 0.0776131451, 0.0153048597, -0.0151540991, 0.0587906614, 0.0451616421, 0.0207558963, -0.0169478599, 0.0364841335, 0.0525501929, -0.1190508157, -0.1709711552, 0.0357268080, 0.1256843060, -0.2121985555, -0.0864479691, 0.1678972840, 0.2079736292, 0.0071255951, 0.0714738369, -0.1732656956, -0.0375616513, 0.0369186737, -0.0678393245, 0.1139557064, 0.1460905224, 0.0041937740, -0.0431543477, -0.0742131248, 0.0324175172, -0.0059946678, -0.1471958756, -0.0756648034, -0.0813525170, -0.0997556373, 0.0229067132, -0.1736724973, 0.0450297184, -0.0551720411, 0.0777009651, 0.0013493735, 0.0489267670, 0.0627774000, -0.0074298168, -0.0003378598, -0.0900903493, 0.0113248220, -0.0522244088, -0.0173122417, -0.0902841017, 0.0055977870, 0.0089191739, -0.0527279414, -0.1243067682, -0.0255338997, 0.1188321337, 0.0978192016, -0.0434980914, 0.1653977334, 0.0864727944, -0.0634635091, 0.0764422938, 0.0595709495, 0.0722256377, 0.1226041019, 0.1053290963, -0.0121199489, 0.1106468663, 0.0538755506, -0.0427861959, 0.0368573442, -0.0077388617, -0.0915600508, -0.0264370013, -0.0084156347, 0.1018347293, 0.0682821795, -0.0387584567, 0.1277956963, 0.0917648673, -0.0519709885, -0.0425897725, -0.0724576190, 0.0849475414, 0.0678639486, 0.0453764386, 0.0974795893, -0.0228922237, -0.0937694237, 0.0547927245, -0.0857352316, 0.0839167163, -0.0179690085, -0.1202253103, -0.0104159210, 0.0621964484, 0.0112053594, 0.0207158048, -0.0268108323, 0.1058885455, -0.0953052789, 0.0211637970, -0.0667021871, 0.0068116714, 0.1661646068, 0.0340924002, 0.0084495703, -0.2957381010, -0.0620262437, -0.0238842759, 0.0745381787, -0.0232445169, -0.1011081561, 0.0741198510, -0.0912123993, -0.0962158889, -0.0133722741, 0.0542281270, 0.0504662432, 0.1080507115, 0.0375216827, 0.0411143899, 0.0236684270, 0.0233293567, -0.1988611966, 0.4046910703, -0.0514041968, -0.0852495581, -0.1109235734, -0.1375421733, -0.2764271796, -0.2802567184, -0.0631353408, 0.1866976172, 0.0494426265, 0.1030828953, -0.0682297722, -0.2264045775, 0.2030698657, -0.1279543042, -0.1149637774, -0.0284610763, 0.0459559523, 0.0699738637, -0.0851513222, -0.1403766423, 0.2025776654, -0.0614978857, 0.1108511537, -0.0975240469, -0.1496177167, 0.1535058767, 0.0781276524, 0.0523545891, -0.0729069710, -0.0180010609, 0.1038281024, 0.0495376028, -0.2450773567, 0.0963436812, 0.0124643352, 0.3078663349, 0.0148648666, 0.2117313296, 0.0604654849, -0.0721468106, 0.1611675024, -0.0966466144, -0.0386535004, -0.1655208468, 0.0184004847, 0.0923501253, -0.0375578515, 0.1585482508, 0.0490221083, -0.0196436569, 0.0057183946, -0.1206616163, 0.0373374373, -0.1338435709, -0.0146531332, -0.1522980332, 0.1743957549, 0.0469367020, 0.1136284769, -0.0579312555, -0.0313662477, -0.0071868920, 0.1704694927, -0.1658359319, 0.0512787066, 0.0555607118, 0.0169771276, 0.0147522138, 0.0844926536, -0.1186232567, 0.1116284728, 0.0084573319, -0.0692787021, 0.2349639833, -0.1000748947, 0.0874492899, 0.1719157398, -0.1205339432, -0.2029834539, -0.2666998208, 0.0179784130, -0.0930542275, -0.2322730422, -0.0456125103, -0.0407148413, 0.0060488037, 0.0034143720, 0.0975309908, 0.1417477280, -0.1172940210, -0.2129521966, 0.0712246895, -0.2104875147, 0.1504345089, 0.1365045458, -0.0785124749, 0.3735783398, 0.0235763546, -0.1192655414, -0.0307109468, -0.0070486949, -0.0721311569, -0.1990837306, 0.0526408851, -0.0013994341, -0.2873568535, 0.0074201277, -0.0604685135, -0.1947342902, -0.0958946720, 0.1100212634, -0.0279631242, -0.2143777907, 0.0481445119, 0.0399276577, -0.1070727184, 0.0139863566, 0.0100502213, -0.1120231077, -0.0117931142, -0.0043316572, 0.1024936289, -0.0781830177, -0.0890107751, 0.1256324500, 0.0458456054, 0.0350420326, 0.0955551118, 0.1197112054, 0.0418216363, 0.0471577868, -0.0042272760, -0.0359300599, 0.1912518889, -0.0042076260, -0.0015259867, -0.0294780228, 0.2420769483, -0.0564804412, 0.0593630187, -0.0494291410, -0.1464554816, -0.0466856547, -0.0253947768, -0.1638614088, -0.0478217192, -0.0092665059, 0.0501887426, 0.0550925732, 0.1502947509, -0.1390717477, -0.0894930363, -0.2466634661, -0.1194691285, 0.0047911117, -0.0512342192, 0.0017714773, 0.2290645689, -0.1334344000, 0.4116827846, -0.0925572589, -0.0599699207, 0.1723599732, -0.0771851614, 0.0068968651, -0.0678508058, 0.0572054088, 0.2865422070, 0.0530289672, 0.2605341077, 0.1067045033, 0.0686014146, 0.1268367469, -0.2718175650, 0.2008334398, 0.0970710292, -0.2026835233, 0.0567500442, 0.0466910191, -0.1342705935, 0.0639362857, 0.1356059313, -0.0020503222, -0.0187363792, 0.2047279030, -0.0442631245, 0.1054833382, 0.0664239004, -0.0504376180, 0.0684840083, 0.0795755982, 0.0475564115, 0.0841055438, -0.2187663317, -0.0159823503, 0.1025706232, 0.0206730943, 0.1947717518, -0.0650742576, -0.1830643266, -0.0315449573, 0.0247760788, 0.0325029343, -0.0046555982, -0.1363590509, 0.0205170307, 0.0697894990, -0.1236392558, -0.0413064770, -0.0393076800, -0.0927339941, 0.0282128770, -0.0425062403, 0.0530994833, 0.0188842900, 0.0092121288, 0.1709055007, -0.1085497066, 0.0575382449, -0.1435318440, 0.0584617294, -0.0023209904, 0.1764826775, -0.0847434402, -0.0103603452, 0.0269012023, 0.0017188089, -0.0002683534, -0.0496925004, -0.0183194764, -0.1644845009, 0.0183525961, 0.0076577337, 0.2692130506, 0.0677680522, -0.0827487111, 0.0825408399, -0.0006293887, -0.0349864550, 0.0567864440, 0.0516094454, -0.0493139811, 0.0397379659, -0.1390507817, 0.0565676764, 0.0857189372, -0.0143839298, 0.0803288743, 0.0882764980, 0.1690691561, -0.0093420465, 0.0860059559, 0.2330539078, 0.1062336490, 0.0552886054, -0.0165148508, 0.0916649327, 0.0747374520, 0.0509675667, 0.1812866479, 0.1358246058, 0.0815767571, 0.0466450825, -0.1249703020, 0.0025067111, 0.1135081723, 0.0500141680, 0.1215971187, 0.0875405148, 0.0288692471, 0.0781298429, 0.0232391637, -0.0351423137, 0.1481493711, 0.0402594544, 0.0521330051, -0.0158178173, 0.0645449162, 0.1845724732, 0.1636508405, 0.0603462271, 0.0717521757, 0.1273261905, 0.0587420836, 0.0474745184, 0.0869352892, -0.0086738123, 0.1802975088, 0.0355688520, 0.0578466430, 0.0310389604, 0.2344356477, -0.0512319282, 0.0190695524, 0.1844449639, 0.0886624083, 0.0064448677, 0.0076120677, 0.2239343077, 0.0669518039, 0.1528709680, 0.0789845139, 0.1136476249, -0.0627052113, 0.0343011320, -0.1288605183, 0.3160666227, 0.1668329686, -0.0205582436, -0.0913250372, 0.0839562342, -0.0057129296, -0.0486899354, 0.1680239290, -0.0150624709, -0.0175301228, -0.0377147011, 0.0097589251, 0.0417827964, 0.0941908136, -0.0328366198, 0.1472001672, 0.1323026419, 0.1413048655, 0.1080852747, -0.0275122896, 0.0396114774, 0.1565578431, -0.0759981573, 0.0528828688, -0.1175017431, 0.0469014980, 0.0261835605, 0.0793619230, 0.1498794556, -0.0399168804, -0.0677980483, 0.0546445660, 0.2003459632, 0.0565662794, 0.0190685205, 0.0015027367, 0.0854494348, 0.0139999464, 0.0646185875, -0.0183082148, 